SVM-light Version V6.02
0 # kernel type
3 # kernel parameter -d 
1 # kernel parameter -g 
1 # kernel parameter -s 
1 # kernel parameter -r 
empty# kernel parameter -u 
3 # highest feature index 
193 # number of training documents 
122 # number of support vectors plus 1 
1.000876 # threshold b, each following line is a SV (starting with alpha*y)
-1.0954933605055481 1:1 2:0 3:0 #
1.0954933605055481 1:1 2:0 3:0 #
1.0954933605055481 1:0 2:1 3:0.02 #
-1.0954933605055481 1:0 2:1 3:0.02 #
-1.0954933605055481 1:1 2:0 3:0 #
1.0954933605055481 1:1 2:0 3:0 #
-1.0954933605055481 1:1 2:0 3:0 #
1.0954933605055481 1:1 2:0 3:0 #
-1.0954933605055481 1:1 2:0 3:0 #
1.0954933605055481 1:1 2:0 3:0 #
-1.0954933605055481 1:1 2:0 3:0 #
1.0954933605055481 1:1 2:0 3:0 #
-1.0954933605055481 1:1 2:0 3:0 #
1.0954933605055481 1:1 2:0 3:0 #
-1.0954933605055481 1:1 2:0 3:0 #
1.0954933605055481 1:1 2:0 3:0 #
-1.0954933605055481 1:1 2:0 3:0 #
1.0954933605055481 1:1 2:0 3:0 #
-1.0954933605055481 1:1 2:0 3:0 #
1.0954933605055481 1:1 2:0 3:0 #
-1.0954933605055481 1:1 2:0 3:0 #
1.0954933605055481 1:1 2:0 3:0 #
-1.0954933605055481 1:1 2:0 3:0 #
1.0954933605055481 1:1 2:0 3:0 #
-1.0954933605055481 1:1 2:0 3:0 #
1.0954933605055481 1:1 2:0 3:0 #
-1.0954933605055481 1:1 2:0 3:0 #
1.0954933605055481 1:0 2:1 3:0.02 #
-1.0954933605055481 1:0 2:1 3:0.02 #
1.0954933605055481 1:1 2:0 3:0 #
-1.0954933605055481 1:1 2:0 3:0 #
1.0954933605055481 1:1 2:0 3:0 #
-1.0954933605055481 1:1 2:0 3:0 #
1.0954933605055481 1:1 2:0 3:0 #
-1.0954933605055481 1:1 2:0 3:0 #
1.0954933605055481 1:1 2:0 3:0 #
-1.0954933605055481 1:1 2:0 3:0 #
1.0954933605055481 1:1 2:0 3:0 #
-1.0954933605055481 1:1 2:0 3:0 #
1.0954933605055481 1:1 2:0 3:0 #
-1.0954933605055481 1:1 2:0 3:0 #
1.0954933605055481 1:1 2:0 3:0 #
-1.0954933605055481 1:1 2:0 3:0 #
1.0954933605055481 1:1 2:0 3:0 #
-1.0954933605055481 1:1 2:0 3:0 #
1.0954933605055481 1:1 2:0 3:0 #
-1.0954933605055481 1:1 2:0 3:0 #
1.0954933605055481 1:1 2:0 3:0 #
-1.0954933605055481 1:1 2:0 3:0 #
1.0954933605055481 1:1 2:0 3:0 #
-1.0954933605055481 1:1 2:0 3:0 #
1.0954933605055481 1:1 2:0 3:0 #
-1.0954933605055481 1:1 2:0 3:0 #
1.0954933605055481 1:1 2:0 3:0 #
-1.0954933605055481 1:1 2:0 3:0 #
1.0954933605055481 1:1 2:0 3:0 #
-1.0954933605055481 1:1 2:0 3:0 #
1.0954933605055481 1:1 2:0 3:0 #
-1.0954933605055481 1:1 2:0 3:0 #
1.0954933605055481 1:1 2:0 3:0 #
-1.0954933605055481 1:0 2:1 3:0.02 #
1.0954933605055481 1:1 2:0 3:0 #
-1.0954933605055481 1:1 2:0 3:0 #
1.0954933605055481 1:0 2:1 3:0.02 #
-1.0954933605055481 1:1 2:0 3:0 #
1.0954933605055481 1:0 2:1 3:0.02 #
-1.0954933605055481 1:0 2:1 3:0.02 #
1.0954933605055481 1:1 2:0 3:0 #
-1.0954933605055481 1:0 2:1 3:0.02 #
1.0954933605055481 1:0 2:0 3:0.059999999 #
-0.00043802212420918085 1:0 2:0 3:0.039999999 #
1.0954933605055481 1:0 2:1 3:0.02 #
-1.0954933605055481 1:0 2:0 3:0.039999999 #
1.0954933605055481 1:1 2:0 3:0 #
-1.0954933605055481 1:1 2:0 3:0 #
1.0954933605055481 1:0 2:1 3:0.02 #
-1.0954933605055481 1:0 2:1 3:0.02 #
1.0954933605055481 1:1 2:0 3:0 #
-1.0954933605055481 1:1 2:0 3:0 #
1.0954933605055481 1:0 2:1 3:0.02 #
-1.0954933605055481 1:0 2:1 3:0.02 #
1.0954933605055481 1:1 2:0 3:0 #
-1.0954933605055481 1:1 2:0 3:0 #
1.0954933605055481 1:0 2:1 3:0.02 #
-1.0954933605055481 1:0 2:1 3:0.02 #
1.0954933605055481 1:1 2:0 3:0 #
-1.0954933605055481 1:1 2:0 3:0 #
1.0954933605055481 1:0 2:1 3:0.02 #
-1.0954933605055481 1:0 2:1 3:0.02 #
1.0954933605055481 1:1 2:0 3:0 #
-1.0954933605055481 1:1 2:0 3:0 #
1.0954933605055481 1:0 2:1 3:0.02 #
-1.0954933605055481 1:0 2:1 3:0.02 #
1.0954933605055481 1:1 2:0 3:0 #
-1.0954933605055481 1:1 2:0 3:0 #
1.0954933605055481 1:0 2:1 3:0.02 #
-1.0954933605055481 1:0 2:1 3:0.02 #
1.0954933605055481 1:1 2:0 3:0 #
-1.0954933605055481 1:1 2:0 3:0 #
1.0954933605055481 1:0 2:1 3:0.02 #
-1.0954933605055481 1:0 2:1 3:0.02 #
1.0954933605055481 1:0 2:1 3:0.02 #
-1.0954933605055481 1:0 2:1 3:0.02 #
1.0954933605055481 1:0 2:1 3:0.02 #
-1.0954933605055481 1:0 2:1 3:0.02 #
1.0954933605055481 1:0 2:1 3:0.02 #
-1.0954933605055481 1:0 2:1 3:0.02 #
1.0954933605055481 1:0 2:1 3:0.02 #
-1.0954933605055481 1:0 2:1 3:0.02 #
1.0954933605055481 1:0 2:1 3:0.02 #
-1.0954933605055481 1:0 2:1 3:0.02 #
1.0954933605055481 1:0 2:1 3:0.02 #
-1.0954933605055481 1:0 2:1 3:0.02 #
1.0954933605055481 1:0 2:1 3:0.02 #
-1.0954933605055481 1:0 2:1 3:0.02 #
1.0954933605055481 1:0 2:1 3:0.02 #
-1.0954933605055481 1:0 2:1 3:0.02 #
1.0954933605055481 1:0 2:1 3:0.02 #
-1.0954933605055481 1:0 2:1 3:0.02 #
1.0954933605055481 1:0 2:1 3:0.02 #
-1.0950553383812611 1:0 2:1 3:0.02 #
