SVM-light Version V6.02
0 # kernel type
3 # kernel parameter -d 
1 # kernel parameter -g 
1 # kernel parameter -s 
1 # kernel parameter -r 
empty# kernel parameter -u 
38 # highest feature index 
2725 # number of training documents 
790 # number of support vectors plus 1 
2.1350566 # threshold b, each following line is a SV (starting with alpha*y)
-0.11594063202507891 1:1 2:1 3:0.079999998 4:0 5:0 6:0 7:1 8:1 9:0 10:0.0099999998 11:0 12:0 13:0 14:0 15:0 16:1 17:1 18:0 19:1 20:0 21:0 22:0 23:0 24:0 25:0 26:0 27:1 28:0 29:0 30:0 31:0 32:0 33:0 34:0.16666667 35:0.66666669 36:0.16666667 37:0.33333334 38:0.30000001 #
0.11594063202507891 1:1 2:1 3:0.34 4:0 5:0 6:0 7:1 8:0 9:0 10:0.0099999998 11:1 12:0 13:0 14:0 15:0 16:1 17:0 18:0 19:0 20:0 21:0 22:0 23:0 24:1 25:0 26:0 27:0 28:0 29:1 30:0 31:0 32:0 33:0 34:0.027777778 35:0.027777778 36:0.055555556 37:0.94444442 38:0.30000001 #
-0.11594063202507891 1:0 2:1 3:0.079999998 4:0 5:0 6:0 7:1 8:1 9:0 10:0.0099999998 11:0 12:0 13:0 14:0 15:0 16:1 17:1 18:0 19:1 20:0 21:0 22:0 23:0 24:0 25:0 26:0 27:1 28:0 29:0 30:0 31:0 32:0 33:0 34:0.875 35:0.125 36:0.125 37:0.125 38:0.2 #
0.11594063202507891 1:0 2:1 3:0.14 4:0 5:0 6:0 7:1 8:1 9:0 10:0.0099999998 11:0 12:0 13:0 14:0 15:0 16:1 17:1 18:0 19:1 20:0 21:0 22:0 23:0 24:0 25:0 26:0 27:1 28:0 29:0 30:0 31:0 32:0 33:0 34:0.07692308 35:0.92307693 36:0.025641026 37:0.025641026 38:0.2 #
-0.11594063202507891 1:0 2:1 3:0.079999998 4:0 5:0 6:0 7:1 8:1 9:0 10:0.28999999 11:0 12:0 13:0 14:0 15:0 16:1 17:0 18:1 19:0 20:0 21:0 22:0 23:0 24:1 25:0 26:0 27:0 28:1 29:0 30:0 31:0 32:0 33:0 34:0.029284775 35:0.0065703024 36:0.90651399 37:0.058006383 38:0.2 #
-0.11594063202507891 1:0 2:1 3:0.039999999 4:0 5:0 6:0 7:1 8:0 9:0 10:0.02 11:1 12:0 13:0 14:0 15:1 16:1 17:0 18:0 19:0 20:0 21:0 22:0 23:0 24:0 25:0 26:0 27:0 28:0 29:1 30:0 31:0 32:0 33:0 34:0.037226785 35:0.0099603711 36:0.029292805 37:0.92353636 38:0.1 #
-0.11594063202507891 1:0 2:1 3:0.079999998 4:0 5:0 6:0 7:1 8:0 9:0 10:0.0099999998 11:1 12:0 13:0 14:0 15:0 16:1 17:0 18:0 19:0 20:0 21:0 22:0 23:0 24:0 25:0 26:0 27:0 28:0 29:1 30:0 31:0 32:0 33:0 34:0.082490705 35:0.027276557 36:0.021167479 37:0.86907977 38:0.30000001 #
-0.032800473116418594 1:0 2:1 3:0.14 4:0 5:0 6:0 7:1 8:1 9:0 10:0.029999999 11:0 12:0 13:0 14:0 15:0 16:1 17:0 18:0 19:0 20:0 21:0 22:0 23:0 24:0 25:0 26:0 27:0 28:0 29:1 30:0 31:0 32:0 33:0 34:0.0058785109 35:0.00097975181 36:0.96701503 37:0.026779883 38:0.1 #
0.11594063202507891 1:1 2:0 3:2.9400001 4:0 5:0.079999998 6:0 7:1 8:0 9:0 10:0.07 11:0 12:0 13:0 14:0 15:0 16:1 17:1 18:0 19:0 20:0 21:0 22:0 23:0 24:0 25:0 26:0 27:0 28:0 29:0 30:1 31:0 32:0 33:0 34:0.11111111 35:0.11111111 36:0.44444445 37:0.55555558 38:0.2 #
0.11594063202507891 1:1 2:0 3:1.16 4:0 5:0.059999999 6:0 7:1 8:1 9:0 10:0.050000001 11:0 12:0 13:0 14:0 15:0 16:1 17:1 18:0 19:0 20:0 21:0 22:0 23:0 24:0 25:0 26:0 27:1 28:0 29:0 30:0 31:0 32:0 33:0 34:0.027868422 35:0.009026316 36:0.89600003 37:0.067157894 38:0.2 #
0.11594063202507891 1:1 2:0 3:1.5 4:0 5:0.039999999 6:0 7:1 8:1 9:0 10:0.15000001 11:0 12:0 13:0 14:1 15:0 16:1 17:0 18:0 19:0 20:0 21:0 22:0 23:0 24:0 25:1 26:0 27:0 28:1 29:0 30:0 31:1 32:0 33:0 34:0.5 35:0.5 36:0.5 37:0.5 38:0.1 #
-0.11594063202507891 1:1 2:0 3:0.18000001 4:1 5:0.02 6:0 7:1 8:1 9:0 10:0.02 11:1 12:0 13:0 14:0 15:0 16:1 17:0 18:0 19:0 20:0 21:0 22:0 23:0 24:1 25:0 26:0 27:1 28:0 29:0 30:0 31:0 32:0 33:0 34:0.27891713 35:0.12715341 36:0.51599669 37:0.079573423 38:0.2 #
-0.11594063202507891 1:1 2:1 3:0.059999999 4:0 5:0 6:0 7:1 8:0 9:1 10:0.0099999998 11:0 12:0 13:0 14:0 15:0 16:1 17:0 18:0 19:0 20:0 21:0 22:0 23:0 24:0 25:0 26:0 27:0 28:0 29:0 30:1 31:0 32:0 33:0 34:0.041851617 35:0.0066582118 36:0.080849715 37:0.87127459 38:0.30000001 #
0.11594063202507891 1:0 2:1 3:0.2 4:0 5:0 6:0 7:1 8:0 9:0 10:0.0099999998 11:1 12:0 13:0 14:0 15:0 16:1 17:0 18:0 19:0 20:0 21:0 22:0 23:0 24:0 25:0 26:0 27:0 28:0 29:1 30:0 31:0 32:0 33:0 34:0.25 35:0.25 36:0.25 37:0.75 38:0.40000001 #
0.11594063202507891 1:1 2:1 3:0.12 4:0 5:0 6:0 7:1 8:1 9:0 10:0.0099999998 11:1 12:0 13:0 14:0 15:0 16:1 17:0 18:0 19:1 20:0 21:0 22:0 23:0 24:0 25:0 26:0 27:1 28:0 29:0 30:0 31:0 32:0 33:0 34:0.63302749 35:0.10091743 36:0.082568809 37:0.20183486 38:0.2 #
-0.11594063202507891 1:1 2:0 3:0.059999999 4:1 5:0.02 6:0 7:1 8:1 9:0 10:0.07 11:0 12:0 13:0 14:1 15:0 16:1 17:0 18:0 19:0 20:0 21:0 22:0 23:0 24:0 25:1 26:1 27:1 28:0 29:0 30:0 31:1 32:0 33:0 34:0.5 35:0.5 36:0.5 37:0.5 38:0.1 #
-0.11594063202507891 1:1 2:0 3:0.1 4:1 5:0.02 6:0 7:1 8:1 9:0 10:0.12 11:0 12:0 13:0 14:1 15:0 16:1 17:0 18:0 19:0 20:0 21:0 22:0 23:0 24:0 25:1 26:1 27:1 28:0 29:0 30:0 31:1 32:0 33:0 34:0.5 35:0.5 36:0.5 37:0.5 38:0.1 #
0.081159461942638428 1:0 2:1 3:0.079999998 4:0 5:0 6:0 7:1 8:1 9:0 10:0.059999999 11:1 12:0 13:0 14:0 15:1 16:1 17:0 18:0 19:1 20:0 21:0 22:0 23:0 24:0 25:0 26:0 27:1 28:0 29:0 30:0 31:0 32:0 33:0 34:0.69999999 35:0.1 36:0.1 37:0.30000001 38:0.1 #
0.11594063202507891 1:1 2:0 3:6.1799998 4:0 5:0.2 6:0 7:1 8:0 9:0 10:0.029999999 11:0 12:0 13:0 14:0 15:0 16:1 17:0 18:1 19:0 20:0 21:0 22:0 23:0 24:0 25:0 26:0 27:0 28:0 29:0 30:1 31:0 32:0 33:0 34:0.0095238099 35:0.0095238099 36:0.96190476 37:0.03809524 38:0.2 #
0.11594063202507891 1:1 2:0 3:3.3599999 4:0 5:0.1 6:0 7:1 8:0 9:1 10:0.059999999 11:0 12:0 13:0 14:1 15:0 16:1 17:0 18:0 19:0 20:0 21:0 22:0 23:0 24:0 25:0 26:0 27:0 28:0 29:0 30:1 31:0 32:0 33:0 34:0.5 35:0.5 36:0.5 37:0.5 38:0.1 #
0.11594063202507891 1:1 2:0 3:1.16 4:0 5:0.039999999 6:0 7:1 8:0 9:0 10:0.0099999998 11:0 12:0 13:0 14:0 15:0 16:0 17:0 18:0 19:1 20:0 21:0 22:0 23:0 24:0 25:0 26:0 27:0 28:0 29:0 30:1 31:0 32:0 33:0 34:0.46546721 35:0.50145096 36:0.01334881 37:0.02089379 38:0.5 #
0.11594063202507891 1:0 2:1 3:0.46000001 4:0 5:0 6:0 7:1 8:0 9:1 10:0.0099999998 11:1 12:0 13:0 14:0 15:0 16:1 17:0 18:0 19:0 20:0 21:0 22:0 23:1 24:1 25:0 26:0 27:0 28:0 29:0 30:1 31:0 32:0 33:0 34:0.12380952 35:0.0095238099 36:0.01904762 37:0.86666667 38:0.30000001 #
-0.11594063202507891 1:0 2:1 3:0.23999999 4:0 5:0 6:0 7:1 8:1 9:0 10:0.0099999998 11:0 12:0 13:0 14:0 15:0 16:1 17:1 18:0 19:0 20:0 21:0 22:0 23:0 24:1 25:0 26:0 27:0 28:0 29:1 30:0 31:0 32:0 33:0 34:0.05231424 35:0.013743572 36:0.88322395 37:0.050895549 38:0.40000001 #
-0.11594063202507891 1:0 2:1 3:0.16 4:0 5:0 6:0 7:1 8:1 9:0 10:0.02 11:0 12:0 13:0 14:0 15:0 16:1 17:1 18:0 19:0 20:0 21:0 22:0 23:0 24:1 25:0 26:0 27:0 28:0 29:1 30:0 31:0 32:0 33:0 34:0.0079802843 35:0.0061025703 36:0.96596646 37:0.020185424 38:0.30000001 #
-0.11594063202507891 1:1 2:1 3:0.12 4:0 5:0 6:0 7:1 8:0 9:1 10:0.0099999998 11:0 12:0 13:0 14:0 15:0 16:1 17:0 18:0 19:0 20:0 21:0 22:0 23:0 24:0 25:0 26:0 27:0 28:0 29:0 30:1 31:0 32:0 33:0 34:0.010752688 35:0.82795697 36:0.078853048 37:0.089605734 38:0.1 #
-0.11594063202507891 1:1 2:1 3:0.2 4:0 5:0 6:0 7:1 8:0 9:1 10:0.050000001 11:0 12:0 13:0 14:1 15:0 16:1 17:0 18:0 19:0 20:0 21:0 22:0 23:0 24:0 25:0 26:0 27:0 28:0 29:0 30:1 31:0 32:0 33:0 34:0.5 35:0.5 36:0.5 37:0.5 38:0.1 #
0.11594063202507891 1:1 2:0 3:0.18000001 4:1 5:0.02 6:0 7:1 8:1 9:0 10:0.0099999998 11:0 12:1 13:0 14:1 15:0 16:1 17:1 18:0 19:1 20:0 21:0 22:0 23:0 24:0 25:1 26:1 27:1 28:0 29:0 30:0 31:0 32:0 33:0 34:0.91666669 35:0.083333336 36:0.083333336 37:0.083333336 38:0.89999998 #
0.11594063202507891 1:1 2:0 3:0.81999999 4:1 5:0.02 6:0 7:1 8:1 9:0 10:0.0099999998 11:0 12:0 13:0 14:1 15:0 16:1 17:0 18:0 19:0 20:0 21:0 22:0 23:0 24:0 25:1 26:1 27:1 28:0 29:0 30:0 31:0 32:0 33:0 34:0.95269293 35:0.023003232 36:0.0071436199 37:0.017179629 38:0.2 #
-0.11594063202507891 1:1 2:0 3:0.25999999 4:1 5:0.02 6:0 7:1 8:1 9:0 10:0.0099999998 11:0 12:0 13:0 14:0 15:0 16:0 17:1 18:0 19:1 20:0 21:0 22:0 23:0 24:1 25:0 26:0 27:1 28:0 29:0 30:0 31:0 32:0 33:0 34:0.70526314 35:0.2 36:0.031578947 37:0.08421053 38:0.60000002 #
0.11594063202507891 1:1 2:0 3:0.47999999 4:1 5:0.02 6:0 7:1 8:1 9:0 10:0.0099999998 11:1 12:0 13:0 14:1 15:0 16:1 17:0 18:0 19:1 20:0 21:0 22:0 23:0 24:0 25:1 26:1 27:0 28:1 29:0 30:0 31:0 32:0 33:1 34:0.85287356 35:0.094252877 36:0.044827588 37:0.010344828 38:0.5 #
-0.11594063202507891 1:1 2:1 3:0.14 4:0 5:0 6:0 7:1 8:1 9:0 10:0.0099999998 11:0 12:0 13:0 14:0 15:0 16:1 17:0 18:0 19:0 20:0 21:0 22:0 23:0 24:1 25:0 26:0 27:1 28:0 29:0 30:0 31:0 32:0 33:0 34:0.8980422 35:0.033265941 36:0.048096847 37:0.02062011 38:0.2 #
0.11594063202507891 1:0 2:1 3:0.059999999 4:0 5:0 6:0 7:1 8:0 9:1 10:0.0099999998 11:0 12:1 13:0 14:0 15:0 16:1 17:0 18:0 19:0 20:0 21:0 22:0 23:0 24:1 25:0 26:0 27:0 28:0 29:0 30:1 31:0 32:0 33:0 34:0.017328519 35:0.0057761734 36:0.057039712 37:0.92057765 38:0.2 #
0.11594063202507891 1:1 2:1 3:0.44 4:0 5:0 6:0 7:1 8:1 9:0 10:0.0099999998 11:1 12:0 13:0 14:0 15:0 16:1 17:1 18:1 19:0 20:0 21:0 22:0 23:0 24:0 25:0 26:0 27:0 28:0 29:1 30:0 31:0 32:0 33:0 34:0.35120547 35:0.090320259 36:0.43396905 37:0.1252249 38:0.89999998 #
-0.11594063202507891 1:0 2:1 3:0.039999999 4:0 5:0 6:0 7:1 8:1 9:0 10:0.07 11:0 12:1 13:0 14:0 15:0 16:1 17:0 18:0 19:0 20:0 21:0 22:0 23:0 24:1 25:0 26:0 27:0 28:0 29:1 30:0 31:0 32:0 33:0 34:0.09361925 35:0.066945605 36:0.80962342 37:0.03085774 38:0.2 #
-0.11594063202507891 1:1 2:0 3:0.12 4:1 5:0.02 6:0 7:1 8:0 9:1 10:0.059999999 11:0 12:1 13:0 14:0 15:0 16:1 17:0 18:1 19:0 20:0 21:0 22:0 23:0 24:1 25:0 26:0 27:0 28:0 29:0 30:1 31:0 32:0 33:0 34:0.035680752 35:0.003286385 36:0.037558686 37:0.92441314 38:0.2 #
-0.11594063202507891 1:0 2:1 3:0.2 4:0 5:0 6:0 7:1 8:0 9:1 10:0.0099999998 11:0 12:1 13:0 14:0 15:0 16:1 17:0 18:0 19:0 20:0 21:0 22:0 23:0 24:1 25:0 26:0 27:0 28:0 29:0 30:1 31:0 32:0 33:0 34:0.0020876827 35:0.0020876827 36:0.060542796 37:0.93945718 38:0.40000001 #
0.11594063202507891 1:0 2:1 3:0.079999998 4:0 5:0 6:1 7:1 8:1 9:0 10:0.0099999998 11:0 12:0 13:1 14:1 15:0 16:1 17:0 18:0 19:0 20:0 21:0 22:0 23:1 24:0 25:0 26:0 27:0 28:0 29:1 30:0 31:0 32:0 33:0 34:0.40000001 35:0.2 36:0.60000002 37:0.2 38:0.80000001 #
0.11594063202507891 1:1 2:1 3:0.30000001 4:0 5:0 6:0 7:1 8:1 9:0 10:0.41999999 11:0 12:0 13:0 14:0 15:0 16:1 17:1 18:0 19:0 20:0 21:0 22:0 23:0 24:0 25:0 26:0 27:0 28:0 29:1 30:0 31:0 32:0 33:0 34:0.015554902 35:0.0082003381 36:0.93189675 37:0.044421565 38:0.2 #
0.11594063202507891 1:1 2:1 3:0.18000001 4:0 5:0 6:0 7:1 8:1 9:0 10:0.0099999998 11:0 12:0 13:0 14:0 15:0 16:1 17:1 18:0 19:0 20:0 21:0 22:0 23:0 24:1 25:0 26:0 27:0 28:0 29:1 30:0 31:0 32:0 33:0 34:0.012334432 35:0.0035274604 36:0.93912989 37:0.045023788 38:0.80000001 #
-0.11594063202507891 1:1 2:0 3:0.059999999 4:1 5:0.02 6:0 7:1 8:1 9:0 10:0.0099999998 11:0 12:0 13:0 14:0 15:0 16:1 17:1 18:0 19:1 20:0 21:0 22:0 23:0 24:0 25:0 26:0 27:1 28:0 29:0 30:0 31:0 32:0 33:0 34:0.91964287 35:0.051785715 36:0.0125 37:0.019642858 38:0.30000001 #
-0.11594063202507891 1:1 2:1 3:0.25999999 4:0 5:0 6:0 7:1 8:1 9:0 10:0.0099999998 11:1 12:0 13:1 14:0 15:0 16:1 17:1 18:0 19:0 20:0 21:0 22:0 23:0 24:0 25:0 26:0 27:0 28:0 29:1 30:0 31:0 32:0 33:0 34:0.06443657 35:0.034213711 36:0.86789829 37:0.033541098 38:1.1 #
0.11594063202507891 1:0 2:1 3:0.079999998 4:0 5:0 6:0 7:1 8:1 9:0 10:0.02 11:0 12:1 13:0 14:1 15:0 16:1 17:0 18:0 19:0 20:0 21:0 22:0 23:0 24:0 25:1 26:1 27:1 28:0 29:0 30:0 31:0 32:0 33:0 34:0.94961852 35:0.025706809 36:0.0066939439 37:0.017995503 38:0.2 #
-0.11594063202507891 1:0 2:1 3:0.22 4:0 5:0 6:0 7:1 8:1 9:0 10:0.0099999998 11:0 12:0 13:0 14:0 15:0 16:0 17:1 18:1 19:0 20:0 21:0 22:0 23:0 24:0 25:0 26:0 27:0 28:0 29:1 30:0 31:0 32:0 33:0 34:0.025227631 35:0.0062208064 36:0.91943085 37:0.049163744 38:1 #
-0.11594063202507891 1:0 2:1 3:0.22 4:0 5:0 6:0 7:1 8:1 9:0 10:0.0099999998 11:0 12:0 13:0 14:0 15:0 16:1 17:1 18:1 19:0 20:0 21:0 22:0 23:0 24:0 25:0 26:0 27:0 28:0 29:1 30:0 31:0 32:0 33:0 34:0.0073529412 35:0.0073529412 36:0.97794116 37:0.014705882 38:0.30000001 #
0.11594063202507891 1:1 2:0 3:0.25999999 4:1 5:0.02 6:0 7:1 8:0 9:1 10:0.029999999 11:0 12:1 13:0 14:0 15:0 16:1 17:0 18:0 19:0 20:0 21:0 22:0 23:0 24:1 25:0 26:0 27:0 28:0 29:0 30:1 31:0 32:0 33:0 34:0.33333334 35:0.33333334 36:0.33333334 37:0.66666669 38:0.2 #
0.11594063202507891 1:0 2:1 3:0.059999999 4:0 5:0 6:0 7:1 8:0 9:1 10:0.0099999998 11:0 12:1 13:0 14:0 15:0 16:1 17:0 18:0 19:0 20:0 21:0 22:0 23:0 24:1 25:0 26:0 27:0 28:0 29:0 30:1 31:0 32:0 33:0 34:0.022624435 35:0.0063348417 36:0.054298643 37:0.91855204 38:0.2 #
0.11594063202507891 1:1 2:0 3:0.23999999 4:1 5:0.02 6:0 7:1 8:0 9:1 10:0.34999999 11:1 12:0 13:0 14:0 15:0 16:1 17:0 18:0 19:0 20:0 21:0 22:0 23:0 24:1 25:0 26:0 27:0 28:0 29:0 30:1 31:0 32:0 33:0 34:0.017734196 35:0.00041727518 36:0.029209264 37:0.95305651 38:0.2 #
0.11594063202507891 1:1 2:1 3:0.25999999 4:0 5:0 6:0 7:1 8:0 9:1 10:0.0099999998 11:0 12:1 13:0 14:1 15:0 16:1 17:0 18:0 19:0 20:0 21:0 22:0 23:0 24:0 25:0 26:0 27:0 28:0 29:0 30:1 31:0 32:0 33:1 34:0.0041216109 35:0.0016455101 36:0.02024761 37:0.97400093 38:0.2 #
0.11594063202507891 1:1 2:0 3:1.24 4:1 5:0.02 6:0 7:1 8:1 9:0 10:0.0099999998 11:1 12:0 13:0 14:0 15:0 16:1 17:0 18:0 19:1 20:0 21:0 22:0 23:0 24:0 25:0 26:0 27:0 28:1 29:0 30:0 31:0 32:0 33:0 34:0.33333334 35:0.55555558 36:0.22222222 37:0.11111111 38:0.2 #
0.091717522607426077 1:1 2:1 3:0.2 4:0 5:0 6:0 7:1 8:1 9:0 10:0.039999999 11:1 12:0 13:0 14:0 15:0 16:1 17:0 18:0 19:1 20:0 21:0 22:0 23:0 24:0 25:0 26:0 27:1 28:0 29:0 30:0 31:0 32:0 33:0 34:0.94117647 35:0.05882353 36:0.05882353 37:0.05882353 38:0.2 #
-0.11594063202507891 1:1 2:0 3:0.36000001 4:1 5:0.02 6:0 7:1 8:0 9:1 10:0.0099999998 11:1 12:0 13:0 14:0 15:0 16:1 17:0 18:0 19:0 20:0 21:0 22:0 23:0 24:1 25:0 26:0 27:0 28:0 29:0 30:1 31:0 32:0 33:0 34:0.023764258 35:0.011026616 36:0.036121674 37:0.92946768 38:0.2 #
0.11594063202507891 1:1 2:0 3:0.079999998 4:1 5:0.02 6:0 7:1 8:1 9:0 10:1.05 11:1 12:0 13:0 14:0 15:1 16:1 17:0 18:0 19:0 20:0 21:0 22:0 23:0 24:0 25:0 26:0 27:1 28:0 29:0 30:0 31:0 32:0 33:0 34:0.56547767 35:0.096782237 36:0.26615116 37:0.072087802 38:0.1 #
-0.11594063202507891 1:1 2:1 3:0.16 4:0 5:0 6:0 7:1 8:0 9:0 10:0.33000001 11:0 12:0 13:0 14:1 15:0 16:1 17:0 18:0 19:0 20:0 21:0 22:0 23:0 24:0 25:1 26:1 27:0 28:0 29:0 30:1 31:0 32:0 33:1 34:0.5 35:0.5 36:0.5 37:0.5 38:0.1 #
0.11594063202507891 1:1 2:1 3:0.079999998 4:0 5:0 6:0 7:1 8:0 9:0 10:0.02 11:0 12:0 13:0 14:0 15:0 16:0 17:1 18:1 19:0 20:0 21:0 22:0 23:0 24:0 25:0 26:0 27:0 28:0 29:0 30:1 31:0 32:0 33:0 34:0.56547767 35:0.096782237 36:0.26615116 37:0.072087802 38:0.30000001 #
0.11594063202507891 1:0 2:1 3:0.059999999 4:0 5:0 6:0 7:1 8:0 9:0 10:0.2 11:0 12:1 13:0 14:0 15:0 16:1 17:1 18:1 19:0 20:0 21:0 22:0 23:0 24:0 25:0 26:0 27:0 28:0 29:0 30:1 31:0 32:0 33:0 34:0.06666667 35:0.06666667 36:0.93333334 37:0.06666667 38:0.30000001 #
-0.11594063202507891 1:0 2:1 3:0.18000001 4:0 5:0 6:1 7:1 8:1 9:0 10:0.0099999998 11:0 12:0 13:0 14:0 15:0 16:1 17:1 18:0 19:1 20:0 21:0 22:0 23:0 24:0 25:0 26:0 27:1 28:0 29:0 30:0 31:0 32:0 33:0 34:0.80000001 35:0.2 36:0.2 37:0.2 38:0.2 #
-0.11594063202507891 1:0 2:1 3:0.14 4:0 5:0 6:0 7:1 8:1 9:0 10:0.18000001 11:0 12:1 13:0 14:0 15:0 16:0 17:1 18:1 19:1 20:0 21:0 22:0 23:0 24:0 25:0 26:0 27:0 28:1 29:0 30:0 31:0 32:0 33:0 34:0.16666667 35:0.16666667 36:0.83333331 37:0.16666667 38:0.69999999 #
-0.11594063202507891 1:0 2:1 3:0.02 4:0 5:0 6:0 7:1 8:1 9:0 10:0.1 11:0 12:0 13:0 14:0 15:0 16:1 17:1 18:0 19:1 20:0 21:0 22:0 23:0 24:0 25:0 26:0 27:1 28:0 29:0 30:0 31:0 32:0 33:0 34:0.80000001 35:0.2 36:0.2 37:0.2 38:0.1 #
0.11594063202507891 1:1 2:0 3:0.47999999 4:1 5:0.02 6:0 7:1 8:0 9:1 10:0.0099999998 11:0 12:1 13:0 14:1 15:0 16:1 17:0 18:0 19:0 20:0 21:0 22:0 23:1 24:0 25:1 26:1 27:0 28:0 29:0 30:1 31:0 32:0 33:1 34:0.0087336246 35:0.0043668123 36:0.043668121 37:0.95196509 38:0.40000001 #
0.11594063202507891 1:1 2:0 3:0.74000001 4:1 5:0.02 6:0 7:1 8:0 9:1 10:0.34999999 11:1 12:0 13:0 14:0 15:0 16:1 17:0 18:0 19:0 20:0 21:0 22:0 23:0 24:1 25:0 26:0 27:0 28:0 29:0 30:1 31:0 32:0 33:0 34:0.017734196 35:0.00041727518 36:0.029209264 37:0.95305651 38:0.2 #
0.11594063202507891 1:1 2:0 3:0.14 4:1 5:0.02 6:0 7:1 8:0 9:0 10:0.0099999998 11:1 12:1 13:1 14:0 15:0 16:1 17:0 18:0 19:0 20:0 21:0 22:0 23:1 24:1 25:0 26:0 27:0 28:0 29:0 30:1 31:0 32:0 33:0 34:0.010935364 35:0.0041007614 36:0.020308534 37:0.96504587 38:0.69999999 #
-0.11594063202507891 1:1 2:0 3:2.8599999 4:0 5:0.079999998 6:0 7:1 8:0 9:1 10:0.34999999 11:1 12:0 13:0 14:0 15:0 16:1 17:0 18:0 19:0 20:0 21:0 22:0 23:0 24:1 25:0 26:0 27:0 28:0 29:0 30:1 31:0 32:0 33:0 34:0.017734196 35:0.00041727518 36:0.029209264 37:0.95305651 38:0.2 #
0.11594063202507891 1:1 2:0 3:0.16 4:1 5:0.02 6:0 7:1 8:1 9:0 10:0.0099999998 11:0 12:1 13:0 14:0 15:0 16:1 17:0 18:0 19:1 20:0 21:0 22:0 23:0 24:0 25:0 26:0 27:1 28:0 29:0 30:0 31:0 32:0 33:0 34:0.94818014 35:0.043800123 36:0.0043183221 37:0.004935225 38:0.2 #
-0.11594063202507891 1:1 2:1 3:0.31999999 4:0 5:0 6:0 7:1 8:1 9:0 10:0.0099999998 11:0 12:1 13:0 14:0 15:0 16:1 17:1 18:0 19:1 20:0 21:0 22:0 23:0 24:0 25:0 26:0 27:1 28:0 29:0 30:0 31:0 32:0 33:0 34:0.96685082 35:0.022099448 36:0.0055248621 37:0.016574586 38:0.30000001 #
-0.11594063202507891 1:1 2:1 3:0.079999998 4:0 5:0 6:0 7:1 8:1 9:0 10:0.0099999998 11:0 12:0 13:0 14:0 15:0 16:1 17:0 18:0 19:0 20:0 21:0 22:0 23:0 24:0 25:0 26:0 27:0 28:0 29:1 30:0 31:0 32:0 33:0 34:0.30113393 35:0.020218229 36:0.23523748 37:0.44351733 38:0.40000001 #
0.11594063202507891 1:0 2:1 3:0.12 4:0 5:0 6:0 7:1 8:0 9:1 10:0.0099999998 11:0 12:0 13:0 14:0 15:0 16:1 17:1 18:0 19:0 20:0 21:0 22:0 23:0 24:1 25:0 26:0 27:0 28:0 29:0 30:1 31:0 32:0 33:0 34:0.012168487 35:0.0021840874 36:0.046489861 37:0.93978161 38:0.30000001 #
-0.11594063202507891 1:1 2:1 3:0.1 4:0 5:0 6:0 7:1 8:0 9:0 10:0.33000001 11:0 12:0 13:0 14:1 15:0 16:1 17:0 18:0 19:0 20:0 21:0 22:0 23:0 24:0 25:1 26:1 27:0 28:0 29:0 30:1 31:0 32:0 33:1 34:0.5 35:0.5 36:0.5 37:0.5 38:0.1 #
-0.11594063202507891 1:0 2:1 3:0 4:0 5:0 6:0 7:1 8:0 9:0 10:0.02 11:1 12:0 13:0 14:0 15:1 16:1 17:0 18:0 19:0 20:0 21:0 22:0 23:0 24:0 25:0 26:0 27:1 28:0 29:0 30:0 31:0 32:0 33:0 34:0.016878344 35:0.0055198562 36:0.024394745 37:0.95324063 38:0.1 #
-0.11594063202507891 1:1 2:1 3:0.039999999 4:0 5:0 6:0 7:1 8:0 9:0 10:0.0099999998 11:1 12:0 13:0 14:0 15:0 16:1 17:0 18:0 19:0 20:0 21:0 22:0 23:0 24:1 25:0 26:0 27:0 28:0 29:0 30:1 31:0 32:0 33:0 34:0.0045819017 35:0.0017182131 36:0.98854524 37:0.0063001146 38:0.2 #
-0.11594063202507891 1:1 2:0 3:0.40000001 4:1 5:0.02 6:0 7:1 8:1 9:0 10:0.34 11:0 12:0 13:0 14:0 15:0 16:1 17:0 18:0 19:1 20:0 21:0 22:0 23:0 24:0 25:0 26:0 27:0 28:1 29:0 30:0 31:0 32:0 33:0 34:0.84351146 35:0.0063613229 36:0.13867685 37:0.013994911 38:0.2 #
0.11594063202507891 1:1 2:1 3:0.16 4:0 5:0 6:0 7:1 8:1 9:0 10:0.079999998 11:0 12:1 13:0 14:0 15:1 16:1 17:0 18:0 19:1 20:0 21:0 22:0 23:0 24:0 25:0 26:0 27:0 28:1 29:0 30:0 31:0 32:0 33:0 34:0.075000003 35:0.86250001 36:0.025 37:0.0625 38:0.1 #
0.11594063202507891 1:1 2:0 3:0.14 4:1 5:0.02 6:0 7:1 8:1 9:0 10:0.0099999998 11:0 12:0 13:0 14:0 15:0 16:1 17:0 18:0 19:0 20:0 21:0 22:0 23:0 24:0 25:0 26:0 27:1 28:0 29:0 30:0 31:0 32:0 33:0 34:0.024238525 35:0.019519519 36:0.13921064 37:0.8174603 38:0.30000001 #
0.11594063202507891 1:1 2:0 3:0.30000001 4:1 5:0.02 6:0 7:1 8:0 9:0 10:0.0099999998 11:0 12:0 13:0 14:0 15:0 16:1 17:0 18:0 19:0 20:0 21:0 22:0 23:0 24:0 25:0 26:0 27:1 28:0 29:0 30:0 31:0 32:0 33:0 34:0.86283892 35:0.089314193 36:0.028708134 37:0.020733653 38:0.40000001 #
0.11594063202507891 1:1 2:0 3:0.14 4:1 5:0.02 6:0 7:1 8:0 9:0 10:0.0099999998 11:0 12:1 13:0 14:0 15:1 16:1 17:0 18:0 19:0 20:0 21:0 22:0 23:0 24:0 25:0 26:0 27:1 28:0 29:0 30:0 31:0 32:0 33:0 34:0.5 35:0.5 36:0.5 37:0.5 38:0.5 #
-0.11594063202507891 1:0 2:1 3:0.2 4:0 5:0 6:0 7:1 8:1 9:0 10:0.0099999998 11:0 12:0 13:0 14:0 15:0 16:1 17:0 18:0 19:0 20:0 21:0 22:0 23:0 24:1 25:0 26:0 27:0 28:0 29:1 30:0 31:0 32:0 33:0 34:0.013476152 35:0.0038827031 36:0.94268101 37:0.039990332 38:0.30000001 #
0.11594063202507891 1:1 2:1 3:0.31999999 4:0 5:0 6:0 7:1 8:0 9:0 10:0.15000001 11:0 12:0 13:0 14:1 15:0 16:1 17:0 18:0 19:0 20:0 21:0 22:0 23:0 24:0 25:1 26:1 27:0 28:0 29:0 30:1 31:0 32:0 33:1 34:0.5 35:0.5 36:0.5 37:0.5 38:0.1 #
-0.11594063202507891 1:1 2:0 3:0.2 4:1 5:0.02 6:0 7:1 8:1 9:0 10:0.0099999998 11:1 12:0 13:0 14:0 15:0 16:1 17:0 18:0 19:0 20:0 21:0 22:0 23:0 24:0 25:0 26:0 27:1 28:0 29:0 30:0 31:0 32:0 33:0 34:0.091954023 35:0.0057471264 36:0.87164754 37:0.034482758 38:0.2 #
0.11594063202507891 1:0 2:1 3:0.18000001 4:0 5:0 6:0 7:1 8:0 9:0 10:0.0099999998 11:0 12:1 13:0 14:1 15:0 16:0 17:0 18:0 19:1 20:0 21:0 22:0 23:0 24:0 25:1 26:1 27:0 28:0 29:0 30:1 31:0 32:0 33:1 34:0.92754817 35:0.039525989 36:0.017775444 37:0.015300383 38:0.89999998 #
-0.11594063202507891 1:1 2:0 3:0.44 4:1 5:0.02 6:0 7:1 8:0 9:0 10:0.0099999998 11:1 12:1 13:1 14:0 15:0 16:0 17:1 18:1 19:1 20:0 21:0 22:0 23:1 24:0 25:0 26:0 27:0 28:0 29:0 30:1 31:0 32:0 33:0 34:0.46546721 35:0.50145096 36:0.01334881 37:0.02089379 38:2.2 #
-0.11594063202507891 1:1 2:0 3:0.14 4:1 5:0.02 6:0 7:1 8:1 9:0 10:0.0099999998 11:0 12:0 13:0 14:0 15:0 16:0 17:0 18:0 19:1 20:0 21:0 22:0 23:0 24:1 25:0 26:0 27:1 28:0 29:0 30:0 31:0 32:0 33:0 34:0.96454698 35:0.012380417 36:0.0095666852 37:0.014631401 38:0.60000002 #
-0.11594063202507891 1:1 2:1 3:0.059999999 4:0 5:0 6:0 7:1 8:1 9:0 10:0.0099999998 11:0 12:0 13:0 14:0 15:0 16:1 17:0 18:1 19:0 20:0 21:0 22:0 23:0 24:0 25:0 26:0 27:1 28:0 29:0 30:0 31:0 32:0 33:0 34:0.58823532 35:0.11764706 36:0.35294119 37:0.05882353 38:0.2 #
0.11594063202507891 1:1 2:0 3:1.26 4:0 5:0.059999999 6:0 7:1 8:0 9:1 10:0.090000004 11:1 12:0 13:0 14:0 15:0 16:1 17:0 18:0 19:0 20:0 21:0 22:0 23:0 24:0 25:0 26:0 27:0 28:0 29:0 30:1 31:0 32:0 33:0 34:0.023433132 35:0.0019061659 36:0.081088297 37:0.89359784 38:0.2 #
0.11594063202507891 1:1 2:0 3:1.02 4:0 5:0.059999999 6:0 7:1 8:0 9:1 10:0.0099999998 11:0 12:1 13:0 14:0 15:0 16:1 17:0 18:0 19:0 20:0 21:0 22:0 23:0 24:1 25:0 26:0 27:0 28:0 29:0 30:1 31:0 32:0 33:0 34:0.0082827937 35:0.00041587246 36:0.0048171892 37:0.98655343 38:0.30000001 #
0.11594063202507891 1:1 2:1 3:0.40000001 4:0 5:0 6:0 7:1 8:0 9:1 10:0.0099999998 11:0 12:0 13:0 14:0 15:0 16:1 17:1 18:0 19:0 20:0 21:0 22:0 23:0 24:0 25:0 26:0 27:0 28:0 29:0 30:1 31:0 32:0 33:0 34:0.022624435 35:0.0063348417 36:0.054298643 37:0.91855204 38:0.60000002 #
0.11594063202507891 1:1 2:1 3:0.46000001 4:0 5:0 6:0 7:1 8:0 9:1 10:0.0099999998 11:1 12:0 13:0 14:0 15:0 16:1 17:1 18:0 19:0 20:0 21:0 22:0 23:0 24:0 25:0 26:0 27:0 28:0 29:0 30:1 31:0 32:0 33:0 34:0.10829016 35:0.022797927 36:0.082901552 37:0.78704661 38:0.40000001 #
-0.11594063202507891 1:0 2:1 3:0.18000001 4:0 5:0 6:0 7:1 8:0 9:1 10:0.0099999998 11:1 12:0 13:0 14:0 15:0 16:1 17:0 18:0 19:0 20:0 21:0 22:0 23:0 24:1 25:0 26:0 27:0 28:0 29:0 30:1 31:0 32:0 33:0 34:0.012518893 35:0.0012732471 36:0.012083525 37:0.97414076 38:0.30000001 #
-0.11594063202507891 1:0 2:1 3:0.079999998 4:0 5:0 6:0 7:1 8:0 9:1 10:0.02 11:1 12:0 13:0 14:0 15:0 16:1 17:0 18:0 19:0 20:0 21:0 22:0 23:0 24:0 25:0 26:0 27:0 28:0 29:0 30:1 31:0 32:0 33:0 34:0.018870944 35:0.0060711736 36:0.0084607685 37:0.96660852 38:0.30000001 #
-0.11594063202507891 1:0 2:1 3:0.2 4:0 5:0 6:0 7:1 8:0 9:1 10:0.0099999998 11:0 12:0 13:0 14:0 15:0 16:1 17:0 18:0 19:0 20:0 21:0 22:0 23:0 24:0 25:0 26:0 27:0 28:0 29:0 30:1 31:0 32:0 33:0 34:0.014084507 35:0.014084507 36:0.01971831 37:0.95774651 38:0.1 #
-0.11594063202507891 1:0 2:1 3:0.059999999 4:0 5:0 6:0 7:1 8:0 9:1 10:0.0099999998 11:1 12:0 13:0 14:0 15:0 16:1 17:0 18:0 19:0 20:0 21:0 22:0 23:0 24:0 25:0 26:0 27:0 28:0 29:0 30:1 31:0 32:0 33:0 34:0.014692054 35:0.0055242125 36:0.084038556 37:0.89598024 38:0.2 #
0.11594063202507891 1:1 2:0 3:0.18000001 4:1 5:0.02 6:0 7:1 8:0 9:0 10:0.0099999998 11:0 12:0 13:0 14:0 15:0 16:0 17:0 18:0 19:0 20:0 21:0 22:0 23:1 24:0 25:0 26:0 27:0 28:0 29:0 30:1 31:0 32:0 33:0 34:0.015554902 35:0.0082003381 36:0.93189675 37:0.044421565 38:0.89999998 #
0.11594063202507891 1:1 2:1 3:0.16 4:0 5:0 6:0 7:1 8:1 9:0 10:0.0099999998 11:0 12:1 13:0 14:0 15:0 16:1 17:0 18:0 19:1 20:0 21:0 22:0 23:0 24:1 25:0 26:0 27:1 28:0 29:0 30:0 31:0 32:0 33:0 34:0.75531918 35:0.12411348 36:0.078014188 37:0.04964539 38:0.80000001 #
0.11594063202507891 1:1 2:0 3:0.31999999 4:1 5:0.02 6:0 7:1 8:0 9:0 10:0.0099999998 11:0 12:0 13:0 14:0 15:0 16:0 17:0 18:0 19:1 20:0 21:0 22:0 23:0 24:0 25:0 26:0 27:0 28:0 29:0 30:1 31:0 32:0 33:0 34:0.8974551 35:0.068862274 36:0.018163674 37:0.015618763 38:0.60000002 #
0.11594063202507891 1:1 2:0 3:0.47999999 4:0 5:0.039999999 6:0 7:1 8:1 9:0 10:0.0099999998 11:0 12:0 13:0 14:0 15:0 16:1 17:0 18:0 19:0 20:0 21:0 22:0 23:0 24:0 25:0 26:0 27:1 28:0 29:0 30:0 31:0 32:0 33:0 34:0.85706121 35:0.1023442 36:0.02915952 37:0.012578616 38:0.2 #
-0.11594063202507891 1:1 2:0 3:0.039999999 4:1 5:0.02 6:0 7:1 8:0 9:0 10:0.16 11:0 12:1 13:0 14:0 15:0 16:1 17:0 18:0 19:1 20:0 21:0 22:0 23:0 24:0 25:0 26:0 27:0 28:0 29:0 30:1 31:0 32:0 33:0 34:0.7881797 35:0.15130024 36:0.039007094 37:0.021985816 38:0.2 #
-0.11594063202507891 1:0 2:1 3:0.059999999 4:0 5:0 6:0 7:1 8:1 9:0 10:0.02 11:0 12:0 13:0 14:0 15:0 16:1 17:1 18:0 19:0 20:0 21:0 22:0 23:0 24:0 25:0 26:0 27:0 28:0 29:1 30:0 31:0 32:0 33:0 34:0.035899632 35:0.011048098 36:0.86584455 37:0.087261252 38:0.2 #
-0.049158945938581805 1:1 2:0 3:0.039999999 4:1 5:0.02 6:0 7:1 8:1 9:0 10:0.13 11:1 12:0 13:0 14:1 15:1 16:1 17:0 18:0 19:0 20:0 21:0 22:0 23:0 24:0 25:0 26:1 27:0 28:1 29:0 30:0 31:0 32:0 33:1 34:0.5 35:0.5 36:0.5 37:0.5 38:0.1 #
0.11594063202507891 1:0 2:1 3:0.039999999 4:0 5:0 6:0 7:1 8:1 9:0 10:0.039999999 11:1 12:0 13:0 14:0 15:0 16:1 17:0 18:1 19:0 20:0 21:0 22:0 23:0 24:0 25:0 26:0 27:0 28:0 29:1 30:0 31:0 32:0 33:0 34:0.0094155055 35:0.0019564687 36:0.95292246 37:0.035950109 38:0.2 #
0.11594063202507891 1:0 2:1 3:0.039999999 4:0 5:0 6:0 7:1 8:0 9:1 10:0.02 11:1 12:0 13:0 14:0 15:1 16:1 17:0 18:0 19:0 20:0 21:0 22:0 23:0 24:0 25:0 26:0 27:0 28:0 29:0 30:1 31:0 32:0 33:0 34:0.016062787 35:0.0016945988 36:0.0066850488 37:0.97557193 38:0.1 #
-0.11594063202507891 1:1 2:1 3:0.039999999 4:0 5:0 6:0 7:1 8:0 9:1 10:0.02 11:0 12:0 13:0 14:0 15:1 16:1 17:0 18:0 19:0 20:0 21:0 22:0 23:0 24:0 25:0 26:0 27:0 28:0 29:0 30:1 31:0 32:0 33:0 34:0.017980637 35:0.0055325036 36:0.02835408 37:0.94951588 38:0.1 #
-0.11594063202507891 1:0 2:1 3:0.039999999 4:0 5:0 6:0 7:1 8:0 9:1 10:0.0099999998 11:1 12:0 13:0 14:0 15:0 16:1 17:0 18:0 19:0 20:0 21:0 22:0 23:0 24:1 25:0 26:0 27:0 28:0 29:0 30:1 31:0 32:0 33:0 34:0.0034042553 35:0.0025531915 36:0.088085108 37:0.9068085 38:0.2 #
0.11594063202507891 1:1 2:0 3:0.31999999 4:1 5:0.02 6:0 7:1 8:0 9:0 10:0.0099999998 11:1 12:0 13:0 14:1 15:0 16:0 17:0 18:0 19:1 20:0 21:0 22:0 23:0 24:0 25:1 26:1 27:0 28:0 29:0 30:1 31:0 32:0 33:1 34:0.018026276 35:0.93889397 36:0.012526734 37:0.031164071 38:0.80000001 #
-0.11594063202507891 1:1 2:0 3:0.22 4:1 5:0.02 6:0 7:1 8:1 9:0 10:0.25999999 11:1 12:0 13:0 14:1 15:1 16:1 17:0 18:0 19:0 20:0 21:0 22:0 23:0 24:0 25:0 26:1 27:1 28:0 29:0 30:0 31:1 32:0 33:0 34:0.5 35:0.5 36:0.5 37:0.5 38:0.1 #
0.11594063202507891 1:0 2:1 3:0.079999998 4:0 5:0 6:0 7:1 8:0 9:1 10:0.0099999998 11:0 12:0 13:0 14:0 15:0 16:1 17:1 18:0 19:0 20:0 21:0 22:0 23:0 24:1 25:0 26:0 27:0 28:0 29:0 30:1 31:0 32:0 33:0 34:0.013850415 35:0.002770083 36:0.077562325 37:0.91135734 38:0.2 #
-0.11594063202507891 1:1 2:0 3:0.1 4:1 5:0.02 6:0 7:1 8:1 9:0 10:0.12 11:0 12:0 13:0 14:1 15:0 16:1 17:0 18:0 19:0 20:0 21:0 22:0 23:0 24:0 25:1 26:1 27:1 28:0 29:0 30:0 31:1 32:0 33:0 34:0.5 35:0.5 36:0.5 37:0.5 38:0.1 #
-0.11594063202507891 1:0 2:1 3:0.059999999 4:0 5:0 6:0 7:1 8:0 9:1 10:0.0099999998 11:0 12:1 13:0 14:0 15:0 16:1 17:0 18:0 19:0 20:0 21:0 22:0 23:0 24:0 25:0 26:0 27:0 28:0 29:0 30:1 31:0 32:0 33:0 34:0.013730461 35:0.0014786649 36:0.031685676 37:0.95352769 38:0.2 #
-0.11594063202507891 1:1 2:0 3:0.059999999 4:1 5:0.02 6:0 7:1 8:0 9:0 10:0.02 11:0 12:0 13:0 14:0 15:0 16:1 17:1 18:0 19:1 20:0 21:0 22:0 23:0 24:1 25:0 26:0 27:0 28:0 29:0 30:1 31:0 32:0 33:0 34:0.81609195 35:0.14559387 36:0.026819924 37:0.019157087 38:0.30000001 #
0.11594063202507891 1:0 2:1 3:0 4:0 5:0 6:0 7:1 8:0 9:0 10:0.039999999 11:0 12:1 13:0 14:0 15:1 16:1 17:0 18:0 19:0 20:0 21:0 22:0 23:0 24:0 25:0 26:0 27:0 28:0 29:1 30:0 31:0 32:0 33:0 34:0.19498819 35:0.030079311 36:0.30243841 37:0.47257847 38:0.1 #
0.11594063202507891 1:1 2:1 3:0.14 4:0 5:0 6:0 7:1 8:0 9:0 10:0.0099999998 11:0 12:1 13:1 14:0 15:0 16:1 17:1 18:0 19:0 20:0 21:0 22:0 23:0 24:0 25:0 26:0 27:0 28:0 29:0 30:1 31:0 32:0 33:0 34:0.016008005 35:0.0017508754 36:0.0057528764 37:0.97698849 38:0.30000001 #
0.11594063202507891 1:1 2:1 3:0.079999998 4:0 5:0 6:0 7:1 8:0 9:1 10:0.0099999998 11:0 12:1 13:0 14:0 15:0 16:1 17:0 18:0 19:0 20:0 21:0 22:0 23:1 24:0 25:0 26:0 27:0 28:0 29:0 30:1 31:0 32:0 33:0 34:0.015328226 35:0.0041071652 36:0.020069573 37:0.9604969 38:0.30000001 #
0.11594063202507891 1:1 2:1 3:0.5 4:0 5:0 6:0 7:1 8:0 9:1 10:0.029999999 11:1 12:0 13:0 14:0 15:1 16:1 17:0 18:0 19:0 20:0 21:0 22:0 23:0 24:0 25:0 26:0 27:0 28:0 29:0 30:1 31:0 32:0 33:0 34:0.028571429 35:0.014285714 36:0.11428571 37:0.87142855 38:0.1 #
-0.11594063202507891 1:0 2:1 3:0.079999998 4:0 5:0 6:0 7:1 8:0 9:1 10:0.039999999 11:0 12:1 13:0 14:0 15:1 16:1 17:0 18:0 19:0 20:0 21:0 22:0 23:0 24:0 25:0 26:0 27:0 28:0 29:0 30:1 31:0 32:0 33:0 34:0.016174324 35:0.005503763 36:0.020217905 37:0.95832866 38:0.1 #
-0.11594063202507891 1:0 2:1 3:0.18000001 4:0 5:0 6:0 7:1 8:0 9:0 10:0.0099999998 11:1 12:0 13:0 14:0 15:0 16:1 17:0 18:0 19:1 20:0 21:0 22:0 23:0 24:0 25:0 26:0 27:0 28:0 29:0 30:1 31:0 32:0 33:0 34:0.14457831 35:0.78313255 36:0.060240965 37:0.036144577 38:0.2 #
0.11594063202507891 1:1 2:0 3:0.23999999 4:1 5:0.02 6:0 7:1 8:1 9:0 10:0.039999999 11:0 12:1 13:0 14:1 15:1 16:1 17:0 18:0 19:0 20:0 21:0 22:0 23:0 24:0 25:0 26:0 27:1 28:0 29:0 30:0 31:1 32:0 33:0 34:0.5 35:0.5 36:0.5 37:0.5 38:0.1 #
-0.11594063202507891 1:1 2:0 3:0.74000001 4:1 5:0.02 6:0 7:1 8:0 9:0 10:0.0099999998 11:1 12:0 13:0 14:0 15:0 16:1 17:0 18:0 19:0 20:0 21:0 22:0 23:0 24:1 25:0 26:0 27:0 28:0 29:0 30:1 31:0 32:0 33:0 34:0.01876628 35:0.0054225517 36:0.94657195 37:0.029274689 38:0.2 #
-0.11594063202507891 1:1 2:1 3:0.34 4:0 5:0 6:0 7:1 8:0 9:0 10:0.059999999 11:1 12:0 13:0 14:1 15:1 16:1 17:0 18:0 19:0 20:0 21:0 22:0 23:0 24:0 25:0 26:0 27:0 28:1 29:0 30:0 31:0 32:0 33:0 34:0.3779918 35:0.092089221 36:0.3361339 37:0.1937945 38:0.1 #
0.11594063202507891 1:0 2:1 3:0.039999999 4:0 5:0 6:0 7:1 8:1 9:0 10:0.07 11:1 12:0 13:0 14:0 15:0 16:1 17:0 18:0 19:0 20:0 21:0 22:0 23:0 24:1 25:0 26:0 27:0 28:0 29:1 30:0 31:0 32:0 33:0 34:0.038126312 35:0.0092673441 36:0.90000457 37:0.052632384 38:0.2 #
-0.11594063202507891 1:0 2:1 3:0.02 4:0 5:0 6:0 7:1 8:1 9:0 10:0.0099999998 11:0 12:0 13:0 14:0 15:0 16:1 17:1 18:0 19:0 20:0 21:0 22:0 23:0 24:0 25:0 26:0 27:0 28:0 29:1 30:0 31:0 32:0 33:0 34:0.013157895 35:0.019736841 36:0.95394737 37:0.02631579 38:0.1 #
0.11594063202507891 1:1 2:1 3:0.14 4:0 5:0 6:0 7:1 8:1 9:0 10:0.0099999998 11:1 12:0 13:0 14:0 15:0 16:1 17:1 18:0 19:1 20:0 21:0 22:0 23:0 24:0 25:0 26:0 27:1 28:0 29:0 30:0 31:0 32:0 33:0 34:0.68141592 35:0.20353982 36:0.085545726 37:0.03539823 38:0.5 #
0.11594063202507891 1:1 2:0 3:0.44 4:1 5:0.02 6:0 7:1 8:0 9:0 10:0.0099999998 11:0 12:0 13:0 14:0 15:0 16:1 17:1 18:1 19:0 20:0 21:0 22:0 23:0 24:1 25:0 26:0 27:0 28:0 29:0 30:1 31:0 32:0 33:0 34:0.023059677 35:0.001814882 36:0.92697769 37:0.048361268 38:0.60000002 #
0.11594063202507891 1:0 2:1 3:0.2 4:0 5:0 6:0 7:1 8:0 9:1 10:0.0099999998 11:0 12:0 13:0 14:0 15:0 16:0 17:0 18:0 19:0 20:0 21:0 22:0 23:0 24:0 25:0 26:0 27:0 28:0 29:0 30:1 31:0 32:0 33:0 34:0.026850034 35:0.0039292732 36:0.92206943 37:0.048461035 38:0.30000001 #
0.11594063202507891 1:1 2:0 3:0.039999999 4:1 5:0.02 6:0 7:1 8:1 9:0 10:0.0099999998 11:0 12:0 13:0 14:0 15:0 16:1 17:0 18:0 19:0 20:0 21:0 22:0 23:0 24:0 25:0 26:0 27:1 28:0 29:0 30:0 31:0 32:0 33:0 34:0.07692308 35:0.92307693 36:0.07692308 37:0.07692308 38:0.2 #
0.11594063202507891 1:0 2:1 3:0.059999999 4:0 5:0 6:0 7:1 8:0 9:0 10:0.0099999998 11:0 12:0 13:0 14:0 15:0 16:1 17:0 18:1 19:0 20:0 21:0 22:0 23:0 24:0 25:0 26:0 27:0 28:0 29:0 30:1 31:0 32:0 33:0 34:0.033669036 35:0.0057266983 36:0.91064376 37:0.050157979 38:0.1 #
-0.11594063202507891 1:0 2:1 3:0.039999999 4:0 5:0 6:0 7:1 8:1 9:0 10:0.0099999998 11:0 12:0 13:0 14:0 15:0 16:1 17:0 18:0 19:0 20:0 21:0 22:0 23:0 24:0 25:0 26:0 27:1 28:0 29:0 30:0 31:0 32:0 33:0 34:0.75753176 35:0.11857229 36:0.071022384 37:0.053115547 38:0.2 #
0.11594063202507891 1:0 2:1 3:0.14 4:0 5:0 6:0 7:1 8:0 9:1 10:0.029999999 11:1 12:0 13:0 14:0 15:1 16:1 17:0 18:0 19:0 20:0 21:0 22:0 23:0 24:0 25:0 26:0 27:0 28:0 29:0 30:1 31:0 32:0 33:0 34:0.012367271 35:0.0013741412 36:0.013991255 37:0.97251719 38:0.1 #
-0.11594063202507891 1:1 2:0 3:0.18000001 4:1 5:0.02 6:0 7:1 8:0 9:1 10:0.0099999998 11:0 12:0 13:0 14:0 15:0 16:0 17:1 18:1 19:0 20:0 21:0 22:0 23:0 24:0 25:0 26:0 27:0 28:0 29:0 30:1 31:0 32:0 33:0 34:0.0092101945 35:0.0039111786 36:0.068004034 37:0.91912693 38:0.5 #
0.11594063202507891 1:0 2:1 3:0.22 4:0 5:0 6:0 7:1 8:1 9:0 10:0.0099999998 11:0 12:1 13:0 14:0 15:0 16:1 17:0 18:0 19:0 20:0 21:0 22:0 23:0 24:1 25:0 26:0 27:1 28:0 29:0 30:0 31:0 32:0 33:0 34:0.93204969 35:0.011035654 36:0.016746411 37:0.04024541 38:0.40000001 #
-0.11594063202507891 1:0 2:1 3:0.059999999 4:0 5:0 6:0 7:1 8:0 9:1 10:0.0099999998 11:0 12:0 13:0 14:0 15:0 16:1 17:0 18:0 19:0 20:0 21:0 22:0 23:0 24:1 25:0 26:0 27:0 28:0 29:0 30:1 31:0 32:0 33:0 34:0.74674493 35:0.081239685 36:0.048597101 37:0.12378507 38:0.30000001 #
-0.11594063202507891 1:0 2:1 3:0.079999998 4:0 5:0 6:1 7:1 8:1 9:0 10:0.0099999998 11:1 12:0 13:0 14:0 15:0 16:1 17:0 18:0 19:0 20:0 21:0 22:0 23:0 24:1 25:0 26:0 27:1 28:0 29:0 30:0 31:0 32:0 33:0 34:0.78195488 35:0.063909777 36:0.15037593 37:0.011278195 38:0.5 #
-0.11594063202507891 1:0 2:1 3:0.059999999 4:0 5:0 6:0 7:1 8:0 9:1 10:0.0099999998 11:1 12:0 13:0 14:0 15:0 16:1 17:0 18:0 19:0 20:0 21:0 22:0 23:0 24:0 25:0 26:0 27:0 28:0 29:0 30:1 31:0 32:0 33:0 34:0.92374033 35:0.0018440762 36:0.012312755 37:0.062159557 38:0.2 #
-0.11594063202507891 1:0 2:1 3:0.039999999 4:0 5:0 6:0 7:1 8:0 9:1 10:0.029999999 11:0 12:0 13:0 14:0 15:0 16:1 17:0 18:0 19:0 20:0 21:0 22:0 23:0 24:1 25:0 26:0 27:0 28:0 29:0 30:1 31:0 32:0 33:0 34:0.0059228376 35:0.0010588313 36:0.94748861 37:0.045595925 38:0.2 #
-0.11594063202507891 1:0 2:1 3:0.25999999 4:0 5:0 6:0 7:1 8:1 9:0 10:0.02 11:1 12:0 13:0 14:0 15:0 16:1 17:0 18:0 19:0 20:0 21:0 22:0 23:0 24:1 25:0 26:0 27:1 28:0 29:0 30:0 31:0 32:0 33:0 34:0.27891713 35:0.12715341 36:0.51599669 37:0.079573423 38:0.2 #
0.11594063202507891 1:1 2:0 3:0.2 4:1 5:0.02 6:0 7:1 8:0 9:0 10:0.0099999998 11:0 12:0 13:0 14:0 15:0 16:0 17:0 18:0 19:0 20:0 21:0 22:0 23:0 24:0 25:0 26:0 27:0 28:0 29:0 30:1 31:0 32:0 33:0 34:0.016572755 35:0.0034802784 36:0.052867085 37:0.92741132 38:0.89999998 #
0.11594063202507891 1:1 2:0 3:0.2 4:1 5:0.02 6:0 7:1 8:1 9:0 10:0.02 11:0 12:1 13:0 14:1 15:1 16:1 17:0 18:0 19:0 20:0 21:0 22:0 23:0 24:0 25:0 26:0 27:1 28:0 29:0 30:0 31:1 32:0 33:0 34:0.5 35:0.5 36:0.5 37:0.5 38:0.1 #
0.11594063202507891 1:1 2:0 3:0.12 4:1 5:0.02 6:0 7:1 8:1 9:0 10:0.029999999 11:0 12:1 13:0 14:1 15:1 16:1 17:0 18:0 19:0 20:0 21:0 22:0 23:0 24:0 25:0 26:0 27:1 28:0 29:0 30:0 31:1 32:0 33:0 34:0.5 35:0.5 36:0.5 37:0.5 38:0.1 #
0.11594063202507891 1:1 2:0 3:0.38 4:1 5:0.02 6:0 7:1 8:0 9:0 10:0.059999999 11:1 12:0 13:0 14:1 15:1 16:1 17:0 18:0 19:0 20:0 21:0 22:0 23:0 24:0 25:0 26:0 27:1 28:0 29:0 30:0 31:0 32:0 33:0 34:0.5 35:0.5 36:0.5 37:0.5 38:0.1 #
-0.11594063202507891 1:1 2:0 3:0.51999998 4:1 5:0.02 6:0 7:1 8:1 9:0 10:0.16 11:0 12:0 13:0 14:1 15:0 16:1 17:0 18:0 19:0 20:0 21:0 22:0 23:0 24:0 25:1 26:1 27:1 28:0 29:0 30:0 31:1 32:0 33:0 34:0.5 35:0.5 36:0.5 37:0.5 38:0.1 #
-0.11594063202507891 1:1 2:0 3:0.2 4:1 5:0.02 6:0 7:1 8:1 9:0 10:0.090000004 11:1 12:0 13:0 14:1 15:1 16:1 17:0 18:0 19:0 20:0 21:0 22:0 23:0 24:0 25:0 26:1 27:1 28:0 29:0 30:0 31:1 32:0 33:0 34:0.5 35:0.5 36:0.5 37:0.5 38:0.1 #
0.11594063202507891 1:0 2:1 3:0.14 4:0 5:0 6:0 7:1 8:0 9:1 10:0.0099999998 11:1 12:0 13:0 14:0 15:0 16:1 17:0 18:0 19:0 20:0 21:0 22:0 23:0 24:1 25:0 26:0 27:0 28:0 29:0 30:1 31:0 32:0 33:0 34:0.019125868 35:0.0061283587 36:0.035153881 37:0.93972659 38:0.30000001 #
0.11594063202507891 1:0 2:1 3:0.12 4:0 5:0 6:0 7:1 8:0 9:1 10:0.02 11:1 12:0 13:0 14:0 15:0 16:1 17:0 18:0 19:0 20:0 21:0 22:0 23:0 24:1 25:0 26:0 27:0 28:0 29:0 30:1 31:0 32:0 33:0 34:0.013229333 35:0.00066675839 36:0.014192428 37:0.97193265 38:0.30000001 #
0.11594063202507891 1:0 2:1 3:0.14 4:0 5:0 6:0 7:1 8:0 9:0 10:0.0099999998 11:0 12:0 13:0 14:1 15:0 16:1 17:0 18:0 19:1 20:0 21:0 22:0 23:0 24:0 25:1 26:1 27:0 28:0 29:0 30:1 31:0 32:0 33:1 34:0.68141592 35:0.20353982 36:0.085545726 37:0.03539823 38:0.69999999 #
-0.11594063202507891 1:1 2:0 3:0.14 4:1 5:0.02 6:0 7:1 8:0 9:1 10:0.029999999 11:0 12:1 13:0 14:0 15:0 16:1 17:0 18:1 19:0 20:0 21:0 22:0 23:0 24:1 25:0 26:0 27:0 28:0 29:0 30:1 31:0 32:0 33:0 34:0.02196453 35:0.00027285129 36:0.023055935 37:0.95497954 38:0.30000001 #
-0.11594063202507891 1:1 2:0 3:0.039999999 4:1 5:0.02 6:0 7:1 8:0 9:1 10:0.1 11:0 12:0 13:0 14:1 15:0 16:1 17:0 18:0 19:0 20:0 21:0 22:0 23:0 24:0 25:0 26:0 27:0 28:0 29:0 30:1 31:0 32:0 33:0 34:0.5 35:0.5 36:0.5 37:0.5 38:0.1 #
0.11594063202507891 1:1 2:1 3:0.28 4:0 5:0 6:0 7:1 8:0 9:0 10:0.0099999998 11:1 12:0 13:0 14:0 15:0 16:0 17:0 18:1 19:0 20:0 21:0 22:0 23:0 24:1 25:0 26:0 27:0 28:0 29:0 30:1 31:0 32:0 33:0 34:0.022763127 35:0.0048080534 36:0.93937343 37:0.033205621 38:0.80000001 #
-0.11594063202507891 1:1 2:0 3:0.2 4:1 5:0.02 6:0 7:1 8:0 9:1 10:0.0099999998 11:1 12:0 13:0 14:0 15:0 16:0 17:0 18:0 19:0 20:0 21:0 22:0 23:0 24:1 25:0 26:0 27:0 28:0 29:0 30:1 31:0 32:0 33:0 34:0.0087336246 35:0.0043668123 36:0.043668121 37:0.95196509 38:0.5 #
-0.11594063202507891 1:1 2:0 3:0.16 4:1 5:0.02 6:0 7:1 8:1 9:0 10:0.0099999998 11:0 12:0 13:0 14:0 15:0 16:0 17:1 18:0 19:1 20:0 21:0 22:0 23:0 24:0 25:0 26:0 27:1 28:0 29:0 30:0 31:0 32:0 33:0 34:0.89988881 35:0.046414673 36:0.025680933 37:0.028126737 38:0.60000002 #
0.11594063202507891 1:1 2:1 3:0.14 4:0 5:0 6:0 7:1 8:1 9:0 10:0.029999999 11:1 12:0 13:0 14:0 15:0 16:1 17:0 18:0 19:0 20:0 21:0 22:0 23:0 24:1 25:0 26:0 27:0 28:0 29:1 30:0 31:0 32:0 33:0 34:0.012924787 35:0.0006643582 36:0.97161376 37:0.014837333 38:0.30000001 #
-0.11594063202507891 1:1 2:1 3:0.2 4:0 5:0 6:0 7:1 8:0 9:0 10:0.0099999998 11:1 12:1 13:1 14:0 15:0 16:1 17:0 18:0 19:0 20:0 21:0 22:0 23:0 24:1 25:0 26:0 27:0 28:0 29:0 30:1 31:0 32:0 33:0 34:0.26931107 35:0.049140837 36:0.54263693 37:0.13923238 38:0.89999998 #
0.11594063202507891 1:1 2:0 3:0.12 4:1 5:0.02 6:0 7:1 8:1 9:0 10:0.11 11:0 12:1 13:0 14:1 15:1 16:1 17:0 18:0 19:0 20:0 21:0 22:0 23:0 24:0 25:0 26:0 27:1 28:0 29:0 30:0 31:1 32:0 33:0 34:0.5 35:0.5 36:0.5 37:0.5 38:0.1 #
0.11594063202507891 1:1 2:0 3:0.72000003 4:1 5:0.02 6:0 7:1 8:0 9:1 10:0.050000001 11:0 12:0 13:0 14:1 15:0 16:1 17:0 18:0 19:0 20:0 21:0 22:0 23:0 24:0 25:0 26:0 27:0 28:0 29:0 30:1 31:0 32:0 33:0 34:0.5 35:0.5 36:0.5 37:0.5 38:0.1 #
0.11594063202507891 1:1 2:1 3:0.14 4:0 5:0 6:0 7:1 8:0 9:1 10:0.0099999998 11:1 12:0 13:0 14:1 15:0 16:1 17:0 18:0 19:0 20:0 21:0 22:0 23:0 24:0 25:1 26:1 27:0 28:0 29:0 30:1 31:0 32:0 33:1 34:0.2469456 35:0.095795512 36:0.089720838 37:0.56760633 38:0.40000001 #
-0.11594063202507891 1:1 2:1 3:0.02 4:0 5:0 6:0 7:1 8:0 9:0 10:0.039999999 11:1 12:0 13:0 14:0 15:1 16:1 17:0 18:0 19:0 20:0 21:0 22:0 23:0 24:0 25:0 26:0 27:1 28:0 29:0 30:0 31:0 32:0 33:0 34:0.035601888 35:0.0085506504 36:0.051478207 37:0.90437895 38:0.1 #
0.11594063202507891 1:1 2:1 3:0.25999999 4:0 5:0 6:0 7:1 8:0 9:0 10:0.0099999998 11:1 12:0 13:0 14:0 15:0 16:0 17:0 18:0 19:0 20:0 21:0 22:0 23:0 24:1 25:0 26:0 27:0 28:0 29:0 30:1 31:0 32:0 33:0 34:0.80213439 35:0.022965036 36:0.12859158 37:0.046351064 38:0.5 #
-0.11594063202507891 1:1 2:1 3:0.02 4:0 5:0 6:0 7:1 8:1 9:0 10:0.039999999 11:0 12:1 13:0 14:1 15:1 16:1 17:0 18:0 19:0 20:0 21:0 22:0 23:0 24:0 25:0 26:0 27:1 28:0 29:0 30:0 31:1 32:0 33:0 34:0.5 35:0.5 36:0.5 37:0.5 38:0.1 #
0.11594063202507891 1:1 2:0 3:0.28 4:1 5:0.02 6:0 7:1 8:0 9:1 10:0.0099999998 11:0 12:0 13:0 14:0 15:0 16:0 17:1 18:0 19:0 20:0 21:0 22:0 23:0 24:1 25:0 26:0 27:0 28:0 29:0 30:1 31:0 32:0 33:0 34:0.052857574 35:0.0056849108 36:0.092289083 37:0.84928936 38:0.5 #
-0.11594063202507891 1:1 2:0 3:0.039999999 4:1 5:0.02 6:0 7:1 8:0 9:1 10:0.1 11:0 12:0 13:0 14:1 15:0 16:1 17:0 18:0 19:0 20:0 21:0 22:0 23:0 24:0 25:0 26:0 27:0 28:0 29:0 30:1 31:0 32:0 33:0 34:0.5 35:0.5 36:0.5 37:0.5 38:0.1 #
0.11594063202507891 1:1 2:1 3:0.22 4:0 5:0 6:0 7:1 8:1 9:0 10:0.0099999998 11:0 12:1 13:0 14:0 15:0 16:1 17:0 18:0 19:0 20:0 21:0 22:0 23:0 24:1 25:0 26:0 27:1 28:0 29:0 30:0 31:0 32:0 33:0 34:0.0092592593 35:0.0092592593 36:0.027777778 37:0.97222221 38:0.2 #
-0.093444969881812057 1:1 2:1 3:0.059999999 4:0 5:0 6:0 7:1 8:0 9:0 10:0.0099999998 11:0 12:1 13:0 14:0 15:0 16:1 17:0 18:0 19:0 20:0 21:0 22:0 23:0 24:1 25:0 26:0 27:0 28:0 29:0 30:1 31:0 32:0 33:0 34:0.73979199 35:0.22167934 36:0.021358274 37:0.017309975 38:0.2 #
-0.11594063202507891 1:1 2:0 3:0.88 4:0 5:0.059999999 6:0 7:1 8:1 9:0 10:0.029999999 11:1 12:0 13:0 14:0 15:1 16:1 17:0 18:0 19:0 20:0 21:0 22:0 23:0 24:0 25:0 26:0 27:1 28:0 29:0 30:0 31:0 32:0 33:0 34:0.53018373 35:0.10236221 36:0.27034122 37:0.10236221 38:0.1 #
-0.11594063202507891 1:1 2:0 3:0.22 4:1 5:0.02 6:0 7:1 8:1 9:0 10:0.0099999998 11:0 12:1 13:0 14:0 15:0 16:0 17:1 18:0 19:1 20:0 21:0 22:0 23:0 24:1 25:0 26:0 27:1 28:0 29:0 30:0 31:0 32:0 33:0 34:0.93650794 35:0.015873017 36:0.015873017 37:0.063492067 38:0.89999998 #
-0.11594063202507891 1:1 2:0 3:0.2 4:1 5:0.02 6:0 7:1 8:1 9:0 10:0.0099999998 11:0 12:0 13:0 14:0 15:0 16:0 17:1 18:0 19:1 20:0 21:0 22:0 23:0 24:0 25:0 26:0 27:1 28:0 29:0 30:0 31:0 32:0 33:0 34:0.70526314 35:0.2 36:0.031578947 37:0.08421053 38:0.30000001 #
0.11594063202507891 1:1 2:1 3:0.12 4:0 5:0 6:0 7:1 8:0 9:1 10:0.0099999998 11:1 12:0 13:0 14:0 15:0 16:1 17:0 18:0 19:0 20:0 21:0 22:0 23:0 24:1 25:0 26:0 27:0 28:0 29:0 30:1 31:0 32:0 33:0 34:0.5 35:0.5 36:0.5 37:0.5 38:0.2 #
0.11594063202507891 1:1 2:1 3:0.039999999 4:0 5:0 6:0 7:1 8:0 9:0 10:0.49000001 11:1 12:0 13:0 14:0 15:1 16:1 17:0 18:0 19:0 20:0 21:0 22:0 23:0 24:0 25:0 26:0 27:0 28:0 29:0 30:1 31:0 32:0 33:0 34:0.0054719565 35:0.00034199728 36:0.97503418 37:0.019835841 38:0.1 #
0.11594063202507891 1:1 2:1 3:0.079999998 4:0 5:0 6:0 7:1 8:0 9:0 10:0.0099999998 11:1 12:0 13:0 14:0 15:0 16:1 17:0 18:1 19:0 20:0 21:0 22:0 23:0 24:1 25:0 26:0 27:0 28:0 29:0 30:1 31:0 32:0 33:0 34:0.022526871 35:0.0067580612 36:0.88730127 37:0.083445966 38:0.40000001 #
0.11594063202507891 1:1 2:1 3:0.059999999 4:0 5:0 6:0 7:1 8:0 9:0 10:0.0099999998 11:0 12:0 13:0 14:0 15:1 16:1 17:0 18:0 19:0 20:0 21:0 22:0 23:0 24:1 25:0 26:0 27:0 28:0 29:0 30:1 31:0 32:0 33:0 34:0.5 35:0.5 36:0.5 37:0.5 38:0.2 #
-0.11594063202507891 1:1 2:1 3:0.12 4:0 5:0 6:0 7:1 8:0 9:0 10:0.029999999 11:1 12:0 13:0 14:0 15:1 16:1 17:0 18:0 19:1 20:0 21:0 22:0 23:0 24:0 25:0 26:0 27:0 28:0 29:0 30:1 31:0 32:0 33:0 34:0.53018373 35:0.10236221 36:0.27034122 37:0.10236221 38:0.1 #
-0.11594063202507891 1:0 2:1 3:0.25999999 4:0 5:0 6:0 7:1 8:0 9:0 10:0.029999999 11:1 12:0 13:0 14:0 15:1 16:1 17:0 18:0 19:0 20:0 21:0 22:0 23:0 24:0 25:0 26:0 27:0 28:0 29:0 30:1 31:0 32:0 33:0 34:0.19498819 35:0.030079311 36:0.30243841 37:0.47257847 38:0.1 #
-0.11594063202507891 1:1 2:1 3:0.02 4:0 5:0 6:0 7:1 8:0 9:0 10:0.0099999998 11:0 12:0 13:0 14:1 15:1 16:1 17:0 18:0 19:0 20:0 21:0 22:0 23:0 24:0 25:0 26:0 27:0 28:0 29:0 30:1 31:0 32:0 33:0 34:0.5 35:0.5 36:0.5 37:0.5 38:0.1 #
-0.11594063202507891 1:0 2:1 3:0.25999999 4:0 5:0 6:0 7:1 8:0 9:0 10:0.34 11:1 12:0 13:0 14:0 15:0 16:1 17:0 18:0 19:1 20:0 21:0 22:0 23:0 24:0 25:0 26:0 27:0 28:0 29:0 30:1 31:0 32:0 33:0 34:0.84351146 35:0.0063613229 36:0.13867685 37:0.013994911 38:0.2 #
0.11594063202507891 1:1 2:0 3:0.60000002 4:1 5:0.02 6:0 7:1 8:0 9:1 10:0.0099999998 11:0 12:0 13:0 14:0 15:0 16:1 17:0 18:0 19:0 20:0 21:0 22:0 23:0 24:0 25:0 26:0 27:0 28:0 29:0 30:1 31:0 32:0 33:0 34:0.023433132 35:0.0019061659 36:0.081088297 37:0.89359784 38:0.2 #
0.11594063202507891 1:1 2:0 3:0.54000002 4:1 5:0.02 6:0 7:1 8:0 9:0 10:0.02 11:1 12:0 13:0 14:0 15:0 16:0 17:0 18:0 19:1 20:0 21:0 22:0 23:0 24:0 25:0 26:0 27:0 28:0 29:0 30:1 31:0 32:0 33:0 34:0.46546721 35:0.50145096 36:0.01334881 37:0.02089379 38:0.30000001 #
-0.11594063202507891 1:1 2:0 3:2.5799999 4:0 5:0.079999998 6:0 7:1 8:0 9:1 10:0.34999999 11:1 12:0 13:0 14:0 15:0 16:1 17:0 18:0 19:0 20:0 21:0 22:0 23:0 24:1 25:0 26:0 27:0 28:0 29:0 30:1 31:0 32:0 33:0 34:0.017734196 35:0.00041727518 36:0.029209264 37:0.95305651 38:0.2 #
-0.11594063202507891 1:1 2:0 3:1.54 4:0 5:0.059999999 6:0 7:1 8:0 9:1 10:0.039999999 11:1 12:0 13:0 14:0 15:0 16:1 17:0 18:0 19:0 20:0 21:0 22:0 23:0 24:1 25:0 26:0 27:0 28:0 29:0 30:1 31:0 32:0 33:0 34:0.010111224 35:0.003033367 36:0.010111224 37:0.97876644 38:0.2 #
-0.11594063202507891 1:1 2:0 3:0.74000001 4:0 5:0.039999999 6:0 7:1 8:0 9:1 10:0.02 11:1 12:0 13:0 14:0 15:0 16:1 17:0 18:1 19:0 20:0 21:0 22:0 23:0 24:1 25:0 26:0 27:0 28:0 29:0 30:1 31:0 32:0 33:0 34:0.013229333 35:0.00066675839 36:0.014192428 37:0.97193265 38:0.30000001 #
0.11594063202507891 1:1 2:1 3:0.079999998 4:0 5:0 6:0 7:1 8:0 9:0 10:0.0099999998 11:0 12:0 13:0 14:0 15:0 16:1 17:1 18:0 19:1 20:0 21:0 22:0 23:0 24:0 25:0 26:0 27:0 28:0 29:0 30:1 31:0 32:0 33:0 34:0.82749748 35:0.12992653 36:0.024880691 37:0.017802563 38:0.40000001 #
0.11594063202507891 1:0 2:1 3:0.14 4:0 5:0 6:0 7:1 8:0 9:0 10:0.0099999998 11:0 12:0 13:0 14:0 15:0 16:0 17:1 18:0 19:0 20:0 21:0 22:0 23:0 24:0 25:0 26:0 27:0 28:0 29:0 30:1 31:0 32:0 33:0 34:0.0025578025 35:0.00057960057 36:0.021609021 37:0.97526199 38:0.30000001 #
0.11594063202507891 1:0 2:1 3:0.22 4:0 5:0 6:0 7:1 8:0 9:0 10:0.0099999998 11:1 12:0 13:0 14:0 15:0 16:0 17:0 18:0 19:1 20:0 21:0 22:0 23:0 24:0 25:0 26:0 27:0 28:0 29:0 30:1 31:0 32:0 33:0 34:0.86833274 35:0.090870254 36:0.024319541 37:0.016538508 38:0.80000001 #
0.11594063202507891 1:0 2:1 3:0.059999999 4:0 5:0 6:0 7:1 8:1 9:0 10:0.059999999 11:1 12:0 13:0 14:0 15:0 16:1 17:0 18:0 19:0 20:0 21:0 22:0 23:0 24:1 25:0 26:0 27:0 28:0 29:1 30:0 31:0 32:0 33:0 34:0.11538462 35:0.03846154 36:0.76923078 37:0.15384616 38:0.2 #
0.11594063202507891 1:1 2:0 3:0.75999999 4:1 5:0.02 6:0 7:1 8:0 9:1 10:0.090000004 11:1 12:0 13:0 14:0 15:0 16:1 17:0 18:0 19:0 20:0 21:0 22:0 23:0 24:0 25:0 26:0 27:0 28:0 29:0 30:1 31:0 32:0 33:0 34:0.023433132 35:0.0019061659 36:0.081088297 37:0.89359784 38:0.2 #
-0.11594063202507891 1:0 2:1 3:0.059999999 4:0 5:0 6:0 7:1 8:0 9:0 10:0.0099999998 11:1 12:0 13:0 14:0 15:0 16:1 17:0 18:0 19:1 20:0 21:0 22:0 23:0 24:0 25:0 26:0 27:0 28:0 29:0 30:1 31:0 32:0 33:0 34:0.5 35:0.5 36:0.25 37:0.25 38:0.2 #
0.11594063202507891 1:1 2:0 3:0.28 4:1 5:0.02 6:0 7:1 8:0 9:0 10:0.02 11:1 12:0 13:0 14:0 15:0 16:1 17:0 18:1 19:0 20:0 21:0 22:0 23:0 24:1 25:0 26:0 27:0 28:0 29:0 30:1 31:0 32:0 33:0 34:0.28414246 35:0.064086474 36:0.44894314 37:0.20292443 38:0.2 #
-0.11594063202507891 1:1 2:0 3:0.38 4:1 5:0.02 6:0 7:1 8:1 9:0 10:0.0099999998 11:0 12:0 13:0 14:0 15:0 16:1 17:0 18:0 19:1 20:0 21:0 22:0 23:0 24:0 25:0 26:0 27:1 28:0 29:0 30:0 31:0 32:0 33:0 34:0.91603053 35:0.038167939 36:0.030534351 37:0.030534351 38:0.2 #
0.11594063202507891 1:0 2:1 3:0.14 4:0 5:0 6:0 7:1 8:0 9:1 10:0.079999998 11:1 12:0 13:0 14:0 15:1 16:1 17:0 18:0 19:0 20:0 21:0 22:0 23:0 24:0 25:0 26:0 27:0 28:0 29:0 30:1 31:0 32:0 33:0 34:0.041666668 35:0.041666668 36:0.20833333 37:0.79166669 38:0.1 #
-0.11594063202507891 1:0 2:1 3:0.02 4:0 5:0 6:0 7:1 8:0 9:0 10:0.039999999 11:1 12:0 13:0 14:0 15:1 16:1 17:0 18:0 19:0 20:0 21:0 22:0 23:1 24:0 25:0 26:0 27:0 28:0 29:0 30:1 31:0 32:0 33:0 34:0.3779918 35:0.092089221 36:0.3361339 37:0.1937945 38:0.1 #
0.032907554820073862 1:1 2:0 3:0.54000002 4:1 5:0.02 6:0 7:1 8:0 9:1 10:0.0099999998 11:1 12:0 13:0 14:0 15:0 16:1 17:0 18:0 19:1 20:0 21:0 22:0 23:0 24:1 25:0 26:0 27:0 28:0 29:0 30:1 31:0 32:0 33:0 34:0.78502524 35:0.16812126 36:0.027560864 37:0.0202113 38:0.40000001 #
-0.11594063202507891 1:1 2:0 3:0.2 4:1 5:0.02 6:0 7:1 8:0 9:1 10:0.0099999998 11:1 12:0 13:0 14:0 15:0 16:1 17:0 18:0 19:0 20:0 21:0 22:0 23:0 24:0 25:0 26:0 27:0 28:0 29:0 30:1 31:0 32:0 33:0 34:0.92374033 35:0.0018440762 36:0.012312755 37:0.062159557 38:0.2 #
-0.11594063202507891 1:1 2:1 3:0.34 4:0 5:0 6:0 7:1 8:0 9:1 10:0.0099999998 11:0 12:0 13:0 14:0 15:0 16:1 17:0 18:0 19:0 20:0 21:0 22:0 23:0 24:1 25:0 26:0 27:0 28:0 29:0 30:1 31:0 32:0 33:0 34:0.0089009292 35:0.0038699689 36:0.040634673 37:0.94736844 38:0.2 #
-0.11594063202507891 1:1 2:1 3:0.2 4:0 5:0 6:0 7:1 8:0 9:1 10:0.050000001 11:0 12:0 13:0 14:1 15:0 16:1 17:0 18:0 19:0 20:0 21:0 22:0 23:0 24:0 25:0 26:0 27:0 28:0 29:0 30:1 31:0 32:0 33:0 34:0.5 35:0.5 36:0.5 37:0.5 38:0.1 #
0.11594063202507891 1:1 2:0 3:0.28 4:1 5:0.02 6:0 7:1 8:0 9:1 10:0.0099999998 11:0 12:1 13:0 14:1 15:1 16:1 17:0 18:0 19:0 20:0 21:0 22:0 23:0 24:0 25:0 26:0 27:0 28:0 29:0 30:1 31:0 32:0 33:0 34:0.5 35:0.5 36:0.5 37:0.5 38:0.1 #
0.11594063202507891 1:1 2:0 3:0.23999999 4:1 5:0.02 6:0 7:1 8:0 9:1 10:0.1 11:0 12:0 13:0 14:1 15:0 16:1 17:0 18:0 19:0 20:0 21:0 22:0 23:0 24:0 25:0 26:0 27:0 28:0 29:0 30:1 31:0 32:0 33:0 34:0.5 35:0.5 36:0.5 37:0.5 38:0.1 #
0.11594063202507891 1:0 2:1 3:0.039999999 4:0 5:0 6:0 7:1 8:0 9:1 10:0.02 11:0 12:0 13:0 14:0 15:0 16:1 17:1 18:0 19:0 20:0 21:0 22:0 23:0 24:0 25:0 26:0 27:0 28:0 29:0 30:1 31:0 32:0 33:0 34:0.30629474 35:0.047238026 36:0.15991925 37:0.48662141 38:0.1 #
-0.11594063202507891 1:1 2:0 3:0.2 4:1 5:0.02 6:0 7:1 8:0 9:1 10:0.0099999998 11:1 12:0 13:0 14:0 15:0 16:1 17:1 18:0 19:0 20:0 21:0 22:0 23:0 24:0 25:0 26:0 27:0 28:0 29:0 30:1 31:0 32:0 33:0 34:0.0075757578 35:0.0018939395 36:0.93560606 37:0.056818184 38:0.5 #
0.11594063202507891 1:1 2:1 3:0.36000001 4:0 5:0 6:0 7:1 8:0 9:0 10:0.0099999998 11:0 12:0 13:0 14:0 15:0 16:1 17:0 18:0 19:0 20:0 21:0 22:0 23:0 24:0 25:0 26:0 27:0 28:0 29:0 30:1 31:0 32:0 33:0 34:0.022640713 35:0.0054014814 36:0.02247818 37:0.94949049 38:0.1 #
0.11594063202507891 1:1 2:0 3:0.40000001 4:1 5:0.02 6:0 7:1 8:0 9:1 10:0.0099999998 11:1 12:0 13:0 14:0 15:0 16:1 17:0 18:0 19:0 20:0 21:0 22:0 23:1 24:1 25:0 26:0 27:0 28:0 29:0 30:1 31:0 32:0 33:0 34:0.01119403 35:0.0074626864 36:0.02238806 37:0.96641791 38:0.40000001 #
-0.11594063202507891 1:0 2:1 3:0.079999998 4:0 5:0 6:0 7:1 8:1 9:0 10:0.23 11:0 12:0 13:0 14:0 15:0 16:1 17:1 18:1 19:0 20:0 21:0 22:0 23:0 24:1 25:0 26:0 27:0 28:1 29:0 30:0 31:0 32:0 33:0 34:0.2 35:0.2 36:0.80000001 37:0.2 38:0.40000001 #
-0.11594063202507891 1:1 2:0 3:0.62 4:1 5:0.02 6:0 7:1 8:0 9:1 10:0.02 11:1 12:0 13:0 14:0 15:0 16:1 17:0 18:0 19:0 20:0 21:0 22:0 23:0 24:0 25:0 26:0 27:0 28:0 29:0 30:1 31:0 32:0 33:0 34:0.023433132 35:0.0019061659 36:0.081088297 37:0.89359784 38:0.30000001 #
-0.11594063202507891 1:1 2:0 3:0.14 4:1 5:0.02 6:0 7:1 8:0 9:0 10:0.11 11:1 12:0 13:0 14:0 15:1 16:1 17:0 18:0 19:1 20:0 21:0 22:0 23:0 24:0 25:0 26:0 27:0 28:0 29:0 30:1 31:0 32:0 33:0 34:0.46546721 35:0.50145096 36:0.01334881 37:0.02089379 38:0.1 #
-0.11594063202507891 1:1 2:0 3:0.18000001 4:1 5:0.02 6:0 7:1 8:0 9:1 10:0.07 11:1 12:0 13:0 14:0 15:0 16:1 17:0 18:0 19:0 20:0 21:0 22:0 23:0 24:0 25:0 26:0 27:0 28:0 29:0 30:1 31:0 32:0 33:0 34:0.37008309 35:0.030747922 36:0.18781163 37:0.41191137 38:0.2 #
-0.11594063202507891 1:1 2:0 3:0.23999999 4:1 5:0.02 6:0 7:1 8:1 9:0 10:0.02 11:0 12:0 13:0 14:0 15:0 16:1 17:0 18:0 19:1 20:0 21:0 22:0 23:0 24:0 25:0 26:0 27:1 28:0 29:0 30:0 31:0 32:0 33:0 34:0.68141592 35:0.20353982 36:0.085545726 37:0.03539823 38:0.2 #
0.11594063202507891 1:0 2:1 3:0.1 4:0 5:0 6:0 7:1 8:0 9:0 10:0.12 11:1 12:0 13:0 14:0 15:0 16:1 17:0 18:0 19:0 20:0 21:0 22:0 23:0 24:1 25:0 26:0 27:0 28:0 29:0 30:1 31:0 32:0 33:0 34:0.040170725 35:0.0048150187 36:0.75361043 37:0.20141049 38:0.2 #
0.11594063202507891 1:0 2:1 3:0.14 4:0 5:0 6:0 7:1 8:0 9:1 10:0.059999999 11:0 12:0 13:0 14:0 15:0 16:1 17:1 18:0 19:0 20:0 21:0 22:0 23:0 24:1 25:0 26:0 27:0 28:0 29:0 30:1 31:0 32:0 33:0 34:0.017734196 35:0.00041727518 36:0.029209264 37:0.95305651 38:0.30000001 #
0.11594063202507891 1:1 2:1 3:0.039999999 4:0 5:0 6:0 7:1 8:0 9:0 10:0.58999997 11:1 12:0 13:0 14:0 15:1 16:1 17:0 18:0 19:0 20:0 21:0 22:0 23:0 24:0 25:0 26:0 27:0 28:0 29:0 30:1 31:0 32:0 33:0 34:0.030265849 35:0.0049079754 36:0.86073619 37:0.10449897 38:0.1 #
0.11594063202507891 1:1 2:0 3:0.22 4:1 5:0.02 6:0 7:1 8:1 9:0 10:1.05 11:1 12:0 13:0 14:0 15:1 16:1 17:0 18:0 19:0 20:0 21:0 22:0 23:0 24:0 25:0 26:0 27:1 28:0 29:0 30:0 31:0 32:0 33:0 34:0.56547767 35:0.096782237 36:0.26615116 37:0.072087802 38:0.1 #
0.11594063202507891 1:1 2:0 3:0.23999999 4:1 5:0.02 6:0 7:1 8:0 9:1 10:0.02 11:0 12:1 13:0 14:1 15:1 16:1 17:0 18:0 19:0 20:0 21:0 22:0 23:0 24:0 25:0 26:0 27:0 28:0 29:0 30:1 31:0 32:0 33:0 34:0.5 35:0.5 36:0.5 37:0.5 38:0.1 #
0.11594063202507891 1:1 2:0 3:0.68000001 4:1 5:0.02 6:0 7:1 8:0 9:1 10:0.090000004 11:1 12:0 13:0 14:0 15:0 16:1 17:0 18:0 19:0 20:0 21:0 22:0 23:0 24:0 25:0 26:0 27:0 28:0 29:0 30:1 31:0 32:0 33:0 34:0.023433132 35:0.0019061659 36:0.081088297 37:0.89359784 38:0.2 #
-0.059194537115234036 1:0 2:1 3:0.16 4:0 5:0 6:0 7:1 8:0 9:1 10:0.0099999998 11:0 12:1 13:0 14:0 15:0 16:1 17:0 18:0 19:0 20:0 21:0 22:0 23:0 24:1 25:0 26:0 27:0 28:0 29:0 30:1 31:0 32:0 33:0 34:0.0059228376 35:0.0010588313 36:0.94748861 37:0.045595925 38:0.40000001 #
-0.11594063202507891 1:1 2:1 3:0.2 4:0 5:0 6:0 7:1 8:0 9:1 10:0.050000001 11:0 12:0 13:0 14:1 15:0 16:1 17:0 18:0 19:0 20:0 21:0 22:0 23:0 24:0 25:0 26:0 27:0 28:0 29:0 30:1 31:0 32:0 33:0 34:0.5 35:0.5 36:0.5 37:0.5 38:0.1 #
0.11594063202507891 1:0 2:1 3:0.12 4:0 5:0 6:0 7:1 8:0 9:0 10:0.0099999998 11:0 12:1 13:0 14:0 15:0 16:0 17:0 18:0 19:1 20:0 21:0 22:0 23:0 24:0 25:0 26:0 27:0 28:0 29:0 30:1 31:0 32:0 33:0 34:0.052083332 35:0.86458331 36:0.010416667 37:0.09375 38:0.60000002 #
0.11594063202507891 1:1 2:0 3:0.12 4:1 5:0.02 6:0 7:1 8:0 9:1 10:0.0099999998 11:0 12:0 13:0 14:1 15:0 16:1 17:0 18:0 19:0 20:0 21:0 22:0 23:0 24:0 25:0 26:0 27:0 28:0 29:0 30:1 31:0 32:0 33:0 34:0.5 35:0.5 36:0.5 37:0.5 38:0.1 #
0.11594063202507891 1:1 2:0 3:0.12 4:1 5:0.02 6:0 7:1 8:0 9:1 10:0.1 11:0 12:0 13:0 14:1 15:0 16:1 17:0 18:0 19:0 20:0 21:0 22:0 23:0 24:0 25:0 26:0 27:0 28:0 29:0 30:1 31:0 32:0 33:0 34:0.5 35:0.5 36:0.5 37:0.5 38:0.1 #
-0.11594063202507891 1:1 2:0 3:0.36000001 4:1 5:0.02 6:0 7:1 8:0 9:1 10:0.0099999998 11:1 12:0 13:1 14:0 15:0 16:0 17:1 18:1 19:0 20:0 21:0 22:0 23:0 24:1 25:0 26:0 27:0 28:0 29:0 30:1 31:0 32:0 33:0 34:0.023764258 35:0.011026616 36:0.036121674 37:0.92946768 38:1.4 #
0.11594063202507891 1:1 2:1 3:0.1 4:0 5:0 6:0 7:1 8:0 9:1 10:0.079999998 11:0 12:0 13:0 14:0 15:1 16:1 17:0 18:0 19:0 20:0 21:0 22:0 23:0 24:0 25:0 26:0 27:0 28:0 29:0 30:1 31:0 32:0 33:0 34:0.25205216 35:0.12433607 36:0.31458232 37:0.30951232 38:0.1 #
-0.11594063202507891 1:1 2:1 3:0.2 4:0 5:0 6:0 7:1 8:0 9:1 10:0.050000001 11:0 12:0 13:0 14:1 15:0 16:1 17:0 18:0 19:0 20:0 21:0 22:0 23:0 24:0 25:0 26:0 27:0 28:0 29:0 30:1 31:0 32:0 33:0 34:0.5 35:0.5 36:0.5 37:0.5 38:0.1 #
-0.11594063202507891 1:0 2:1 3:0.059999999 4:0 5:0 6:0 7:1 8:1 9:0 10:0.0099999998 11:0 12:0 13:0 14:0 15:0 16:1 17:0 18:0 19:0 20:0 21:0 22:0 23:1 24:0 25:0 26:0 27:0 28:0 29:1 30:0 31:0 32:0 33:0 34:0.023728814 35:0.0067796609 36:0.16836159 37:0.80338985 38:0.30000001 #
-0.11594063202507891 1:0 2:1 3:0.02 4:0 5:0 6:0 7:1 8:0 9:1 10:0.029999999 11:0 12:1 13:0 14:0 15:1 16:1 17:0 18:0 19:0 20:0 21:0 22:0 23:0 24:0 25:0 26:0 27:0 28:0 29:0 30:1 31:0 32:0 33:0 34:0.16666667 35:0.16666667 36:0.16666667 37:0.83333331 38:0.1 #
-0.11594063202507891 1:0 2:1 3:0.079999998 4:0 5:0 6:0 7:1 8:0 9:0 10:0.16 11:0 12:0 13:0 14:1 15:0 16:1 17:0 18:0 19:0 20:0 21:0 22:0 23:0 24:0 25:1 26:1 27:0 28:0 29:0 30:1 31:0 32:0 33:1 34:0.5 35:0.5 36:0.5 37:0.5 38:0.1 #
0.11594063202507891 1:1 2:0 3:0.54000002 4:1 5:0.02 6:0 7:1 8:0 9:1 10:0.090000004 11:1 12:0 13:0 14:0 15:0 16:1 17:0 18:0 19:0 20:0 21:0 22:0 23:0 24:0 25:0 26:0 27:0 28:0 29:0 30:1 31:0 32:0 33:0 34:0.023433132 35:0.0019061659 36:0.081088297 37:0.89359784 38:0.2 #
0.11594063202507891 1:1 2:0 3:0.38 4:1 5:0.02 6:0 7:1 8:0 9:1 10:0.090000004 11:1 12:0 13:0 14:0 15:0 16:1 17:0 18:0 19:0 20:0 21:0 22:0 23:0 24:0 25:0 26:0 27:0 28:0 29:0 30:1 31:0 32:0 33:0 34:0.023433132 35:0.0019061659 36:0.081088297 37:0.89359784 38:0.2 #
0.11594063202507891 1:1 2:0 3:0.18000001 4:1 5:0.02 6:0 7:1 8:0 9:1 10:0.02 11:1 12:0 13:0 14:0 15:0 16:1 17:0 18:0 19:0 20:0 21:0 22:0 23:0 24:0 25:0 26:0 27:0 28:0 29:0 30:1 31:0 32:0 33:0 34:0.023433132 35:0.0019061659 36:0.081088297 37:0.89359784 38:0.2 #
0.11594063202507891 1:0 2:1 3:0.059999999 4:0 5:0 6:0 7:1 8:0 9:1 10:0.02 11:0 12:1 13:0 14:1 15:0 16:1 17:0 18:0 19:0 20:0 21:0 22:0 23:0 24:0 25:0 26:0 27:0 28:0 29:0 30:1 31:0 32:0 33:1 34:0.016008005 35:0.0017508754 36:0.0057528764 37:0.97698849 38:0.2 #
-0.11594063202507891 1:1 2:0 3:0.2 4:1 5:0.02 6:0 7:1 8:0 9:1 10:0.0099999998 11:1 12:0 13:0 14:0 15:0 16:1 17:0 18:0 19:0 20:0 21:0 22:0 23:0 24:0 25:0 26:0 27:0 28:0 29:0 30:1 31:0 32:0 33:0 34:0.5 35:0.5 36:0.5 37:0.5 38:0.2 #
0.11594063202507891 1:1 2:1 3:0.36000001 4:0 5:0 6:0 7:1 8:1 9:0 10:0.050000001 11:1 12:0 13:0 14:0 15:0 16:1 17:0 18:0 19:1 20:0 21:0 22:0 23:0 24:0 25:0 26:0 27:1 28:0 29:0 30:0 31:0 32:0 33:0 34:0.66666669 35:0.33333334 36:0.33333334 37:0.33333334 38:0.2 #
0.11594063202507891 1:1 2:1 3:0.1 4:0 5:0 6:0 7:1 8:0 9:1 10:0.1 11:0 12:0 13:0 14:1 15:0 16:1 17:0 18:0 19:0 20:0 21:0 22:0 23:0 24:0 25:0 26:0 27:0 28:0 29:0 30:1 31:0 32:0 33:0 34:0.5 35:0.5 36:0.5 37:0.5 38:0.1 #
-0.11594063202507891 1:1 2:1 3:0.25999999 4:0 5:0 6:0 7:1 8:0 9:0 10:0.18000001 11:1 12:0 13:0 14:0 15:0 16:0 17:1 18:0 19:1 20:0 21:0 22:0 23:0 24:0 25:0 26:0 27:0 28:0 29:0 30:1 31:0 32:0 33:0 34:0.16666667 35:0.16666667 36:0.83333331 37:0.16666667 38:0.69999999 #
-0.11594063202507891 1:1 2:1 3:0.18000001 4:0 5:0 6:0 7:1 8:0 9:1 10:0.0099999998 11:0 12:1 13:0 14:0 15:0 16:1 17:0 18:0 19:0 20:0 21:0 22:0 23:0 24:0 25:0 26:0 27:0 28:0 29:0 30:1 31:0 32:0 33:0 34:0.02440403 35:0.0034577916 36:0.048043355 37:0.92416131 38:0.40000001 #
0.016480797289937083 1:0 2:1 3:0.18000001 4:0 5:0 6:0 7:1 8:0 9:0 10:0.050000001 11:1 12:0 13:0 14:0 15:0 16:0 17:0 18:0 19:1 20:0 21:0 22:0 23:0 24:0 25:0 26:0 27:0 28:0 29:0 30:1 31:0 32:0 33:0 34:0.91704834 35:0.014758269 36:0.030025445 37:0.039185751 38:0.30000001 #
-0.11594063202507891 1:1 2:0 3:0.47999999 4:1 5:0.02 6:0 7:1 8:0 9:0 10:0.0099999998 11:1 12:0 13:0 14:0 15:0 16:1 17:0 18:0 19:0 20:0 21:0 22:0 23:0 24:1 25:0 26:0 27:0 28:0 29:0 30:1 31:0 32:0 33:0 34:0.10332694 35:0.012795906 36:0.62987846 37:0.25463852 38:0.30000001 #
-0.11594063202507891 1:1 2:0 3:0.51999998 4:1 5:0.02 6:0 7:1 8:0 9:0 10:0.0099999998 11:1 12:0 13:0 14:0 15:0 16:0 17:0 18:0 19:1 20:0 21:0 22:0 23:0 24:0 25:0 26:0 27:0 28:0 29:0 30:1 31:0 32:0 33:0 34:0.66666669 35:0.33333334 36:0.33333334 37:0.33333334 38:0.30000001 #
0.11594063202507891 1:0 2:1 3:0.1 4:0 5:0 6:0 7:1 8:0 9:1 10:0.050000001 11:0 12:0 13:0 14:0 15:0 16:1 17:1 18:0 19:0 20:0 21:0 22:0 23:0 24:0 25:0 26:0 27:0 28:0 29:0 30:1 31:0 32:0 33:0 34:0.019607844 35:0.0032679739 36:0.03267974 37:0.94771242 38:0.1 #
0.11594063202507891 1:0 2:1 3:0.039999999 4:0 5:0 6:0 7:1 8:0 9:1 10:0.0099999998 11:0 12:0 13:0 14:0 15:0 16:1 17:1 18:0 19:0 20:0 21:0 22:0 23:0 24:0 25:0 26:0 27:0 28:0 29:0 30:1 31:0 32:0 33:0 34:0.008400646 35:0.0016155089 36:0.090468496 37:0.90016156 38:0.2 #
0.11594063202507891 1:0 2:1 3:0.02 4:0 5:0 6:0 7:1 8:0 9:1 10:0.050000001 11:0 12:0 13:0 14:0 15:0 16:1 17:1 18:0 19:0 20:0 21:0 22:0 23:0 24:0 25:0 26:0 27:0 28:0 29:0 30:1 31:0 32:0 33:0 34:0.019607844 35:0.0032679739 36:0.03267974 37:0.94771242 38:0.1 #
-0.11594063202507891 1:0 2:1 3:0.31999999 4:0 5:0 6:0 7:1 8:0 9:1 10:0.0099999998 11:0 12:0 13:0 14:0 15:0 16:1 17:1 18:0 19:0 20:0 21:0 22:0 23:0 24:0 25:0 26:0 27:0 28:0 29:0 30:1 31:0 32:0 33:0 34:0.022284122 35:0.0017409471 36:0.049094707 37:0.9275766 38:0.1 #
0.11594063202507891 1:1 2:1 3:0.18000001 4:0 5:0 6:0 7:1 8:0 9:0 10:0.050000001 11:1 12:0 13:0 14:0 15:0 16:0 17:0 18:0 19:1 20:0 21:0 22:0 23:0 24:0 25:0 26:0 27:0 28:0 29:0 30:1 31:0 32:0 33:0 34:0.91704834 35:0.014758269 36:0.030025445 37:0.039185751 38:0.30000001 #
-0.11594063202507891 1:0 2:1 3:0.079999998 4:0 5:0 6:0 7:1 8:0 9:1 10:0.0099999998 11:0 12:0 13:0 14:0 15:0 16:1 17:0 18:0 19:0 20:0 21:0 22:0 23:0 24:0 25:0 26:0 27:0 28:0 29:0 30:1 31:0 32:0 33:0 34:0.0625 35:0.010416667 36:0.13541667 37:0.8125 38:0.2 #
0.11594063202507891 1:1 2:0 3:0.44 4:1 5:0.02 6:0 7:1 8:0 9:1 10:0.1 11:1 12:0 13:0 14:1 15:1 16:1 17:0 18:0 19:0 20:0 21:0 22:0 23:0 24:0 25:0 26:0 27:0 28:0 29:0 30:1 31:0 32:0 33:0 34:0.5 35:0.5 36:0.5 37:0.5 38:0.1 #
-0.11594063202507891 1:1 2:1 3:0.2 4:0 5:0 6:0 7:1 8:0 9:1 10:0.050000001 11:0 12:0 13:0 14:1 15:0 16:1 17:0 18:0 19:0 20:0 21:0 22:0 23:0 24:0 25:0 26:0 27:0 28:0 29:0 30:1 31:0 32:0 33:0 34:0.5 35:0.5 36:0.5 37:0.5 38:0.1 #
-0.11594063202507891 1:1 2:1 3:0.12 4:0 5:0 6:0 7:1 8:0 9:1 10:0.0099999998 11:0 12:0 13:0 14:0 15:0 16:1 17:1 18:0 19:0 20:0 21:0 22:0 23:0 24:0 25:0 26:0 27:0 28:0 29:0 30:1 31:0 32:0 33:0 34:0.017804155 35:0.0059347181 36:0.071216621 37:0.91097921 38:0.2 #
-0.11594063202507891 1:1 2:1 3:0.28 4:0 5:0 6:0 7:1 8:0 9:1 10:0.0099999998 11:0 12:0 13:0 14:0 15:0 16:1 17:1 18:0 19:0 20:0 21:0 22:0 23:0 24:0 25:0 26:0 27:0 28:0 29:0 30:1 31:0 32:0 33:0 34:0.018311292 35:0.004069176 36:0.017293997 37:0.96236014 38:0.2 #
-0.11594063202507891 1:1 2:1 3:0.31999999 4:0 5:0 6:0 7:1 8:0 9:1 10:0.050000001 11:0 12:0 13:0 14:0 15:0 16:1 17:1 18:0 19:0 20:0 21:0 22:0 23:0 24:0 25:0 26:0 27:0 28:0 29:0 30:1 31:0 32:0 33:0 34:0.019607844 35:0.0032679739 36:0.03267974 37:0.94771242 38:0.1 #
0.11594063202507891 1:0 2:1 3:0.25999999 4:0 5:0 6:0 7:1 8:0 9:0 10:0.050000001 11:1 12:0 13:0 14:0 15:0 16:1 17:0 18:0 19:0 20:0 21:0 22:0 23:0 24:1 25:0 26:0 27:0 28:0 29:0 30:1 31:0 32:0 33:0 34:0.33333334 35:0.33333334 36:0.33333334 37:0.66666669 38:0.2 #
0.11594063202507891 1:0 2:1 3:0.36000001 4:0 5:0 6:0 7:1 8:0 9:0 10:0.0099999998 11:1 12:0 13:0 14:0 15:0 16:0 17:0 18:0 19:1 20:0 21:0 22:0 23:0 24:0 25:0 26:0 27:0 28:0 29:0 30:1 31:0 32:0 33:0 34:0.76923078 35:0.15384616 36:0.15384616 37:0.07692308 38:0.5 #
0.11594063202507891 1:0 2:1 3:0.34 4:0 5:0 6:0 7:1 8:1 9:0 10:0.02 11:1 12:0 13:0 14:0 15:1 16:1 17:0 18:0 19:1 20:0 21:0 22:0 23:0 24:0 25:0 26:0 27:1 28:0 29:0 30:0 31:0 32:0 33:0 34:0.91384178 35:0.0098870052 36:0.066384181 37:0.012711864 38:0.1 #
0.11594063202507891 1:0 2:1 3:0.02 4:0 5:0 6:0 7:1 8:0 9:1 10:0.0099999998 11:0 12:0 13:0 14:0 15:0 16:1 17:1 18:0 19:0 20:0 21:0 22:0 23:0 24:0 25:0 26:0 27:0 28:0 29:0 30:1 31:0 32:0 33:0 34:0.01248465 35:0.004093328 36:0.013098649 37:0.97073269 38:0.1 #
0.11594063202507891 1:0 2:1 3:0.25999999 4:0 5:0 6:0 7:1 8:1 9:0 10:0.050000001 11:1 12:0 13:0 14:0 15:0 16:1 17:0 18:0 19:1 20:0 21:0 22:0 23:0 24:0 25:0 26:0 27:1 28:0 29:0 30:0 31:0 32:0 33:0 34:0.5 35:0.5 36:0.5 37:0.5 38:0.2 #
0.11594063202507891 1:0 2:1 3:0.02 4:0 5:0 6:0 7:1 8:0 9:1 10:0.050000001 11:0 12:0 13:0 14:0 15:0 16:1 17:1 18:0 19:0 20:0 21:0 22:0 23:0 24:0 25:0 26:0 27:0 28:0 29:0 30:1 31:0 32:0 33:0 34:0.019607844 35:0.0032679739 36:0.03267974 37:0.94771242 38:0.1 #
0.11594063202507891 1:1 2:1 3:0.40000001 4:0 5:0 6:0 7:1 8:0 9:1 10:0.029999999 11:1 12:0 13:0 14:0 15:0 16:1 17:0 18:0 19:0 20:0 21:0 22:0 23:0 24:1 25:0 26:0 27:0 28:0 29:0 30:1 31:0 32:0 33:0 34:0.33333334 35:0.33333334 36:0.33333334 37:0.66666669 38:0.2 #
-0.11594063202507891 1:0 2:1 3:0.059999999 4:0 5:0 6:0 7:1 8:0 9:1 10:0.0099999998 11:0 12:0 13:0 14:0 15:0 16:1 17:0 18:0 19:0 20:0 21:0 22:0 23:0 24:0 25:0 26:0 27:0 28:0 29:0 30:1 31:0 32:0 33:0 34:0.54545456 35:0.0090909088 36:0.2 37:0.26363635 38:0.30000001 #
-0.11594063202507891 1:0 2:1 3:0.079999998 4:0 5:0 6:0 7:1 8:0 9:0 10:0.07 11:1 12:0 13:0 14:0 15:0 16:1 17:0 18:0 19:0 20:0 21:0 22:0 23:0 24:1 25:0 26:0 27:1 28:0 29:0 30:0 31:0 32:0 33:0 34:0.033617314 35:0.017269168 36:0.058369789 37:0.89097399 38:0.2 #
0.11594063202507891 1:0 2:1 3:0.039999999 4:0 5:0 6:0 7:1 8:0 9:1 10:0.029999999 11:0 12:0 13:0 14:0 15:0 16:1 17:0 18:1 19:0 20:0 21:0 22:0 23:0 24:0 25:0 26:0 27:0 28:0 29:0 30:1 31:0 32:0 33:0 34:0.040540539 35:0.013513514 36:0.013513514 37:0.95945948 38:0.2 #
0.11594063202507891 1:0 2:1 3:0.079999998 4:0 5:0 6:0 7:1 8:0 9:1 10:0.029999999 11:0 12:0 13:0 14:0 15:0 16:1 17:0 18:0 19:0 20:0 21:0 22:0 23:0 24:1 25:0 26:0 27:0 28:0 29:0 30:1 31:0 32:0 33:0 34:0.016307892 35:0.0019569471 36:0.020874104 37:0.96216571 38:0.2 #
0.11594063202507891 1:0 2:1 3:0.039999999 4:0 5:0 6:0 7:1 8:0 9:1 10:0.02 11:0 12:0 13:0 14:0 15:0 16:1 17:0 18:0 19:0 20:0 21:0 22:0 23:0 24:1 25:0 26:0 27:0 28:0 29:0 30:1 31:0 32:0 33:0 34:0.00729927 35:0.00729927 36:0.02189781 37:0.97810221 38:0.2 #
0.11594063202507891 1:0 2:1 3:0.1 4:0 5:0 6:0 7:1 8:0 9:1 10:0.050000001 11:0 12:0 13:0 14:1 15:0 16:1 17:0 18:0 19:0 20:0 21:0 22:0 23:0 24:0 25:0 26:0 27:0 28:0 29:0 30:1 31:0 32:0 33:0 34:0.5 35:0.5 36:0.5 37:0.5 38:0.1 #
0.11594063202507891 1:1 2:0 3:0.36000001 4:1 5:0.02 6:0 7:1 8:0 9:1 10:0.079999998 11:1 12:0 13:0 14:1 15:1 16:1 17:0 18:0 19:0 20:0 21:0 22:0 23:0 24:0 25:0 26:0 27:0 28:0 29:0 30:1 31:0 32:0 33:0 34:0.5 35:0.5 36:0.5 37:0.5 38:0.1 #
-0.11594063202507891 1:1 2:0 3:1.34 4:0 5:0.059999999 6:0 7:1 8:0 9:1 10:0.050000001 11:1 12:0 13:0 14:1 15:1 16:1 17:0 18:0 19:0 20:0 21:0 22:0 23:0 24:0 25:0 26:0 27:0 28:0 29:0 30:1 31:0 32:0 33:0 34:0.5 35:0.5 36:0.5 37:0.5 38:0.1 #
0.11594063202507891 1:1 2:0 3:0.51999998 4:0 5:0.039999999 6:0 7:1 8:1 9:0 10:0.079999998 11:0 12:0 13:0 14:0 15:0 16:1 17:1 18:0 19:0 20:0 21:0 22:0 23:0 24:0 25:0 26:0 27:1 28:0 29:0 30:0 31:0 32:0 33:0 34:0.33333334 35:0.33333334 36:0.66666669 37:0.33333334 38:0.1 #
-0.11594063202507891 1:1 2:0 3:0.22 4:1 5:0.02 6:0 7:1 8:0 9:1 10:0.0099999998 11:0 12:0 13:0 14:0 15:0 16:0 17:1 18:1 19:0 20:0 21:0 22:0 23:0 24:0 25:0 26:0 27:0 28:0 29:0 30:1 31:0 32:0 33:0 34:0.0092101945 35:0.0039111786 36:0.068004034 37:0.91912693 38:0.69999999 #
0.11594063202507891 1:0 2:1 3:0.059999999 4:0 5:0 6:0 7:1 8:1 9:0 10:0.0099999998 11:0 12:1 13:0 14:0 15:0 16:1 17:0 18:0 19:0 20:0 21:0 22:0 23:0 24:1 25:0 26:0 27:0 28:0 29:1 30:0 31:0 32:0 33:0 34:0.012924787 35:0.0006643582 36:0.97161376 37:0.014837333 38:0.2 #
-0.11594063202507891 1:0 2:1 3:0.039999999 4:0 5:0 6:0 7:1 8:1 9:0 10:0.0099999998 11:1 12:0 13:0 14:0 15:0 16:1 17:0 18:0 19:1 20:0 21:0 22:0 23:0 24:0 25:0 26:0 27:0 28:0 29:1 30:0 31:0 32:0 33:0 34:0.98333335 35:0.016666668 36:0.016666668 37:0.016666668 38:0.2 #
-0.11594063202507891 1:0 2:1 3:0.1 4:0 5:0 6:0 7:1 8:1 9:0 10:0.029999999 11:1 12:0 13:0 14:0 15:1 16:1 17:0 18:0 19:1 20:0 21:0 22:0 23:0 24:0 25:0 26:0 27:1 28:0 29:0 30:0 31:0 32:0 33:0 34:0.45967743 35:0.14516129 36:0.12096774 37:0.29032257 38:0.1 #
-0.11594063202507891 1:0 2:1 3:0.12 4:0 5:0 6:0 7:1 8:1 9:0 10:0.15000001 11:1 12:0 13:0 14:0 15:1 16:1 17:0 18:0 19:1 20:0 21:0 22:0 23:0 24:0 25:0 26:0 27:1 28:0 29:0 30:0 31:0 32:0 33:0 34:0.85632181 35:0.057471264 36:0.017241379 37:0.080459774 38:0.1 #
-0.11594063202507891 1:0 2:1 3:0.2 4:0 5:0 6:0 7:1 8:1 9:0 10:0.0099999998 11:1 12:0 13:0 14:0 15:0 16:1 17:0 18:0 19:1 20:0 21:0 22:0 23:0 24:0 25:0 26:0 27:1 28:0 29:0 30:0 31:0 32:0 33:0 34:0.5 35:0.5 36:0.5 37:0.5 38:0.2 #
-0.11594063202507891 1:0 2:1 3:0.079999998 4:0 5:0 6:0 7:1 8:1 9:0 10:0.0099999998 11:1 12:0 13:0 14:0 15:0 16:1 17:0 18:0 19:0 20:0 21:0 22:0 23:0 24:0 25:0 26:0 27:0 28:0 29:1 30:0 31:0 32:0 33:0 34:0.014508928 35:0.0029761905 36:0.12202381 37:0.86123514 38:0.40000001 #
0.11594063202507891 1:1 2:0 3:0.60000002 4:0 5:0.039999999 6:0 7:1 8:1 9:0 10:0.029999999 11:0 12:0 13:0 14:1 15:0 16:1 17:0 18:0 19:0 20:0 21:0 22:0 23:0 24:0 25:1 26:1 27:1 28:0 29:0 30:0 31:1 32:0 33:0 34:0.5 35:0.5 36:0.5 37:0.5 38:0.1 #
0.11594063202507891 1:1 2:0 3:0.22 4:1 5:0.02 6:1 7:1 8:1 9:0 10:0.0099999998 11:0 12:0 13:0 14:0 15:0 16:1 17:1 18:1 19:0 20:0 21:0 22:0 23:0 24:0 25:0 26:0 27:1 28:0 29:0 30:0 31:0 32:0 33:0 34:0.014298419 35:0.0056783198 36:0.90469998 37:0.075460084 38:0.89999998 #
0.11594063202507891 1:0 2:1 3:0.1 4:0 5:0 6:0 7:1 8:1 9:0 10:0.41999999 11:0 12:0 13:0 14:0 15:0 16:1 17:1 18:0 19:0 20:0 21:0 22:0 23:0 24:0 25:0 26:0 27:0 28:0 29:1 30:0 31:0 32:0 33:0 34:0.015554902 35:0.0082003381 36:0.93189675 37:0.044421565 38:0.2 #
0.11594063202507891 1:1 2:0 3:0.30000001 4:1 5:0.02 6:0 7:1 8:1 9:0 10:0.0099999998 11:0 12:0 13:0 14:0 15:0 16:1 17:1 18:1 19:0 20:0 21:0 22:0 23:0 24:0 25:0 26:0 27:1 28:0 29:0 30:0 31:0 32:0 33:0 34:0.014298419 35:0.0056783198 36:0.90469998 37:0.075460084 38:0.80000001 #
0.11594063202507891 1:0 2:1 3:0.059999999 4:0 5:0 6:0 7:1 8:0 9:0 10:0.02 11:1 12:0 13:0 14:0 15:1 16:1 17:0 18:0 19:0 20:0 21:0 22:0 23:0 24:0 25:0 26:0 27:0 28:0 29:1 30:0 31:0 32:0 33:0 34:0.19498819 35:0.030079311 36:0.30243841 37:0.47257847 38:0.1 #
-0.11594063202507891 1:1 2:0 3:0.039999999 4:1 5:0.02 6:0 7:1 8:0 9:1 10:0.1 11:0 12:0 13:0 14:1 15:0 16:1 17:0 18:0 19:0 20:0 21:0 22:0 23:0 24:0 25:0 26:0 27:0 28:0 29:0 30:1 31:0 32:0 33:0 34:0.5 35:0.5 36:0.5 37:0.5 38:0.1 #
0.11594063202507891 1:0 2:1 3:0.1 4:0 5:0 6:0 7:1 8:1 9:0 10:0.029999999 11:0 12:1 13:0 14:0 15:1 16:1 17:0 18:0 19:1 20:0 21:0 22:0 23:0 24:0 25:0 26:0 27:1 28:0 29:0 30:0 31:0 32:0 33:0 34:0.5 35:0.5 36:0.5 37:0.5 38:0.1 #
-0.11594063202507891 1:1 2:0 3:0.25999999 4:1 5:0.02 6:0 7:1 8:1 9:0 10:0.090000004 11:1 12:0 13:0 14:1 15:1 16:1 17:0 18:0 19:0 20:0 21:0 22:0 23:0 24:0 25:0 26:1 27:1 28:0 29:0 30:0 31:1 32:0 33:0 34:0.5 35:0.5 36:0.5 37:0.5 38:0.1 #
-0.11594063202507891 1:1 2:0 3:0.16 4:1 5:0.02 6:0 7:1 8:1 9:0 10:0.0099999998 11:1 12:0 13:0 14:0 15:0 16:1 17:0 18:1 19:0 20:0 21:0 22:0 23:0 24:0 25:0 26:0 27:1 28:0 29:0 30:0 31:0 32:0 33:0 34:0.89954799 35:0.033149172 36:0.044450026 37:0.023355098 38:0.30000001 #
-0.11594063202507891 1:1 2:0 3:0.36000001 4:1 5:0.02 6:0 7:1 8:0 9:0 10:0.0099999998 11:1 12:0 13:0 14:0 15:0 16:1 17:1 18:1 19:0 20:0 21:0 22:0 23:0 24:0 25:0 26:0 27:0 28:0 29:0 30:1 31:0 32:0 33:0 34:0.2468828 35:0.039900251 36:0.5284012 37:0.18536991 38:0.60000002 #
-0.11594063202507891 1:1 2:0 3:0.12 4:1 5:0.02 6:0 7:1 8:0 9:1 10:0.1 11:0 12:0 13:0 14:1 15:0 16:1 17:0 18:0 19:0 20:0 21:0 22:0 23:0 24:0 25:0 26:0 27:0 28:0 29:0 30:1 31:0 32:0 33:0 34:0.5 35:0.5 36:0.5 37:0.5 38:0.1 #
0.11594063202507891 1:0 2:1 3:0.23999999 4:0 5:0 6:0 7:1 8:0 9:0 10:0.02 11:1 12:0 13:0 14:0 15:0 16:1 17:0 18:0 19:0 20:0 21:0 22:0 23:0 24:0 25:0 26:0 27:0 28:0 29:1 30:0 31:0 32:0 33:0 34:0.0931677 35:0.037267081 36:0.54658383 37:0.33540374 38:0.2 #
-0.069446343478779649 1:0 2:1 3:0.28 4:0 5:0 6:0 7:1 8:1 9:0 10:0.0099999998 11:0 12:1 13:0 14:0 15:0 16:0 17:1 18:1 19:0 20:0 21:0 22:0 23:0 24:0 25:0 26:0 27:0 28:0 29:1 30:0 31:0 32:0 33:0 34:0.025227631 35:0.0062208064 36:0.91943085 37:0.049163744 38:1.3 #
0.11594063202507891 1:1 2:1 3:0.36000001 4:0 5:0 6:0 7:1 8:1 9:0 10:0.25 11:0 12:0 13:0 14:0 15:0 16:1 17:0 18:0 19:0 20:0 21:0 22:0 23:0 24:0 25:0 26:0 27:0 28:0 29:1 30:0 31:0 32:0 33:0 34:0.97306395 35:0.0067340066 36:0.023569023 37:0.0033670033 38:0.1 #
-0.11594063202507891 1:0 2:1 3:0.02 4:0 5:0 6:0 7:1 8:0 9:0 10:0.0099999998 11:1 12:0 13:0 14:0 15:1 16:1 17:0 18:0 19:0 20:0 21:0 22:0 23:0 24:0 25:0 26:0 27:0 28:0 29:1 30:0 31:0 32:0 33:0 34:0.035601888 35:0.0085506504 36:0.051478207 37:0.90437895 38:0.1 #
-0.11594063202507891 1:0 2:1 3:0.079999998 4:0 5:0 6:0 7:1 8:1 9:0 10:0.18000001 11:1 12:0 13:0 14:1 15:1 16:1 17:0 18:0 19:0 20:0 21:0 22:0 23:0 24:0 25:0 26:0 27:1 28:0 29:0 30:0 31:0 32:0 33:1 34:0.029122679 35:0.0094648711 36:0.87550056 37:0.086639971 38:0.1 #
0.11594063202507891 1:1 2:0 3:0.18000001 4:1 5:0.02 6:0 7:1 8:1 9:0 10:0.0099999998 11:0 12:0 13:0 14:0 15:0 16:0 17:1 18:1 19:0 20:0 21:0 22:0 23:0 24:0 25:0 26:0 27:1 28:0 29:0 30:0 31:0 32:0 33:0 34:0.92500859 35:0.03910102 36:0.0099759204 37:0.026143791 38:0.89999998 #
0.11594063202507891 1:1 2:0 3:0.16 4:1 5:0.02 6:0 7:1 8:1 9:0 10:0.0099999998 11:0 12:0 13:0 14:0 15:0 16:0 17:0 18:0 19:0 20:0 21:0 22:0 23:0 24:0 25:0 26:0 27:1 28:0 29:0 30:0 31:0 32:0 33:0 34:0.8581081 35:0.10472973 36:0.010135135 37:0.028378379 38:0.80000001 #
0.11594063202507891 1:1 2:0 3:0.80000001 4:1 5:0.02 6:0 7:1 8:1 9:0 10:0.0099999998 11:1 12:0 13:0 14:0 15:0 16:1 17:0 18:0 19:0 20:0 21:0 22:0 23:0 24:1 25:0 26:0 27:1 28:0 29:0 30:0 31:0 32:0 33:0 34:0.82351393 35:0.11888479 36:0.040768016 37:0.017359285 38:0.2 #
0.11594063202507891 1:1 2:0 3:0.28 4:1 5:0.02 6:0 7:1 8:1 9:0 10:0.0099999998 11:0 12:0 13:0 14:0 15:0 16:0 17:0 18:0 19:0 20:0 21:0 22:0 23:0 24:0 25:0 26:0 27:1 28:0 29:0 30:0 31:0 32:0 33:0 34:0.8581081 35:0.10472973 36:0.010135135 37:0.028378379 38:0.5 #
0.11594063202507891 1:1 2:0 3:0.46000001 4:1 5:0.02 6:0 7:1 8:1 9:0 10:0.0099999998 11:0 12:0 13:0 14:0 15:0 16:1 17:0 18:0 19:0 20:0 21:0 22:0 23:0 24:0 25:0 26:0 27:1 28:0 29:0 30:0 31:0 32:0 33:0 34:0.91069293 35:0.056152929 36:0.014635603 37:0.019115889 38:0.40000001 #
0.11594063202507891 1:0 2:1 3:0.1 4:0 5:0 6:0 7:1 8:0 9:1 10:0.13 11:1 12:0 13:0 14:0 15:1 16:1 17:0 18:0 19:0 20:0 21:0 22:0 23:0 24:0 25:0 26:0 27:0 28:0 29:0 30:1 31:0 32:0 33:0 34:0.012367271 35:0.0013741412 36:0.013991255 37:0.97251719 38:0.1 #
-0.11594063202507891 1:1 2:0 3:1 4:1 5:0.02 6:0 7:1 8:1 9:0 10:0.0099999998 11:1 12:0 13:0 14:0 15:0 16:1 17:0 18:0 19:1 20:0 21:0 22:0 23:0 24:0 25:0 26:0 27:1 28:0 29:0 30:0 31:0 32:0 33:0 34:0.86956519 35:0.017391304 36:0.026086956 37:0.10434783 38:0.2 #
-0.11594063202507891 1:1 2:0 3:0.16 4:1 5:0.02 6:0 7:1 8:1 9:0 10:0.85000002 11:1 12:0 13:0 14:0 15:1 16:1 17:0 18:0 19:1 20:0 21:0 22:0 23:0 24:0 25:0 26:0 27:1 28:0 29:0 30:0 31:0 32:0 33:0 34:0.95971566 35:0.015910629 36:0.0072782668 37:0.017433988 38:0.1 #
0.11594063202507891 1:0 2:1 3:0.2 4:0 5:0 6:0 7:1 8:1 9:0 10:0.0099999998 11:1 12:0 13:0 14:0 15:0 16:1 17:0 18:0 19:1 20:0 21:0 22:0 23:0 24:0 25:0 26:0 27:1 28:0 29:0 30:0 31:0 32:0 33:0 34:0.66666669 35:0.33333334 36:0.33333334 37:0.33333334 38:0.2 #
0.11594063202507891 1:0 2:1 3:0.12 4:0 5:0 6:0 7:1 8:1 9:0 10:0.029999999 11:1 12:0 13:0 14:0 15:1 16:1 17:0 18:0 19:1 20:0 21:0 22:0 23:0 24:0 25:0 26:0 27:1 28:0 29:0 30:0 31:0 32:0 33:0 34:0.63235295 35:0.11764706 36:0.2647059 37:0.014705882 38:0.1 #
0.11594063202507891 1:0 2:1 3:0.039999999 4:0 5:0 6:0 7:1 8:1 9:0 10:0.15000001 11:0 12:1 13:0 14:0 15:1 16:1 17:0 18:0 19:0 20:0 21:0 22:0 23:0 24:0 25:0 26:0 27:0 28:0 29:1 30:0 31:0 32:0 33:0 34:0.015554902 35:0.0082003381 36:0.93189675 37:0.044421565 38:0.1 #
0.11594063202507891 1:0 2:1 3:0.41999999 4:0 5:0 6:0 7:1 8:1 9:0 10:0.18000001 11:0 12:1 13:0 14:0 15:0 16:0 17:1 18:0 19:1 20:0 21:0 22:0 23:0 24:0 25:0 26:0 27:0 28:0 29:1 30:0 31:0 32:0 33:0 34:0.16666667 35:0.16666667 36:0.83333331 37:0.16666667 38:0.69999999 #
0.11594063202507891 1:1 2:1 3:0.1 4:0 5:0 6:0 7:1 8:1 9:0 10:0.12 11:1 12:0 13:0 14:0 15:0 16:1 17:0 18:0 19:0 20:0 21:0 22:0 23:0 24:0 25:0 26:0 27:0 28:0 29:1 30:0 31:0 32:0 33:0 34:0.25032532 35:0.20075713 36:0.47344139 37:0.075712763 38:0.2 #
0.11594063202507891 1:0 2:1 3:0 4:0 5:0 6:0 7:1 8:1 9:0 10:0.22 11:0 12:1 13:0 14:0 15:1 16:1 17:0 18:1 19:0 20:0 21:0 22:0 23:0 24:0 25:0 26:0 27:0 28:1 29:0 30:0 31:0 32:0 33:0 34:0.70588237 35:0.125 36:0.15257353 37:0.020220589 38:0.1 #
-0.11594063202507891 1:0 2:1 3:0.1 4:0 5:0 6:0 7:1 8:1 9:0 10:0.0099999998 11:1 12:0 13:0 14:0 15:0 16:1 17:0 18:0 19:0 20:0 21:0 22:0 23:0 24:0 25:0 26:0 27:0 28:1 29:0 30:0 31:0 32:0 33:0 34:0.19685039 35:0.078740157 36:0.47244096 37:0.26771653 38:0.2 #
0.11594063202507891 1:1 2:0 3:0.72000003 4:1 5:0.02 6:0 7:1 8:1 9:0 10:0.0099999998 11:1 12:0 13:0 14:0 15:0 16:1 17:0 18:0 19:1 20:0 21:0 22:0 23:0 24:0 25:0 26:0 27:1 28:0 29:0 30:0 31:0 32:0 33:0 34:0.91346037 35:0.064457566 36:0.01120241 37:0.010906548 38:0.2 #
-0.11594063202507891 1:0 2:1 3:0.1 4:0 5:0 6:0 7:1 8:1 9:0 10:0.0099999998 11:1 12:0 13:0 14:0 15:0 16:1 17:0 18:1 19:0 20:0 21:0 22:0 23:0 24:0 25:0 26:0 27:1 28:0 29:0 30:0 31:0 32:0 33:0 34:0.55303031 35:0.23232323 36:0.18939394 37:0.030303031 38:0.30000001 #
-0.11594063202507891 1:0 2:1 3:0.14 4:0 5:0 6:0 7:1 8:1 9:0 10:0.050000001 11:1 12:0 13:0 14:0 15:1 16:1 17:0 18:0 19:0 20:0 21:0 22:0 23:0 24:0 25:0 26:0 27:1 28:0 29:0 30:0 31:0 32:0 33:0 34:0.5 35:0.5 36:0.5 37:0.5 38:0.1 #
0.11594063202507891 1:0 2:1 3:0.25999999 4:0 5:0 6:0 7:1 8:1 9:0 10:0.0099999998 11:1 12:0 13:0 14:0 15:0 16:1 17:0 18:0 19:0 20:0 21:0 22:0 23:0 24:1 25:0 26:0 27:0 28:0 29:1 30:0 31:0 32:0 33:0 34:0.23837826 35:0.024410954 36:0.56569731 37:0.17193802 38:0.2 #
0.11594063202507891 1:1 2:0 3:0.16 4:1 5:0.02 6:0 7:1 8:0 9:1 10:0.02 11:1 12:0 13:0 14:1 15:1 16:1 17:0 18:0 19:0 20:0 21:0 22:0 23:0 24:0 25:0 26:0 27:0 28:0 29:0 30:1 31:0 32:0 33:0 34:0.5 35:0.5 36:0.5 37:0.5 38:0.1 #
0.11594063202507891 1:1 2:0 3:0.25999999 4:1 5:0.02 6:0 7:1 8:0 9:1 10:0.079999998 11:1 12:0 13:0 14:1 15:1 16:1 17:0 18:0 19:0 20:0 21:0 22:0 23:0 24:0 25:0 26:0 27:0 28:0 29:0 30:1 31:0 32:0 33:0 34:0.5 35:0.5 36:0.5 37:0.5 38:0.1 #
0.11594063202507891 1:1 2:0 3:0.89999998 4:1 5:0.02 6:0 7:1 8:1 9:0 10:0.02 11:1 12:0 13:0 14:0 15:0 16:1 17:0 18:0 19:1 20:0 21:0 22:0 23:0 24:0 25:0 26:0 27:0 28:1 29:0 30:0 31:0 32:0 33:0 34:0.5 35:0.5 36:0.5 37:0.5 38:0.2 #
0.11594063202507891 1:1 2:1 3:0.22 4:0 5:0 6:0 7:1 8:0 9:1 10:0.02 11:1 12:0 13:0 14:0 15:0 16:1 17:0 18:0 19:0 20:0 21:0 22:0 23:0 24:1 25:0 26:0 27:0 28:0 29:0 30:1 31:0 32:0 33:0 34:0.053318009 35:0.0063961623 36:0.016989807 37:0.92339599 38:0.30000001 #
-0.11594063202507891 1:1 2:0 3:0.12 4:1 5:0.02 6:0 7:1 8:0 9:1 10:0.1 11:0 12:0 13:0 14:1 15:0 16:1 17:0 18:0 19:0 20:0 21:0 22:0 23:0 24:0 25:0 26:0 27:0 28:0 29:0 30:1 31:0 32:0 33:0 34:0.5 35:0.5 36:0.5 37:0.5 38:0.1 #
-0.11594063202507891 1:1 2:1 3:0.039999999 4:0 5:0 6:0 7:1 8:1 9:0 10:0.0099999998 11:0 12:0 13:0 14:0 15:0 16:1 17:0 18:0 19:0 20:0 21:0 22:0 23:0 24:0 25:0 26:0 27:0 28:0 29:1 30:0 31:0 32:0 33:0 34:0.27443582 35:0.06106735 36:0.47450674 37:0.19004078 38:0.2 #
0.11594063202507891 1:0 2:1 3:0.14 4:0 5:0 6:0 7:1 8:1 9:0 10:0.02 11:1 12:0 13:0 14:0 15:0 16:1 17:0 18:1 19:0 20:0 21:0 22:0 23:0 24:1 25:0 26:0 27:0 28:0 29:1 30:0 31:0 32:0 33:0 34:0.028297842 35:0.0052403412 36:0.89381164 37:0.072745465 38:0.40000001 #
0.11594063202507891 1:0 2:1 3:0.16 4:0 5:0 6:0 7:1 8:1 9:0 10:0.0099999998 11:1 12:0 13:1 14:0 15:0 16:1 17:0 18:0 19:1 20:0 21:0 22:0 23:0 24:0 25:0 26:0 27:1 28:0 29:0 30:0 31:0 32:0 33:0 34:0.85632181 35:0.057471264 36:0.017241379 37:0.080459774 38:0.69999999 #
0.11594063202507891 1:0 2:1 3:0.57999998 4:0 5:0 6:0 7:1 8:1 9:0 10:0.0099999998 11:0 12:0 13:0 14:0 15:0 16:1 17:1 18:0 19:0 20:0 21:0 22:0 23:0 24:1 25:0 26:0 27:1 28:0 29:0 30:0 31:0 32:0 33:0 34:0.034502588 35:0.040253021 36:0.90598047 37:0.019838989 38:0.40000001 #
0.11594063202507891 1:0 2:1 3:0.30000001 4:0 5:0 6:0 7:1 8:1 9:0 10:0.0099999998 11:0 12:0 13:0 14:0 15:0 16:1 17:1 18:1 19:0 20:0 21:0 22:0 23:0 24:1 25:0 26:0 27:1 28:0 29:0 30:0 31:0 32:0 33:0 34:0.028353212 35:0.0046034735 36:0.8906675 37:0.076445557 38:0.69999999 #
0.11594063202507891 1:0 2:1 3:0.18000001 4:0 5:0 6:0 7:1 8:1 9:0 10:0.0099999998 11:0 12:0 13:0 14:0 15:0 16:1 17:1 18:0 19:0 20:0 21:0 22:0 23:0 24:0 25:0 26:0 27:1 28:0 29:0 30:0 31:0 32:0 33:0 34:0.89845568 35:0.05261286 36:0.026516881 37:0.022426415 38:0.89999998 #
-0.11594063202507891 1:0 2:1 3:0.25999999 4:0 5:0 6:1 7:1 8:1 9:0 10:0.0099999998 11:1 12:0 13:0 14:0 15:0 16:1 17:1 18:0 19:1 20:0 21:0 22:0 23:0 24:0 25:0 26:0 27:0 28:1 29:0 30:0 31:0 32:0 33:0 34:0.5 35:0.5 36:0.5 37:0.5 38:0.89999998 #
-0.11594063202507891 1:1 2:0 3:0.62 4:1 5:0.02 6:0 7:1 8:1 9:0 10:0.0099999998 11:1 12:0 13:0 14:0 15:0 16:1 17:1 18:0 19:1 20:0 21:0 22:0 23:0 24:1 25:0 26:0 27:0 28:1 29:0 30:0 31:0 32:0 33:0 34:0.74133331 35:0.176 36:0.046666667 37:0.038666666 38:0.89999998 #
-0.11594063202507891 1:1 2:1 3:0.22 4:0 5:0 6:0 7:1 8:1 9:0 10:0.18000001 11:1 12:0 13:0 14:0 15:1 16:1 17:0 18:0 19:1 20:0 21:0 22:0 23:0 24:0 25:0 26:0 27:1 28:0 29:0 30:0 31:0 32:0 33:0 34:0.54310346 35:0.39655173 36:0.02586207 37:0.05172414 38:0.1 #
-0.11594063202507891 1:1 2:0 3:0.25999999 4:1 5:0.02 6:0 7:1 8:1 9:0 10:0.0099999998 11:1 12:0 13:0 14:0 15:0 16:0 17:0 18:0 19:1 20:0 21:0 22:0 23:0 24:0 25:0 26:0 27:0 28:0 29:1 30:0 31:0 32:0 33:0 34:0.92619717 35:0.023098592 36:0.024225352 37:0.027605634 38:0.40000001 #
0.066391153138549722 1:1 2:0 3:0.2 4:1 5:0.02 6:0 7:1 8:0 9:1 10:0.1 11:1 12:0 13:0 14:1 15:1 16:1 17:0 18:0 19:0 20:0 21:0 22:0 23:0 24:0 25:0 26:0 27:0 28:0 29:0 30:1 31:0 32:0 33:0 34:0.5 35:0.5 36:0.5 37:0.5 38:0.1 #
0.11594063202507891 1:1 2:1 3:0.18000001 4:0 5:0 6:0 7:1 8:0 9:1 10:0.039999999 11:1 12:0 13:0 14:0 15:1 16:1 17:0 18:0 19:0 20:0 21:0 22:0 23:0 24:0 25:0 26:0 27:0 28:0 29:0 30:1 31:0 32:0 33:0 34:0.016307892 35:0.0019569471 36:0.020874104 37:0.96216571 38:0.1 #
0.11594063202507891 1:0 2:1 3:0.079999998 4:0 5:0 6:0 7:1 8:0 9:1 10:0.02 11:0 12:0 13:0 14:1 15:0 16:1 17:0 18:0 19:0 20:0 21:0 22:0 23:0 24:0 25:0 26:0 27:0 28:0 29:0 30:1 31:0 32:0 33:0 34:0.5 35:0.5 36:0.5 37:0.5 38:0.1 #
-0.11594063202507891 1:0 2:1 3:0.02 4:0 5:0 6:0 7:1 8:0 9:1 10:0.0099999998 11:0 12:0 13:0 14:0 15:0 16:1 17:0 18:0 19:0 20:0 21:0 22:0 23:0 24:1 25:0 26:0 27:0 28:0 29:0 30:1 31:0 32:0 33:0 34:0.16322902 35:0.024182077 36:0.38940257 37:0.42354196 38:0.2 #
-0.11594063202507891 1:1 2:1 3:0.2 4:0 5:0 6:0 7:1 8:0 9:1 10:0.0099999998 11:0 12:0 13:0 14:0 15:0 16:1 17:0 18:0 19:0 20:0 21:0 22:0 23:0 24:0 25:0 26:0 27:0 28:0 29:0 30:1 31:0 32:0 33:0 34:0.018870944 35:0.0060711736 36:0.0084607685 37:0.96660852 38:0.2 #
-0.11594063202507891 1:1 2:1 3:0.34 4:0 5:0 6:0 7:1 8:0 9:1 10:0.0099999998 11:0 12:0 13:0 14:0 15:0 16:1 17:0 18:0 19:0 20:0 21:0 22:0 23:0 24:0 25:0 26:0 27:0 28:0 29:0 30:1 31:0 32:0 33:0 34:0.0013404826 35:0.0013404826 36:0.05227882 37:0.94772118 38:0.2 #
-0.11594063202507891 1:0 2:1 3:0.02 4:0 5:0 6:0 7:1 8:0 9:1 10:0.0099999998 11:0 12:0 13:0 14:0 15:1 16:1 17:0 18:0 19:0 20:0 21:0 22:0 23:0 24:0 25:0 26:0 27:0 28:0 29:0 30:1 31:0 32:0 33:0 34:0.54545456 35:0.0090909088 36:0.2 37:0.26363635 38:0.1 #
0.11594063202507891 1:1 2:0 3:0.56 4:0 5:0.039999999 6:0 7:1 8:1 9:0 10:0.0099999998 11:0 12:1 13:0 14:0 15:0 16:0 17:1 18:0 19:1 20:0 21:0 22:0 23:0 24:1 25:0 26:0 27:1 28:0 29:0 30:0 31:0 32:0 33:0 34:0.79492438 35:0.16893104 36:0.018200461 37:0.018456805 38:0.80000001 #
0.11594063202507891 1:1 2:0 3:0.57999998 4:1 5:0.02 6:0 7:1 8:1 9:0 10:0.050000001 11:0 12:0 13:0 14:0 15:0 16:1 17:1 18:0 19:1 20:0 21:0 22:0 23:0 24:0 25:0 26:0 27:1 28:0 29:0 30:0 31:0 32:0 33:0 34:0.956402 35:0.011014227 36:0.019733822 37:0.013767784 38:0.2 #
0.11594063202507891 1:1 2:0 3:0.44 4:1 5:0.02 6:0 7:1 8:1 9:0 10:0.0099999998 11:0 12:0 13:0 14:0 15:0 16:1 17:1 18:0 19:1 20:0 21:0 22:0 23:0 24:0 25:0 26:0 27:1 28:0 29:0 30:0 31:0 32:0 33:0 34:0.5 35:0.5 36:0.5 37:0.5 38:0.80000001 #
0.11594063202507891 1:1 2:0 3:0.34 4:1 5:0.02 6:0 7:1 8:1 9:0 10:0.0099999998 11:0 12:0 13:0 14:0 15:0 16:1 17:1 18:0 19:1 20:0 21:0 22:0 23:0 24:0 25:0 26:0 27:1 28:0 29:0 30:0 31:0 32:0 33:0 34:0.82683408 35:0.12210839 36:0.025115665 37:0.026272306 38:0.40000001 #
-0.11594063202507891 1:1 2:0 3:0.60000002 4:1 5:0.02 6:0 7:1 8:1 9:0 10:0.02 11:1 12:0 13:0 14:1 15:1 16:1 17:0 18:0 19:0 20:0 21:0 22:0 23:0 24:0 25:0 26:0 27:1 28:0 29:0 30:0 31:0 32:0 33:1 34:0.5 35:0.5 36:0.5 37:0.5 38:0.1 #
0.11594063202507891 1:1 2:1 3:0.14 4:0 5:0 6:0 7:1 8:1 9:0 10:0.0099999998 11:1 12:0 13:0 14:0 15:0 16:0 17:0 18:0 19:1 20:0 21:0 22:0 23:0 24:0 25:0 26:0 27:1 28:0 29:0 30:0 31:0 32:0 33:0 34:0.94218534 35:0.045433894 36:0.0051397095 37:0.007297819 38:0.60000002 #
0.11594063202507891 1:1 2:1 3:0.039999999 4:0 5:0 6:0 7:1 8:0 9:1 10:0.02 11:1 12:0 13:0 14:0 15:1 16:1 17:0 18:0 19:0 20:0 21:0 22:0 23:0 24:0 25:0 26:0 27:0 28:0 29:0 30:1 31:0 32:0 33:0 34:0.01501549 35:0.0037783317 36:0.020415105 37:0.96080041 38:0.1 #
0.11594063202507891 1:1 2:1 3:0.30000001 4:0 5:0 6:0 7:1 8:0 9:1 10:0.0099999998 11:1 12:0 13:0 14:0 15:0 16:1 17:0 18:0 19:0 20:0 21:0 22:0 23:0 24:0 25:0 26:0 27:0 28:0 29:0 30:1 31:0 32:0 33:0 34:0.014105058 35:0.010376135 36:0.038261998 37:0.93758106 38:0.2 #
0.11594063202507891 1:1 2:1 3:0.31999999 4:0 5:0 6:0 7:1 8:0 9:1 10:0.0099999998 11:1 12:0 13:0 14:0 15:0 16:1 17:0 18:0 19:0 20:0 21:0 22:0 23:0 24:0 25:0 26:0 27:0 28:0 29:0 30:1 31:0 32:0 33:0 34:0.023433132 35:0.0019061659 36:0.081088297 37:0.89359784 38:0.2 #
-0.11594063202507891 1:1 2:1 3:0.14 4:0 5:0 6:0 7:1 8:0 9:1 10:0.28999999 11:0 12:0 13:0 14:0 15:0 16:1 17:1 18:0 19:0 20:0 21:0 22:0 23:0 24:0 25:0 26:0 27:0 28:0 29:0 30:1 31:0 32:0 33:0 34:0.16384181 35:0.025423728 36:0.25988701 37:0.55649716 38:0.1 #
-0.11594063202507891 1:1 2:1 3:0.14 4:0 5:0 6:0 7:1 8:0 9:1 10:0.0099999998 11:0 12:0 13:0 14:0 15:0 16:1 17:1 18:0 19:0 20:0 21:0 22:0 23:0 24:0 25:0 26:0 27:0 28:0 29:0 30:1 31:0 32:0 33:0 34:0.028571429 35:0.028571429 36:0.22857143 37:0.77142859 38:0.30000001 #
-0.11594063202507891 1:1 2:1 3:0.2 4:0 5:0 6:0 7:1 8:0 9:1 10:0.0099999998 11:0 12:0 13:0 14:0 15:0 16:1 17:1 18:0 19:0 20:0 21:0 22:0 23:0 24:0 25:0 26:0 27:0 28:0 29:0 30:1 31:0 32:0 33:0 34:0.028571429 35:0.028571429 36:0.22857143 37:0.77142859 38:0.60000002 #
0.11594063202507891 1:1 2:0 3:0.16 4:1 5:0.02 6:0 7:1 8:1 9:0 10:0.22 11:1 12:0 13:0 14:0 15:1 16:1 17:0 18:0 19:1 20:0 21:0 22:0 23:0 24:0 25:0 26:0 27:0 28:1 29:0 30:0 31:0 32:0 33:0 34:0.70588237 35:0.125 36:0.15257353 37:0.020220589 38:0.1 #
0.11594063202507891 1:1 2:0 3:0.25999999 4:1 5:0.02 6:0 7:1 8:1 9:0 10:0.02 11:1 12:0 13:0 14:0 15:0 16:1 17:0 18:0 19:1 20:0 21:0 22:0 23:0 24:0 25:0 26:0 27:0 28:1 29:0 30:0 31:0 32:0 33:0 34:0.70588237 35:0.125 36:0.15257353 37:0.020220589 38:0.2 #
0.11594063202507891 1:1 2:0 3:0.68000001 4:1 5:0.02 6:0 7:1 8:1 9:0 10:0.0099999998 11:1 12:0 13:0 14:0 15:0 16:1 17:0 18:0 19:1 20:0 21:0 22:0 23:0 24:0 25:0 26:0 27:0 28:1 29:0 30:0 31:0 32:0 33:0 34:0.2 35:0.40000001 36:0.60000002 37:0.2 38:0.2 #
0.11594063202507891 1:1 2:0 3:0.5 4:1 5:0.02 6:0 7:1 8:1 9:0 10:0.0099999998 11:0 12:0 13:0 14:0 15:0 16:0 17:0 18:0 19:0 20:0 21:0 22:0 23:0 24:1 25:0 26:0 27:0 28:0 29:1 30:0 31:0 32:0 33:0 34:0.076470651 35:0.018823033 36:0.86892807 37:0.03580045 38:0.60000002 #
-0.11594063202507891 1:1 2:0 3:0.25999999 4:1 5:0.02 6:0 7:1 8:1 9:0 10:0.0099999998 11:1 12:0 13:0 14:0 15:0 16:1 17:0 18:0 19:1 20:0 21:0 22:0 23:0 24:0 25:0 26:0 27:0 28:0 29:1 30:0 31:0 32:0 33:0 34:0.42857143 35:0.2857143 36:0.2857143 37:0.2857143 38:0.2 #
-0.11594063202507891 1:1 2:0 3:0.16 4:1 5:0.02 6:0 7:1 8:1 9:0 10:0.85000002 11:1 12:0 13:0 14:0 15:1 16:1 17:0 18:0 19:1 20:0 21:0 22:0 23:0 24:0 25:0 26:0 27:0 28:1 29:0 30:0 31:0 32:0 33:0 34:0.95971566 35:0.015910629 36:0.0072782668 37:0.017433988 38:0.1 #
0.11594063202507891 1:1 2:1 3:0.12 4:0 5:0 6:0 7:1 8:0 9:1 10:0.0099999998 11:1 12:0 13:0 14:0 15:0 16:1 17:0 18:0 19:0 20:0 21:0 22:0 23:0 24:0 25:0 26:0 27:0 28:0 29:0 30:1 31:0 32:0 33:0 34:0.012518893 35:0.0012732471 36:0.012083525 37:0.97414076 38:0.40000001 #
-0.11594063202507891 1:0 2:1 3:0.34 4:0 5:0 6:0 7:1 8:1 9:0 10:0.07 11:1 12:0 13:0 14:1 15:1 16:1 17:0 18:0 19:0 20:0 21:0 22:0 23:0 24:0 25:0 26:0 27:1 28:0 29:0 30:0 31:0 32:0 33:1 34:0.029122679 35:0.0094648711 36:0.87550056 37:0.086639971 38:0.1 #
-0.11594063202507891 1:0 2:1 3:0.039999999 4:0 5:0 6:0 7:1 8:0 9:0 10:0.07 11:1 12:0 13:0 14:0 15:0 16:1 17:0 18:0 19:0 20:0 21:0 22:0 23:0 24:1 25:0 26:0 27:1 28:0 29:0 30:0 31:0 32:0 33:0 34:0.041666668 35:0.0625 36:0.10416666 37:0.83333331 38:0.2 #
-0.11594063202507891 1:0 2:1 3:0.25999999 4:0 5:0 6:0 7:1 8:1 9:0 10:0.0099999998 11:1 12:0 13:0 14:0 15:0 16:1 17:0 18:0 19:1 20:0 21:0 22:0 23:0 24:0 25:0 26:0 27:0 28:1 29:0 30:0 31:0 32:0 33:0 34:0.5 35:0.5 36:0.5 37:0.5 38:0.2 #
0.11594063202507891 1:1 2:0 3:0.57999998 4:1 5:0.02 6:0 7:1 8:1 9:0 10:0.050000001 11:0 12:0 13:0 14:0 15:0 16:1 17:1 18:0 19:1 20:0 21:0 22:0 23:0 24:0 25:0 26:0 27:1 28:0 29:0 30:0 31:0 32:0 33:0 34:0.956402 35:0.011014227 36:0.019733822 37:0.013767784 38:0.2 #
0.11594063202507891 1:1 2:0 3:0.44 4:0 5:0.039999999 6:0 7:1 8:1 9:0 10:0.02 11:0 12:0 13:0 14:0 15:0 16:1 17:1 18:0 19:1 20:0 21:0 22:0 23:0 24:0 25:0 26:0 27:1 28:0 29:0 30:0 31:0 32:0 33:0 34:0.83500147 35:0.12906058 36:0.016681299 37:0.019373721 38:0.30000001 #
0.11594063202507891 1:1 2:0 3:0.28 4:1 5:0.02 6:0 7:1 8:1 9:0 10:0.02 11:0 12:0 13:0 14:0 15:0 16:1 17:1 18:0 19:1 20:0 21:0 22:0 23:0 24:0 25:0 26:0 27:1 28:0 29:0 30:0 31:0 32:0 33:0 34:0.83500147 35:0.12906058 36:0.016681299 37:0.019373721 38:0.30000001 #
0.11594063202507891 1:1 2:0 3:0.079999998 4:1 5:0.02 6:0 7:1 8:1 9:0 10:0.039999999 11:0 12:0 13:0 14:0 15:0 16:1 17:1 18:0 19:1 20:0 21:0 22:0 23:0 24:0 25:0 26:0 27:1 28:0 29:0 30:0 31:0 32:0 33:0 34:0.8338201 35:0.12850468 36:0.019859813 37:0.018399533 38:0.2 #
0.11594063202507891 1:0 2:1 3:0.02 4:0 5:0 6:0 7:1 8:1 9:0 10:0.02 11:0 12:1 13:0 14:1 15:1 16:1 17:0 18:0 19:0 20:0 21:0 22:0 23:0 24:0 25:0 26:0 27:1 28:0 29:0 30:0 31:1 32:0 33:0 34:0.5 35:0.5 36:0.5 37:0.5 38:0.1 #
-0.11594063202507891 1:1 2:1 3:0.18000001 4:0 5:0 6:0 7:1 8:1 9:0 10:0.0099999998 11:0 12:1 13:0 14:0 15:1 16:1 17:0 18:1 19:0 20:0 21:0 22:0 23:0 24:0 25:0 26:0 27:1 28:0 29:0 30:0 31:0 32:0 33:0 34:0.80000001 35:0.2 36:0.2 37:0.2 38:0.1 #
0.11594063202507891 1:1 2:0 3:0.25999999 4:1 5:0.02 6:0 7:1 8:1 9:0 10:0.11 11:1 12:0 13:0 14:0 15:1 16:1 17:0 18:0 19:1 20:0 21:0 22:0 23:0 24:0 25:0 26:0 27:1 28:0 29:0 30:0 31:0 32:0 33:0 34:0.73417723 35:0.25316456 36:0.012658228 37:0.025316456 38:0.1 #
-0.11594063202507891 1:1 2:0 3:0.46000001 4:1 5:0.02 6:0 7:1 8:1 9:0 10:0.85000002 11:1 12:0 13:0 14:0 15:1 16:1 17:0 18:0 19:1 20:0 21:0 22:0 23:0 24:0 25:0 26:0 27:0 28:1 29:0 30:0 31:0 32:0 33:0 34:0.95971566 35:0.015910629 36:0.0072782668 37:0.017433988 38:0.1 #
0.11594063202507891 1:1 2:1 3:0.16 4:0 5:0 6:0 7:1 8:1 9:0 10:0.0099999998 11:1 12:0 13:0 14:0 15:0 16:1 17:1 18:0 19:1 20:0 21:0 22:0 23:0 24:1 25:0 26:0 27:1 28:0 29:0 30:0 31:0 32:0 33:0 34:0.8125 35:0.083333336 36:0.076388888 37:0.041666668 38:0.69999999 #
-0.11594063202507891 1:1 2:0 3:1.4400001 4:0 5:0.039999999 6:0 7:1 8:0 9:1 10:0.0099999998 11:1 12:0 13:0 14:0 15:0 16:1 17:1 18:0 19:0 20:0 21:0 22:0 23:0 24:1 25:0 26:0 27:0 28:0 29:0 30:1 31:0 32:0 33:0 34:0.54100227 35:0.076309793 36:0.1332574 37:0.25170842 38:0.60000002 #
-0.11594063202507891 1:1 2:0 3:0.12 4:1 5:0.02 6:0 7:1 8:0 9:1 10:0.1 11:0 12:0 13:0 14:1 15:0 16:1 17:0 18:0 19:0 20:0 21:0 22:0 23:0 24:0 25:0 26:0 27:0 28:0 29:0 30:1 31:0 32:0 33:0 34:0.5 35:0.5 36:0.5 37:0.5 38:0.1 #
-0.11594063202507891 1:0 2:1 3:0.079999998 4:0 5:0 6:0 7:1 8:0 9:0 10:0.0099999998 11:1 12:0 13:0 14:0 15:0 16:1 17:0 18:0 19:0 20:0 21:0 22:0 23:0 24:0 25:0 26:0 27:1 28:0 29:0 30:0 31:0 32:0 33:0 34:0.35247257 35:0.10822185 36:0.131219 37:0.40838718 38:0.2 #
-0.11594063202507891 1:1 2:1 3:0.079999998 4:0 5:0 6:0 7:1 8:0 9:1 10:0.0099999998 11:0 12:0 13:0 14:0 15:0 16:1 17:1 18:0 19:0 20:0 21:0 22:0 23:0 24:0 25:0 26:0 27:0 28:0 29:0 30:1 31:0 32:0 33:0 34:0.31622741 35:0.068692498 36:0.34687144 37:0.26828197 38:0.40000001 #
-0.11594063202507891 1:1 2:1 3:0.079999998 4:0 5:0 6:0 7:1 8:0 9:0 10:0.0099999998 11:1 12:0 13:0 14:0 15:0 16:1 17:0 18:0 19:0 20:0 21:0 22:0 23:0 24:0 25:0 26:0 27:1 28:0 29:0 30:0 31:0 32:0 33:0 34:0.051771116 35:0.011054886 36:0.11448812 37:0.82271701 38:0.2 #
-0.11594063202507891 1:0 2:1 3:0.12 4:0 5:0 6:0 7:1 8:0 9:0 10:0.0099999998 11:1 12:0 13:0 14:0 15:0 16:1 17:0 18:0 19:0 20:0 21:0 22:0 23:0 24:0 25:0 26:0 27:1 28:0 29:0 30:0 31:0 32:0 33:0 34:0.050684933 35:0.0082191778 36:0.060273971 37:0.88356167 38:0.2 #
0.11594063202507891 1:0 2:1 3:0.079999998 4:0 5:0 6:0 7:1 8:1 9:0 10:0.02 11:1 12:0 13:0 14:0 15:0 16:1 17:0 18:1 19:0 20:0 21:0 22:0 23:0 24:1 25:0 26:0 27:0 28:0 29:1 30:0 31:0 32:0 33:0 34:0.025227631 35:0.0062208064 36:0.91943085 37:0.049163744 38:0.40000001 #
0.11594063202507891 1:1 2:0 3:0.47999999 4:1 5:0.02 6:0 7:1 8:1 9:0 10:0.22 11:1 12:0 13:0 14:0 15:1 16:1 17:0 18:1 19:0 20:0 21:0 22:0 23:0 24:0 25:0 26:0 27:0 28:1 29:0 30:0 31:0 32:0 33:0 34:0.70588237 35:0.125 36:0.15257353 37:0.020220589 38:0.1 #
0.11594063202507891 1:1 2:0 3:0.38 4:1 5:0.02 6:0 7:1 8:1 9:0 10:0.22 11:1 12:0 13:0 14:0 15:1 16:1 17:0 18:1 19:0 20:0 21:0 22:0 23:0 24:0 25:0 26:0 27:0 28:1 29:0 30:0 31:0 32:0 33:0 34:0.70588237 35:0.125 36:0.15257353 37:0.020220589 38:0.1 #
0.11594063202507891 1:0 2:1 3:0.039999999 4:0 5:0 6:0 7:1 8:1 9:0 10:0.49000001 11:0 12:1 13:0 14:0 15:1 16:1 17:0 18:0 19:0 20:0 21:0 22:0 23:0 24:0 25:0 26:0 27:0 28:0 29:1 30:0 31:0 32:0 33:0 34:0.0054719565 35:0.00034199728 36:0.97503418 37:0.019835841 38:0.1 #
0.11594063202507891 1:1 2:0 3:0.25999999 4:1 5:0.02 6:0 7:1 8:1 9:0 10:0.22 11:1 12:0 13:0 14:0 15:1 16:1 17:0 18:1 19:0 20:0 21:0 22:0 23:0 24:0 25:0 26:0 27:0 28:1 29:0 30:0 31:0 32:0 33:0 34:0.70588237 35:0.125 36:0.15257353 37:0.020220589 38:0.1 #
-0.11594063202507891 1:1 2:0 3:0.039999999 4:1 5:0.02 6:0 7:1 8:1 9:0 10:0.13 11:1 12:0 13:0 14:1 15:1 16:1 17:0 18:0 19:0 20:0 21:0 22:0 23:0 24:0 25:0 26:1 27:0 28:1 29:0 30:0 31:0 32:0 33:1 34:0.5 35:0.5 36:0.5 37:0.5 38:0.1 #
0.11594063202507891 1:0 2:1 3:0.039999999 4:0 5:0 6:0 7:1 8:0 9:1 10:0.0099999998 11:1 12:0 13:0 14:0 15:0 16:1 17:0 18:0 19:0 20:0 21:0 22:0 23:0 24:0 25:0 26:0 27:0 28:0 29:0 30:1 31:0 32:0 33:0 34:0.0025578025 35:0.00057960057 36:0.021609021 37:0.97526199 38:0.2 #
0.11594063202507891 1:1 2:1 3:0.23999999 4:0 5:0 6:0 7:1 8:1 9:0 10:0.0099999998 11:1 12:0 13:0 14:1 15:0 16:1 17:0 18:0 19:1 20:0 21:0 22:0 23:0 24:0 25:1 26:1 27:0 28:1 29:0 30:0 31:0 32:0 33:1 34:0.65502185 35:0.30567685 36:0.021834061 37:0.026200874 38:0.5 #
-0.11594063202507891 1:0 2:1 3:0.16 4:0 5:0 6:0 7:1 8:1 9:0 10:0.07 11:1 12:0 13:0 14:1 15:1 16:1 17:0 18:0 19:0 20:0 21:0 22:0 23:0 24:0 25:0 26:0 27:1 28:0 29:0 30:0 31:0 32:0 33:1 34:0.029122679 35:0.0094648711 36:0.87550056 37:0.086639971 38:0.1 #
0.11594063202507891 1:0 2:1 3:0.039999999 4:0 5:0 6:0 7:1 8:0 9:1 10:0.1 11:0 12:0 13:0 14:1 15:0 16:1 17:0 18:0 19:0 20:0 21:0 22:0 23:0 24:0 25:0 26:0 27:0 28:0 29:0 30:1 31:0 32:0 33:0 34:0.5 35:0.5 36:0.5 37:0.5 38:0.1 #
-0.11594063202507891 1:0 2:1 3:0.079999998 4:0 5:0 6:0 7:1 8:1 9:0 10:0.02 11:0 12:1 13:0 14:0 15:0 16:1 17:0 18:0 19:0 20:0 21:0 22:0 23:0 24:1 25:0 26:0 27:0 28:0 29:1 30:0 31:0 32:0 33:0 34:0.003773585 35:0.00039037084 36:0.98698765 37:0.0091086533 38:0.2 #
0.11594063202507891 1:1 2:1 3:0.22 4:0 5:0 6:0 7:1 8:0 9:1 10:0.0099999998 11:1 12:0 13:0 14:0 15:0 16:0 17:0 18:0 19:0 20:0 21:0 22:0 23:0 24:1 25:0 26:0 27:0 28:0 29:0 30:1 31:0 32:0 33:0 34:0.0051671243 35:0.00096883578 36:0.0077506863 37:0.98643631 38:0.40000001 #
-0.11594063202507891 1:0 2:1 3:0.36000001 4:0 5:0 6:0 7:1 8:1 9:0 10:0.07 11:1 12:0 13:0 14:1 15:1 16:1 17:0 18:0 19:0 20:0 21:0 22:0 23:0 24:0 25:0 26:0 27:0 28:1 29:0 30:0 31:0 32:0 33:1 34:0.029122679 35:0.0094648711 36:0.87550056 37:0.086639971 38:0.1 #
0.11594063202507891 1:0 2:1 3:0.02 4:0 5:0 6:0 7:1 8:0 9:0 10:0.0099999998 11:0 12:0 13:0 14:1 15:0 16:1 17:0 18:0 19:0 20:0 21:0 22:0 23:0 24:1 25:0 26:0 27:0 28:0 29:1 30:0 31:0 32:0 33:0 34:0.25205216 35:0.12433607 36:0.31458232 37:0.30951232 38:0.30000001 #
0.11594063202507891 1:0 2:1 3:0.12 4:0 5:0 6:0 7:1 8:0 9:1 10:0.11 11:0 12:0 13:0 14:1 15:0 16:1 17:0 18:0 19:0 20:0 21:0 22:0 23:0 24:0 25:0 26:0 27:0 28:0 29:0 30:1 31:0 32:0 33:0 34:0.5 35:0.5 36:0.5 37:0.5 38:0.1 #
0.11594063202507891 1:1 2:0 3:0.31999999 4:1 5:0.02 6:0 7:1 8:1 9:0 10:0.0099999998 11:0 12:0 13:0 14:0 15:0 16:1 17:1 18:0 19:0 20:0 21:0 22:0 23:0 24:0 25:0 26:0 27:1 28:0 29:0 30:0 31:0 32:0 33:0 34:0.0075880759 35:0.0010840108 36:0.056058846 37:0.93542391 38:0.69999999 #
0.11594063202507891 1:1 2:0 3:0.41999999 4:1 5:0.02 6:0 7:1 8:1 9:0 10:0.050000001 11:0 12:0 13:0 14:0 15:0 16:1 17:1 18:0 19:0 20:0 21:0 22:0 23:0 24:0 25:0 26:0 27:1 28:0 29:0 30:0 31:0 32:0 33:0 34:0.027868422 35:0.009026316 36:0.89600003 37:0.067157894 38:0.2 #
-0.11594063202507891 1:0 2:1 3:0.16 4:0 5:0 6:0 7:1 8:1 9:0 10:0.07 11:1 12:0 13:0 14:1 15:1 16:1 17:0 18:0 19:0 20:0 21:0 22:0 23:0 24:0 25:0 26:0 27:1 28:0 29:0 30:0 31:0 32:0 33:1 34:0.029122679 35:0.0094648711 36:0.87550056 37:0.086639971 38:0.1 #
0.11594063202507891 1:0 2:1 3:0.56 4:0 5:0 6:0 7:1 8:0 9:1 10:0.02 11:1 12:0 13:0 14:0 15:0 16:1 17:0 18:0 19:0 20:0 21:0 22:0 23:0 24:0 25:0 26:0 27:0 28:0 29:0 30:1 31:0 32:0 33:0 34:0.023433132 35:0.0019061659 36:0.081088297 37:0.89359784 38:0.30000001 #
0.11594063202507891 1:1 2:1 3:0.46000001 4:0 5:0 6:0 7:1 8:0 9:1 10:0.0099999998 11:1 12:0 13:0 14:0 15:0 16:1 17:0 18:0 19:0 20:0 21:0 22:0 23:0 24:1 25:0 26:0 27:0 28:0 29:0 30:1 31:0 32:0 33:0 34:0.023433132 35:0.0019061659 36:0.081088297 37:0.89359784 38:0.2 #
0.11594063202507891 1:0 2:1 3:0.25999999 4:0 5:0 6:0 7:1 8:0 9:1 10:0.0099999998 11:1 12:0 13:0 14:0 15:0 16:1 17:0 18:0 19:0 20:0 21:0 22:0 23:0 24:0 25:0 26:0 27:0 28:0 29:0 30:1 31:0 32:0 33:0 34:0.023433132 35:0.0019061659 36:0.081088297 37:0.89359784 38:0.30000001 #
0.11594063202507891 1:1 2:0 3:0.22 4:1 5:0.02 6:0 7:1 8:1 9:0 10:0.20999999 11:1 12:0 13:0 14:0 15:1 16:1 17:0 18:0 19:0 20:0 21:0 22:0 23:0 24:0 25:0 26:0 27:1 28:0 29:0 30:0 31:0 32:0 33:0 34:0.027868422 35:0.009026316 36:0.89600003 37:0.067157894 38:0.1 #
-0.11594063202507891 1:1 2:0 3:0.039999999 4:1 5:0.02 6:0 7:1 8:1 9:0 10:0.13 11:1 12:0 13:0 14:1 15:1 16:1 17:0 18:0 19:0 20:0 21:0 22:0 23:0 24:0 25:0 26:1 27:0 28:1 29:0 30:0 31:0 32:0 33:1 34:0.5 35:0.5 36:0.5 37:0.5 38:0.1 #
0.11594063202507891 1:1 2:1 3:0.16 4:0 5:0 6:0 7:1 8:1 9:0 10:0.0099999998 11:0 12:0 13:0 14:0 15:0 16:1 17:1 18:1 19:0 20:0 21:0 22:0 23:0 24:0 25:0 26:0 27:0 28:1 29:0 30:0 31:0 32:0 33:0 34:0.022526871 35:0.0067580612 36:0.88730127 37:0.083445966 38:0.69999999 #
0.11594063202507891 1:1 2:0 3:0.34 4:1 5:0.02 6:1 7:1 8:1 9:0 10:0.0099999998 11:0 12:0 13:0 14:0 15:0 16:1 17:1 18:0 19:0 20:0 21:0 22:0 23:0 24:1 25:0 26:0 27:1 28:0 29:0 30:0 31:0 32:0 33:0 34:0.90389913 35:0.026066056 36:0.05094162 37:0.019104525 38:0.5 #
0.11594063202507891 1:1 2:1 3:0.039999999 4:0 5:0 6:0 7:1 8:1 9:0 10:0.050000001 11:1 12:0 13:0 14:0 15:0 16:1 17:0 18:0 19:1 20:0 21:0 22:0 23:0 24:0 25:0 26:0 27:1 28:0 29:0 30:0 31:0 32:0 33:0 34:0.66666669 35:0.33333334 36:0.33333334 37:0.33333334 38:0.2 #
0.11594063202507891 1:1 2:0 3:0.28 4:1 5:0.02 6:0 7:1 8:1 9:0 10:0.079999998 11:0 12:0 13:0 14:0 15:0 16:1 17:1 18:0 19:0 20:0 21:0 22:0 23:0 24:1 25:0 26:0 27:0 28:0 29:1 30:0 31:0 32:0 33:0 34:0.015058677 35:0.0034222174 36:0.94425625 37:0.037267465 38:0.30000001 #
-0.11594063202507891 1:0 2:1 3:0.039999999 4:0 5:0 6:0 7:1 8:1 9:0 10:0.059999999 11:0 12:1 13:0 14:0 15:0 16:1 17:0 18:0 19:1 20:0 21:0 22:0 23:0 24:0 25:0 26:0 27:0 28:0 29:1 30:0 31:0 32:0 33:0 34:0.54310346 35:0.39655173 36:0.02586207 37:0.05172414 38:0.2 #
0.11594063202507891 1:1 2:1 3:0.41999999 4:0 5:0 6:0 7:1 8:0 9:0 10:0.0099999998 11:1 12:0 13:0 14:1 15:0 16:0 17:0 18:0 19:1 20:0 21:0 22:0 23:0 24:0 25:1 26:1 27:0 28:0 29:0 30:1 31:0 32:0 33:1 34:0.1025641 35:0.025641026 36:0.82051283 37:0.1025641 38:0.69999999 #
-0.11594063202507891 1:1 2:1 3:0.46000001 4:0 5:0 6:0 7:1 8:1 9:0 10:0.0099999998 11:1 12:0 13:0 14:0 15:0 16:1 17:0 18:0 19:0 20:0 21:0 22:0 23:0 24:0 25:0 26:0 27:1 28:0 29:0 30:0 31:0 32:0 33:0 34:0.3779918 35:0.092089221 36:0.3361339 37:0.1937945 38:0.40000001 #
-0.11594063202507891 1:0 2:1 3:0.059999999 4:0 5:0 6:0 7:1 8:1 9:0 10:0.0099999998 11:1 12:0 13:0 14:0 15:0 16:1 17:0 18:0 19:0 20:0 21:0 22:0 23:0 24:0 25:0 26:0 27:0 28:0 29:1 30:0 31:0 32:0 33:0 34:0.028814124 35:0.007161892 36:0.85709524 37:0.10726183 38:0.30000001 #
-0.11594063202507891 1:1 2:0 3:0.51999998 4:1 5:0.02 6:0 7:1 8:1 9:0 10:0.16 11:0 12:0 13:0 14:1 15:0 16:1 17:0 18:0 19:0 20:0 21:0 22:0 23:0 24:0 25:1 26:1 27:1 28:0 29:0 30:0 31:1 32:0 33:0 34:0.5 35:0.5 36:0.5 37:0.5 38:0.1 #
0.11594063202507891 1:1 2:0 3:0.47999999 4:1 5:0.02 6:0 7:1 8:1 9:0 10:0.02 11:0 12:0 13:0 14:0 15:0 16:1 17:1 18:0 19:0 20:0 21:0 22:0 23:0 24:1 25:0 26:0 27:0 28:0 29:1 30:0 31:0 32:0 33:0 34:0.024229076 35:0.0088105723 36:0.94052863 37:0.030837005 38:0.5 #
