SVM-light Version V6.02
0 # kernel type
3 # kernel parameter -d 
1 # kernel parameter -g 
1 # kernel parameter -s 
1 # kernel parameter -r 
empty# kernel parameter -u 
41 # highest feature index 
499 # number of training documents 
84 # number of support vectors plus 1 
1.1311055 # threshold b, each following line is a SV (starting with alpha*y)
-0.038978184661690785 1:1 2:0 3:0.31999999 4:1 5:0.02 6:0 7:1 8:1 9:0 10:0.0099999998 11:1 12:1 13:1 14:0 15:0 16:1 17:1 18:1 19:0 20:0 21:0 22:0 23:0 24:0 25:0 26:0 27:1 28:0 29:0 30:0 31:0 32:0 33:0 34:0.027893195 35:0.00066996436 36:0.005578639 37:0.0003030365 38:0.89581025 39:0.0012429857 40:0.070751049 41:0.0010432252 #
0.11653460476686961 1:0 2:1 3:0.2 4:0 5:0 6:0 7:1 8:1 9:0 10:0.0099999998 11:0 12:0 13:0 14:0 15:0 16:0 17:1 18:1 19:0 20:0 21:0 22:0 23:0 24:0 25:0 26:0 27:1 28:0 29:0 30:0 31:0 32:0 33:0 34:0.7654596 35:0.005000086 36:0.2005571 37:0.0047252011 38:0.01183844 39:0.001276347 40:0.022423398 41:0.0017471638 #
-0.032365463838130992 1:0 2:1 3:0.25999999 4:0 5:0 6:0 7:1 8:1 9:0 10:0.0099999998 11:0 12:1 13:0 14:0 15:0 16:0 17:0 18:0 19:0 20:0 21:0 22:0 23:0 24:0 25:0 26:0 27:1 28:0 29:0 30:0 31:0 32:0 33:0 34:0.95435154 35:0.0043101846 36:0.012798634 37:0.0023212037 38:0.014078498 39:0.0024329205 40:0.019624574 41:0.0028643422 #
-0.11653460476686961 1:0 2:1 3:0.60000002 4:0 5:0 6:0 7:1 8:1 9:0 10:0.0099999998 11:0 12:1 13:0 14:0 15:0 16:1 17:0 18:0 19:1 20:0 21:0 22:0 23:0 24:0 25:0 26:0 27:1 28:0 29:0 30:0 31:0 32:0 33:0 34:0.93111217 35:0.0032128214 36:0.048124898 37:0.0027151215 38:0.0099790758 39:0.0012609032 40:0.011105746 41:0.0013294229 #
-0.059520595888833128 1:1 2:0 3:0.16 4:1 5:0.02 6:0 7:1 8:1 9:0 10:0.0099999998 11:1 12:1 13:1 14:0 15:0 16:0 17:1 18:0 19:0 20:0 21:0 22:0 23:0 24:0 25:0 26:0 27:1 28:0 29:0 30:0 31:0 32:0 33:0 34:0.027224353 35:0.0012800418 36:0.0047642617 37:0.00054162636 38:0.061192922 39:0.0018852884 40:0.90694219 41:0.0022850998 #
-0.11653460476686961 1:0 2:1 3:0.46000001 4:0 5:0 6:0 7:1 8:1 9:0 10:0.0099999998 11:0 12:0 13:0 14:0 15:0 16:1 17:0 18:0 19:1 20:0 21:0 22:0 23:0 24:0 25:0 26:0 27:1 28:0 29:0 30:0 31:0 32:0 33:0 34:0.95025128 35:0.0048727561 36:0.037688442 37:0.0042680185 38:0.0075376886 39:0.0019383869 40:0.0055276384 41:0.0016616154 #
0.11653460476686961 1:1 2:0 3:0.12 4:1 5:0.02 6:0 7:1 8:1 9:0 10:0.02 11:0 12:0 13:0 14:0 15:0 16:1 17:1 18:1 19:0 20:0 21:0 22:0 23:0 24:0 25:0 26:0 27:1 28:0 29:0 30:0 31:0 32:0 33:0 34:0.13701162 35:0.0055862307 36:0.024551215 37:0.0025140645 38:0.74445617 39:0.0070858174 40:0.094508976 41:0.0047524362 #
0.11653460476686961 1:1 2:0 3:0.62 4:1 5:0.02 6:0 7:1 8:1 9:0 10:0.94 11:1 12:0 13:0 14:0 15:0 16:1 17:0 18:0 19:0 20:0 21:0 22:0 23:0 24:0 25:0 26:1 27:1 28:0 29:0 30:0 31:0 32:0 33:0 34:0.5 35:0.28867513 36:0.5 37:0.28867513 38:0.5 39:0.28867513 40:0.5 41:0.28867513 #
0.040925955807482373 1:1 2:0 3:1.26 4:1 5:0.02 6:0 7:1 8:1 9:0 10:1.16 11:0 12:0 13:0 14:1 15:0 16:1 17:0 18:0 19:0 20:0 21:0 22:0 23:0 24:0 25:1 26:1 27:1 28:0 29:0 30:0 31:0 32:0 33:0 34:0.5 35:0.28867513 36:0.5 37:0.28867513 38:0.5 39:0.28867513 40:0.5 41:0.28867513 #
-0.11653460476686961 1:1 2:0 3:0.63999999 4:1 5:0.02 6:0 7:1 8:0 9:0 10:5.0900002 11:0 12:0 13:0 14:0 15:0 16:1 17:0 18:0 19:0 20:0 21:0 22:0 23:0 24:1 25:0 26:0 27:1 28:0 29:0 30:0 31:0 32:0 33:0 34:0.16363636 35:0.049436014 36:0.018181818 37:0.017854191 38:0.60000002 39:0.065465368 40:0.25454545 41:0.05821022 #
-0.11653460476686961 1:1 2:0 3:0.40000001 4:1 5:0.02 6:0 7:1 8:1 9:0 10:0.0099999998 11:0 12:1 13:0 14:0 15:0 16:1 17:0 18:0 19:1 20:0 21:0 22:0 23:0 24:0 25:0 26:0 27:1 28:0 29:0 30:0 31:0 32:0 33:0 34:0.9748162 35:0.0019594566 36:0.0045362115 37:0.00084037491 38:0.013452213 39:0.0014406869 40:0.0075082122 41:0.0010795565 #
-0.11635719515321891 1:1 2:0 3:0.34 4:1 5:0.02 6:0 7:1 8:0 9:0 10:0.090000004 11:1 12:0 13:0 14:1 15:0 16:1 17:0 18:0 19:0 20:0 21:0 22:0 23:0 24:0 25:0 26:0 27:1 28:0 29:0 30:0 31:0 32:0 33:1 34:0.5 35:0.28867513 36:0.5 37:0.28867513 38:0.5 39:0.28867513 40:0.5 41:0.28867513 #
0.11653460476686961 1:0 2:1 3:0.23999999 4:0 5:0 6:0 7:1 8:1 9:0 10:0.029999999 11:0 12:1 13:1 14:0 15:0 16:1 17:0 18:0 19:0 20:0 21:0 22:0 23:0 24:1 25:0 26:0 27:1 28:0 29:0 30:0 31:0 32:0 33:0 34:0.94107324 35:0.00030145762 36:0.030174611 37:0.00021899077 38:0.015161869 39:0.0001564289 40:0.013593569 41:0.00014823573 #
0.11653460476686961 1:0 2:1 3:0.22 4:0 5:0 6:0 7:1 8:1 9:0 10:0.029999999 11:1 12:0 13:0 14:0 15:1 16:1 17:0 18:0 19:1 20:0 21:0 22:0 23:0 24:0 25:0 26:0 27:1 28:0 29:0 30:0 31:0 32:0 33:0 34:0.63636363 35:0.13886593 36:0.18181819 37:0.11134044 38:0.27272728 39:0.12856486 40:0.090909094 41:0.082988262 #
0.11653460476686961 1:0 2:1 3:0.22 4:0 5:0 6:0 7:1 8:1 9:0 10:0.050000001 11:1 12:0 13:0 14:0 15:0 16:1 17:0 18:0 19:1 20:0 21:0 22:0 23:0 24:0 25:0 26:0 27:1 28:0 29:0 30:0 31:0 32:0 33:0 34:0.98766786 35:0.0018267469 36:0.0041107154 37:0.0010590532 38:0.0063030967 39:0.0013099585 40:0.0024664293 41:0.00082101609 #
-0.11653460476686961 1:0 2:1 3:0.079999998 4:0 5:0 6:0 7:1 8:1 9:0 10:0.0099999998 11:0 12:0 13:0 14:0 15:0 16:1 17:1 18:1 19:1 20:0 21:0 22:0 23:0 24:0 25:0 26:0 27:1 28:0 29:0 30:0 31:0 32:0 33:0 34:0.92702234 35:0.0032722789 36:0.050498653 37:0.0027548496 38:0.012664239 39:0.0014067994 40:0.010131392 41:0.0012598926 #
-0.11653460476686961 1:0 2:1 3:0.16 4:0 5:0 6:0 7:1 8:1 9:0 10:0.0099999998 11:0 12:0 13:0 14:0 15:0 16:1 17:1 18:0 19:1 20:0 21:0 22:0 23:0 24:0 25:0 26:0 27:1 28:0 29:0 30:0 31:0 32:0 33:0 34:0.90115207 35:0.0014903712 36:0.080744103 37:0.0013604582 38:0.010248865 39:0.00050293573 40:0.0079048425 41:0.00044221641 #
-0.031483887411519806 1:1 2:0 3:1.2 4:1 5:0.02 6:0 7:1 8:1 9:0 10:0.0099999998 11:1 12:0 13:1 14:0 15:0 16:0 17:0 18:0 19:0 20:0 21:0 22:0 23:0 24:1 25:0 26:0 27:1 28:0 29:0 30:0 31:0 32:0 33:0 34:0.083890893 35:0.0044465554 36:0.016726712 37:0.002057004 38:0.72619659 39:0.0071521932 40:0.17370047 41:0.0060766186 #
-0.11653460476686961 1:0 2:1 3:0.079999998 4:0 5:0 6:0 7:1 8:1 9:0 10:0.0099999998 11:0 12:0 13:0 14:0 15:0 16:1 17:1 18:0 19:0 20:0 21:0 22:0 23:0 24:0 25:0 26:0 27:1 28:0 29:0 30:0 31:0 32:0 33:0 34:0.94107324 35:0.00030145762 36:0.030174611 37:0.00021899077 38:0.015161869 39:0.0001564289 40:0.013593569 41:0.00014823573 #
-0.11653460476686961 1:0 2:1 3:0.079999998 4:0 5:0 6:0 7:1 8:1 9:0 10:0.0099999998 11:0 12:0 13:0 14:0 15:0 16:1 17:1 18:1 19:0 20:0 21:0 22:0 23:0 24:0 25:0 26:0 27:1 28:0 29:0 30:0 31:0 32:0 33:0 34:0.5 35:0.28867513 36:0.5 37:0.28867513 38:0.5 39:0.28867513 40:0.5 41:0.28867513 #
0.11653460476686961 1:1 2:0 3:0.059999999 4:1 5:0.02 6:0 7:1 8:0 9:0 10:0.13 11:0 12:0 13:0 14:1 15:0 16:1 17:0 18:0 19:0 20:0 21:0 22:0 23:0 24:0 25:0 26:0 27:1 28:0 29:0 30:0 31:0 32:0 33:0 34:0.5 35:0.28867513 36:0.5 37:0.28867513 38:0.5 39:0.28867513 40:0.5 41:0.28867513 #
0.11653460476686961 1:1 2:0 3:0.34 4:1 5:0.02 6:0 7:1 8:1 9:0 10:1.8200001 11:0 12:1 13:0 14:0 15:1 16:1 17:0 18:0 19:1 20:0 21:0 22:0 23:0 24:0 25:0 26:0 27:1 28:0 29:0 30:0 31:0 32:0 33:0 34:0.98766786 35:0.0018267469 36:0.0041107154 37:0.0010590532 38:0.0063030967 39:0.0013099585 40:0.0024664293 41:0.00082101609 #
0.11653460476686961 1:1 2:0 3:0.89999998 4:1 5:0.02 6:0 7:1 8:1 9:0 10:1.8200001 11:1 12:0 13:0 14:0 15:1 16:1 17:0 18:0 19:1 20:0 21:0 22:0 23:0 24:0 25:0 26:0 27:1 28:0 29:0 30:0 31:0 32:0 33:0 34:0.98766786 35:0.0018267469 36:0.0041107154 37:0.0010590532 38:0.0063030967 39:0.0013099585 40:0.0024664293 41:0.00082101609 #
-0.10795012087655609 1:1 2:1 3:0.039999999 4:0 5:0 6:0 7:1 8:0 9:0 10:0.059999999 11:0 12:0 13:0 14:1 15:0 16:1 17:0 18:0 19:0 20:0 21:0 22:0 23:0 24:0 25:0 26:0 27:1 28:0 29:0 30:0 31:0 32:0 33:0 34:0.5 35:0.28867513 36:0.5 37:0.28867513 38:0.5 39:0.28867513 40:0.5 41:0.28867513 #
0.11653460476686961 1:1 2:1 3:0.12 4:0 5:0 6:0 7:1 8:0 9:1 10:0.029999999 11:0 12:1 13:0 14:0 15:1 16:1 17:0 18:0 19:0 20:0 21:0 22:0 23:0 24:0 25:0 26:0 27:0 28:0 29:0 30:1 31:0 32:0 33:0 34:0.10898069 35:0.0005062375 36:0.036426306 37:0.00030435889 38:0.019303145 39:0.0002235205 40:0.83529514 41:0.00060257228 #
-0.087532071903557718 1:1 2:0 3:0.16 4:1 5:0.02 6:0 7:1 8:1 9:0 10:0.039999999 11:0 12:1 13:0 14:0 15:1 16:1 17:0 18:0 19:1 20:0 21:0 22:0 23:0 24:0 25:0 26:0 27:1 28:0 29:0 30:0 31:0 32:0 33:0 34:0.99009901 35:0.0098034414 36:0.0099009899 37:0.0098034414 38:0.0099009899 39:0.0098034414 40:0.0099009899 41:0.0098034414 #
-0.022771686967011373 1:1 2:0 3:0.51999998 4:1 5:0.02 6:0 7:1 8:1 9:0 10:0.41 11:0 12:1 13:0 14:0 15:1 16:1 17:0 18:0 19:0 20:0 21:0 22:0 23:0 24:0 25:0 26:0 27:1 28:0 29:0 30:0 31:0 32:0 33:0 34:0.94107324 35:0.00030145762 36:0.030174611 37:0.00021899077 38:0.015161869 39:0.0001564289 40:0.013593569 41:0.00014823573 #
0.11653460476686961 1:1 2:0 3:0.57999998 4:1 5:0.02 6:0 7:1 8:1 9:0 10:0.94 11:1 12:0 13:0 14:0 15:0 16:1 17:0 18:0 19:0 20:0 21:0 22:0 23:0 24:0 25:0 26:1 27:1 28:0 29:0 30:0 31:0 32:0 33:0 34:0.5 35:0.28867513 36:0.5 37:0.28867513 38:0.5 39:0.28867513 40:0.5 41:0.28867513 #
-0.11653460476686961 1:0 2:1 3:0.22 4:0 5:0 6:0 7:1 8:1 9:0 10:0.0099999998 11:0 12:0 13:0 14:0 15:0 16:1 17:0 18:0 19:0 20:0 21:0 22:0 23:0 24:0 25:0 26:0 27:1 28:0 29:0 30:0 31:0 32:0 33:0 34:0.95435154 35:0.0043101846 36:0.012798634 37:0.0023212037 38:0.014078498 39:0.0024329205 40:0.019624574 41:0.0028643422 #
0.11653460476686961 1:0 2:1 3:0.12 4:0 5:0 6:0 7:1 8:1 9:0 10:0.0099999998 11:0 12:0 13:0 14:0 15:0 16:1 17:1 18:0 19:0 20:0 21:0 22:0 23:0 24:0 25:0 26:0 27:1 28:0 29:0 30:0 31:0 32:0 33:0 34:0.54524088 35:0.017059453 36:0.19036427 37:0.01344986 38:0.18683901 39:0.013353719 40:0.079905994 41:0.0092893643 #
0.11653460476686961 1:0 2:1 3:0.36000001 4:0 5:0 6:0 7:1 8:1 9:0 10:0.14 11:0 12:0 13:0 14:0 15:0 16:1 17:1 18:0 19:1 20:0 21:0 22:0 23:0 24:0 25:0 26:0 27:1 28:0 29:0 30:0 31:0 32:0 33:0 34:0.98766786 35:0.0018267469 36:0.0041107154 37:0.0010590532 38:0.0063030967 39:0.0013099585 40:0.0024664293 41:0.00082101609 #
0.11653460476686961 1:0 2:1 3:0.079999998 4:0 5:0 6:0 7:1 8:1 9:0 10:0.0099999998 11:0 12:0 13:0 14:0 15:0 16:1 17:0 18:0 19:0 20:0 21:0 22:0 23:0 24:0 25:0 26:0 27:0 28:0 29:1 30:0 31:0 32:0 33:0 34:0.062748015 35:0.002700387 36:0.0085565476 37:0.0010256072 38:0.484375 39:0.0055648782 40:0.44456846 41:0.0055332771 #
0.11653460476686961 1:0 2:1 3:0.14 4:0 5:0 6:0 7:1 8:1 9:0 10:0.0099999998 11:0 12:1 13:0 14:0 15:0 16:1 17:1 18:0 19:1 20:0 21:0 22:0 23:0 24:0 25:0 26:0 27:0 28:0 29:1 30:0 31:0 32:0 33:0 34:0.50835323 35:0.024394097 36:0.36754176 37:0.023525814 38:0.11694511 39:0.015680512 40:0.011933174 41:0.0052984217 #
0.097190432639472246 1:0 2:1 3:0.079999998 4:0 5:0 6:0 7:1 8:1 9:0 10:0.02 11:1 12:0 13:0 14:0 15:0 16:1 17:1 18:0 19:1 20:0 21:0 22:0 23:0 24:0 25:0 26:0 27:0 28:1 29:0 30:0 31:0 32:0 33:0 34:0.98766786 35:0.0018267469 36:0.0041107154 37:0.0010590532 38:0.0063030967 39:0.0013099585 40:0.0024664293 41:0.00082101609 #
-0.11653460476686961 1:1 2:1 3:0 4:0 5:0 6:0 7:1 8:0 9:1 10:0.0099999998 11:0 12:0 13:0 14:0 15:0 16:1 17:1 18:0 19:0 20:0 21:0 22:0 23:0 24:0 25:0 26:0 27:0 28:0 29:0 30:1 31:0 32:0 33:0 34:0.0080011431 35:0.00043474321 36:0.00095251703 37:0.00015053262 38:0.011501643 39:0.00052031828 40:0.97959232 41:0.00068995485 #
-0.11653460476686961 1:0 2:1 3:0.02 4:0 5:0 6:0 7:1 8:1 9:0 10:1.8200001 11:0 12:1 13:0 14:0 15:1 16:1 17:0 18:0 19:1 20:0 21:0 22:0 23:0 24:0 25:0 26:0 27:0 28:0 29:1 30:0 31:0 32:0 33:0 34:0.98766786 35:0.0018267469 36:0.0041107154 37:0.0010590532 38:0.0063030967 39:0.0013099585 40:0.0024664293 41:0.00082101609 #
-0.11653460476686961 1:0 2:1 3:0.02 4:0 5:0 6:0 7:1 8:1 9:0 10:0.050000001 11:0 12:0 13:0 14:0 15:1 16:1 17:0 18:0 19:0 20:0 21:0 22:0 23:0 24:0 25:0 26:0 27:0 28:0 29:1 30:0 31:0 32:0 33:0 34:0.16814159 35:0.004832244 36:0.036400069 37:0.0024198368 38:0.61212224 39:0.0062958319 40:0.18367006 41:0.0050030937 #
-0.11653460476686961 1:0 2:1 3:0.059999999 4:0 5:0 6:0 7:1 8:1 9:0 10:0.029999999 11:0 12:0 13:0 14:0 15:0 16:1 17:1 18:0 19:1 20:0 21:0 22:0 23:0 24:0 25:0 26:0 27:1 28:0 29:0 30:0 31:0 32:0 33:0 34:0.0053991517 35:0.0014388058 36:0.97030467 37:0.0033328303 38:0.015811801 39:0.0024493157 40:0.0092556886 41:0.0018801832 #
-0.11653460476686961 1:0 2:1 3:0.039999999 4:0 5:0 6:0 7:1 8:1 9:0 10:0.0099999998 11:0 12:0 13:0 14:0 15:0 16:1 17:1 18:0 19:0 20:0 21:0 22:0 23:0 24:0 25:0 26:0 27:1 28:0 29:0 30:0 31:0 32:0 33:0 34:0.5 35:0.28867513 36:0.5 37:0.28867513 38:0.5 39:0.28867513 40:0.5 41:0.28867513 #
0.11653460476686961 1:1 2:0 3:0.18000001 4:1 5:0.02 6:0 7:1 8:1 9:0 10:0.0099999998 11:0 12:0 13:0 14:0 15:1 16:1 17:0 18:0 19:0 20:0 21:0 22:0 23:0 24:1 25:0 26:0 27:1 28:0 29:0 30:0 31:0 32:0 33:0 34:0.94107324 35:0.00030145762 36:0.030174611 37:0.00021899077 38:0.015161869 39:0.0001564289 40:0.013593569 41:0.00014823573 #
0.11653460476686961 1:1 2:0 3:0.34 4:1 5:0.02 6:0 7:1 8:1 9:0 10:0.0099999998 11:0 12:0 13:0 14:0 15:0 16:1 17:1 18:0 19:0 20:0 21:0 22:0 23:1 24:0 25:0 26:0 27:1 28:0 29:0 30:0 31:0 32:0 33:0 34:0.90497309 35:0.0052183727 36:0.045612924 37:0.0037127882 38:0.025340512 39:0.0027965854 40:0.024707001 41:0.0027623042 #
0.042951609136823887 1:1 2:0 3:0.75999999 4:1 5:0.02 6:0 7:1 8:1 9:0 10:1.8200001 11:1 12:0 13:0 14:0 15:1 16:1 17:0 18:0 19:1 20:0 21:0 22:0 23:0 24:0 25:0 26:0 27:1 28:0 29:0 30:0 31:0 32:0 33:0 34:0.98766786 35:0.0018267469 36:0.0041107154 37:0.0010590532 38:0.0063030967 39:0.0013099585 40:0.0024664293 41:0.00082101609 #
-0.11653460476686961 1:1 2:0 3:0.95999998 4:1 5:0.02 6:0 7:1 8:1 9:0 10:0.0099999998 11:1 12:0 13:0 14:0 15:0 16:0 17:0 18:0 19:0 20:0 21:0 22:0 23:0 24:0 25:0 26:0 27:1 28:0 29:0 30:0 31:0 32:0 33:0 34:0.88181818 35:0.0076928129 36:0.089204542 37:0.0067924154 38:0.0125 39:0.0026475482 40:0.017613636 41:0.0031346281 #
-0.11653460476686961 1:1 2:0 3:0.12 4:1 5:0.02 6:0 7:1 8:1 9:0 10:0.02 11:1 12:0 13:0 14:0 15:0 16:1 17:0 18:0 19:0 20:0 21:0 22:0 23:1 24:1 25:0 26:0 27:1 28:0 29:0 30:0 31:0 32:0 33:0 34:0.24356869 35:0.010039391 36:0.068418175 37:0.0059048398 38:0.45265463 39:0.01164196 40:0.23645321 41:0.0099380761 #
-0.11653460476686961 1:1 2:0 3:0.94 4:1 5:0.02 6:0 7:1 8:1 9:0 10:0.0099999998 11:1 12:0 13:0 14:0 15:1 16:1 17:0 18:0 19:0 20:0 21:0 22:0 23:0 24:0 25:0 26:0 27:1 28:0 29:0 30:0 31:0 32:0 33:0 34:0.5 35:0.28867513 36:0.5 37:0.28867513 38:0.5 39:0.28867513 40:0.5 41:0.28867513 #
-0.11653460476686961 1:1 2:0 3:0.34 4:1 5:0.02 6:0 7:1 8:1 9:0 10:0.0099999998 11:0 12:0 13:0 14:0 15:0 16:1 17:0 18:0 19:1 20:0 21:0 22:0 23:0 24:0 25:0 26:0 27:1 28:0 29:0 30:0 31:0 32:0 33:0 34:0.95025128 35:0.0048727561 36:0.037688442 37:0.0042680185 38:0.0075376886 39:0.0019383869 40:0.0055276384 41:0.0016616154 #
-0.11653460476686961 1:1 2:0 3:1.2 4:1 5:0.02 6:0 7:1 8:1 9:0 10:0.039999999 11:1 12:0 13:0 14:0 15:0 16:0 17:0 18:0 19:0 20:0 21:0 22:0 23:0 24:1 25:0 26:0 27:1 28:0 29:0 30:0 31:0 32:0 33:0 34:0.083890893 35:0.0044465554 36:0.016726712 37:0.002057004 38:0.72619659 39:0.0071521932 40:0.17370047 41:0.0060766186 #
0.11653460476686961 1:0 2:1 3:0.30000001 4:0 5:0 6:0 7:1 8:0 9:1 10:0.0099999998 11:0 12:0 13:0 14:0 15:0 16:0 17:0 18:1 19:0 20:0 21:0 22:0 23:0 24:1 25:0 26:0 27:0 28:0 29:0 30:1 31:0 32:0 33:0 34:0.012028167 35:0.00046085077 36:0.0015549042 37:0.00016657209 38:0.010991564 39:0.00044077614 40:0.97546113 41:0.00065406476 #
0.11653460476686961 1:0 2:1 3:0.039999999 4:0 5:0 6:0 7:1 8:1 9:0 10:0.0099999998 11:0 12:0 13:0 14:0 15:1 16:1 17:0 18:0 19:0 20:0 21:0 22:0 23:0 24:1 25:0 26:0 27:1 28:0 29:0 30:0 31:0 32:0 33:0 34:0.94107324 35:0.00030145762 36:0.030174611 37:0.00021899077 38:0.015161869 39:0.0001564289 40:0.013593569 41:0.00014823573 #
0.11653460476686961 1:1 2:1 3:0.14 4:0 5:0 6:0 7:1 8:1 9:0 10:0.0099999998 11:0 12:0 13:0 14:0 15:1 16:1 17:0 18:0 19:0 20:0 21:0 22:0 23:0 24:0 25:0 26:0 27:1 28:0 29:0 30:0 31:0 32:0 33:0 34:0.48669201 35:0.01540288 36:0.1444867 37:0.010834605 38:0.092205323 39:0.0089157447 40:0.2785171 41:0.013814169 #
0.11653460476686961 1:0 2:1 3:0.02 4:0 5:0 6:0 7:1 8:1 9:0 10:1.8200001 11:0 12:1 13:0 14:0 15:1 16:1 17:0 18:0 19:1 20:0 21:0 22:0 23:0 24:0 25:0 26:0 27:1 28:0 29:0 30:0 31:0 32:0 33:0 34:0.98766786 35:0.0018267469 36:0.0041107154 37:0.0010590532 38:0.0063030967 39:0.0013099585 40:0.0024664293 41:0.00082101609 #
0.11653460476686961 1:0 2:1 3:0.2 4:0 5:0 6:0 7:1 8:1 9:0 10:1.8200001 11:0 12:1 13:0 14:0 15:1 16:1 17:0 18:0 19:1 20:0 21:0 22:0 23:0 24:0 25:0 26:0 27:1 28:0 29:0 30:0 31:0 32:0 33:0 34:0.98766786 35:0.0018267469 36:0.0041107154 37:0.0010590532 38:0.0063030967 39:0.0013099585 40:0.0024664293 41:0.00082101609 #
-0.11653460476686961 1:0 2:1 3:0.079999998 4:0 5:0 6:0 7:1 8:1 9:0 10:0.41 11:0 12:0 13:0 14:0 15:1 16:1 17:0 18:0 19:0 20:0 21:0 22:0 23:0 24:0 25:0 26:0 27:1 28:0 29:0 30:0 31:0 32:0 33:0 34:0.94107324 35:0.00030145762 36:0.030174611 37:0.00021899077 38:0.015161869 39:0.0001564289 40:0.013593569 41:0.00014823573 #
0.11653460476686961 1:1 2:0 3:0.80000001 4:1 5:0.02 6:0 7:1 8:1 9:0 10:0.94 11:1 12:0 13:0 14:0 15:0 16:1 17:0 18:0 19:0 20:0 21:0 22:0 23:0 24:0 25:0 26:1 27:1 28:0 29:0 30:0 31:0 32:0 33:0 34:0.5 35:0.28867513 36:0.5 37:0.28867513 38:0.5 39:0.28867513 40:0.5 41:0.28867513 #
-0.11653460476686961 1:1 2:1 3:0.34 4:0 5:0 6:0 7:1 8:1 9:0 10:0.41 11:0 12:0 13:0 14:0 15:1 16:1 17:0 18:0 19:0 20:0 21:0 22:0 23:0 24:0 25:0 26:0 27:1 28:0 29:0 30:0 31:0 32:0 33:0 34:0.94107324 35:0.00030145762 36:0.030174611 37:0.00021899077 38:0.015161869 39:0.0001564289 40:0.013593569 41:0.00014823573 #
-0.066464192150685372 1:1 2:1 3:0.039999999 4:0 5:0 6:0 7:1 8:1 9:0 10:0.0099999998 11:0 12:0 13:0 14:0 15:1 16:1 17:0 18:0 19:0 20:0 21:1 22:0 23:0 24:0 25:0 26:0 27:1 28:0 29:0 30:0 31:0 32:0 33:0 34:0.90139073 35:0.0027287754 36:0.025050268 37:0.0014303743 38:0.05713807 39:0.0021244143 40:0.016588472 41:0.0011690235 #
-0.11653460476686961 1:0 2:1 3:0.36000001 4:0 5:0 6:0 7:1 8:1 9:0 10:0.0099999998 11:0 12:0 13:0 14:0 15:0 16:1 17:0 18:0 19:1 20:0 21:0 22:0 23:0 24:0 25:0 26:0 27:1 28:0 29:0 30:0 31:0 32:0 33:0 34:0.82857144 35:0.062813841 36:0.11428571 37:0.053026326 38:0.057142857 39:0.038685896 40:0.057142857 41:0.038685896 #
-0.11653460476686961 1:0 2:1 3:0.2 4:0 5:0 6:0 7:1 8:1 9:0 10:0.0099999998 11:0 12:0 13:0 14:0 15:1 16:1 17:0 18:0 19:0 20:0 21:0 22:0 23:0 24:0 25:0 26:0 27:1 28:0 29:0 30:0 31:0 32:0 33:0 34:0.81047171 35:0.0050686426 36:0.091334894 37:0.003725684 38:0.063231848 39:0.003147529 40:0.035296086 41:0.0023864154 #
0.11653460476686961 1:0 2:1 3:0.44 4:0 5:0 6:0 7:1 8:1 9:0 10:0.039999999 11:1 12:0 13:0 14:1 15:0 16:1 17:0 18:0 19:0 20:0 21:0 22:0 23:0 24:0 25:0 26:0 27:1 28:0 29:0 30:0 31:0 32:0 33:0 34:0.5 35:0.28867513 36:0.5 37:0.28867513 38:0.5 39:0.28867513 40:0.5 41:0.28867513 #
0.11653460476686961 1:1 2:1 3:0.14 4:0 5:0 6:0 7:1 8:1 9:0 10:0.0099999998 11:1 12:0 13:0 14:0 15:0 16:1 17:0 18:0 19:1 20:0 21:0 22:0 23:0 24:0 25:0 26:0 27:1 28:0 29:0 30:0 31:0 32:0 33:0 34:0.5 35:0.18898223 36:0.16666667 37:0.14085904 38:0.5 39:0.18898223 40:0.16666667 41:0.14085904 #
0.11653460476686961 1:0 2:1 3:0.02 4:0 5:0 6:0 7:1 8:1 9:0 10:0.19 11:1 12:0 13:0 14:1 15:0 16:1 17:0 18:0 19:0 20:0 21:0 22:0 23:0 24:0 25:0 26:0 27:0 28:0 29:1 30:0 31:0 32:0 33:0 34:0.029122679 35:0.0032076684 36:0.0094648711 37:0.0018470724 38:0.87550056 39:0.006298013 40:0.086639971 41:0.0053662611 #
0.11653460476686961 1:0 2:1 3:0.059999999 4:0 5:0 6:0 7:1 8:1 9:0 10:0.0099999998 11:1 12:0 13:0 14:0 15:0 16:1 17:0 18:0 19:1 20:0 21:0 22:0 23:0 24:0 25:0 26:0 27:0 28:1 29:0 30:0 31:0 32:0 33:0 34:0.050083473 35:0.0062991269 36:0.92988312 37:0.0073742154 38:0.010016695 39:0.0028758522 40:0.011686143 41:0.0031036551 #
0.11653460476686961 1:0 2:1 3:0.039999999 4:0 5:0 6:0 7:1 8:1 9:0 10:0.0099999998 11:1 12:0 13:0 14:0 15:0 16:1 17:0 18:0 19:1 20:0 21:0 22:0 23:0 24:0 25:0 26:0 27:1 28:0 29:0 30:0 31:0 32:0 33:0 34:0.92935443 35:0.0089371121 36:0.0036540804 37:0.002104545 38:0.057247259 39:0.0081028976 40:0.012180268 41:0.0038258801 #
-0.11653460476686961 1:1 2:0 3:0.34 4:1 5:0.02 6:0 7:1 8:1 9:0 10:0.19 11:1 12:0 13:0 14:1 15:0 16:1 17:0 18:0 19:0 20:0 21:0 22:0 23:0 24:0 25:0 26:0 27:1 28:0 29:0 30:0 31:0 32:0 33:1 34:0.029122679 35:0.0032076684 36:0.0094648711 37:0.0018470724 38:0.87550056 39:0.006298013 40:0.086639971 41:0.0053662611 #
-0.11542229016259106 1:1 2:0 3:0.34 4:1 5:0.02 6:0 7:1 8:0 9:0 10:0.090000004 11:1 12:0 13:0 14:1 15:0 16:1 17:0 18:0 19:0 20:0 21:0 22:0 23:0 24:0 25:0 26:0 27:1 28:0 29:0 30:0 31:0 32:0 33:1 34:0.5 35:0.28867513 36:0.5 37:0.28867513 38:0.5 39:0.28867513 40:0.5 41:0.28867513 #
0.11653460476686961 1:1 2:0 3:0.47999999 4:1 5:0.02 6:0 7:1 8:1 9:0 10:0.94 11:1 12:0 13:0 14:0 15:0 16:1 17:0 18:0 19:0 20:0 21:0 22:0 23:0 24:0 25:0 26:1 27:1 28:0 29:0 30:0 31:0 32:0 33:0 34:0.5 35:0.28867513 36:0.5 37:0.28867513 38:0.5 39:0.28867513 40:0.5 41:0.28867513 #
-0.11653460476686961 1:0 2:1 3:0.5 4:0 5:0 6:0 7:1 8:1 9:0 10:0.02 11:0 12:0 13:0 14:0 15:0 16:1 17:0 18:0 19:1 20:0 21:0 22:0 23:0 24:0 25:0 26:0 27:1 28:0 29:0 30:0 31:0 32:0 33:0 34:0.043478262 35:0.029746411 36:0.93478262 37:0.036015388 38:0.021739131 39:0.021271568 40:0.043478262 41:0.029746411 #
0.11653460476686961 1:1 2:1 3:0.2 4:0 5:0 6:0 7:1 8:1 9:0 10:0.050000001 11:1 12:0 13:0 14:1 15:1 16:1 17:0 18:0 19:0 20:0 21:0 22:0 23:0 24:0 25:0 26:0 27:1 28:0 29:0 30:0 31:0 32:0 33:0 34:0.94961852 35:0.0005938909 36:0.025706809 37:0.00042970007 38:0.0066939439 39:0.00022140074 40:0.017995503 41:0.0003609402 #
0.11653460476686961 1:1 2:0 3:0.75999999 4:1 5:0.02 6:0 7:1 8:1 9:0 10:1.16 11:0 12:0 13:0 14:0 15:0 16:1 17:0 18:0 19:0 20:0 21:0 22:0 23:0 24:0 25:1 26:1 27:1 28:0 29:0 30:0 31:0 32:0 33:0 34:0.5 35:0.28867513 36:0.5 37:0.28867513 38:0.5 39:0.28867513 40:0.5 41:0.28867513 #
0.11653460476686961 1:1 2:0 3:0.40000001 4:1 5:0.02 6:0 7:1 8:1 9:0 10:1.16 11:0 12:0 13:0 14:0 15:0 16:1 17:0 18:0 19:0 20:0 21:0 22:0 23:0 24:0 25:1 26:1 27:1 28:0 29:0 30:0 31:0 32:0 33:0 34:0.5 35:0.28867513 36:0.5 37:0.28867513 38:0.5 39:0.28867513 40:0.5 41:0.28867513 #
0.11653460476686961 1:1 2:1 3:0.12 4:0 5:0 6:0 7:1 8:1 9:0 10:0.059999999 11:0 12:0 13:0 14:1 15:0 16:1 17:0 18:0 19:0 20:0 21:0 22:0 23:0 24:0 25:1 26:0 27:0 28:1 29:0 30:0 31:0 32:0 33:0 34:0.5 35:0.28867513 36:0.5 37:0.28867513 38:0.5 39:0.28867513 40:0.5 41:0.28867513 #
-0.034273670023308125 1:1 2:1 3:0.079999998 4:0 5:0 6:0 7:1 8:0 9:0 10:0.0099999998 11:1 12:0 13:0 14:0 15:1 16:1 17:0 18:0 19:0 20:0 21:0 22:0 23:0 24:0 25:0 26:0 27:1 28:0 29:0 30:0 31:0 32:0 33:0 34:0.022203946 35:0.0029872267 36:0.0057565789 37:0.0015337605 38:0.16118421 39:0.0074545853 40:0.81167763 41:0.0079263216 #
-0.11653460476686961 1:0 2:1 3:0.12 4:0 5:0 6:0 7:1 8:0 9:0 10:0.0099999998 11:1 12:0 13:0 14:0 15:1 16:1 17:0 18:0 19:0 20:0 21:0 22:0 23:0 24:0 25:0 26:0 27:1 28:0 29:0 30:0 31:0 32:0 33:0 34:0.030122153 35:0.0014239168 36:0.0063159354 37:0.00065997289 38:0.056079954 39:0.0019167017 40:0.90762079 41:0.002412251 #
-0.046699382220661591 1:0 2:1 3:0.059999999 4:0 5:0 6:0 7:1 8:0 9:0 10:0.029999999 11:0 12:1 13:0 14:0 15:1 16:1 17:0 18:0 19:0 20:0 21:0 22:0 23:0 24:1 25:0 26:0 27:0 28:0 29:0 30:1 31:0 32:0 33:0 34:0.25309917 35:0.0037347293 36:0.046044864 37:0.0018002668 38:0.61821133 39:0.0041731335 40:0.082792208 41:0.0023670688 #
-0.11653460476686961 1:1 2:0 3:0.25999999 4:1 5:0.02 6:0 7:1 8:1 9:0 10:0.12 11:1 12:0 13:0 14:0 15:1 16:1 17:0 18:0 19:0 20:0 21:0 22:0 23:0 24:0 25:0 26:0 27:1 28:0 29:0 30:0 31:0 32:0 33:0 34:0.011259327 35:0.00070948648 36:0.0027583088 37:0.00035266989 38:0.95686185 39:0.0013661615 40:0.029210944 41:0.0011323533 #
0.11653460476686961 1:0 2:1 3:0.059999999 4:0 5:0 6:0 7:1 8:1 9:0 10:0.02 11:1 12:0 13:0 14:0 15:0 16:1 17:0 18:0 19:1 20:0 21:0 22:0 23:0 24:0 25:0 26:0 27:1 28:0 29:0 30:0 31:0 32:0 33:0 34:0.98766786 35:0.0018267469 36:0.0041107154 37:0.0010590532 38:0.0063030967 39:0.0013099585 40:0.0024664293 41:0.00082101609 #
-0.11653460476686961 1:0 2:1 3:0.44 4:0 5:0 6:0 7:1 8:1 9:0 10:0.02 11:0 12:1 13:0 14:0 15:1 16:1 17:0 18:0 19:1 20:0 21:0 22:0 23:0 24:0 25:0 26:0 27:1 28:0 29:0 30:0 31:0 32:0 33:0 34:0.91346037 35:0.001031057 36:0.064457566 37:0.00090053165 38:0.01120241 39:0.00038595771 40:0.010906548 41:0.0003808839 #
0.092810923139192619 1:0 2:1 3:0.02 4:0 5:0 6:0 7:1 8:1 9:0 10:0.090000004 11:1 12:0 13:0 14:0 15:1 16:1 17:0 18:0 19:1 20:0 21:0 22:0 23:0 24:0 25:0 26:0 27:0 28:1 29:0 30:0 31:0 32:0 33:0 34:0.90115207 35:0.0014903712 36:0.080744103 37:0.0013604582 38:0.010248865 39:0.00050293573 40:0.0079048425 41:0.00044221641 #
-0.0089428724817021757 1:0 2:1 3:0.51999998 4:0 5:0 6:0 7:1 8:1 9:0 10:0.0099999998 11:0 12:0 13:0 14:0 15:0 16:1 17:0 18:0 19:1 20:0 21:0 22:0 23:0 24:0 25:0 26:0 27:1 28:0 29:0 30:0 31:0 32:0 33:0 34:0.063965887 35:0.011286807 36:0.0042643924 37:0.0030057419 38:0.87206823 39:0.015406908 40:0.063965887 41:0.011286807 #
-0.11653460476686961 1:0 2:1 3:0.02 4:0 5:0 6:0 7:1 8:1 9:0 10:0.0099999998 11:0 12:0 13:0 14:0 15:1 16:1 17:0 18:0 19:0 20:0 21:0 22:0 23:0 24:0 25:0 26:0 27:1 28:0 29:0 30:0 31:0 32:0 33:0 34:0.5 35:0.28867513 36:0.5 37:0.28867513 38:0.5 39:0.28867513 40:0.5 41:0.28867513 #
-0.037928093994255202 1:1 2:0 3:0.22 4:1 5:0.02 6:0 7:1 8:1 9:0 10:0.0099999998 11:1 12:0 13:0 14:0 15:1 16:1 17:0 18:0 19:0 20:0 21:0 22:0 23:0 24:0 25:0 26:0 27:1 28:0 29:0 30:0 31:0 32:0 33:0 34:0.024563989 35:0.0014006186 36:0.0020469991 37:0.00040896385 38:0.94866127 39:0.0019968674 40:0.024891509 41:0.0014096884 #
-0.021826566316884764 1:1 2:0 3:0.36000001 4:1 5:0.02 6:0 7:1 8:1 9:0 10:0.0099999998 11:0 12:0 13:0 14:0 15:0 16:1 17:0 18:1 19:0 20:0 21:0 22:0 23:0 24:0 25:0 26:0 27:1 28:0 29:0 30:0 31:0 32:0 33:0 34:0.92561108 35:0.0060470467 36:0.015940489 37:0.0028862657 38:0.038788524 39:0.0044497531 40:0.020722635 41:0.0032828436 #
-0.028035670506711963 1:1 2:0 3:0.34 4:1 5:0.02 6:0 7:1 8:1 9:0 10:0.0099999998 11:0 12:1 13:0 14:0 15:0 16:1 17:0 18:0 19:1 20:0 21:0 22:0 23:0 24:0 25:0 26:0 27:1 28:0 29:0 30:0 31:0 32:0 33:0 34:0.5 35:0.2236068 36:0.25 37:0.19364917 38:0.5 39:0.2236068 40:0.25 41:0.19364917 #
