SVM-light Version V6.02
0 # kernel type
3 # kernel parameter -d 
1 # kernel parameter -g 
1 # kernel parameter -s 
1 # kernel parameter -r 
empty# kernel parameter -u 
41 # highest feature index 
2851 # number of training documents 
796 # number of support vectors plus 1 
2.0383518 # threshold b, each following line is a SV (starting with alpha*y)
0.11949604887842752 1:0 2:1 3:0.059999999 4:0 5:0 6:0 7:1 8:1 9:0 10:0.02 11:0 12:0 13:0 14:0 15:0 16:1 17:1 18:0 19:1 20:0 21:0 22:0 23:0 24:1 25:0 26:0 27:0 28:0 29:1 30:0 31:0 32:0 33:0 34:0.81609195 35:0.00057284685 36:0.14559387 37:0.00047479503 38:0.026819924 39:9.9620665e-005 40:0.019157087 41:7.1717914e-005 #
-0.11949604887842752 1:1 2:1 3:0.25999999 4:0 5:0 6:0 7:1 8:1 9:0 10:0.029999999 11:0 12:0 13:0 14:0 15:0 16:1 17:1 18:0 19:0 20:0 21:0 22:0 23:0 24:0 25:0 26:0 27:0 28:0 29:1 30:0 31:0 32:0 33:0 34:0.5 35:0.083333336 36:0.5 37:0.083333336 38:0.5 39:0.083333336 40:0.5 41:0.083333336 #
-0.11949604887842752 1:1 2:1 3:0.22 4:0 5:0 6:0 7:1 8:0 9:1 10:0.0099999998 11:0 12:0 13:0 14:0 15:1 16:1 17:0 18:0 19:0 20:0 21:0 22:0 23:0 24:0 25:0 26:0 27:0 28:0 29:0 30:1 31:0 32:0 33:0 34:0.21818182 35:0.0030460448 36:0.2 37:0.0028571428 38:0.10909091 39:0.0017355372 40:0.5090909 41:0.0044628098 #
-0.11949604887842752 1:1 2:1 3:0.14 4:0 5:0 6:0 7:1 8:1 9:0 10:0.0099999998 11:0 12:0 13:0 14:0 15:0 16:1 17:0 18:0 19:0 20:0 21:0 22:0 23:0 24:1 25:0 26:0 27:1 28:0 29:0 30:0 31:0 32:0 33:0 34:0.8980422 35:1.1498191e-006 36:0.033265941 37:4.0384919e-007 38:0.048096847 39:5.7493901e-007 40:0.02062011 41:2.536031e-007 #
-0.11949604887842752 1:1 2:1 3:0.079999998 4:0 5:0 6:0 7:1 8:1 9:0 10:0.0099999998 11:0 12:0 13:0 14:0 15:0 16:1 17:1 18:0 19:1 20:0 21:0 22:0 23:0 24:0 25:0 26:0 27:1 28:0 29:0 30:0 31:0 32:0 33:0 34:0.16666667 35:0.019841271 36:0.66666669 37:0.031746034 38:0.16666667 39:0.019841271 40:0.33333334 41:0.031746034 #
0.11949604887842752 1:1 2:1 3:0.34 4:0 5:0 6:0 7:1 8:0 9:0 10:0.0099999998 11:1 12:0 13:0 14:0 15:0 16:1 17:0 18:0 19:0 20:0 21:0 22:0 23:0 24:1 25:0 26:0 27:0 28:0 29:1 30:0 31:0 32:0 33:0 34:0.027777778 35:0.00072989654 36:0.027777778 37:0.00072989654 38:0.055555556 39:0.0014180847 40:0.94444442 41:0.0014180847 #
-0.11949604887842752 1:1 2:0 3:0.66000003 4:1 5:0.02 6:0 7:1 8:1 9:0 10:0.34 11:0 12:1 13:0 14:0 15:0 16:1 17:0 18:0 19:1 20:0 21:0 22:0 23:0 24:0 25:0 26:0 27:1 28:0 29:0 30:0 31:0 32:0 33:0 34:0.84351146 35:0.00016772539 36:0.0063613229 37:8.031584e-006 38:0.13867685 39:0.00015177329 40:0.013994911 41:1.7533741e-005 #
0.11949604887842752 1:1 2:1 3:0.25999999 4:0 5:0 6:0 7:1 8:1 9:0 10:0.0099999998 11:1 12:0 13:0 14:0 15:0 16:1 17:0 18:0 19:1 20:0 21:0 22:0 23:0 24:0 25:0 26:0 27:1 28:0 29:0 30:0 31:0 32:0 33:0 34:0.70652175 35:0.0011208042 36:0.23369566 37:0.00096801081 38:0.038043477 39:0.00019781715 40:0.032608695 41:0.0001705155 #
-0.11949604887842752 1:1 2:0 3:0.2 4:1 5:0.02 6:0 7:1 8:1 9:0 10:0.2 11:1 12:0 13:0 14:1 15:0 16:1 17:0 18:0 19:0 20:0 21:0 22:0 23:0 24:0 25:0 26:0 27:1 28:0 29:0 30:0 31:0 32:0 33:1 34:0.029122679 35:1.0289137e-005 36:0.0094648711 37:3.4116765e-006 38:0.87550056 39:3.966497e-005 40:0.086639971 41:2.8796758e-005 #
0.11949604887842752 1:1 2:0 3:0.059999999 4:1 5:0.02 6:0 7:1 8:1 9:0 10:0.02 11:0 12:0 13:0 14:1 15:0 16:1 17:0 18:0 19:0 20:0 21:0 22:0 23:0 24:0 25:1 26:0 27:0 28:1 29:0 30:0 31:1 32:0 33:0 34:0.5 35:0.083333336 36:0.5 37:0.083333336 38:0.5 39:0.083333336 40:0.5 41:0.083333336 #
0.11949604887842752 1:0 2:1 3:0.039999999 4:0 5:0 6:0 7:1 8:0 9:1 10:0.0099999998 11:1 12:0 13:0 14:0 15:0 16:1 17:0 18:0 19:0 20:0 21:0 22:0 23:0 24:0 25:0 26:0 27:0 28:0 29:0 30:1 31:0 32:0 33:0 34:0.0025578025 35:1.0715258e-008 36:0.00057960057 37:2.4329037e-009 38:0.021609021 39:8.8796412e-008 40:0.97526199 41:1.013291e-007 #
0.11949604887842752 1:1 2:1 3:0.18000001 4:0 5:0 6:0 7:1 8:1 9:0 10:0.0099999998 11:0 12:0 13:0 14:0 15:0 16:1 17:1 18:0 19:0 20:0 21:0 22:0 23:0 24:1 25:0 26:0 27:0 28:0 29:1 30:0 31:0 32:0 33:0 34:0.012334432 35:9.486142e-008 36:0.0035274604 37:2.7370836e-008 38:0.93912989 39:4.4513354e-007 40:0.045023788 41:3.3480748e-007 #
-0.11949604887842752 1:0 2:1 3:0.1 4:0 5:0 6:0 7:1 8:1 9:0 10:0.0099999998 11:1 12:0 13:0 14:0 15:0 16:1 17:0 18:0 19:0 20:0 21:0 22:0 23:0 24:0 25:0 26:0 27:0 28:1 29:0 30:0 31:0 32:0 33:0 34:0.19685039 35:0.0012351588 36:0.078740157 37:0.00056671986 38:0.47244096 39:0.0019471914 40:0.26771653 41:0.0015315968 #
-0.11949604887842752 1:0 2:1 3:0.1 4:0 5:0 6:0 7:1 8:1 9:0 10:0.0099999998 11:1 12:0 13:0 14:0 15:0 16:1 17:0 18:1 19:0 20:0 21:0 22:0 23:0 24:0 25:0 26:0 27:1 28:0 29:0 30:0 31:0 32:0 33:0 34:0.55303031 35:0.00062263926 36:0.23232323 37:0.00044924219 38:0.18939394 39:0.00038671002 40:0.030303031 41:7.4017022e-005 #
-0.11949604887842752 1:0 2:1 3:0.079999998 4:0 5:0 6:0 7:1 8:1 9:0 10:0.0099999998 11:1 12:0 13:0 14:0 15:0 16:1 17:0 18:0 19:0 20:0 21:0 22:0 23:0 24:0 25:0 26:0 27:0 28:0 29:1 30:0 31:0 32:0 33:0 34:0.014508928 35:5.3173744e-006 36:0.0029761905 37:1.1035079e-006 38:0.12202381 39:3.9841576e-005 40:0.86123514 41:4.4443728e-005 #
-0.11949604887842752 1:0 2:1 3:0.1 4:0 5:0 6:0 7:1 8:1 9:0 10:0.1 11:1 12:0 13:0 14:0 15:0 16:1 17:0 18:1 19:0 20:0 21:0 22:0 23:0 24:1 25:0 26:0 27:1 28:0 29:0 30:0 31:0 32:0 33:0 34:0.030265849 35:6.0007824e-006 36:0.0049079754 37:9.9854572e-007 38:0.86073619 39:2.4508157e-005 40:0.10449897 41:1.9132885e-005 #
0.11949604887842752 1:1 2:0 3:3.3599999 4:0 5:0.1 6:0 7:1 8:0 9:1 10:0.059999999 11:0 12:0 13:0 14:1 15:0 16:1 17:0 18:0 19:0 20:0 21:0 22:0 23:0 24:0 25:0 26:0 27:0 28:0 29:0 30:1 31:0 32:0 33:0 34:0.5 35:0.083333336 36:0.5 37:0.083333336 38:0.5 39:0.083333336 40:0.5 41:0.083333336 #
0.11949604887842752 1:1 2:0 3:0.34 4:1 5:0.02 6:1 7:1 8:1 9:0 10:0.0099999998 11:0 12:0 13:0 14:0 15:0 16:1 17:1 18:0 19:0 20:0 21:0 22:0 23:0 24:1 25:0 26:0 27:1 28:0 29:0 30:0 31:0 32:0 33:0 34:0.90389913 35:4.9243749e-007 36:0.026066056 37:1.4391587e-007 38:0.05094162 39:2.7407509e-007 40:0.019104525 41:1.0623383e-007 #
0.11949604887842752 1:1 2:0 3:0.2 4:1 5:0.02 6:0 7:1 8:0 9:0 10:0.0099999998 11:0 12:0 13:0 14:0 15:0 16:1 17:1 18:0 19:1 20:0 21:0 22:0 23:0 24:1 25:0 26:0 27:0 28:0 29:0 30:1 31:0 32:0 33:0 34:0.98766786 35:3.337004e-006 36:0.0041107154 37:1.1215939e-006 38:0.0063030967 39:1.7159912e-006 40:0.0024664293 41:6.7406739e-007 #
0.11949604887842752 1:1 2:0 3:0.22 4:1 5:0.02 6:0 7:1 8:1 9:0 10:0.0099999998 11:0 12:0 13:0 14:0 15:0 16:1 17:1 18:0 19:0 20:0 21:0 22:0 23:0 24:1 25:0 26:0 27:1 28:0 29:0 30:0 31:0 32:0 33:0 34:0.94107324 35:9.0876689e-008 36:0.030174611 37:4.7956956e-008 38:0.015161869 39:2.4470001e-008 40:0.013593569 41:2.1973831e-008 #
0.11949604887842752 1:1 2:0 3:0.18000001 4:1 5:0.02 6:0 7:1 8:1 9:0 10:0.029999999 11:0 12:1 13:1 14:0 15:0 16:1 17:0 18:0 19:0 20:0 21:0 22:0 23:0 24:1 25:0 26:0 27:1 28:0 29:0 30:0 31:0 32:0 33:0 34:0.94107324 35:9.0876689e-008 36:0.030174611 37:4.7956956e-008 38:0.015161869 39:2.4470001e-008 40:0.013593569 41:2.1973831e-008 #
-0.11949604887842752 1:0 2:1 3:0.079999998 4:0 5:0 6:0 7:1 8:1 9:0 10:0.0099999998 11:0 12:0 13:0 14:0 15:0 16:1 17:1 18:1 19:0 20:0 21:0 22:0 23:0 24:0 25:0 26:0 27:1 28:0 29:0 30:0 31:0 32:0 33:0 34:0.5 35:0.083333336 36:0.5 37:0.083333336 38:0.5 39:0.083333336 40:0.5 41:0.083333336 #
0.11949604887842752 1:1 2:1 3:0.46000001 4:0 5:0 6:0 7:1 8:0 9:1 10:0.0099999998 11:1 12:0 13:0 14:0 15:0 16:1 17:0 18:0 19:0 20:0 21:0 22:0 23:0 24:1 25:0 26:0 27:0 28:0 29:0 30:1 31:0 32:0 33:0 34:0.023433132 35:2.9080121e-007 36:0.0019061659 37:2.4176639e-008 38:0.081088297 39:9.4688193e-007 40:0.89359784 41:1.2082492e-006 #
-0.11949604887842752 1:1 2:0 3:0.63999999 4:1 5:0.02 6:0 7:1 8:0 9:0 10:5.0900002 11:0 12:0 13:0 14:0 15:0 16:1 17:0 18:0 19:0 20:0 21:0 22:0 23:0 24:1 25:0 26:0 27:1 28:0 29:0 30:0 31:0 32:0 33:0 34:0.16363636 35:0.0024439197 36:0.018181818 37:0.00031877213 38:0.60000002 39:0.0042857141 40:0.25454545 41:0.0033884298 #
-0.11949604887842752 1:1 2:0 3:0.16 4:1 5:0.02 6:0 7:1 8:1 9:0 10:0.85000002 11:1 12:0 13:0 14:0 15:1 16:1 17:0 18:0 19:1 20:0 21:0 22:0 23:0 24:0 25:0 26:0 27:0 28:1 29:0 30:0 31:0 32:0 33:0 34:0.95971566 35:6.5428212e-006 36:0.015910629 37:2.6497685e-006 38:0.0072782668 39:1.2227608e-006 40:0.017433988 41:2.898975e-006 #
-0.11949604887842752 1:1 2:0 3:0.16 4:1 5:0.02 6:0 7:1 8:1 9:0 10:0.039999999 11:0 12:1 13:0 14:0 15:1 16:1 17:0 18:0 19:1 20:0 21:0 22:0 23:0 24:0 25:0 26:0 27:1 28:0 29:0 30:0 31:0 32:0 33:0 34:0.99009901 35:9.6107455e-005 36:0.0099009899 37:9.6107455e-005 38:0.0099009899 39:9.6107455e-005 40:0.0099009899 41:9.6107455e-005 #
0.11949604887842752 1:0 2:1 3:0.02 4:0 5:0 6:0 7:1 8:1 9:0 10:0.16 11:0 12:0 13:0 14:0 15:0 16:1 17:1 18:0 19:1 20:0 21:0 22:0 23:0 24:0 25:0 26:0 27:1 28:0 29:0 30:0 31:0 32:0 33:0 34:0.8338201 35:4.0456685e-005 36:0.12850468 37:3.2698168e-005 38:0.019859813 39:5.6833287e-006 40:0.018399533 41:5.2732817e-006 #
0.11949604887842752 1:1 2:0 3:2.9400001 4:0 5:0.079999998 6:0 7:1 8:0 9:0 10:0.07 11:0 12:0 13:0 14:0 15:0 16:1 17:1 18:0 19:0 20:0 21:0 22:0 23:0 24:0 25:0 26:0 27:0 28:0 29:0 30:1 31:0 32:0 33:0 34:0.11111111 35:0.0098765437 36:0.11111111 37:0.0098765437 38:0.44444445 39:0.024691358 40:0.55555558 41:0.024691358 #
0.11949604887842752 1:0 2:1 3:0.16 4:0 5:0 6:0 7:1 8:0 9:0 10:0.0099999998 11:0 12:0 13:0 14:0 15:0 16:1 17:0 18:1 19:0 20:0 21:0 22:0 23:0 24:1 25:0 26:0 27:0 28:0 29:0 30:1 31:0 32:0 33:0 34:0.014734316 35:9.6781434e-007 36:0.00046669779 37:3.1098665e-008 38:0.96253085 39:2.4043484e-006 40:0.022401493 41:1.4599777e-006 #
0.11949604887842752 1:0 2:1 3:0.059999999 4:0 5:0 6:0 7:1 8:0 9:0 10:0.0099999998 11:0 12:0 13:0 14:0 15:0 16:1 17:0 18:1 19:0 20:0 21:0 22:0 23:0 24:0 25:0 26:0 27:0 28:0 29:0 30:1 31:0 32:0 33:0 34:0.033669036 35:3.212107e-006 36:0.0057266983 37:5.6213872e-007 38:0.91064376 39:8.0335376e-006 40:0.050157979 41:4.7035396e-006 #
-0.11949604887842752 1:0 2:1 3:0.1 4:0 5:0 6:0 7:1 8:1 9:0 10:0.0099999998 11:0 12:0 13:0 14:0 15:0 16:1 17:0 18:0 19:1 20:0 21:0 22:0 23:0 24:0 25:0 26:0 27:1 28:0 29:0 30:0 31:0 32:0 33:0 34:0.5 35:0.083333336 36:0.5 37:0.083333336 38:0.5 39:0.083333336 40:0.5 41:0.083333336 #
0.11949604887842752 1:1 2:1 3:0.41999999 4:0 5:0 6:0 7:1 8:1 9:0 10:0.0099999998 11:0 12:0 13:0 14:0 15:0 16:1 17:1 18:1 19:0 20:0 21:0 22:0 23:0 24:0 25:0 26:0 27:1 28:0 29:0 30:0 31:0 32:0 33:0 34:0.020358611 35:1.8623715e-006 36:0.00028016436 37:2.615425e-008 38:0.0071908855 39:6.66652e-007 40:0.97235709 41:2.5099218e-006 #
-0.11949604887842752 1:1 2:0 3:0.18000001 4:1 5:0.02 6:0 7:1 8:0 9:1 10:0.0099999998 11:0 12:0 13:0 14:0 15:0 16:0 17:1 18:1 19:0 20:0 21:0 22:0 23:0 24:0 25:0 26:0 27:0 28:0 29:0 30:1 31:0 32:0 33:0 34:0.0092101945 35:1.1511753e-006 36:0.0039111786 37:4.9146979e-007 38:0.068004034 39:7.9953943e-006 40:0.91912693 41:9.3771441e-006 #
-0.11949604887842752 1:1 2:0 3:0.16 4:1 5:0.02 6:0 7:1 8:0 9:1 10:0.0099999998 11:0 12:0 13:0 14:0 15:0 16:1 17:1 18:0 19:0 20:0 21:0 22:0 23:0 24:0 25:0 26:0 27:0 28:0 29:0 30:1 31:0 32:0 33:0 34:0.023601066 35:4.3851678e-006 36:0.0059002666 37:1.1161662e-006 38:0.085649028 39:1.4902622e-005 40:0.8852303 41:1.9333515e-005 #
-0.11949604887842752 1:1 2:1 3:0.28 4:0 5:0 6:0 7:1 8:0 9:1 10:0.0099999998 11:0 12:0 13:1 14:0 15:0 16:1 17:1 18:0 19:0 20:0 21:0 22:0 23:0 24:0 25:0 26:0 27:0 28:0 29:0 30:1 31:0 32:0 33:0 34:0.0026466695 35:1.1638733e-006 36:0.0030877811 37:1.3572517e-006 38:0.047640052 39:2.000462e-005 40:0.94750774 41:2.1929824e-005 #
-0.11949604887842752 1:0 2:1 3:0.059999999 4:0 5:0 6:0 7:1 8:0 9:1 10:0.0099999998 11:1 12:0 13:0 14:0 15:0 16:1 17:0 18:0 19:0 20:0 21:0 22:0 23:0 24:0 25:0 26:0 27:0 28:0 29:0 30:1 31:0 32:0 33:0 34:0.014692054 35:1.7012808e-006 36:0.0055242125 37:6.4563352e-007 38:0.084038556 39:9.04643e-006 40:0.89598024 41:1.0953066e-005 #
0.11949604887842752 1:1 2:0 3:6.1799998 4:0 5:0.2 6:0 7:1 8:0 9:0 10:0.029999999 11:0 12:0 13:0 14:0 15:0 16:1 17:0 18:1 19:0 20:0 21:0 22:0 23:0 24:0 25:0 26:0 27:0 28:0 29:0 30:1 31:0 32:0 33:0 34:0.0095238099 35:8.8991568e-005 36:0.0095238099 37:8.8991568e-005 38:0.96190476 39:0.00034569803 40:0.03809524 41:0.00034569803 #
0.11949604887842752 1:1 2:0 3:1.34 4:0 5:0.059999999 6:0 7:1 8:1 9:0 10:0.029999999 11:1 12:0 13:0 14:0 15:0 16:1 17:0 18:0 19:1 20:0 21:0 22:0 23:0 24:0 25:0 26:0 27:1 28:0 29:0 30:0 31:0 32:0 33:0 34:0.68141592 35:0.00063849491 36:0.20353982 37:0.00047679813 38:0.085545726 39:0.00023008134 40:0.03539823 41:0.00010042705 #
0.11949604887842752 1:1 2:0 3:1.24 4:1 5:0.02 6:0 7:1 8:1 9:0 10:0.0099999998 11:1 12:0 13:0 14:0 15:0 16:1 17:0 18:0 19:1 20:0 21:0 22:0 23:0 24:0 25:0 26:0 27:0 28:1 29:0 30:0 31:0 32:0 33:0 34:0.33333334 35:0.022222223 36:0.55555558 37:0.024691358 38:0.22222222 39:0.01728395 40:0.11111111 41:0.0098765437 #
0.11949604887842752 1:1 2:0 3:1.04 4:1 5:0.02 6:0 7:1 8:1 9:0 10:1.05 11:1 12:0 13:0 14:0 15:1 16:1 17:0 18:0 19:0 20:0 21:0 22:0 23:0 24:0 25:0 26:0 27:1 28:0 29:0 30:0 31:0 32:0 33:0 34:0.56547767 35:6.1274979e-005 36:0.096782237 37:2.1799362e-005 38:0.26615116 39:4.8706912e-005 40:0.072087802 41:1.6681086e-005 #
0.11949604887842752 1:1 2:0 3:0.059999999 4:1 5:0.02 6:0 7:1 8:1 9:0 10:0.039999999 11:0 12:0 13:0 14:0 15:0 16:1 17:1 18:0 19:1 20:0 21:0 22:0 23:0 24:0 25:0 26:0 27:1 28:0 29:0 30:0 31:0 32:0 33:0 34:0.8338201 35:4.0456685e-005 36:0.12850468 37:3.2698168e-005 38:0.019859813 39:5.6833287e-006 40:0.018399533 41:5.2732817e-006 #
0.11949604887842752 1:0 2:1 3:0.079999998 4:0 5:0 6:0 7:1 8:0 9:1 10:0.0099999998 11:0 12:0 13:0 14:0 15:0 16:1 17:1 18:0 19:0 20:0 21:0 22:0 23:0 24:1 25:0 26:0 27:0 28:0 29:0 30:1 31:0 32:0 33:0 34:0.013850415 35:3.773089e-005 36:0.002770083 37:7.6309661e-006 38:0.077562325 39:0.00019764203 40:0.91135734 41:0.00022316337 #
-0.11949604887842752 1:1 2:0 3:0.16 4:1 5:0.02 6:0 7:1 8:1 9:0 10:0.85000002 11:1 12:0 13:0 14:0 15:1 16:1 17:0 18:0 19:1 20:0 21:0 22:0 23:0 24:0 25:0 26:0 27:1 28:0 29:0 30:0 31:0 32:0 33:0 34:0.95971566 35:6.5428212e-006 36:0.015910629 37:2.6497685e-006 38:0.0072782668 39:1.2227608e-006 40:0.017433988 41:2.898975e-006 #
-0.11949604887842752 1:1 2:0 3:0.2 4:1 5:0.02 6:0 7:1 8:1 9:0 10:0.090000004 11:1 12:0 13:0 14:1 15:1 16:1 17:0 18:0 19:0 20:0 21:0 22:0 23:0 24:0 25:0 26:1 27:1 28:0 29:0 30:0 31:1 32:0 33:0 34:0.5 35:0.083333336 36:0.5 37:0.083333336 38:0.5 39:0.083333336 40:0.5 41:0.083333336 #
-0.11949604887842752 1:1 2:0 3:0.1 4:1 5:0.02 6:0 7:1 8:1 9:0 10:0.12 11:0 12:0 13:0 14:1 15:0 16:1 17:0 18:0 19:0 20:0 21:0 22:0 23:0 24:0 25:1 26:1 27:1 28:0 29:0 30:0 31:1 32:0 33:0 34:0.5 35:0.083333336 36:0.5 37:0.083333336 38:0.5 39:0.083333336 40:0.5 41:0.083333336 #
-0.11949604887842752 1:1 2:0 3:0.46000001 4:1 5:0.02 6:0 7:1 8:1 9:0 10:0.85000002 11:1 12:0 13:0 14:0 15:1 16:1 17:0 18:0 19:1 20:0 21:0 22:0 23:0 24:0 25:0 26:0 27:0 28:1 29:0 30:0 31:0 32:0 33:0 34:0.95971566 35:6.5428212e-006 36:0.015910629 37:2.6497685e-006 38:0.0072782668 39:1.2227608e-006 40:0.017433988 41:2.898975e-006 #
0.11949604887842752 1:1 2:0 3:1.02 4:0 5:0.059999999 6:0 7:1 8:0 9:1 10:0.0099999998 11:0 12:1 13:0 14:0 15:0 16:1 17:0 18:0 19:0 20:0 21:0 22:0 23:0 24:1 25:0 26:0 27:0 28:0 29:0 30:1 31:0 32:0 33:0 34:0.0082827937 35:2.8466138e-007 36:0.00041587246 37:1.4406e-008 38:0.0048171892 39:1.6613475e-007 40:0.98655343 41:4.5972186e-007 #
0.11949604887842752 1:0 2:1 3:0.30000001 4:0 5:0 6:0 7:1 8:0 9:1 10:0.0099999998 11:0 12:0 13:0 14:0 15:0 16:0 17:0 18:1 19:0 20:0 21:0 22:0 23:0 24:1 25:0 26:0 27:0 28:0 29:0 30:1 31:0 32:0 33:0 34:0.012028167 35:2.1238344e-007 36:0.0015549042 37:2.774626e-008 38:0.010991564 39:1.942836e-007 40:0.97546113 41:4.2780073e-007 #
0.11949604887842752 1:1 2:1 3:0.40000001 4:0 5:0 6:0 7:1 8:0 9:1 10:0.0099999998 11:0 12:0 13:0 14:0 15:0 16:1 17:1 18:0 19:0 20:0 21:0 22:0 23:0 24:0 25:0 26:0 27:0 28:0 29:0 30:1 31:0 32:0 33:0 34:0.022624435 35:1.9993282e-005 36:0.0063348417 37:5.6914209e-006 38:0.054298643 39:4.6428842e-005 40:0.91855204 41:6.7643938e-005 #
0.11949604887842752 1:1 2:1 3:0.25999999 4:0 5:0 6:0 7:1 8:0 9:1 10:0.0099999998 11:0 12:1 13:0 14:1 15:0 16:1 17:0 18:0 19:0 20:0 21:0 22:0 23:0 24:0 25:0 26:0 27:0 28:0 29:0 30:1 31:0 32:0 33:1 34:0.0041216109 35:3.21626e-008 36:0.0016455101 37:1.2872508e-008 38:0.02024761 39:1.5544185e-007 40:0.97400093 41:1.9842432e-007 #
0.058894234892103547 1:0 2:1 3:0.12 4:0 5:0 6:0 7:1 8:1 9:0 10:0.11 11:0 12:1 13:0 14:1 15:1 16:1 17:0 18:0 19:0 20:0 21:0 22:0 23:0 24:0 25:0 26:0 27:1 28:0 29:0 30:0 31:1 32:0 33:0 34:0.5 35:0.083333336 36:0.5 37:0.083333336 38:0.5 39:0.083333336 40:0.5 41:0.083333336 #
0.11949604887842752 1:1 2:1 3:0.039999999 4:0 5:0 6:0 7:1 8:1 9:0 10:0.050000001 11:1 12:0 13:0 14:0 15:0 16:1 17:0 18:0 19:1 20:0 21:0 22:0 23:0 24:0 25:0 26:0 27:1 28:0 29:0 30:0 31:0 32:0 33:0 34:0.66666669 35:0.055555556 36:0.33333334 37:0.055555556 38:0.33333334 39:0.055555556 40:0.33333334 41:0.055555556 #
0.11949604887842752 1:1 2:1 3:0.22 4:0 5:0 6:0 7:1 8:1 9:0 10:1.05 11:1 12:0 13:0 14:0 15:1 16:1 17:0 18:0 19:0 20:0 21:0 22:0 23:0 24:0 25:0 26:0 27:1 28:0 29:0 30:0 31:0 32:0 33:0 34:0.56547767 35:6.1274979e-005 36:0.096782237 37:2.1799362e-005 38:0.26615116 39:4.8706912e-005 40:0.072087802 41:1.6681086e-005 #
-0.11949604887842752 1:0 2:1 3:0.02 4:0 5:0 6:0 7:1 8:1 9:0 10:1.8200001 11:0 12:1 13:0 14:0 15:1 16:1 17:0 18:0 19:1 20:0 21:0 22:0 23:0 24:0 25:0 26:0 27:0 28:0 29:1 30:0 31:0 32:0 33:0 34:0.98766786 35:3.337004e-006 36:0.0041107154 37:1.1215939e-006 38:0.0063030967 39:1.7159912e-006 40:0.0024664293 41:6.7406739e-007 #
-0.11949604887842752 1:0 2:1 3:0.18000001 4:0 5:0 6:0 7:1 8:0 9:0 10:0.0099999998 11:1 12:0 13:0 14:0 15:0 16:1 17:0 18:0 19:1 20:0 21:0 22:0 23:0 24:0 25:0 26:0 27:0 28:0 29:0 30:1 31:0 32:0 33:0 34:0.14457831 35:0.0014723265 36:0.78313255 37:0.0020218568 38:0.060240965 39:0.00067395228 40:0.036144577 41:0.00041473986 #
-0.11949604887842752 1:0 2:1 3:0.25999999 4:0 5:0 6:0 7:1 8:0 9:0 10:0.34 11:1 12:0 13:0 14:0 15:0 16:1 17:0 18:0 19:1 20:0 21:0 22:0 23:0 24:0 25:0 26:0 27:0 28:0 29:0 30:1 31:0 32:0 33:0 34:0.84351146 35:0.00016772539 36:0.0063613229 37:8.031584e-006 38:0.13867685 39:0.00015177329 40:0.013994911 41:1.7533741e-005 #
0.11949604887842752 1:1 2:0 3:0.5 4:1 5:0.02 6:0 7:1 8:1 9:0 10:0.0099999998 11:0 12:0 13:0 14:0 15:0 16:0 17:0 18:0 19:0 20:0 21:0 22:0 23:0 24:1 25:0 26:0 27:0 28:0 29:1 30:0 31:0 32:0 33:0 34:0.076470651 35:7.8518735e-007 36:0.018823033 37:2.0533582e-007 38:0.86892807 39:1.2662551e-006 40:0.03580045 41:3.8378079e-007 #
0.11949604887842752 1:1 2:0 3:0.14 4:1 5:0.02 6:0 7:1 8:0 9:0 10:0.0099999998 11:0 12:1 13:0 14:0 15:1 16:1 17:0 18:0 19:0 20:0 21:0 22:0 23:0 24:0 25:0 26:0 27:1 28:0 29:0 30:0 31:0 32:0 33:0 34:0.5 35:0.083333336 36:0.5 37:0.083333336 38:0.5 39:0.083333336 40:0.5 41:0.083333336 #
0.11949604887842752 1:1 2:0 3:0.47999999 4:1 5:0.02 6:0 7:1 8:1 9:0 10:0.02 11:0 12:0 13:0 14:0 15:0 16:1 17:1 18:0 19:0 20:0 21:0 22:0 23:0 24:1 25:0 26:0 27:0 28:0 29:1 30:0 31:0 32:0 33:0 34:0.024229076 35:5.1960495e-005 36:0.0088105723 37:1.9193289e-005 38:0.94052863 39:0.00012293301 40:0.030837005 41:6.56837e-005 #
0.11949604887842752 1:1 2:0 3:0.28 4:1 5:0.02 6:0 7:1 8:1 9:0 10:0.0099999998 11:0 12:0 13:0 14:0 15:0 16:1 17:0 18:0 19:0 20:0 21:0 22:0 23:0 24:1 25:0 26:0 27:1 28:0 29:0 30:0 31:0 32:0 33:0 34:0.068062827 35:0.0001656143 36:0.062827222 37:0.00015373359 38:0.81675392 39:0.00039077533 40:0.057591625 41:0.00014170974 #
-0.11949604887842752 1:1 2:1 3:0.34 4:0 5:0 6:0 7:1 8:0 9:1 10:0.0099999998 11:0 12:0 13:0 14:0 15:0 16:1 17:0 18:0 19:0 20:0 21:0 22:0 23:0 24:0 25:0 26:0 27:0 28:0 29:0 30:1 31:0 32:0 33:0 34:0.0013404826 35:1.7920826e-006 36:0.0013404826 37:1.7920826e-006 38:0.05227882 39:6.6326298e-005 40:0.94772118 41:6.6326298e-005 #
0.11949604887842752 1:0 2:1 3:0.14 4:0 5:0 6:0 7:1 8:0 9:1 10:0.059999999 11:0 12:0 13:0 14:0 15:0 16:1 17:1 18:0 19:0 20:0 21:0 22:0 23:0 24:1 25:0 26:0 27:0 28:0 29:0 30:1 31:0 32:0 33:0 34:0.017734196 35:3.6336453e-006 36:0.00041727518 37:8.7004821e-008 38:0.029209264 39:5.9149111e-006 40:0.95305651 41:9.3324516e-006 #
0.11949604887842752 1:0 2:1 3:0.1 4:0 5:0 6:0 7:1 8:1 9:0 10:0.20999999 11:1 12:0 13:0 14:0 15:1 16:1 17:0 18:0 19:0 20:0 21:0 22:0 23:0 24:0 25:0 26:0 27:1 28:0 29:0 30:0 31:0 32:0 33:0 34:0.027868422 35:7.129226e-007 36:0.009026316 37:2.3538436e-007 38:0.89600003 39:2.452146e-006 40:0.067157894 41:1.6485806e-006 #
0.11949604887842752 1:0 2:1 3:0.34 4:0 5:0 6:0 7:1 8:1 9:0 10:0.02 11:1 12:0 13:0 14:0 15:1 16:1 17:0 18:0 19:1 20:0 21:0 22:0 23:0 24:0 25:0 26:0 27:1 28:0 29:0 30:0 31:0 32:0 33:0 34:0.91384178 35:0.00011105072 36:0.0098870052 37:1.3807127e-005 38:0.066384181 39:8.7415123e-005 40:0.012711864 41:1.7701374e-005 #
-0.11949604887842752 1:0 2:1 3:0.039999999 4:0 5:0 6:0 7:1 8:1 9:0 10:0.0099999998 11:1 12:0 13:0 14:0 15:0 16:1 17:0 18:0 19:1 20:0 21:0 22:0 23:0 24:0 25:0 26:0 27:0 28:0 29:1 30:0 31:0 32:0 33:0 34:0.98333335 35:0.00026867032 36:0.016666668 37:0.00026867032 38:0.016666668 39:0.00026867032 40:0.016666668 41:0.00026867032 #
-0.11949604887842752 1:1 2:0 3:0.25999999 4:1 5:0.02 6:0 7:1 8:1 9:0 10:0.0099999998 11:1 12:0 13:0 14:0 15:0 16:1 17:0 18:0 19:1 20:0 21:0 22:0 23:0 24:0 25:0 26:0 27:0 28:0 29:1 30:0 31:0 32:0 33:0 34:0.42857143 35:0.030612245 36:0.2857143 37:0.025510205 38:0.2857143 39:0.025510205 40:0.2857143 41:0.025510205 #
-0.11949604887842752 1:1 2:0 3:0.16 4:1 5:0.02 6:0 7:1 8:1 9:0 10:0.0099999998 11:1 12:0 13:0 14:0 15:0 16:1 17:0 18:1 19:0 20:0 21:0 22:0 23:0 24:0 25:0 26:0 27:1 28:0 29:0 30:0 31:0 32:0 33:0 34:0.89954799 35:2.2686776e-005 36:0.033149172 37:8.0467753e-006 38:0.044450026 39:1.0663877e-005 40:0.023355098 41:5.726748e-006 #
-0.11949604887842752 1:1 2:0 3:0.16 4:1 5:0.02 6:0 7:1 8:1 9:0 10:0.0099999998 11:1 12:0 13:0 14:0 15:0 16:1 17:0 18:0 19:0 20:0 21:0 22:0 23:0 24:1 25:0 26:0 27:1 28:0 29:0 30:0 31:0 32:0 33:0 34:0.95319188 35:2.0534389e-006 36:0.027891563 37:1.2478656e-006 38:0.0072260322 39:3.3016462e-007 40:0.011782574 41:5.3588667e-007 #
0.11949604887842752 1:0 2:1 3:0.039999999 4:0 5:0 6:0 7:1 8:1 9:0 10:0.1 11:0 12:0 13:0 14:1 15:0 16:1 17:1 18:0 19:0 20:0 21:0 22:0 23:0 24:0 25:1 26:1 27:0 28:1 29:0 30:0 31:0 32:0 33:1 34:0.056205336 35:3.9694615e-007 36:0.91633928 37:5.736598e-007 38:0.006764695 39:5.0277873e-008 40:0.020705653 41:1.5173252e-007 #
0.11949604887842752 1:1 2:0 3:0.47999999 4:1 5:0.02 6:0 7:1 8:0 9:1 10:0.0099999998 11:0 12:1 13:0 14:1 15:0 16:1 17:0 18:0 19:0 20:0 21:0 22:0 23:1 24:0 25:1 26:1 27:0 28:0 29:0 30:1 31:0 32:0 33:1 34:0.0087336246 35:3.7640646e-005 36:0.0043668123 37:1.8903231e-005 38:0.043668121 39:0.0001815705 40:0.95196509 41:0.00019881556 #
0.11949604887842752 1:0 2:1 3:0.18000001 4:0 5:0 6:0 7:1 8:0 9:0 10:0.0099999998 11:0 12:1 13:0 14:1 15:0 16:0 17:0 18:0 19:1 20:0 21:0 22:0 23:0 24:0 25:1 26:1 27:0 28:0 29:0 30:1 31:0 32:0 33:1 34:0.92754817 35:5.0399385e-006 36:0.039525989 37:2.8471338e-006 38:0.017775444 39:1.3093953e-006 40:0.015300383 41:1.1299145e-006 #
-0.10315965751458167 1:1 2:0 3:0.28 4:1 5:0.02 6:1 7:1 8:0 9:0 10:0.0099999998 11:0 12:0 13:0 14:0 15:0 16:0 17:1 18:0 19:0 20:0 21:0 22:0 23:0 24:0 25:0 26:0 27:0 28:0 29:0 30:1 31:0 32:0 33:0 34:0.0025578025 35:1.0715258e-008 36:0.00057960057 37:2.4329037e-009 38:0.021609021 39:8.8796412e-008 40:0.97526199 41:1.013291e-007 #
0.11949604887842752 1:0 2:1 3:0.059999999 4:0 5:0 6:0 7:1 8:0 9:1 10:0.02 11:0 12:1 13:0 14:1 15:0 16:1 17:0 18:0 19:0 20:0 21:0 22:0 23:0 24:0 25:0 26:0 27:0 28:0 29:0 30:1 31:0 32:0 33:1 34:0.016008005 35:3.9389215e-006 36:0.0017508754 37:4.3706171e-007 38:0.0057528764 39:1.4303027e-006 40:0.97698849 41:5.6218996e-006 #
-0.11949604887842752 1:1 2:1 3:0.16 4:0 5:0 6:0 7:1 8:0 9:0 10:0.33000001 11:0 12:0 13:0 14:1 15:0 16:1 17:0 18:0 19:0 20:0 21:0 22:0 23:0 24:0 25:1 26:1 27:0 28:0 29:0 30:1 31:0 32:0 33:1 34:0.5 35:0.083333336 36:0.5 37:0.083333336 38:0.5 39:0.083333336 40:0.5 41:0.083333336 #
0.11949604887842752 1:0 2:1 3:0.14 4:0 5:0 6:0 7:1 8:1 9:0 10:0.0099999998 11:0 12:1 13:0 14:0 15:0 16:1 17:1 18:0 19:1 20:0 21:0 22:0 23:0 24:0 25:0 26:0 27:0 28:0 29:1 30:0 31:0 32:0 33:0 34:0.50835323 35:0.00059507199 36:0.36754176 37:0.00055346388 38:0.11694511 39:0.00024587847 40:0.011933174 41:2.8073271e-005 #
-0.11949604887842752 1:0 2:1 3:0.039999999 4:0 5:0 6:0 7:1 8:1 9:0 10:0.07 11:0 12:1 13:0 14:0 15:0 16:1 17:0 18:0 19:0 20:0 21:0 22:0 23:0 24:1 25:0 26:0 27:0 28:0 29:1 30:0 31:0 32:0 33:0 34:0.09361925 35:4.4356864e-005 36:0.066945605 37:3.2652322e-005 38:0.80962342 39:8.0571524e-005 40:0.03085774 41:1.5632797e-005 #
-0.11949604887842752 1:0 2:1 3:0.039999999 4:0 5:0 6:0 7:1 8:1 9:0 10:0.0099999998 11:0 12:0 13:0 14:0 15:0 16:1 17:1 18:0 19:0 20:0 21:0 22:0 23:0 24:0 25:0 26:0 27:1 28:0 29:0 30:0 31:0 32:0 33:0 34:0.5 35:0.083333336 36:0.5 37:0.083333336 38:0.5 39:0.083333336 40:0.5 41:0.083333336 #
0.11949604887842752 1:1 2:0 3:0.36000001 4:1 5:0.02 6:0 7:1 8:1 9:0 10:0.02 11:1 12:0 13:0 14:0 15:0 16:1 17:0 18:1 19:0 20:0 21:0 22:0 23:0 24:1 25:0 26:0 27:0 28:0 29:1 30:0 31:0 32:0 33:0 34:0.10606061 35:0.0014151008 36:0.075757578 37:0.0010450502 38:0.80303031 39:0.0023607856 40:0.045454547 41:0.00064758852 #
0.11949604887842752 1:1 2:0 3:0.46000001 4:1 5:0.02 6:0 7:1 8:1 9:0 10:0.02 11:1 12:0 13:0 14:0 15:0 16:1 17:0 18:0 19:0 20:0 21:0 22:0 23:0 24:1 25:0 26:0 27:0 28:0 29:1 30:0 31:0 32:0 33:0 34:0.33333334 35:0.055555556 36:0.33333334 37:0.055555556 38:0.66666669 39:0.055555556 40:0.33333334 41:0.055555556 #
0.11949604887842752 1:1 2:0 3:0.62 4:1 5:0.02 6:0 7:1 8:1 9:0 10:0.0099999998 11:1 12:0 13:0 14:0 15:0 16:1 17:0 18:0 19:1 20:0 21:0 22:0 23:0 24:0 25:0 26:0 27:1 28:0 29:0 30:0 31:0 32:0 33:0 34:0.98766786 35:3.337004e-006 36:0.0041107154 37:1.1215939e-006 38:0.0063030967 39:1.7159912e-006 40:0.0024664293 41:6.7406739e-007 #
0.11949604887842752 1:1 2:0 3:0.44 4:1 5:0.02 6:0 7:1 8:1 9:0 10:0.050000001 11:1 12:0 13:0 14:0 15:0 16:1 17:0 18:0 19:1 20:0 21:0 22:0 23:0 24:0 25:0 26:0 27:1 28:0 29:0 30:0 31:0 32:0 33:0 34:0.98766786 35:3.337004e-006 36:0.0041107154 37:1.1215939e-006 38:0.0063030967 39:1.7159912e-006 40:0.0024664293 41:6.7406739e-007 #
-0.11949604887842752 1:1 2:0 3:0.12 4:1 5:0.02 6:0 7:1 8:1 9:0 10:0.02 11:1 12:0 13:0 14:0 15:0 16:1 17:0 18:0 19:0 20:0 21:0 22:0 23:1 24:1 25:0 26:0 27:1 28:0 29:0 30:0 31:0 32:0 33:0 34:0.24356869 35:0.00010078937 36:0.068418175 37:3.4867135e-005 38:0.45265463 39:0.00013553523 40:0.23645321 41:9.8765362e-005 #
0.11949604887842752 1:1 2:0 3:0.12 4:1 5:0.02 6:0 7:1 8:1 9:0 10:0.11 11:0 12:1 13:0 14:1 15:1 16:1 17:0 18:0 19:0 20:0 21:0 22:0 23:0 24:0 25:0 26:0 27:1 28:0 29:0 30:0 31:1 32:0 33:0 34:0.5 35:0.083333336 36:0.5 37:0.083333336 38:0.5 39:0.083333336 40:0.5 41:0.083333336 #
-0.11949604887842752 1:1 2:0 3:0.14 4:1 5:0.02 6:0 7:1 8:1 9:0 10:0.0099999998 11:0 12:0 13:0 14:0 15:0 16:0 17:0 18:0 19:1 20:0 21:0 22:0 23:0 24:1 25:0 26:0 27:1 28:0 29:0 30:0 31:0 32:0 33:0 34:0.96454698 35:1.9232899e-005 36:0.012380417 37:6.8769077e-006 38:0.0095666852 39:5.3291137e-006 40:0.014631401 41:8.108731e-006 #
0.11949604887842752 1:1 2:1 3:0.31999999 4:0 5:0 6:0 7:1 8:0 9:0 10:0.15000001 11:0 12:0 13:0 14:1 15:0 16:1 17:0 18:0 19:0 20:0 21:0 22:0 23:0 24:0 25:1 26:1 27:0 28:0 29:0 30:1 31:0 32:0 33:1 34:0.5 35:0.083333336 36:0.5 37:0.083333336 38:0.5 39:0.083333336 40:0.5 41:0.083333336 #
0.11949604887842752 1:0 2:1 3:0.059999999 4:0 5:0 6:0 7:1 8:0 9:1 10:0.0099999998 11:1 12:0 13:0 14:0 15:0 16:1 17:0 18:0 19:0 20:0 21:0 22:0 23:0 24:0 25:0 26:0 27:0 28:0 29:0 30:1 31:0 32:0 33:0 34:0.015328226 35:1.4159548e-008 36:0.0041071652 37:3.8372563e-009 38:0.020069573 39:1.8450129e-008 40:0.9604969 41:3.5595328e-008 #
0.11949604887842752 1:0 2:1 3:0.14 4:0 5:0 6:0 7:1 8:0 9:0 10:0.0099999998 11:0 12:0 13:0 14:1 15:0 16:1 17:0 18:0 19:1 20:0 21:0 22:0 23:0 24:0 25:1 26:1 27:0 28:0 29:0 30:1 31:0 32:0 33:1 34:0.68141592 35:0.00063849491 36:0.20353982 37:0.00047679813 38:0.085545726 39:0.00023008134 40:0.03539823 41:0.00010042705 #
-0.11949604887842752 1:0 2:1 3:0.079999998 4:0 5:0 6:0 7:1 8:0 9:1 10:0.02 11:1 12:0 13:0 14:0 15:0 16:1 17:0 18:0 19:0 20:0 21:0 22:0 23:0 24:0 25:0 26:0 27:0 28:0 29:0 30:1 31:0 32:0 33:0 34:0.018870944 35:1.0584379e-007 36:0.0060711736 37:3.4496381e-008 38:0.0084607685 39:4.7958473e-008 40:0.96660852 41:1.8451496e-007 #
0.11949604887842752 1:1 2:0 3:0.12 4:1 5:0.02 6:0 7:1 8:1 9:0 10:0.0099999998 11:0 12:0 13:0 14:0 15:0 16:1 17:1 18:0 19:0 20:0 21:0 22:0 23:0 24:1 25:0 26:0 27:1 28:0 29:0 30:0 31:0 32:0 33:0 34:0.94107324 35:9.0876689e-008 36:0.030174611 37:4.7956956e-008 38:0.015161869 39:2.4470001e-008 40:0.013593569 41:2.1973831e-008 #
0.0074475089546923723 1:0 2:1 3:0.079999998 4:0 5:0 6:0 7:1 8:1 9:0 10:0.02 11:0 12:1 13:0 14:1 15:0 16:1 17:0 18:0 19:0 20:0 21:0 22:0 23:0 24:0 25:1 26:1 27:1 28:0 29:0 30:0 31:0 32:0 33:0 34:0.94961852 35:3.5270642e-007 36:0.025706809 37:1.8464215e-007 38:0.0066939439 39:4.901829e-008 40:0.017995503 41:1.3027783e-007 #
0.11949604887842752 1:1 2:1 3:0.059999999 4:0 5:0 6:0 7:1 8:0 9:0 10:0.0099999998 11:0 12:0 13:0 14:0 15:1 16:1 17:0 18:0 19:0 20:0 21:0 22:0 23:0 24:1 25:0 26:0 27:0 28:0 29:0 30:1 31:0 32:0 33:0 34:0.5 35:0.083333336 36:0.5 37:0.083333336 38:0.5 39:0.083333336 40:0.5 41:0.083333336 #
0.11949604887842752 1:1 2:0 3:0.14 4:1 5:0.02 6:0 7:1 8:1 9:0 10:0.0099999998 11:0 12:0 13:0 14:0 15:0 16:1 17:0 18:0 19:0 20:0 21:0 22:0 23:0 24:0 25:0 26:0 27:1 28:0 29:0 30:0 31:0 32:0 33:0 34:0.024238525 35:5.0720605e-006 36:0.019519519 37:4.1043336e-006 38:0.13921064 39:2.5698271e-005 40:0.8174603 41:3.2000633e-005 #
-0.11949604887842752 1:0 2:1 3:0.039999999 4:0 5:0 6:0 7:1 8:0 9:1 10:0.029999999 11:0 12:0 13:0 14:0 15:0 16:1 17:0 18:0 19:0 20:0 21:0 22:0 23:0 24:1 25:0 26:0 27:0 28:0 29:0 30:1 31:0 32:0 33:0 34:0.0059228376 35:1.948105e-007 36:0.0010588313 37:3.4996862e-008 38:0.94748861 39:1.6462286e-006 40:0.045595925 41:1.4398615e-006 #
-0.11949604887842752 1:0 2:1 3:0.16 4:0 5:0 6:0 7:1 8:0 9:0 10:0.0099999998 11:0 12:0 13:0 14:0 15:0 16:0 17:1 18:0 19:0 20:0 21:0 22:0 23:0 24:0 25:0 26:0 27:0 28:0 29:0 30:1 31:0 32:0 33:0 34:0.22553033 35:3.2496075e-005 36:0.034238927 37:6.1519299e-006 38:0.56568664 39:4.5708886e-005 40:0.17491627 41:2.6850337e-005 #
-0.11949604887842752 1:0 2:1 3:0.14 4:0 5:0 6:0 7:1 8:1 9:0 10:0.1 11:0 12:0 13:0 14:0 15:0 16:1 17:1 18:0 19:0 20:0 21:0 22:0 23:0 24:1 25:0 26:0 27:0 28:0 29:1 30:0 31:0 32:0 33:0 34:0.038662765 35:1.0986035e-006 36:0.0054092403 37:1.5902046e-007 38:0.89595342 39:2.7554058e-006 40:0.060033698 41:1.6679372e-006 #
-0.11949604887842752 1:0 2:1 3:0.23999999 4:0 5:0 6:0 7:1 8:1 9:0 10:0.0099999998 11:0 12:0 13:0 14:0 15:0 16:1 17:1 18:0 19:0 20:0 21:0 22:0 23:0 24:1 25:0 26:0 27:0 28:0 29:1 30:0 31:0 32:0 33:0 34:0.05231424 35:4.3955547e-006 36:0.013743572 37:1.2017631e-006 38:0.88322395 39:9.1443735e-006 40:0.050895549 41:4.2827546e-006 #
0.11949604887842752 1:1 2:0 3:0.89999998 4:1 5:0.02 6:0 7:1 8:1 9:0 10:0.02 11:1 12:0 13:0 14:0 15:0 16:1 17:0 18:0 19:1 20:0 21:0 22:0 23:0 24:0 25:0 26:0 27:0 28:1 29:0 30:0 31:0 32:0 33:0 34:0.5 35:0.083333336 36:0.5 37:0.083333336 38:0.5 39:0.083333336 40:0.5 41:0.083333336 #
0.11949604887842752 1:1 2:0 3:0.41999999 4:1 5:0.02 6:0 7:1 8:1 9:0 10:1.05 11:1 12:0 13:0 14:0 15:1 16:1 17:0 18:0 19:0 20:0 21:0 22:0 23:0 24:0 25:0 26:0 27:1 28:0 29:0 30:0 31:0 32:0 33:0 34:0.56547767 35:6.1274979e-005 36:0.096782237 37:2.1799362e-005 38:0.26615116 39:4.8706912e-005 40:0.072087802 41:1.6681086e-005 #
0.11949604887842752 1:0 2:1 3:0.14 4:0 5:0 6:0 7:1 8:1 9:0 10:0.039999999 11:0 12:1 13:0 14:1 15:1 16:1 17:0 18:0 19:0 20:0 21:0 22:0 23:0 24:0 25:0 26:0 27:1 28:0 29:0 30:0 31:1 32:0 33:0 34:0.5 35:0.083333336 36:0.5 37:0.083333336 38:0.5 39:0.083333336 40:0.5 41:0.083333336 #
0.11949604887842752 1:1 2:0 3:0.38 4:1 5:0.02 6:0 7:1 8:1 9:0 10:1.05 11:1 12:0 13:0 14:0 15:0 16:1 17:0 18:0 19:0 20:0 21:0 22:0 23:0 24:0 25:0 26:0 27:1 28:0 29:0 30:0 31:0 32:0 33:0 34:0.56547767 35:6.1274979e-005 36:0.096782237 37:2.1799362e-005 38:0.26615116 39:4.8706912e-005 40:0.072087802 41:1.6681086e-005 #
0.11949604887842752 1:0 2:1 3:0.16 4:0 5:0 6:0 7:1 8:1 9:0 10:0.0099999998 11:0 12:0 13:0 14:0 15:0 16:1 17:1 18:0 19:0 20:0 21:0 22:0 23:0 24:1 25:0 26:0 27:0 28:0 29:1 30:0 31:0 32:0 33:0 34:0.015058677 35:3.4088593e-008 36:0.0034222174 37:7.8384588e-009 38:0.94425625 39:1.2097567e-007 40:0.037267465 41:8.246078e-008 #
-0.11949604887842752 1:1 2:0 3:0.22 4:1 5:0.02 6:0 7:1 8:1 9:0 10:0.25999999 11:1 12:0 13:0 14:1 15:1 16:1 17:0 18:0 19:0 20:0 21:0 22:0 23:0 24:0 25:0 26:1 27:1 28:0 29:0 30:0 31:1 32:0 33:0 34:0.5 35:0.083333336 36:0.5 37:0.083333336 38:0.5 39:0.083333336 40:0.5 41:0.083333336 #
-0.11949604887842752 1:1 2:0 3:1 4:1 5:0.02 6:0 7:1 8:1 9:0 10:0.0099999998 11:1 12:0 13:0 14:0 15:0 16:1 17:0 18:0 19:1 20:0 21:0 22:0 23:0 24:0 25:0 26:0 27:1 28:0 29:0 30:0 31:0 32:0 33:0 34:0.86956519 35:0.00097777194 36:0.017391304 37:0.00014731765 38:0.026086956 39:0.00021902092 40:0.10434783 41:0.00080568413 #
0.11949604887842752 1:0 2:1 3:0.14 4:0 5:0 6:0 7:1 8:0 9:0 10:0.0099999998 11:0 12:0 13:0 14:0 15:0 16:0 17:1 18:0 19:0 20:0 21:0 22:0 23:0 24:0 25:0 26:0 27:0 28:0 29:0 30:1 31:0 32:0 33:0 34:0.0025578025 35:1.0715258e-008 36:0.00057960057 37:2.4329037e-009 38:0.021609021 39:8.8796412e-008 40:0.97526199 41:1.013291e-007 #
-0.11949604887842752 1:0 2:1 3:0.14 4:0 5:0 6:0 7:1 8:1 9:0 10:0.0099999998 11:0 12:0 13:0 14:0 15:0 16:1 17:1 18:1 19:0 20:0 21:0 22:0 23:0 24:0 25:0 26:0 27:0 28:0 29:1 30:0 31:0 32:0 33:0 34:0.01636019 35:9.2997311e-008 36:0.015325759 37:8.7208846e-008 38:0.014840328 39:8.44882e-008 40:0.95348531 41:2.5630104e-007 #
0.11949604887842752 1:1 2:0 3:0.30000001 4:1 5:0.02 6:0 7:1 8:1 9:0 10:0.02 11:0 12:1 13:0 14:1 15:1 16:1 17:0 18:0 19:0 20:0 21:0 22:0 23:0 24:0 25:0 26:0 27:1 28:0 29:0 30:0 31:1 32:0 33:0 34:0.5 35:0.083333336 36:0.5 37:0.083333336 38:0.5 39:0.083333336 40:0.5 41:0.083333336 #
-0.11949604887842752 1:1 2:0 3:0.51999998 4:1 5:0.02 6:0 7:1 8:1 9:0 10:0.16 11:0 12:0 13:0 14:1 15:0 16:1 17:0 18:0 19:0 20:0 21:0 22:0 23:0 24:0 25:1 26:1 27:1 28:0 29:0 30:0 31:1 32:0 33:0 34:0.5 35:0.083333336 36:0.5 37:0.083333336 38:0.5 39:0.083333336 40:0.5 41:0.083333336 #
-0.11949604887842752 1:1 2:1 3:0.079999998 4:0 5:0 6:0 7:1 8:0 9:0 10:0.0099999998 11:1 12:0 13:0 14:0 15:0 16:1 17:0 18:0 19:0 20:0 21:0 22:0 23:0 24:0 25:0 26:0 27:1 28:0 29:0 30:0 31:0 32:0 33:0 34:0.051771116 35:7.6434571e-007 36:0.011054886 37:1.7022194e-007 38:0.11448812 39:1.5784977e-006 40:0.82271701 41:2.2709451e-006 #
-0.11949604887842752 1:1 2:0 3:0.25999999 4:1 5:0.02 6:0 7:1 8:1 9:0 10:0.090000004 11:1 12:0 13:0 14:1 15:1 16:1 17:0 18:0 19:0 20:0 21:0 22:0 23:0 24:0 25:0 26:1 27:1 28:0 29:0 30:0 31:1 32:0 33:0 34:0.5 35:0.083333336 36:0.5 37:0.083333336 38:0.5 39:0.083333336 40:0.5 41:0.083333336 #
0.11949604887842752 1:0 2:1 3:0.30000001 4:0 5:0 6:0 7:1 8:1 9:0 10:0.0099999998 11:0 12:0 13:0 14:0 15:0 16:1 17:1 18:1 19:0 20:0 21:0 22:0 23:0 24:1 25:0 26:0 27:1 28:0 29:0 30:0 31:0 32:0 33:0 34:0.028353212 35:9.6074302e-007 36:0.0046034735 37:1.5980058e-007 38:0.8906675 39:3.3959514e-006 40:0.076445557 41:2.4621322e-006 #
0.11949604887842752 1:0 2:1 3:0.38 4:0 5:0 6:0 7:1 8:1 9:0 10:0.0099999998 11:0 12:0 13:0 14:0 15:0 16:1 17:0 18:1 19:0 20:0 21:0 22:0 23:0 24:0 25:0 26:0 27:0 28:0 29:1 30:0 31:0 32:0 33:0 34:0.018736793 35:8.6334171e-007 36:0.0047898567 37:2.2384081e-007 38:0.9426626 39:2.538027e-006 40:0.033904672 41:1.5380891e-006 #
0.11949604887842752 1:0 2:1 3:0.16 4:0 5:0 6:0 7:1 8:1 9:0 10:0.029999999 11:0 12:0 13:0 14:0 15:0 16:1 17:0 18:1 19:0 20:0 21:0 22:0 23:0 24:0 25:0 26:0 27:0 28:0 29:1 30:0 31:0 32:0 33:0 34:0.035112359 35:2.5042118e-006 36:0.019441159 37:1.4090621e-006 38:0.89000589 39:7.2359667e-006 40:0.055588409 41:3.8804301e-006 #
-0.11949604887842752 1:0 2:1 3:0.16 4:0 5:0 6:0 7:1 8:1 9:0 10:0.0099999998 11:0 12:0 13:0 14:0 15:0 16:1 17:0 18:0 19:0 20:0 21:0 22:0 23:0 24:0 25:0 26:0 27:1 28:0 29:0 30:0 31:0 32:0 33:0 34:0.86582392 35:2.5758953e-005 36:0.064315811 37:1.3343524e-005 38:0.042581502 39:9.0395388e-006 40:0.027722333 41:5.9764538e-006 #
-0.11949604887842752 1:0 2:1 3:0.079999998 4:0 5:0 6:0 7:1 8:1 9:0 10:0.0099999998 11:0 12:0 13:0 14:0 15:0 16:1 17:0 18:1 19:0 20:0 21:0 22:0 23:0 24:1 25:0 26:0 27:0 28:0 29:1 30:0 31:0 32:0 33:0 34:0.012505593 35:2.7626234e-007 36:0.0025055928 37:5.5911833e-008 38:0.93644297 39:1.331459e-006 40:0.048590604 41:1.0341952e-006 #
-0.11949604887842752 1:0 2:1 3:0.22 4:0 5:0 6:0 7:1 8:1 9:0 10:0.0099999998 11:0 12:0 13:0 14:0 15:0 16:1 17:1 18:1 19:0 20:0 21:0 22:0 23:0 24:0 25:0 26:0 27:0 28:0 29:1 30:0 31:0 32:0 33:0 34:0.0073529412 35:2.6735808e-005 36:0.0073529412 37:2.6735808e-005 38:0.97794116 39:7.9019163e-005 40:0.014705882 41:5.3075528e-005 #
-0.11949604887842752 1:1 2:1 3:0.22 4:0 5:0 6:0 7:1 8:1 9:0 10:0.0099999998 11:0 12:1 13:0 14:0 15:0 16:1 17:0 18:1 19:0 20:0 21:0 22:0 23:0 24:1 25:0 26:0 27:0 28:0 29:1 30:0 31:0 32:0 33:0 34:0.070524327 35:1.0232056e-006 36:0.0037619218 37:5.8500401e-008 38:0.90208077 39:1.378794e-006 40:0.023664206 41:3.6064262e-007 #
-0.11949604887842752 1:0 2:1 3:0.1 4:0 5:0 6:0 7:1 8:1 9:0 10:0.0099999998 11:0 12:1 13:0 14:0 15:0 16:1 17:0 18:1 19:0 20:0 21:0 22:0 23:0 24:1 25:0 26:0 27:0 28:0 29:1 30:0 31:0 32:0 33:0 34:0.10898069 35:2.5627639e-007 36:0.036426306 37:9.2634338e-008 38:0.019303145 39:4.9961418e-008 40:0.83529514 41:3.6309336e-007 #
-0.098038436682732322 1:0 2:1 3:0.079999998 4:0 5:0 6:0 7:1 8:1 9:0 10:0.02 11:0 12:1 13:0 14:0 15:0 16:1 17:0 18:0 19:0 20:0 21:0 22:0 23:0 24:1 25:0 26:0 27:0 28:0 29:1 30:0 31:0 32:0 33:0 34:0.003773585 35:4.8911591e-007 36:0.00039037084 37:5.077003e-008 38:0.98698765 39:1.6709654e-006 40:0.0091086533 41:1.174302e-006 #
-0.11949604887842752 1:0 2:1 3:0.02 4:0 5:0 6:0 7:1 8:1 9:0 10:0.050000001 11:0 12:0 13:0 14:0 15:1 16:1 17:0 18:0 19:0 20:0 21:0 22:0 23:0 24:0 25:0 26:0 27:0 28:0 29:1 30:0 31:0 32:0 33:0 34:0.16814159 35:2.3350583e-005 36:0.036400069 37:5.8556097e-006 38:0.61212224 39:3.9637496e-005 40:0.18367006 41:2.5030946e-005 #
-0.11949604887842752 1:1 2:0 3:0.38 4:1 5:0.02 6:0 7:1 8:1 9:0 10:0.0099999998 11:0 12:0 13:0 14:0 15:0 16:1 17:0 18:0 19:1 20:0 21:0 22:0 23:0 24:0 25:0 26:0 27:1 28:0 29:0 30:0 31:0 32:0 33:0 34:0.91603053 35:0.0005827166 36:0.038167939 37:0.00027811475 38:0.030534351 39:0.00022425762 40:0.030534351 41:0.00022425762 #
0.11949604887842752 1:1 2:1 3:0.51999998 4:0 5:0 6:0 7:1 8:1 9:0 10:0.029999999 11:1 12:0 13:0 14:0 15:0 16:1 17:0 18:0 19:1 20:0 21:0 22:0 23:0 24:0 25:0 26:0 27:1 28:0 29:0 30:0 31:0 32:0 33:0 34:0.68141592 35:0.00063849491 36:0.20353982 37:0.00047679813 38:0.085545726 39:0.00023008134 40:0.03539823 41:0.00010042705 #
-0.086104083921861516 1:0 2:1 3:0.039999999 4:0 5:0 6:0 7:1 8:0 9:0 10:0.0099999998 11:0 12:0 13:1 14:0 15:0 16:1 17:0 18:0 19:0 20:0 21:0 22:0 23:0 24:1 25:0 26:0 27:0 28:0 29:0 30:1 31:0 32:0 33:0 34:0.29030159 35:4.4691235e-005 36:0.075070515 37:1.5061808e-005 38:0.35604253 39:4.9734546e-005 40:0.2790193 41:4.3637214e-005 #
-0.11949604887842752 1:1 2:0 3:0.40000001 4:1 5:0.02 6:0 7:1 8:1 9:0 10:0.0099999998 11:0 12:1 13:0 14:0 15:0 16:1 17:0 18:0 19:1 20:0 21:0 22:0 23:0 24:0 25:0 26:0 27:1 28:0 29:0 30:0 31:0 32:0 33:0 34:0.9748162 35:3.8394701e-006 36:0.0045362115 37:7.0622997e-007 38:0.013452213 39:2.0755788e-006 40:0.0075082122 41:1.1654424e-006 #
-0.11949604887842752 1:1 2:0 3:0.34 4:0 5:0.039999999 6:0 7:1 8:1 9:0 10:0.029999999 11:0 12:1 13:0 14:1 15:1 16:1 17:0 18:0 19:0 20:0 21:0 22:0 23:0 24:0 25:0 26:0 27:1 28:0 29:0 30:0 31:1 32:0 33:0 34:0.5 35:0.083333336 36:0.5 37:0.083333336 38:0.5 39:0.083333336 40:0.5 41:0.083333336 #
-0.11949604887842752 1:0 2:1 3:0.1 4:0 5:0 6:0 7:1 8:1 9:0 10:0.0099999998 11:0 12:0 13:0 14:0 15:0 16:1 17:1 18:1 19:0 20:0 21:0 22:0 23:0 24:1 25:0 26:0 27:1 28:0 29:0 30:0 31:0 32:0 33:0 34:0.25094578 35:0.00023674054 36:0.03152585 37:3.8453363e-005 38:0.58259773 39:0.00030626904 40:0.13745271 41:0.00014931922 #
0.11949604887842752 1:1 2:0 3:0.18000001 4:1 5:0.02 6:0 7:1 8:1 9:0 10:0.0099999998 11:0 12:0 13:0 14:0 15:0 16:1 17:1 18:1 19:0 20:0 21:0 22:0 23:0 24:0 25:0 26:0 27:1 28:0 29:0 30:0 31:0 32:0 33:0 34:0.80025566 35:3.5224784e-006 36:0.084622502 37:1.7069908e-006 38:0.04859183 39:1.0187678e-006 40:0.066574112 41:1.3693999e-006 #
0.11949604887842752 1:0 2:1 3:0.18000001 4:0 5:0 6:0 7:1 8:1 9:0 10:0.0099999998 11:0 12:1 13:0 14:0 15:0 16:1 17:0 18:0 19:0 20:0 21:0 22:0 23:1 24:1 25:0 26:0 27:0 28:0 29:1 30:0 31:0 32:0 33:0 34:0.25 35:0.0041666669 36:0.045454547 37:0.00096418732 38:0.59090906 39:0.0053719007 40:0.15909091 41:0.0029729109 #
0.11949604887842752 1:0 2:1 3:0.079999998 4:0 5:0 6:0 7:1 8:1 9:0 10:0.16 11:0 12:1 13:0 14:0 15:0 16:1 17:0 18:0 19:0 20:0 21:0 22:0 23:0 24:1 25:0 26:0 27:0 28:0 29:1 30:0 31:0 32:0 33:0 34:0.06443657 35:2.7030985e-006 36:0.034213711 37:1.4816221e-006 38:0.86789829 39:5.1408324e-006 40:0.033541098 41:1.4535061e-006 #
0.11949604887842752 1:0 2:1 3:0.039999999 4:0 5:0 6:0 7:1 8:1 9:0 10:0.0099999998 11:0 12:1 13:0 14:0 15:0 16:1 17:0 18:0 19:0 20:0 21:0 22:0 23:0 24:1 25:0 26:0 27:0 28:0 29:1 30:0 31:0 32:0 33:0 34:0.21288015 35:0.0002992182 36:0.075134166 37:0.00012408754 38:0.61180681 39:0.00042410579 40:0.10375671 41:0.0001660558 #
0.11949604887842752 1:1 2:1 3:0.039999999 4:0 5:0 6:0 7:1 8:1 9:0 10:0.0099999998 11:0 12:0 13:0 14:0 15:0 16:1 17:0 18:0 19:0 20:0 21:0 22:0 23:0 24:0 25:0 26:0 27:1 28:0 29:0 30:0 31:0 32:0 33:0 34:0.56350362 35:0.0003585529 36:0.083211675 37:0.00011120626 38:0.22335766 39:0.00025287029 40:0.13284671 41:0.00016792779 #
-0.11949604887842752 1:0 2:1 3:0.16 4:0 5:0 6:0 7:1 8:1 9:0 10:0.02 11:0 12:0 13:0 14:0 15:0 16:1 17:1 18:0 19:0 20:0 21:0 22:0 23:0 24:1 25:0 26:0 27:0 28:0 29:1 30:0 31:0 32:0 33:0 34:0.0079802843 35:9.2896022e-007 36:0.0061025703 37:7.1172593e-007 38:0.96596646 39:3.8576954e-006 40:0.020185424 41:2.3208133e-006 #
0.11949604887842752 1:1 2:0 3:0.059999999 4:1 5:0.02 6:0 7:1 8:0 9:0 10:0.13 11:0 12:0 13:0 14:1 15:0 16:1 17:0 18:0 19:0 20:0 21:0 22:0 23:0 24:0 25:0 26:0 27:1 28:0 29:0 30:0 31:0 32:0 33:0 34:0.5 35:0.083333336 36:0.5 37:0.083333336 38:0.5 39:0.083333336 40:0.5 41:0.083333336 #
-0.11949604887842752 1:0 2:1 3:0.039999999 4:0 5:0 6:0 7:1 8:0 9:1 10:0.0099999998 11:1 12:0 13:0 14:0 15:0 16:1 17:0 18:0 19:0 20:0 21:0 22:0 23:0 24:1 25:0 26:0 27:0 28:0 29:0 30:1 31:0 32:0 33:0 34:0.0034042553 35:1.4430738e-006 36:0.0025531915 37:1.0832296e-006 38:0.088085108 39:3.4166787e-005 40:0.9068085 41:3.5945061e-005 #
-0.11949604887842752 1:0 2:1 3:0.18000001 4:0 5:0 6:0 7:1 8:0 9:1 10:0.0099999998 11:1 12:0 13:0 14:0 15:0 16:1 17:0 18:0 19:0 20:0 21:0 22:0 23:0 24:1 25:0 26:0 27:0 28:0 29:0 30:1 31:0 32:0 33:0 34:0.012518893 35:1.0154817e-007 36:0.0012732471 37:1.0445682e-008 38:0.012083525 39:9.8059857e-008 40:0.97414076 41:2.0692588e-007 #
-0.11949604887842752 1:0 2:1 3:0.059999999 4:0 5:0 6:0 7:1 8:0 9:0 10:0.0099999998 11:1 12:0 13:0 14:0 15:0 16:1 17:0 18:0 19:1 20:0 21:0 22:0 23:0 24:0 25:0 26:0 27:0 28:0 29:0 30:1 31:0 32:0 33:0 34:0.5 35:0.050000001 36:0.5 37:0.050000001 38:0.25 39:0.037500001 40:0.25 41:0.037500001 #
-0.11949604887842752 1:0 2:1 3:0.039999999 4:0 5:0 6:0 7:1 8:0 9:0 10:0.07 11:1 12:0 13:0 14:0 15:0 16:1 17:0 18:0 19:0 20:0 21:0 22:0 23:0 24:1 25:0 26:0 27:1 28:0 29:0 30:0 31:0 32:0 33:0 34:0.041666668 35:0.00081490929 36:0.0625 37:0.0011957908 38:0.10416666 39:0.0019044076 40:0.83333331 41:0.0028344672 #
0.11949604887842752 1:0 2:1 3:0.1 4:0 5:0 6:0 7:1 8:1 9:0 10:0.0099999998 11:0 12:0 13:0 14:1 15:0 16:1 17:1 18:0 19:0 20:0 21:0 22:0 23:0 24:0 25:0 26:0 27:1 28:0 29:0 30:0 31:0 32:0 33:1 34:0.49117854 35:5.832354e-006 36:0.095192529 37:2.0100094e-006 38:0.065414235 39:1.4266928e-006 40:0.34826139 41:5.2968521e-006 #
0.11949604887842752 1:1 2:0 3:0.51999998 4:0 5:0.039999999 6:0 7:1 8:1 9:0 10:0.079999998 11:0 12:0 13:0 14:0 15:0 16:1 17:1 18:0 19:0 20:0 21:0 22:0 23:0 24:0 25:0 26:0 27:1 28:0 29:0 30:0 31:0 32:0 33:0 34:0.33333334 35:0.055555556 36:0.33333334 37:0.055555556 38:0.66666669 39:0.055555556 40:0.33333334 41:0.055555556 #
0.11949604887842752 1:0 2:1 3:0.16 4:0 5:0 6:0 7:1 8:1 9:0 10:0.0099999998 11:0 12:0 13:0 14:1 15:0 16:1 17:1 18:0 19:1 20:0 21:0 22:0 23:0 24:0 25:0 26:0 27:1 28:0 29:0 30:0 31:0 32:0 33:1 34:0.79859817 35:2.3003306e-005 36:0.17694178 37:2.0828573e-005 38:0.010728079 39:1.5178757e-006 40:0.014018023 41:1.9767617e-006 #
0.11949604887842752 1:1 2:0 3:0.89999998 4:0 5:0.039999999 6:0 7:1 8:1 9:0 10:0.0099999998 11:0 12:0 13:0 14:0 15:0 16:1 17:1 18:1 19:0 20:0 21:0 22:0 23:0 24:1 25:0 26:0 27:0 28:0 29:1 30:0 31:0 32:0 33:0 34:0.090909094 35:0.0068870522 36:0.090909094 37:0.0068870522 38:0.81818181 39:0.012396694 40:0.18181819 41:0.012396694 #
-0.11949604887842752 1:0 2:1 3:0.079999998 4:0 5:0 6:0 7:1 8:1 9:0 10:0.0099999998 11:0 12:0 13:0 14:0 15:0 16:1 17:1 18:1 19:0 20:0 21:0 22:0 23:0 24:0 25:0 26:0 27:1 28:0 29:0 30:0 31:0 32:0 33:0 34:0.060651872 35:1.0253622e-006 36:0.0032575636 37:5.843625e-008 38:0.71950758 39:3.6321437e-006 40:0.21661897 41:3.0540493e-006 #
0.11949604887842752 1:0 2:1 3:0.039999999 4:0 5:0 6:0 7:1 8:0 9:1 10:0.02 11:1 12:0 13:0 14:0 15:1 16:1 17:0 18:0 19:0 20:0 21:0 22:0 23:0 24:0 25:0 26:0 27:0 28:0 29:0 30:1 31:0 32:0 33:0 34:0.016062787 35:1.1348542e-007 36:0.0016945988 37:1.2147365e-008 38:0.0066850488 39:4.7680778e-008 40:0.97557193 41:1.7111981e-007 #
-0.11949604887842752 1:0 2:1 3:0.28 4:0 5:0 6:0 7:1 8:1 9:0 10:0.0099999998 11:0 12:0 13:0 14:0 15:0 16:1 17:1 18:0 19:1 20:0 21:0 22:0 23:0 24:0 25:0 26:0 27:1 28:0 29:0 30:0 31:0 32:0 33:0 34:0.21333334 35:0.0011114054 36:0.77999997 37:0.0011364238 38:0.0066666668 39:4.3855776e-005 40:0.013333334 41:8.7122884e-005 #
0.11949604887842752 1:1 2:1 3:0.12 4:0 5:0 6:0 7:1 8:0 9:1 10:0.0099999998 11:1 12:0 13:0 14:0 15:0 16:1 17:0 18:0 19:0 20:0 21:0 22:0 23:0 24:1 25:0 26:0 27:0 28:0 29:0 30:1 31:0 32:0 33:0 34:0.0018656716 35:3.4677671e-006 36:0.0018656716 37:3.4677671e-006 38:0.037313432 39:6.6892251e-005 40:0.96268654 41:6.6892251e-005 #
0.11949604887842752 1:0 2:1 3:0.18000001 4:0 5:0 6:0 7:1 8:1 9:0 10:0.029999999 11:1 12:0 13:0 14:0 15:0 16:1 17:0 18:0 19:1 20:0 21:0 22:0 23:0 24:0 25:0 26:0 27:1 28:0 29:0 30:0 31:0 32:0 33:0 34:0.33333334 35:0.055555556 36:0.33333334 37:0.055555556 38:0.66666669 39:0.055555556 40:0.33333334 41:0.055555556 #
-0.11949604887842752 1:1 2:1 3:0.12 4:0 5:0 6:0 7:1 8:1 9:0 10:0.059999999 11:0 12:1 13:0 14:1 15:1 16:1 17:0 18:0 19:0 20:0 21:0 22:0 23:0 24:0 25:0 26:0 27:1 28:0 29:0 30:0 31:1 32:0 33:0 34:0.5 35:0.083333336 36:0.5 37:0.083333336 38:0.5 39:0.083333336 40:0.5 41:0.083333336 #
-0.11949604887842752 1:1 2:1 3:0.16 4:0 5:0 6:0 7:1 8:1 9:0 10:0.039999999 11:0 12:1 13:0 14:1 15:1 16:1 17:0 18:0 19:0 20:0 21:0 22:0 23:0 24:0 25:0 26:0 27:1 28:0 29:0 30:0 31:1 32:0 33:0 34:0.5 35:0.083333336 36:0.5 37:0.083333336 38:0.5 39:0.083333336 40:0.5 41:0.083333336 #
-0.11949604887842752 1:1 2:1 3:0.079999998 4:0 5:0 6:0 7:1 8:1 9:0 10:0.0099999998 11:0 12:0 13:0 14:0 15:0 16:1 17:1 18:0 19:0 20:0 21:0 22:0 23:1 24:0 25:0 26:0 27:0 28:0 29:1 30:0 31:0 32:0 33:0 34:0.1793313 35:0.00044597453 36:0.091185413 37:0.00025112313 38:0.45592704 39:0.00075168966 40:0.27963525 41:0.0006104224 #
-0.11949604887842752 1:1 2:1 3:0.44 4:0 5:0 6:0 7:1 8:1 9:0 10:0.0099999998 11:0 12:0 13:0 14:0 15:0 16:0 17:1 18:0 19:0 20:0 21:0 22:0 23:0 24:0 25:0 26:0 27:0 28:0 29:1 30:0 31:0 32:0 33:0 34:0.13452914 35:0.00051978149 36:0.017937221 37:7.8640514e-005 38:0.67264575 39:0.00098300644 40:0.1838565 41:0.00066988077 #
0.11949604887842752 1:0 2:1 3:0.079999998 4:0 5:0 6:0 7:1 8:1 9:0 10:0.059999999 11:1 12:0 13:0 14:0 15:1 16:1 17:0 18:0 19:1 20:0 21:0 22:0 23:0 24:0 25:0 26:0 27:1 28:0 29:0 30:0 31:0 32:0 33:0 34:0.69999999 35:0.01909091 36:0.1 37:0.0081818178 38:0.1 39:0.0081818178 40:0.30000001 41:0.01909091 #
0.11949604887842752 1:1 2:0 3:0.68000001 4:1 5:0.02 6:0 7:1 8:1 9:0 10:0.0099999998 11:1 12:0 13:0 14:0 15:0 16:1 17:0 18:0 19:1 20:0 21:0 22:0 23:0 24:0 25:0 26:0 27:0 28:1 29:0 30:0 31:0 32:0 33:0 34:0.2 35:0.026666667 36:0.40000001 37:0.039999999 38:0.60000002 39:0.039999999 40:0.2 41:0.026666667 #
-0.11949604887842752 1:1 2:1 3:0.2 4:0 5:0 6:0 7:1 8:1 9:0 10:0.02 11:0 12:0 13:0 14:0 15:0 16:1 17:1 18:0 19:0 20:0 21:0 22:0 23:0 24:0 25:0 26:0 27:0 28:0 29:1 30:0 31:0 32:0 33:0 34:0.01907357 35:5.0841762e-005 36:0.0027247956 37:7.3841607e-006 38:0.91553134 39:0.00021014595 40:0.068119891 41:0.00017249884 #
0.11949604887842752 1:1 2:1 3:0.40000001 4:0 5:0 6:0 7:1 8:1 9:0 10:0.0099999998 11:1 12:0 13:0 14:0 15:0 16:1 17:0 18:0 19:1 20:0 21:0 22:0 23:0 24:0 25:0 26:0 27:1 28:0 29:0 30:0 31:0 32:0 33:0 34:0.64804268 35:8.113958e-005 36:0.16975088 37:5.0137147e-005 38:0.15480427 39:4.654568e-005 40:0.028113879 41:9.7202019e-006 #
-0.11949604887842752 1:1 2:0 3:0.51999998 4:1 5:0.02 6:0 7:1 8:0 9:0 10:0.0099999998 11:1 12:0 13:0 14:0 15:0 16:0 17:0 18:0 19:1 20:0 21:0 22:0 23:0 24:0 25:0 26:0 27:0 28:0 29:0 30:1 31:0 32:0 33:0 34:0.66666669 35:0.055555556 36:0.33333334 37:0.055555556 38:0.33333334 39:0.055555556 40:0.33333334 41:0.055555556 #
0.11949604887842752 1:1 2:1 3:0.079999998 4:0 5:0 6:0 7:1 8:1 9:0 10:0.029999999 11:0 12:1 13:0 14:1 15:1 16:1 17:0 18:0 19:0 20:0 21:0 22:0 23:0 24:0 25:0 26:0 27:1 28:0 29:0 30:0 31:1 32:0 33:0 34:0.5 35:0.083333336 36:0.5 37:0.083333336 38:0.5 39:0.083333336 40:0.5 41:0.083333336 #
-0.11949604887842752 1:0 2:1 3:0.039999999 4:0 5:0 6:0 7:1 8:1 9:0 10:1.8200001 11:0 12:1 13:0 14:0 15:1 16:1 17:0 18:0 19:1 20:0 21:0 22:0 23:0 24:0 25:0 26:0 27:0 28:1 29:0 30:0 31:0 32:0 33:0 34:0.98766786 35:3.337004e-006 36:0.0041107154 37:1.1215939e-006 38:0.0063030967 39:1.7159912e-006 40:0.0024664293 41:6.7406739e-007 #
-0.11949604887842752 1:0 2:1 3:0.12 4:0 5:0 6:0 7:1 8:1 9:0 10:0.15000001 11:1 12:0 13:0 14:0 15:1 16:1 17:0 18:0 19:1 20:0 21:0 22:0 23:0 24:0 25:0 26:0 27:1 28:0 29:0 30:0 31:0 32:0 33:0 34:0.85632181 35:0.0007030557 36:0.057471264 37:0.00030953324 38:0.017241379 39:9.6823511e-005 40:0.080459774 41:0.00042277711 #
-0.11949604887842752 1:0 2:1 3:0.14 4:0 5:0 6:0 7:1 8:1 9:0 10:0.34 11:0 12:1 13:0 14:0 15:0 16:1 17:0 18:0 19:1 20:0 21:0 22:0 23:0 24:0 25:0 26:0 27:0 28:1 29:0 30:0 31:0 32:0 33:0 34:0.84351146 35:0.00016772539 36:0.0063613229 37:8.031584e-006 38:0.13867685 39:0.00015177329 40:0.013994911 41:1.7533741e-005 #
-0.11949604887842752 1:0 2:1 3:0.059999999 4:0 5:0 6:0 7:1 8:0 9:1 10:0.0099999998 11:1 12:0 13:0 14:0 15:0 16:1 17:0 18:0 19:0 20:0 21:0 22:0 23:0 24:0 25:0 26:0 27:0 28:0 29:0 30:1 31:0 32:0 33:0 34:0.92374033 35:1.9984711e-006 36:0.0018440762 37:5.2219228e-008 38:0.012312755 39:3.4500698e-007 40:0.062159557 41:1.6538269e-006 #
0.11949604887842752 1:1 2:0 3:0.36000001 4:1 5:0.02 6:0 7:1 8:1 9:0 10:0.0099999998 11:0 12:0 13:0 14:0 15:0 16:1 17:1 18:0 19:0 20:0 21:0 22:0 23:0 24:1 25:0 26:0 27:0 28:0 29:1 30:0 31:0 32:0 33:0 34:0.0058924197 35:5.3721387e-009 36:0.0012894539 37:1.1810429e-009 38:0.98053622 39:1.7502945e-008 40:0.012283746 41:1.112713e-008 #
0.11949604887842752 1:1 2:1 3:0.30000001 4:0 5:0 6:0 7:1 8:1 9:0 10:0.41999999 11:0 12:0 13:0 14:0 15:0 16:1 17:1 18:0 19:0 20:0 21:0 22:0 23:0 24:0 25:0 26:0 27:0 28:0 29:1 30:0 31:0 32:0 33:0 34:0.015554902 35:5.6307948e-007 36:0.0082003381 37:2.9906573e-007 38:0.93189675 39:2.3337086e-006 40:0.044421565 41:1.5608857e-006 #
0.11949604887842752 1:1 2:0 3:0.28 4:1 5:0.02 6:0 7:1 8:1 9:0 10:0.079999998 11:0 12:0 13:0 14:0 15:0 16:1 17:1 18:0 19:0 20:0 21:0 22:0 23:0 24:1 25:0 26:0 27:0 28:0 29:1 30:0 31:0 32:0 33:0 34:0.015058677 35:3.4088593e-008 36:0.0034222174 37:7.8384588e-009 38:0.94425625 39:1.2097567e-007 40:0.037267465 41:8.246078e-008 #
-0.11949604887842752 1:1 2:0 3:0.059999999 4:1 5:0.02 6:0 7:1 8:1 9:0 10:0.18000001 11:0 12:0 13:0 14:0 15:0 16:1 17:1 18:0 19:0 20:0 21:0 22:0 23:0 24:1 25:0 26:0 27:0 28:0 29:1 30:0 31:0 32:0 33:0 34:0.33333334 35:0.055555556 36:0.33333334 37:0.055555556 38:0.66666669 39:0.055555556 40:0.33333334 41:0.055555556 #
-0.11949604887842752 1:1 2:1 3:0.079999998 4:0 5:0 6:0 7:1 8:1 9:0 10:0.0099999998 11:0 12:0 13:0 14:0 15:0 16:1 17:1 18:0 19:0 20:0 21:0 22:0 23:0 24:1 25:0 26:0 27:0 28:0 29:1 30:0 31:0 32:0 33:0 34:0.041076489 35:5.5713168e-005 36:0.015580736 37:2.1694452e-005 38:0.87960339 39:0.00014978962 40:0.066572241 41:8.7893037e-005 #
-0.11949604887842752 1:1 2:0 3:0.25999999 4:1 5:0.02 6:0 7:1 8:1 9:0 10:0.0099999998 11:1 12:0 13:0 14:0 15:0 16:1 17:0 18:0 19:0 20:0 21:0 22:0 23:0 24:1 25:0 26:0 27:0 28:0 29:1 30:0 31:0 32:0 33:0 34:0.022318037 35:1.7262477e-007 36:0.0055221519 37:4.3446317e-008 38:0.89569622 39:7.3911218e-007 40:0.076479428 41:5.5877979e-007 #
0.11949604887842752 1:0 2:1 3:0.25999999 4:0 5:0 6:0 7:1 8:0 9:1 10:0.0099999998 11:1 12:0 13:0 14:0 15:0 16:1 17:0 18:0 19:0 20:0 21:0 22:0 23:0 24:0 25:0 26:0 27:0 28:0 29:0 30:1 31:0 32:0 33:0 34:0.023433132 35:2.9080121e-007 36:0.0019061659 37:2.4176639e-008 38:0.081088297 39:9.4688193e-007 40:0.89359784 41:1.2082492e-006 #
0.11949604887842752 1:0 2:1 3:0.059999999 4:0 5:0 6:0 7:1 8:1 9:0 10:0.43000001 11:0 12:1 13:0 14:0 15:1 16:1 17:0 18:0 19:1 20:0 21:0 22:0 23:0 24:0 25:0 26:0 27:1 28:0 29:0 30:0 31:0 32:0 33:0 34:0.85545152 35:3.4036388e-005 36:0.10682819 37:2.6263673e-005 38:0.021200441 39:5.7118032e-006 40:0.017070485 41:4.6185196e-006 #
0.11949604887842752 1:0 2:1 3:0.039999999 4:0 5:0 6:0 7:1 8:0 9:1 10:0.11 11:0 12:1 13:0 14:0 15:1 16:1 17:0 18:0 19:0 20:0 21:0 22:0 23:0 24:0 25:0 26:0 27:0 28:0 29:0 30:1 31:0 32:0 33:0 34:0.015328226 35:1.4159548e-008 36:0.0041071652 37:3.8372563e-009 38:0.020069573 39:1.8450129e-008 40:0.9604969 41:3.5595328e-008 #
0.11949604887842752 1:0 2:1 3:0.1 4:0 5:0 6:0 7:1 8:1 9:0 10:0.029999999 11:0 12:1 13:0 14:0 15:1 16:1 17:0 18:0 19:1 20:0 21:0 22:0 23:0 24:0 25:0 26:0 27:1 28:0 29:0 30:0 31:0 32:0 33:0 34:0.5 35:0.083333336 36:0.5 37:0.083333336 38:0.5 39:0.083333336 40:0.5 41:0.083333336 #
0.11949604887842752 1:1 2:1 3:0.12 4:0 5:0 6:0 7:1 8:1 9:0 10:0.059999999 11:0 12:1 13:0 14:0 15:1 16:1 17:0 18:0 19:1 20:0 21:0 22:0 23:0 24:0 25:0 26:0 27:1 28:0 29:0 30:0 31:0 32:0 33:0 34:0.69999999 35:0.01909091 36:0.1 37:0.0081818178 38:0.1 39:0.0081818178 40:0.30000001 41:0.01909091 #
-0.11949604887842752 1:0 2:1 3:0.02 4:0 5:0 6:0 7:1 8:1 9:0 10:0.18000001 11:0 12:1 13:0 14:0 15:1 16:1 17:0 18:0 19:1 20:0 21:0 22:0 23:0 24:0 25:0 26:0 27:1 28:0 29:0 30:0 31:0 32:0 33:0 34:0.54310346 35:0.0021208725 36:0.39655173 37:0.0020452859 38:0.02586207 39:0.00021532668 40:0.05172414 41:0.0004192201 #
-0.11949604887842752 1:0 2:1 3:0.039999999 4:0 5:0 6:0 7:1 8:1 9:0 10:0.029999999 11:0 12:1 13:0 14:0 15:1 16:1 17:0 18:0 19:1 20:0 21:0 22:0 23:0 24:0 25:0 26:0 27:1 28:0 29:0 30:0 31:0 32:0 33:0 34:0.5 35:0.083333336 36:0.5 37:0.083333336 38:0.5 39:0.083333336 40:0.5 41:0.083333336 #
-0.11949604887842752 1:0 2:1 3:0.22 4:0 5:0 6:0 7:1 8:1 9:0 10:0.85000002 11:0 12:1 13:0 14:0 15:1 16:1 17:0 18:0 19:1 20:0 21:0 22:0 23:0 24:0 25:0 26:0 27:1 28:0 29:0 30:0 31:0 32:0 33:0 34:0.95971566 35:6.5428212e-006 36:0.015910629 37:2.6497685e-006 38:0.0072782668 39:1.2227608e-006 40:0.017433988 41:2.898975e-006 #
-0.11949604887842752 1:0 2:1 3:0.44 4:0 5:0 6:0 7:1 8:1 9:0 10:0.02 11:0 12:1 13:0 14:0 15:1 16:1 17:0 18:0 19:1 20:0 21:0 22:0 23:0 24:0 25:0 26:0 27:1 28:0 29:0 30:0 31:0 32:0 33:0 34:0.91346037 35:1.0630786e-006 36:0.064457566 37:8.1095726e-007 38:0.01120241 39:1.4896337e-007 40:0.010906548 41:1.4507255e-007 #
-0.11949604887842752 1:0 2:1 3:0.02 4:0 5:0 6:0 7:1 8:1 9:0 10:0.039999999 11:0 12:1 13:0 14:0 15:1 16:1 17:0 18:0 19:1 20:0 21:0 22:0 23:0 24:0 25:0 26:0 27:1 28:0 29:0 30:0 31:0 32:0 33:0 34:0.92240679 35:3.4069153e-006 36:0.056647785 37:2.5437362e-006 38:0.0095682396 39:4.51099e-007 40:0.011472367 41:5.3983007e-007 #
0.11949604887842752 1:1 2:0 3:0.18000001 4:1 5:0.02 6:0 7:1 8:0 9:0 10:0.0099999998 11:0 12:0 13:0 14:0 15:0 16:0 17:0 18:0 19:0 20:0 21:0 22:0 23:1 24:0 25:0 26:0 27:0 28:0 29:0 30:1 31:0 32:0 33:0 34:0.015554902 35:5.6307948e-007 36:0.0082003381 37:2.9906573e-007 38:0.93189675 39:2.3337086e-006 40:0.044421565 41:1.5608857e-006 #
0.11949604887842752 1:1 2:0 3:0.34 4:1 5:0.02 6:0 7:1 8:1 9:0 10:0.18000001 11:0 12:0 13:0 14:0 15:0 16:1 17:1 18:0 19:0 20:0 21:0 22:0 23:0 24:1 25:0 26:0 27:0 28:0 29:1 30:0 31:0 32:0 33:0 34:0.14285715 35:0.008163265 36:0.071428575 37:0.0044217687 38:0.85714287 39:0.008163265 40:0.071428575 41:0.0044217687 #
0.11949604887842752 1:1 2:0 3:0.18000001 4:1 5:0.02 6:0 7:1 8:1 9:0 10:0.0099999998 11:0 12:0 13:0 14:0 15:0 16:1 17:0 18:0 19:0 20:0 21:0 22:0 23:0 24:1 25:0 26:0 27:1 28:0 29:0 30:0 31:0 32:0 33:0 34:0.94107324 35:9.0876689e-008 36:0.030174611 37:4.7956956e-008 38:0.015161869 39:2.4470001e-008 40:0.013593569 41:2.1973831e-008 #
-0.11949604887842752 1:1 2:0 3:0.25999999 4:1 5:0.02 6:0 7:1 8:0 9:1 10:0.059999999 11:0 12:0 13:0 14:0 15:0 16:1 17:1 18:0 19:0 20:0 21:0 22:0 23:0 24:1 25:0 26:0 27:0 28:0 29:0 30:1 31:0 32:0 33:0 34:0.017734196 35:3.6336453e-006 36:0.00041727518 37:8.7004821e-008 38:0.029209264 39:5.9149111e-006 40:0.95305651 41:9.3324516e-006 #
-0.11949604887842752 1:1 2:0 3:0.54000002 4:1 5:0.02 6:0 7:1 8:0 9:1 10:0.0099999998 11:0 12:0 13:0 14:0 15:0 16:0 17:1 18:0 19:0 20:0 21:0 22:0 23:0 24:0 25:0 26:0 27:0 28:0 29:0 30:1 31:0 32:0 33:0 34:0.0036229233 35:1.3209637e-007 36:0.00047573738 37:1.7400778e-008 38:0.026275342 39:9.3625164e-007 40:0.9696992 41:1.075225e-006 #
0.11949604887842752 1:1 2:1 3:0.039999999 4:0 5:0 6:0 7:1 8:1 9:0 10:0.0099999998 11:1 12:0 13:0 14:0 15:0 16:1 17:0 18:0 19:1 20:0 21:0 22:0 23:0 24:0 25:0 26:0 27:1 28:0 29:0 30:0 31:0 32:0 33:0 34:0.66666669 35:0.055555556 36:0.33333334 37:0.055555556 38:0.33333334 39:0.055555556 40:0.33333334 41:0.055555556 #
-0.11949604887842752 1:1 2:1 3:0.22 4:0 5:0 6:0 7:1 8:1 9:0 10:0.0099999998 11:0 12:0 13:0 14:0 15:0 16:1 17:0 18:1 19:0 20:0 21:0 22:0 23:0 24:1 25:0 26:0 27:1 28:0 29:0 30:0 31:0 32:0 33:0 34:0.5 35:0.083333336 36:0.5 37:0.083333336 38:0.5 39:0.083333336 40:0.5 41:0.083333336 #
-0.11949604887842752 1:0 2:1 3:0.36000001 4:0 5:0 6:0 7:1 8:1 9:0 10:0.0099999998 11:0 12:0 13:0 14:0 15:0 16:1 17:0 18:0 19:1 20:0 21:0 22:0 23:0 24:0 25:0 26:0 27:1 28:0 29:0 30:0 31:0 32:0 33:0 34:0.5 35:0.083333336 36:0.5 37:0.083333336 38:0.5 39:0.083333336 40:0.5 41:0.083333336 #
0.11949604887842752 1:0 2:1 3:0.059999999 4:0 5:0 6:0 7:1 8:1 9:0 10:0.15000001 11:0 12:0 13:0 14:0 15:1 16:1 17:0 18:0 19:1 20:0 21:0 22:0 23:0 24:0 25:0 26:0 27:1 28:0 29:0 30:0 31:0 32:0 33:0 34:0.85632181 35:0.0007030557 36:0.057471264 37:0.00030953324 38:0.017241379 39:9.6823511e-005 40:0.080459774 41:0.00042277711 #
0.11949604887842752 1:0 2:1 3:0.12 4:0 5:0 6:0 7:1 8:1 9:0 10:0.0099999998 11:0 12:1 13:0 14:0 15:0 16:1 17:0 18:0 19:1 20:0 21:0 22:0 23:0 24:0 25:0 26:0 27:1 28:0 29:0 30:0 31:0 32:0 33:0 34:0.81976742 35:0.00085403922 36:0.058139537 37:0.0003165279 38:0.10465116 39:0.00054161443 40:0.029069768 41:0.00016314865 #
0.11949604887842752 1:1 2:1 3:0.059999999 4:0 5:0 6:0 7:1 8:1 9:0 10:0.0099999998 11:0 12:0 13:0 14:0 15:1 16:1 17:0 18:0 19:1 20:0 21:0 22:0 23:0 24:0 25:0 26:0 27:1 28:0 29:0 30:0 31:0 32:0 33:0 34:0.89920807 35:1.3048219e-005 36:0.063210942 37:8.5250967e-006 38:0.018142549 39:2.5645547e-006 40:0.019726422 41:2.7839462e-006 #
-0.11949604887842752 1:0 2:1 3:0.039999999 4:0 5:0 6:0 7:1 8:1 9:0 10:0.029999999 11:0 12:0 13:0 14:0 15:1 16:1 17:0 18:0 19:1 20:0 21:0 22:0 23:0 24:0 25:0 26:0 27:1 28:0 29:0 30:0 31:0 32:0 33:0 34:0.93150419 35:1.2413258e-005 36:0.052539404 37:9.6846334e-006 38:0.0087565677 39:1.6886946e-006 40:0.007589025 41:1.4652592e-006 #
-0.11949604887842752 1:0 2:1 3:0.38 4:0 5:0 6:0 7:1 8:1 9:0 10:0.02 11:1 12:0 13:0 14:0 15:1 16:1 17:0 18:0 19:1 20:0 21:0 22:0 23:0 24:0 25:0 26:0 27:1 28:0 29:0 30:0 31:0 32:0 33:0 34:0.98820436 35:3.1607453e-007 36:0.0013287055 37:3.5980907e-008 38:0.0055588698 39:1.4989475e-007 40:0.0049623083 41:1.3388876e-007 #
0.11949604887842752 1:1 2:0 3:0.44 4:1 5:0.02 6:0 7:1 8:0 9:0 10:0.0099999998 11:0 12:0 13:0 14:0 15:0 16:1 17:1 18:1 19:0 20:0 21:0 22:0 23:0 24:1 25:0 26:0 27:0 28:0 29:0 30:1 31:0 32:0 33:0 34:0.023059677 35:2.4047747e-006 36:0.001814882 37:1.9338047e-007 38:0.92697769 39:7.225668e-006 40:0.048361268 41:4.9127302e-006 #
0.11949604887842752 1:1 2:0 3:0.28 4:1 5:0.02 6:0 7:1 8:0 9:1 10:0.0099999998 11:0 12:0 13:0 14:0 15:0 16:0 17:1 18:0 19:0 20:0 21:0 22:0 23:0 24:1 25:0 26:0 27:0 28:0 29:0 30:1 31:0 32:0 33:0 34:0.052857574 35:3.0275551e-006 36:0.0056849108 37:3.4183554e-007 38:0.092289083 39:5.066026e-006 40:0.84928936 41:7.7405011e-006 #
0.11949604887842752 1:1 2:0 3:0.25999999 4:1 5:0.02 6:0 7:1 8:0 9:1 10:0.029999999 11:0 12:1 13:0 14:0 15:0 16:1 17:0 18:0 19:0 20:0 21:0 22:0 23:0 24:1 25:0 26:0 27:0 28:0 29:0 30:1 31:0 32:0 33:0 34:0.33333334 35:0.055555556 36:0.33333334 37:0.055555556 38:0.33333334 39:0.055555556 40:0.66666669 41:0.055555556 #
0.11949604887842752 1:1 2:1 3:0.14 4:0 5:0 6:0 7:1 8:0 9:0 10:0.0099999998 11:1 12:0 13:0 14:0 15:0 16:1 17:1 18:1 19:0 20:0 21:0 22:0 23:0 24:1 25:0 26:0 27:0 28:0 29:0 30:1 31:0 32:0 33:0 34:0.085501857 35:0.00014506733 36:0.014869888 37:2.717769e-005 38:0.54646838 39:0.00045981572 40:0.35687733 41:0.000425818 #
-0.11949604887842752 1:1 2:0 3:0.14 4:1 5:0.02 6:0 7:1 8:0 9:1 10:0.029999999 11:0 12:1 13:0 14:0 15:0 16:1 17:0 18:1 19:0 20:0 21:0 22:0 23:0 24:1 25:0 26:0 27:0 28:0 29:0 30:1 31:0 32:0 33:0 34:0.02196453 35:2.930308e-006 36:0.00027285129 37:3.7208682e-008 38:0.023055935 39:3.0724811e-006 40:0.95497954 41:5.8646328e-006 #
0.11949604887842752 1:0 2:1 3:0.02 4:0 5:0 6:0 7:1 8:1 9:0 10:0.85000002 11:0 12:0 13:0 14:0 15:0 16:1 17:1 18:0 19:1 20:0 21:0 22:0 23:0 24:0 25:0 26:0 27:1 28:0 29:0 30:0 31:0 32:0 33:0 34:0.95971566 35:6.5428212e-006 36:0.015910629 37:2.6497685e-006 38:0.0072782668 39:1.2227608e-006 40:0.017433988 41:2.898975e-006 #
0.11949604887842752 1:0 2:1 3:0.059999999 4:0 5:0 6:0 7:1 8:0 9:1 10:0.0099999998 11:1 12:0 13:0 14:0 15:0 16:1 17:0 18:0 19:0 20:0 21:0 22:0 23:0 24:0 25:0 26:0 27:0 28:0 29:0 30:1 31:0 32:0 33:0 34:0.083333336 35:0.0058760685 36:0.083333336 37:0.0058760685 38:0.083333336 39:0.0058760685 40:0.91666669 41:0.0058760685 #
0.11949604887842752 1:0 2:1 3:0.059999999 4:0 5:0 6:0 7:1 8:0 9:0 10:0.02 11:1 12:0 13:0 14:0 15:1 16:1 17:0 18:0 19:0 20:0 21:0 22:0 23:0 24:0 25:0 26:0 27:0 28:0 29:1 30:0 31:0 32:0 33:0 34:0.19498819 35:6.6217171e-006 36:0.030079311 37:1.2307339e-006 38:0.30243841 39:8.8997858e-006 40:0.47257847 41:1.0514578e-005 #
-0.11949604887842752 1:1 2:0 3:0.69999999 4:0 5:0.039999999 6:0 7:1 8:1 9:0 10:0.050000001 11:1 12:0 13:0 14:1 15:1 16:1 17:0 18:0 19:0 20:0 21:0 22:0 23:0 24:0 25:0 26:0 27:0 28:0 29:1 30:0 31:0 32:0 33:0 34:0.029122679 35:1.0289137e-005 36:0.0094648711 37:3.4116765e-006 38:0.87550056 39:3.966497e-005 40:0.086639971 41:2.8796758e-005 #
-0.11949604887842752 1:1 2:0 3:2.5799999 4:0 5:0.079999998 6:0 7:1 8:0 9:1 10:0.34999999 11:1 12:0 13:0 14:0 15:0 16:1 17:0 18:0 19:0 20:0 21:0 22:0 23:0 24:1 25:0 26:0 27:0 28:0 29:0 30:1 31:0 32:0 33:0 34:0.017734196 35:3.6336453e-006 36:0.00041727518 37:8.7004821e-008 38:0.029209264 39:5.9149111e-006 40:0.95305651 41:9.3324516e-006 #
-0.11949604887842752 1:1 2:0 3:0.74000001 4:0 5:0.039999999 6:0 7:1 8:0 9:1 10:0.02 11:1 12:0 13:0 14:0 15:0 16:1 17:0 18:1 19:0 20:0 21:0 22:0 23:0 24:1 25:0 26:0 27:0 28:0 29:0 30:1 31:0 32:0 33:0 34:0.013229333 35:1.3815847e-007 36:0.00066675839 37:7.0518356e-009 38:0.014192428 39:1.4807175e-007 40:0.97193265 41:2.8870943e-007 #
-0.11949604887842752 1:0 2:1 3:0.02 4:0 5:0 6:0 7:1 8:1 9:0 10:1.8200001 11:0 12:1 13:0 14:0 15:1 16:1 17:0 18:0 19:1 20:0 21:0 22:0 23:0 24:0 25:0 26:0 27:0 28:0 29:1 30:0 31:0 32:0 33:0 34:0.98766786 35:3.337004e-006 36:0.0041107154 37:1.1215939e-006 38:0.0063030967 39:1.7159912e-006 40:0.0024664293 41:6.7406739e-007 #
0.11949604887842752 1:0 2:1 3:0.02 4:0 5:0 6:0 7:1 8:1 9:0 10:0.029999999 11:0 12:0 13:0 14:0 15:0 16:1 17:0 18:0 19:0 20:0 21:0 22:0 23:0 24:0 25:0 26:0 27:0 28:1 29:0 30:0 31:0 32:0 33:0 34:0.41379312 35:0.00059599109 36:0.049261082 37:0.00011507231 38:0.32266009 39:0.00053697923 40:0.21921182 41:0.00042053562 #
0.11949604887842752 1:0 2:1 3:0.039999999 4:0 5:0 6:0 7:1 8:1 9:0 10:0.0099999998 11:0 12:0 13:0 14:0 15:0 16:1 17:0 18:0 19:1 20:0 21:0 22:0 23:0 24:0 25:0 26:0 27:1 28:0 29:0 30:0 31:0 32:0 33:0 34:0.66666669 35:0.055555556 36:0.33333334 37:0.055555556 38:0.33333334 39:0.055555556 40:0.33333334 41:0.055555556 #
0.11949604887842752 1:0 2:1 3:0.079999998 4:0 5:0 6:0 7:1 8:1 9:0 10:0.050000001 11:0 12:0 13:0 14:0 15:0 16:1 17:1 18:0 19:1 20:0 21:0 22:0 23:0 24:0 25:0 26:0 27:1 28:0 29:0 30:0 31:0 32:0 33:0 34:0.956402 35:1.9127156e-005 36:0.011014227 37:4.9967493e-006 38:0.019733822 39:8.8735778e-006 40:0.013767784 41:6.2285467e-006 #
0.11949604887842752 1:0 2:1 3:0.1 4:0 5:0 6:0 7:1 8:1 9:0 10:0.0099999998 11:0 12:0 13:0 14:0 15:0 16:1 17:1 18:0 19:1 20:0 21:0 22:0 23:0 24:0 25:0 26:0 27:1 28:0 29:0 30:0 31:0 32:0 33:0 34:0.81818181 35:0.012396694 36:0.090909094 37:0.0068870522 38:0.090909094 39:0.0068870522 40:0.18181819 41:0.012396694 #
-0.11949604887842752 1:0 2:1 3:0.059999999 4:0 5:0 6:0 7:1 8:1 9:0 10:0.029999999 11:0 12:0 13:0 14:0 15:0 16:1 17:1 18:0 19:1 20:0 21:0 22:0 23:0 24:0 25:0 26:0 27:1 28:0 29:0 30:0 31:0 32:0 33:0 34:0.0053991517 35:2.0701623e-006 36:0.97030467 37:1.1107757e-005 38:0.015811801 39:5.9991476e-006 40:0.0092556886 41:3.535089e-006 #
0.11949604887842752 1:1 2:0 3:0.89999998 4:0 5:0.039999999 6:0 7:1 8:1 9:0 10:1.77 11:1 12:0 13:0 14:0 15:1 16:1 17:0 18:0 19:0 20:0 21:0 22:0 23:0 24:0 25:0 26:0 27:0 28:0 29:1 30:0 31:0 32:0 33:0 34:0.015554902 35:5.6307948e-007 36:0.0082003381 37:2.9906573e-007 38:0.93189675 39:2.3337086e-006 40:0.044421565 41:1.5608857e-006 #
-0.11949604887842752 1:0 2:1 3:0.039999999 4:0 5:0 6:0 7:1 8:1 9:0 10:0.58999997 11:0 12:0 13:0 14:0 15:0 16:1 17:1 18:0 19:0 20:0 21:0 22:0 23:0 24:0 25:0 26:0 27:1 28:0 29:0 30:0 31:0 32:0 33:0 34:0.030265849 35:6.0007824e-006 36:0.0049079754 37:9.9854572e-007 38:0.86073619 39:2.4508157e-005 40:0.10449897 41:1.9132885e-005 #
0.11949604887842752 1:0 2:1 3:0.1 4:0 5:0 6:0 7:1 8:1 9:0 10:0.0099999998 11:1 12:0 13:0 14:0 15:0 16:1 17:0 18:0 19:0 20:0 21:0 22:0 23:1 24:0 25:0 26:0 27:0 28:0 29:1 30:0 31:0 32:0 33:0 34:0.0047938917 35:6.9516396e-008 36:0.0011948302 37:1.7388933e-008 38:0.024421163 39:3.4714805e-007 40:0.96961927 41:4.2922559e-007 #
-0.035899312571927799 1:0 2:1 3:0.059999999 4:0 5:0 6:0 7:1 8:1 9:0 10:0.0099999998 11:0 12:0 13:0 14:0 15:0 16:1 17:1 18:0 19:0 20:0 21:0 22:0 23:1 24:0 25:0 26:0 27:1 28:0 29:0 30:0 31:0 32:0 33:0 34:0.25 35:0.037500001 36:0.25 37:0.037500001 38:0.5 39:0.050000001 40:0.5 41:0.050000001 #
-0.11949604887842752 1:0 2:1 3:0.14 4:0 5:0 6:0 7:1 8:1 9:0 10:0.079999998 11:0 12:0 13:0 14:0 15:0 16:1 17:1 18:1 19:0 20:0 21:0 22:0 23:0 24:1 25:0 26:0 27:1 28:0 29:0 30:0 31:0 32:0 33:0 34:0.037039835 35:1.3466694e-006 36:0.0090239756 37:3.3763286e-007 38:0.90462524 39:3.2575094e-006 40:0.049386445 41:1.7725373e-006 #
0.11949604887842752 1:1 2:0 3:0.28 4:1 5:0.02 6:0 7:1 8:0 9:1 10:0.0099999998 11:0 12:1 13:0 14:1 15:1 16:1 17:0 18:0 19:0 20:0 21:0 22:0 23:0 24:0 25:0 26:0 27:0 28:0 29:0 30:1 31:0 32:0 33:0 34:0.5 35:0.083333336 36:0.5 37:0.083333336 38:0.5 39:0.083333336 40:0.5 41:0.083333336 #
0.11949604887842752 1:1 2:1 3:0.12 4:0 5:0 6:0 7:1 8:0 9:1 10:0.029999999 11:0 12:1 13:0 14:0 15:1 16:1 17:0 18:0 19:0 20:0 21:0 22:0 23:0 24:0 25:0 26:0 27:0 28:0 29:0 30:1 31:0 32:0 33:0 34:0.10898069 35:2.5627639e-007 36:0.036426306 37:9.2634338e-008 38:0.019303145 39:4.9961418e-008 40:0.83529514 41:3.6309336e-007 #
0.11949604887842752 1:1 2:1 3:0.02 4:0 5:0 6:0 7:1 8:0 9:1 10:0.0099999998 11:0 12:1 13:0 14:0 15:1 16:1 17:0 18:0 19:0 20:0 21:0 22:0 23:0 24:0 25:0 26:0 27:0 28:0 29:0 30:1 31:0 32:0 33:0 34:0.037226785 35:2.9285172e-007 36:0.0099603711 37:8.0574267e-008 38:0.029292805 39:2.3233652e-007 40:0.92353636 41:5.7700174e-007 #
-0.11949604887842752 1:1 2:0 3:0.47999999 4:1 5:0.02 6:0 7:1 8:0 9:1 10:0.0099999998 11:0 12:1 13:0 14:0 15:0 16:0 17:0 18:0 19:0 20:0 21:0 22:0 23:0 24:0 25:0 26:0 27:0 28:0 29:0 30:1 31:0 32:0 33:0 34:0.017328519 35:6.145161e-006 36:0.0057761734 37:2.0724681e-006 38:0.057039712 39:1.9410387e-005 40:0.92057765 41:2.6385587e-005 #
-0.11949604887842752 1:1 2:0 3:0.88 4:0 5:0.059999999 6:0 7:1 8:1 9:0 10:0.029999999 11:1 12:0 13:0 14:0 15:1 16:1 17:0 18:0 19:0 20:0 21:0 22:0 23:0 24:0 25:0 26:0 27:1 28:0 29:0 30:0 31:0 32:0 33:0 34:0.53018373 35:0.00065206527 36:0.10236221 37:0.0002405345 38:0.27034122 39:0.00051637914 40:0.10236221 41:0.0002405345 #
-0.11949604887842752 1:1 2:0 3:0.16 4:1 5:0.02 6:0 7:1 8:0 9:1 10:0.0099999998 11:0 12:1 13:0 14:0 15:0 16:1 17:0 18:0 19:0 20:0 21:0 22:0 23:0 24:1 25:0 26:0 27:0 28:0 29:0 30:1 31:0 32:0 33:0 34:0.018311292 35:1.8268282e-005 36:0.004069176 37:4.118514e-006 38:0.017293997 39:1.7271255e-005 40:0.96236014 41:3.6812111e-005 #
0.11949604887842752 1:0 2:1 3:0.14 4:0 5:0 6:0 7:1 8:1 9:0 10:0.11 11:1 12:0 13:0 14:0 15:1 16:1 17:0 18:0 19:1 20:0 21:0 22:0 23:0 24:0 25:0 26:0 27:1 28:0 29:0 30:0 31:0 32:0 33:0 34:0.07692308 35:0.001775148 36:0.92307693 37:0.001775148 38:0.025641026 39:0.0006245891 40:0.025641026 41:0.0006245891 #
0.11949604887842752 1:0 2:1 3:0.1 4:0 5:0 6:0 7:1 8:0 9:1 10:0.13 11:1 12:0 13:0 14:0 15:1 16:1 17:0 18:0 19:0 20:0 21:0 22:0 23:0 24:0 25:0 26:0 27:0 28:0 29:0 30:1 31:0 32:0 33:0 34:0.012367271 35:1.5256459e-006 36:0.0013741412 37:1.7140306e-007 38:0.013991255 39:1.7231451e-006 40:0.97251719 41:3.3384358e-006 #
0.11949604887842752 1:0 2:1 3:0.079999998 4:0 5:0 6:0 7:1 8:1 9:0 10:0.0099999998 11:1 12:0 13:0 14:0 15:0 16:1 17:0 18:1 19:0 20:0 21:0 22:0 23:0 24:0 25:0 26:0 27:0 28:0 29:1 30:0 31:0 32:0 33:0 34:0.021276595 35:8.8236877e-005 36:0.004255319 37:1.7954286e-005 38:0.97872341 39:8.8236877e-005 40:0.004255319 41:1.7954286e-005 #
0.11949604887842752 1:0 2:1 3:0.039999999 4:0 5:0 6:0 7:1 8:1 9:0 10:0.039999999 11:1 12:0 13:0 14:0 15:0 16:1 17:0 18:1 19:0 20:0 21:0 22:0 23:0 24:0 25:0 26:0 27:0 28:0 29:1 30:0 31:0 32:0 33:0 34:0.0094155055 35:1.1403415e-006 36:0.0019564687 37:2.3873832e-007 38:0.95292246 39:5.4849288e-006 40:0.035950109 41:4.2374004e-006 #
-0.11949604887842752 1:1 2:1 3:0.059999999 4:0 5:0 6:0 7:1 8:1 9:0 10:0.0099999998 11:1 12:0 13:0 14:0 15:0 16:1 17:0 18:0 19:1 20:0 21:0 22:0 23:0 24:0 25:0 26:0 27:1 28:0 29:0 30:0 31:0 32:0 33:0 34:0.29411766 35:0.011534025 36:0.70588237 37:0.011534025 38:0.05882353 39:0.0030757401 40:0.05882353 41:0.0030757401 #
-0.11949604887842752 1:0 2:1 3:0.079999998 4:0 5:0 6:0 7:1 8:1 9:0 10:0.0099999998 11:0 12:0 13:0 14:0 15:0 16:1 17:1 18:1 19:1 20:0 21:0 22:0 23:0 24:0 25:0 26:0 27:1 28:0 29:0 30:0 31:0 32:0 33:0 34:0.92702234 35:1.0707809e-005 36:0.050498653 37:7.5891962e-006 38:0.012664239 39:1.9790846e-006 40:0.010131392 41:1.5873294e-006 #
-0.11949604887842752 1:0 2:1 3:0.2 4:0 5:0 6:0 7:1 8:1 9:0 10:0.0099999998 11:1 12:0 13:0 14:0 15:0 16:1 17:0 18:0 19:1 20:0 21:0 22:0 23:0 24:0 25:0 26:0 27:1 28:0 29:0 30:0 31:0 32:0 33:0 34:0.5 35:0.083333336 36:0.5 37:0.083333336 38:0.5 39:0.083333336 40:0.5 41:0.083333336 #
-0.11949604887842752 1:0 2:1 3:0.1 4:0 5:0 6:0 7:1 8:1 9:0 10:0.029999999 11:1 12:0 13:0 14:0 15:1 16:1 17:0 18:0 19:1 20:0 21:0 22:0 23:0 24:0 25:0 26:0 27:1 28:0 29:0 30:0 31:0 32:0 33:0 34:0.45967743 35:0.0019869928 36:0.14516129 37:0.00099271594 38:0.12096774 39:0.00085067638 40:0.29032257 41:0.001648283 #
0.11949604887842752 1:1 2:0 3:0.60000002 4:1 5:0.02 6:0 7:1 8:0 9:1 10:0.0099999998 11:0 12:0 13:0 14:0 15:0 16:1 17:0 18:0 19:0 20:0 21:0 22:0 23:0 24:0 25:0 26:0 27:0 28:0 29:0 30:1 31:0 32:0 33:0 34:0.023433132 35:2.9080121e-007 36:0.0019061659 37:2.4176639e-008 38:0.081088297 39:9.4688193e-007 40:0.89359784 41:1.2082492e-006 #
0.11949604887842752 1:1 2:0 3:0.23999999 4:1 5:0.02 6:0 7:1 8:0 9:1 10:0.02 11:0 12:1 13:0 14:1 15:1 16:1 17:0 18:0 19:0 20:0 21:0 22:0 23:0 24:0 25:0 26:0 27:0 28:0 29:0 30:1 31:0 32:0 33:0 34:0.5 35:0.083333336 36:0.5 37:0.083333336 38:0.5 39:0.083333336 40:0.5 41:0.083333336 #
0.11949604887842752 1:1 2:0 3:0.34 4:1 5:0.02 6:0 7:1 8:0 9:0 10:0.039999999 11:0 12:0 13:0 14:0 15:0 16:1 17:0 18:0 19:0 20:0 21:0 22:0 23:0 24:0 25:0 26:0 27:0 28:0 29:0 30:1 31:0 32:0 33:0 34:0.019055996 35:2.7396841e-006 36:0.0041043684 37:5.990799e-007 38:0.073585458 39:9.9912995e-006 40:0.90354735 41:1.2772906e-005 #
-0.11949604887842752 1:1 2:0 3:0.039999999 4:1 5:0.02 6:0 7:1 8:0 9:1 10:0.1 11:0 12:0 13:0 14:1 15:0 16:1 17:0 18:0 19:0 20:0 21:0 22:0 23:0 24:0 25:0 26:0 27:0 28:0 29:0 30:1 31:0 32:0 33:0 34:0.5 35:0.083333336 36:0.5 37:0.083333336 38:0.5 39:0.083333336 40:0.5 41:0.083333336 #
-0.11949604887842752 1:1 2:0 3:0.12 4:1 5:0.02 6:0 7:1 8:0 9:1 10:0.1 11:0 12:0 13:0 14:1 15:0 16:1 17:0 18:0 19:0 20:0 21:0 22:0 23:0 24:0 25:0 26:0 27:0 28:0 29:0 30:1 31:0 32:0 33:0 34:0.5 35:0.083333336 36:0.5 37:0.083333336 38:0.5 39:0.083333336 40:0.5 41:0.083333336 #
-0.11949604887842752 1:0 2:1 3:0.039999999 4:0 5:0 6:0 7:1 8:1 9:0 10:0.0099999998 11:0 12:0 13:0 14:0 15:0 16:1 17:0 18:0 19:0 20:0 21:0 22:0 23:0 24:0 25:0 26:0 27:1 28:0 29:0 30:0 31:0 32:0 33:0 34:0.59234971 35:1.7592272e-005 36:0.37143898 37:1.7009475e-005 38:0.017632058 39:1.2619239e-006 40:0.018724954 41:1.3386514e-006 #
-0.11949604887842752 1:1 2:0 3:1.02 4:0 5:0.039999999 6:0 7:1 8:0 9:1 10:0.02 11:0 12:1 13:0 14:1 15:1 16:1 17:0 18:0 19:0 20:0 21:0 22:0 23:0 24:0 25:0 26:0 27:0 28:0 29:0 30:1 31:0 32:0 33:0 34:0.5 35:0.083333336 36:0.5 37:0.083333336 38:0.5 39:0.083333336 40:0.5 41:0.083333336 #
0.11949604887842752 1:1 2:0 3:0.54000002 4:0 5:0.039999999 6:0 7:1 8:1 9:0 10:0.0099999998 11:1 12:0 13:0 14:0 15:1 16:1 17:0 18:0 19:0 20:0 21:0 22:0 23:0 24:0 25:0 26:0 27:1 28:0 29:0 30:0 31:0 32:0 33:0 34:0.40000001 35:0.015 36:0.06666667 37:0.003888889 38:0.40000001 39:0.015 40:0.26666668 41:0.012222222 #
-0.11949604887842752 1:1 2:1 3:0.059999999 4:0 5:0 6:0 7:1 8:1 9:0 10:0.0099999998 11:0 12:0 13:0 14:0 15:0 16:1 17:0 18:1 19:0 20:0 21:0 22:0 23:0 24:0 25:0 26:0 27:1 28:0 29:0 30:0 31:0 32:0 33:0 34:0.58823532 35:0.013456363 36:0.11764706 37:0.0057670125 38:0.35294119 39:0.012687428 40:0.05882353 41:0.0030757401 #
-0.11713778484635243 1:1 2:0 3:2 4:0 5:0.039999999 6:0 7:1 8:0 9:0 10:0.49000001 11:1 12:0 13:0 14:0 15:1 16:1 17:0 18:0 19:0 20:0 21:0 22:0 23:0 24:0 25:0 26:0 27:0 28:0 29:0 30:1 31:0 32:0 33:0 34:0.0054719565 35:1.8605175e-006 36:0.00034199728 37:1.1688216e-007 38:0.97503418 39:8.3222249e-006 40:0.019835841 41:6.6469674e-006 #
-0.11949604887842752 1:1 2:1 3:0.02 4:0 5:0 6:0 7:1 8:0 9:0 10:0.039999999 11:1 12:0 13:0 14:0 15:1 16:1 17:0 18:0 19:0 20:0 21:0 22:0 23:0 24:0 25:0 26:0 27:0 28:0 29:1 30:0 31:0 32:0 33:0 34:0.19498819 35:6.6217171e-006 36:0.030079311 37:1.2307339e-006 38:0.30243841 39:8.8997858e-006 40:0.47257847 41:1.0514578e-005 #
-0.11949604887842752 1:0 2:1 3:0.12 4:0 5:0 6:0 7:1 8:1 9:0 10:0.0099999998 11:0 12:1 13:0 14:0 15:0 16:1 17:0 18:0 19:0 20:0 21:0 22:0 23:0 24:0 25:0 26:0 27:0 28:0 29:1 30:0 31:0 32:0 33:0 34:0.078947365 35:0.00094434654 36:0.039473683 37:0.00049240928 38:0.84210527 39:0.001726805 40:0.065789476 41:0.00079819764 #
0.11949604887842752 1:0 2:1 3:0.059999999 4:0 5:0 6:0 7:1 8:0 9:1 10:0.0099999998 11:0 12:1 13:0 14:0 15:0 16:1 17:0 18:0 19:0 20:0 21:0 22:0 23:0 24:1 25:0 26:0 27:0 28:0 29:0 30:1 31:0 32:0 33:0 34:0.017328519 35:6.145161e-006 36:0.0057761734 37:2.0724681e-006 38:0.057039712 39:1.9410387e-005 40:0.92057765 41:2.6385587e-005 #
0.11949604887842752 1:0 2:1 3:0.059999999 4:0 5:0 6:0 7:1 8:0 9:1 10:0.0099999998 11:0 12:1 13:0 14:0 15:0 16:1 17:0 18:0 19:0 20:0 21:0 22:0 23:0 24:1 25:0 26:0 27:0 28:0 29:0 30:1 31:0 32:0 33:0 34:0.022624435 35:1.9993282e-005 36:0.0063348417 37:5.6914209e-006 38:0.054298643 39:4.6428842e-005 40:0.91855204 41:6.7643938e-005 #
-0.11949604887842752 1:0 2:1 3:0.059999999 4:0 5:0 6:0 7:1 8:0 9:1 10:0.0099999998 11:0 12:1 13:0 14:0 15:0 16:1 17:0 18:0 19:0 20:0 21:0 22:0 23:0 24:0 25:0 26:0 27:0 28:0 29:0 30:1 31:0 32:0 33:0 34:0.013730461 35:2.859965e-006 36:0.0014786649 37:3.1182228e-007 38:0.031685676 39:6.4797669e-006 40:0.95352769 41:9.3585322e-006 #
0.11949604887842752 1:1 2:0 3:0.69999999 4:1 5:0.02 6:0 7:1 8:1 9:0 10:0.47999999 11:1 12:0 13:0 14:0 15:1 16:1 17:0 18:1 19:0 20:0 21:0 22:0 23:0 24:0 25:0 26:0 27:1 28:0 29:0 30:0 31:0 32:0 33:0 34:0.68141592 35:0.00063849491 36:0.20353982 37:0.00047679813 38:0.085545726 39:0.00023008134 40:0.03539823 41:0.00010042705 #
-0.11949604887842752 1:1 2:0 3:0.12 4:1 5:0.02 6:0 7:1 8:0 9:1 10:0.059999999 11:0 12:1 13:0 14:0 15:0 16:1 17:0 18:1 19:0 20:0 21:0 22:0 23:0 24:1 25:0 26:0 27:0 28:0 29:0 30:1 31:0 32:0 33:0 34:0.035680752 35:1.6146239e-005 36:0.003286385 37:1.5371115e-006 38:0.037558686 39:1.6962942e-005 40:0.92441314 41:3.2789059e-005 #
0.11949604887842752 1:0 2:1 3:0.02 4:0 5:0 6:0 7:1 8:1 9:0 10:0.02 11:0 12:1 13:0 14:1 15:1 16:1 17:0 18:0 19:0 20:0 21:0 22:0 23:0 24:0 25:0 26:0 27:1 28:0 29:0 30:0 31:1 32:0 33:0 34:0.5 35:0.083333336 36:0.5 37:0.083333336 38:0.5 39:0.083333336 40:0.5 41:0.083333336 #
-0.11135646332353932 1:0 2:1 3:0.36000001 4:0 5:0 6:0 7:1 8:1 9:0 10:0.059999999 11:0 12:0 13:0 14:1 15:0 16:1 17:0 18:0 19:0 20:0 21:0 22:0 23:0 24:0 25:1 26:0 27:1 28:0 29:0 30:0 31:0 32:0 33:1 34:0.5 35:0.083333336 36:0.5 37:0.083333336 38:0.5 39:0.083333336 40:0.5 41:0.083333336 #
0.11949604887842752 1:1 2:0 3:0.38 4:1 5:0.02 6:0 7:1 8:0 9:0 10:0.059999999 11:1 12:0 13:0 14:1 15:1 16:1 17:0 18:0 19:0 20:0 21:0 22:0 23:0 24:0 25:0 26:0 27:1 28:0 29:0 30:0 31:0 32:0 33:0 34:0.5 35:0.083333336 36:0.5 37:0.083333336 38:0.5 39:0.083333336 40:0.5 41:0.083333336 #
0.11949604887842752 1:1 2:1 3:0.079999998 4:0 5:0 6:0 7:1 8:0 9:1 10:0.0099999998 11:0 12:1 13:0 14:0 15:0 16:1 17:0 18:0 19:0 20:0 21:0 22:0 23:1 24:0 25:0 26:0 27:0 28:0 29:0 30:1 31:0 32:0 33:0 34:0.015328226 35:1.4159548e-008 36:0.0041071652 37:3.8372563e-009 38:0.020069573 39:1.8450129e-008 40:0.9604969 41:3.5595328e-008 #
-0.11949604887842752 1:1 2:1 3:0.02 4:0 5:0 6:0 7:1 8:0 9:0 10:0.0099999998 11:0 12:0 13:0 14:1 15:1 16:1 17:0 18:0 19:0 20:0 21:0 22:0 23:0 24:0 25:0 26:0 27:0 28:0 29:0 30:1 31:0 32:0 33:0 34:0.5 35:0.083333336 36:0.5 37:0.083333336 38:0.5 39:0.083333336 40:0.5 41:0.083333336 #
-0.11949604887842752 1:1 2:1 3:0.12 4:0 5:0 6:0 7:1 8:0 9:0 10:0.029999999 11:1 12:0 13:0 14:0 15:1 16:1 17:0 18:0 19:1 20:0 21:0 22:0 23:0 24:0 25:0 26:0 27:0 28:0 29:0 30:1 31:0 32:0 33:0 34:0.53018373 35:0.00065206527 36:0.10236221 37:0.0002405345 38:0.27034122 39:0.00051637914 40:0.10236221 41:0.0002405345 #
-0.11949604887842752 1:1 2:0 3:0.2 4:1 5:0.02 6:0 7:1 8:0 9:1 10:0.0099999998 11:1 12:0 13:0 14:0 15:0 16:1 17:0 18:0 19:0 20:0 21:0 22:0 23:0 24:0 25:0 26:0 27:0 28:0 29:0 30:1 31:0 32:0 33:0 34:0.92374033 35:1.9984711e-006 36:0.0018440762 37:5.2219228e-008 38:0.012312755 39:3.4500698e-007 40:0.062159557 41:1.6538269e-006 #
-0.11949604887842752 1:1 2:1 3:0.059999999 4:0 5:0 6:0 7:1 8:0 9:0 10:0.17 11:1 12:0 13:0 14:1 15:1 16:1 17:0 18:0 19:0 20:0 21:0 22:0 23:0 24:0 25:0 26:0 27:0 28:1 29:0 30:0 31:0 32:0 33:0 34:0.5 35:0.083333336 36:0.5 37:0.083333336 38:0.5 39:0.083333336 40:0.5 41:0.083333336 #
-0.11949604887842752 1:1 2:0 3:0.2 4:1 5:0.02 6:0 7:1 8:0 9:1 10:0.0099999998 11:1 12:0 13:0 14:0 15:0 16:0 17:0 18:0 19:0 20:0 21:0 22:0 23:0 24:1 25:0 26:0 27:0 28:0 29:0 30:1 31:0 32:0 33:0 34:0.0087336246 35:3.7640646e-005 36:0.0043668123 37:1.8903231e-005 38:0.043668121 39:0.0001815705 40:0.95196509 41:0.00019881556 #
0.11949604887842752 1:1 2:1 3:0.1 4:0 5:0 6:0 7:1 8:1 9:0 10:0.0099999998 11:0 12:1 13:0 14:0 15:0 16:1 17:0 18:0 19:0 20:0 21:0 22:0 23:0 24:0 25:0 26:0 27:0 28:0 29:1 30:0 31:0 32:0 33:0 34:0.025867136 35:4.9369182e-006 36:0.00039192633 37:7.6757985e-008 38:0.95708406 39:8.0474447e-006 40:0.017048795 41:3.2833336e-006 #
0.11949604887842752 1:0 2:1 3:0.059999999 4:0 5:0 6:0 7:1 8:1 9:0 10:0.0099999998 11:0 12:1 13:0 14:0 15:0 16:1 17:0 18:0 19:0 20:0 21:0 22:0 23:0 24:1 25:0 26:0 27:0 28:0 29:1 30:0 31:0 32:0 33:0 34:0.012924787 35:2.5683443e-007 36:0.0006643582 37:1.3365749e-008 38:0.97161376 39:5.5524004e-007 40:0.014837333 41:2.9426826e-007 #
0.056199313439941334 1:1 2:0 3:0.079999998 4:1 5:0.02 6:0 7:1 8:1 9:0 10:0.029999999 11:0 12:0 13:0 14:1 15:0 16:1 17:0 18:0 19:0 20:0 21:0 22:0 23:0 24:0 25:1 26:0 27:0 28:1 29:0 30:0 31:1 32:0 33:0 34:0.5 35:0.083333336 36:0.5 37:0.083333336 38:0.5 39:0.083333336 40:0.5 41:0.083333336 #
0.11949604887842752 1:1 2:1 3:0.039999999 4:0 5:0 6:0 7:1 8:0 9:1 10:0.050000001 11:0 12:0 13:0 14:1 15:1 16:1 17:0 18:0 19:0 20:0 21:0 22:0 23:0 24:0 25:0 26:0 27:0 28:0 29:0 30:1 31:0 32:0 33:0 34:0.5 35:0.083333336 36:0.5 37:0.083333336 38:0.5 39:0.083333336 40:0.5 41:0.083333336 #
-0.11949604887842752 1:1 2:1 3:0.16 4:0 5:0 6:0 7:1 8:1 9:0 10:0.0099999998 11:0 12:0 13:0 14:0 15:0 16:1 17:1 18:0 19:0 20:0 21:0 22:0 23:0 24:0 25:0 26:0 27:0 28:0 29:1 30:0 31:0 32:0 33:0 34:0.027242064 35:2.291589e-006 36:0.0062267575 37:5.3510769e-007 38:0.92692208 39:5.8576215e-006 40:0.039782062 41:3.3033077e-006 #
0.11949604887842752 1:1 2:0 3:0.1 4:1 5:0.02 6:0 7:1 8:0 9:0 10:0.17 11:1 12:0 13:0 14:1 15:1 16:1 17:0 18:0 19:0 20:0 21:0 22:0 23:0 24:0 25:0 26:0 27:1 28:0 29:0 30:0 31:0 32:0 33:0 34:0.5 35:0.083333336 36:0.5 37:0.083333336 38:0.5 39:0.083333336 40:0.5 41:0.083333336 #
0.11949604887842752 1:1 2:1 3:0.059999999 4:0 5:0 6:0 7:1 8:1 9:0 10:0.11 11:0 12:1 13:0 14:1 15:1 16:1 17:0 18:0 19:0 20:0 21:0 22:0 23:0 24:0 25:0 26:0 27:1 28:0 29:0 30:0 31:1 32:0 33:0 34:0.5 35:0.083333336 36:0.5 37:0.083333336 38:0.5 39:0.083333336 40:0.5 41:0.083333336 #
-0.11949604887842752 1:1 2:1 3:0.16 4:0 5:0 6:0 7:1 8:1 9:0 10:0.41999999 11:0 12:0 13:0 14:0 15:0 16:1 17:1 18:0 19:0 20:0 21:0 22:0 23:0 24:0 25:0 26:0 27:0 28:0 29:1 30:0 31:0 32:0 33:0 34:0.015554902 35:5.6307948e-007 36:0.0082003381 37:2.9906573e-007 38:0.93189675 39:2.3337086e-006 40:0.044421565 41:1.5608857e-006 #
-0.11949604887842752 1:1 2:1 3:0.23999999 4:0 5:0 6:0 7:1 8:1 9:0 10:0.0099999998 11:0 12:1 13:0 14:0 15:0 16:1 17:0 18:0 19:0 20:0 21:0 22:0 23:0 24:0 25:0 26:0 27:0 28:0 29:1 30:0 31:0 32:0 33:0 34:0.13647096 35:1.8546843e-005 36:0.058869824 37:8.719574e-006 38:0.64678103 39:3.595457e-005 40:0.15819298 41:2.0958132e-005 #
-0.11949604887842752 1:0 2:1 3:0.02 4:0 5:0 6:0 7:1 8:1 9:0 10:0.02 11:0 12:0 13:0 14:0 15:1 16:1 17:0 18:0 19:0 20:0 21:0 22:0 23:0 24:0 25:0 26:0 27:0 28:0 29:1 30:0 31:0 32:0 33:0 34:0.33333334 35:0.055555556 36:0.33333334 37:0.055555556 38:0.66666669 39:0.055555556 40:0.33333334 41:0.055555556 #
0.11949604887842752 1:1 2:0 3:0.2 4:1 5:0.02 6:0 7:1 8:0 9:0 10:0.0099999998 11:0 12:0 13:0 14:0 15:0 16:0 17:0 18:0 19:0 20:0 21:0 22:0 23:0 24:0 25:0 26:0 27:0 28:0 29:0 30:1 31:0 32:0 33:0 34:0.016572755 35:2.700596e-006 36:0.0034802784 37:5.7467537e-007 38:0.052867085 39:8.29696e-006 40:0.92741132 41:1.1154854e-005 #
-0.11949604887842752 1:1 2:1 3:0.14 4:0 5:0 6:0 7:1 8:1 9:0 10:0.0099999998 11:0 12:0 13:1 14:0 15:0 16:1 17:0 18:0 19:0 20:0 21:0 22:0 23:0 24:0 25:0 26:0 27:1 28:0 29:0 30:0 31:0 32:0 33:0 34:0.969863 35:3.998461e-005 36:0.016438356 37:2.2117834e-005 38:0.0054794522 39:7.4547575e-006 40:0.010958904 41:1.4827369e-005 #
-0.11949604887842752 1:1 2:0 3:0.14 4:1 5:0.02 6:0 7:1 8:0 9:0 10:0.11 11:1 12:0 13:0 14:0 15:1 16:1 17:0 18:0 19:1 20:0 21:0 22:0 23:0 24:0 25:0 26:0 27:0 28:0 29:0 30:1 31:0 32:0 33:0 34:0.46546721 35:0.00014431989 36:0.50145096 37:0.00014501039 38:0.01334881 39:7.6395709e-006 40:0.02089379 41:1.1866148e-005 #
-0.11949604887842752 1:1 2:0 3:0.23999999 4:1 5:0.02 6:0 7:1 8:0 9:0 10:0.07 11:1 12:0 13:0 14:1 15:1 16:1 17:0 18:0 19:0 20:0 21:0 22:0 23:0 24:0 25:0 26:0 27:1 28:0 29:0 30:0 31:0 32:0 33:0 34:0.5 35:0.083333336 36:0.5 37:0.083333336 38:0.5 39:0.083333336 40:0.5 41:0.083333336 #
0.11949604887842752 1:1 2:1 3:0.039999999 4:0 5:0 6:0 7:1 8:1 9:0 10:0.0099999998 11:1 12:0 13:0 14:0 15:0 16:1 17:0 18:1 19:0 20:0 21:0 22:0 23:0 24:0 25:0 26:0 27:0 28:0 29:1 30:0 31:0 32:0 33:0 34:0.0043415339 35:1.5633581e-006 36:0.0010853835 37:3.921177e-007 38:0.98589003 39:5.0310646e-006 40:0.009406657 41:3.3700439e-006 #
-0.11949604887842752 1:1 2:0 3:0.079999998 4:1 5:0.02 6:0 7:1 8:0 9:0 10:0.0099999998 11:0 12:0 13:0 14:0 15:0 16:1 17:1 18:1 19:0 20:0 21:0 22:0 23:0 24:1 25:0 26:0 27:0 28:0 29:0 30:1 31:0 32:0 33:0 34:0.93644071 35:0.00025113727 36:0.0084745763 37:3.5454676e-005 38:0.050847456 39:0.0002036371 40:0.012711864 41:5.295474e-005 #
-0.11949604887842752 1:1 2:0 3:0.059999999 4:1 5:0.02 6:0 7:1 8:0 9:0 10:0.02 11:0 12:0 13:0 14:0 15:0 16:1 17:1 18:0 19:1 20:0 21:0 22:0 23:0 24:1 25:0 26:0 27:0 28:0 29:0 30:1 31:0 32:0 33:0 34:0.81609195 35:0.00057284685 36:0.14559387 37:0.00047479503 38:0.026819924 39:9.9620665e-005 40:0.019157087 41:7.1717914e-005 #
-0.11949604887842752 1:1 2:0 3:0.34 4:1 5:0.02 6:0 7:1 8:1 9:0 10:0.0099999998 11:0 12:0 13:0 14:0 15:0 16:1 17:0 18:1 19:1 20:0 21:0 22:0 23:0 24:0 25:0 26:0 27:1 28:0 29:0 30:0 31:0 32:0 33:0 34:0.83500147 35:8.0635627e-006 36:0.12906058 37:6.5787167e-006 38:0.016681299 39:9.6002782e-007 40:0.019373721 41:1.1119267e-006 #
-0.11949604887842752 1:0 2:1 3:0.2 4:0 5:0 6:0 7:1 8:0 9:0 10:0.02 11:1 12:0 13:0 14:0 15:1 16:1 17:0 18:0 19:0 20:0 21:0 22:0 23:0 24:0 25:0 26:0 27:1 28:0 29:0 30:0 31:0 32:0 33:0 34:0.37008309 35:6.4558742e-005 36:0.030747922 37:8.2532506e-006 38:0.18781163 39:4.2242711e-005 40:0.41191137 41:6.7084024e-005 #
0.11949604887842752 1:0 2:1 3:0.039999999 4:0 5:0 6:0 7:1 8:1 9:0 10:0.15000001 11:0 12:1 13:0 14:0 15:1 16:1 17:0 18:0 19:0 20:0 21:0 22:0 23:0 24:0 25:0 26:0 27:0 28:0 29:1 30:0 31:0 32:0 33:0 34:0.015554902 35:5.6307948e-007 36:0.0082003381 37:2.9906573e-007 38:0.93189675 39:2.3337086e-006 40:0.044421565 41:1.5608857e-006 #
0.11949604887842752 1:0 2:1 3:0.23999999 4:0 5:0 6:0 7:1 8:0 9:0 10:0.02 11:1 12:0 13:0 14:0 15:0 16:1 17:0 18:0 19:0 20:0 21:0 22:0 23:0 24:0 25:0 26:0 27:0 28:0 29:1 30:0 31:0 32:0 33:0 34:0.0931677 35:0.00052152766 36:0.037267081 37:0.00022147065 38:0.54658383 39:0.0015298144 40:0.33540374 41:0.0013759757 #
0.11949604887842752 1:0 2:1 3:0 4:0 5:0 6:0 7:1 8:0 9:0 10:0.039999999 11:0 12:1 13:0 14:0 15:1 16:1 17:0 18:0 19:0 20:0 21:0 22:0 23:0 24:0 25:0 26:0 27:0 28:0 29:1 30:0 31:0 32:0 33:0 34:0.19498819 35:6.6217171e-006 36:0.030079311 37:1.2307339e-006 38:0.30243841 39:8.8997858e-006 40:0.47257847 41:1.0514578e-005 #
0.11949604887842752 1:1 2:1 3:0.25999999 4:0 5:0 6:0 7:1 8:1 9:0 10:0.090000004 11:1 12:0 13:0 14:0 15:1 16:1 17:0 18:0 19:0 20:0 21:0 22:0 23:0 24:0 25:0 26:0 27:0 28:0 29:1 30:0 31:0 32:0 33:0 34:0.012046997 35:3.9389286e-007 36:0.0052291909 37:1.7215537e-007 38:0.94707924 39:1.6587281e-006 40:0.035710741 41:1.139644e-006 #
-0.11949604887842752 1:0 2:1 3:0.25999999 4:0 5:0 6:0 7:1 8:0 9:0 10:0.029999999 11:1 12:0 13:0 14:0 15:1 16:1 17:0 18:0 19:0 20:0 21:0 22:0 23:0 24:0 25:0 26:0 27:0 28:0 29:0 30:1 31:0 32:0 33:0 34:0.19498819 35:6.6217171e-006 36:0.030079311 37:1.2307339e-006 38:0.30243841 39:8.8997858e-006 40:0.47257847 41:1.0514578e-005 #
-0.11949604887842752 1:0 2:1 3:0.25999999 4:0 5:0 6:0 7:1 8:1 9:0 10:0.0099999998 11:0 12:1 13:0 14:0 15:0 16:1 17:0 18:0 19:0 20:0 21:0 22:0 23:0 24:0 25:0 26:0 27:0 28:0 29:1 30:0 31:0 32:0 33:0 34:0.084916204 35:8.6724824e-005 36:0.013407821 37:1.476345e-005 38:0.73966479 39:0.00021491159 40:0.16424581 41:0.00015320214 #
0.11949604887842752 1:1 2:0 3:0.34 4:1 5:0.02 6:0 7:1 8:1 9:0 10:1.8200001 11:0 12:1 13:0 14:0 15:1 16:1 17:0 18:0 19:1 20:0 21:0 22:0 23:0 24:0 25:0 26:0 27:1 28:0 29:0 30:0 31:0 32:0 33:0 34:0.98766786 35:3.337004e-006 36:0.0041107154 37:1.1215939e-006 38:0.0063030967 39:1.7159912e-006 40:0.0024664293 41:6.7406739e-007 #
-0.11949604887842752 1:1 2:0 3:0.40000001 4:1 5:0.02 6:0 7:1 8:1 9:0 10:0.0099999998 11:1 12:0 13:0 14:0 15:0 16:1 17:0 18:0 19:0 20:0 21:0 22:0 23:0 24:0 25:0 26:0 27:0 28:0 29:1 30:0 31:0 32:0 33:0 34:0.1 35:0.00074380165 36:0.041666668 37:0.00033000458 38:0.85000002 39:0.001053719 40:0.025 41:0.00020144628 #
-0.11949604887842752 1:0 2:1 3:0.079999998 4:0 5:0 6:0 7:1 8:0 9:1 10:0.039999999 11:0 12:1 13:0 14:0 15:1 16:1 17:0 18:0 19:0 20:0 21:0 22:0 23:0 24:0 25:0 26:0 27:0 28:0 29:0 30:1 31:0 32:0 33:0 34:0.016174324 35:1.7871423e-006 36:0.005503763 37:6.1472053e-007 38:0.020217905 39:2.2247464e-006 40:0.95832866 41:4.4850458e-006 #
0.11949604887842752 1:1 2:1 3:0.36000001 4:0 5:0 6:0 7:1 8:0 9:0 10:0.0099999998 11:0 12:0 13:0 14:0 15:0 16:1 17:0 18:0 19:0 20:0 21:0 22:0 23:0 24:0 25:0 26:0 27:0 28:0 29:0 30:1 31:0 32:0 33:0 34:0.022640713 35:1.1988358e-007 36:0.0054014814 37:2.9105564e-008 38:0.02247818 39:1.1904276e-007 40:0.94949049 41:2.5982405e-007 #
0.11949604887842752 1:1 2:1 3:0.039999999 4:0 5:0 6:0 7:1 8:0 9:1 10:0.090000004 11:0 12:0 13:0 14:1 15:0 16:1 17:0 18:0 19:0 20:0 21:0 22:0 23:0 24:0 25:0 26:0 27:0 28:0 29:0 30:1 31:0 32:0 33:0 34:0.5 35:0.083333336 36:0.5 37:0.083333336 38:0.5 39:0.083333336 40:0.5 41:0.083333336 #
0.11949604887842752 1:1 2:1 3:0.16 4:0 5:0 6:0 7:1 8:0 9:0 10:0.0099999998 11:1 12:1 13:1 14:0 15:0 16:1 17:0 18:0 19:0 20:0 21:0 22:0 23:0 24:0 25:0 26:0 27:0 28:0 29:0 30:1 31:0 32:0 33:0 34:0.05534647 35:1.157221e-005 36:0.017268099 37:3.7560674e-006 38:0.71419084 39:4.5179793e-005 40:0.21363737 41:3.718381e-005 #
-0.11949604887842752 1:1 2:1 3:0.2 4:0 5:0 6:0 7:1 8:0 9:1 10:0.050000001 11:0 12:0 13:0 14:1 15:0 16:1 17:0 18:0 19:0 20:0 21:0 22:0 23:0 24:0 25:0 26:0 27:0 28:0 29:0 30:1 31:0 32:0 33:0 34:0.5 35:0.083333336 36:0.5 37:0.083333336 38:0.5 39:0.083333336 40:0.5 41:0.083333336 #
0.11949604887842752 1:0 2:1 3:0.079999998 4:0 5:0 6:0 7:1 8:1 9:0 10:0.02 11:1 12:0 13:0 14:0 15:0 16:1 17:0 18:1 19:0 20:0 21:0 22:0 23:0 24:1 25:0 26:0 27:0 28:0 29:1 30:0 31:0 32:0 33:0 34:0.025227631 35:5.2932103e-007 36:0.0062208064 37:1.3306875e-007 38:0.91943085 39:1.59451e-006 40:0.049163744 41:1.0062137e-006 #
0.11949604887842752 1:1 2:0 3:0.2 4:1 5:0.02 6:0 7:1 8:1 9:0 10:0.02 11:0 12:1 13:0 14:1 15:1 16:1 17:0 18:0 19:0 20:0 21:0 22:0 23:0 24:0 25:0 26:0 27:1 28:0 29:0 30:0 31:1 32:0 33:0 34:0.5 35:0.083333336 36:0.5 37:0.083333336 38:0.5 39:0.083333336 40:0.5 41:0.083333336 #
0.11949604887842752 1:1 2:1 3:0.68000001 4:0 5:0 6:0 7:1 8:1 9:0 10:0.050000001 11:1 12:0 13:0 14:0 15:0 16:1 17:1 18:0 19:0 20:0 21:0 22:0 23:0 24:1 25:0 26:0 27:0 28:0 29:1 30:0 31:0 32:0 33:0 34:0.24704786 35:2.8897812e-005 36:0.20027968 37:2.4882356e-005 38:0.41656309 39:3.775645e-005 40:0.13642013 41:1.8301955e-005 #
-0.11949604887842752 1:1 2:1 3:0.02 4:0 5:0 6:0 7:1 8:1 9:0 10:0.039999999 11:0 12:1 13:0 14:1 15:1 16:1 17:0 18:0 19:0 20:0 21:0 22:0 23:0 24:0 25:0 26:0 27:1 28:0 29:0 30:0 31:1 32:0 33:0 34:0.5 35:0.083333336 36:0.5 37:0.083333336 38:0.5 39:0.083333336 40:0.5 41:0.083333336 #
-0.11949604887842752 1:0 2:1 3:0.02 4:0 5:0 6:0 7:1 8:0 9:0 10:0.039999999 11:1 12:0 13:0 14:0 15:1 16:1 17:0 18:0 19:0 20:0 21:0 22:0 23:1 24:0 25:0 26:0 27:0 28:0 29:0 30:1 31:0 32:0 33:0 34:0.3779918 35:1.1066376e-006 36:0.092089221 37:3.9353094e-007 38:0.3361339 39:1.0503154e-006 40:0.1937945 41:7.3538394e-007 #
-0.11949604887842752 1:1 2:0 3:1.34 4:0 5:0.059999999 6:0 7:1 8:0 9:1 10:0.050000001 11:1 12:0 13:0 14:1 15:1 16:1 17:0 18:0 19:0 20:0 21:0 22:0 23:0 24:0 25:0 26:0 27:0 28:0 29:0 30:1 31:0 32:0 33:0 34:0.5 35:0.083333336 36:0.5 37:0.083333336 38:0.5 39:0.083333336 40:0.5 41:0.083333336 #
0.11949604887842752 1:0 2:1 3:0.14 4:0 5:0 6:0 7:1 8:1 9:0 10:0.02 11:1 12:0 13:0 14:0 15:0 16:1 17:0 18:1 19:0 20:0 21:0 22:0 23:0 24:1 25:0 26:0 27:0 28:0 29:1 30:0 31:0 32:0 33:0 34:0.028297842 35:1.3098834e-006 36:0.0052403412 37:2.4832696e-007 38:0.89381164 39:4.5213601e-006 40:0.072745465 41:3.2132982e-006 #
0.11949604887842752 1:1 2:0 3:0.18000001 4:1 5:0.02 6:0 7:1 8:1 9:0 10:0.20999999 11:1 12:0 13:0 14:0 15:1 16:1 17:0 18:0 19:0 20:0 21:0 22:0 23:0 24:0 25:0 26:0 27:1 28:0 29:0 30:0 31:0 32:0 33:0 34:0.027868422 35:7.129226e-007 36:0.009026316 37:2.3538436e-007 38:0.89600003 39:2.452146e-006 40:0.067157894 41:1.6485806e-006 #
-0.11949604887842752 1:1 2:0 3:0.47999999 4:1 5:0.02 6:0 7:1 8:1 9:0 10:0.02 11:1 12:0 13:0 14:0 15:0 16:1 17:0 18:0 19:0 20:0 21:0 22:0 23:0 24:1 25:0 26:0 27:0 28:0 29:1 30:0 31:0 32:0 33:0 34:0.011443983 35:8.2456398e-007 36:0.0017493987 37:1.2728412e-007 38:0.94416505 39:3.8423782e-006 40:0.042787377 41:2.985176e-006 #
-0.11949604887842752 1:1 2:0 3:1.28 4:0 5:0.039999999 6:0 7:1 8:0 9:1 10:0.11 11:0 12:0 13:0 14:1 15:0 16:1 17:0 18:0 19:0 20:0 21:0 22:0 23:0 24:0 25:0 26:0 27:0 28:0 29:0 30:1 31:0 32:0 33:0 34:0.5 35:0.083333336 36:0.5 37:0.083333336 38:0.5 39:0.083333336 40:0.5 41:0.083333336 #
-0.11949604887842752 1:1 2:0 3:0.28 4:1 5:0.02 6:0 7:1 8:1 9:0 10:0.039999999 11:1 12:0 13:0 14:0 15:0 16:1 17:0 18:1 19:0 20:0 21:0 22:0 23:0 24:1 25:0 26:0 27:1 28:0 29:0 30:0 31:0 32:0 33:0 34:0.022683695 35:7.2043241e-007 36:0.0036722887 37:1.189004e-007 38:0.94348574 39:1.7327567e-006 40:0.030223262 41:9.5248333e-007 #
-0.11949604887842752 1:1 2:0 3:0.41999999 4:1 5:0.02 6:0 7:1 8:1 9:0 10:0.0099999998 11:1 12:0 13:0 14:0 15:0 16:1 17:0 18:0 19:0 20:0 21:0 22:0 23:0 24:1 25:0 26:0 27:1 28:0 29:0 30:0 31:0 32:0 33:0 34:0.11355443 35:3.627381e-005 36:0.027036769 37:9.4795614e-006 38:0.7898342 39:5.9818431e-005 40:0.070295602 41:2.3551038e-005 #
0.11949604887842752 1:1 2:0 3:0.34 4:1 5:0.02 6:0 7:1 8:1 9:0 10:0.029999999 11:0 12:1 13:0 14:1 15:1 16:1 17:0 18:0 19:0 20:0 21:0 22:0 23:0 24:0 25:0 26:0 27:1 28:0 29:0 30:0 31:1 32:0 33:0 34:0.5 35:0.083333336 36:0.5 37:0.083333336 38:0.5 39:0.083333336 40:0.5 41:0.083333336 #
0.11949604887842752 1:1 2:0 3:0.31999999 4:1 5:0.02 6:0 7:1 8:1 9:0 10:0.11 11:0 12:1 13:0 14:1 15:1 16:1 17:0 18:0 19:0 20:0 21:0 22:0 23:0 24:0 25:0 26:0 27:1 28:0 29:0 30:0 31:1 32:0 33:0 34:0.5 35:0.083333336 36:0.5 37:0.083333336 38:0.5 39:0.083333336 40:0.5 41:0.083333336 #
0.11949604887842752 1:1 2:0 3:0.38 4:1 5:0.02 6:0 7:1 8:0 9:1 10:0.090000004 11:1 12:0 13:0 14:0 15:0 16:1 17:0 18:0 19:0 20:0 21:0 22:0 23:0 24:0 25:0 26:0 27:0 28:0 29:0 30:1 31:0 32:0 33:0 34:0.023433132 35:2.9080121e-007 36:0.0019061659 37:2.4176639e-008 38:0.081088297 39:9.4688193e-007 40:0.89359784 41:1.2082492e-006 #
0.11949604887842752 1:1 2:0 3:0.23999999 4:1 5:0.02 6:0 7:1 8:1 9:0 10:0.039999999 11:0 12:1 13:0 14:1 15:1 16:1 17:0 18:0 19:0 20:0 21:0 22:0 23:0 24:0 25:0 26:0 27:1 28:0 29:0 30:0 31:1 32:0 33:0 34:0.5 35:0.083333336 36:0.5 37:0.083333336 38:0.5 39:0.083333336 40:0.5 41:0.083333336 #
-0.11949604887842752 1:0 2:1 3:0.14 4:0 5:0 6:0 7:1 8:1 9:0 10:0.02 11:1 12:0 13:0 14:1 15:1 16:1 17:0 18:0 19:0 20:0 21:0 22:0 23:0 24:0 25:0 26:0 27:1 28:0 29:0 30:0 31:0 32:0 33:1 34:0.5 35:0.083333336 36:0.5 37:0.083333336 38:0.5 39:0.083333336 40:0.5 41:0.083333336 #
0.11949604887842752 1:0 2:1 3:0.12 4:0 5:0 6:0 7:1 8:1 9:0 10:0.029999999 11:1 12:0 13:0 14:0 15:0 16:1 17:0 18:0 19:0 20:0 21:0 22:0 23:0 24:1 25:0 26:0 27:0 28:0 29:1 30:0 31:0 32:0 33:0 34:0.028321408 35:4.3467551e-007 36:0.0032222907 37:5.0733021e-008 38:0.92792493 39:1.0563931e-006 40:0.040562954 41:6.1471485e-007 #
-0.11949604887842752 1:1 2:1 3:0.059999999 4:0 5:0 6:0 7:1 8:0 9:0 10:0.0099999998 11:1 12:0 13:0 14:0 15:0 16:1 17:0 18:0 19:0 20:0 21:0 22:0 23:0 24:0 25:0 26:0 27:1 28:0 29:0 30:0 31:0 32:0 33:0 34:0.16725352 35:6.127575e-005 36:0.049735915 37:2.0792897e-005 38:0.26232395 39:8.5134227e-005 40:0.52156693 41:0.00010978217 #
0.11949604887842752 1:1 2:1 3:0.039999999 4:0 5:0 6:0 7:1 8:0 9:0 10:0.49000001 11:1 12:0 13:0 14:0 15:1 16:1 17:0 18:0 19:0 20:0 21:0 22:0 23:0 24:0 25:0 26:0 27:0 28:0 29:0 30:1 31:0 32:0 33:0 34:0.0054719565 35:1.8605175e-006 36:0.00034199728 37:1.1688216e-007 38:0.97503418 39:8.3222249e-006 40:0.019835841 41:6.6469674e-006 #
-0.11949604887842752 1:1 2:0 3:0.56 4:1 5:0.02 6:0 7:1 8:1 9:0 10:0.58999997 11:1 12:0 13:0 14:0 15:1 16:1 17:0 18:1 19:0 20:0 21:0 22:0 23:0 24:0 25:0 26:0 27:1 28:0 29:0 30:0 31:0 32:0 33:0 34:0.030265849 35:6.0007824e-006 36:0.0049079754 37:9.9854572e-007 38:0.86073619 39:2.4508157e-005 40:0.10449897 41:1.9132885e-005 #
0.11949604887842752 1:1 2:1 3:0.1 4:0 5:0 6:0 7:1 8:0 9:1 10:0.1 11:0 12:0 13:0 14:1 15:0 16:1 17:0 18:0 19:0 20:0 21:0 22:0 23:0 24:0 25:0 26:0 27:0 28:0 29:0 30:1 31:0 32:0 33:0 34:0.5 35:0.083333336 36:0.5 37:0.083333336 38:0.5 39:0.083333336 40:0.5 41:0.083333336 #
-0.11949604887842752 1:1 2:1 3:0.18000001 4:0 5:0 6:0 7:1 8:0 9:1 10:0.0099999998 11:0 12:1 13:0 14:0 15:0 16:1 17:0 18:0 19:0 20:0 21:0 22:0 23:0 24:0 25:0 26:0 27:0 28:0 29:0 30:1 31:0 32:0 33:0 34:0.02440403 35:7.9155768e-007 36:0.0034577916 37:1.1456331e-007 38:0.048043355 39:1.5205529e-006 40:0.92416131 41:2.3301807e-006 #
0.11949604887842752 1:1 2:0 3:0.22 4:1 5:0.02 6:0 7:1 8:1 9:0 10:0.20999999 11:1 12:0 13:0 14:0 15:1 16:1 17:0 18:0 19:0 20:0 21:0 22:0 23:0 24:0 25:0 26:0 27:1 28:0 29:0 30:0 31:0 32:0 33:0 34:0.027868422 35:7.129226e-007 36:0.009026316 37:2.3538436e-007 38:0.89600003 39:2.452146e-006 40:0.067157894 41:1.6485806e-006 #
-0.11949604887842752 1:1 2:0 3:0.039999999 4:1 5:0.02 6:0 7:1 8:1 9:0 10:0.13 11:1 12:0 13:0 14:1 15:1 16:1 17:0 18:0 19:0 20:0 21:0 22:0 23:0 24:0 25:0 26:1 27:0 28:1 29:0 30:0 31:0 32:0 33:1 34:0.5 35:0.083333336 36:0.5 37:0.083333336 38:0.5 39:0.083333336 40:0.5 41:0.083333336 #
0.11949604887842752 1:0 2:1 3:0.039999999 4:0 5:0 6:0 7:1 8:1 9:0 10:0.059999999 11:1 12:0 13:0 14:0 15:0 16:1 17:0 18:1 19:0 20:0 21:0 22:0 23:0 24:1 25:0 26:0 27:0 28:0 29:1 30:0 31:0 32:0 33:0 34:0.022683695 35:7.2043241e-007 36:0.0036722887 37:1.189004e-007 38:0.94348574 39:1.7327567e-006 40:0.030223262 41:9.5248333e-007 #
0.11949604887842752 1:1 2:0 3:0.18000001 4:1 5:0.02 6:0 7:1 8:1 9:0 10:0.20999999 11:1 12:0 13:0 14:0 15:1 16:1 17:0 18:0 19:0 20:0 21:0 22:0 23:0 24:0 25:0 26:0 27:1 28:0 29:0 30:0 31:0 32:0 33:0 34:0.027868422 35:7.129226e-007 36:0.009026316 37:2.3538436e-007 38:0.89600003 39:2.452146e-006 40:0.067157894 41:1.6485806e-006 #
-0.11949604887842752 1:1 2:1 3:0.22 4:0 5:0 6:0 7:1 8:1 9:0 10:0.18000001 11:1 12:0 13:0 14:0 15:1 16:1 17:0 18:0 19:1 20:0 21:0 22:0 23:0 24:0 25:0 26:0 27:1 28:0 29:0 30:0 31:0 32:0 33:0 34:0.54310346 35:0.0021208725 36:0.39655173 37:0.0020452859 38:0.02586207 39:0.00021532668 40:0.05172414 41:0.0004192201 #
-0.11949604887842752 1:0 2:1 3:0.12 4:0 5:0 6:0 7:1 8:1 9:0 10:0.0099999998 11:0 12:1 13:0 14:0 15:0 16:0 17:0 18:0 19:0 20:0 21:0 22:0 23:0 24:0 25:0 26:0 27:1 28:0 29:0 30:0 31:0 32:0 33:0 34:0.29385224 35:0.00011696905 36:0.043429215 37:2.3417768e-005 38:0.46531302 39:0.00014024622 40:0.19853356 41:8.9694462e-005 #
0.11949604887842752 1:1 2:0 3:0.44 4:1 5:0.02 6:0 7:1 8:1 9:0 10:1.05 11:1 12:0 13:0 14:0 15:1 16:1 17:0 18:0 19:0 20:0 21:0 22:0 23:0 24:0 25:0 26:0 27:1 28:0 29:0 30:0 31:0 32:0 33:0 34:0.56547767 35:6.1274979e-005 36:0.096782237 37:2.1799362e-005 38:0.26615116 39:4.8706912e-005 40:0.072087802 41:1.6681086e-005 #
-0.11949604887842752 1:0 2:1 3:0.079999998 4:0 5:0 6:0 7:1 8:1 9:0 10:0.41 11:0 12:0 13:0 14:0 15:1 16:1 17:0 18:0 19:0 20:0 21:0 22:0 23:0 24:0 25:0 26:0 27:1 28:0 29:0 30:0 31:0 32:0 33:0 34:0.94107324 35:9.0876689e-008 36:0.030174611 37:4.7956956e-008 38:0.015161869 39:2.4470001e-008 40:0.013593569 41:2.1973831e-008 #
-0.10609010468708673 1:1 2:1 3:0.079999998 4:0 5:0 6:0 7:1 8:1 9:0 10:0.0099999998 11:0 12:1 13:0 14:0 15:1 16:1 17:0 18:0 19:0 20:0 21:0 22:0 23:0 24:0 25:0 26:0 27:1 28:0 29:0 30:0 31:0 32:0 33:0 34:0.96703297 35:0.000346524 36:0.021978023 37:0.00023364119 38:0.010989011 39:0.00011813318 40:0.021978023 41:0.00023364119 #
0.11949604887842752 1:0 2:1 3:0.2 4:0 5:0 6:0 7:1 8:0 9:0 10:0.0099999998 11:1 12:0 13:0 14:0 15:0 16:1 17:0 18:0 19:0 20:0 21:0 22:0 23:0 24:0 25:0 26:0 27:0 28:0 29:1 30:0 31:0 32:0 33:0 34:0.25 35:0.037500001 36:0.25 37:0.037500001 38:0.25 39:0.037500001 40:0.75 41:0.037500001 #
