SVM-light Version V6.02
0 # kernel type
3 # kernel parameter -d 
1 # kernel parameter -g 
1 # kernel parameter -s 
1 # kernel parameter -r 
empty# kernel parameter -u 
20 # highest feature index 
51 # number of training documents 
41 # number of support vectors plus 1 
1.3290521 # threshold b, each following line is a SV (starting with alpha*y)
-0.15483911659785515 1:1 2:0.51999998 3:0 4:0 5:0 6:0 7:0 8:1 9:1 10:0 11:0.1 12:0 13:0 14:0 15:0 16:0 17:1 18:1 19:1 20:0 #
0.15483911659785515 1:1 2:1.92 3:0 4:0 5:0 6:1 7:0 8:1 9:1 10:0 11:0.1 12:1 13:0 14:0 15:0 16:0 17:1 18:0 19:0 20:0 #
-0.15483911659785515 1:0 2:1.0599999 3:1 4:0.02 5:0 6:0 7:0 8:1 9:0 10:0 11:0.89999998 12:1 13:0 14:0 15:1 16:1 17:1 18:0 19:0 20:0 #
-0.15483911659785515 1:1 2:0.83999997 3:0 4:0 5:0 6:0 7:0 8:1 9:0 10:0 11:0.1 12:1 13:0 14:0 15:0 16:0 17:1 18:0 19:0 20:0 #
-0.15483911659785515 1:1 2:0.74000001 3:0 4:0 5:0 6:1 7:0 8:1 9:0 10:0 11:0.40000001 12:0 13:1 14:0 15:1 16:1 17:1 18:0 19:0 20:0 #
-0.12171407087132913 1:1 2:1.4 3:0 4:0 5:0 6:0 7:0 8:1 9:1 10:0 11:0.1 12:0 13:1 14:0 15:0 16:0 17:1 18:0 19:0 20:0 #
-0.15410649125463571 1:0 2:0.68000001 3:1 4:0.02 5:0 6:1 7:0 8:1 9:1 10:0 11:0.2 12:0 13:1 14:0 15:0 16:1 17:1 18:0 19:0 20:0 #
0.15483911659785515 1:1 2:0.56 3:0 4:0 5:0 6:1 7:0 8:1 9:0 10:1 11:0.1 12:0 13:0 14:0 15:0 16:0 17:1 18:1 19:1 20:0 #
0.15483911659785515 1:1 2:0.74000001 3:0 4:0 5:0 6:0 7:0 8:1 9:1 10:0 11:0.2 12:1 13:0 14:0 15:0 16:0 17:1 18:1 19:1 20:0 #
0.15483911659785515 1:0 2:0.36000001 3:1 4:0.02 5:0 6:0 7:0 8:1 9:0 10:0 11:0.2 12:0 13:0 14:0 15:1 16:0 17:1 18:0 19:0 20:0 #
0.15483911659785515 1:1 2:1.4 3:0 4:0 5:0 6:0 7:0 8:1 9:1 10:0 11:0.30000001 12:0 13:0 14:0 15:0 16:0 17:1 18:0 19:1 20:0 #
0.15483911659785515 1:1 2:0.72000003 3:0 4:0 5:0 6:1 7:0 8:1 9:1 10:0 11:0.1 12:0 13:0 14:0 15:0 16:0 17:1 18:1 19:0 20:0 #
-0.021171931101102714 1:1 2:0.28 3:0 4:0 5:0 6:1 7:0 8:1 9:1 10:0 11:0.1 12:0 13:0 14:0 15:0 16:0 17:1 18:1 19:0 20:0 #
0.15483911659785515 1:0 2:1.24 3:1 4:0.02 5:0 6:0 7:0 8:1 9:0 10:0 11:0.40000001 12:0 13:1 14:0 15:1 16:1 17:1 18:0 19:0 20:0 #
-0.15483911659785515 1:1 2:1.48 3:0 4:0 5:0 6:0 7:0 8:1 9:1 10:0 11:0.30000001 12:0 13:0 14:0 15:0 16:0 17:1 18:1 19:0 20:0 #
0.15483911659785515 1:1 2:0.40000001 3:0 4:0 5:0 6:1 7:1 8:1 9:1 10:0 11:1.5 12:1 13:0 14:0 15:0 16:1 17:1 18:0 19:0 20:0 #
-0.15483911659785515 1:1 2:0.34 3:0 4:0 5:0 6:0 7:0 8:1 9:0 10:0 11:0.69999999 12:1 13:0 14:0 15:0 16:0 17:1 18:0 19:0 20:0 #
0.15483911659785515 1:1 2:0.63999999 3:0 4:0 5:0 6:0 7:0 8:1 9:0 10:0 11:0.2 12:1 13:0 14:0 15:1 16:1 17:1 18:0 19:0 20:0 #
-0.15483911659785515 1:1 2:0.60000002 3:0 4:0 5:0 6:1 7:0 8:1 9:1 10:0 11:0.1 12:0 13:0 14:0 15:0 16:0 17:1 18:0 19:0 20:0 #
0.15483911659785515 1:1 2:0.94 3:0 4:0 5:0 6:0 7:0 8:1 9:0 10:0 11:0.2 12:0 13:0 14:0 15:1 16:0 17:1 18:0 19:0 20:0 #
-0.15483911659785515 1:1 2:0.5 3:0 4:0 5:0 6:0 7:0 8:1 9:0 10:0 11:0.1 12:1 13:0 14:0 15:0 16:0 17:1 18:0 19:0 20:0 #
0.15483911659785515 1:1 2:1.6 3:0 4:0 5:0 6:0 7:0 8:1 9:1 10:0 11:0.2 12:1 13:0 14:0 15:0 16:0 17:1 18:1 19:0 20:0 #
-0.15483911659785515 1:1 2:0.62 3:0 4:0 5:0 6:0 7:0 8:1 9:1 10:0 11:0.2 12:0 13:0 14:0 15:0 16:0 17:1 18:1 19:0 20:0 #
0.15483911659785515 1:0 2:0.83999997 3:1 4:0.02 5:0 6:0 7:0 8:1 9:0 10:0 11:0.69999999 12:0 13:0 14:0 15:1 16:0 17:1 18:0 19:0 20:0 #
-0.15483911659785515 1:0 2:0.51999998 3:1 4:0.02 5:0 6:0 7:0 8:1 9:0 10:0 11:0.69999999 12:0 13:0 14:0 15:0 16:0 17:1 18:0 19:0 20:0 #
0.15483911659785515 1:1 2:1.02 3:0 4:0 5:0 6:0 7:0 8:1 9:1 10:0 11:0.30000001 12:1 13:0 14:0 15:0 16:0 17:1 18:0 19:1 20:0 #
-0.15483911659785515 1:1 2:0.88 3:0 4:0 5:0 6:0 7:0 8:1 9:0 10:0 11:0.1 12:0 13:0 14:0 15:0 16:0 17:1 18:0 19:0 20:0 #
0.15483911659785515 1:1 2:0.34 3:0 4:0 5:0 6:0 7:0 8:1 9:0 10:0 11:0.89999998 12:1 13:0 14:0 15:1 16:1 17:1 18:0 19:0 20:0 #
-0.15483911659785515 1:1 2:0.18000001 3:0 4:0 5:0 6:0 7:0 8:1 9:0 10:0 11:0.40000001 12:0 13:1 14:0 15:1 16:1 17:1 18:0 19:0 20:0 #
-0.15483911659785515 1:1 2:0.86000001 3:0 4:0 5:0 6:0 7:0 8:1 9:1 10:0 11:0.1 12:0 13:0 14:0 15:0 16:1 17:1 18:0 19:0 20:0 #
-0.15483911659785515 1:1 2:0.81999999 3:0 4:0 5:0 6:0 7:0 8:1 9:1 10:0 11:0.1 12:0 13:0 14:0 15:0 16:0 17:1 18:0 19:0 20:0 #
0.016290769744798927 1:1 2:0.57999998 3:0 4:0 5:0 6:1 7:0 8:1 9:0 10:0 11:0.89999998 12:1 13:0 14:0 15:1 16:1 17:1 18:0 19:0 20:0 #
0.15483911659785515 1:1 2:1.4 3:0 4:0 5:0 6:1 7:0 8:1 9:0 10:0 11:0.69999999 12:0 13:0 14:0 15:1 16:0 17:1 18:0 19:0 20:0 #
0.075763771620943388 1:1 2:1.9400001 3:0 4:0 5:0 6:1 7:1 8:1 9:1 10:0 11:0.30000001 12:0 13:0 14:0 15:0 16:0 17:1 18:0 19:1 20:0 #
0.15483911659785515 1:1 2:1.42 3:0 4:0 5:0 6:0 7:0 8:1 9:1 10:0 11:0.1 12:1 13:0 14:0 15:0 16:0 17:1 18:0 19:1 20:0 #
0.13259642469608313 1:0 2:0.47999999 3:1 4:0.02 5:0 6:0 7:0 8:1 9:0 10:0 11:0.89999998 12:1 13:0 14:0 15:1 16:1 17:1 18:0 19:0 20:0 #
-0.049829679255473991 1:1 2:0.62 3:0 4:0 5:0 6:0 7:0 8:1 9:0 10:0 11:0.1 12:0 13:0 14:0 15:0 16:0 17:1 18:0 19:0 20:0 #
-0.15483911659785515 1:1 2:0.47999999 3:0 4:0 5:0 6:1 7:0 8:1 9:1 10:0 11:0.1 12:0 13:0 14:0 15:0 16:0 17:1 18:0 19:0 20:0 #
-0.028224986542426223 1:1 2:0.41999999 3:0 4:0 5:0 6:1 7:0 8:1 9:1 10:0 11:0.2 12:0 13:0 14:0 15:0 16:0 17:1 18:0 19:0 20:0 #
-0.0044429247265513894 1:1 2:0.23999999 3:0 4:0 5:0 6:0 7:0 8:1 9:1 10:0 11:0.40000001 12:0 13:1 14:0 15:0 16:1 17:1 18:0 19:1 20:0 #
