SVM-light Version V6.02
0 # kernel type
3 # kernel parameter -d 
1 # kernel parameter -g 
1 # kernel parameter -s 
1 # kernel parameter -r 
empty# kernel parameter -u 
33 # highest feature index 
3479 # number of training documents 
911 # number of support vectors plus 1 
2.8824297 # threshold b, each following line is a SV (starting with alpha*y)
-0.12983843654660221 1:1 2:1 3:0.079999998 4:0 5:0 6:0 7:1 8:1 9:0 10:0.0099999998 11:0 12:0 13:0 14:0 15:0 16:1 17:1 18:0 19:1 20:0 21:0 22:0 23:0 24:0 25:0 26:0 27:1 28:0 29:0 30:0 31:0 32:0 33:0 #
0.12983843654660221 1:1 2:1 3:0.34 4:0 5:0 6:0 7:1 8:0 9:0 10:0.0099999998 11:1 12:0 13:0 14:0 15:0 16:1 17:0 18:0 19:0 20:0 21:0 22:0 23:0 24:1 25:0 26:0 27:0 28:0 29:1 30:0 31:0 32:0 33:0 #
0.12983843654660221 1:1 2:1 3:0.28 4:0 5:0 6:0 7:1 8:1 9:0 10:0.0099999998 11:1 12:0 13:0 14:0 15:0 16:1 17:1 18:0 19:1 20:0 21:0 22:0 23:0 24:0 25:0 26:0 27:1 28:0 29:0 30:0 31:0 32:0 33:0 #
0.12983843654660221 1:0 2:1 3:0.02 4:0 5:0 6:0 7:1 8:1 9:0 10:0.16 11:0 12:0 13:0 14:0 15:0 16:1 17:1 18:0 19:1 20:0 21:0 22:0 23:0 24:0 25:0 26:0 27:1 28:0 29:0 30:0 31:0 32:0 33:0 #
-0.12983843654660221 1:0 2:1 3:0.02 4:0 5:0 6:0 7:1 8:0 9:0 10:0.0099999998 11:1 12:0 13:0 14:0 15:0 16:1 17:0 18:0 19:0 20:0 21:0 22:0 23:0 24:0 25:0 26:0 27:0 28:0 29:1 30:0 31:0 32:0 33:0 #
0.12983843654660221 1:1 2:0 3:6.1799998 4:0 5:0.2 6:0 7:1 8:0 9:0 10:0.029999999 11:0 12:0 13:0 14:0 15:0 16:1 17:0 18:1 19:0 20:0 21:0 22:0 23:0 24:0 25:0 26:0 27:0 28:0 29:0 30:1 31:0 32:0 33:0 #
-0.12983843654660221 1:0 2:1 3:0.079999998 4:0 5:0 6:0 7:1 8:1 9:0 10:0.0099999998 11:0 12:0 13:0 14:0 15:0 16:1 17:0 18:1 19:0 20:0 21:0 22:0 23:0 24:1 25:0 26:0 27:0 28:0 29:1 30:0 31:0 32:0 33:0 #
-0.12983843654660221 1:0 2:1 3:0.1 4:0 5:0 6:0 7:1 8:1 9:0 10:0.0099999998 11:0 12:1 13:0 14:0 15:0 16:1 17:0 18:1 19:0 20:0 21:0 22:0 23:0 24:1 25:0 26:0 27:0 28:0 29:1 30:0 31:0 32:0 33:0 #
-0.12983843654660221 1:0 2:1 3:0.14 4:0 5:0 6:0 7:1 8:1 9:0 10:0.0099999998 11:0 12:0 13:0 14:0 15:0 16:1 17:1 18:1 19:0 20:0 21:0 22:0 23:0 24:0 25:0 26:0 27:0 28:0 29:1 30:0 31:0 32:0 33:0 #
-0.12983843654660221 1:1 2:0 3:0.16 4:1 5:0.02 6:0 7:1 8:1 9:0 10:0.0099999998 11:0 12:0 13:0 14:0 15:0 16:0 17:1 18:0 19:1 20:0 21:0 22:0 23:0 24:0 25:0 26:0 27:1 28:0 29:0 30:0 31:0 32:0 33:0 #
-0.12983843654660221 1:1 2:0 3:0.51999998 4:1 5:0.02 6:0 7:1 8:1 9:0 10:0.15000001 11:0 12:0 13:0 14:1 15:0 16:1 17:0 18:0 19:0 20:0 21:0 22:0 23:0 24:0 25:1 26:1 27:0 28:1 29:0 30:0 31:0 32:0 33:1 #
0.12983843654660221 1:1 2:0 3:3.3599999 4:0 5:0.1 6:0 7:1 8:0 9:1 10:0.059999999 11:0 12:0 13:0 14:0 15:0 16:1 17:0 18:0 19:0 20:0 21:0 22:0 23:0 24:0 25:0 26:0 27:0 28:0 29:0 30:1 31:0 32:0 33:0 #
0.12983843654660221 1:1 2:0 3:2.9400001 4:0 5:0.079999998 6:0 7:1 8:0 9:0 10:0.07 11:0 12:0 13:0 14:0 15:0 16:1 17:1 18:0 19:0 20:0 21:0 22:0 23:0 24:0 25:0 26:0 27:0 28:0 29:0 30:1 31:0 32:0 33:0 #
0.12983843654660221 1:1 2:0 3:1.26 4:0 5:0.059999999 6:0 7:1 8:0 9:1 10:0.090000004 11:1 12:0 13:0 14:0 15:1 16:1 17:0 18:0 19:0 20:0 21:0 22:0 23:0 24:0 25:0 26:0 27:0 28:0 29:0 30:1 31:0 32:0 33:0 #
0.12983843654660221 1:1 2:0 3:1.34 4:0 5:0.059999999 6:0 7:1 8:1 9:0 10:0.029999999 11:1 12:0 13:0 14:0 15:0 16:1 17:0 18:0 19:1 20:0 21:0 22:0 23:0 24:0 25:0 26:0 27:1 28:0 29:0 30:0 31:0 32:0 33:0 #
-0.12983843654660221 1:0 2:1 3:0.02 4:0 5:0 6:0 7:1 8:0 9:0 10:0.0099999998 11:1 12:0 13:0 14:0 15:0 16:1 17:0 18:0 19:0 20:0 21:0 22:0 23:0 24:0 25:0 26:0 27:1 28:0 29:0 30:0 31:0 32:0 33:0 #
0.12983843654660221 1:0 2:1 3:0.079999998 4:0 5:0 6:0 7:1 8:1 9:0 10:0.02 11:1 12:0 13:0 14:0 15:0 16:1 17:1 18:1 19:0 20:0 21:0 22:0 23:0 24:1 25:0 26:0 27:0 28:0 29:1 30:0 31:0 32:0 33:0 #
-0.12983843654660221 1:1 2:0 3:0.16 4:1 5:0.02 6:0 7:1 8:1 9:0 10:0.85000002 11:1 12:0 13:0 14:0 15:1 16:1 17:0 18:0 19:1 20:0 21:0 22:0 23:0 24:0 25:0 26:0 27:1 28:0 29:0 30:0 31:0 32:0 33:0 #
-0.12983843654660221 1:1 2:0 3:0.14 4:1 5:0.02 6:0 7:1 8:0 9:0 10:0.11 11:1 12:0 13:0 14:0 15:1 16:1 17:0 18:0 19:1 20:0 21:0 22:0 23:0 24:0 25:0 26:0 27:0 28:0 29:0 30:1 31:0 32:0 33:0 #
-0.12983843654660221 1:1 2:0 3:0.16 4:1 5:0.02 6:0 7:1 8:1 9:0 10:0.0099999998 11:1 12:0 13:0 14:0 15:1 16:1 17:0 18:0 19:0 20:0 21:0 22:0 23:0 24:1 25:0 26:0 27:1 28:0 29:0 30:0 31:0 32:0 33:0 #
-0.12983843654660221 1:1 2:0 3:0.18000001 4:1 5:0.02 6:0 7:1 8:0 9:1 10:0.07 11:1 12:0 13:0 14:0 15:0 16:1 17:0 18:0 19:0 20:0 21:0 22:0 23:0 24:0 25:0 26:0 27:0 28:0 29:0 30:1 31:0 32:0 33:0 #
-0.12867270760912575 1:1 2:0 3:0.079999998 4:1 5:0.02 6:0 7:1 8:1 9:0 10:0.19 11:1 12:0 13:0 14:1 15:0 16:1 17:0 18:0 19:0 20:0 21:0 22:0 23:0 24:0 25:0 26:0 27:1 28:0 29:0 30:0 31:0 32:0 33:1 #
0.12983843654660221 1:0 2:1 3:0.56 4:0 5:0 6:0 7:1 8:1 9:0 10:0.16 11:0 12:0 13:0 14:0 15:0 16:1 17:0 18:1 19:0 20:0 21:0 22:0 23:0 24:0 25:0 26:0 27:0 28:0 29:1 30:0 31:0 32:0 33:0 #
0.12983843654660221 1:0 2:1 3:0.38 4:0 5:0 6:0 7:1 8:1 9:0 10:0.0099999998 11:0 12:0 13:0 14:0 15:0 16:1 17:0 18:1 19:0 20:0 21:0 22:0 23:0 24:0 25:0 26:0 27:0 28:0 29:1 30:0 31:0 32:0 33:0 #
0.12983843654660221 1:0 2:1 3:0.16 4:0 5:0 6:0 7:1 8:1 9:0 10:0.029999999 11:0 12:0 13:0 14:0 15:0 16:1 17:0 18:1 19:0 20:0 21:0 22:0 23:0 24:0 25:0 26:0 27:0 28:0 29:1 30:0 31:0 32:0 33:0 #
-0.12983843654660221 1:0 2:1 3:0.22 4:0 5:0 6:0 7:1 8:1 9:0 10:0.0099999998 11:0 12:0 13:0 14:0 15:0 16:0 17:1 18:1 19:0 20:0 21:0 22:0 23:0 24:0 25:0 26:0 27:0 28:0 29:1 30:0 31:0 32:0 33:0 #
-0.12983843654660221 1:0 2:1 3:0.22 4:0 5:0 6:0 7:1 8:1 9:0 10:0.0099999998 11:0 12:0 13:0 14:0 15:0 16:1 17:1 18:1 19:0 20:0 21:0 22:0 23:0 24:0 25:0 26:0 27:0 28:0 29:1 30:0 31:0 32:0 33:0 #
0.12983843654660221 1:0 2:1 3:0.02 4:0 5:0 6:0 7:1 8:1 9:0 10:0.85000002 11:0 12:0 13:0 14:0 15:0 16:1 17:1 18:0 19:1 20:0 21:0 22:0 23:0 24:0 25:0 26:0 27:1 28:0 29:0 30:0 31:0 32:0 33:0 #
-0.12983843654660221 1:0 2:1 3:0.079999998 4:0 5:0 6:0 7:1 8:1 9:0 10:0.0099999998 11:0 12:0 13:0 14:0 15:0 16:1 17:1 18:0 19:1 20:0 21:0 22:0 23:0 24:0 25:0 26:0 27:1 28:0 29:0 30:0 31:0 32:0 33:0 #
-0.12983843654660221 1:0 2:1 3:0.02 4:0 5:0 6:0 7:1 8:1 9:0 10:1.8200001 11:0 12:1 13:0 14:0 15:1 16:1 17:0 18:0 19:1 20:0 21:0 22:0 23:0 24:0 25:0 26:0 27:0 28:0 29:1 30:0 31:0 32:0 33:0 #
-0.12983843654660221 1:0 2:1 3:0.1 4:0 5:0 6:0 7:1 8:1 9:0 10:0.0099999998 11:0 12:0 13:0 14:0 15:0 16:1 17:1 18:0 19:1 20:0 21:0 22:0 23:0 24:0 25:0 26:0 27:1 28:0 29:0 30:0 31:0 32:0 33:0 #
0.12983843654660221 1:1 2:0 3:0.47999999 4:1 5:0.02 6:0 7:1 8:0 9:1 10:0.0099999998 11:0 12:1 13:0 14:1 15:1 16:1 17:0 18:0 19:0 20:0 21:0 22:0 23:1 24:0 25:1 26:1 27:0 28:0 29:0 30:1 31:0 32:0 33:1 #
0.12983843654660221 1:1 2:0 3:0.28 4:1 5:0.02 6:0 7:1 8:0 9:0 10:0.02 11:1 12:0 13:0 14:0 15:1 16:1 17:0 18:1 19:0 20:0 21:0 22:0 23:0 24:1 25:0 26:0 27:0 28:0 29:0 30:1 31:0 32:0 33:0 #
0.12983843654660221 1:1 2:0 3:0.46000001 4:1 5:0.02 6:0 7:1 8:0 9:0 10:0.02 11:1 12:0 13:0 14:0 15:0 16:0 17:0 18:0 19:0 20:0 21:0 22:0 23:0 24:1 25:0 26:0 27:0 28:0 29:0 30:1 31:0 32:0 33:0 #
0.12983843654660221 1:1 2:0 3:0.44 4:1 5:0.02 6:0 7:1 8:0 9:0 10:0.0099999998 11:0 12:0 13:0 14:0 15:0 16:1 17:1 18:1 19:0 20:0 21:0 22:0 23:0 24:1 25:0 26:0 27:0 28:0 29:0 30:1 31:0 32:0 33:0 #
-0.12983843654660221 1:1 2:0 3:0.2 4:1 5:0.02 6:0 7:1 8:0 9:1 10:0.0099999998 11:1 12:0 13:0 14:0 15:0 16:0 17:0 18:0 19:0 20:0 21:0 22:0 23:0 24:1 25:0 26:0 27:0 28:0 29:0 30:1 31:0 32:0 33:0 #
-0.12983843654660221 1:1 2:0 3:0.18000001 4:1 5:0.02 6:0 7:1 8:0 9:1 10:0.0099999998 11:0 12:0 13:0 14:0 15:0 16:0 17:1 18:1 19:0 20:0 21:0 22:0 23:0 24:0 25:0 26:0 27:0 28:0 29:0 30:1 31:0 32:0 33:0 #
0.12983843654660221 1:0 2:1 3:0.16 4:0 5:0 6:0 7:1 8:0 9:1 10:0.0099999998 11:1 12:0 13:0 14:0 15:1 16:1 17:0 18:0 19:0 20:0 21:0 22:0 23:0 24:0 25:0 26:0 27:0 28:0 29:0 30:1 31:0 32:0 33:0 #
0.12983843654660221 1:1 2:0 3:1.24 4:1 5:0.02 6:0 7:1 8:1 9:0 10:0.0099999998 11:1 12:0 13:0 14:0 15:0 16:1 17:0 18:0 19:1 20:0 21:0 22:0 23:0 24:0 25:0 26:0 27:0 28:1 29:0 30:0 31:0 32:0 33:0 #
-0.12983843654660221 1:1 2:0 3:3.1400001 4:0 5:0.079999998 6:0 7:1 8:0 9:0 10:0.49000001 11:1 12:0 13:0 14:0 15:1 16:1 17:0 18:0 19:0 20:0 21:0 22:0 23:0 24:0 25:0 26:0 27:0 28:0 29:0 30:1 31:0 32:0 33:0 #
0.12983843654660221 1:1 2:0 3:1.04 4:1 5:0.02 6:0 7:1 8:1 9:0 10:1.05 11:1 12:0 13:0 14:0 15:1 16:1 17:0 18:0 19:0 20:0 21:0 22:0 23:0 24:0 25:0 26:0 27:1 28:0 29:0 30:0 31:0 32:0 33:0 #
-0.12983843654660221 1:1 2:0 3:0.63999999 4:1 5:0.02 6:0 7:1 8:0 9:0 10:5.0900002 11:0 12:0 13:0 14:0 15:0 16:1 17:0 18:0 19:0 20:0 21:0 22:0 23:0 24:1 25:0 26:0 27:1 28:0 29:0 30:0 31:0 32:0 33:0 #
-0.12983843654660221 1:1 2:0 3:0.80000001 4:0 5:0.039999999 6:0 7:1 8:1 9:0 10:0.029999999 11:1 12:0 13:0 14:0 15:1 16:1 17:0 18:0 19:1 20:0 21:0 22:0 23:0 24:0 25:0 26:0 27:1 28:0 29:0 30:0 31:0 32:0 33:0 #
-0.12983843654660221 1:1 2:0 3:1 4:1 5:0.02 6:0 7:1 8:1 9:0 10:0.0099999998 11:1 12:0 13:0 14:0 15:0 16:1 17:0 18:0 19:1 20:0 21:0 22:0 23:0 24:0 25:0 26:0 27:1 28:0 29:0 30:0 31:0 32:0 33:0 #
-0.12983843654660221 1:1 2:0 3:0.74000001 4:0 5:0.039999999 6:0 7:1 8:0 9:1 10:0.02 11:1 12:0 13:0 14:0 15:0 16:1 17:0 18:1 19:0 20:0 21:0 22:0 23:0 24:1 25:0 26:0 27:0 28:0 29:0 30:1 31:0 32:0 33:0 #
0.12983843654660221 1:0 2:1 3:0.059999999 4:0 5:0 6:0 7:1 8:0 9:1 10:0.0099999998 11:0 12:1 13:0 14:0 15:1 16:1 17:0 18:0 19:0 20:0 21:0 22:0 23:0 24:1 25:0 26:0 27:0 28:0 29:0 30:1 31:0 32:0 33:0 #
0.12983843654660221 1:1 2:0 3:0.28 4:1 5:0.02 6:0 7:1 8:0 9:1 10:0.0099999998 11:0 12:0 13:0 14:0 15:0 16:0 17:1 18:0 19:0 20:0 21:0 22:0 23:0 24:1 25:0 26:0 27:0 28:0 29:0 30:1 31:0 32:0 33:0 #
0.12983843654660221 1:1 2:0 3:0.25999999 4:1 5:0.02 6:0 7:1 8:0 9:1 10:0.029999999 11:0 12:1 13:0 14:0 15:1 16:1 17:0 18:0 19:0 20:0 21:0 22:0 23:0 24:1 25:0 26:0 27:0 28:0 29:0 30:1 31:0 32:0 33:0 #
0.12983843654660221 1:0 2:1 3:0.059999999 4:0 5:0 6:0 7:1 8:0 9:1 10:0.02 11:0 12:1 13:0 14:1 15:1 16:1 17:0 18:0 19:0 20:0 21:0 22:0 23:0 24:0 25:0 26:0 27:0 28:0 29:0 30:1 31:0 32:0 33:1 #
-0.12983843654660221 1:0 2:1 3:0.2 4:0 5:0 6:0 7:1 8:0 9:1 10:0.0099999998 11:0 12:1 13:0 14:0 15:1 16:1 17:0 18:0 19:0 20:0 21:0 22:0 23:0 24:1 25:0 26:0 27:0 28:0 29:0 30:1 31:0 32:0 33:0 #
0.12983843654660221 1:1 2:0 3:0.72000003 4:1 5:0.02 6:0 7:1 8:1 9:0 10:0.0099999998 11:1 12:0 13:0 14:0 15:0 16:1 17:0 18:0 19:1 20:0 21:0 22:0 23:0 24:0 25:0 26:0 27:1 28:0 29:0 30:0 31:0 32:0 33:0 #
-0.12983843654660221 1:1 2:0 3:0.38 4:1 5:0.02 6:0 7:1 8:0 9:0 10:0.07 11:0 12:0 13:0 14:1 15:0 16:1 17:0 18:0 19:0 20:0 21:0 22:0 23:0 24:0 25:1 26:1 27:0 28:0 29:0 30:1 31:0 32:0 33:1 #
0.12983843654660221 1:0 2:1 3:0.18000001 4:0 5:0 6:1 7:1 8:1 9:0 10:0.0099999998 11:1 12:0 13:0 14:0 15:0 16:1 17:1 18:0 19:0 20:0 21:0 22:0 23:0 24:1 25:0 26:0 27:1 28:0 29:0 30:0 31:0 32:0 33:0 #
0.12983843654660221 1:1 2:1 3:0.12 4:0 5:0 6:0 7:1 8:1 9:0 10:0.0099999998 11:1 12:0 13:0 14:0 15:0 16:1 17:0 18:0 19:1 20:0 21:0 22:0 23:0 24:0 25:0 26:0 27:1 28:0 29:0 30:0 31:0 32:0 33:0 #
-0.12983843654660221 1:0 2:1 3:0.28 4:0 5:0 6:1 7:1 8:1 9:0 10:0.1 11:0 12:0 13:0 14:0 15:0 16:1 17:1 18:0 19:0 20:0 21:0 22:0 23:0 24:1 25:0 26:0 27:0 28:0 29:1 30:0 31:0 32:0 33:0 #
0.12983843654660221 1:0 2:1 3:0.079999998 4:0 5:0 6:0 7:1 8:1 9:0 10:0.02 11:1 12:0 13:0 14:0 15:0 16:1 17:1 18:0 19:1 20:0 21:0 22:0 23:0 24:0 25:0 26:0 27:0 28:1 29:0 30:0 31:0 32:0 33:0 #
-0.028394482421575686 1:0 2:1 3:0.38 4:0 5:0 6:1 7:1 8:0 9:0 10:0.0099999998 11:1 12:1 13:1 14:0 15:0 16:1 17:1 18:0 19:0 20:0 21:0 22:0 23:0 24:0 25:0 26:0 27:0 28:0 29:0 30:1 31:0 32:0 33:0 #
0.12983843654660221 1:1 2:0 3:0.18000001 4:1 5:0.02 6:0 7:1 8:0 9:0 10:0.0099999998 11:0 12:0 13:0 14:0 15:0 16:0 17:0 18:0 19:0 20:0 21:0 22:0 23:1 24:0 25:0 26:0 27:0 28:0 29:0 30:1 31:0 32:0 33:0 #
0.12983843654660221 1:1 2:0 3:0.54000002 4:1 5:0.02 6:0 7:1 8:0 9:0 10:0.02 11:1 12:0 13:0 14:0 15:0 16:0 17:0 18:0 19:1 20:0 21:0 22:0 23:0 24:0 25:0 26:0 27:0 28:0 29:0 30:1 31:0 32:0 33:0 #
-0.12983843654660221 1:1 2:0 3:0.51999998 4:1 5:0.02 6:0 7:1 8:0 9:0 10:0.0099999998 11:1 12:0 13:0 14:0 15:0 16:0 17:0 18:0 19:1 20:0 21:0 22:0 23:0 24:0 25:0 26:0 27:0 28:0 29:0 30:1 31:0 32:0 33:0 #
-0.12983843654660221 1:1 2:0 3:0.44 4:1 5:0.02 6:0 7:1 8:0 9:0 10:0.0099999998 11:1 12:1 13:1 14:0 15:0 16:0 17:1 18:1 19:1 20:0 21:0 22:0 23:1 24:0 25:0 26:0 27:0 28:0 29:0 30:1 31:0 32:0 33:0 #
-0.12983843654660221 1:1 2:0 3:0.74000001 4:0 5:0.039999999 6:0 7:1 8:0 9:1 10:0.0099999998 11:1 12:0 13:0 14:0 15:0 16:0 17:0 18:0 19:0 20:0 21:0 22:0 23:0 24:0 25:0 26:0 27:0 28:0 29:0 30:1 31:0 32:0 33:0 #
-0.12983843654660221 1:0 2:1 3:0.25999999 4:0 5:0 6:0 7:1 8:1 9:0 10:0.28 11:0 12:1 13:0 14:0 15:1 16:1 17:0 18:0 19:0 20:0 21:0 22:0 23:0 24:0 25:0 26:0 27:1 28:0 29:0 30:0 31:0 32:0 33:0 #
0.12983843654660221 1:0 2:1 3:0.57999998 4:0 5:0 6:0 7:1 8:1 9:0 10:0.0099999998 11:0 12:0 13:0 14:0 15:0 16:1 17:1 18:0 19:0 20:0 21:0 22:0 23:0 24:1 25:0 26:0 27:1 28:0 29:0 30:0 31:0 32:0 33:0 #
0.12983843654660221 1:0 2:1 3:0.30000001 4:0 5:0 6:0 7:1 8:1 9:0 10:0.0099999998 11:0 12:0 13:0 14:0 15:0 16:1 17:1 18:1 19:0 20:0 21:0 22:0 23:0 24:1 25:0 26:0 27:1 28:0 29:0 30:0 31:0 32:0 33:0 #
0.12983843654660221 1:0 2:1 3:0.16 4:0 5:0 6:0 7:1 8:1 9:0 10:0.0099999998 11:0 12:0 13:0 14:0 15:0 16:1 17:1 18:0 19:0 20:0 21:0 22:0 23:0 24:1 25:0 26:0 27:0 28:0 29:1 30:0 31:0 32:0 33:0 #
0.12983843654660221 1:0 2:1 3:0.30000001 4:0 5:0 6:0 7:1 8:1 9:0 10:0.090000004 11:0 12:0 13:0 14:0 15:0 16:1 17:1 18:0 19:0 20:0 21:0 22:0 23:0 24:0 25:0 26:0 27:1 28:0 29:0 30:0 31:0 32:0 33:0 #
-0.12983843654660221 1:1 2:1 3:0.16 4:0 5:0 6:0 7:1 8:1 9:0 10:0.0099999998 11:0 12:0 13:0 14:0 15:0 16:1 17:1 18:0 19:0 20:0 21:0 22:0 23:0 24:0 25:0 26:0 27:0 28:0 29:1 30:0 31:0 32:0 33:0 #
-0.12983843654660221 1:0 2:1 3:0.14 4:0 5:0 6:0 7:1 8:1 9:0 10:0.0099999998 11:0 12:0 13:0 14:0 15:0 16:1 17:1 18:0 19:1 20:0 21:0 22:0 23:0 24:1 25:0 26:0 27:1 28:0 29:0 30:0 31:0 32:0 33:0 #
-0.12983843654660221 1:0 2:1 3:0.1 4:0 5:0 6:0 7:1 8:1 9:0 10:0.18000001 11:0 12:0 13:0 14:0 15:1 16:1 17:0 18:0 19:0 20:0 21:0 22:0 23:0 24:1 25:0 26:0 27:0 28:0 29:1 30:0 31:0 32:0 33:0 #
0.12983843654660221 1:1 2:0 3:1.02 4:0 5:0.059999999 6:0 7:1 8:0 9:1 10:0.0099999998 11:0 12:1 13:0 14:0 15:0 16:1 17:0 18:0 19:0 20:0 21:0 22:0 23:0 24:1 25:0 26:0 27:0 28:0 29:0 30:1 31:0 32:0 33:0 #
-0.12983843654660221 1:1 2:0 3:0.25999999 4:1 5:0.02 6:0 7:1 8:1 9:0 10:0.12 11:1 12:0 13:0 14:0 15:1 16:1 17:0 18:0 19:0 20:0 21:0 22:0 23:0 24:0 25:0 26:0 27:1 28:0 29:0 30:0 31:0 32:0 33:0 #
-0.12983843654660221 1:1 2:1 3:0.22 4:0 5:0 6:0 7:1 8:0 9:1 10:0.0099999998 11:0 12:0 13:0 14:0 15:1 16:1 17:0 18:0 19:0 20:0 21:0 22:0 23:0 24:0 25:0 26:0 27:0 28:0 29:0 30:1 31:0 32:0 33:0 #
-0.12983843654660221 1:1 2:0 3:0.1 4:1 5:0.02 6:0 7:1 8:1 9:0 10:0.12 11:0 12:0 13:0 14:1 15:0 16:1 17:0 18:0 19:0 20:0 21:0 22:0 23:0 24:0 25:1 26:1 27:1 28:0 29:0 30:0 31:0 32:0 33:0 #
0.12983843654660221 1:1 2:0 3:0.89999998 4:0 5:0.039999999 6:0 7:1 8:1 9:0 10:0.0099999998 11:0 12:0 13:0 14:0 15:0 16:1 17:1 18:1 19:0 20:0 21:0 22:0 23:0 24:1 25:0 26:0 27:0 28:0 29:1 30:0 31:0 32:0 33:0 #
-0.12983843654660221 1:0 2:1 3:0.079999998 4:0 5:0 6:0 7:1 8:1 9:0 10:0.23 11:0 12:0 13:0 14:0 15:0 16:1 17:1 18:1 19:0 20:0 21:0 22:0 23:0 24:1 25:0 26:0 27:0 28:1 29:0 30:0 31:0 32:0 33:0 #
0.12983843654660221 1:1 2:0 3:0.81999999 4:1 5:0.02 6:0 7:1 8:1 9:0 10:0.0099999998 11:0 12:0 13:0 14:1 15:1 16:1 17:0 18:0 19:0 20:0 21:0 22:0 23:0 24:0 25:1 26:1 27:1 28:0 29:0 30:0 31:0 32:0 33:0 #
-0.12983843654660221 1:1 2:0 3:0.51999998 4:1 5:0.02 6:0 7:1 8:1 9:0 10:0.16 11:0 12:0 13:0 14:1 15:0 16:1 17:0 18:0 19:0 20:0 21:0 22:0 23:0 24:0 25:1 26:1 27:1 28:0 29:0 30:0 31:0 32:0 33:0 #
-0.12983843654660221 1:1 2:0 3:0.2 4:1 5:0.02 6:0 7:1 8:1 9:0 10:0.090000004 11:1 12:0 13:0 14:1 15:0 16:1 17:0 18:0 19:0 20:0 21:0 22:0 23:0 24:0 25:0 26:1 27:1 28:0 29:0 30:0 31:0 32:0 33:0 #
-0.12983843654660221 1:1 2:0 3:0.25999999 4:1 5:0.02 6:0 7:1 8:1 9:0 10:0.090000004 11:1 12:0 13:0 14:1 15:0 16:1 17:0 18:0 19:0 20:0 21:0 22:0 23:0 24:0 25:0 26:1 27:1 28:0 29:0 30:0 31:0 32:0 33:0 #
0.12983843654660221 1:0 2:1 3:0.28 4:0 5:0 6:0 7:1 8:1 9:0 10:0.02 11:1 12:0 13:0 14:0 15:0 16:1 17:1 18:1 19:0 20:0 21:0 22:0 23:0 24:0 25:0 26:0 27:0 28:1 29:0 30:0 31:0 32:0 33:0 #
0.12983843654660221 1:0 2:1 3:0.47999999 4:0 5:0 6:0 7:1 8:1 9:0 10:0.029999999 11:0 12:0 13:0 14:0 15:0 16:1 17:1 18:0 19:1 20:0 21:0 22:0 23:0 24:0 25:0 26:0 27:0 28:1 29:0 30:0 31:0 32:0 33:0 #
0.12983843654660221 1:0 2:1 3:0.31999999 4:0 5:0 6:1 7:1 8:1 9:0 10:0.0099999998 11:0 12:0 13:0 14:0 15:0 16:1 17:0 18:0 19:0 20:0 21:0 22:0 23:0 24:0 25:0 26:0 27:1 28:0 29:0 30:0 31:0 32:0 33:0 #
0.12983843654660221 1:0 2:1 3:0.14 4:0 5:0 6:0 7:1 8:0 9:0 10:0.0099999998 11:0 12:0 13:0 14:0 15:0 16:0 17:1 18:0 19:0 20:0 21:0 22:0 23:0 24:0 25:0 26:0 27:0 28:0 29:0 30:1 31:0 32:0 33:0 #
-0.12983843654660221 1:0 2:1 3:0.14 4:0 5:0 6:0 7:1 8:1 9:0 10:0.18000001 11:0 12:1 13:0 14:0 15:0 16:0 17:1 18:1 19:1 20:0 21:0 22:0 23:0 24:0 25:0 26:0 27:0 28:1 29:0 30:0 31:0 32:0 33:0 #
-0.12983843654660221 1:1 2:0 3:0.039999999 4:1 5:0.02 6:0 7:1 8:0 9:0 10:0.16 11:0 12:1 13:0 14:0 15:0 16:1 17:0 18:0 19:1 20:0 21:0 22:0 23:0 24:0 25:0 26:0 27:0 28:0 29:0 30:1 31:0 32:0 33:0 #
-0.12983843654660221 1:0 2:1 3:0.079999998 4:0 5:0 6:0 7:1 8:0 9:1 10:0.0099999998 11:0 12:0 13:0 14:0 15:1 16:1 17:0 18:0 19:0 20:0 21:0 22:0 23:0 24:0 25:0 26:0 27:0 28:0 29:0 30:1 31:0 32:0 33:0 #
-0.12983843654660221 1:0 2:1 3:0.02 4:0 5:0 6:0 7:1 8:0 9:1 10:0.0099999998 11:0 12:0 13:0 14:0 15:1 16:1 17:0 18:0 19:0 20:0 21:0 22:0 23:0 24:0 25:0 26:0 27:0 28:0 29:0 30:1 31:0 32:0 33:0 #
-0.12983843654660221 1:0 2:1 3:0.31999999 4:0 5:0 6:0 7:1 8:0 9:1 10:0.0099999998 11:0 12:0 13:0 14:0 15:0 16:1 17:1 18:0 19:0 20:0 21:0 22:0 23:0 24:0 25:0 26:0 27:0 28:0 29:0 30:1 31:0 32:0 33:0 #
-0.12983843654660221 1:0 2:1 3:0.34 4:0 5:0 6:0 7:1 8:1 9:0 10:0.07 11:1 12:0 13:0 14:1 15:0 16:1 17:0 18:0 19:0 20:0 21:0 22:0 23:0 24:0 25:0 26:0 27:1 28:0 29:0 30:0 31:0 32:0 33:1 #
0.12983843654660221 1:0 2:1 3:0.23999999 4:0 5:0 6:0 7:1 8:1 9:0 10:0.029999999 11:1 12:0 13:0 14:0 15:0 16:1 17:0 18:0 19:1 20:0 21:0 22:0 23:0 24:1 25:0 26:0 27:1 28:0 29:0 30:0 31:0 32:0 33:0 #
0.12983843654660221 1:1 2:1 3:0.14 4:0 5:0 6:0 7:1 8:1 9:0 10:0.0099999998 11:1 12:0 13:0 14:0 15:0 16:1 17:0 18:0 19:1 20:0 21:0 22:0 23:0 24:0 25:0 26:0 27:1 28:0 29:0 30:0 31:0 32:0 33:0 #
-0.12983843654660221 1:1 2:0 3:0.51999998 4:1 5:0.02 6:0 7:1 8:1 9:0 10:0.16 11:0 12:0 13:0 14:1 15:0 16:1 17:0 18:0 19:0 20:0 21:0 22:0 23:0 24:0 25:1 26:1 27:1 28:0 29:0 30:0 31:0 32:0 33:0 #
-0.12983843654660221 1:1 2:0 3:0.059999999 4:1 5:0.02 6:0 7:1 8:1 9:0 10:0.0099999998 11:0 12:0 13:0 14:0 15:0 16:1 17:1 18:0 19:1 20:0 21:0 22:0 23:0 24:0 25:0 26:0 27:1 28:0 29:0 30:0 31:0 32:0 33:0 #
0.12983843654660221 1:1 2:0 3:1 4:1 5:0.02 6:0 7:1 8:1 9:0 10:0.54000002 11:1 12:0 13:0 14:0 15:0 16:1 17:0 18:0 19:0 20:0 21:0 22:0 23:0 24:0 25:0 26:1 27:1 28:0 29:0 30:0 31:0 32:0 33:0 #
0.12983843654660221 1:0 2:1 3:0.039999999 4:0 5:0 6:0 7:1 8:0 9:1 10:0.11 11:0 12:1 13:0 14:0 15:1 16:1 17:0 18:0 19:0 20:0 21:0 22:0 23:0 24:0 25:0 26:0 27:0 28:0 29:0 30:1 31:0 32:0 33:0 #
0.12983843654660221 1:0 2:1 3:0.039999999 4:0 5:0 6:0 7:1 8:0 9:1 10:0.02 11:0 12:0 13:0 14:0 15:1 16:1 17:0 18:0 19:0 20:0 21:0 22:0 23:0 24:1 25:0 26:0 27:0 28:0 29:0 30:1 31:0 32:0 33:0 #
0.12983843654660221 1:0 2:1 3:0.079999998 4:0 5:0 6:0 7:1 8:0 9:1 10:0.029999999 11:0 12:0 13:0 14:0 15:1 16:1 17:0 18:0 19:0 20:0 21:0 22:0 23:0 24:1 25:0 26:0 27:0 28:0 29:0 30:1 31:0 32:0 33:0 #
-0.12983843654660221 1:0 2:1 3:0.039999999 4:0 5:0 6:0 7:1 8:0 9:1 10:0.0099999998 11:1 12:0 13:0 14:0 15:1 16:1 17:0 18:0 19:0 20:0 21:0 22:0 23:0 24:1 25:0 26:0 27:0 28:0 29:0 30:1 31:0 32:0 33:0 #
0.12983843654660221 1:1 2:0 3:0.34 4:1 5:0.02 6:0 7:1 8:1 9:0 10:0.029999999 11:0 12:1 13:0 14:1 15:0 16:1 17:0 18:0 19:0 20:0 21:0 22:0 23:0 24:0 25:0 26:0 27:1 28:0 29:0 30:0 31:0 32:0 33:0 #
-0.12983843654660221 1:0 2:1 3:0.02 4:0 5:0 6:0 7:1 8:1 9:0 10:1.8200001 11:0 12:1 13:0 14:0 15:1 16:1 17:0 18:0 19:1 20:0 21:0 22:0 23:0 24:0 25:0 26:0 27:0 28:0 29:1 30:0 31:0 32:0 33:0 #
0.12983843654660221 1:1 2:0 3:0.81999999 4:1 5:0.02 6:0 7:1 8:1 9:0 10:0.090000004 11:1 12:0 13:0 14:1 15:0 16:1 17:0 18:0 19:0 20:0 21:0 22:0 23:0 24:0 25:0 26:0 27:0 28:1 29:0 30:0 31:0 32:0 33:0 #
-0.12983843654660221 1:1 2:1 3:0.059999999 4:0 5:0 6:0 7:1 8:0 9:0 10:0.17 11:1 12:0 13:0 14:0 15:0 16:1 17:0 18:0 19:0 20:0 21:0 22:0 23:0 24:0 25:0 26:0 27:0 28:1 29:0 30:0 31:0 32:0 33:0 #
0.12983843654660221 1:0 2:1 3:0.02 4:0 5:0 6:0 7:1 8:1 9:0 10:1.8200001 11:0 12:1 13:0 14:0 15:1 16:1 17:0 18:0 19:1 20:0 21:0 22:0 23:0 24:0 25:0 26:0 27:1 28:0 29:0 30:0 31:0 32:0 33:0 #
-0.12983843654660221 1:1 2:1 3:0.31999999 4:0 5:0 6:0 7:1 8:1 9:0 10:0.02 11:0 12:0 13:0 14:0 15:0 16:1 17:1 18:0 19:1 20:0 21:0 22:0 23:0 24:0 25:0 26:0 27:1 28:0 29:0 30:0 31:0 32:0 33:0 #
-0.031255185218637377 1:1 2:0 3:0.079999998 4:1 5:0.02 6:0 7:1 8:1 9:0 10:0.19 11:1 12:0 13:0 14:1 15:0 16:1 17:0 18:0 19:0 20:0 21:0 22:0 23:0 24:0 25:0 26:0 27:1 28:0 29:0 30:0 31:0 32:0 33:1 #
-0.12983843654660221 1:1 2:1 3:0.059999999 4:0 5:0 6:0 7:1 8:0 9:0 10:0.059999999 11:0 12:1 13:0 14:0 15:1 16:1 17:0 18:0 19:1 20:0 21:0 22:0 23:0 24:0 25:0 26:0 27:0 28:0 29:0 30:1 31:0 32:0 33:0 #
-0.12983843654660221 1:1 2:0 3:0.34 4:1 5:0.02 6:0 7:1 8:0 9:1 10:0.0099999998 11:1 12:1 13:1 14:0 15:0 16:1 17:1 18:0 19:0 20:0 21:0 22:0 23:0 24:1 25:0 26:0 27:0 28:0 29:0 30:1 31:0 32:0 33:0 #
0.12983843654660221 1:1 2:0 3:1.16 4:0 5:0.059999999 6:0 7:1 8:1 9:0 10:0.050000001 11:0 12:0 13:0 14:0 15:0 16:1 17:1 18:0 19:0 20:0 21:0 22:0 23:0 24:0 25:0 26:0 27:1 28:0 29:0 30:0 31:0 32:0 33:0 #
0.12983843654660221 1:1 2:0 3:1.16 4:0 5:0.039999999 6:0 7:1 8:0 9:0 10:0.0099999998 11:0 12:0 13:0 14:0 15:0 16:0 17:0 18:0 19:1 20:0 21:0 22:0 23:0 24:0 25:0 26:0 27:0 28:0 29:0 30:1 31:0 32:0 33:0 #
0.12983843654660221 1:1 2:1 3:0.68000001 4:0 5:0 6:0 7:1 8:1 9:0 10:0.050000001 11:1 12:0 13:0 14:0 15:0 16:1 17:1 18:0 19:0 20:0 21:0 22:0 23:0 24:1 25:0 26:0 27:0 28:0 29:1 30:0 31:0 32:0 33:0 #
0.12983843654660221 1:0 2:1 3:0.69999999 4:0 5:0 6:0 7:1 8:1 9:0 10:0.039999999 11:1 12:0 13:0 14:0 15:1 16:1 17:0 18:0 19:0 20:0 21:0 22:0 23:0 24:1 25:0 26:0 27:0 28:0 29:1 30:0 31:0 32:0 33:0 #
-0.12983843654660221 1:0 2:1 3:0.2 4:0 5:0 6:0 7:1 8:0 9:0 10:0.02 11:1 12:0 13:0 14:0 15:1 16:1 17:0 18:0 19:0 20:0 21:0 22:0 23:0 24:0 25:0 26:0 27:1 28:0 29:0 30:0 31:0 32:0 33:0 #
-0.12983843654660221 1:1 2:1 3:0.2 4:0 5:0 6:0 7:1 8:1 9:0 10:0.0099999998 11:1 12:0 13:0 14:0 15:0 16:0 17:1 18:0 19:0 20:0 21:0 22:0 23:1 24:0 25:0 26:0 27:1 28:0 29:0 30:0 31:0 32:0 33:0 #
0.12983843654660221 1:1 2:1 3:0.25999999 4:0 5:0 6:0 7:1 8:0 9:1 10:0.0099999998 11:0 12:1 13:0 14:1 15:1 16:1 17:0 18:0 19:0 20:0 21:0 22:0 23:0 24:0 25:0 26:0 27:0 28:0 29:0 30:1 31:0 32:0 33:1 #
0.12983843654660221 1:0 2:1 3:0.059999999 4:0 5:0 6:0 7:1 8:1 9:0 10:0.059999999 11:0 12:0 13:0 14:0 15:0 16:1 17:1 18:0 19:1 20:0 21:0 22:0 23:0 24:0 25:0 26:0 27:1 28:0 29:0 30:0 31:0 32:0 33:0 #
0.12983843654660221 1:1 2:0 3:0.34 4:1 5:0.02 6:0 7:1 8:1 9:0 10:1.8200001 11:0 12:1 13:0 14:0 15:1 16:1 17:0 18:0 19:1 20:0 21:0 22:0 23:0 24:0 25:0 26:0 27:1 28:0 29:0 30:0 31:0 32:0 33:0 #
-0.06749784925301705 1:0 2:1 3:0.16 4:0 5:0 6:0 7:1 8:1 9:0 10:0.059999999 11:0 12:0 13:0 14:1 15:0 16:1 17:0 18:0 19:0 20:0 21:0 22:0 23:0 24:0 25:1 26:0 27:1 28:0 29:0 30:0 31:0 32:0 33:1 #
0.12983843654660221 1:1 2:0 3:0.14 4:1 5:0.02 6:0 7:1 8:0 9:0 10:0.0099999998 11:0 12:1 13:0 14:0 15:0 16:1 17:0 18:0 19:0 20:0 21:0 22:0 23:0 24:0 25:0 26:0 27:1 28:0 29:0 30:0 31:0 32:0 33:0 #
-0.12983843654660221 1:1 2:0 3:0.25999999 4:1 5:0.02 6:0 7:1 8:1 9:0 10:0.0099999998 11:1 12:0 13:0 14:0 15:0 16:1 17:0 18:0 19:1 20:0 21:0 22:0 23:0 24:0 25:0 26:0 27:0 28:0 29:1 30:0 31:0 32:0 33:0 #
-0.12983843654660221 1:1 2:0 3:0.69999999 4:0 5:0.039999999 6:0 7:1 8:1 9:0 10:0.050000001 11:1 12:0 13:0 14:1 15:0 16:1 17:0 18:0 19:0 20:0 21:0 22:0 23:0 24:0 25:0 26:0 27:0 28:0 29:1 30:0 31:0 32:0 33:0 #
-0.12983843654660221 1:1 2:0 3:0.18000001 4:1 5:0.02 6:0 7:1 8:1 9:0 10:0.0099999998 11:0 12:0 13:0 14:0 15:0 16:1 17:0 18:0 19:1 20:0 21:0 22:0 23:0 24:0 25:0 26:0 27:0 28:0 29:1 30:0 31:0 32:0 33:0 #
-0.12983843654660221 1:1 2:0 3:0.14 4:1 5:0.02 6:0 7:1 8:1 9:0 10:0.0099999998 11:0 12:0 13:0 14:0 15:0 16:1 17:0 18:0 19:1 20:0 21:0 22:0 23:0 24:0 25:0 26:0 27:1 28:0 29:0 30:0 31:0 32:0 33:0 #
0.12983843654660221 1:0 2:1 3:0.34 4:0 5:0 6:0 7:1 8:1 9:0 10:0.0099999998 11:1 12:0 13:0 14:0 15:1 16:1 17:0 18:0 19:0 20:0 21:0 22:0 23:0 24:1 25:0 26:0 27:0 28:1 29:0 30:0 31:0 32:0 33:0 #
0.12983843654660221 1:0 2:1 3:0.039999999 4:0 5:0 6:0 7:1 8:1 9:0 10:0.1 11:0 12:0 13:0 14:1 15:0 16:1 17:1 18:0 19:0 20:0 21:0 22:0 23:0 24:0 25:1 26:1 27:0 28:1 29:0 30:0 31:0 32:0 33:1 #
0.12983843654660221 1:0 2:1 3:0.02 4:0 5:0 6:0 7:1 8:1 9:0 10:0.029999999 11:0 12:0 13:0 14:0 15:0 16:1 17:0 18:0 19:0 20:0 21:0 22:0 23:0 24:0 25:0 26:0 27:0 28:1 29:0 30:0 31:0 32:0 33:0 #
0.12983843654660221 1:0 2:1 3:0.059999999 4:0 5:0 6:0 7:1 8:1 9:0 10:0.039999999 11:0 12:1 13:0 14:1 15:0 16:1 17:0 18:0 19:0 20:0 21:0 22:0 23:0 24:0 25:1 26:0 27:0 28:1 29:0 30:0 31:0 32:0 33:0 #
0.12983843654660221 1:1 2:1 3:0.079999998 4:0 5:0 6:0 7:1 8:1 9:0 10:0.029999999 11:0 12:0 13:0 14:0 15:0 16:1 17:0 18:0 19:0 20:0 21:0 22:0 23:0 24:0 25:1 26:0 27:0 28:1 29:0 30:0 31:0 32:0 33:0 #
-0.12983843654660221 1:0 2:1 3:0.44 4:0 5:0 6:0 7:1 8:1 9:0 10:0.02 11:0 12:1 13:0 14:0 15:1 16:1 17:0 18:0 19:1 20:0 21:0 22:0 23:0 24:0 25:0 26:0 27:1 28:0 29:0 30:0 31:0 32:0 33:0 #
-0.12983843654660221 1:1 2:1 3:0.1 4:0 5:0 6:0 7:1 8:1 9:0 10:0.079999998 11:0 12:0 13:0 14:0 15:1 16:1 17:0 18:0 19:0 20:0 21:0 22:0 23:0 24:0 25:0 26:0 27:1 28:0 29:0 30:0 31:0 32:0 33:0 #
-0.12983843654660221 1:0 2:1 3:0.1 4:0 5:0 6:0 7:1 8:1 9:0 10:0.28999999 11:0 12:1 13:0 14:0 15:1 16:1 17:0 18:0 19:0 20:0 21:0 22:0 23:0 24:1 25:0 26:0 27:0 28:1 29:0 30:0 31:0 32:0 33:0 #
0.12983843654660221 1:0 2:1 3:0.23999999 4:0 5:0 6:0 7:1 8:1 9:0 10:0.050000001 11:1 12:0 13:0 14:0 15:1 16:1 17:0 18:0 19:1 20:0 21:0 22:0 23:0 24:0 25:0 26:0 27:1 28:0 29:0 30:0 31:0 32:0 33:0 #
0.12983843654660221 1:1 2:0 3:0.54000002 4:1 5:0.02 6:0 7:1 8:0 9:1 10:0.0099999998 11:1 12:0 13:0 14:0 15:0 16:1 17:0 18:0 19:1 20:0 21:0 22:0 23:0 24:1 25:0 26:0 27:0 28:0 29:0 30:1 31:0 32:0 33:0 #
0.12983843654660221 1:1 2:0 3:0.31999999 4:1 5:0.02 6:0 7:1 8:0 9:0 10:0.0099999998 11:0 12:0 13:0 14:0 15:0 16:0 17:0 18:0 19:1 20:0 21:0 22:0 23:0 24:0 25:0 26:0 27:0 28:0 29:0 30:1 31:0 32:0 33:0 #
0.12983843654660221 1:1 2:0 3:0.81999999 4:1 5:0.02 6:0 7:1 8:1 9:0 10:1.8200001 11:0 12:0 13:0 14:0 15:0 16:1 17:0 18:0 19:1 20:0 21:0 22:0 23:0 24:0 25:0 26:0 27:1 28:0 29:0 30:0 31:0 32:0 33:0 #
0.12983843654660221 1:1 2:1 3:0.16 4:0 5:0 6:0 7:1 8:1 9:0 10:0.0099999998 11:1 12:0 13:0 14:0 15:0 16:1 17:1 18:0 19:1 20:0 21:0 22:0 23:0 24:1 25:0 26:0 27:1 28:0 29:0 30:0 31:0 32:0 33:0 #
-0.12983843654660221 1:1 2:0 3:0.72000003 4:1 5:0.02 6:0 7:1 8:0 9:0 10:0.0099999998 11:1 12:0 13:0 14:0 15:0 16:1 17:0 18:0 19:1 20:0 21:0 22:0 23:0 24:0 25:0 26:0 27:0 28:0 29:0 30:1 31:0 32:0 33:0 #
-0.12983843654660221 1:0 2:1 3:0.23999999 4:0 5:0 6:0 7:1 8:1 9:0 10:0.0099999998 11:0 12:0 13:0 14:0 15:0 16:1 17:1 18:0 19:0 20:0 21:0 22:0 23:0 24:1 25:0 26:0 27:0 28:0 29:1 30:0 31:0 32:0 33:0 #
-0.12983843654660221 1:0 2:1 3:0.039999999 4:0 5:0 6:0 7:1 8:1 9:0 10:0.039999999 11:0 12:0 13:0 14:0 15:1 16:1 17:0 18:0 19:0 20:0 21:0 22:0 23:0 24:1 25:0 26:0 27:1 28:0 29:0 30:0 31:0 32:0 33:0 #
0.12983843654660221 1:0 2:1 3:0.039999999 4:0 5:0 6:0 7:1 8:1 9:0 10:0.0099999998 11:0 12:1 13:0 14:0 15:1 16:1 17:0 18:0 19:0 20:0 21:0 22:0 23:0 24:1 25:0 26:0 27:0 28:0 29:1 30:0 31:0 32:0 33:0 #
0.12983843654660221 1:0 2:1 3:0.18000001 4:0 5:0 6:0 7:1 8:1 9:0 10:0.0099999998 11:0 12:1 13:0 14:0 15:0 16:1 17:0 18:0 19:0 20:0 21:0 22:0 23:1 24:1 25:0 26:0 27:0 28:0 29:1 30:0 31:0 32:0 33:0 #
0.12983843654660221 1:0 2:1 3:0.039999999 4:0 5:0 6:0 7:1 8:1 9:0 10:0.15000001 11:0 12:1 13:0 14:0 15:1 16:1 17:0 18:0 19:0 20:0 21:0 22:0 23:0 24:0 25:0 26:0 27:0 28:0 29:1 30:0 31:0 32:0 33:0 #
0.12983843654660221 1:0 2:1 3:0.1 4:0 5:0 6:0 7:1 8:1 9:0 10:0.02 11:0 12:0 13:0 14:0 15:1 16:1 17:0 18:0 19:0 20:0 21:0 22:0 23:0 24:1 25:0 26:0 27:0 28:0 29:1 30:0 31:0 32:0 33:0 #
-0.12983843654660221 1:0 2:1 3:0.039999999 4:0 5:0 6:0 7:1 8:1 9:0 10:0.07 11:0 12:1 13:0 14:0 15:1 16:1 17:0 18:0 19:0 20:0 21:0 22:0 23:0 24:1 25:0 26:0 27:0 28:0 29:1 30:0 31:0 32:0 33:0 #
-0.12983843654660221 1:0 2:1 3:0.079999998 4:0 5:0 6:0 7:1 8:1 9:0 10:0.02 11:0 12:1 13:0 14:0 15:1 16:1 17:0 18:0 19:0 20:0 21:0 22:0 23:0 24:1 25:0 26:0 27:0 28:0 29:1 30:0 31:0 32:0 33:0 #
-0.12983843654660221 1:0 2:1 3:0.059999999 4:0 5:0 6:0 7:1 8:1 9:0 10:0.0099999998 11:0 12:1 13:0 14:0 15:0 16:1 17:0 18:0 19:0 20:0 21:0 22:0 23:0 24:1 25:0 26:0 27:0 28:0 29:1 30:0 31:0 32:0 33:0 #
0.12983843654660221 1:1 2:0 3:0.2 4:1 5:0.02 6:0 7:1 8:0 9:0 10:0.0099999998 11:0 12:0 13:0 14:0 15:0 16:1 17:1 18:0 19:1 20:0 21:0 22:0 23:0 24:1 25:0 26:0 27:0 28:0 29:0 30:1 31:0 32:0 33:0 #
0.12983843654660221 1:1 2:0 3:0.89999998 4:1 5:0.02 6:0 7:1 8:1 9:0 10:0.02 11:1 12:0 13:0 14:0 15:0 16:1 17:0 18:0 19:1 20:0 21:0 22:0 23:0 24:0 25:0 26:0 27:0 28:1 29:0 30:0 31:0 32:0 33:0 #
0.12983843654660221 1:1 2:0 3:0.2 4:1 5:0.02 6:0 7:1 8:0 9:0 10:0.0099999998 11:0 12:0 13:0 14:0 15:0 16:0 17:0 18:0 19:0 20:0 21:0 22:0 23:0 24:0 25:0 26:0 27:0 28:0 29:0 30:1 31:0 32:0 33:0 #
-0.12983843654660221 1:1 2:0 3:0.2 4:1 5:0.02 6:0 7:1 8:0 9:1 10:0.0099999998 11:1 12:0 13:0 14:0 15:0 16:1 17:1 18:0 19:0 20:0 21:0 22:0 23:0 24:0 25:0 26:0 27:0 28:0 29:0 30:1 31:0 32:0 33:0 #
-0.12983843654660221 1:1 2:0 3:0.2 4:1 5:0.02 6:0 7:1 8:0 9:1 10:0.0099999998 11:1 12:0 13:0 14:0 15:0 16:1 17:0 18:0 19:0 20:0 21:0 22:0 23:0 24:0 25:0 26:0 27:0 28:0 29:0 30:1 31:0 32:0 33:0 #
-0.080621742126542231 1:1 2:0 3:0.72000003 4:1 5:0.02 6:0 7:1 8:0 9:0 10:0.0099999998 11:1 12:0 13:1 14:0 15:0 16:1 17:1 18:0 19:1 20:0 21:0 22:0 23:0 24:0 25:0 26:0 27:0 28:0 29:0 30:1 31:0 32:0 33:0 #
-0.12983843654660221 1:1 2:0 3:0.16 4:1 5:0.02 6:0 7:1 8:0 9:1 10:0.0099999998 11:0 12:0 13:0 14:0 15:0 16:0 17:1 18:0 19:0 20:0 21:0 22:0 23:0 24:0 25:0 26:0 27:0 28:0 29:0 30:1 31:0 32:0 33:0 #
0.12983843654660221 1:0 2:1 3:0.059999999 4:0 5:0 6:0 7:1 8:1 9:0 10:0.0099999998 11:0 12:1 13:0 14:0 15:0 16:1 17:0 18:0 19:0 20:0 21:0 22:0 23:0 24:1 25:0 26:0 27:0 28:0 29:1 30:0 31:0 32:0 33:0 #
0.12983843654660221 1:0 2:1 3:0.039999999 4:0 5:0 6:0 7:1 8:1 9:0 10:0.49000001 11:0 12:1 13:0 14:0 15:1 16:1 17:0 18:0 19:0 20:0 21:0 22:0 23:0 24:0 25:0 26:0 27:0 28:0 29:1 30:0 31:0 32:0 33:0 #
0.12983843654660221 1:0 2:1 3:0.22 4:0 5:0 6:0 7:1 8:1 9:0 10:0.0099999998 11:0 12:1 13:0 14:0 15:1 16:1 17:0 18:0 19:0 20:0 21:0 22:0 23:0 24:1 25:0 26:0 27:1 28:0 29:0 30:0 31:0 32:0 33:0 #
-0.12983843654660221 1:0 2:1 3:0.039999999 4:0 5:0 6:0 7:1 8:1 9:0 10:1.8200001 11:0 12:1 13:0 14:0 15:1 16:1 17:0 18:0 19:1 20:0 21:0 22:0 23:0 24:0 25:0 26:0 27:0 28:1 29:0 30:0 31:0 32:0 33:0 #
0.12983843654660221 1:1 2:0 3:0.44 4:1 5:0.02 6:0 7:1 8:0 9:1 10:0.1 11:1 12:0 13:0 14:0 15:0 16:1 17:0 18:0 19:0 20:0 21:0 22:0 23:0 24:0 25:0 26:0 27:0 28:0 29:0 30:1 31:0 32:0 33:0 #
0.026542328373996171 1:1 2:1 3:0.28 4:0 5:0 6:0 7:1 8:1 9:0 10:0.22 11:0 12:0 13:0 14:0 15:0 16:1 17:0 18:0 19:0 20:0 21:0 22:0 23:0 24:0 25:1 26:1 27:1 28:0 29:0 30:0 31:0 32:0 33:0 #
0.12983843654660221 1:1 2:1 3:0.14 4:0 5:0 6:0 7:1 8:0 9:0 10:0.0099999998 11:0 12:1 13:1 14:0 15:0 16:1 17:1 18:0 19:0 20:0 21:0 22:0 23:0 24:0 25:0 26:0 27:0 28:0 29:0 30:1 31:0 32:0 33:0 #
-0.12983843654660221 1:1 2:1 3:0.039999999 4:0 5:0 6:0 7:1 8:1 9:0 10:0.0099999998 11:1 12:0 13:0 14:0 15:1 16:1 17:0 18:0 19:0 20:0 21:0 22:0 23:0 24:1 25:0 26:0 27:0 28:0 29:1 30:0 31:0 32:0 33:0 #
-0.06200667788250027 1:1 2:1 3:0.2 4:0 5:0 6:0 7:1 8:0 9:0 10:0.02 11:1 12:0 13:0 14:0 15:0 16:1 17:0 18:0 19:0 20:0 21:0 22:0 23:1 24:0 25:0 26:0 27:1 28:0 29:0 30:0 31:0 32:0 33:0 #
-0.12983843654660221 1:1 2:1 3:0.2 4:0 5:0 6:0 7:1 8:0 9:0 10:0.0099999998 11:1 12:1 13:1 14:0 15:0 16:1 17:0 18:0 19:0 20:0 21:0 22:0 23:0 24:1 25:0 26:0 27:0 28:0 29:0 30:1 31:0 32:0 33:0 #
-0.12983843654660221 1:0 2:1 3:0.039999999 4:0 5:0 6:0 7:1 8:1 9:0 10:0.0099999998 11:0 12:0 13:0 14:0 15:1 16:1 17:0 18:0 19:0 20:0 21:0 22:0 23:0 24:0 25:0 26:0 27:0 28:0 29:1 30:0 31:0 32:0 33:0 #
-0.12983843654660221 1:1 2:1 3:0.039999999 4:0 5:0 6:0 7:1 8:1 9:0 10:0.07 11:0 12:0 13:0 14:0 15:1 16:1 17:0 18:0 19:0 20:0 21:0 22:0 23:0 24:1 25:0 26:0 27:0 28:0 29:1 30:0 31:0 32:0 33:0 #
0.12983843654660221 1:0 2:1 3:0.16 4:0 5:0 6:0 7:1 8:1 9:0 10:0.0099999998 11:0 12:0 13:0 14:1 15:0 16:1 17:1 18:0 19:1 20:0 21:0 22:0 23:0 24:0 25:0 26:0 27:1 28:0 29:0 30:0 31:0 32:0 33:1 #
0.12983843654660221 1:1 2:0 3:0.47999999 4:1 5:0.02 6:0 7:1 8:1 9:0 10:0.0099999998 11:1 12:0 13:0 14:0 15:0 16:1 17:0 18:0 19:1 20:0 21:0 22:0 23:0 24:0 25:1 26:1 27:0 28:1 29:0 30:0 31:0 32:0 33:1 #
0.12983843654660221 1:1 2:0 3:0.68000001 4:1 5:0.02 6:0 7:1 8:1 9:0 10:0.0099999998 11:1 12:0 13:0 14:0 15:0 16:1 17:0 18:0 19:1 20:0 21:0 22:0 23:0 24:0 25:0 26:0 27:0 28:1 29:0 30:0 31:0 32:0 33:0 #
0.12983843654660221 1:1 2:0 3:0.46000001 4:1 5:0.02 6:0 7:1 8:1 9:0 10:1.8200001 11:0 12:0 13:0 14:0 15:1 16:1 17:0 18:0 19:1 20:0 21:0 22:0 23:0 24:0 25:0 26:0 27:1 28:0 29:0 30:0 31:0 32:0 33:0 #
-0.12983843654660221 1:0 2:1 3:0.079999998 4:0 5:0 6:0 7:1 8:1 9:0 10:0.0099999998 11:0 12:1 13:0 14:0 15:0 16:1 17:1 18:0 19:0 20:0 21:0 22:0 23:0 24:1 25:0 26:0 27:0 28:0 29:1 30:0 31:0 32:0 33:0 #
-0.12983843654660221 1:1 2:0 3:0.51999998 4:1 5:0.02 6:0 7:1 8:1 9:0 10:0.16 11:0 12:0 13:0 14:1 15:0 16:1 17:0 18:0 19:0 20:0 21:0 22:0 23:0 24:0 25:1 26:1 27:1 28:0 29:0 30:0 31:0 32:0 33:0 #
-0.12983843654660221 1:1 2:0 3:0.22 4:1 5:0.02 6:0 7:1 8:1 9:0 10:0.25 11:0 12:0 13:0 14:0 15:0 16:1 17:1 18:0 19:1 20:0 21:0 22:0 23:0 24:0 25:0 26:0 27:1 28:0 29:0 30:0 31:0 32:0 33:0 #
-0.12983843654660221 1:1 2:0 3:0.14 4:1 5:0.02 6:0 7:1 8:1 9:0 10:0.0099999998 11:0 12:0 13:0 14:0 15:0 16:1 17:0 18:0 19:1 20:0 21:0 22:0 23:0 24:0 25:0 26:0 27:1 28:0 29:0 30:0 31:0 32:0 33:0 #
-0.12983843654660221 1:1 2:1 3:0.16 4:0 5:0 6:0 7:1 8:1 9:0 10:0.0099999998 11:0 12:0 13:0 14:0 15:0 16:1 17:1 18:0 19:0 20:0 21:0 22:0 23:0 24:1 25:0 26:0 27:0 28:0 29:1 30:0 31:0 32:0 33:0 #
0.12983843654660221 1:0 2:1 3:0.16 4:0 5:0 6:0 7:1 8:0 9:0 10:0.0099999998 11:0 12:0 13:0 14:0 15:1 16:1 17:0 18:1 19:0 20:0 21:0 22:0 23:0 24:1 25:0 26:0 27:0 28:0 29:0 30:1 31:0 32:0 33:0 #
0.12983843654660221 1:0 2:1 3:0.30000001 4:0 5:0 6:0 7:1 8:0 9:1 10:0.0099999998 11:0 12:0 13:0 14:0 15:0 16:0 17:0 18:1 19:0 20:0 21:0 22:0 23:0 24:1 25:0 26:0 27:0 28:0 29:0 30:1 31:0 32:0 33:0 #
-0.12983843654660221 1:0 2:1 3:0.079999998 4:0 5:0 6:0 7:1 8:0 9:1 10:0.02 11:1 12:0 13:0 14:0 15:1 16:1 17:0 18:0 19:0 20:0 21:0 22:0 23:0 24:0 25:0 26:0 27:0 28:0 29:0 30:1 31:0 32:0 33:0 #
0.12983843654660221 1:1 2:0 3:0.60000002 4:0 5:0.039999999 6:0 7:1 8:1 9:0 10:0.029999999 11:0 12:0 13:0 14:1 15:0 16:1 17:0 18:0 19:0 20:0 21:0 22:0 23:0 24:0 25:1 26:1 27:1 28:0 29:0 30:0 31:0 32:0 33:0 #
-0.12983843654660221 1:0 2:1 3:0.31999999 4:0 5:0 6:0 7:1 8:1 9:0 10:0.0099999998 11:0 12:0 13:0 14:0 15:0 16:1 17:0 18:1 19:1 20:0 21:0 22:0 23:0 24:0 25:0 26:0 27:1 28:0 29:0 30:0 31:0 32:0 33:0 #
0.12983843654660221 1:1 2:1 3:0.1 4:0 5:0 6:0 7:1 8:1 9:0 10:0.0099999998 11:0 12:1 13:0 14:0 15:1 16:1 17:0 18:0 19:0 20:0 21:0 22:0 23:0 24:0 25:0 26:0 27:0 28:0 29:1 30:0 31:0 32:0 33:0 #
-0.12983843654660221 1:1 2:1 3:0.16 4:0 5:0 6:0 7:1 8:0 9:0 10:0.33000001 11:0 12:0 13:0 14:1 15:0 16:1 17:0 18:0 19:0 20:0 21:0 22:0 23:0 24:0 25:1 26:1 27:0 28:0 29:0 30:1 31:0 32:0 33:1 #
-0.12983843654660221 1:1 2:1 3:0.079999998 4:0 5:0 6:0 7:1 8:0 9:0 10:0.0099999998 11:1 12:0 13:0 14:0 15:1 16:1 17:0 18:0 19:0 20:0 21:0 22:0 23:0 24:0 25:0 26:0 27:1 28:0 29:0 30:0 31:0 32:0 33:0 #
-0.12983843654660221 1:1 2:0 3:0.46000001 4:1 5:0.02 6:0 7:1 8:1 9:0 10:0.0099999998 11:1 12:1 13:1 14:0 15:0 16:0 17:1 18:0 19:1 20:0 21:0 22:0 23:1 24:0 25:0 26:0 27:1 28:0 29:0 30:0 31:0 32:0 33:0 #
0.12983843654660221 1:1 2:0 3:0.51999998 4:0 5:0.039999999 6:0 7:1 8:1 9:0 10:0.079999998 11:0 12:0 13:0 14:0 15:0 16:1 17:1 18:0 19:0 20:0 21:0 22:0 23:0 24:0 25:0 26:0 27:1 28:0 29:0 30:0 31:0 32:0 33:0 #
0.12983843654660221 1:1 2:0 3:0.34 4:1 5:0.02 6:0 7:1 8:1 9:0 10:0.0099999998 11:0 12:0 13:0 14:0 15:0 16:1 17:1 18:0 19:0 20:0 21:0 22:0 23:1 24:0 25:0 26:0 27:1 28:0 29:0 30:0 31:0 32:0 33:0 #
0.12983843654660221 1:1 2:0 3:0.31999999 4:1 5:0.02 6:0 7:1 8:1 9:0 10:0.0099999998 11:0 12:0 13:0 14:0 15:0 16:1 17:1 18:0 19:0 20:0 21:0 22:0 23:0 24:0 25:0 26:0 27:1 28:0 29:0 30:0 31:0 32:0 33:0 #
-0.099605834056507914 1:1 2:0 3:0.28 4:1 5:0.02 6:0 7:1 8:1 9:0 10:0.0099999998 11:0 12:0 13:0 14:0 15:0 16:0 17:1 18:1 19:1 20:0 21:0 22:0 23:0 24:0 25:0 26:0 27:1 28:0 29:0 30:0 31:0 32:0 33:0 #
-0.12983843654660221 1:0 2:1 3:0.02 4:0 5:0 6:0 7:1 8:1 9:0 10:0.0099999998 11:0 12:1 13:0 14:0 15:1 16:1 17:0 18:0 19:0 20:0 21:0 22:0 23:0 24:0 25:0 26:0 27:0 28:0 29:1 30:0 31:0 32:0 33:0 #
0.12983843654660221 1:0 2:1 3:0.2 4:0 5:0 6:0 7:1 8:1 9:0 10:0.0099999998 11:1 12:0 13:0 14:0 15:0 16:1 17:0 18:0 19:1 20:0 21:0 22:0 23:0 24:0 25:0 26:0 27:1 28:0 29:0 30:0 31:0 32:0 33:0 #
-0.12983843654660221 1:1 2:0 3:0.1 4:1 5:0.02 6:0 7:1 8:1 9:0 10:0.02 11:0 12:0 13:0 14:0 15:0 16:1 17:0 18:0 19:1 20:0 21:0 22:0 23:0 24:0 25:0 26:0 27:1 28:0 29:0 30:0 31:0 32:0 33:0 #
0.12983843654660221 1:0 2:1 3:0.059999999 4:0 5:0 6:0 7:1 8:0 9:1 10:0.0099999998 11:0 12:1 13:0 14:0 15:1 16:1 17:0 18:0 19:0 20:0 21:0 22:0 23:0 24:1 25:0 26:0 27:0 28:0 29:0 30:1 31:0 32:0 33:0 #
0.12983843654660221 1:0 2:1 3:0.1 4:0 5:0 6:0 7:1 8:0 9:0 10:0.12 11:1 12:0 13:0 14:0 15:1 16:1 17:0 18:0 19:0 20:0 21:0 22:0 23:0 24:1 25:0 26:0 27:0 28:0 29:0 30:1 31:0 32:0 33:0 #
0.12983843654660221 1:0 2:1 3:0.16 4:0 5:0 6:0 7:1 8:0 9:0 10:0.0099999998 11:1 12:0 13:0 14:0 15:1 16:1 17:0 18:0 19:0 20:0 21:0 22:0 23:0 24:1 25:0 26:0 27:0 28:0 29:0 30:1 31:0 32:0 33:0 #
-0.12983843654660221 1:0 2:1 3:0.039999999 4:0 5:0 6:0 7:1 8:0 9:1 10:0.029999999 11:0 12:0 13:0 14:0 15:1 16:1 17:0 18:0 19:0 20:0 21:0 22:0 23:0 24:1 25:0 26:0 27:0 28:0 29:0 30:1 31:0 32:0 33:0 #
0.12983843654660221 1:1 2:0 3:0.18000001 4:1 5:0.02 6:0 7:1 8:1 9:0 10:0.0099999998 11:0 12:0 13:0 14:0 15:0 16:0 17:1 18:1 19:0 20:0 21:0 22:0 23:0 24:0 25:0 26:0 27:1 28:0 29:0 30:0 31:0 32:0 33:0 #
-0.12983843654660221 1:0 2:1 3:0.1 4:0 5:0 6:0 7:1 8:1 9:0 10:0.1 11:1 12:0 13:0 14:0 15:1 16:1 17:0 18:1 19:0 20:0 21:0 22:0 23:0 24:1 25:0 26:0 27:1 28:0 29:0 30:0 31:0 32:0 33:0 #
0.12983843654660221 1:1 2:1 3:0.31999999 4:0 5:0 6:0 7:1 8:0 9:0 10:0.15000001 11:0 12:0 13:0 14:1 15:0 16:1 17:0 18:0 19:0 20:0 21:0 22:0 23:0 24:0 25:1 26:1 27:0 28:0 29:0 30:1 31:0 32:0 33:1 #
-0.12983843654660221 1:0 2:1 3:0.16 4:0 5:0 6:0 7:1 8:1 9:0 10:0.039999999 11:0 12:0 13:0 14:0 15:0 16:1 17:0 18:1 19:0 20:0 21:0 22:0 23:0 24:1 25:0 26:0 27:1 28:0 29:0 30:0 31:0 32:0 33:0 #
0.12983843654660221 1:1 2:1 3:0.059999999 4:0 5:0 6:0 7:1 8:1 9:0 10:0.0099999998 11:0 12:0 13:0 14:0 15:1 16:1 17:0 18:0 19:1 20:0 21:0 22:0 23:0 24:0 25:0 26:0 27:1 28:0 29:0 30:0 31:0 32:0 33:0 #
-0.12983843654660221 1:0 2:1 3:0.1 4:0 5:0 6:0 7:1 8:1 9:0 10:0.0099999998 11:1 12:0 13:0 14:0 15:0 16:1 17:1 18:0 19:0 20:0 21:0 22:0 23:0 24:0 25:0 26:0 27:0 28:1 29:0 30:0 31:0 32:0 33:0 #
-0.12983843654660221 1:0 2:1 3:0.059999999 4:0 5:0 6:0 7:1 8:1 9:0 10:0.0099999998 11:1 12:0 13:0 14:0 15:1 16:1 17:0 18:0 19:0 20:0 21:0 22:0 23:0 24:0 25:0 26:0 27:0 28:0 29:1 30:0 31:0 32:0 33:0 #
-0.12983843654660221 1:0 2:1 3:0.039999999 4:0 5:0 6:0 7:1 8:1 9:0 10:0.039999999 11:0 12:0 13:0 14:0 15:1 16:1 17:0 18:0 19:0 20:0 21:0 22:0 23:0 24:0 25:0 26:0 27:1 28:0 29:0 30:0 31:0 32:0 33:0 #
-0.12983843654660221 1:0 2:1 3:0.079999998 4:0 5:0 6:0 7:1 8:1 9:0 10:0.0099999998 11:1 12:0 13:0 14:0 15:1 16:1 17:0 18:0 19:0 20:0 21:0 22:0 23:0 24:0 25:0 26:0 27:0 28:0 29:1 30:0 31:0 32:0 33:0 #
0.12983843654660221 1:1 2:0 3:1.2 4:0 5:0.039999999 6:0 7:1 8:1 9:0 10:0.25999999 11:1 12:0 13:0 14:1 15:0 16:1 17:0 18:0 19:0 20:0 21:0 22:0 23:0 24:0 25:0 26:1 27:1 28:0 29:0 30:0 31:0 32:0 33:0 #
0.12983843654660221 1:1 2:0 3:0.72000003 4:1 5:0.02 6:0 7:1 8:0 9:1 10:0.050000001 11:0 12:0 13:0 14:1 15:0 16:1 17:0 18:0 19:0 20:0 21:0 22:0 23:0 24:0 25:0 26:0 27:0 28:0 29:0 30:1 31:0 32:0 33:0 #
0.12983843654660221 1:1 2:0 3:0.5 4:1 5:0.02 6:0 7:1 8:1 9:0 10:0.0099999998 11:0 12:0 13:0 14:0 15:0 16:0 17:0 18:0 19:0 20:0 21:0 22:0 23:0 24:1 25:0 26:0 27:0 28:0 29:1 30:0 31:0 32:0 33:0 #
0.12983843654660221 1:1 2:0 3:1 4:0 5:0.059999999 6:0 7:1 8:1 9:0 10:0.090000004 11:1 12:0 13:0 14:1 15:0 16:1 17:0 18:0 19:0 20:0 21:0 22:0 23:0 24:0 25:0 26:1 27:1 28:0 29:0 30:0 31:0 32:0 33:0 #
-0.12983843654660221 1:1 2:0 3:0.12 4:1 5:0.02 6:0 7:1 8:0 9:1 10:0.1 11:0 12:0 13:0 14:1 15:0 16:1 17:0 18:0 19:0 20:0 21:0 22:0 23:0 24:0 25:0 26:0 27:0 28:0 29:0 30:1 31:0 32:0 33:0 #
0.12983843654660221 1:0 2:1 3:0.02 4:0 5:0 6:0 7:1 8:1 9:0 10:0.15000001 11:1 12:0 13:0 14:0 15:1 16:1 17:0 18:1 19:0 20:0 21:0 22:0 23:0 24:0 25:0 26:0 27:0 28:0 29:1 30:0 31:0 32:0 33:0 #
-0.12983843654660221 1:1 2:0 3:0.22 4:1 5:0.02 6:0 7:1 8:1 9:0 10:0.25999999 11:1 12:0 13:0 14:0 15:0 16:1 17:0 18:0 19:0 20:0 21:0 22:0 23:0 24:0 25:0 26:1 27:1 28:0 29:0 30:0 31:0 32:0 33:0 #
-0.12983843654660221 1:1 2:0 3:1.2 4:1 5:0.02 6:0 7:1 8:1 9:0 10:0.039999999 11:1 12:0 13:0 14:0 15:0 16:0 17:0 18:0 19:0 20:0 21:0 22:0 23:0 24:1 25:0 26:0 27:1 28:0 29:0 30:0 31:0 32:0 33:0 #
-0.12983843654660221 1:1 2:0 3:0.47999999 4:0 5:0.039999999 6:0 7:1 8:1 9:0 10:0.0099999998 11:1 12:0 13:0 14:0 15:1 16:1 17:0 18:0 19:0 20:0 21:0 22:0 23:0 24:1 25:0 26:0 27:1 28:0 29:0 30:0 31:0 32:0 33:0 #
-0.12983843654660221 1:1 2:0 3:0.5 4:1 5:0.02 6:0 7:1 8:1 9:0 10:0.059999999 11:1 12:0 13:0 14:0 15:0 16:1 17:0 18:1 19:0 20:0 21:0 22:0 23:0 24:1 25:0 26:0 27:1 28:0 29:0 30:0 31:0 32:0 33:0 #
0.12983843654660221 1:0 2:1 3:0.059999999 4:0 5:0 6:0 7:1 8:0 9:1 10:0.0099999998 11:0 12:0 13:0 14:0 15:1 16:1 17:0 18:0 19:0 20:0 21:0 22:0 23:0 24:0 25:0 26:0 27:0 28:0 29:0 30:1 31:0 32:0 33:0 #
0.12983843654660221 1:0 2:1 3:0.18000001 4:0 5:0 6:0 7:1 8:1 9:0 10:0.0099999998 11:0 12:1 13:0 14:0 15:0 16:1 17:1 18:0 19:1 20:0 21:0 22:0 23:0 24:0 25:0 26:0 27:0 28:1 29:0 30:0 31:0 32:0 33:0 #
-0.12983843654660221 1:0 2:1 3:0.14 4:0 5:0 6:0 7:1 8:1 9:0 10:0.02 11:0 12:0 13:0 14:0 15:0 16:1 17:0 18:1 19:0 20:0 21:0 22:0 23:0 24:0 25:0 26:0 27:1 28:0 29:0 30:0 31:0 32:0 33:0 #
-0.12983843654660221 1:0 2:1 3:0.039999999 4:0 5:0 6:0 7:1 8:0 9:0 10:0.02 11:0 12:0 13:0 14:0 15:1 16:1 17:0 18:0 19:1 20:0 21:0 22:0 23:0 24:0 25:0 26:0 27:0 28:0 29:0 30:1 31:0 32:0 33:0 #
-0.12983843654660221 1:0 2:1 3:0.02 4:0 5:0 6:0 7:1 8:0 9:1 10:0.029999999 11:0 12:1 13:0 14:0 15:1 16:1 17:0 18:0 19:0 20:0 21:0 22:0 23:0 24:0 25:0 26:0 27:0 28:0 29:0 30:1 31:0 32:0 33:0 #
-0.12983843654660221 1:0 2:1 3:0.14 4:0 5:0 6:0 7:1 8:1 9:0 10:0.34 11:0 12:1 13:0 14:0 15:0 16:1 17:0 18:0 19:1 20:0 21:0 22:0 23:0 24:0 25:0 26:0 27:0 28:1 29:0 30:0 31:0 32:0 33:0 #
-0.12983843654660221 1:0 2:1 3:0.059999999 4:0 5:0 6:0 7:1 8:0 9:1 10:0.0099999998 11:0 12:1 13:0 14:0 15:1 16:1 17:0 18:0 19:0 20:0 21:0 22:0 23:0 24:0 25:0 26:0 27:0 28:0 29:0 30:1 31:0 32:0 33:0 #
0.12983843654660221 1:1 2:0 3:0.18000001 4:1 5:0.02 6:0 7:1 8:1 9:0 10:0.029999999 11:0 12:1 13:1 14:0 15:0 16:1 17:0 18:0 19:0 20:0 21:0 22:0 23:0 24:1 25:0 26:0 27:1 28:0 29:0 30:0 31:0 32:0 33:0 #
0.12983843654660221 1:1 2:0 3:0.28 4:1 5:0.02 6:0 7:1 8:1 9:0 10:0.0099999998 11:0 12:0 13:0 14:0 15:0 16:1 17:0 18:0 19:0 20:0 21:0 22:0 23:0 24:1 25:0 26:0 27:1 28:0 29:0 30:0 31:0 32:0 33:0 #
0.12983843654660221 1:1 2:0 3:0.69999999 4:1 5:0.02 6:0 7:1 8:1 9:0 10:0.47999999 11:1 12:0 13:0 14:0 15:1 16:1 17:0 18:1 19:0 20:0 21:0 22:0 23:0 24:0 25:0 26:0 27:1 28:0 29:0 30:0 31:0 32:0 33:0 #
0.12983843654660221 1:1 2:0 3:0.36000001 4:1 5:0.02 6:0 7:1 8:1 9:0 10:0.02 11:1 12:0 13:0 14:0 15:1 16:1 17:0 18:1 19:0 20:0 21:0 22:0 23:0 24:1 25:0 26:0 27:0 28:0 29:1 30:0 31:0 32:0 33:0 #
-0.12983843654660221 1:1 2:0 3:0.66000003 4:1 5:0.02 6:0 7:1 8:1 9:0 10:0.34 11:0 12:1 13:0 14:0 15:0 16:1 17:0 18:0 19:1 20:0 21:0 22:0 23:0 24:0 25:0 26:0 27:1 28:0 29:0 30:0 31:0 32:0 33:0 #
-0.12983843654660221 1:1 2:0 3:0.68000001 4:1 5:0.02 6:0 7:1 8:1 9:0 10:0.0099999998 11:1 12:0 13:1 14:0 15:0 16:1 17:1 18:1 19:1 20:0 21:0 22:0 23:1 24:1 25:0 26:0 27:1 28:0 29:0 30:0 31:0 32:0 33:0 #
-0.12983843654660221 1:1 2:0 3:1.78 4:0 5:0.039999999 6:0 7:1 8:0 9:0 10:0.029999999 11:1 12:0 13:0 14:0 15:1 16:1 17:0 18:0 19:0 20:0 21:0 22:0 23:0 24:0 25:0 26:0 27:0 28:0 29:0 30:1 31:0 32:0 33:0 #
-0.12983843654660221 1:1 2:0 3:0.51999998 4:1 5:0.02 6:0 7:1 8:1 9:0 10:0.0099999998 11:1 12:0 13:0 14:0 15:0 16:1 17:1 18:0 19:1 20:0 21:0 22:0 23:0 24:1 25:0 26:0 27:1 28:0 29:0 30:0 31:0 32:0 33:0 #
-0.12983843654660221 1:1 2:0 3:0.5 4:1 5:0.02 6:0 7:1 8:1 9:0 10:0.0099999998 11:1 12:0 13:1 14:0 15:0 16:1 17:1 18:0 19:1 20:0 21:0 22:0 23:1 24:1 25:0 26:0 27:1 28:0 29:0 30:0 31:0 32:0 33:0 #
0.12983843654660221 1:0 2:1 3:0.12 4:0 5:0 6:0 7:1 8:0 9:0 10:0.0099999998 11:0 12:1 13:0 14:0 15:0 16:0 17:0 18:0 19:1 20:0 21:0 22:0 23:0 24:0 25:0 26:0 27:0 28:0 29:0 30:1 31:0 32:0 33:0 #
0.12983843654660221 1:0 2:1 3:0.2 4:0 5:0 6:0 7:1 8:0 9:1 10:0.0099999998 11:0 12:0 13:0 14:0 15:0 16:0 17:0 18:0 19:0 20:0 21:0 22:0 23:0 24:0 25:0 26:0 27:0 28:0 29:0 30:1 31:0 32:0 33:0 #
0.12983843654660221 1:0 2:1 3:0.039999999 4:0 5:0 6:0 7:1 8:0 9:1 10:0.029999999 11:0 12:0 13:0 14:0 15:0 16:1 17:0 18:1 19:0 20:0 21:0 22:0 23:0 24:0 25:0 26:0 27:0 28:0 29:0 30:1 31:0 32:0 33:0 #
-0.12983843654660221 1:1 2:1 3:0.2 4:0 5:0 6:0 7:1 8:0 9:1 10:0.050000001 11:0 12:0 13:0 14:1 15:0 16:1 17:0 18:0 19:0 20:0 21:0 22:0 23:0 24:0 25:0 26:0 27:0 28:0 29:0 30:1 31:0 32:0 33:0 #
-0.12983843654660221 1:0 2:1 3:0.059999999 4:0 5:0 6:0 7:1 8:0 9:1 10:0.0099999998 11:0 12:0 13:0 14:0 15:1 16:1 17:0 18:0 19:0 20:0 21:0 22:0 23:0 24:0 25:0 26:0 27:0 28:0 29:0 30:1 31:0 32:0 33:0 #
0.12983843654660221 1:1 2:0 3:0.34 4:1 5:0.02 6:1 7:1 8:1 9:0 10:0.0099999998 11:0 12:0 13:0 14:0 15:0 16:1 17:1 18:0 19:0 20:0 21:0 22:0 23:0 24:1 25:0 26:0 27:1 28:0 29:0 30:0 31:0 32:0 33:0 #
0.12983843654660221 1:1 2:0 3:0.22 4:1 5:0.02 6:0 7:1 8:1 9:0 10:0.0099999998 11:0 12:0 13:0 14:0 15:0 16:1 17:1 18:0 19:0 20:0 21:0 22:0 23:0 24:1 25:0 26:0 27:1 28:0 29:0 30:0 31:0 32:0 33:0 #
0.12983843654660221 1:1 2:0 3:0.18000001 4:1 5:0.02 6:0 7:1 8:1 9:0 10:0.0099999998 11:0 12:0 13:0 14:0 15:0 16:1 17:1 18:0 19:0 20:0 21:0 22:0 23:0 24:1 25:0 26:0 27:1 28:0 29:0 30:0 31:0 32:0 33:0 #
0.12983843654660221 1:1 2:0 3:0.80000001 4:1 5:0.02 6:0 7:1 8:1 9:0 10:0.0099999998 11:1 12:0 13:0 14:0 15:1 16:1 17:0 18:0 19:0 20:0 21:0 22:0 23:0 24:1 25:0 26:0 27:1 28:0 29:0 30:0 31:0 32:0 33:0 #
0.12983843654660221 1:1 2:0 3:0.22 4:1 5:0.02 6:0 7:1 8:1 9:0 10:1.05 11:1 12:0 13:0 14:0 15:1 16:1 17:0 18:0 19:0 20:0 21:0 22:0 23:0 24:0 25:0 26:0 27:1 28:0 29:0 30:0 31:0 32:0 33:0 #
0.12983843654660221 1:1 2:1 3:0.46000001 4:0 5:0 6:0 7:1 8:0 9:1 10:0.0099999998 11:1 12:0 13:0 14:0 15:0 16:1 17:1 18:0 19:0 20:0 21:0 22:0 23:0 24:0 25:0 26:0 27:0 28:0 29:0 30:1 31:0 32:0 33:0 #
-0.12983843654660221 1:1 2:1 3:0.16 4:0 5:0 6:0 7:1 8:1 9:0 10:0.41999999 11:0 12:0 13:0 14:0 15:0 16:1 17:1 18:0 19:0 20:0 21:0 22:0 23:0 24:0 25:0 26:0 27:0 28:0 29:1 30:0 31:0 32:0 33:0 #
-0.12983843654660221 1:1 2:1 3:0.039999999 4:0 5:0 6:0 7:1 8:1 9:0 10:0.1 11:0 12:0 13:0 14:0 15:1 16:1 17:0 18:0 19:0 20:0 21:0 22:0 23:0 24:0 25:0 26:0 27:0 28:0 29:1 30:0 31:0 32:0 33:0 #
-0.12983843654660221 1:1 2:0 3:0.16 4:1 5:0.02 6:0 7:1 8:1 9:0 10:0.039999999 11:0 12:0 13:0 14:0 15:0 16:1 17:1 18:0 19:1 20:0 21:0 22:0 23:0 24:0 25:0 26:0 27:1 28:0 29:0 30:0 31:0 32:0 33:0 #
0.12983843654660221 1:1 2:1 3:0.25999999 4:0 5:0 6:0 7:1 8:1 9:0 10:0.02 11:1 12:0 13:0 14:0 15:0 16:1 17:0 18:0 19:1 20:0 21:0 22:0 23:0 24:0 25:0 26:0 27:1 28:0 29:0 30:0 31:0 32:0 33:0 #
-0.12983843654660221 1:1 2:1 3:0.16 4:0 5:0 6:0 7:1 8:1 9:0 10:0.0099999998 11:0 12:0 13:0 14:0 15:1 16:1 17:0 18:0 19:0 20:0 21:0 22:0 23:0 24:0 25:0 26:0 27:0 28:0 29:1 30:0 31:0 32:0 33:0 #
0.12983843654660221 1:0 2:1 3:0.23999999 4:0 5:0 6:0 7:1 8:1 9:0 10:0.029999999 11:0 12:1 13:1 14:0 15:0 16:1 17:0 18:0 19:0 20:0 21:0 22:0 23:0 24:1 25:0 26:0 27:1 28:0 29:0 30:0 31:0 32:0 33:0 #
0.12983843654660221 1:0 2:1 3:0.16 4:0 5:0 6:0 7:1 8:1 9:0 10:0.0099999998 11:1 12:0 13:1 14:0 15:0 16:1 17:0 18:0 19:1 20:0 21:0 22:0 23:0 24:0 25:0 26:0 27:1 28:0 29:0 30:0 31:0 32:0 33:0 #
0.12983843654660221 1:1 2:1 3:0.28 4:0 5:0 6:0 7:1 8:0 9:0 10:0.0099999998 11:1 12:0 13:0 14:0 15:0 16:0 17:0 18:1 19:0 20:0 21:0 22:0 23:0 24:1 25:0 26:0 27:0 28:0 29:0 30:1 31:0 32:0 33:0 #
0.12983843654660221 1:0 2:1 3:0.1 4:0 5:0 6:0 7:1 8:1 9:0 10:0.13 11:0 12:0 13:0 14:0 15:0 16:1 17:1 18:0 19:1 20:0 21:0 22:0 23:0 24:0 25:0 26:0 27:1 28:0 29:0 30:0 31:0 32:0 33:0 #
0.12983843654660221 1:1 2:0 3:0.25999999 4:1 5:0.02 6:0 7:1 8:1 9:0 10:1.05 11:1 12:0 13:0 14:0 15:1 16:1 17:0 18:0 19:0 20:0 21:0 22:0 23:0 24:0 25:0 26:0 27:1 28:0 29:0 30:0 31:0 32:0 33:0 #
-0.12983843654660221 1:0 2:1 3:0.079999998 4:0 5:0 6:1 7:1 8:1 9:0 10:0.0099999998 11:1 12:0 13:0 14:0 15:0 16:1 17:0 18:0 19:0 20:0 21:0 22:0 23:0 24:1 25:0 26:0 27:1 28:0 29:0 30:0 31:0 32:0 33:0 #
0.12983843654660221 1:1 2:0 3:0.47999999 4:1 5:0.02 6:0 7:1 8:1 9:0 10:0.02 11:0 12:0 13:0 14:0 15:0 16:1 17:1 18:0 19:0 20:0 21:0 22:0 23:0 24:1 25:0 26:0 27:0 28:0 29:1 30:0 31:0 32:0 33:0 #
-0.12983843654660221 1:0 2:1 3:0.34 4:0 5:0 6:0 7:1 8:1 9:0 10:0.0099999998 11:0 12:0 13:0 14:0 15:0 16:0 17:1 18:0 19:1 20:0 21:0 22:0 23:0 24:1 25:0 26:0 27:1 28:0 29:0 30:0 31:0 32:0 33:0 #
0.12983843654660221 1:0 2:1 3:0.079999998 4:0 5:0 6:1 7:1 8:1 9:0 10:0.0099999998 11:0 12:0 13:1 14:1 15:0 16:1 17:0 18:0 19:0 20:0 21:0 22:0 23:1 24:0 25:0 26:0 27:0 28:0 29:1 30:0 31:0 32:0 33:0 #
-0.12983843654660221 1:0 2:1 3:0.18000001 4:0 5:0 6:0 7:1 8:0 9:1 10:0.0099999998 11:1 12:0 13:0 14:0 15:0 16:1 17:0 18:0 19:0 20:0 21:0 22:0 23:0 24:1 25:0 26:0 27:0 28:0 29:0 30:1 31:0 32:0 33:0 #
-0.12983843654660221 1:0 2:1 3:0.25999999 4:0 5:0 6:0 7:1 8:1 9:0 10:0.0099999998 11:1 12:0 13:1 14:0 15:0 16:1 17:0 18:0 19:0 20:0 21:0 22:0 23:0 24:1 25:0 26:0 27:1 28:0 29:0 30:0 31:0 32:0 33:0 #
-0.12983843654660221 1:0 2:1 3:0.059999999 4:0 5:0 6:0 7:1 8:0 9:1 10:0.0099999998 11:1 12:0 13:0 14:0 15:0 16:1 17:0 18:0 19:0 20:0 21:0 22:0 23:0 24:0 25:0 26:0 27:0 28:0 29:0 30:1 31:0 32:0 33:0 #
-0.12983843654660221 1:1 2:0 3:0.039999999 4:1 5:0.02 6:0 7:1 8:1 9:0 10:0.13 11:1 12:0 13:0 14:1 15:0 16:1 17:0 18:0 19:0 20:0 21:0 22:0 23:0 24:0 25:0 26:1 27:0 28:1 29:0 30:0 31:0 32:0 33:1 #
0.12983843654660221 1:1 2:0 3:0.47999999 4:0 5:0.039999999 6:0 7:1 8:1 9:0 10:0.0099999998 11:0 12:0 13:0 14:0 15:1 16:1 17:0 18:0 19:0 20:0 21:0 22:0 23:0 24:0 25:0 26:0 27:1 28:0 29:0 30:0 31:0 32:0 33:0 #
0.12983843654660221 1:1 2:0 3:0.54000002 4:1 5:0.02 6:0 7:1 8:1 9:0 10:0.0099999998 11:0 12:0 13:0 14:0 15:1 16:1 17:0 18:0 19:0 20:0 21:0 22:0 23:0 24:0 25:0 26:0 27:1 28:0 29:0 30:0 31:0 32:0 33:0 #
0.12983843654660221 1:1 2:1 3:0.16 4:0 5:0 6:0 7:1 8:1 9:0 10:0.079999998 11:0 12:1 13:0 14:0 15:1 16:1 17:0 18:0 19:1 20:0 21:0 22:0 23:0 24:0 25:0 26:0 27:0 28:1 29:0 30:0 31:0 32:0 33:0 #
0.12983843654660221 1:1 2:1 3:0.14 4:0 5:0 6:0 7:1 8:1 9:0 10:0.0099999998 11:0 12:0 13:0 14:0 15:1 16:1 17:0 18:0 19:0 20:0 21:0 22:0 23:0 24:0 25:0 26:0 27:1 28:0 29:0 30:0 31:0 32:0 33:0 #
0.12983843654660221 1:1 2:1 3:0.079999998 4:0 5:0 6:0 7:1 8:1 9:0 10:0.0099999998 11:0 12:0 13:0 14:0 15:1 16:1 17:0 18:0 19:0 20:0 21:0 22:0 23:0 24:0 25:0 26:0 27:1 28:0 29:0 30:0 31:0 32:0 33:0 #
-0.12983843654660221 1:1 2:0 3:0.079999998 4:1 5:0.02 6:0 7:1 8:1 9:0 10:0.0099999998 11:0 12:0 13:0 14:0 15:0 16:1 17:1 18:0 19:1 20:0 21:0 22:0 23:0 24:0 25:0 26:0 27:1 28:0 29:0 30:0 31:0 32:0 33:0 #
-0.12983843654660221 1:1 2:0 3:0.039999999 4:1 5:0.02 6:0 7:1 8:1 9:0 10:0.79000002 11:0 12:0 13:0 14:0 15:1 16:1 17:0 18:0 19:0 20:0 21:0 22:0 23:0 24:0 25:0 26:0 27:1 28:0 29:0 30:0 31:0 32:0 33:0 #
-0.12983843654660221 1:0 2:1 3:0.12 4:0 5:0 6:0 7:1 8:0 9:0 10:0.0099999998 11:1 12:0 13:0 14:0 15:1 16:1 17:0 18:0 19:0 20:0 21:0 22:0 23:0 24:0 25:0 26:0 27:1 28:0 29:0 30:0 31:0 32:0 33:0 #
0.12983843654660221 1:1 2:1 3:0.51999998 4:0 5:0 6:0 7:1 8:1 9:0 10:0.029999999 11:1 12:0 13:0 14:0 15:0 16:1 17:0 18:0 19:1 20:0 21:0 22:0 23:0 24:0 25:0 26:0 27:1 28:0 29:0 30:0 31:0 32:0 33:0 #
0.12432408134300259 1:0 2:1 3:0.12 4:0 5:0 6:0 7:1 8:0 9:1 10:0.02 11:1 12:0 13:0 14:0 15:0 16:1 17:0 18:0 19:0 20:0 21:0 22:0 23:0 24:1 25:0 26:0 27:0 28:0 29:0 30:1 31:0 32:0 33:0 #
0.12983843654660221 1:1 2:1 3:0.22 4:0 5:0 6:0 7:1 8:0 9:1 10:0.0099999998 11:1 12:0 13:0 14:0 15:0 16:0 17:0 18:0 19:0 20:0 21:0 22:0 23:0 24:1 25:0 26:0 27:0 28:0 29:0 30:1 31:0 32:0 33:0 #
0.12983843654660221 1:0 2:1 3:0.25999999 4:0 5:0 6:0 7:1 8:0 9:0 10:0.050000001 11:1 12:0 13:0 14:0 15:0 16:1 17:0 18:0 19:0 20:0 21:0 22:0 23:0 24:1 25:0 26:0 27:0 28:0 29:0 30:1 31:0 32:0 33:0 #
-0.12983843654660221 1:0 2:1 3:0.16 4:0 5:0 6:0 7:1 8:0 9:1 10:0.0099999998 11:0 12:1 13:0 14:0 15:0 16:1 17:0 18:0 19:0 20:0 21:0 22:0 23:0 24:1 25:0 26:0 27:0 28:0 29:0 30:1 31:0 32:0 33:0 #
-0.12983843654660221 1:0 2:1 3:0.02 4:0 5:0 6:0 7:1 8:0 9:1 10:0.0099999998 11:0 12:0 13:0 14:0 15:0 16:1 17:0 18:0 19:0 20:0 21:0 22:0 23:0 24:1 25:0 26:0 27:0 28:0 29:0 30:1 31:0 32:0 33:0 #
0.12983843654660221 1:1 2:0 3:0.16 4:1 5:0.02 6:0 7:1 8:1 9:0 10:0.0099999998 11:0 12:1 13:0 14:0 15:0 16:1 17:0 18:0 19:1 20:0 21:0 22:0 23:0 24:0 25:0 26:0 27:1 28:0 29:0 30:0 31:0 32:0 33:0 #
-0.12983843654660221 1:1 2:1 3:0.25999999 4:0 5:0 6:0 7:1 8:0 9:0 10:0.18000001 11:1 12:0 13:0 14:0 15:0 16:0 17:1 18:0 19:1 20:0 21:0 22:0 23:0 24:0 25:0 26:0 27:0 28:0 29:0 30:1 31:0 32:0 33:0 #
-0.12983843654660221 1:0 2:1 3:0.25999999 4:0 5:0 6:0 7:1 8:0 9:0 10:0.34 11:1 12:0 13:0 14:0 15:0 16:1 17:0 18:0 19:1 20:0 21:0 22:0 23:0 24:0 25:0 26:0 27:0 28:0 29:0 30:1 31:0 32:0 33:0 #
-0.12983843654660221 1:0 2:1 3:0.25999999 4:0 5:0 6:0 7:1 8:0 9:0 10:0.029999999 11:1 12:0 13:0 14:0 15:0 16:1 17:0 18:0 19:0 20:0 21:0 22:0 23:0 24:0 25:0 26:0 27:0 28:0 29:0 30:1 31:0 32:0 33:0 #
-0.12983843654660221 1:1 2:1 3:0.02 4:0 5:0 6:0 7:1 8:0 9:0 10:0.0099999998 11:0 12:0 13:0 14:1 15:0 16:1 17:0 18:0 19:0 20:0 21:0 22:0 23:0 24:0 25:0 26:0 27:0 28:0 29:0 30:1 31:0 32:0 33:0 #
0.12983843654660221 1:1 2:0 3:0.31999999 4:1 5:0.02 6:0 7:1 8:1 9:0 10:0.0099999998 11:0 12:0 13:0 14:0 15:1 16:1 17:0 18:0 19:0 20:0 21:0 22:0 23:0 24:0 25:0 26:0 27:1 28:0 29:0 30:0 31:0 32:0 33:0 #
0.12983843654660221 1:1 2:0 3:0.46000001 4:1 5:0.02 6:0 7:1 8:1 9:0 10:0.02 11:1 12:0 13:0 14:0 15:1 16:1 17:0 18:0 19:0 20:0 21:0 22:0 23:0 24:1 25:0 26:0 27:0 28:0 29:1 30:0 31:0 32:0 33:0 #
0.12983843654660221 1:1 2:0 3:0.18000001 4:1 5:0.02 6:0 7:1 8:1 9:0 10:0.0099999998 11:0 12:0 13:0 14:0 15:1 16:1 17:0 18:0 19:0 20:0 21:0 22:0 23:0 24:1 25:0 26:0 27:1 28:0 29:0 30:0 31:0 32:0 33:0 #
0.12983843654660221 1:1 2:0 3:0.36000001 4:1 5:0.02 6:0 7:1 8:1 9:0 10:0.0099999998 11:0 12:0 13:0 14:0 15:0 16:1 17:1 18:0 19:0 20:0 21:0 22:0 23:0 24:1 25:0 26:0 27:0 28:0 29:1 30:0 31:0 32:0 33:0 #
-0.12983843654660221 1:1 2:0 3:0.059999999 4:1 5:0.02 6:0 7:1 8:0 9:1 10:0.02 11:0 12:0 13:0 14:0 15:0 16:1 17:0 18:0 19:0 20:0 21:0 22:0 23:0 24:0 25:0 26:0 27:0 28:0 29:0 30:1 31:0 32:0 33:0 #
0.12983843654660221 1:0 2:1 3:0.18000001 4:0 5:0 6:0 7:1 8:0 9:0 10:0.0099999998 11:0 12:1 13:0 14:1 15:0 16:0 17:0 18:0 19:1 20:0 21:0 22:0 23:0 24:0 25:1 26:1 27:0 28:0 29:0 30:1 31:0 32:0 33:1 #
-0.12983843654660221 1:0 2:1 3:0.039999999 4:0 5:0 6:0 7:1 8:1 9:0 10:0.029999999 11:0 12:1 13:0 14:0 15:1 16:1 17:0 18:0 19:1 20:0 21:0 22:0 23:0 24:0 25:0 26:0 27:1 28:0 29:0 30:0 31:0 32:0 33:0 #
-0.12983843654660221 1:1 2:0 3:0.63999999 4:1 5:0.02 6:0 7:1 8:1 9:0 10:0.0099999998 11:1 12:0 13:0 14:0 15:0 16:0 17:1 18:0 19:0 20:0 21:0 22:0 23:1 24:0 25:0 26:0 27:0 28:1 29:0 30:0 31:0 32:0 33:0 #
0.12983843654660221 1:0 2:1 3:0.12 4:0 5:0 6:0 7:1 8:0 9:1 10:0.11 11:0 12:0 13:0 14:1 15:0 16:1 17:0 18:0 19:0 20:0 21:0 22:0 23:0 24:0 25:0 26:0 27:0 28:0 29:0 30:1 31:0 32:0 33:0 #
-0.12983843654660221 1:1 2:0 3:2.5799999 4:0 5:0.079999998 6:0 7:1 8:0 9:1 10:0.34999999 11:1 12:0 13:0 14:0 15:1 16:1 17:0 18:0 19:0 20:0 21:0 22:0 23:0 24:1 25:0 26:0 27:0 28:0 29:0 30:1 31:0 32:0 33:0 #
0.12983843654660221 1:0 2:1 3:0.30000001 4:0 5:0 6:0 7:1 8:0 9:0 10:0.0099999998 11:1 12:0 13:0 14:0 15:0 16:1 17:1 18:1 19:0 20:0 21:0 22:0 23:0 24:0 25:0 26:0 27:0 28:0 29:0 30:1 31:0 32:0 33:0 #
0.12983843654660221 1:1 2:1 3:0.18000001 4:0 5:0 6:0 7:1 8:0 9:1 10:0.039999999 11:1 12:0 13:0 14:0 15:0 16:1 17:0 18:0 19:0 20:0 21:0 22:0 23:0 24:0 25:0 26:0 27:0 28:0 29:0 30:1 31:0 32:0 33:0 #
-0.12983843654660221 1:1 2:0 3:0.16 4:1 5:0.02 6:0 7:1 8:1 9:0 10:0.0099999998 11:0 12:0 13:0 14:0 15:0 16:1 17:0 18:0 19:1 20:0 21:0 22:0 23:0 24:0 25:0 26:0 27:1 28:0 29:0 30:0 31:0 32:0 33:0 #
-0.12983843654660221 1:0 2:1 3:0.059999999 4:0 5:0 6:0 7:1 8:0 9:1 10:0.0099999998 11:1 12:0 13:0 14:0 15:0 16:1 17:0 18:0 19:0 20:0 21:0 22:0 23:0 24:0 25:0 26:0 27:0 28:0 29:0 30:1 31:0 32:0 33:0 #
-0.12983843654660221 1:0 2:1 3:0.02 4:0 5:0 6:0 7:1 8:0 9:0 10:0.039999999 11:1 12:0 13:0 14:0 15:0 16:1 17:0 18:0 19:0 20:0 21:0 22:0 23:1 24:0 25:0 26:0 27:0 28:0 29:0 30:1 31:0 32:0 33:0 #
-0.12983843654660221 1:0 2:1 3:0.18000001 4:0 5:0 6:0 7:1 8:0 9:0 10:0.0099999998 11:1 12:0 13:0 14:0 15:0 16:1 17:0 18:0 19:1 20:0 21:0 22:0 23:0 24:0 25:0 26:0 27:0 28:0 29:0 30:1 31:0 32:0 33:0 #
-0.12983843654660221 1:0 2:1 3:0.2 4:0 5:0 6:0 7:1 8:1 9:0 10:0.0099999998 11:0 12:0 13:0 14:0 15:0 16:1 17:1 18:0 19:0 20:0 21:0 22:0 23:0 24:1 25:0 26:0 27:0 28:0 29:1 30:0 31:0 32:0 33:0 #
0.12983843654660221 1:0 2:1 3:0.059999999 4:0 5:0 6:0 7:1 8:0 9:0 10:0.02 11:1 12:0 13:0 14:0 15:0 16:0 17:0 18:0 19:1 20:0 21:0 22:0 23:0 24:0 25:0 26:0 27:0 28:0 29:0 30:1 31:0 32:0 33:0 #
-0.12983843654660221 1:1 2:1 3:0.059999999 4:0 5:0 6:0 7:1 8:1 9:0 10:0.059999999 11:0 12:0 13:0 14:0 15:1 16:1 17:0 18:0 19:0 20:0 21:0 22:0 23:0 24:0 25:0 26:0 27:1 28:0 29:0 30:0 31:0 32:0 33:0 #
-0.12983843654660221 1:1 2:1 3:0.14 4:0 5:0 6:0 7:1 8:1 9:0 10:0.0099999998 11:0 12:0 13:0 14:0 15:0 16:1 17:1 18:0 19:1 20:0 21:0 22:0 23:0 24:1 25:0 26:0 27:1 28:0 29:0 30:0 31:0 32:0 33:0 #
-0.12983843654660221 1:1 2:0 3:0.41999999 4:1 5:0.02 6:0 7:1 8:1 9:0 10:0.15000001 11:0 12:0 13:0 14:1 15:0 16:1 17:0 18:0 19:0 20:0 21:0 22:0 23:0 24:0 25:1 26:1 27:0 28:1 29:0 30:0 31:0 32:0 33:1 #
0.12983843654660221 1:1 2:1 3:0.16 4:0 5:0 6:0 7:1 8:0 9:0 10:0.0099999998 11:1 12:1 13:1 14:0 15:0 16:1 17:0 18:0 19:0 20:0 21:0 22:0 23:0 24:0 25:0 26:0 27:0 28:0 29:0 30:1 31:0 32:0 33:0 #
0.12983843654660221 1:0 2:1 3:0 4:0 5:0 6:0 7:1 8:0 9:0 10:0.039999999 11:0 12:1 13:0 14:0 15:0 16:1 17:0 18:0 19:0 20:0 21:0 22:0 23:0 24:0 25:0 26:0 27:0 28:0 29:1 30:0 31:0 32:0 33:0 #
0.12983843654660221 1:0 2:1 3:0.059999999 4:0 5:0 6:0 7:1 8:0 9:0 10:0.0099999998 11:0 12:0 13:0 14:0 15:0 16:1 17:0 18:1 19:0 20:0 21:0 22:0 23:0 24:0 25:0 26:0 27:0 28:0 29:0 30:1 31:0 32:0 33:0 #
0.12983843654660221 1:1 2:1 3:0.079999998 4:0 5:0 6:0 7:1 8:0 9:1 10:0.0099999998 11:0 12:1 13:0 14:0 15:0 16:1 17:0 18:0 19:0 20:0 21:0 22:0 23:1 24:0 25:0 26:0 27:0 28:0 29:0 30:1 31:0 32:0 33:0 #
-0.12983843654660221 1:0 2:1 3:0.079999998 4:0 5:0 6:0 7:1 8:0 9:1 10:0.039999999 11:0 12:1 13:0 14:0 15:1 16:1 17:0 18:0 19:0 20:0 21:0 22:0 23:0 24:0 25:0 26:0 27:0 28:0 29:0 30:1 31:0 32:0 33:0 #
0.12983843654660221 1:1 2:0 3:0.75999999 4:1 5:0.02 6:0 7:1 8:1 9:0 10:0.14 11:0 12:0 13:0 14:0 15:0 16:1 17:1 18:0 19:1 20:0 21:0 22:0 23:0 24:0 25:0 26:0 27:1 28:0 29:0 30:0 31:0 32:0 33:0 #
-0.12983843654660221 1:1 2:1 3:0.25999999 4:0 5:0 6:0 7:1 8:1 9:0 10:0.0099999998 11:1 12:0 13:1 14:0 15:0 16:1 17:1 18:0 19:0 20:0 21:0 22:0 23:0 24:0 25:0 26:0 27:0 28:0 29:1 30:0 31:0 32:0 33:0 #
-0.12983843654660221 1:1 2:1 3:0.02 4:0 5:0 6:0 7:1 8:0 9:0 10:0.039999999 11:1 12:0 13:0 14:0 15:0 16:1 17:0 18:0 19:0 20:0 21:0 22:0 23:0 24:0 25:0 26:0 27:0 28:0 29:1 30:0 31:0 32:0 33:0 #
-0.12983843654660221 1:0 2:1 3:0.039999999 4:0 5:0 6:0 7:1 8:1 9:0 10:0.0099999998 11:1 12:0 13:0 14:0 15:0 16:1 17:0 18:0 19:1 20:0 21:0 22:0 23:0 24:0 25:0 26:0 27:0 28:0 29:1 30:0 31:0 32:0 33:0 #
0.12983843654660221 1:1 2:0 3:0.12 4:1 5:0.02 6:0 7:1 8:1 9:0 10:0.0099999998 11:0 12:0 13:0 14:0 15:0 16:1 17:1 18:0 19:0 20:0 21:0 22:0 23:0 24:1 25:0 26:0 27:1 28:0 29:0 30:0 31:0 32:0 33:0 #
0.12983843654660221 1:1 2:0 3:0.56 4:1 5:0.02 6:0 7:1 8:0 9:1 10:0.0099999998 11:1 12:0 13:0 14:0 15:1 16:1 17:0 18:0 19:0 20:0 21:0 22:0 23:0 24:1 25:0 26:0 27:0 28:0 29:0 30:1 31:0 32:0 33:0 #
0.12983843654660221 1:1 2:1 3:0.22 4:0 5:0 6:0 7:1 8:1 9:0 10:0.0099999998 11:0 12:1 13:0 14:0 15:1 16:1 17:0 18:0 19:0 20:0 21:0 22:0 23:0 24:1 25:0 26:0 27:1 28:0 29:0 30:0 31:0 32:0 33:0 #
0.12983843654660221 1:0 2:1 3:0.059999999 4:0 5:0 6:0 7:1 8:1 9:0 10:0.02 11:0 12:0 13:0 14:0 15:0 16:1 17:0 18:0 19:1 20:0 21:0 22:0 23:0 24:1 25:0 26:0 27:0 28:1 29:0 30:0 31:0 32:0 33:0 #
-0.12983843654660221 1:0 2:1 3:0.02 4:0 5:0 6:0 7:1 8:1 9:0 10:0.0099999998 11:0 12:0 13:0 14:0 15:1 16:1 17:0 18:0 19:0 20:0 21:0 22:0 23:0 24:0 25:0 26:0 27:0 28:0 29:1 30:0 31:0 32:0 33:0 #
0.12983843654660221 1:0 2:1 3:0.079999998 4:0 5:0 6:0 7:1 8:1 9:0 10:0.0099999998 11:1 12:0 13:0 14:0 15:0 16:1 17:0 18:1 19:0 20:0 21:0 22:0 23:0 24:0 25:0 26:0 27:0 28:0 29:1 30:0 31:0 32:0 33:0 #
-0.037916185202732877 1:1 2:0 3:0.40000001 4:1 5:0.02 6:0 7:1 8:0 9:0 10:0.50999999 11:1 12:0 13:0 14:0 15:0 16:1 17:0 18:0 19:0 20:0 21:0 22:0 23:0 24:1 25:0 26:0 27:1 28:0 29:0 30:0 31:0 32:0 33:0 #
0.12983843654660221 1:0 2:1 3:0.41999999 4:0 5:0 6:0 7:1 8:1 9:0 10:0.18000001 11:0 12:1 13:0 14:0 15:0 16:0 17:1 18:0 19:1 20:0 21:0 22:0 23:0 24:0 25:0 26:0 27:0 28:0 29:1 30:0 31:0 32:0 33:0 #
-0.12983843654660221 1:0 2:1 3:0.22 4:0 5:0 6:0 7:1 8:1 9:0 10:0.85000002 11:0 12:1 13:0 14:0 15:1 16:1 17:0 18:0 19:1 20:0 21:0 22:0 23:0 24:0 25:0 26:0 27:1 28:0 29:0 30:0 31:0 32:0 33:0 #
-0.12983843654660221 1:0 2:1 3:0.039999999 4:0 5:0 6:0 7:1 8:1 9:0 10:0.0099999998 11:0 12:1 13:0 14:0 15:0 16:1 17:0 18:0 19:1 20:0 21:0 22:0 23:0 24:0 25:0 26:0 27:1 28:0 29:0 30:0 31:0 32:0 33:0 #
-0.12983843654660221 1:0 2:1 3:0.30000001 4:0 5:0 6:0 7:1 8:1 9:0 10:0.0099999998 11:0 12:1 13:0 14:0 15:0 16:1 17:0 18:0 19:1 20:0 21:0 22:0 23:0 24:0 25:0 26:0 27:1 28:0 29:0 30:0 31:0 32:0 33:0 #
0.12983843654660221 1:1 2:0 3:0.75999999 4:1 5:0.02 6:0 7:1 8:0 9:1 10:0.090000004 11:1 12:0 13:0 14:0 15:1 16:1 17:0 18:0 19:0 20:0 21:0 22:0 23:0 24:0 25:0 26:0 27:0 28:0 29:0 30:1 31:0 32:0 33:0 #
0.12983843654660221 1:1 2:0 3:0.68000001 4:1 5:0.02 6:0 7:1 8:0 9:1 10:0.090000004 11:1 12:0 13:0 14:0 15:1 16:1 17:0 18:0 19:0 20:0 21:0 22:0 23:0 24:0 25:0 26:0 27:0 28:0 29:0 30:1 31:0 32:0 33:0 #
0.12983843654660221 1:1 2:0 3:0.18000001 4:1 5:0.02 6:0 7:1 8:0 9:1 10:0.02 11:1 12:0 13:0 14:0 15:1 16:1 17:0 18:0 19:0 20:0 21:0 22:0 23:0 24:0 25:0 26:0 27:0 28:0 29:0 30:1 31:0 32:0 33:0 #
-0.12983843654660221 1:1 2:0 3:0.62 4:1 5:0.02 6:0 7:1 8:0 9:1 10:0.02 11:1 12:0 13:0 14:0 15:1 16:1 17:0 18:0 19:0 20:0 21:0 22:0 23:0 24:0 25:0 26:0 27:0 28:0 29:0 30:1 31:0 32:0 33:0 #
-0.12983843654660221 1:1 2:0 3:0.2 4:1 5:0.02 6:0 7:1 8:0 9:1 10:0.0099999998 11:1 12:0 13:0 14:0 15:0 16:1 17:0 18:0 19:0 20:0 21:0 22:0 23:0 24:0 25:0 26:0 27:0 28:0 29:0 30:1 31:0 32:0 33:0 #
-0.12983843654660221 1:1 2:0 3:0.36000001 4:1 5:0.02 6:0 7:1 8:0 9:1 10:0.0099999998 11:1 12:0 13:1 14:0 15:0 16:0 17:1 18:1 19:0 20:0 21:0 22:0 23:0 24:1 25:0 26:0 27:0 28:0 29:0 30:1 31:0 32:0 33:0 #
0.12983843654660221 1:0 2:1 3:0.14 4:0 5:0 6:0 7:1 8:1 9:0 10:0.0099999998 11:0 12:1 13:0 14:0 15:0 16:1 17:1 18:0 19:1 20:0 21:0 22:0 23:0 24:0 25:0 26:0 27:0 28:0 29:1 30:0 31:0 32:0 33:0 #
0.12983843654660221 1:0 2:1 3:0.1 4:0 5:0 6:0 7:1 8:1 9:0 10:0.0099999998 11:0 12:0 13:0 14:1 15:0 16:1 17:1 18:0 19:0 20:0 21:0 22:0 23:0 24:0 25:0 26:0 27:1 28:0 29:0 30:0 31:0 32:0 33:1 #
0.12983843654660221 1:0 2:1 3:0.2 4:0 5:0 6:0 7:1 8:1 9:0 10:0.0099999998 11:0 12:0 13:0 14:0 15:0 16:1 17:1 18:0 19:1 20:0 21:0 22:0 23:0 24:0 25:0 26:0 27:1 28:0 29:0 30:0 31:0 32:0 33:0 #
0.12983843654660221 1:0 2:1 3:0.14 4:0 5:0 6:0 7:1 8:1 9:0 10:0.0099999998 11:0 12:0 13:0 14:0 15:0 16:1 17:1 18:0 19:1 20:0 21:0 22:0 23:0 24:0 25:0 26:0 27:1 28:0 29:0 30:0 31:0 32:0 33:0 #
-0.12983843654660221 1:0 2:1 3:0.02 4:0 5:0 6:0 7:1 8:1 9:0 10:0.1 11:0 12:0 13:0 14:0 15:0 16:1 17:1 18:0 19:1 20:0 21:0 22:0 23:0 24:0 25:0 26:0 27:1 28:0 29:0 30:0 31:0 32:0 33:0 #
-0.12983843654660221 1:0 2:1 3:0.059999999 4:0 5:0 6:0 7:1 8:1 9:0 10:0.059999999 11:0 12:0 13:0 14:0 15:1 16:1 17:0 18:0 19:0 20:0 21:0 22:0 23:0 24:0 25:0 26:0 27:1 28:0 29:0 30:0 31:0 32:0 33:0 #
-0.12983843654660221 1:1 2:0 3:0.51999998 4:1 5:0.02 6:0 7:1 8:1 9:0 10:0.15000001 11:0 12:0 13:0 14:1 15:0 16:1 17:0 18:0 19:0 20:0 21:0 22:0 23:0 24:0 25:1 26:1 27:0 28:1 29:0 30:0 31:0 32:0 33:1 #
0.12983843654660221 1:1 2:0 3:0.60000002 4:1 5:0.02 6:0 7:1 8:0 9:1 10:0.0099999998 11:0 12:0 13:0 14:0 15:0 16:1 17:0 18:0 19:0 20:0 21:0 22:0 23:0 24:0 25:0 26:0 27:0 28:0 29:0 30:1 31:0 32:0 33:0 #
0.12983843654660221 1:1 2:1 3:0.039999999 4:0 5:0 6:0 7:1 8:0 9:1 10:0.02 11:1 12:0 13:0 14:0 15:1 16:1 17:0 18:0 19:0 20:0 21:0 22:0 23:0 24:0 25:0 26:0 27:0 28:0 29:0 30:1 31:0 32:0 33:0 #
-0.12983843654660221 1:1 2:0 3:0.039999999 4:1 5:0.02 6:0 7:1 8:1 9:0 10:0.13 11:1 12:0 13:0 14:1 15:0 16:1 17:0 18:0 19:0 20:0 21:0 22:0 23:0 24:0 25:0 26:1 27:0 28:1 29:0 30:0 31:0 32:0 33:1 #
-0.12983843654660221 1:1 2:0 3:0.16 4:1 5:0.02 6:0 7:1 8:1 9:0 10:0.85000002 11:1 12:0 13:0 14:0 15:1 16:1 17:0 18:0 19:1 20:0 21:0 22:0 23:0 24:0 25:0 26:0 27:0 28:1 29:0 30:0 31:0 32:0 33:0 #
-0.12983843654660221 1:1 2:1 3:0.34 4:0 5:0 6:0 7:1 8:0 9:0 10:0.0099999998 11:1 12:1 13:1 14:0 15:0 16:1 17:0 18:0 19:0 20:0 21:0 22:0 23:0 24:1 25:0 26:0 27:0 28:0 29:0 30:1 31:0 32:0 33:0 #
0.12983843654660221 1:1 2:0 3:0.38 4:1 5:0.02 6:0 7:1 8:0 9:0 10:0.059999999 11:1 12:0 13:0 14:0 15:0 16:1 17:0 18:0 19:0 20:0 21:0 22:0 23:0 24:0 25:0 26:0 27:1 28:0 29:0 30:0 31:0 32:0 33:0 #
0.12983843654660221 1:1 2:0 3:0.54000002 4:0 5:0.039999999 6:0 7:1 8:1 9:0 10:0.0099999998 11:1 12:0 13:0 14:0 15:1 16:1 17:0 18:0 19:0 20:0 21:0 22:0 23:0 24:0 25:0 26:0 27:1 28:0 29:0 30:0 31:0 32:0 33:0 #
-0.12983843654660221 1:0 2:1 3:0.02 4:0 5:0 6:0 7:1 8:0 9:0 10:0.0099999998 11:1 12:0 13:0 14:0 15:1 16:1 17:0 18:0 19:0 20:0 21:0 22:0 23:0 24:0 25:0 26:0 27:1 28:0 29:0 30:0 31:0 32:0 33:0 #
0.12983843654660221 1:1 2:0 3:0.079999998 4:1 5:0.02 6:0 7:1 8:1 9:0 10:0.029999999 11:0 12:0 13:0 14:1 15:0 16:1 17:0 18:0 19:0 20:0 21:0 22:0 23:0 24:0 25:1 26:0 27:0 28:1 29:0 30:0 31:0 32:0 33:0 #
-0.12983843654660221 1:1 2:0 3:1.1799999 4:0 5:0.039999999 6:0 7:1 8:0 9:0 10:0.0099999998 11:1 12:0 13:0 14:0 15:0 16:1 17:0 18:0 19:0 20:0 21:0 22:0 23:0 24:1 25:0 26:0 27:0 28:0 29:0 30:1 31:0 32:0 33:0 #
0.12983843654660221 1:0 2:1 3:0.25999999 4:0 5:0 6:0 7:1 8:1 9:0 10:0.12 11:1 12:0 13:0 14:0 15:1 16:1 17:0 18:0 19:1 20:0 21:0 22:0 23:0 24:0 25:0 26:0 27:0 28:1 29:0 30:0 31:0 32:0 33:0 #
-0.12983843654660221 1:1 2:1 3:0.12 4:0 5:0 6:0 7:1 8:0 9:0 10:0.029999999 11:1 12:0 13:0 14:0 15:1 16:1 17:0 18:0 19:1 20:0 21:0 22:0 23:0 24:0 25:0 26:0 27:0 28:0 29:0 30:1 31:0 32:0 33:0 #
-0.12983843654660221 1:0 2:1 3:0.1 4:0 5:0 6:0 7:1 8:1 9:0 10:0.029999999 11:1 12:0 13:0 14:0 15:1 16:1 17:0 18:0 19:1 20:0 21:0 22:0 23:0 24:0 25:0 26:0 27:1 28:0 29:0 30:0 31:0 32:0 33:0 #
-0.12983843654660221 1:0 2:1 3:0.12 4:0 5:0 6:0 7:1 8:1 9:0 10:0.15000001 11:1 12:0 13:0 14:0 15:1 16:1 17:0 18:0 19:1 20:0 21:0 22:0 23:0 24:0 25:0 26:0 27:1 28:0 29:0 30:0 31:0 32:0 33:0 #
-0.12983843654660221 1:0 2:1 3:0.059999999 4:0 5:0 6:0 7:1 8:0 9:0 10:0.0099999998 11:1 12:0 13:0 14:0 15:0 16:1 17:0 18:0 19:1 20:0 21:0 22:0 23:0 24:0 25:0 26:0 27:0 28:0 29:0 30:1 31:0 32:0 33:0 #
0.12983843654660221 1:1 2:0 3:0.22 4:1 5:0.02 6:0 7:1 8:1 9:0 10:1.05 11:0 12:0 13:0 14:0 15:0 16:1 17:1 18:0 19:0 20:0 21:0 22:0 23:0 24:0 25:0 26:0 27:1 28:0 29:0 30:0 31:0 32:0 33:0 #
0.12983843654660221 1:1 2:0 3:0.34 4:1 5:0.02 6:0 7:1 8:1 9:0 10:0.18000001 11:0 12:0 13:0 14:0 15:0 16:1 17:1 18:0 19:0 20:0 21:0 22:0 23:0 24:1 25:0 26:0 27:0 28:0 29:1 30:0 31:0 32:0 33:0 #
0.12983843654660221 1:1 2:0 3:0.22 4:1 5:0.02 6:1 7:1 8:1 9:0 10:0.0099999998 11:0 12:0 13:0 14:0 15:0 16:1 17:1 18:1 19:0 20:0 21:0 22:0 23:0 24:0 25:0 26:0 27:1 28:0 29:0 30:0 31:0 32:0 33:0 #
0.12983843654660221 1:1 2:1 3:0.36000001 4:0 5:0 6:0 7:1 8:1 9:0 10:0.050000001 11:1 12:0 13:0 14:0 15:0 16:1 17:0 18:0 19:1 20:0 21:0 22:0 23:0 24:0 25:0 26:0 27:1 28:0 29:0 30:0 31:0 32:0 33:0 #
-0.12983843654660221 1:1 2:1 3:0.16 4:0 5:0 6:0 7:1 8:1 9:0 10:0.02 11:0 12:0 13:0 14:0 15:0 16:1 17:1 18:0 19:0 20:0 21:0 22:0 23:0 24:1 25:0 26:0 27:0 28:0 29:1 30:0 31:0 32:0 33:0 #
-0.12983843654660221 1:1 2:0 3:1.98 4:0 5:0.059999999 6:0 7:1 8:0 9:0 10:0.19 11:1 12:0 13:0 14:0 15:1 16:1 17:0 18:0 19:0 20:0 21:0 22:0 23:0 24:0 25:0 26:0 27:0 28:0 29:0 30:1 31:0 32:0 33:0 #
0.12983843654660221 1:0 2:1 3:0.46000001 4:0 5:0 6:0 7:1 8:0 9:1 10:0.0099999998 11:1 12:0 13:0 14:0 15:1 16:1 17:0 18:0 19:0 20:0 21:0 22:0 23:1 24:1 25:0 26:0 27:0 28:0 29:0 30:1 31:0 32:0 33:0 #
0.12983843654660221 1:1 2:1 3:0.2 4:0 5:0 6:0 7:1 8:1 9:0 10:0.039999999 11:1 12:0 13:0 14:0 15:0 16:1 17:0 18:0 19:1 20:0 21:0 22:0 23:0 24:0 25:0 26:0 27:1 28:0 29:0 30:0 31:0 32:0 33:0 #
-0.12983843654660221 1:0 2:1 3:0.1 4:0 5:0 6:0 7:1 8:1 9:0 10:0.0099999998 11:1 12:0 13:0 14:0 15:1 16:1 17:0 18:0 19:0 20:0 21:0 22:0 23:0 24:0 25:0 26:0 27:0 28:1 29:0 30:0 31:0 32:0 33:0 #
0.12983843654660221 1:1 2:0 3:0.57999998 4:1 5:0.02 6:0 7:1 8:1 9:0 10:0.050000001 11:0 12:0 13:0 14:0 15:0 16:1 17:1 18:0 19:1 20:0 21:0 22:0 23:0 24:0 25:0 26:0 27:1 28:0 29:0 30:0 31:0 32:0 33:0 #
-0.07921530444132506 1:1 2:0 3:0.079999998 4:1 5:0.02 6:1 7:1 8:1 9:0 10:0.0099999998 11:0 12:0 13:0 14:0 15:0 16:1 17:1 18:0 19:1 20:0 21:0 22:0 23:0 24:0 25:0 26:0 27:1 28:0 29:0 30:0 31:0 32:0 33:0 #
-0.12983843654660221 1:1 2:1 3:0.059999999 4:0 5:0 6:0 7:1 8:1 9:0 10:0.0099999998 11:0 12:0 13:0 14:0 15:0 16:1 17:1 18:0 19:0 20:0 21:0 22:0 23:0 24:1 25:0 26:0 27:0 28:0 29:1 30:0 31:0 32:0 33:0 #
-0.12983843654660221 1:1 2:0 3:0.059999999 4:1 5:0.02 6:0 7:1 8:1 9:0 10:0.0099999998 11:0 12:0 13:0 14:0 15:0 16:1 17:1 18:0 19:1 20:0 21:0 22:0 23:0 24:0 25:0 26:0 27:1 28:0 29:0 30:0 31:0 32:0 33:0 #
0.12983843654660221 1:0 2:1 3:0.23999999 4:0 5:0 6:0 7:1 8:0 9:0 10:0.02 11:1 12:0 13:0 14:0 15:1 16:1 17:0 18:0 19:0 20:0 21:0 22:0 23:0 24:0 25:0 26:0 27:0 28:0 29:1 30:0 31:0 32:0 33:0 #
0.12983843654660221 1:0 2:1 3:0.2 4:0 5:0 6:0 7:1 8:0 9:0 10:0.0099999998 11:1 12:0 13:0 14:0 15:1 16:1 17:0 18:0 19:0 20:0 21:0 22:0 23:0 24:0 25:0 26:0 27:0 28:0 29:1 30:0 31:0 32:0 33:0 #
0.12983843654660221 1:1 2:1 3:0.46000001 4:0 5:0 6:0 7:1 8:0 9:1 10:0.0099999998 11:1 12:0 13:0 14:0 15:1 16:1 17:0 18:0 19:0 20:0 21:0 22:0 23:0 24:1 25:0 26:0 27:0 28:0 29:0 30:1 31:0 32:0 33:0 #
-0.12983843654660221 1:0 2:1 3:0.039999999 4:0 5:0 6:0 7:1 8:0 9:0 10:0.02 11:1 12:0 13:0 14:0 15:1 16:1 17:0 18:0 19:0 20:0 21:0 22:0 23:0 24:0 25:0 26:0 27:0 28:0 29:1 30:0 31:0 32:0 33:0 #
0.12983843654660221 1:1 2:0 3:0.57999998 4:1 5:0.02 6:0 7:1 8:1 9:0 10:0.050000001 11:0 12:0 13:0 14:0 15:0 16:1 17:1 18:0 19:1 20:0 21:0 22:0 23:0 24:0 25:0 26:0 27:1 28:0 29:0 30:0 31:0 32:0 33:0 #
-0.12983843654660221 1:1 2:0 3:0.039999999 4:1 5:0.02 6:0 7:1 8:0 9:1 10:0.1 11:0 12:0 13:0 14:1 15:0 16:1 17:0 18:0 19:0 20:0 21:0 22:0 23:0 24:0 25:0 26:0 27:0 28:0 29:0 30:1 31:0 32:0 33:0 #
-0.12983843654660221 1:1 2:1 3:0.14 4:0 5:0 6:0 7:1 8:0 9:1 10:0.28999999 11:0 12:0 13:0 14:0 15:0 16:1 17:1 18:0 19:0 20:0 21:0 22:0 23:0 24:0 25:0 26:0 27:0 28:0 29:0 30:1 31:0 32:0 33:0 #
0.12983843654660221 1:1 2:0 3:0.28 4:1 5:0.02 6:0 7:1 8:1 9:0 10:0.0099999998 11:0 12:0 13:0 14:0 15:0 16:0 17:0 18:0 19:0 20:0 21:0 22:0 23:0 24:0 25:0 26:0 27:1 28:0 29:0 30:0 31:0 32:0 33:0 #
0.12983843654660221 1:1 2:1 3:0.40000001 4:0 5:0 6:0 7:1 8:0 9:1 10:0.0099999998 11:0 12:0 13:0 14:0 15:0 16:1 17:1 18:0 19:0 20:0 21:0 22:0 23:0 24:0 25:0 26:0 27:0 28:0 29:0 30:1 31:0 32:0 33:0 #
-0.12983843654660221 1:0 2:1 3:0.22 4:0 5:0 6:0 7:1 8:1 9:0 10:0.22 11:0 12:0 13:0 14:0 15:0 16:1 17:1 18:0 19:0 20:0 21:0 22:0 23:0 24:0 25:0 26:0 27:1 28:0 29:0 30:0 31:0 32:0 33:0 #
-0.12983843654660221 1:1 2:0 3:0.25999999 4:1 5:0.02 6:0 7:1 8:1 9:0 10:0.0099999998 11:1 12:0 13:0 14:0 15:0 16:0 17:0 18:0 19:1 20:0 21:0 22:0 23:0 24:0 25:0 26:0 27:0 28:0 29:1 30:0 31:0 32:0 33:0 #
-0.12983843654660221 1:1 2:0 3:0.18000001 4:1 5:0.02 6:0 7:1 8:1 9:0 10:0.0099999998 11:0 12:0 13:0 14:0 15:0 16:1 17:0 18:0 19:1 20:0 21:0 22:0 23:0 24:0 25:0 26:0 27:1 28:0 29:0 30:0 31:0 32:0 33:0 #
0.12983843654660221 1:1 2:1 3:0.14 4:0 5:0 6:0 7:1 8:0 9:0 10:0.0099999998 11:1 12:0 13:0 14:0 15:0 16:1 17:1 18:1 19:0 20:0 21:0 22:0 23:0 24:1 25:0 26:0 27:0 28:0 29:0 30:1 31:0 32:0 33:0 #
0.12983843654660221 1:0 2:1 3:0.14 4:0 5:0 6:0 7:1 8:0 9:0 10:0.0099999998 11:0 12:0 13:0 14:1 15:0 16:1 17:0 18:0 19:1 20:0 21:0 22:0 23:0 24:0 25:1 26:1 27:0 28:0 29:0 30:1 31:0 32:0 33:1 #
0.12983843654660221 1:1 2:1 3:0.079999998 4:0 5:0 6:0 7:1 8:0 9:0 10:0.0099999998 11:1 12:0 13:0 14:0 15:0 16:1 17:0 18:1 19:0 20:0 21:0 22:0 23:0 24:1 25:0 26:0 27:0 28:0 29:0 30:1 31:0 32:0 33:0 #
-0.12983843654660221 1:0 2:1 3:0.059999999 4:0 5:0 6:0 7:1 8:0 9:1 10:0.0099999998 11:0 12:0 13:0 14:0 15:1 16:1 17:0 18:0 19:0 20:0 21:0 22:0 23:0 24:1 25:0 26:0 27:0 28:0 29:0 30:1 31:0 32:0 33:0 #
0.12983843654660221 1:1 2:0 3:0.16 4:1 5:0.02 6:0 7:1 8:1 9:0 10:0.0099999998 11:0 12:0 13:0 14:0 15:0 16:0 17:0 18:0 19:0 20:0 21:0 22:0 23:0 24:0 25:0 26:0 27:1 28:0 29:0 30:0 31:0 32:0 33:0 #
0.12983843654660221 1:1 2:0 3:0.14 4:1 5:0.02 6:0 7:1 8:1 9:0 10:0.0099999998 11:0 12:0 13:0 14:0 15:0 16:0 17:0 18:0 19:0 20:0 21:0 22:0 23:0 24:0 25:0 26:0 27:1 28:0 29:0 30:0 31:0 32:0 33:0 #
-0.12983843654660221 1:1 2:0 3:0.36000001 4:1 5:0.02 6:0 7:1 8:0 9:0 10:0.0099999998 11:1 12:0 13:0 14:0 15:0 16:1 17:1 18:1 19:0 20:0 21:0 22:0 23:0 24:0 25:0 26:0 27:0 28:0 29:0 30:1 31:0 32:0 33:0 #
0.12983843654660221 1:0 2:1 3:0.079999998 4:0 5:0 6:0 7:1 8:1 9:0 10:0.16 11:0 12:1 13:0 14:0 15:1 16:1 17:0 18:0 19:0 20:0 21:0 22:0 23:0 24:1 25:0 26:0 27:0 28:0 29:1 30:0 31:0 32:0 33:0 #
-0.12983843654660221 1:0 2:1 3:0.039999999 4:0 5:0 6:0 7:1 8:1 9:0 10:0.0099999998 11:0 12:1 13:0 14:0 15:1 16:1 17:0 18:0 19:0 20:0 21:0 22:0 23:0 24:1 25:0 26:0 27:0 28:0 29:1 30:0 31:0 32:0 33:0 #
-0.12983843654660221 1:0 2:1 3:0.02 4:0 5:0 6:0 7:1 8:1 9:0 10:0.029999999 11:0 12:0 13:0 14:0 15:0 16:1 17:1 18:0 19:0 20:0 21:0 22:0 23:0 24:0 25:0 26:0 27:1 28:0 29:0 30:0 31:0 32:0 33:0 #
0.12983843654660221 1:1 2:0 3:0.62 4:0 5:0.039999999 6:0 7:1 8:1 9:0 10:0.090000004 11:1 12:0 13:0 14:1 15:0 16:1 17:0 18:0 19:0 20:0 21:0 22:0 23:0 24:0 25:0 26:1 27:1 28:0 29:0 30:0 31:0 32:0 33:0 #
0.12983843654660221 1:1 2:0 3:0.44 4:1 5:0.02 6:0 7:1 8:1 9:0 10:0.0099999998 11:0 12:0 13:0 14:0 15:0 16:1 17:1 18:0 19:1 20:0 21:0 22:0 23:0 24:0 25:0 26:0 27:1 28:0 29:0 30:0 31:0 32:0 33:0 #
0.12983843654660221 1:0 2:1 3:0.25999999 4:0 5:0 6:0 7:1 8:1 9:0 10:0.0099999998 11:1 12:0 13:0 14:0 15:0 16:1 17:1 18:0 19:1 20:0 21:0 22:0 23:0 24:0 25:0 26:0 27:1 28:0 29:0 30:0 31:0 32:0 33:0 #
0.12983843654660221 1:0 2:1 3:0.56 4:0 5:0 6:0 7:1 8:0 9:1 10:0.02 11:1 12:0 13:0 14:0 15:1 16:1 17:0 18:0 19:0 20:0 21:0 22:0 23:0 24:0 25:0 26:0 27:0 28:0 29:0 30:1 31:0 32:0 33:0 #
-0.12983843654660221 1:1 2:0 3:0.18000001 4:1 5:0.02 6:0 7:1 8:1 9:0 10:0.02 11:1 12:0 13:0 14:0 15:1 16:1 17:0 18:0 19:0 20:0 21:0 22:0 23:0 24:1 25:0 26:0 27:1 28:0 29:0 30:0 31:0 32:0 33:0 #
-0.12983843654660221 1:1 2:1 3:0 4:0 5:0 6:0 7:1 8:0 9:1 10:0.0099999998 11:0 12:0 13:0 14:0 15:0 16:1 17:1 18:0 19:0 20:0 21:0 22:0 23:0 24:0 25:0 26:0 27:0 28:0 29:0 30:1 31:0 32:0 33:0 #
-0.12983843654660221 1:1 2:1 3:0.12 4:0 5:0 6:0 7:1 8:0 9:1 10:0.0099999998 11:0 12:0 13:0 14:0 15:0 16:1 17:1 18:0 19:0 20:0 21:0 22:0 23:0 24:0 25:0 26:0 27:0 28:0 29:0 30:1 31:0 32:0 33:0 #
-0.12983843654660221 1:1 2:0 3:0.56 4:1 5:0.02 6:0 7:1 8:1 9:0 10:0.58999997 11:1 12:0 13:0 14:0 15:1 16:1 17:0 18:1 19:0 20:0 21:0 22:0 23:0 24:0 25:0 26:0 27:1 28:0 29:0 30:0 31:0 32:0 33:0 #
-0.12983843654660221 1:1 2:0 3:0.44 4:1 5:0.02 6:0 7:1 8:1 9:0 10:0.050000001 11:1 12:0 13:0 14:0 15:1 16:1 17:0 18:1 19:0 20:0 21:0 22:0 23:0 24:0 25:0 26:0 27:1 28:0 29:0 30:0 31:0 32:0 33:0 #
-0.12983843654660221 1:1 2:0 3:0.75999999 4:1 5:0.02 6:0 7:1 8:1 9:0 10:0.02 11:1 12:0 13:0 14:0 15:1 16:1 17:0 18:0 19:0 20:0 21:0 22:0 23:0 24:0 25:0 26:0 27:1 28:0 29:0 30:0 31:0 32:0 33:0 #
0.12983843654660221 1:1 2:1 3:0.079999998 4:0 5:0 6:0 7:1 8:0 9:0 10:0.02 11:0 12:0 13:0 14:0 15:0 16:0 17:1 18:1 19:0 20:0 21:0 22:0 23:0 24:0 25:0 26:0 27:0 28:0 29:0 30:1 31:0 32:0 33:0 #
0.12983843654660221 1:0 2:1 3:0.079999998 4:0 5:0 6:0 7:1 8:0 9:1 10:0.0099999998 11:0 12:0 13:0 14:0 15:0 16:1 17:1 18:0 19:0 20:0 21:0 22:0 23:0 24:1 25:0 26:0 27:0 28:0 29:0 30:1 31:0 32:0 33:0 #
-0.12983843654660221 1:0 2:1 3:0.34 4:0 5:0 6:0 7:1 8:0 9:1 10:0.0099999998 11:0 12:1 13:0 14:0 15:0 16:0 17:1 18:0 19:0 20:0 21:0 22:0 23:0 24:0 25:0 26:0 27:0 28:0 29:0 30:1 31:0 32:0 33:0 #
0.12983843654660221 1:1 2:0 3:0.44 4:1 5:0.02 6:0 7:1 8:1 9:0 10:1.05 11:1 12:0 13:0 14:0 15:1 16:1 17:0 18:0 19:0 20:0 21:0 22:0 23:0 24:0 25:0 26:0 27:1 28:0 29:0 30:0 31:0 32:0 33:0 #
-0.12983843654660221 1:0 2:1 3:0.2 4:0 5:0 6:0 7:1 8:0 9:0 10:0.23 11:0 12:0 13:0 14:0 15:0 16:1 17:1 18:0 19:0 20:0 21:0 22:0 23:0 24:1 25:0 26:0 27:0 28:0 29:0 30:1 31:0 32:0 33:0 #
-0.12983843654660221 1:0 2:1 3:0.039999999 4:0 5:0 6:0 7:1 8:1 9:0 10:0.0099999998 11:0 12:0 13:0 14:0 15:0 16:1 17:0 18:0 19:0 20:0 21:0 22:0 23:0 24:1 25:0 26:0 27:1 28:0 29:0 30:0 31:0 32:0 33:0 #
-0.12983843654660221 1:0 2:1 3:0.2 4:0 5:0 6:0 7:1 8:0 9:0 10:0.28999999 11:0 12:0 13:0 14:0 15:0 16:1 17:0 18:0 19:0 20:0 21:0 22:0 23:0 24:1 25:0 26:0 27:0 28:0 29:0 30:1 31:0 32:0 33:0 #
0.12983843654660221 1:1 2:0 3:0.25999999 4:1 5:0.02 6:0 7:1 8:1 9:0 10:0.11 11:1 12:0 13:0 14:0 15:1 16:1 17:0 18:0 19:1 20:0 21:0 22:0 23:0 24:0 25:0 26:0 27:1 28:0 29:0 30:0 31:0 32:0 33:0 #
0.12983843654660221 1:1 2:0 3:0.22 4:1 5:0.02 6:0 7:1 8:1 9:0 10:0.20999999 11:1 12:0 13:0 14:0 15:1 16:1 17:0 18:0 19:0 20:0 21:0 22:0 23:0 24:0 25:0 26:0 27:1 28:0 29:0 30:0 31:0 32:0 33:0 #
0.12983843654660221 1:1 2:0 3:0.62 4:1 5:0.02 6:0 7:1 8:1 9:0 10:0.0099999998 11:1 12:0 13:0 14:0 15:0 16:1 17:0 18:0 19:1 20:0 21:0 22:0 23:0 24:0 25:0 26:0 27:1 28:0 29:0 30:0 31:0 32:0 33:0 #
-0.12983843654660221 1:1 2:0 3:0.46000001 4:1 5:0.02 6:0 7:1 8:1 9:0 10:0.85000002 11:1 12:0 13:0 14:0 15:1 16:1 17:0 18:0 19:1 20:0 21:0 22:0 23:0 24:0 25:0 26:0 27:0 28:1 29:0 30:0 31:0 32:0 33:0 #
0.12983843654660221 1:0 2:1 3:0.12 4:0 5:0 6:0 7:1 8:0 9:1 10:0.0099999998 11:0 12:0 13:0 14:0 15:0 16:1 17:1 18:0 19:0 20:0 21:0 22:0 23:0 24:1 25:0 26:0 27:0 28:0 29:0 30:1 31:0 32:0 33:0 #
0.12983843654660221 1:1 2:1 3:0.18000001 4:0 5:0 6:0 7:1 8:1 9:0 10:1.8200001 11:0 12:0 13:0 14:0 15:0 16:1 17:1 18:0 19:1 20:0 21:0 22:0 23:0 24:0 25:0 26:0 27:1 28:0 29:0 30:0 31:0 32:0 33:0 #
-0.12983843654660221 1:0 2:1 3:0.1 4:0 5:0 6:0 7:1 8:0 9:1 10:0.0099999998 11:0 12:0 13:0 14:0 15:1 16:1 17:0 18:0 19:0 20:0 21:0 22:0 23:0 24:1 25:0 26:0 27:0 28:0 29:0 30:1 31:0 32:0 33:0 #
0.12983843654660221 1:1 2:0 3:0.34 4:1 5:0.02 6:0 7:1 8:1 9:0 10:0.0099999998 11:0 12:0 13:0 14:0 15:0 16:1 17:1 18:0 19:1 20:0 21:0 22:0 23:0 24:0 25:0 26:0 27:1 28:0 29:0 30:0 31:0 32:0 33:0 #
-0.12983843654660221 1:1 2:1 3:0.02 4:0 5:0 6:0 7:1 8:1 9:0 10:0.0099999998 11:1 12:0 13:0 14:0 15:1 16:1 17:0 18:0 19:0 20:0 21:0 22:0 23:0 24:0 25:0 26:0 27:1 28:0 29:0 30:0 31:0 32:0 33:0 #
-0.12983843654660221 1:1 2:1 3:0.14 4:0 5:0 6:0 7:1 8:1 9:0 10:0.15000001 11:1 12:0 13:0 14:0 15:1 16:1 17:0 18:0 19:0 20:0 21:0 22:0 23:0 24:0 25:0 26:0 27:1 28:0 29:0 30:0 31:0 32:0 33:0 #
-0.12983843654660221 1:1 2:1 3:0.22 4:0 5:0 6:0 7:1 8:1 9:0 10:0.18000001 11:1 12:0 13:0 14:0 15:1 16:1 17:0 18:0 19:1 20:0 21:0 22:0 23:0 24:0 25:0 26:0 27:1 28:0 29:0 30:0 31:0 32:0 33:0 #
-0.12983843654660221 1:1 2:1 3:0.46000001 4:0 5:0 6:0 7:1 8:1 9:0 10:0.0099999998 11:1 12:0 13:0 14:0 15:1 16:1 17:0 18:0 19:0 20:0 21:0 22:0 23:0 24:0 25:0 26:0 27:1 28:0 29:0 30:0 31:0 32:0 33:0 #
0.12983843654660221 1:0 2:1 3:0.12 4:0 5:0 6:0 7:1 8:1 9:0 10:0.0099999998 11:0 12:0 13:0 14:0 15:0 16:1 17:1 18:0 19:1 20:0 21:0 22:0 23:0 24:0 25:0 26:0 27:0 28:1 29:0 30:0 31:0 32:0 33:0 #
0.12983843654660221 1:1 2:1 3:0.16 4:0 5:0 6:0 7:1 8:1 9:0 10:0.0099999998 11:0 12:0 13:0 14:0 15:0 16:1 17:1 18:1 19:0 20:0 21:0 22:0 23:0 24:0 25:0 26:0 27:0 28:1 29:0 30:0 31:0 32:0 33:0 #
0.12983843654660221 1:1 2:0 3:0.28 4:1 5:0.02 6:0 7:1 8:0 9:1 10:0.0099999998 11:0 12:1 13:0 14:1 15:0 16:1 17:0 18:0 19:0 20:0 21:0 22:0 23:0 24:0 25:0 26:0 27:0 28:0 29:0 30:1 31:0 32:0 33:0 #
-0.12983843654660221 1:1 2:0 3:0.22 4:1 5:0.02 6:0 7:1 8:0 9:1 10:0.0099999998 11:0 12:0 13:0 14:0 15:0 16:0 17:1 18:1 19:0 20:0 21:0 22:0 23:0 24:0 25:0 26:0 27:0 28:0 29:0 30:1 31:0 32:0 33:0 #
-0.12983843654660221 1:0 2:1 3:0.039999999 4:0 5:0 6:0 7:1 8:1 9:0 10:0.059999999 11:0 12:1 13:0 14:0 15:0 16:1 17:0 18:0 19:1 20:0 21:0 22:0 23:0 24:0 25:0 26:0 27:0 28:0 29:1 30:0 31:0 32:0 33:0 #
0.12983843654660221 1:1 2:1 3:0.12 4:0 5:0 6:0 7:1 8:0 9:0 10:0.0099999998 11:1 12:0 13:0 14:0 15:1 16:1 17:0 18:0 19:0 20:0 21:0 22:0 23:0 24:0 25:0 26:0 27:0 28:0 29:0 30:1 31:0 32:0 33:0 #
-0.12983843654660221 1:1 2:0 3:0.039999999 4:1 5:0.02 6:0 7:1 8:1 9:0 10:0.13 11:1 12:0 13:0 14:1 15:0 16:1 17:0 18:0 19:0 20:0 21:0 22:0 23:0 24:0 25:0 26:1 27:0 28:1 29:0 30:0 31:0 32:0 33:1 #
-0.12983843654660221 1:1 2:0 3:0.039999999 4:1 5:0.02 6:0 7:1 8:0 9:1 10:0.1 11:0 12:0 13:0 14:1 15:0 16:1 17:0 18:0 19:0 20:0 21:0 22:0 23:0 24:0 25:0 26:0 27:0 28:0 29:0 30:1 31:0 32:0 33:0 #
-0.12983843654660221 1:1 2:0 3:0.12 4:1 5:0.02 6:0 7:1 8:0 9:1 10:0.1 11:0 12:0 13:0 14:1 15:0 16:1 17:0 18:0 19:0 20:0 21:0 22:0 23:0 24:0 25:0 26:0 27:0 28:0 29:0 30:1 31:0 32:0 33:0 #
0.12983843654660221 1:1 2:0 3:0.14 4:1 5:0.02 6:0 7:1 8:1 9:0 10:0.0099999998 11:0 12:0 13:0 14:0 15:1 16:1 17:0 18:0 19:0 20:0 21:0 22:0 23:0 24:0 25:0 26:0 27:1 28:0 29:0 30:0 31:0 32:0 33:0 #
-0.12983843654660221 1:0 2:1 3:0.079999998 4:0 5:0 6:0 7:1 8:1 9:0 10:0.28999999 11:0 12:0 13:0 14:0 15:0 16:1 17:0 18:1 19:0 20:0 21:0 22:0 23:0 24:1 25:0 26:0 27:0 28:1 29:0 30:0 31:0 32:0 33:0 #
0.12983843654660221 1:1 2:1 3:0.25999999 4:0 5:0 6:0 7:1 8:1 9:0 10:0.090000004 11:1 12:0 13:0 14:0 15:1 16:1 17:0 18:0 19:0 20:0 21:0 22:0 23:0 24:0 25:0 26:0 27:0 28:0 29:1 30:0 31:0 32:0 33:0 #
-0.12983843654660221 1:0 2:1 3:0.1 4:0 5:0 6:0 7:1 8:1 9:0 10:0.0099999998 11:1 12:0 13:0 14:0 15:1 16:1 17:0 18:0 19:0 20:0 21:0 22:0 23:0 24:0 25:0 26:0 27:0 28:0 29:1 30:0 31:0 32:0 33:0 #
0.12983843654660221 1:1 2:0 3:0.12 4:1 5:0.02 6:0 7:1 8:0 9:1 10:0.0099999998 11:0 12:0 13:0 14:1 15:0 16:1 17:0 18:0 19:0 20:0 21:0 22:0 23:0 24:0 25:0 26:0 27:0 28:0 29:0 30:1 31:0 32:0 33:0 #
-0.12983843654660221 1:1 2:1 3:0.23999999 4:0 5:0 6:0 7:1 8:1 9:0 10:0.18000001 11:0 12:0 13:0 14:0 15:0 16:1 17:1 18:0 19:0 20:0 21:0 22:0 23:0 24:1 25:0 26:0 27:0 28:0 29:1 30:0 31:0 32:0 33:0 #
-0.12983843654660221 1:1 2:1 3:0.079999998 4:0 5:0 6:0 7:1 8:1 9:0 10:0.0099999998 11:0 12:0 13:0 14:0 15:0 16:0 17:0 18:0 19:0 20:0 21:0 22:0 23:0 24:1 25:0 26:0 27:1 28:0 29:0 30:0 31:0 32:0 33:0 #
0.12983843654660221 1:0 2:1 3:0.039999999 4:0 5:0 6:0 7:1 8:0 9:1 10:0.0099999998 11:1 12:0 13:0 14:0 15:1 16:1 17:0 18:0 19:0 20:0 21:0 22:0 23:0 24:0 25:0 26:0 27:0 28:0 29:0 30:1 31:0 32:0 33:0 #
-0.12983843654660221 1:1 2:0 3:0.92000002 4:0 5:0.039999999 6:0 7:1 8:0 9:0 10:0.0099999998 11:1 12:0 13:0 14:0 15:0 16:1 17:1 18:0 19:1 20:0 21:0 22:0 23:0 24:0 25:0 26:0 27:0 28:0 29:0 30:1 31:0 32:0 33:0 #
0.12983843654660221 1:0 2:1 3:0.1 4:0 5:0 6:0 7:1 8:1 9:0 10:0.02 11:1 12:0 13:0 14:0 15:0 16:1 17:1 18:0 19:1 20:0 21:0 22:0 23:0 24:0 25:0 26:0 27:0 28:1 29:0 30:0 31:0 32:0 33:0 #
-0.084090399985781272 1:1 2:0 3:0.12 4:1 5:0.02 6:0 7:1 8:0 9:1 10:0.059999999 11:0 12:1 13:0 14:0 15:1 16:1 17:0 18:1 19:0 20:0 21:0 22:0 23:0 24:1 25:0 26:0 27:0 28:0 29:0 30:1 31:0 32:0 33:0 #
-0.12983843654660221 1:1 2:0 3:0.51999998 4:1 5:0.02 6:0 7:1 8:1 9:0 10:0.15000001 11:0 12:0 13:0 14:1 15:0 16:1 17:0 18:0 19:0 20:0 21:0 22:0 23:0 24:0 25:1 26:1 27:0 28:1 29:0 30:0 31:0 32:0 33:1 #
0.12983843654660221 1:1 2:0 3:0.1 4:1 5:0.02 6:0 7:1 8:1 9:0 10:0.0099999998 11:0 12:0 13:0 14:0 15:0 16:0 17:0 18:0 19:0 20:0 21:0 22:0 23:0 24:0 25:0 26:0 27:1 28:0 29:0 30:0 31:0 32:0 33:0 #
0.12983843654660221 1:1 2:1 3:0.41999999 4:0 5:0 6:0 7:1 8:1 9:0 10:0.0099999998 11:0 12:0 13:0 14:0 15:0 16:1 17:1 18:1 19:0 20:0 21:0 22:0 23:0 24:0 25:0 26:0 27:1 28:0 29:0 30:0 31:0 32:0 33:0 #
-0.12983843654660221 1:0 2:1 3:0.039999999 4:0 5:0 6:0 7:1 8:1 9:0 10:0.58999997 11:0 12:0 13:0 14:0 15:0 16:1 17:1 18:0 19:0 20:0 21:0 22:0 23:0 24:0 25:0 26:0 27:1 28:0 29:0 30:0 31:0 32:0 33:0 #
0.12983843654660221 1:1 2:0 3:0.23999999 4:1 5:0.02 6:0 7:1 8:0 9:1 10:0.34999999 11:1 12:0 13:0 14:0 15:1 16:1 17:0 18:0 19:0 20:0 21:0 22:0 23:0 24:1 25:0 26:0 27:0 28:0 29:0 30:1 31:0 32:0 33:0 #
0.12983843654660221 1:1 2:1 3:0.02 4:0 5:0 6:0 7:1 8:0 9:1 10:0.0099999998 11:0 12:1 13:0 14:0 15:1 16:1 17:0 18:0 19:0 20:0 21:0 22:0 23:0 24:0 25:0 26:0 27:0 28:0 29:0 30:1 31:0 32:0 33:0 #
-0.12983843654660221 1:1 2:1 3:0.059999999 4:0 5:0 6:0 7:1 8:1 9:0 10:0.0099999998 11:1 12:0 13:0 14:0 15:0 16:1 17:0 18:0 19:1 20:0 21:0 22:0 23:0 24:0 25:0 26:0 27:1 28:0 29:0 30:0 31:0 32:0 33:0 #
0.12983843654660221 1:0 2:1 3:0.14 4:0 5:0 6:0 7:1 8:0 9:1 10:0.059999999 11:0 12:0 13:0 14:0 15:0 16:1 17:1 18:0 19:0 20:0 21:0 22:0 23:0 24:1 25:0 26:0 27:0 28:0 29:0 30:1 31:0 32:0 33:0 #
-0.12983843654660221 1:1 2:1 3:0.039999999 4:0 5:0 6:0 7:1 8:0 9:0 10:0.37 11:0 12:0 13:0 14:0 15:0 16:1 17:0 18:0 19:0 20:0 21:0 22:0 23:1 24:0 25:0 26:0 27:0 28:0 29:0 30:1 31:0 32:0 33:0 #
-0.12983843654660221 1:1 2:0 3:0.12 4:1 5:0.02 6:0 7:1 8:1 9:0 10:0.0099999998 11:0 12:0 13:0 14:0 15:0 16:1 17:0 18:0 19:1 20:0 21:0 22:0 23:0 24:0 25:0 26:0 27:1 28:0 29:0 30:0 31:0 32:0 33:0 #
-0.12983843654660221 1:0 2:1 3:0 4:0 5:0 6:0 7:1 8:1 9:0 10:0.22 11:0 12:0 13:0 14:0 15:0 16:1 17:1 18:0 19:0 20:0 21:0 22:0 23:0 24:0 25:0 26:0 27:1 28:0 29:0 30:0 31:0 32:0 33:0 #
0.12983843654660221 1:1 2:1 3:0.16 4:0 5:0 6:0 7:1 8:1 9:0 10:0.0099999998 11:1 12:0 13:0 14:0 15:0 16:1 17:0 18:0 19:1 20:0 21:0 22:0 23:0 24:0 25:0 26:0 27:0 28:1 29:0 30:0 31:0 32:0 33:0 #
0.12983843654660221 1:1 2:0 3:0.54000002 4:1 5:0.02 6:0 7:1 8:1 9:0 10:0.0099999998 11:1 12:0 13:0 14:0 15:0 16:1 17:0 18:0 19:1 20:0 21:0 22:0 23:0 24:0 25:0 26:0 27:1 28:0 29:0 30:0 31:0 32:0 33:0 #
0.12983843654660221 1:1 2:1 3:0.039999999 4:0 5:0 6:0 7:1 8:0 9:0 10:0.58999997 11:1 12:0 13:0 14:0 15:1 16:1 17:0 18:0 19:0 20:0 21:0 22:0 23:0 24:0 25:0 26:0 27:0 28:0 29:0 30:1 31:0 32:0 33:0 #
0.12983843654660221 1:1 2:0 3:0.44 4:1 5:0.02 6:0 7:1 8:1 9:0 10:0.050000001 11:1 12:0 13:0 14:0 15:0 16:1 17:0 18:0 19:1 20:0 21:0 22:0 23:0 24:0 25:0 26:0 27:1 28:0 29:0 30:0 31:0 32:0 33:0 #
0.12983843654660221 1:0 2:1 3:0.2 4:0 5:0 6:0 7:1 8:1 9:0 10:0.0099999998 11:0 12:0 13:0 14:0 15:0 16:0 17:1 18:1 19:0 20:0 21:0 22:0 23:0 24:0 25:0 26:0 27:1 28:0 29:0 30:0 31:0 32:0 33:0 #
-0.12983843654660221 1:1 2:0 3:0.36000001 4:1 5:0.02 6:0 7:1 8:0 9:0 10:0.1 11:1 12:0 13:0 14:0 15:1 16:1 17:0 18:0 19:1 20:0 21:0 22:0 23:0 24:0 25:0 26:0 27:0 28:0 29:0 30:1 31:0 32:0 33:0 #
0.12983843654660221 1:0 2:1 3:0.02 4:0 5:0 6:0 7:1 8:1 9:0 10:0.0099999998 11:0 12:0 13:0 14:0 15:0 16:1 17:1 18:0 19:0 20:0 21:0 22:0 23:0 24:0 25:0 26:0 27:0 28:0 29:1 30:0 31:0 32:0 33:0 #
-0.12983843654660221 1:1 2:0 3:1.16 4:1 5:0.02 6:0 7:1 8:1 9:0 10:0.0099999998 11:1 12:0 13:0 14:0 15:0 16:1 17:0 18:0 19:0 20:0 21:0 22:0 23:0 24:0 25:0 26:0 27:0 28:1 29:0 30:0 31:0 32:0 33:0 #
0.12983843654660221 1:0 2:1 3:0.02 4:0 5:0 6:0 7:1 8:0 9:1 10:0.0099999998 11:0 12:0 13:0 14:0 15:0 16:1 17:1 18:0 19:0 20:0 21:0 22:0 23:0 24:0 25:0 26:0 27:0 28:0 29:0 30:1 31:0 32:0 33:0 #
-0.12983843654660221 1:0 2:1 3:0.2 4:0 5:0 6:0 7:1 8:1 9:0 10:0.0099999998 11:1 12:0 13:0 14:0 15:0 16:1 17:0 18:0 19:1 20:0 21:0 22:0 23:0 24:0 25:0 26:0 27:1 28:0 29:0 30:0 31:0 32:0 33:0 #
-0.12983843654660221 1:1 2:1 3:0.2 4:0 5:0 6:0 7:1 8:0 9:1 10:0.050000001 11:0 12:0 13:0 14:1 15:0 16:1 17:0 18:0 19:0 20:0 21:0 22:0 23:0 24:0 25:0 26:0 27:0 28:0 29:0 30:1 31:0 32:0 33:0 #
0.12983843654660221 1:1 2:0 3:0.34 4:1 5:0.02 6:0 7:1 8:0 9:0 10:0.039999999 11:0 12:0 13:0 14:0 15:0 16:1 17:0 18:0 19:0 20:0 21:0 22:0 23:0 24:0 25:0 26:0 27:0 28:0 29:0 30:1 31:0 32:0 33:0 #
0.12983843654660221 1:1 2:1 3:0.12 4:0 5:0 6:0 7:1 8:0 9:0 10:0.0099999998 11:0 12:0 13:0 14:0 15:1 16:1 17:0 18:0 19:0 20:0 21:0 22:0 23:1 24:0 25:0 26:0 27:0 28:0 29:0 30:1 31:0 32:0 33:0 #
0.12983843654660221 1:1 2:0 3:0.1 4:1 5:0.02 6:0 7:1 8:1 9:0 10:0.02 11:0 12:0 13:0 14:0 15:1 16:1 17:0 18:0 19:0 20:0 21:0 22:0 23:0 24:0 25:0 26:0 27:1 28:0 29:0 30:0 31:0 32:0 33:0 #
0.12983843654660221 1:1 2:1 3:0.40000001 4:0 5:0 6:0 7:1 8:1 9:0 10:0.0099999998 11:1 12:0 13:0 14:0 15:0 16:1 17:0 18:0 19:1 20:0 21:0 22:0 23:0 24:0 25:0 26:0 27:1 28:0 29:0 30:0 31:0 32:0 33:0 #
0.12983843654660221 1:0 2:1 3:0.12 4:0 5:0 6:0 7:1 8:1 9:0 10:0.02 11:1 12:0 13:0 14:0 15:0 16:1 17:1 18:0 19:1 20:0 21:0 22:0 23:0 24:1 25:0 26:0 27:1 28:0 29:0 30:0 31:0 32:0 33:0 #
0.12983843654660221 1:1 2:0 3:0.23999999 4:1 5:0.02 6:0 7:1 8:0 9:1 10:0.02 11:0 12:1 13:0 14:1 15:0 16:1 17:0 18:0 19:0 20:0 21:0 22:0 23:0 24:0 25:0 26:0 27:0 28:0 29:0 30:1 31:0 32:0 33:0 #
0.12983843654660221 1:0 2:1 3:0.1 4:0 5:0 6:0 7:1 8:0 9:1 10:0.050000001 11:0 12:0 13:0 14:1 15:0 16:1 17:0 18:0 19:0 20:0 21:0 22:0 23:0 24:0 25:0 26:0 27:0 28:0 29:0 30:1 31:0 32:0 33:0 #
-0.12983843654660221 1:1 2:1 3:0.2 4:0 5:0 6:0 7:1 8:0 9:1 10:0.050000001 11:0 12:0 13:0 14:1 15:0 16:1 17:0 18:0 19:0 20:0 21:0 22:0 23:0 24:0 25:0 26:0 27:0 28:0 29:0 30:1 31:0 32:0 33:0 #
-0.12983843654660221 1:1 2:1 3:0.059999999 4:0 5:0 6:0 7:1 8:0 9:1 10:0.0099999998 11:0 12:0 13:0 14:0 15:0 16:1 17:0 18:0 19:0 20:0 21:0 22:0 23:0 24:0 25:0 26:0 27:0 28:0 29:0 30:1 31:0 32:0 33:0 #
0.12983843654660221 1:0 2:1 3:0.1 4:0 5:0 6:0 7:1 8:1 9:0 10:0.0099999998 11:1 12:0 13:0 14:0 15:1 16:1 17:0 18:0 19:0 20:0 21:0 22:0 23:1 24:0 25:0 26:0 27:0 28:0 29:1 30:0 31:0 32:0 33:0 #
0.12983843654660221 1:0 2:1 3:0.1 4:0 5:0 6:0 7:1 8:1 9:0 10:0.12 11:1 12:0 13:0 14:0 15:1 16:1 17:0 18:0 19:0 20:0 21:0 22:0 23:0 24:1 25:0 26:0 27:0 28:0 29:1 30:0 31:0 32:0 33:0 #
0.12983843654660221 1:0 2:1 3:0.079999998 4:0 5:0 6:0 7:1 8:1 9:0 10:0.58999997 11:0 12:0 13:0 14:0 15:1 16:1 17:0 18:1 19:0 20:0 21:0 22:0 23:0 24:0 25:0 26:0 27:0 28:0 29:1 30:0 31:0 32:0 33:0 #
-0.12983843654660221 1:1 2:1 3:0.5 4:0 5:0 6:0 7:1 8:1 9:0 10:0.0099999998 11:0 12:0 13:0 14:0 15:0 16:1 17:1 18:0 19:1 20:0 21:0 22:0 23:0 24:0 25:0 26:0 27:1 28:0 29:0 30:0 31:0 32:0 33:0 #
-0.12983843654660221 1:1 2:0 3:0.41999999 4:1 5:0.02 6:0 7:1 8:1 9:0 10:0.1 11:1 12:0 13:0 14:0 15:1 16:1 17:0 18:1 19:0 20:0 21:0 22:0 23:0 24:0 25:0 26:0 27:1 28:0 29:0 30:0 31:0 32:0 33:0 #
0.12983843654660221 1:1 2:1 3:0.039999999 4:0 5:0 6:0 7:1 8:0 9:1 10:0.050000001 11:0 12:0 13:0 14:1 15:0 16:1 17:0 18:0 19:0 20:0 21:0 22:0 23:0 24:0 25:0 26:0 27:0 28:0 29:0 30:1 31:0 32:0 33:0 #
0.12983843654660221 1:1 2:1 3:0.059999999 4:0 5:0 6:0 7:1 8:0 9:0 10:0.0099999998 11:0 12:0 13:0 14:0 15:0 16:1 17:0 18:0 19:0 20:0 21:0 22:0 23:0 24:1 25:0 26:0 27:0 28:0 29:0 30:1 31:0 32:0 33:0 #
0.12983843654660221 1:1 2:1 3:0.039999999 4:0 5:0 6:0 7:1 8:0 9:1 10:0.090000004 11:0 12:0 13:0 14:1 15:0 16:1 17:0 18:0 19:0 20:0 21:0 22:0 23:0 24:0 25:0 26:0 27:0 28:0 29:0 30:1 31:0 32:0 33:0 #
-0.12983843654660221 1:1 2:1 3:0.2 4:0 5:0 6:0 7:1 8:0 9:1 10:0.050000001 11:0 12:0 13:0 14:1 15:0 16:1 17:0 18:0 19:0 20:0 21:0 22:0 23:0 24:0 25:0 26:0 27:0 28:0 29:0 30:1 31:0 32:0 33:0 #
0.12983843654660221 1:1 2:0 3:0.18000001 4:1 5:0.02 6:0 7:1 8:1 9:0 10:0.20999999 11:1 12:0 13:0 14:0 15:1 16:1 17:0 18:0 19:0 20:0 21:0 22:0 23:0 24:0 25:0 26:0 27:1 28:0 29:0 30:0 31:0 32:0 33:0 #
0.12983843654660221 1:1 2:0 3:0.30000001 4:1 5:0.02 6:0 7:1 8:1 9:0 10:0.02 11:0 12:1 13:0 14:1 15:0 16:1 17:0 18:0 19:0 20:0 21:0 22:0 23:0 24:0 25:0 26:0 27:1 28:0 29:0 30:0 31:0 32:0 33:0 #
0.12983843654660221 1:1 2:0 3:0.31999999 4:1 5:0.02 6:0 7:1 8:1 9:0 10:0.11 11:0 12:1 13:0 14:1 15:0 16:1 17:0 18:0 19:0 20:0 21:0 22:0 23:0 24:0 25:0 26:0 27:1 28:0 29:0 30:0 31:0 32:0 33:0 #
0.12983843654660221 1:1 2:0 3:0.23999999 4:1 5:0.02 6:0 7:1 8:1 9:0 10:0.039999999 11:0 12:1 13:0 14:1 15:0 16:1 17:0 18:0 19:0 20:0 21:0 22:0 23:0 24:0 25:0 26:0 27:1 28:0 29:0 30:0 31:0 32:0 33:0 #
-0.12983843654660221 1:1 2:1 3:0.02 4:0 5:0 6:0 7:1 8:1 9:0 10:0.039999999 11:0 12:1 13:0 14:1 15:0 16:1 17:0 18:0 19:0 20:0 21:0 22:0 23:0 24:0 25:0 26:0 27:1 28:0 29:0 30:0 31:0 32:0 33:0 #
-0.12983843654660221 1:1 2:1 3:0.12 4:0 5:0 6:0 7:1 8:1 9:0 10:0.059999999 11:0 12:1 13:0 14:1 15:0 16:1 17:0 18:0 19:0 20:0 21:0 22:0 23:0 24:0 25:0 26:0 27:1 28:0 29:0 30:0 31:0 32:0 33:0 #
0.12983843654660221 1:0 2:1 3:0.36000001 4:0 5:0 6:0 7:1 8:0 9:0 10:0.0099999998 11:1 12:0 13:0 14:0 15:0 16:0 17:0 18:0 19:1 20:0 21:0 22:0 23:0 24:0 25:0 26:0 27:0 28:0 29:0 30:1 31:0 32:0 33:0 #
-0.12983843654660221 1:1 2:0 3:0.47999999 4:1 5:0.02 6:0 7:1 8:0 9:0 10:0.0099999998 11:1 12:0 13:0 14:0 15:0 16:1 17:0 18:0 19:0 20:0 21:0 22:0 23:0 24:1 25:0 26:0 27:0 28:0 29:0 30:1 31:0 32:0 33:0 #
0.12983843654660221 1:1 2:1 3:0.16 4:0 5:0 6:0 7:1 8:1 9:0 10:0.0099999998 11:0 12:0 13:0 14:0 15:0 16:1 17:1 18:1 19:0 20:0 21:0 22:0 23:0 24:0 25:0 26:0 27:1 28:0 29:0 30:0 31:0 32:0 33:0 #
-0.12983843654660221 1:1 2:0 3:0.41999999 4:1 5:0.02 6:0 7:1 8:1 9:0 10:0.15000001 11:0 12:0 13:0 14:1 15:0 16:1 17:0 18:0 19:0 20:0 21:0 22:0 23:0 24:0 25:1 26:1 27:0 28:1 29:0 30:0 31:0 32:0 33:1 #
0.12983843654660221 1:1 2:1 3:0.12 4:0 5:0 6:0 7:1 8:0 9:1 10:0.029999999 11:0 12:1 13:0 14:0 15:1 16:1 17:0 18:0 19:0 20:0 21:0 22:0 23:0 24:0 25:0 26:0 27:0 28:0 29:0 30:1 31:0 32:0 33:0 #
0.12983843654660221 1:1 2:0 3:0.28 4:1 5:0.02 6:0 7:1 8:1 9:0 10:0.079999998 11:0 12:0 13:0 14:0 15:0 16:1 17:1 18:0 19:0 20:0 21:0 22:0 23:0 24:1 25:0 26:0 27:0 28:0 29:1 30:0 31:0 32:0 33:0 #
-0.12983843654660221 1:1 2:1 3:0.16 4:0 5:0 6:0 7:1 8:1 9:0 10:0.039999999 11:0 12:1 13:0 14:1 15:0 16:1 17:0 18:0 19:0 20:0 21:0 22:0 23:0 24:0 25:0 26:0 27:1 28:0 29:0 30:0 31:0 32:0 33:0 #
-0.12983843654660221 1:0 2:1 3:0.1 4:0 5:0 6:0 7:1 8:1 9:0 10:0.0099999998 11:1 12:0 13:0 14:0 15:0 16:1 17:0 18:1 19:0 20:0 21:0 22:0 23:0 24:0 25:0 26:0 27:1 28:0 29:0 30:0 31:0 32:0 33:0 #
0.12983843654660221 1:1 2:0 3:0.74000001 4:1 5:0.02 6:0 7:1 8:0 9:1 10:0.34999999 11:1 12:0 13:0 14:0 15:1 16:1 17:0 18:0 19:0 20:0 21:0 22:0 23:0 24:1 25:0 26:0 27:0 28:0 29:0 30:1 31:0 32:0 33:0 #
-0.12983843654660221 1:1 2:0 3:0.36000001 4:1 5:0.02 6:0 7:1 8:0 9:1 10:0.0099999998 11:1 12:0 13:0 14:0 15:1 16:1 17:0 18:0 19:0 20:0 21:0 22:0 23:0 24:1 25:0 26:0 27:0 28:0 29:0 30:1 31:0 32:0 33:0 #
0.12983843654660221 1:0 2:1 3:0.12 4:0 5:0 6:1 7:1 8:1 9:0 10:0.029999999 11:0 12:0 13:0 14:1 15:0 16:1 17:0 18:0 19:0 20:0 21:0 22:0 23:0 24:0 25:0 26:0 27:0 28:0 29:1 30:0 31:0 32:0 33:0 #
0.12983843654660221 1:0 2:1 3:0.18000001 4:0 5:0 6:0 7:1 8:1 9:0 10:0.090000004 11:0 12:0 13:0 14:1 15:0 16:1 17:0 18:0 19:0 20:0 21:0 22:0 23:0 24:0 25:0 26:0 27:0 28:0 29:1 30:0 31:0 32:0 33:0 #
0.12983843654660221 1:0 2:1 3:0.14 4:0 5:0 6:0 7:1 8:1 9:0 10:0.0099999998 11:0 12:0 13:0 14:0 15:0 16:1 17:0 18:0 19:0 20:0 21:0 22:0 23:0 24:0 25:0 26:0 27:0 28:0 29:1 30:0 31:0 32:0 33:0 #
0.12983843654660221 1:1 2:0 3:0.1 4:1 5:0.02 6:0 7:1 8:0 9:0 10:0.17 11:1 12:0 13:0 14:0 15:0 16:1 17:0 18:0 19:0 20:0 21:0 22:0 23:0 24:0 25:0 26:0 27:1 28:0 29:0 30:0 31:0 32:0 33:0 #
-0.12983843654660221 1:1 2:1 3:0.059999999 4:0 5:0 6:0 7:1 8:1 9:0 10:0.0099999998 11:0 12:0 13:0 14:0 15:1 16:1 17:0 18:0 19:0 20:0 21:0 22:0 23:0 24:0 25:0 26:0 27:0 28:0 29:1 30:0 31:0 32:0 33:0 #
-0.12983843654660221 1:1 2:1 3:0.079999998 4:0 5:0 6:0 7:1 8:1 9:0 10:0.0099999998 11:0 12:0 13:0 14:0 15:1 16:1 17:0 18:0 19:0 20:0 21:0 22:0 23:0 24:0 25:0 26:0 27:0 28:0 29:1 30:0 31:0 32:0 33:0 #
0.12983843654660221 1:1 2:1 3:0.25999999 4:0 5:0 6:0 7:1 8:0 9:0 10:0.0099999998 11:1 12:0 13:0 14:0 15:0 16:0 17:0 18:0 19:0 20:0 21:0 22:0 23:0 24:1 25:0 26:0 27:0 28:0 29:0 30:1 31:0 32:0 33:0 #
0.12983843654660221 1:1 2:0 3:0.2 4:1 5:0.02 6:0 7:1 8:1 9:0 10:0.02 11:0 12:1 13:0 14:1 15:0 16:1 17:0 18:0 19:0 20:0 21:0 22:0 23:0 24:0 25:0 26:0 27:1 28:0 29:0 30:0 31:0 32:0 33:0 #
-0.12983843654660221 1:1 2:0 3:0.25999999 4:1 5:0.02 6:0 7:1 8:0 9:0 10:0.0099999998 11:1 12:0 13:0 14:0 15:0 16:1 17:1 18:0 19:0 20:0 21:0 22:0 23:0 24:1 25:0 26:0 27:0 28:0 29:0 30:1 31:0 32:0 33:0 #
0.12983843654660221 1:1 2:1 3:0.2 4:0 5:0 6:0 7:1 8:1 9:0 10:0.0099999998 11:1 12:0 13:0 14:0 15:1 16:1 17:0 18:0 19:0 20:0 21:0 22:0 23:0 24:1 25:0 26:0 27:0 28:0 29:1 30:0 31:0 32:0 33:0 #
0.12983843654660221 1:1 2:0 3:0.31999999 4:1 5:0.02 6:0 7:1 8:1 9:0 10:0.0099999998 11:0 12:0 13:0 14:0 15:0 16:1 17:1 18:1 19:0 20:0 21:0 22:0 23:0 24:0 25:0 26:0 27:1 28:0 29:0 30:0 31:0 32:0 33:0 #
-0.12983843654660221 1:1 2:0 3:1.34 4:0 5:0.059999999 6:0 7:1 8:0 9:1 10:0.050000001 11:1 12:0 13:0 14:1 15:0 16:1 17:0 18:0 19:0 20:0 21:0 22:0 23:0 24:0 25:0 26:0 27:0 28:0 29:0 30:1 31:0 32:0 33:0 #
-0.12983843654660221 1:0 2:1 3:0.02 4:0 5:0 6:0 7:1 8:1 9:0 10:0.050000001 11:0 12:0 13:0 14:0 15:0 16:1 17:0 18:0 19:1 20:0 21:0 22:0 23:0 24:0 25:0 26:0 27:1 28:0 29:0 30:0 31:0 32:0 33:0 #
0.12983843654660221 1:1 2:1 3:0.36000001 4:0 5:0 6:0 7:1 8:0 9:0 10:0.0099999998 11:0 12:0 13:0 14:0 15:0 16:1 17:0 18:0 19:0 20:0 21:0 22:0 23:0 24:0 25:0 26:0 27:0 28:0 29:0 30:1 31:0 32:0 33:0 #
-0.12983843654660221 1:0 2:1 3:0.14 4:0 5:0 6:0 7:1 8:1 9:0 10:0.079999998 11:0 12:0 13:0 14:0 15:0 16:1 17:1 18:1 19:0 20:0 21:0 22:0 23:0 24:1 25:0 26:0 27:1 28:0 29:0 30:0 31:0 32:0 33:0 #
0.12983843654660221 1:1 2:0 3:0.54000002 4:1 5:0.02 6:0 7:1 8:0 9:1 10:0.090000004 11:1 12:0 13:0 14:0 15:1 16:1 17:0 18:0 19:0 20:0 21:0 22:0 23:0 24:0 25:0 26:0 27:0 28:0 29:0 30:1 31:0 32:0 33:0 #
0.12983843654660221 1:1 2:0 3:0.38 4:1 5:0.02 6:0 7:1 8:0 9:1 10:0.090000004 11:1 12:0 13:0 14:0 15:1 16:1 17:0 18:0 19:0 20:0 21:0 22:0 23:0 24:0 25:0 26:0 27:0 28:0 29:0 30:1 31:0 32:0 33:0 #
0.12983843654660221 1:1 2:1 3:0.5 4:0 5:0 6:0 7:1 8:0 9:1 10:0.029999999 11:1 12:0 13:0 14:0 15:1 16:1 17:0 18:0 19:0 20:0 21:0 22:0 23:0 24:0 25:0 26:0 27:0 28:0 29:0 30:1 31:0 32:0 33:0 #
-0.12983843654660221 1:1 2:0 3:0.23999999 4:1 5:0.02 6:0 7:1 8:1 9:0 10:0.0099999998 11:0 12:0 13:0 14:0 15:0 16:1 17:0 18:0 19:1 20:0 21:0 22:0 23:0 24:1 25:0 26:0 27:0 28:0 29:1 30:0 31:0 32:0 33:0 #
-0.12983843654660221 1:1 2:0 3:0.74000001 4:0 5:0.039999999 6:0 7:1 8:0 9:1 10:0.0099999998 11:1 12:0 13:0 14:0 15:1 16:1 17:0 18:0 19:0 20:0 21:0 22:0 23:0 24:0 25:0 26:0 27:0 28:0 29:0 30:1 31:0 32:0 33:0 #
0.12983843654660221 1:0 2:1 3:0.059999999 4:0 5:0 6:0 7:1 8:1 9:0 10:0.02 11:0 12:0 13:0 14:0 15:0 16:1 17:1 18:0 19:1 20:0 21:0 22:0 23:0 24:1 25:0 26:0 27:0 28:0 29:1 30:0 31:0 32:0 33:0 #
-0.12983843654660221 1:0 2:1 3:0.039999999 4:0 5:0 6:0 7:1 8:1 9:0 10:0.029999999 11:0 12:0 13:0 14:0 15:1 16:1 17:0 18:0 19:1 20:0 21:0 22:0 23:0 24:0 25:0 26:0 27:1 28:0 29:0 30:0 31:0 32:0 33:0 #
0.12983843654660221 1:1 2:0 3:0.30000001 4:1 5:0.02 6:0 7:1 8:1 9:0 10:0.0099999998 11:0 12:0 13:0 14:0 15:0 16:1 17:1 18:1 19:0 20:0 21:0 22:0 23:0 24:0 25:0 26:0 27:1 28:0 29:0 30:0 31:0 32:0 33:0 #
-0.12983843654660221 1:1 2:0 3:1.28 4:0 5:0.039999999 6:0 7:1 8:0 9:1 10:0.11 11:0 12:0 13:0 14:1 15:0 16:1 17:0 18:0 19:0 20:0 21:0 22:0 23:0 24:0 25:0 26:0 27:0 28:0 29:0 30:1 31:0 32:0 33:0 #
