SVM-light Version V6.02
0 # kernel type
3 # kernel parameter -d 
1 # kernel parameter -g 
1 # kernel parameter -s 
1 # kernel parameter -r 
empty# kernel parameter -u 
26 # highest feature index 
2851 # number of training documents 
847 # number of support vectors plus 1 
2.7628619 # threshold b, each following line is a SV (starting with alpha*y)
-0.15209494262739984 1:0 2:0.17 3:1 4:0.1 5:1 6:0 7:1 8:0 9:1 10:0 11:0 12:1 13:0 14:0 15:1 16:0 17:0 18:0 19:0 20:0 21:1 22:0 23:0.046724468 24:0.0060211946 25:0.10067438 26:0.84706163 #
-0.15209494262739984 1:1 2:0.13 3:0 4:0 5:1 6:1 7:0 8:0 9:0 10:0 11:0 12:1 13:0 14:0 15:0 16:0 17:0 18:0 19:0 20:1 21:0 22:0 23:0.5 24:0.5 25:0.5 26:0.5 #
-0.15209494262739984 1:1 2:0.039999999 3:0 4:0 5:1 6:0 7:0 8:1 9:0 10:0 11:0 12:1 13:0 14:0 15:0 16:0 17:0 18:1 19:0 20:0 21:0 22:0 23:0.35247257 24:0.10822185 25:0.131219 26:0.40838718 #
-0.15209494262739984 1:1 2:0.07 3:0 4:0 5:1 6:1 7:0 8:0 9:0 10:0 11:0 12:1 13:0 14:0 15:1 16:0 17:0 18:1 19:0 20:0 21:0 22:0 23:0.8980422 24:0.033265941 25:0.048096847 26:0.02062011 #
-0.15209494262739984 1:1 2:0.039999999 3:0 4:0 5:1 6:1 7:0 8:0 9:0 10:0 11:0 12:1 13:0 14:1 15:0 16:0 17:0 18:1 19:0 20:0 21:0 22:0 23:0.16666667 24:0.66666669 25:0.16666667 26:0.33333334 #
0.15209494262739984 1:1 2:0.17 3:0 4:0 5:1 6:0 7:0 8:1 9:0 10:0 11:0 12:1 13:0 14:0 15:1 16:0 17:0 18:0 19:0 20:1 21:0 22:0 23:0.027777778 24:0.027777778 25:0.055555556 26:0.94444442 #
0.15209494262739984 1:1 2:0.029999999 3:0 4:0 5:1 6:1 7:0 8:0 9:0 10:0 11:1 12:1 13:0 14:0 15:0 16:1 17:1 18:1 19:0 20:0 21:0 22:0 23:0.057187017 24:0.00309119 25:0.91653788 26:0.026275115 #
-0.15209494262739984 1:0 2:0.20999999 3:1 4:0.1 5:1 6:1 7:0 8:0 9:0 10:0 11:0 12:1 13:0 14:0 15:0 16:0 17:0 18:0 19:0 20:1 21:0 22:0 23:0.5 24:0.5 25:0.5 26:0.5 #
0.15209494262739984 1:1 2:0.14 3:0 4:0 5:1 6:1 7:0 8:1 9:0 10:0 11:0 12:1 13:1 14:0 15:0 16:0 17:0 18:0 19:1 20:0 21:0 22:0 23:0.050326325 24:0.90369833 25:0.026105873 26:0.020159535 #
0.15209494262739984 1:0 2:0.029999999 3:1 4:0.1 5:1 6:1 7:0 8:0 9:0 10:0 11:1 12:1 13:0 14:0 15:0 16:1 17:0 18:0 19:1 20:0 21:0 22:0 23:0.5 24:0.5 25:0.5 26:0.5 #
-0.15209494262739984 1:0 2:0.02 3:1 4:0.1 5:1 6:1 7:0 8:1 9:0 10:0 11:1 12:1 13:0 14:0 15:0 16:0 17:1 18:0 19:1 20:0 21:0 22:1 23:0.5 24:0.5 25:0.5 26:0.5 #
0.15209494262739984 1:1 2:0.02 3:0 4:0 5:1 6:1 7:0 8:0 9:0 10:0 11:0 12:1 13:0 14:0 15:1 16:0 17:0 18:1 19:0 20:0 21:0 22:0 23:0.94107324 24:0.030174611 25:0.015161869 26:0.013593569 #
-0.15209494262739984 1:0 2:0.079999998 3:1 4:0.1 5:1 6:1 7:0 8:1 9:0 10:0 11:0 12:1 13:1 14:0 15:0 16:0 17:0 18:1 19:0 20:0 21:0 22:0 23:0.89954799 24:0.033149172 25:0.044450026 26:0.023355098 #
-0.15209494262739984 1:1 2:0.050000001 3:0 4:0 5:1 6:1 7:0 8:1 9:0 10:0 11:0 12:1 13:1 14:0 15:0 16:0 17:0 18:1 19:0 20:0 21:0 22:0 23:0.55303031 24:0.23232323 25:0.18939394 26:0.030303031 #
-0.15209494262739984 1:0 2:0.28 3:1 4:0.1 5:1 6:1 7:0 8:1 9:0 10:0 11:0 12:1 13:1 14:0 15:0 16:0 17:0 18:1 19:0 20:0 21:0 22:0 23:0.030265849 24:0.0049079754 25:0.86073619 26:0.10449897 #
-0.15209494262739984 1:0 2:0.20999999 3:1 4:0.1 5:1 6:1 7:0 8:1 9:0 10:0 11:0 12:1 13:1 14:0 15:0 16:0 17:0 18:1 19:0 20:0 21:0 22:0 23:0.026751539 24:0.0023473683 25:0.93205321 26:0.038890183 #
-0.15209494262739984 1:0 2:0.22 3:1 4:0.1 5:1 6:1 7:0 8:1 9:0 10:0 11:0 12:1 13:1 14:0 15:0 16:0 17:0 18:1 19:0 20:0 21:0 22:0 23:0.028554071 24:0.010935602 25:0.93134874 26:0.030376671 #
0.15209494262739984 1:1 2:0.029999999 3:0 4:0 5:1 6:0 7:0 8:0 9:0 10:0 11:0 12:1 13:0 14:0 15:1 16:0 17:0 18:0 19:0 20:0 21:1 22:0 23:0.5 24:0.5 25:0.5 26:0.5 #
0.15209494262739984 1:1 2:0.16 3:0 4:0 5:1 6:0 7:0 8:0 9:0 10:0 11:1 12:1 13:0 14:0 15:0 16:1 17:1 18:0 19:0 20:0 21:1 22:1 23:0.5 24:0.5 25:0.5 26:0.5 #
0.15209494262739984 1:1 2:0.20999999 3:0 4:0 5:1 6:1 7:0 8:0 9:1 10:0 11:0 12:0 13:0 14:1 15:1 16:0 17:0 18:0 19:0 20:1 21:0 22:0 23:0.16666667 24:0.16666667 25:0.83333331 26:0.16666667 #
0.15209494262739984 1:1 2:0.029999999 3:0 4:0 5:1 6:1 7:0 8:0 9:1 10:0 11:0 12:1 13:0 14:0 15:1 16:0 17:0 18:0 19:0 20:1 21:0 22:0 23:0.012924787 24:0.0006643582 25:0.97161376 26:0.014837333 #
0.15209494262739984 1:0 2:0.18000001 3:1 4:0.1 5:1 6:1 7:0 8:0 9:0 10:0 11:0 12:1 13:0 14:0 15:1 16:0 17:0 18:0 19:0 20:1 21:0 22:0 23:0.0058924197 24:0.0012894539 25:0.98053622 26:0.012283746 #
-0.15209494262739984 1:0 2:0.17 3:1 4:0.1 5:1 6:0 7:0 8:1 9:0 10:0 11:1 12:1 13:0 14:0 15:0 16:0 17:0 18:1 19:0 20:0 21:0 22:0 23:0.029122679 24:0.0094648711 25:0.87550056 26:0.086639971 #
-0.15209494262739984 1:1 2:0.07 3:0 4:0 5:1 6:1 7:0 8:0 9:0 10:0 11:0 12:1 13:0 14:0 15:1 16:0 17:0 18:1 19:0 20:0 21:0 22:0 23:0.33333334 24:0.66666669 25:0.33333334 26:0.33333334 #
-0.15209494262739984 1:0 2:0.23999999 3:1 4:0.1 5:1 6:0 7:1 8:0 9:1 10:0 11:0 12:0 13:0 14:0 15:0 16:0 17:0 18:0 19:0 20:0 21:1 22:0 23:0.017328519 24:0.0057761734 25:0.057039712 26:0.92057765 #
-0.15209494262739984 1:1 2:0.12 3:0 4:0 5:1 6:1 7:0 8:0 9:0 10:0 11:0 12:1 13:0 14:0 15:0 16:0 17:0 18:1 19:0 20:0 21:0 22:0 23:0.90139073 24:0.025050268 25:0.05713807 26:0.016588472 #
0.15209494262739984 1:0 2:0.34999999 3:1 4:0.1 5:1 6:1 7:0 8:1 9:0 10:0 11:0 12:1 13:1 14:0 15:0 16:0 17:0 18:1 19:0 20:0 21:0 22:0 23:0.68141592 24:0.20353982 25:0.085545726 26:0.03539823 #
0.15209494262739984 1:0 2:0.090000004 3:1 4:0.1 5:1 6:1 7:0 8:0 9:0 10:0 11:0 12:0 13:1 14:0 15:0 16:0 17:0 18:1 19:0 20:0 21:0 22:0 23:0.92500859 24:0.03910102 25:0.0099759204 26:0.026143791 #
0.15209494262739984 1:0 2:0.16 3:1 4:0.1 5:1 6:1 7:0 8:0 9:0 10:0 11:0 12:1 13:1 14:0 15:0 16:0 17:0 18:1 19:0 20:0 21:0 22:0 23:0.80025566 24:0.084622502 25:0.04859183 26:0.066574112 #
0.15209494262739984 1:0 2:0.38 3:1 4:0.1 5:1 6:1 7:0 8:1 9:0 10:0 11:0 12:1 13:0 14:1 15:0 16:0 17:0 18:1 19:0 20:0 21:0 22:0 23:0.98766786 24:0.0041107154 25:0.0063030967 26:0.0024664293 #
-0.15209494262739984 1:0 2:0.23 3:1 4:0.1 5:1 6:1 7:0 8:1 9:0 10:0 11:0 12:1 13:0 14:1 15:0 16:0 17:0 18:0 19:1 20:0 21:0 22:0 23:0.95971566 24:0.015910629 25:0.0072782668 26:0.017433988 #
0.15209494262739984 1:1 2:0.029999999 3:0 4:0 5:1 6:0 7:1 8:0 9:1 10:0 11:0 12:1 13:0 14:0 15:1 16:0 17:0 18:0 19:0 20:0 21:1 22:0 23:0.017328519 24:0.0057761734 25:0.057039712 26:0.92057765 #
-0.15209494262739984 1:0 2:0.090000004 3:1 4:0.1 5:1 6:0 7:1 8:0 9:0 10:0 11:0 12:0 13:1 14:0 15:0 16:0 17:0 18:0 19:0 20:0 21:1 22:0 23:0.0092101945 24:0.0039111786 25:0.068004034 26:0.91912693 #
-0.15209494262739984 1:0 2:0.20999999 3:1 4:0.1 5:1 6:1 7:0 8:0 9:0 10:0 11:1 12:1 13:0 14:0 15:0 16:1 17:1 18:0 19:1 20:0 21:0 22:1 23:0.5 24:0.5 25:0.5 26:0.5 #
-0.15209494262739984 1:0 2:0.25999999 3:1 4:0.1 5:1 6:1 7:0 8:0 9:0 10:0 11:1 12:1 13:0 14:0 15:0 16:1 17:1 18:1 19:0 20:0 21:0 22:0 23:0.5 24:0.5 25:0.5 26:0.5 #
-0.15209494262739984 1:0 2:0.050000001 3:1 4:0.1 5:1 6:1 7:0 8:0 9:0 10:0 11:1 12:1 13:0 14:0 15:0 16:1 17:1 18:1 19:0 20:0 21:0 22:0 23:0.5 24:0.5 25:0.5 26:0.5 #
0.15209494262739984 1:1 2:0 3:0 4:0 5:1 6:0 7:0 8:0 9:1 10:0 11:0 12:1 13:0 14:0 15:0 16:0 17:0 18:0 19:0 20:1 21:0 22:0 23:0.19498819 24:0.030079311 25:0.30243841 26:0.47257847 #
0.15209494262739984 1:1 2:0.079999998 3:0 4:0 5:1 6:0 7:0 8:1 9:1 10:1 11:0 12:1 13:0 14:0 15:0 16:0 17:0 18:0 19:0 20:0 21:1 22:0 23:0.05534647 24:0.017268099 25:0.71419084 26:0.21363737 #
0.15209494262739984 1:1 2:0.039999999 3:0 4:0 5:1 6:1 7:0 8:0 9:1 10:0 11:0 12:1 13:0 14:0 15:1 16:0 17:0 18:0 19:0 20:1 21:0 22:0 23:0.06443657 24:0.034213711 25:0.86789829 26:0.033541098 #
0.15209494262739984 1:1 2:0.029999999 3:0 4:0 5:1 6:0 7:0 8:0 9:1 10:0 11:1 12:1 13:0 14:0 15:0 16:0 17:0 18:1 19:0 20:0 21:0 22:0 23:0.5 24:0.5 25:0.5 26:0.5 #
-0.15209494262739984 1:1 2:0.0099999998 3:0 4:0 5:1 6:1 7:0 8:0 9:1 10:0 11:0 12:1 13:0 14:1 15:0 16:0 17:0 18:0 19:0 20:1 21:0 22:0 23:0.98766786 24:0.0041107154 25:0.0063030967 26:0.0024664293 #
0.15209494262739984 1:0 2:0.63 3:1 4:0.1 5:1 6:1 7:0 8:0 9:0 10:0 11:1 12:1 13:0 14:0 15:0 16:1 17:1 18:1 19:0 20:0 21:0 22:0 23:0.5 24:0.5 25:0.5 26:0.5 #
-0.15209494262739984 1:1 2:0.050000001 3:0 4:0 5:1 6:1 7:0 8:0 9:1 10:0 11:0 12:1 13:1 14:0 15:1 16:0 17:0 18:0 19:0 20:1 21:0 22:0 23:0.10898069 24:0.036426306 25:0.019303145 26:0.83529514 #
-0.15209494262739984 1:1 2:0.23 3:0 4:0 5:1 6:1 7:0 8:0 9:0 10:0 11:0 12:1 13:0 14:0 15:1 16:0 17:0 18:0 19:0 20:1 21:0 22:0 23:0.33333334 24:0.33333334 25:0.66666669 26:0.33333334 #
-0.15209494262739984 1:1 2:0.059999999 3:0 4:0 5:1 6:0 7:0 8:0 9:1 10:0 11:1 12:1 13:0 14:0 15:0 16:0 17:0 18:0 19:0 20:0 21:1 22:0 23:0.5 24:0.5 25:0.5 26:0.5 #
-0.15209494262739984 1:1 2:0.029999999 3:0 4:0 5:1 6:0 7:0 8:0 9:1 10:0 11:1 12:1 13:0 14:0 15:0 16:0 17:0 18:0 19:0 20:0 21:1 22:0 23:0.5 24:0.5 25:0.5 26:0.5 #
0.15209494262739984 1:0 2:0.11 3:1 4:0.1 5:1 6:1 7:0 8:0 9:0 10:0 11:0 12:1 13:0 14:1 15:0 16:0 17:0 18:1 19:0 20:0 21:0 22:0 23:0.5 24:0.5 25:0.5 26:0.5 #
-0.15209494262739984 1:1 2:0.079999998 3:0 4:0 5:1 6:0 7:0 8:1 9:0 10:0 11:1 12:1 13:0 14:0 15:0 16:0 17:0 18:1 19:0 20:0 21:0 22:0 23:0.029122679 24:0.0094648711 25:0.87550056 26:0.086639971 #
0.15209494262739984 1:0 2:0.22 3:1 4:0.1 5:1 6:1 7:0 8:0 9:0 10:0 11:0 12:1 13:0 14:1 15:1 16:0 17:0 18:1 19:0 20:0 21:0 22:0 23:0.5 24:0.5 25:0.5 26:0.5 #
0.15209494262739984 1:0 2:0.07 3:1 4:0.1 5:1 6:1 7:0 8:0 9:0 10:0 11:0 12:1 13:0 14:1 15:0 16:0 17:0 18:1 19:0 20:0 21:0 22:0 23:0.98766786 24:0.0041107154 25:0.0063030967 26:0.0024664293 #
-0.15209494262739984 1:0 2:0.5 3:1 4:0.1 5:1 6:1 7:0 8:1 9:0 10:0 11:0 12:1 13:0 14:1 15:0 16:0 17:0 18:1 19:0 20:0 21:0 22:0 23:0.86956519 24:0.017391304 25:0.026086956 26:0.10434783 #
0.15209494262739984 1:1 2:0.07 3:0 4:0 5:1 6:0 7:0 8:0 9:1 10:1 11:0 12:1 13:0 14:0 15:0 16:0 17:0 18:0 19:0 20:0 21:1 22:0 23:0.016008005 24:0.0017508754 25:0.0057528764 26:0.97698849 #
-0.069286513640367253 1:0 2:0.07 3:1 4:0.1 5:1 6:1 7:0 8:0 9:0 10:0 11:0 12:1 13:0 14:1 15:0 16:0 17:0 18:1 19:0 20:0 21:0 22:0 23:0.052631579 24:0.89473683 25:0.052631579 26:0.02631579 #
-0.15209494262739984 1:0 2:0.1 3:1 4:0.1 5:1 6:1 7:0 8:0 9:0 10:0 11:0 12:0 13:0 14:1 15:0 16:0 17:0 18:1 19:0 20:0 21:0 22:0 23:0.70526314 24:0.2 25:0.031578947 26:0.08421053 #
-0.15209494262739984 1:0 2:0.25999999 3:1 4:0.1 5:1 6:0 7:0 8:1 9:0 10:0 11:0 12:0 13:0 14:1 15:0 16:0 17:0 18:0 19:0 20:0 21:1 22:0 23:0.66666669 24:0.33333334 25:0.33333334 26:0.33333334 #
-0.15209494262739984 1:0 2:0.07 3:1 4:0.1 5:1 6:0 7:0 8:1 9:0 10:0 11:0 12:1 13:0 14:1 15:0 16:0 17:0 18:0 19:0 20:0 21:1 22:0 23:0.46546721 24:0.50145096 25:0.01334881 26:0.02089379 #
0.15209494262739984 1:1 2:0.02 3:0 4:0 5:1 6:0 7:1 8:0 9:1 10:0 11:0 12:1 13:0 14:0 15:0 16:0 17:0 18:0 19:0 20:0 21:1 22:0 23:0.015328226 24:0.0041071652 25:0.020069573 26:0.9604969 #
0.15209494262739984 1:1 2:0.039999999 3:0 4:0 5:1 6:0 7:1 8:0 9:1 10:0 11:0 12:1 13:0 14:0 15:0 16:0 17:0 18:0 19:0 20:0 21:1 22:0 23:0.015328226 24:0.0041071652 25:0.020069573 26:0.9604969 #
0.15209494262739984 1:1 2:0.02 3:0 4:0 5:1 6:1 7:0 8:0 9:1 10:0 11:0 12:1 13:0 14:0 15:0 16:0 17:0 18:0 19:0 20:1 21:0 22:0 23:0.015554902 24:0.0082003381 25:0.93189675 26:0.044421565 #
0.15209494262739984 1:1 2:0.02 3:0 4:0 5:1 6:1 7:0 8:0 9:1 10:0 11:0 12:1 13:0 14:0 15:0 16:0 17:0 18:0 19:0 20:1 21:0 22:0 23:0.0054719565 24:0.00034199728 25:0.97503418 26:0.019835841 #
-0.15209494262739984 1:0 2:0.15000001 3:1 4:0.1 5:1 6:1 7:0 8:0 9:0 10:0 11:0 12:1 13:0 14:1 15:0 16:0 17:0 18:1 19:0 20:0 21:0 22:0 23:0.68141592 24:0.20353982 25:0.085545726 26:0.03539823 #
-0.13838400329289291 1:0 2:1 3:0 4:0.2 5:1 6:0 7:0 8:1 9:0 10:0 11:0 12:1 13:0 14:0 15:0 16:0 17:0 18:0 19:0 20:0 21:1 22:0 23:0.0054719565 24:0.00034199728 25:0.97503418 26:0.019835841 #
-0.15209494262739984 1:1 2:0.13 3:0 4:0 5:1 6:1 7:0 8:0 9:1 10:0 11:0 12:1 13:0 14:0 15:0 16:0 17:0 18:0 19:0 20:1 21:0 22:0 23:0.084916204 24:0.013407821 25:0.73966479 26:0.16424581 #
0.15209494262739984 1:0 2:0.27000001 3:1 4:0.1 5:1 6:0 7:0 8:1 9:0 10:0 11:0 12:0 13:0 14:1 15:0 16:0 17:0 18:0 19:0 20:0 21:1 22:0 23:0.46546721 24:0.50145096 25:0.01334881 26:0.02089379 #
-0.15209494262739984 1:1 2:0.039999999 3:0 4:0 5:1 6:0 7:1 8:1 9:0 10:0 11:0 12:1 13:0 14:0 15:0 16:0 17:0 18:0 19:0 20:0 21:1 22:0 23:0.018870944 24:0.0060711736 25:0.0084607685 26:0.96660852 #
0.15209494262739984 1:0 2:0.22 3:1 4:0.1 5:1 6:0 7:0 8:0 9:0 10:0 11:0 12:1 13:1 14:0 15:1 16:0 17:0 18:0 19:0 20:0 21:1 22:0 23:0.023059677 24:0.001814882 25:0.92697769 26:0.048361268 #
-0.15209494262739984 1:1 2:0.0099999998 3:0 4:0 5:1 6:0 7:0 8:1 9:0 10:0 11:0 12:1 13:0 14:0 15:0 16:0 17:0 18:1 19:0 20:0 21:0 22:0 23:0.50877196 24:0.048245613 25:0.12280702 26:0.32192981 #
0.15209494262739984 1:1 2:0.039999999 3:0 4:0 5:1 6:0 7:0 8:0 9:1 10:0 11:1 12:1 13:0 14:0 15:0 16:0 17:0 18:1 19:0 20:0 21:0 22:0 23:0.5 24:0.5 25:0.5 26:0.5 #
-0.15209494262739984 1:1 2:0.079999998 3:0 4:0 5:1 6:0 7:0 8:0 9:0 10:0 11:1 12:1 13:0 14:0 15:0 16:1 17:1 18:0 19:0 20:0 21:1 22:1 23:0.5 24:0.5 25:0.5 26:0.5 #
0.15209494262739984 1:0 2:0.23 3:1 4:0.1 5:1 6:1 7:0 8:1 9:0 10:0 11:0 12:1 13:0 14:0 15:1 16:0 17:0 18:0 19:0 20:1 21:0 22:0 23:0.33333334 24:0.33333334 25:0.66666669 26:0.33333334 #
-0.15209494262739984 1:0 2:0.13 3:1 4:0.1 5:1 6:1 7:0 8:1 9:0 10:0 11:0 12:1 13:0 14:0 15:1 16:0 17:0 18:0 19:0 20:1 21:0 22:0 23:0.022318037 24:0.0055221519 25:0.89569622 26:0.076479428 #
-0.13079457229711755 1:0 2:0.15000001 3:1 4:0.1 5:1 6:1 7:0 8:0 9:1 10:0 11:0 12:1 13:0 14:0 15:1 16:0 17:0 18:0 19:0 20:1 21:0 22:0 23:0.20236127 24:0.026210153 25:0.52412438 26:0.24746163 #
-0.15209494262739984 1:0 2:0.2 3:1 4:0.1 5:1 6:1 7:0 8:1 9:0 10:0 11:0 12:1 13:0 14:0 15:0 16:0 17:0 18:0 19:0 20:1 21:0 22:0 23:0.1 24:0.041666668 25:0.85000002 26:0.025 #
0.086358742304560948 1:0 2:0.60000002 3:0 4:0.2 5:1 6:1 7:0 8:1 9:0 10:0 11:1 12:1 13:0 14:0 15:0 16:0 17:1 18:1 19:0 20:0 21:0 22:0 23:0.5 24:0.5 25:0.5 26:0.5 #
0.15209494262739984 1:1 2:0.07 3:0 4:0 5:1 6:0 7:0 8:0 9:0 10:0 11:1 12:1 13:0 14:1 15:0 16:1 17:1 18:0 19:0 20:0 21:1 22:1 23:0.68141592 24:0.20353982 25:0.085545726 26:0.03539823 #
0.15209494262739984 1:1 2:0.050000001 3:0 4:0 5:1 6:0 7:1 8:0 9:0 10:0 11:1 12:1 13:0 14:0 15:0 16:0 17:0 18:0 19:0 20:0 21:1 22:0 23:0.5 24:0.5 25:0.5 26:0.5 #
0.15209494262739984 1:1 2:0.02 3:0 4:0 5:1 6:1 7:0 8:0 9:0 10:0 11:1 12:1 13:0 14:0 15:0 16:1 17:1 18:0 19:1 20:0 21:0 22:1 23:0.056205336 24:0.91633928 25:0.006764695 26:0.020705653 #
0.15209494262739984 1:1 2:0.029999999 3:0 4:0 5:1 6:0 7:1 8:1 9:0 10:0 11:0 12:1 13:0 14:0 15:0 16:0 17:0 18:0 19:0 20:0 21:1 22:0 23:0.083333336 24:0.083333336 25:0.083333336 26:0.91666669 #
0.15209494262739984 1:0 2:0.14 3:1 4:0.1 5:1 6:1 7:0 8:0 9:0 10:0 11:0 12:1 13:0 14:0 15:1 16:0 17:0 18:0 19:0 20:1 21:0 22:0 23:0.015058677 24:0.0034222174 25:0.94425625 26:0.037267465 #
-0.15209494262739984 1:1 2:0.07 3:0 4:0 5:1 6:1 7:0 8:0 9:0 10:0 11:1 12:1 13:0 14:0 15:0 16:1 17:0 18:1 19:0 20:0 21:0 22:1 23:0.5 24:0.5 25:0.5 26:0.5 #
0.15209494262739984 1:0 2:3.0899999 3:0 4:1 5:1 6:0 7:0 8:0 9:0 10:0 11:0 12:1 13:1 14:0 15:0 16:0 17:0 18:0 19:0 20:0 21:1 22:0 23:0.0095238099 24:0.0095238099 25:0.96190476 26:0.03809524 #
-0.15209494262739984 1:0 2:0.57999998 3:1 4:0.1 5:1 6:1 7:0 8:1 9:0 10:0 11:0 12:1 13:0 14:0 15:0 16:0 17:0 18:0 19:1 20:0 21:0 22:0 23:0.065345079 24:0.022760646 25:0.85022026 26:0.063142441 #
0.15209494262739984 1:0 2:0.1 3:1 4:0.1 5:1 6:1 7:0 8:0 9:1 10:0 11:1 12:1 13:0 14:0 15:0 16:0 17:0 18:1 19:0 20:0 21:0 22:0 23:0.5 24:0.5 25:0.5 26:0.5 #
-0.15209494262739984 1:0 2:0.029999999 3:1 4:0.1 5:1 6:1 7:0 8:0 9:0 10:0 11:0 12:1 13:0 14:0 15:1 16:0 17:0 18:0 19:0 20:1 21:0 22:0 23:0.33333334 24:0.33333334 25:0.66666669 26:0.33333334 #
-0.15209494262739984 1:1 2:0.059999999 3:0 4:0 5:1 6:1 7:0 8:0 9:1 10:0 11:0 12:1 13:0 14:0 15:0 16:0 17:0 18:0 19:0 20:1 21:0 22:0 23:0.078947365 24:0.039473683 25:0.84210527 26:0.065789476 #
-0.15209494262739984 1:1 2:0.02 3:0 4:0 5:1 6:1 7:0 8:0 9:0 10:0 11:0 12:1 13:0 14:0 15:0 16:0 17:0 18:1 19:0 20:0 21:0 22:0 23:0.73345423 24:0.033544879 25:0.15865821 26:0.076155938 #
-0.15209494262739984 1:0 2:0.11 3:1 4:0.1 5:1 6:1 7:0 8:0 9:0 10:0 11:0 12:1 13:0 14:1 15:0 16:0 17:0 18:1 19:0 20:0 21:0 22:0 23:0.7881797 24:0.15130024 25:0.039007094 26:0.021985816 #
0.15209494262739984 1:0 2:1.47 3:0 4:0.40000001 5:1 6:0 7:0 8:0 9:0 10:0 11:0 12:1 13:0 14:0 15:0 16:0 17:0 18:0 19:0 20:0 21:1 22:0 23:0.11111111 24:0.11111111 25:0.44444445 26:0.55555558 #
0.15209494262739984 1:0 2:0.63 3:0 4:0.30000001 5:1 6:0 7:1 8:1 9:0 10:0 11:0 12:1 13:0 14:0 15:0 16:0 17:0 18:0 19:0 20:0 21:1 22:0 23:0.023433132 24:0.0019061659 25:0.081088297 26:0.89359784 #
0.15209494262739984 1:0 2:0.44999999 3:0 4:0.2 5:1 6:1 7:0 8:1 9:0 10:0 11:0 12:1 13:0 14:0 15:0 16:0 17:0 18:0 19:0 20:1 21:0 22:0 23:0.015554902 24:0.0082003381 25:0.93189675 26:0.044421565 #
0.15209494262739984 1:1 2:0.02 3:0 4:0 5:1 6:0 7:0 8:1 9:0 10:0 11:0 12:1 13:0 14:0 15:0 16:0 17:0 18:0 19:0 20:0 21:1 22:0 23:0.0054719565 24:0.00034199728 25:0.97503418 26:0.019835841 #
-0.15209494262739984 1:0 2:0.090000004 3:1 4:0.1 5:1 6:1 7:0 8:0 9:0 10:0 11:0 12:1 13:0 14:1 15:0 16:0 17:0 18:1 19:0 20:0 21:0 22:0 23:0.68141592 24:0.20353982 25:0.085545726 26:0.03539823 #
0.15209494262739984 1:0 2:0.090000004 3:1 4:0.1 5:1 6:1 7:0 8:0 9:1 10:1 11:0 12:1 13:0 14:0 15:1 16:0 17:0 18:1 19:0 20:0 21:0 22:0 23:0.94107324 24:0.030174611 25:0.015161869 26:0.013593569 #
-0.15209494262739984 1:1 2:0.029999999 3:0 4:0 5:1 6:0 7:1 8:1 9:0 10:0 11:0 12:1 13:0 14:0 15:0 16:0 17:0 18:0 19:0 20:0 21:1 22:0 23:0.92374033 24:0.0018440762 25:0.012312755 26:0.062159557 #
-0.15209494262739984 1:1 2:0.13 3:0 4:0 5:1 6:0 7:0 8:1 9:0 10:0 11:0 12:1 13:0 14:1 15:0 16:0 17:0 18:0 19:0 20:0 21:1 22:0 23:0.84351146 24:0.0063613229 25:0.13867685 26:0.013994911 #
-0.15209494262739984 1:1 2:0.02 3:0 4:0 5:1 6:1 7:0 8:1 9:0 10:0 11:0 12:1 13:0 14:1 15:0 16:0 17:0 18:0 19:0 20:1 21:0 22:0 23:0.98333335 24:0.016666668 25:0.016666668 26:0.016666668 #
-0.15209494262739984 1:1 2:0.029999999 3:0 4:0 5:1 6:0 7:0 8:1 9:0 10:0 11:1 12:1 13:0 14:0 15:0 16:0 17:0 18:0 19:1 20:0 21:0 22:0 23:0.5 24:0.5 25:0.5 26:0.5 #
-0.15209494262739984 1:1 2:0.1 3:0 4:0 5:1 6:0 7:1 8:0 9:0 10:0 11:1 12:1 13:0 14:0 15:0 16:0 17:0 18:0 19:0 20:0 21:1 22:0 23:0.5 24:0.5 25:0.5 26:0.5 #
0.15209494262739984 1:0 2:0.15000001 3:1 4:0.1 5:1 6:1 7:0 8:0 9:0 10:0 11:0 12:1 13:1 14:0 15:1 16:0 17:0 18:1 19:0 20:0 21:0 22:0 23:0.014298419 24:0.0056783198 25:0.90469998 26:0.075460084 #
0.15209494262739984 1:0 2:0.059999999 3:1 4:0.1 5:1 6:1 7:0 8:0 9:0 10:0 11:0 12:1 13:1 14:0 15:1 16:0 17:0 18:1 19:0 20:0 21:0 22:0 23:0.13701162 24:0.024551215 25:0.74445617 26:0.094508976 #
0.15209494262739984 1:0 2:0.07 3:1 4:0.1 5:1 6:0 7:0 8:0 9:1 10:0 11:0 12:1 13:0 14:0 15:0 16:0 17:0 18:1 19:0 20:0 21:0 22:0 23:0.5 24:0.5 25:0.5 26:0.5 #
0.15209494262739984 1:1 2:0.15000001 3:0 4:0 5:1 6:1 7:0 8:0 9:0 10:0 11:0 12:1 13:1 14:0 15:1 16:0 17:0 18:1 19:0 20:0 21:0 22:0 23:0.028353212 24:0.0046034735 25:0.8906675 26:0.076445557 #
-0.15209494262739984 1:0 2:0.23999999 3:0 4:0.2 5:1 6:1 7:0 8:1 9:0 10:0 11:0 12:1 13:0 14:0 15:1 16:0 17:0 18:1 19:0 20:0 21:0 22:0 23:0.018237967 24:0.0046614613 25:0.93345761 26:0.043759469 #
0.15209494262739984 1:1 2:0.07 3:0 4:0 5:1 6:0 7:1 8:1 9:0 10:0 11:0 12:1 13:0 14:0 15:0 16:0 17:0 18:0 19:0 20:0 21:1 22:0 23:0.012367271 24:0.0013741412 25:0.013991255 26:0.97251719 #
-0.15209494262739984 1:1 2:0.079999998 3:0 4:0 5:1 6:1 7:0 8:0 9:0 10:0 11:0 12:1 13:0 14:0 15:1 16:0 17:0 18:0 19:0 20:1 21:0 22:0 23:0.0026246719 24:0.0026246719 25:0.82283467 26:0.17454068 #
-0.15209494262739984 1:0 2:0.029999999 3:1 4:0.1 5:1 6:1 7:0 8:0 9:1 10:0 11:0 12:1 13:0 14:1 15:0 16:0 17:0 18:1 19:0 20:0 21:0 22:0 23:0.5 24:0.5 25:0.5 26:0.5 #
0.15209494262739984 1:0 2:0.15000001 3:1 4:0.1 5:1 6:1 7:0 8:1 9:0 10:0 11:0 12:1 13:0 14:1 15:0 16:0 17:0 18:1 19:0 20:0 21:0 22:0 23:0.98766786 24:0.0041107154 25:0.0063030967 26:0.0024664293 #
-0.15209494262739984 1:0 2:0.12 3:1 4:0.1 5:1 6:1 7:0 8:0 9:0 10:0 11:0 12:1 13:0 14:1 15:0 16:0 17:0 18:1 19:0 20:0 21:0 22:0 23:0.68141592 24:0.20353982 25:0.085545726 26:0.03539823 #
-0.15209494262739984 1:1 2:0.029999999 3:0 4:0 5:1 6:1 7:0 8:1 9:0 10:0 11:0 12:1 13:0 14:1 15:0 16:0 17:0 18:1 19:0 20:0 21:0 22:0 23:0.29411766 24:0.70588237 25:0.05882353 26:0.05882353 #
-0.15209494262739984 1:1 2:0.039999999 3:0 4:0 5:1 6:1 7:0 8:0 9:0 10:0 11:0 12:1 13:0 14:0 15:0 16:0 17:0 18:0 19:1 20:0 21:0 22:0 23:0.47385126 24:0.26567122 25:0.084613718 26:0.17593594 #
0.15209494262739984 1:0 2:1.6799999 3:0 4:0.5 5:1 6:0 7:1 8:0 9:0 10:0 11:1 12:1 13:0 14:0 15:0 16:0 17:0 18:0 19:0 20:0 21:1 22:0 23:0.5 24:0.5 25:0.5 26:0.5 #
0.15209494262739984 1:0 2:0.14 3:1 4:0.1 5:1 6:0 7:0 8:1 9:0 10:0 11:0 12:1 13:1 14:0 15:1 16:0 17:0 18:0 19:0 20:0 21:1 22:0 23:0.28414246 24:0.064086474 25:0.44894314 26:0.20292443 #
0.15209494262739984 1:1 2:0.14 3:0 4:0 5:1 6:0 7:0 8:1 9:0 10:0 11:0 12:0 13:1 14:0 15:1 16:0 17:0 18:0 19:0 20:0 21:1 22:0 23:0.022763127 24:0.0048080534 25:0.93937343 26:0.033205621 #
0.15209494262739984 1:1 2:0.15000001 3:0 4:0 5:1 6:0 7:0 8:1 9:0 10:0 11:0 12:1 13:1 14:0 15:1 16:0 17:0 18:0 19:0 20:0 21:1 22:0 23:0.023059677 24:0.001814882 25:0.92697769 26:0.048361268 #
0.15209494262739984 1:1 2:0.079999998 3:0 4:0 5:1 6:0 7:0 8:0 9:0 10:0 11:0 12:1 13:1 14:0 15:1 16:0 17:0 18:0 19:0 20:0 21:1 22:0 23:0.014734316 24:0.00046669779 25:0.96253085 26:0.022401493 #
-0.15209494262739984 1:0 2:1.49 3:0 4:0.40000001 5:1 6:0 7:0 8:1 9:0 10:0 11:0 12:1 13:1 14:0 15:1 16:0 17:0 18:0 19:0 20:0 21:1 22:0 23:0.022988506 24:0.0076628351 25:0.91570884 26:0.061302681 #
0.15209494262739984 1:1 2:0.07 3:0 4:0 5:1 6:1 7:0 8:0 9:0 10:0 11:0 12:1 13:0 14:1 15:0 16:0 17:0 18:1 19:0 20:0 21:0 22:0 23:0.07692308 24:0.92307693 25:0.025641026 26:0.025641026 #
0.15209494262739984 1:0 2:0.16 3:1 4:0.1 5:1 6:1 7:0 8:1 9:0 10:0 11:0 12:1 13:0 14:1 15:0 16:0 17:0 18:1 19:0 20:0 21:0 22:0 23:0.98766786 24:0.0041107154 25:0.0063030967 26:0.0024664293 #
0.15209494262739984 1:0 2:0.67000002 3:0 4:0.30000001 5:1 6:1 7:0 8:1 9:0 10:0 11:0 12:1 13:0 14:1 15:0 16:0 17:0 18:1 19:0 20:0 21:0 22:0 23:0.68141592 24:0.20353982 25:0.085545726 26:0.03539823 #
-0.15209494262739984 1:0 2:0.18000001 3:1 4:0.1 5:1 6:0 7:0 8:1 9:0 10:0 11:0 12:1 13:0 14:1 15:0 16:0 17:0 18:0 19:0 20:0 21:1 22:0 23:0.66666669 24:0.33333334 25:0.33333334 26:0.33333334 #
-0.15209494262739984 1:0 2:0.34999999 3:0 4:0.2 5:1 6:0 7:0 8:1 9:0 10:0 11:1 12:1 13:0 14:0 15:0 16:0 17:0 18:0 19:0 20:1 21:0 22:0 23:0.029122679 24:0.0094648711 25:0.87550056 26:0.086639971 #
-0.15209494262739984 1:1 2:0.19 3:0 4:0 5:1 6:1 7:0 8:0 9:1 10:0 11:0 12:1 13:0 14:0 15:0 16:0 17:0 18:1 19:0 20:0 21:0 22:0 23:0.70423728 24:0.23898305 25:0.040677965 26:0.01779661 #
-0.15209494262739984 1:0 2:0.07 3:1 4:0.1 5:1 6:1 7:0 8:0 9:0 10:0 11:0 12:1 13:0 14:1 15:0 16:0 17:0 18:1 19:0 20:0 21:0 22:0 23:0.84351146 24:0.0063613229 25:0.13867685 26:0.013994911 #
-0.15209494262739984 1:0 2:0.37 3:0 4:0.2 5:1 6:0 7:1 8:1 9:0 10:0 11:0 12:1 13:1 14:0 15:1 16:0 17:0 18:0 19:0 20:0 21:1 22:0 23:0.013229333 24:0.00066675839 25:0.014192428 26:0.97193265 #
-0.15209494262739984 1:0 2:0.12 3:1 4:0.1 5:1 6:1 7:0 8:0 9:0 10:0 11:0 12:1 13:0 14:1 15:1 16:0 17:0 18:0 19:0 20:1 21:0 22:0 23:0.3548387 24:0.64516127 25:0.032258064 26:0.032258064 #
0.15209494262739984 1:1 2:0.0099999998 3:0 4:0 5:1 6:1 7:0 8:0 9:0 10:0 11:0 12:1 13:0 14:0 15:0 16:0 17:0 18:0 19:1 20:0 21:0 22:0 23:0.41379312 24:0.049261082 25:0.32266009 26:0.21921182 #
0.15209494262739984 1:0 2:0.51999998 3:1 4:0.1 5:1 6:1 7:0 8:1 9:0 10:0 11:0 12:1 13:0 14:0 15:0 16:0 17:0 18:1 19:0 20:0 21:0 22:0 23:0.56547767 24:0.096782237 25:0.26615116 26:0.072087802 #
0.15209494262739984 1:0 2:0.23 3:1 4:0.1 5:1 6:1 7:0 8:0 9:0 10:0 11:0 12:1 13:0 14:0 15:0 16:0 17:0 18:1 19:0 20:0 21:0 22:0 23:0.91069293 24:0.056152929 25:0.014635603 26:0.019115889 #
0.15209494262739984 1:0 2:0.27000001 3:1 4:0.1 5:1 6:1 7:0 8:0 9:0 10:0 11:0 12:1 13:0 14:0 15:0 16:0 17:0 18:1 19:0 20:0 21:0 22:0 23:0.53184712 24:0.16082802 25:0.22770701 26:0.082802549 #
-0.15209494262739984 1:1 2:0.0099999998 3:0 4:0 5:1 6:1 7:0 8:0 9:1 10:0 11:0 12:1 13:0 14:0 15:0 16:0 17:0 18:0 19:0 20:1 21:0 22:0 23:0.060183551 24:0.0095305331 25:0.90734202 26:0.023296859 #
0.15209494262739984 1:0 2:0.50999999 3:0 4:0.30000001 5:1 6:0 7:1 8:0 9:1 10:0 11:0 12:1 13:0 14:0 15:1 16:0 17:0 18:0 19:0 20:0 21:1 22:0 23:0.0082827937 24:0.00041587246 25:0.0048171892 26:0.98655343 #
-0.15209494262739984 1:1 2:0.1 3:0 4:0 5:1 6:0 7:0 8:1 9:0 10:0 11:0 12:1 13:0 14:0 15:0 16:0 17:0 18:1 19:0 20:0 21:0 22:0 23:0.37008309 24:0.030747922 25:0.18781163 26:0.41191137 #
-0.15209494262739984 1:1 2:0.02 3:0 4:0 5:1 6:0 7:0 8:1 9:0 10:0 11:0 12:1 13:0 14:0 15:1 16:0 17:0 18:1 19:0 20:0 21:0 22:0 23:0.041666668 24:0.0625 25:0.10416666 26:0.83333331 #
-0.15209494262739984 1:0 2:0.1 3:1 4:0.1 5:1 6:0 7:1 8:1 9:0 10:0 11:0 12:1 13:0 14:0 15:0 16:0 17:0 18:0 19:0 20:0 21:1 22:0 23:0.92374033 24:0.0018440762 25:0.012312755 26:0.062159557 #
0.15209494262739984 1:1 2:0.02 3:0 4:0 5:1 6:1 7:0 8:1 9:0 10:0 11:0 12:1 13:1 14:0 15:0 16:0 17:0 18:0 19:0 20:1 21:0 22:0 23:0.0043415339 24:0.0010853835 25:0.98589003 26:0.009406657 #
-0.15209494262739984 1:0 2:0.079999998 3:1 4:0.1 5:1 6:1 7:0 8:1 9:0 10:0 11:0 12:1 13:0 14:1 15:0 16:0 17:0 18:1 19:0 20:0 21:0 22:0 23:0.95971566 24:0.015910629 25:0.0072782668 26:0.017433988 #
-0.15209494262739984 1:0 2:0.090000004 3:1 4:0.1 5:1 6:0 7:1 8:1 9:0 10:0 11:0 12:1 13:0 14:0 15:0 16:0 17:0 18:0 19:0 20:0 21:1 22:0 23:0.37008309 24:0.030747922 25:0.18781163 26:0.41191137 #
0.15209494262739984 1:1 2:0.1 3:0 4:0 5:1 6:0 7:0 8:1 9:0 10:0 11:0 12:1 13:0 14:0 15:1 16:0 17:0 18:0 19:0 20:1 21:0 22:0 23:0.25 24:0.25 25:0.25 26:0.75 #
0.15209494262739984 1:1 2:0.050000001 3:0 4:0 5:1 6:1 7:0 8:0 9:0 10:0 11:0 12:1 13:0 14:0 15:1 16:0 17:0 18:0 19:0 20:1 21:0 22:0 23:0.0026246719 24:0.0026246719 25:0.82283467 26:0.17454068 #
0.15209494262739984 1:1 2:0.079999998 3:0 4:0 5:1 6:1 7:0 8:0 9:0 10:0 11:0 12:1 13:0 14:0 15:1 16:0 17:0 18:0 19:0 20:1 21:0 22:0 23:0.015058677 24:0.0034222174 25:0.94425625 26:0.037267465 #
-0.15209494262739984 1:1 2:0.079999998 3:0 4:0 5:1 6:1 7:0 8:0 9:0 10:0 11:0 12:1 13:0 14:0 15:1 16:0 17:0 18:0 19:0 20:1 21:0 22:0 23:0.0079802843 24:0.0061025703 25:0.96596646 26:0.020185424 #
0.15209494262739984 1:0 2:0.1 3:1 4:0.1 5:1 6:1 7:0 8:1 9:0 10:0 11:0 12:1 13:0 14:1 15:0 16:0 17:0 18:1 19:0 20:0 21:0 22:0 23:0.98766786 24:0.0041107154 25:0.0063030967 26:0.0024664293 #
-0.15209494262739984 1:1 2:0.02 3:0 4:0 5:1 6:1 7:0 8:1 9:0 10:0 11:0 12:1 13:0 14:0 15:1 16:0 17:0 18:0 19:0 20:1 21:0 22:0 23:0.025617911 24:0.0087145967 25:0.93646234 26:0.029242732 #
-0.096441448139756927 1:1 2:0.0099999998 3:0 4:0 5:1 6:0 7:0 8:1 9:0 10:0 11:0 12:1 13:0 14:0 15:0 16:0 17:0 18:1 19:0 20:0 21:0 22:0 23:0.02427569 24:0.0053676181 25:0.022537606 26:0.94783187 #
-0.15209494262739984 1:0 2:0.17 3:1 4:0.1 5:1 6:1 7:0 8:0 9:1 10:0 11:0 12:1 13:1 14:0 15:1 16:0 17:0 18:1 19:0 20:0 21:0 22:0 23:0.64320385 24:0.058252428 25:0.17475729 26:0.12864077 #
-0.15209494262739984 1:0 2:0.28 3:1 4:0.1 5:1 6:1 7:0 8:0 9:0 10:0 11:0 12:1 13:0 14:1 15:0 16:0 17:0 18:0 19:1 20:0 21:0 22:0 23:0.84351146 24:0.0063613229 25:0.13867685 26:0.013994911 #
-0.15209494262739984 1:1 2:0.039999999 3:0 4:0 5:1 6:1 7:0 8:0 9:1 10:0 11:0 12:1 13:0 14:0 15:1 16:0 17:0 18:0 19:0 20:1 21:0 22:0 23:0.003773585 24:0.00039037084 25:0.98698765 26:0.0091086533 #
0.15209494262739984 1:0 2:0.12 3:1 4:0.1 5:1 6:0 7:0 8:0 9:1 10:0 11:1 12:1 13:0 14:0 15:0 16:0 17:0 18:0 19:0 20:0 21:1 22:0 23:0.5 24:0.5 25:0.5 26:0.5 #
0.15209494262739984 1:0 2:0.14 3:1 4:0.1 5:1 6:0 7:0 8:0 9:1 10:0 11:1 12:1 13:0 14:0 15:0 16:0 17:0 18:0 19:0 20:0 21:1 22:0 23:0.5 24:0.5 25:0.5 26:0.5 #
0.15209494262739984 1:0 2:0.17 3:1 4:0.1 5:1 6:0 7:0 8:0 9:0 10:0 11:0 12:1 13:0 14:0 15:0 16:0 17:0 18:0 19:0 20:0 21:1 22:0 23:0.019055996 24:0.0041043684 25:0.073585458 26:0.90354735 #
-0.15209494262739984 1:0 2:0.059999999 3:1 4:0.1 5:1 6:0 7:1 8:0 9:0 10:0 11:1 12:1 13:0 14:0 15:0 16:0 17:0 18:0 19:0 20:0 21:1 22:0 23:0.5 24:0.5 25:0.5 26:0.5 #
0.15209494262739984 1:1 2:0.079999998 3:0 4:0 5:1 6:1 7:0 8:0 9:0 10:0 11:0 12:1 13:1 14:0 15:1 16:0 17:0 18:0 19:1 20:0 21:0 22:0 23:0.022526871 24:0.0067580612 25:0.88730127 26:0.083445966 #
-0.15209494262739984 1:1 2:0.02 3:0 4:0 5:1 6:1 7:0 8:0 9:0 10:0 11:0 12:1 13:0 14:0 15:0 16:0 17:0 18:1 19:0 20:0 21:0 22:0 23:0.90139073 24:0.025050268 25:0.05713807 26:0.016588472 #
-0.15209494262739984 1:0 2:0.1 3:1 4:0.1 5:1 6:0 7:0 8:1 9:0 10:0 11:1 12:1 13:0 14:0 15:0 16:0 17:0 18:1 19:0 20:0 21:0 22:0 23:0.029122679 24:0.0094648711 25:0.87550056 26:0.086639971 #
0.15209494262739984 1:1 2:0.090000004 3:0 4:0 5:1 6:1 7:0 8:0 9:0 10:0 11:1 12:1 13:0 14:0 15:0 16:0 17:0 18:0 19:0 20:1 21:0 22:0 23:0.5 24:0.5 25:0.5 26:0.5 #
-0.15209494262739984 1:0 2:0.07 3:1 4:0.1 5:1 6:0 7:1 8:0 9:1 10:0 11:0 12:1 13:1 14:0 15:1 16:0 17:0 18:0 19:0 20:0 21:1 22:0 23:0.02196453 24:0.00027285129 25:0.023055935 26:0.95497954 #
-0.15209494262739984 1:0 2:0.58999997 3:0 4:0.2 5:1 6:0 7:0 8:1 9:0 10:0 11:0 12:1 13:0 14:0 15:1 16:0 17:0 18:0 19:0 20:0 21:1 22:0 23:0.028321408 24:0.0032222907 25:0.92792493 26:0.040562954 #
0.15209494262739984 1:1 2:0.050000001 3:0 4:0 5:1 6:1 7:0 8:1 9:0 10:0 11:0 12:1 13:0 14:0 15:0 16:0 17:0 18:1 19:0 20:0 21:0 22:0 23:0.027868422 24:0.009026316 25:0.89600003 26:0.067157894 #
0.15209494262739984 1:1 2:0.28999999 3:0 4:0 5:1 6:1 7:0 8:0 9:0 10:0 11:0 12:1 13:0 14:0 15:1 16:0 17:0 18:1 19:0 20:0 21:0 22:0 23:0.034502588 24:0.040253021 25:0.90598047 26:0.019838989 #
0.15209494262739984 1:1 2:0.11 3:0 4:0 5:1 6:1 7:0 8:0 9:0 10:0 11:0 12:1 13:0 14:0 15:0 16:0 17:0 18:1 19:0 20:0 21:0 22:0 23:0.027868422 24:0.009026316 25:0.89600003 26:0.067157894 #
0.15209494262739984 1:1 2:0.050000001 3:0 4:0 5:1 6:1 7:0 8:1 9:0 10:0 11:0 12:1 13:0 14:0 15:1 16:0 17:0 18:1 19:0 20:0 21:0 22:0 23:0.94451451 24:0.0050441362 25:0.036569986 26:0.016393442 #
0.15209494262739984 1:1 2:0.07 3:0 4:0 5:1 6:1 7:0 8:1 9:0 10:0 11:0 12:1 13:0 14:0 15:1 16:0 17:0 18:0 19:0 20:1 21:0 22:0 23:0.012924787 24:0.0006643582 25:0.97161376 26:0.014837333 #
-0.15209494262739984 1:1 2:0.050000001 3:0 4:0 5:1 6:1 7:0 8:1 9:0 10:0 11:0 12:1 13:1 14:0 15:1 16:0 17:0 18:1 19:0 20:0 21:0 22:0 23:0.030265849 24:0.0049079754 25:0.86073619 26:0.10449897 #
-0.15209494262739984 1:1 2:0.07 3:0 4:0 5:1 6:1 7:0 8:1 9:0 10:0 11:0 12:1 13:0 14:0 15:1 16:0 17:0 18:1 19:0 20:0 21:0 22:0 23:0.028321408 24:0.0032222907 25:0.92792493 26:0.040562954 #
-0.15209494262739984 1:1 2:0.13 3:0 4:0 5:1 6:1 7:0 8:1 9:0 10:0 11:0 12:1 13:0 14:0 15:1 16:0 17:0 18:1 19:0 20:0 21:0 22:0 23:0.27891713 24:0.12715341 25:0.51599669 26:0.079573423 #
-0.15209494262739984 1:1 2:0.31 3:0 4:0 5:1 6:1 7:0 8:1 9:0 10:0 11:0 12:1 13:0 14:0 15:1 16:0 17:0 18:1 19:0 20:0 21:0 22:0 23:0.39596036 24:0.037347563 25:0.38986281 26:0.17759146 #
0.15209494262739984 1:0 2:0.14 3:1 4:0.1 5:1 6:0 7:1 8:0 9:0 10:0 11:0 12:0 13:0 14:0 15:1 16:0 17:0 18:0 19:0 20:0 21:1 22:0 23:0.052857574 24:0.0056849108 25:0.092289083 26:0.84928936 #
0.15209494262739984 1:0 2:0.1 3:1 4:0.1 5:1 6:0 7:0 8:0 9:0 10:0 11:0 12:0 13:0 14:0 15:0 16:0 17:0 18:0 19:0 20:0 21:1 22:0 23:0.016572755 24:0.0034802784 25:0.052867085 26:0.92741132 #
0.15209494262739984 1:0 2:0.30000001 3:1 4:0.1 5:1 6:0 7:1 8:0 9:0 10:0 11:0 12:1 13:0 14:0 15:0 16:0 17:0 18:0 19:0 20:0 21:1 22:0 23:0.023433132 24:0.0019061659 25:0.081088297 26:0.89359784 #
0.15209494262739984 1:0 2:0.13 3:1 4:0.1 5:1 6:0 7:1 8:0 9:1 10:0 11:0 12:1 13:0 14:0 15:1 16:0 17:0 18:0 19:0 20:0 21:1 22:0 23:0.33333334 24:0.33333334 25:0.33333334 26:0.66666669 #
-0.15209494262739984 1:0 2:0.27000001 3:1 4:0.1 5:1 6:0 7:1 8:0 9:0 10:0 11:0 12:0 13:0 14:0 15:0 16:0 17:0 18:0 19:0 20:0 21:1 22:0 23:0.0036229233 24:0.00047573738 25:0.026275342 26:0.9696992 #
-0.15209494262739984 1:0 2:0.02 3:1 4:0.1 5:1 6:0 7:1 8:0 9:0 10:0 11:1 12:1 13:0 14:0 15:0 16:0 17:0 18:0 19:0 20:0 21:1 22:0 23:0.5 24:0.5 25:0.5 26:0.5 #
-0.15209494262739984 1:1 2:0.12 3:0 4:0 5:1 6:1 7:0 8:0 9:1 10:0 11:0 12:1 13:0 14:0 15:0 16:0 17:0 18:0 19:0 20:1 21:0 22:0 23:0.13647096 24:0.058869824 25:0.64678103 26:0.15819298 #
-0.15209494262739984 1:1 2:0.02 3:0 4:0 5:1 6:1 7:0 8:0 9:0 10:0 11:0 12:1 13:0 14:0 15:1 16:0 17:0 18:0 19:0 20:1 21:0 22:0 23:0.023233023 24:0.0029257466 25:0.94360369 26:0.030266345 #
0.15209494262739984 1:1 2:0.07 3:0 4:0 5:1 6:0 7:1 8:0 9:0 10:0 11:0 12:1 13:0 14:0 15:1 16:0 17:0 18:0 19:0 20:0 21:1 22:0 23:0.017734196 24:0.00041727518 25:0.029209264 26:0.95305651 #
0.15209494262739984 1:1 2:0.090000004 3:0 4:0 5:1 6:1 7:0 8:1 9:0 10:0 11:0 12:1 13:0 14:0 15:1 16:0 17:0 18:1 19:0 20:0 21:0 22:0 23:0.95269293 24:0.023003232 25:0.0071436199 26:0.017179629 #
-0.15209494262739984 1:1 2:0.050000001 3:0 4:0 5:1 6:1 7:0 8:1 9:0 10:0 11:0 12:1 13:0 14:0 15:1 16:0 17:0 18:1 19:0 20:0 21:0 22:0 23:0.88961041 24:0.025974026 25:0.064935066 26:0.032467533 #
0.15209494262739984 1:0 2:0.23999999 3:1 4:0.1 5:1 6:0 7:1 8:0 9:1 10:0 11:1 12:1 13:0 14:0 15:0 16:1 17:1 18:0 19:0 20:0 21:1 22:1 23:0.0087336246 24:0.0043668123 25:0.043668121 26:0.95196509 #
-0.15209494262739984 1:1 2:0.18000001 3:0 4:0 5:1 6:1 7:0 8:0 9:0 10:0 11:1 12:1 13:0 14:0 15:0 16:1 17:0 18:1 19:0 20:0 21:0 22:1 23:0.5 24:0.5 25:0.5 26:0.5 #
-0.15209494262739984 1:1 2:0.079999998 3:0 4:0 5:1 6:1 7:0 8:0 9:0 10:0 11:1 12:1 13:0 14:0 15:0 16:1 17:0 18:1 19:0 20:0 21:0 22:1 23:0.5 24:0.5 25:0.5 26:0.5 #
-0.15209494262739984 1:0 2:0.25999999 3:1 4:0.1 5:1 6:1 7:0 8:0 9:0 10:0 11:1 12:1 13:0 14:0 15:0 16:1 17:1 18:0 19:1 20:0 21:0 22:1 23:0.5 24:0.5 25:0.5 26:0.5 #
0.15209494262739984 1:0 2:0.090000004 3:1 4:0.1 5:1 6:0 7:0 8:0 9:0 10:0 11:0 12:0 13:0 14:0 15:0 16:0 17:0 18:0 19:0 20:0 21:1 22:0 23:0.015554902 24:0.0082003381 25:0.93189675 26:0.044421565 #
0.15209494262739984 1:0 2:0.090000004 3:1 4:0.1 5:1 6:0 7:1 8:1 9:0 10:0 11:0 12:1 13:0 14:0 15:0 16:0 17:0 18:0 19:0 20:0 21:1 22:0 23:0.023433132 24:0.0019061659 25:0.081088297 26:0.89359784 #
-0.15209494262739984 1:0 2:0.1 3:1 4:0.1 5:1 6:0 7:1 8:1 9:0 10:0 11:0 12:0 13:0 14:0 15:1 16:0 17:0 18:0 19:0 20:0 21:1 22:0 23:0.0087336246 24:0.0043668123 25:0.043668121 26:0.95196509 #
-0.15209494262739984 1:0 2:0.07 3:1 4:0.1 5:1 6:0 7:0 8:1 9:0 10:0 11:0 12:1 13:0 14:0 15:0 16:0 17:0 18:0 19:0 20:1 21:0 22:0 23:0.21518987 24:0.037974682 25:0.50632912 26:0.2658228 #
-0.15209494262739984 1:1 2:0.029999999 3:0 4:0 5:1 6:0 7:0 8:0 9:1 10:0 11:0 12:1 13:0 14:1 15:0 16:0 17:0 18:0 19:0 20:0 21:1 22:0 23:0.69999999 24:0.1 25:0.1 26:0.30000001 #
0.15209494262739984 1:1 2:0.050000001 3:0 4:0 5:1 6:1 7:0 8:0 9:0 10:0 11:1 12:1 13:0 14:0 15:1 16:0 17:0 18:1 19:0 20:0 21:0 22:1 23:0.49117854 24:0.095192529 25:0.065414235 26:0.34826139 #
0.15209494262739984 1:0 2:0.44999999 3:1 4:0.1 5:1 6:1 7:0 8:1 9:0 10:0 11:0 12:1 13:0 14:1 15:0 16:0 17:0 18:0 19:1 20:0 21:0 22:0 23:0.5 24:0.5 25:0.5 26:0.5 #
-0.15209494262739984 1:0 2:0.13 3:1 4:0.1 5:1 6:1 7:0 8:1 9:0 10:0 11:1 12:1 13:0 14:0 15:0 16:0 17:1 18:1 19:0 20:0 21:0 22:0 23:0.5 24:0.5 25:0.5 26:0.5 #
-0.15209494262739984 1:0 2:0.13 3:1 4:0.1 5:1 6:1 7:0 8:1 9:0 10:0 11:0 12:1 13:0 14:1 15:0 16:0 17:0 18:0 19:0 20:1 21:0 22:0 23:0.42857143 24:0.2857143 25:0.2857143 26:0.2857143 #
0.15209494262739984 1:1 2:0.1 3:0 4:0 5:1 6:0 7:1 8:0 9:0 10:0 11:0 12:0 13:0 14:0 15:0 16:0 17:0 18:0 19:0 20:0 21:1 22:0 23:0.026850034 24:0.0039292732 25:0.92206943 26:0.048461035 #
0.15209494262739984 1:1 2:0.059999999 3:0 4:0 5:1 6:0 7:0 8:0 9:1 10:0 11:0 12:0 13:0 14:1 15:0 16:0 17:0 18:0 19:0 20:0 21:1 22:0 23:0.052083332 24:0.86458331 25:0.010416667 26:0.09375 #
0.15209494262739984 1:1 2:0.039999999 3:0 4:0 5:1 6:0 7:0 8:0 9:0 10:0 11:0 12:0 13:1 14:0 15:0 16:0 17:0 18:0 19:0 20:0 21:1 22:0 23:0.56547767 24:0.096782237 25:0.26615116 26:0.072087802 #
0.15209494262739984 1:0 2:0.57999998 3:0 4:0.2 5:1 6:0 7:0 8:0 9:0 10:0 11:0 12:0 13:0 14:1 15:0 16:0 17:0 18:0 19:0 20:0 21:1 22:0 23:0.46546721 24:0.50145096 25:0.01334881 26:0.02089379 #
-0.15209494262739984 1:1 2:0.17 3:0 4:0 5:1 6:0 7:1 8:0 9:1 10:0 11:0 12:0 13:0 14:0 15:0 16:0 17:0 18:0 19:0 20:0 21:1 22:0 23:0.35247257 24:0.10822185 25:0.131219 26:0.40838718 #
-0.15209494262739984 1:1 2:0.16 3:0 4:0 5:1 6:0 7:1 8:0 9:0 10:0 11:0 12:1 13:0 14:0 15:0 16:0 17:0 18:0 19:0 20:0 21:1 22:0 23:0.022284122 24:0.0017409471 25:0.049094707 26:0.9275766 #
-0.15209494262739984 1:1 2:0.050000001 3:0 4:0 5:1 6:1 7:0 8:0 9:0 10:0 11:0 12:1 13:0 14:1 15:0 16:0 17:0 18:1 19:0 20:0 21:0 22:0 23:0.5 24:0.5 25:0.5 26:0.5 #
0.15209494262739984 1:0 2:0.23 3:1 4:0.1 5:1 6:1 7:0 8:1 9:0 10:0 11:0 12:1 13:0 14:1 15:0 16:0 17:0 18:1 19:0 20:0 21:0 22:0 23:0.98766786 24:0.0041107154 25:0.0063030967 26:0.0024664293 #
0.15209494262739984 1:1 2:0.090000004 3:0 4:0 5:1 6:1 7:0 8:1 9:0 10:0 11:0 12:1 13:0 14:0 15:0 16:0 17:0 18:1 19:0 20:0 21:0 22:0 23:0.95971566 24:0.015910629 25:0.0072782668 26:0.017433988 #
-0.15209494262739984 1:1 2:0.059999999 3:0 4:0 5:1 6:1 7:0 8:0 9:0 10:0 11:0 12:1 13:0 14:0 15:0 16:0 17:0 18:1 19:0 20:0 21:0 22:0 23:0.75999999 24:0.15571429 25:0.058571428 26:0.028571429 #
0.15209494262739984 1:0 2:0.15000001 3:1 4:0.1 5:1 6:1 7:0 8:0 9:1 10:0 11:1 12:1 13:0 14:0 15:0 16:0 17:0 18:1 19:0 20:0 21:0 22:0 23:0.5 24:0.5 25:0.5 26:0.5 #
0.15209494262739984 1:0 2:0.18000001 3:1 4:0.1 5:1 6:1 7:0 8:1 9:0 10:0 11:0 12:1 13:1 14:0 15:1 16:0 17:0 18:0 19:0 20:1 21:0 22:0 23:0.10606061 24:0.075757578 25:0.80303031 26:0.045454547 #
0.15209494262739984 1:0 2:0.079999998 3:1 4:0.1 5:1 6:1 7:0 8:0 9:1 10:0 11:0 12:1 13:0 14:1 15:0 16:0 17:0 18:1 19:0 20:0 21:0 22:0 23:0.94818014 24:0.043800123 25:0.0043183221 26:0.004935225 #
0.15209494262739984 1:0 2:0.17 3:1 4:0.1 5:1 6:1 7:0 8:0 9:0 10:0 11:0 12:1 13:0 14:0 15:1 16:0 17:0 18:0 19:0 20:1 21:0 22:0 23:0.14285715 24:0.071428575 25:0.85714287 26:0.071428575 #
0.15209494262739984 1:1 2:0.090000004 3:0 4:0 5:1 6:1 7:0 8:0 9:1 10:0 11:0 12:1 13:0 14:0 15:1 16:0 17:0 18:0 19:0 20:1 21:0 22:0 23:0.25 24:0.045454547 25:0.59090906 26:0.15909091 #
-0.15209494262739984 1:1 2:0.059999999 3:0 4:0 5:1 6:0 7:1 8:0 9:0 10:0 11:0 12:1 13:0 14:0 15:0 16:0 17:0 18:0 19:0 20:0 21:1 22:0 23:0.017804155 24:0.0059347181 25:0.071216621 26:0.91097921 #
-0.15209494262739984 1:0 2:0.059999999 3:1 4:0.1 5:1 6:1 7:0 8:0 9:0 10:0 11:0 12:1 13:0 14:0 15:1 16:0 17:0 18:0 19:0 20:1 21:0 22:0 23:0.81254369 24:0.070637167 25:0.08521045 26:0.031675261 #
-0.15209494262739984 1:0 2:0.079999998 3:1 4:0.1 5:1 6:1 7:0 8:0 9:0 10:0 11:0 12:1 13:0 14:1 15:1 16:0 17:0 18:1 19:0 20:0 21:0 22:0 23:0.95971733 24:0.018374559 25:0.012014134 26:0.01130742 #
0.15209494262739984 1:1 2:0.07 3:0 4:0 5:1 6:0 7:0 8:0 9:0 10:0 11:0 12:0 13:0 14:0 15:0 16:0 17:0 18:0 19:0 20:0 21:1 22:0 23:0.0025578025 24:0.00057960057 25:0.021609021 26:0.97526199 #
0.15209494262739984 1:1 2:0.039999999 3:0 4:0 5:1 6:0 7:1 8:1 9:0 10:0 11:0 12:1 13:0 14:0 15:0 16:0 17:0 18:0 19:0 20:0 21:1 22:0 23:0.057146225 24:0.0071874633 25:0.044067398 26:0.89183456 #
0.15209494262739984 1:1 2:0.17 3:0 4:0 5:1 6:1 7:0 8:1 9:0 10:0 11:0 12:1 13:0 14:0 15:0 16:0 17:0 18:0 19:0 20:1 21:0 22:0 23:0.015554902 24:0.0082003381 25:0.93189675 26:0.044421565 #
-0.15209494262739984 1:1 2:0.029999999 3:0 4:0 5:1 6:0 7:1 8:1 9:0 10:0 11:0 12:1 13:0 14:0 15:0 16:0 17:0 18:0 19:0 20:0 21:1 22:0 23:0.014692054 24:0.0055242125 25:0.084038556 26:0.89598024 #
0.15209494262739984 1:0 2:0.17 3:1 4:0.1 5:1 6:1 7:0 8:0 9:0 10:0 11:0 12:1 13:0 14:0 15:1 16:0 17:0 18:1 19:0 20:0 21:0 22:0 23:0.90389913 24:0.026066056 25:0.05094162 26:0.019104525 #
-0.15209494262739984 1:1 2:0.0099999998 3:0 4:0 5:1 6:0 7:0 8:0 9:0 10:0 11:1 12:1 13:0 14:0 15:0 16:0 17:0 18:0 19:0 20:0 21:1 22:0 23:0.5 24:0.5 25:0.5 26:0.5 #
0.15209494262739984 1:0 2:0.23999999 3:1 4:0.1 5:1 6:1 7:0 8:0 9:0 10:0 11:0 12:1 13:0 14:0 15:1 16:0 17:0 18:0 19:0 20:1 21:0 22:0 23:0.024229076 24:0.0088105723 25:0.94052863 26:0.030837005 #
-0.15209494262739984 1:0 2:0.14 3:1 4:0.1 5:1 6:1 7:0 8:0 9:0 10:0 11:0 12:0 13:1 14:0 15:1 16:0 17:0 18:1 19:0 20:0 21:0 22:0 23:0.17156941 24:0.031642549 25:0.56638575 26:0.23072031 #
-0.15209494262739984 1:0 2:0.60000002 3:1 4:0.1 5:1 6:1 7:0 8:1 9:0 10:0 11:0 12:0 13:0 14:0 15:1 16:0 17:0 18:1 19:0 20:0 21:0 22:0 23:0.083890893 24:0.016726712 25:0.72619659 26:0.17370047 #
-0.15209494262739984 1:1 2:0.039999999 3:0 4:0 5:1 6:1 7:0 8:0 9:0 10:0 11:0 12:1 13:1 14:0 15:1 16:0 17:0 18:0 19:0 20:1 21:0 22:0 23:0.012505593 24:0.0025055928 25:0.93644297 26:0.048590604 #
-0.15209494262739984 1:0 2:0.56 3:0 4:0.2 5:1 6:1 7:0 8:1 9:0 10:0 11:0 12:0 13:0 14:0 15:1 16:0 17:0 18:1 19:0 20:0 21:0 22:0 23:0.036065575 24:0.0036322726 25:0.92667955 26:0.033686917 #
0.15209494262739984 1:1 2:0.059999999 3:0 4:0 5:1 6:0 7:1 8:0 9:1 10:0 11:0 12:1 13:0 14:0 15:0 16:0 17:0 18:0 19:0 20:0 21:1 22:0 23:0.10898069 24:0.036426306 25:0.019303145 26:0.83529514 #
0.15209494262739984 1:1 2:0.0099999998 3:0 4:0 5:1 6:0 7:1 8:0 9:1 10:0 11:0 12:1 13:0 14:0 15:0 16:0 17:0 18:0 19:0 20:0 21:1 22:0 23:0.037226785 24:0.0099603711 25:0.029292805 26:0.92353636 #
-0.15209494262739984 1:1 2:0.039999999 3:0 4:0 5:1 6:0 7:1 8:0 9:1 10:0 11:0 12:1 13:0 14:0 15:0 16:0 17:0 18:0 19:0 20:0 21:1 22:0 23:0.016174324 24:0.005503763 25:0.020217905 26:0.95832866 #
0.15209494262739984 1:0 2:0.14 3:1 4:0.1 5:1 6:1 7:0 8:1 9:0 10:0 11:0 12:1 13:0 14:1 15:0 16:0 17:0 18:1 19:0 20:0 21:0 22:0 23:0.98766786 24:0.0041107154 25:0.0063030967 26:0.0024664293 #
0.15209494262739984 1:0 2:0.57999998 3:0 4:0.30000001 5:1 6:1 7:0 8:0 9:0 10:0 11:0 12:1 13:0 14:0 15:0 16:0 17:0 18:1 19:0 20:0 21:0 22:0 23:0.027868422 24:0.009026316 25:0.89600003 26:0.067157894 #
-0.15209494262739984 1:0 2:0.14 3:1 4:0.1 5:1 6:0 7:0 8:1 9:0 10:0 11:1 12:1 13:0 14:0 15:0 16:0 17:0 18:1 19:0 20:0 21:0 22:0 23:0.029122679 24:0.0094648711 25:0.87550056 26:0.086639971 #
-0.15209494262739984 1:1 2:0.050000001 3:0 4:0 5:1 6:1 7:0 8:1 9:0 10:0 11:0 12:1 13:0 14:1 15:0 16:0 17:0 18:1 19:0 20:0 21:0 22:0 23:0.45967743 24:0.14516129 25:0.12096774 26:0.29032257 #
-0.15209494262739984 1:0 2:0.11 3:1 4:0.1 5:1 6:1 7:0 8:1 9:0 10:0 11:1 12:1 13:0 14:0 15:0 16:0 17:1 18:1 19:0 20:0 21:0 22:0 23:0.5 24:0.5 25:0.5 26:0.5 #
-0.15209494262739984 1:1 2:0.17 3:0 4:0 5:1 6:0 7:0 8:1 9:0 10:0 11:1 12:1 13:0 14:0 15:0 16:0 17:0 18:1 19:0 20:0 21:0 22:0 23:0.029122679 24:0.0094648711 25:0.87550056 26:0.086639971 #
-0.15209494262739984 1:1 2:0.079999998 3:0 4:0 5:1 6:0 7:0 8:1 9:0 10:0 11:1 12:1 13:0 14:0 15:0 16:0 17:0 18:1 19:0 20:0 21:0 22:0 23:0.029122679 24:0.0094648711 25:0.87550056 26:0.086639971 #
0.15209494262739984 1:0 2:0.16 3:1 4:0.1 5:1 6:0 7:0 8:0 9:0 10:0 11:0 12:0 13:0 14:1 15:0 16:0 17:0 18:0 19:0 20:0 21:1 22:0 23:0.8974551 24:0.068862274 25:0.018163674 26:0.015618763 #
0.15209494262739984 1:0 2:0.23 3:1 4:0.1 5:1 6:0 7:0 8:1 9:0 10:0 11:0 12:0 13:0 14:0 15:1 16:0 17:0 18:0 19:0 20:0 21:1 22:0 23:0.94107324 24:0.030174611 25:0.015161869 26:0.013593569 #
-0.15209494262739984 1:0 2:0.029999999 3:1 4:0.1 5:1 6:0 7:0 8:0 9:0 10:0 11:0 12:1 13:0 14:1 15:1 16:0 17:0 18:0 19:0 20:0 21:1 22:0 23:0.81609195 24:0.14559387 25:0.026819924 26:0.019157087 #
0.15209494262739984 1:1 2:0.11 3:0 4:0 5:1 6:1 7:0 8:1 9:0 10:0 11:0 12:1 13:0 14:0 15:0 16:0 17:0 18:1 19:0 20:0 21:0 22:0 23:0.56547767 24:0.096782237 25:0.26615116 26:0.072087802 #
0.15209494262739984 1:0 2:0.059999999 3:1 4:0.1 5:1 6:0 7:0 8:0 9:1 10:0 11:1 12:1 13:0 14:0 15:0 16:0 17:0 18:1 19:0 20:0 21:0 22:0 23:0.5 24:0.5 25:0.5 26:0.5 #
0.15209494262739984 1:1 2:0.029999999 3:0 4:0 5:1 6:1 7:0 8:1 9:0 10:0 11:0 12:1 13:0 14:0 15:0 16:0 17:0 18:0 19:0 20:1 21:0 22:0 23:0.015554902 24:0.0082003381 25:0.93189675 26:0.044421565 #
0.15209494262739984 1:1 2:0.029999999 3:0 4:0 5:1 6:0 7:0 8:0 9:0 10:0 11:0 12:1 13:1 14:0 15:0 16:0 17:0 18:0 19:0 20:0 21:1 22:0 23:0.033669036 24:0.0057266983 25:0.91064376 26:0.050157979 #
0.15209494262739984 1:0 2:0.20999999 3:1 4:0.1 5:1 6:1 7:0 8:0 9:0 10:0 11:0 12:1 13:0 14:0 15:0 16:0 17:0 18:1 19:0 20:0 21:0 22:0 23:0.027868422 24:0.009026316 25:0.89600003 26:0.067157894 #
0.15209494262739984 1:1 2:0.13 3:0 4:0 5:1 6:0 7:1 8:0 9:1 10:0 11:1 12:1 13:0 14:0 15:0 16:0 17:0 18:0 19:0 20:0 21:1 22:1 23:0.0041216109 24:0.0016455101 25:0.02024761 26:0.97400093 #
0.15209494262739984 1:0 2:0.34 3:1 4:0.1 5:1 6:1 7:0 8:1 9:0 10:0 11:0 12:1 13:0 14:1 15:0 16:0 17:0 18:0 19:1 20:0 21:0 22:0 23:0.2 24:0.40000001 25:0.60000002 26:0.2 #
0.15209494262739984 1:1 2:0.090000004 3:0 4:0 5:1 6:1 7:0 8:1 9:0 10:0 11:0 12:1 13:0 14:1 15:0 16:0 17:0 18:1 19:0 20:0 21:0 22:0 23:0.33333334 24:0.33333334 25:0.66666669 26:0.33333334 #
0.15209494262739984 1:0 2:0.27000001 3:1 4:0.1 5:1 6:1 7:0 8:1 9:0 10:0 11:0 12:1 13:0 14:1 15:0 16:0 17:0 18:1 19:0 20:0 21:0 22:0 23:0.66666669 24:0.33333334 25:0.33333334 26:0.33333334 #
0.15209494262739984 1:1 2:0.15000001 3:0 4:0 5:1 6:0 7:1 8:0 9:0 10:0 11:0 12:0 13:1 14:0 15:1 16:0 17:0 18:0 19:0 20:0 21:1 22:0 23:0.012028167 24:0.0015549042 25:0.010991564 26:0.97546113 #
0.15209494262739984 1:1 2:0.029999999 3:0 4:0 5:1 6:0 7:1 8:0 9:1 10:0 11:0 12:1 13:0 14:0 15:1 16:0 17:0 18:0 19:0 20:0 21:1 22:0 23:0.022624435 24:0.0063348417 25:0.054298643 26:0.91855204 #
0.15209494262739984 1:1 2:0.18000001 3:0 4:0 5:1 6:0 7:0 8:0 9:0 10:0 11:0 12:1 13:0 14:0 15:0 16:0 17:0 18:0 19:0 20:0 21:1 22:0 23:0.022640713 24:0.0054014814 25:0.02247818 26:0.94949049 #
0.15209494262739984 1:0 2:0.059999999 3:1 4:0.1 5:1 6:0 7:0 8:0 9:1 10:0 11:1 12:1 13:0 14:0 15:0 16:0 17:0 18:1 19:0 20:0 21:0 22:0 23:0.5 24:0.5 25:0.5 26:0.5 #
0.15209494262739984 1:0 2:0.25 3:1 4:0.1 5:1 6:1 7:0 8:0 9:0 10:0 11:0 12:0 13:0 14:0 15:1 16:0 17:0 18:0 19:0 20:1 21:0 22:0 23:0.076470651 24:0.018823033 25:0.86892807 26:0.03580045 #
0.15209494262739984 1:0 2:0.44999999 3:0 4:0.2 5:1 6:1 7:0 8:0 9:0 10:0 11:0 12:1 13:1 14:0 15:1 16:0 17:0 18:0 19:0 20:1 21:0 22:0 23:0.090909094 24:0.090909094 25:0.81818181 26:0.18181819 #
0.15209494262739984 1:1 2:0.050000001 3:0 4:0 5:1 6:1 7:0 8:0 9:0 10:0 11:0 12:1 13:0 14:0 15:1 16:0 17:0 18:0 19:0 20:1 21:0 22:0 23:0.22222222 24:0.11111111 25:0.77777779 26:0.11111111 #
-0.15209494262739984 1:0 2:0.039999999 3:1 4:0.1 5:1 6:0 7:0 8:1 9:0 10:0 11:1 12:1 13:0 14:0 15:0 16:0 17:0 18:1 19:0 20:0 21:0 22:0 23:0.029122679 24:0.0094648711 25:0.87550056 26:0.086639971 #
0.033533248025293894 1:0 2:0.090000004 3:1 4:0.1 5:1 6:1 7:0 8:1 9:0 10:0 11:0 12:1 13:0 14:1 15:0 16:0 17:0 18:1 19:0 20:0 21:0 22:0 23:0.98766786 24:0.0041107154 25:0.0063030967 26:0.0024664293 #
0.15209494262739984 1:0 2:0.31 3:1 4:0.1 5:1 6:1 7:0 8:1 9:0 10:0 11:0 12:1 13:0 14:1 15:0 16:0 17:0 18:1 19:0 20:0 21:0 22:0 23:0.98766786 24:0.0041107154 25:0.0063030967 26:0.0024664293 #
0.15209494262739984 1:0 2:0.050000001 3:1 4:0.1 5:1 6:1 7:0 8:0 9:0 10:0 11:0 12:1 13:1 14:0 15:1 16:0 17:0 18:1 19:0 20:0 21:0 22:0 23:0.038126312 24:0.0092673441 25:0.90000457 26:0.052632384 #
0.15209494262739984 1:0 2:0.16 3:1 4:0.1 5:1 6:1 7:0 8:0 9:0 10:0 11:0 12:1 13:0 14:0 15:1 16:0 17:0 18:1 19:0 20:0 21:0 22:0 23:0.0075880759 24:0.0010840108 25:0.056058846 26:0.93542391 #
0.15209494262739984 1:0 2:0.14 3:1 4:0.1 5:1 6:1 7:0 8:0 9:0 10:0 11:0 12:1 13:0 14:0 15:1 16:0 17:0 18:1 19:0 20:0 21:0 22:0 23:0.068062827 24:0.062827222 25:0.81675392 26:0.057591625 #
0.15209494262739984 1:1 2:0.1 3:0 4:0 5:1 6:1 7:0 8:1 9:0 10:0 11:0 12:1 13:0 14:0 15:0 16:0 17:0 18:1 19:0 20:0 21:0 22:0 23:0.56547767 24:0.096782237 25:0.26615116 26:0.072087802 #
0.15209494262739984 1:0 2:0.11 3:1 4:0.1 5:1 6:1 7:0 8:1 9:0 10:0 11:0 12:1 13:0 14:0 15:0 16:0 17:0 18:1 19:0 20:0 21:0 22:0 23:0.027868422 24:0.009026316 25:0.89600003 26:0.067157894 #
0.15209494262739984 1:0 2:0.090000004 3:1 4:0.1 5:1 6:1 7:0 8:1 9:0 10:0 11:0 12:1 13:0 14:0 15:0 16:0 17:0 18:1 19:0 20:0 21:0 22:0 23:0.027868422 24:0.009026316 25:0.89600003 26:0.067157894 #
0.15209494262739984 1:0 2:0.40000001 3:1 4:0.1 5:1 6:1 7:0 8:1 9:0 10:0 11:0 12:1 13:0 14:0 15:1 16:0 17:0 18:1 19:0 20:0 21:0 22:0 23:0.82351393 24:0.11888479 25:0.040768016 26:0.017359285 #
0.15209494262739984 1:0 2:0.17 3:1 4:0.1 5:1 6:0 7:0 8:0 9:1 10:0 11:1 12:1 13:0 14:0 15:0 16:0 17:0 18:1 19:0 20:0 21:0 22:0 23:0.5 24:0.5 25:0.5 26:0.5 #
0.15209494262739984 1:1 2:0.039999999 3:0 4:0 5:1 6:0 7:0 8:1 9:0 10:0 11:0 12:1 13:1 14:0 15:1 16:0 17:0 18:0 19:0 20:0 21:1 22:0 23:0.022526871 24:0.0067580612 25:0.88730127 26:0.083445966 #
-0.15209494262739984 1:1 2:0.17 3:0 4:0 5:1 6:0 7:1 8:0 9:0 10:0 11:0 12:1 13:0 14:0 15:0 16:0 17:0 18:0 19:0 20:0 21:1 22:0 23:0.0013404826 24:0.0013404826 25:0.05227882 26:0.94772118 #
-0.15209494262739984 1:0 2:0.079999998 3:1 4:0.1 5:1 6:1 7:0 8:1 9:0 10:0 11:0 12:1 13:0 14:1 15:0 16:0 17:0 18:0 19:1 20:0 21:0 22:0 23:0.95971566 24:0.015910629 25:0.0072782668 26:0.017433988 #
-0.15209494262739984 1:0 2:0.18000001 3:1 4:0.1 5:1 6:1 7:0 8:1 9:0 10:0 11:1 12:0 13:0 14:0 15:0 16:0 17:0 18:1 19:0 20:0 21:0 22:0 23:0.019469943 24:0.0053301747 25:0.94129407 26:0.034053896 #
-0.15209494262739984 1:1 2:0.059999999 3:0 4:0 5:1 6:1 7:0 8:1 9:0 10:0 11:0 12:1 13:0 14:1 15:0 16:0 17:0 18:1 19:0 20:0 21:0 22:0 23:0.85632181 24:0.057471264 25:0.017241379 26:0.080459774 #
-0.15209494262739984 1:0 2:0.039999999 3:1 4:0.1 5:1 6:1 7:0 8:0 9:0 10:0 11:0 12:1 13:0 14:1 15:0 16:0 17:0 18:1 19:0 20:0 21:0 22:0 23:0.97058237 24:0.012124826 25:0.010236533 26:0.0072550187 #
-0.15209494262739984 1:1 2:0.19 3:0 4:0 5:1 6:1 7:0 8:1 9:0 10:0 11:0 12:1 13:0 14:1 15:0 16:0 17:0 18:1 19:0 20:0 21:0 22:0 23:0.98820436 24:0.0013287055 25:0.0055588698 26:0.0049623083 #
0.15209494262739984 1:1 2:0.029999999 3:0 4:0 5:1 6:0 7:1 8:0 9:1 10:0 11:1 12:1 13:0 14:0 15:0 16:0 17:0 18:0 19:0 20:0 21:1 22:1 23:0.016008005 24:0.0017508754 25:0.0057528764 26:0.97698849 #
0.15209494262739984 1:1 2:0.02 3:0 4:0 5:1 6:0 7:1 8:0 9:0 10:0 11:0 12:1 13:1 14:0 15:0 16:0 17:0 18:0 19:0 20:0 21:1 22:0 23:0.040540539 24:0.013513514 25:0.013513514 26:0.95945948 #
-0.15209494262739984 1:1 2:0.17 3:0 4:0 5:1 6:0 7:1 8:0 9:0 10:0 11:0 12:1 13:0 14:0 15:1 16:0 17:0 18:0 19:0 20:0 21:1 22:0 23:0.0089009292 24:0.0038699689 25:0.040634673 26:0.94736844 #
0.15209494262739984 1:0 2:0.44999999 3:1 4:0.1 5:1 6:1 7:0 8:1 9:0 10:0 11:0 12:1 13:0 14:1 15:0 16:0 17:0 18:1 19:0 20:0 21:0 22:0 23:0.98766786 24:0.0041107154 25:0.0063030967 26:0.0024664293 #
-0.15209494262739984 1:0 2:0.059999999 3:1 4:0.1 5:1 6:0 7:1 8:0 9:1 10:0 11:0 12:1 13:1 14:0 15:1 16:0 17:0 18:0 19:0 20:0 21:1 22:0 23:0.035680752 24:0.003286385 25:0.037558686 26:0.92441314 #
-0.15209494262739984 1:1 2:0.039999999 3:0 4:0 5:1 6:1 7:0 8:0 9:0 10:0 11:0 12:1 13:0 14:0 15:0 16:0 17:0 18:0 19:0 20:1 21:0 22:0 23:0.059782609 24:0.010869565 25:0.85326087 26:0.086956523 #
-0.15209494262739984 1:1 2:0.11 3:0 4:0 5:1 6:1 7:0 8:0 9:0 10:0 11:0 12:1 13:1 14:0 15:0 16:0 17:0 18:0 19:0 20:1 21:0 22:0 23:0.0073529412 24:0.0073529412 25:0.97794116 26:0.014705882 #
-0.15209494262739984 1:1 2:0.18000001 3:0 4:0 5:1 6:1 7:0 8:0 9:0 10:0 11:0 12:1 13:0 14:0 15:0 16:0 17:0 18:1 19:0 20:0 21:0 22:0 23:0.75 24:0.25 25:0.25 26:0.25 #
0.15209494262739984 1:1 2:0.02 3:0 4:0 5:1 6:1 7:0 8:1 9:0 10:0 11:0 12:1 13:1 14:0 15:0 16:0 17:0 18:0 19:0 20:1 21:0 22:0 23:0.0094155055 24:0.0019564687 25:0.95292246 26:0.035950109 #
0.15209494262739984 1:0 2:0.27000001 3:0 4:0.2 5:1 6:1 7:0 8:1 9:0 10:0 11:0 12:1 13:0 14:0 15:0 16:0 17:0 18:1 19:0 20:0 21:0 22:0 23:0.40000001 24:0.06666667 25:0.40000001 26:0.26666668 #
0.15209494262739984 1:0 2:0.28 3:0 4:0.2 5:1 6:1 7:0 8:1 9:0 10:0 11:0 12:1 13:0 14:1 15:0 16:0 17:0 18:1 19:0 20:0 21:0 22:0 23:0.98766786 24:0.0041107154 25:0.0063030967 26:0.0024664293 #
0.15209494262739984 1:0 2:0.25999999 3:0 4:0.2 5:1 6:1 7:0 8:0 9:0 10:0 11:0 12:1 13:0 14:0 15:0 16:0 17:0 18:1 19:0 20:0 21:0 22:0 23:0.33333334 24:0.33333334 25:0.66666669 26:0.33333334 #
0.15209494262739984 1:0 2:0.30000001 3:0 4:0.2 5:1 6:1 7:0 8:0 9:0 10:0 11:1 12:1 13:0 14:0 15:0 16:1 17:1 18:1 19:0 20:0 21:0 22:0 23:0.5 24:0.5 25:0.5 26:0.5 #
0.15209494262739984 1:0 2:0.28 3:1 4:0.1 5:1 6:0 7:1 8:1 9:0 10:0 11:0 12:1 13:0 14:0 15:1 16:0 17:0 18:0 19:0 20:0 21:1 22:0 23:0.0047938917 24:0.0011948302 25:0.024421163 26:0.96961927 #
-0.15209494262739984 1:0 2:0.47 3:0 4:0.2 5:1 6:1 7:0 8:1 9:0 10:0 11:1 12:1 13:0 14:0 15:0 16:0 17:0 18:1 19:0 20:0 21:0 22:1 23:0.5 24:0.5 25:0.5 26:0.5 #
0.15209494262739984 1:0 2:0.38 3:1 4:0.1 5:1 6:0 7:1 8:1 9:0 10:0 11:0 12:1 13:0 14:0 15:0 16:0 17:0 18:0 19:0 20:0 21:1 22:0 23:0.023433132 24:0.0019061659 25:0.081088297 26:0.89359784 #
-0.15209494262739984 1:0 2:0.23999999 3:0 4:0.2 5:1 6:1 7:0 8:1 9:0 10:0 11:0 12:1 13:0 14:0 15:1 16:0 17:0 18:0 19:0 20:1 21:0 22:0 23:0.0281602 24:0.0075093866 25:0.94618273 26:0.01939925 #
-0.15209494262739984 1:0 2:0.1 3:1 4:0.1 5:1 6:1 7:0 8:1 9:0 10:0 11:1 12:1 13:0 14:0 15:0 16:0 17:1 18:1 19:0 20:0 21:0 22:0 23:0.5 24:0.5 25:0.5 26:0.5 #
-0.15209494262739984 1:0 2:0.25 3:1 4:0.1 5:1 6:1 7:0 8:1 9:0 10:0 11:0 12:1 13:1 14:0 15:1 16:0 17:0 18:1 19:0 20:0 21:0 22:0 23:0.038126312 24:0.0092673441 25:0.90000457 26:0.052632384 #
0.15209494262739984 1:1 2:0.079999998 3:0 4:0 5:1 6:1 7:0 8:0 9:0 10:0 11:1 12:1 13:0 14:1 15:0 16:0 17:0 18:1 19:0 20:0 21:0 22:1 23:0.79859817 24:0.17694178 25:0.010728079 26:0.014018023 #
-0.15209494262739984 1:1 2:0.029999999 3:0 4:0 5:1 6:0 7:0 8:0 9:1 10:0 11:1 12:1 13:0 14:0 15:0 16:0 17:0 18:0 19:0 20:0 21:1 22:0 23:0.5 24:0.5 25:0.5 26:0.5 #
0.15209494262739984 1:0 2:0.090000004 3:1 4:0.1 5:1 6:1 7:0 8:1 9:0 10:0 11:0 12:1 13:0 14:0 15:0 16:0 17:0 18:1 19:0 20:0 21:0 22:0 23:0.027868422 24:0.009026316 25:0.89600003 26:0.067157894 #
-0.15209494262739984 1:1 2:0.02 3:0 4:0 5:1 6:1 7:0 8:0 9:1 10:0 11:0 12:1 13:0 14:1 15:0 16:0 17:0 18:1 19:0 20:0 21:0 22:0 23:0.97260273 24:0.006849315 25:0.01369863 26:0.020547945 #
-0.15209494262739984 1:0 2:0.23999999 3:1 4:0.1 5:1 6:1 7:0 8:0 9:0 10:0 11:0 12:1 13:0 14:1 15:0 16:0 17:0 18:1 19:0 20:0 21:0 22:0 23:0.68141592 24:0.20353982 25:0.085545726 26:0.03539823 #
0.15209494262739984 1:0 2:0.13 3:1 4:0.1 5:1 6:1 7:0 8:1 9:0 10:0 11:0 12:1 13:0 14:1 15:0 16:0 17:0 18:1 19:0 20:0 21:0 22:0 23:0.98766786 24:0.0041107154 25:0.0063030967 26:0.0024664293 #
-0.15209494262739984 1:0 2:0.19 3:1 4:0.1 5:1 6:0 7:0 8:0 9:0 10:0 11:1 12:1 13:0 14:0 15:0 16:1 17:1 18:0 19:0 20:0 21:1 22:1 23:0.5 24:0.5 25:0.5 26:0.5 #
-0.15209494262739984 1:0 2:0.30000001 3:1 4:0.1 5:1 6:1 7:0 8:1 9:0 10:0 11:1 12:1 13:0 14:0 15:0 16:0 17:0 18:1 19:0 20:0 21:0 22:1 23:0.5 24:0.5 25:0.5 26:0.5 #
0.15209494262739984 1:1 2:0.12 3:0 4:0 5:1 6:1 7:0 8:0 9:1 10:1 11:0 12:1 13:0 14:0 15:1 16:0 17:0 18:1 19:0 20:0 21:0 22:0 23:0.94107324 24:0.030174611 25:0.015161869 26:0.013593569 #
0.15209494262739984 1:1 2:0.11 3:0 4:0 5:1 6:1 7:0 8:0 9:1 10:0 11:0 12:1 13:0 14:0 15:1 16:0 17:0 18:1 19:0 20:0 21:0 22:0 23:0.93204969 24:0.011035654 25:0.016746411 26:0.04024541 #
0.15209494262739984 1:1 2:0.02 3:0 4:0 5:1 6:1 7:0 8:0 9:1 10:0 11:0 12:1 13:0 14:0 15:1 16:0 17:0 18:0 19:0 20:1 21:0 22:0 23:0.21288015 24:0.075134166 25:0.61180681 26:0.10375671 #
0.15209494262739984 1:1 2:0.079999998 3:0 4:0 5:1 6:1 7:0 8:0 9:1 10:0 11:0 12:1 13:0 14:1 15:1 16:0 17:0 18:1 19:0 20:0 21:0 22:0 23:0.75531918 24:0.12411348 25:0.078014188 26:0.04964539 #
0.15209494262739984 1:1 2:0.11 3:0 4:0 5:1 6:1 7:0 8:0 9:1 10:0 11:0 12:1 13:0 14:0 15:1 16:0 17:0 18:1 19:0 20:0 21:0 22:0 23:0.0092592593 24:0.0092592593 25:0.027777778 26:0.97222221 #
-0.15209494262739984 1:1 2:0.029999999 3:0 4:0 5:1 6:1 7:0 8:0 9:1 10:0 11:0 12:1 13:0 14:0 15:1 16:0 17:0 18:1 19:0 20:0 21:0 22:0 23:0.90281689 24:0.023474179 25:0.064319246 26:0.010328638 #
0.15209494262739984 1:1 2:0.07 3:0 4:0 5:1 6:1 7:0 8:0 9:0 10:0 11:0 12:1 13:0 14:1 15:1 16:0 17:0 18:0 19:1 20:0 21:0 22:0 23:0.91388887 24:0.060648147 25:0.011574074 26:0.014814815 #
-0.15209494262739984 1:1 2:0.02 3:0 4:0 5:1 6:1 7:0 8:0 9:1 10:0 11:0 12:1 13:0 14:1 15:0 16:0 17:0 18:0 19:0 20:1 21:0 22:0 23:0.54310346 24:0.39655173 25:0.02586207 26:0.05172414 #
-0.15209494262739984 1:1 2:0.07 3:0 4:0 5:1 6:1 7:0 8:0 9:1 10:0 11:0 12:1 13:0 14:1 15:0 16:0 17:0 18:0 19:1 20:0 21:0 22:0 23:0.84351146 24:0.0063613229 25:0.13867685 26:0.013994911 #
-0.15209494262739984 1:1 2:0.02 3:0 4:0 5:1 6:1 7:0 8:0 9:1 10:0 11:0 12:1 13:0 14:0 15:1 16:0 17:0 18:0 19:0 20:1 21:0 22:0 23:0.42197835 24:0.12175785 25:0.37577444 26:0.080594353 #
0.15209494262739984 1:0 2:0.19 3:1 4:0.1 5:1 6:0 7:0 8:1 9:0 10:0 11:1 12:1 13:0 14:0 15:0 16:0 17:0 18:1 19:0 20:0 21:0 22:0 23:0.5 24:0.5 25:0.5 26:0.5 #
0.15209494262739984 1:0 2:0.050000001 3:1 4:0.1 5:1 6:0 7:0 8:1 9:0 10:0 11:1 12:1 13:0 14:0 15:0 16:0 17:0 18:1 19:0 20:0 21:0 22:0 23:0.5 24:0.5 25:0.5 26:0.5 #
0.15209494262739984 1:0 2:0.029999999 3:1 4:0.1 5:1 6:0 7:0 8:0 9:0 10:0 11:1 12:1 13:0 14:0 15:0 16:0 17:0 18:1 19:0 20:0 21:0 22:0 23:0.5 24:0.5 25:0.5 26:0.5 #
-0.15209494262739984 1:0 2:0.059999999 3:1 4:0.1 5:1 6:0 7:0 8:1 9:0 10:0 11:1 12:1 13:0 14:0 15:0 16:0 17:0 18:1 19:0 20:0 21:0 22:0 23:0.5 24:0.5 25:0.5 26:0.5 #
0.15209494262739984 1:1 2:0.050000001 3:0 4:0 5:1 6:1 7:0 8:0 9:1 10:0 11:0 12:1 13:0 14:0 15:0 16:0 17:0 18:0 19:0 20:1 21:0 22:0 23:0.025867136 24:0.00039192633 25:0.95708406 26:0.017048795 #
-0.15209494262739984 1:0 2:0.1 3:1 4:0.1 5:1 6:0 7:0 8:1 9:0 10:0 11:1 12:1 13:0 14:0 15:0 16:0 17:0 18:1 19:0 20:0 21:0 22:0 23:0.029122679 24:0.0094648711 25:0.87550056 26:0.086639971 #
-0.15209494262739984 1:0 2:0.12 3:1 4:0.1 5:1 6:0 7:0 8:1 9:0 10:0 11:1 12:1 13:0 14:0 15:0 16:0 17:0 18:1 19:0 20:0 21:0 22:0 23:0.029122679 24:0.0094648711 25:0.87550056 26:0.086639971 #
0.15209494262739984 1:1 2:0.050000001 3:0 4:0 5:1 6:1 7:0 8:0 9:1 10:0 11:0 12:1 13:0 14:1 15:0 16:0 17:0 18:1 19:0 20:0 21:0 22:0 23:0.5 24:0.5 25:0.5 26:0.5 #
0.15209494262739984 1:1 2:0.039999999 3:0 4:0 5:1 6:1 7:0 8:1 9:0 10:0 11:0 12:1 13:0 14:0 15:1 16:0 17:0 18:0 19:0 20:1 21:0 22:0 23:0.09361925 24:0.066945605 25:0.80962342 26:0.03085774 #
0.15209494262739984 1:1 2:0.23999999 3:0 4:0 5:1 6:1 7:0 8:0 9:0 10:0 11:0 12:1 13:0 14:1 15:0 16:0 17:0 18:0 19:1 20:0 21:0 22:0 23:0.828125 24:0.1484375 25:0.015625 26:0.0234375 #
0.15209494262739984 1:1 2:0.059999999 3:0 4:0 5:1 6:1 7:0 8:0 9:0 10:0 11:0 12:1 13:0 14:1 15:0 16:0 17:0 18:0 19:1 20:0 21:0 22:0 23:0.79005527 24:0.1510129 25:0.040515654 26:0.022099448 #
-0.15209494262739984 1:1 2:0.02 3:0 4:0 5:1 6:1 7:0 8:0 9:1 10:0 11:0 12:1 13:0 14:1 15:0 16:0 17:0 18:0 19:1 20:0 21:0 22:0 23:0.98766786 24:0.0041107154 25:0.0063030967 26:0.0024664293 #
0.15209494262739984 1:0 2:0.16 3:1 4:0.1 5:1 6:0 7:0 8:0 9:1 10:0 11:1 12:1 13:0 14:0 15:0 16:0 17:0 18:1 19:0 20:0 21:0 22:0 23:0.5 24:0.5 25:0.5 26:0.5 #
-0.15209494262739984 1:1 2:0.029999999 3:0 4:0 5:1 6:1 7:0 8:0 9:0 10:0 11:0 12:1 13:0 14:1 15:0 16:0 17:0 18:1 19:0 20:0 21:0 22:0 23:0.0053991517 24:0.97030467 25:0.015811801 26:0.0092556886 #
-0.15209494262739984 1:1 2:0.090000004 3:0 4:0 5:1 6:0 7:1 8:1 9:0 10:0 11:0 12:1 13:0 14:0 15:1 16:0 17:0 18:0 19:0 20:0 21:1 22:0 23:0.012518893 24:0.0012732471 25:0.012083525 26:0.97414076 #
0.15209494262739984 1:0 2:0.02 3:1 4:0.1 5:1 6:1 7:0 8:0 9:0 10:0 11:0 12:1 13:0 14:0 15:0 16:0 17:0 18:1 19:0 20:0 21:0 22:0 23:0.07692308 24:0.92307693 25:0.07692308 26:0.07692308 #
-0.15209494262739984 1:0 2:0.17 3:1 4:0.1 5:1 6:1 7:0 8:0 9:0 10:0 11:0 12:1 13:1 14:1 15:0 16:0 17:0 18:1 19:0 20:0 21:0 22:0 23:0.83500147 24:0.12906058 25:0.016681299 26:0.019373721 #
-0.15209494262739984 1:0 2:0.07 3:1 4:0.1 5:1 6:1 7:0 8:0 9:0 10:0 11:0 12:1 13:1 14:0 15:0 16:0 17:0 18:1 19:0 20:0 21:0 22:0 23:0.79005527 24:0.1510129 25:0.040515654 26:0.022099448 #
-0.15209494262739984 1:0 2:0.059999999 3:1 4:0.1 5:1 6:1 7:0 8:0 9:0 10:0 11:0 12:1 13:0 14:1 15:0 16:0 17:0 18:1 19:0 20:0 21:0 22:0 23:0.68141592 24:0.20353982 25:0.085545726 26:0.03539823 #
-0.15209494262739984 1:0 2:0.19 3:1 4:0.1 5:1 6:1 7:0 8:0 9:0 10:0 11:0 12:1 13:0 14:1 15:0 16:0 17:0 18:1 19:0 20:0 21:0 22:0 23:0.875 24:0.125 25:0.125 26:0.125 #
-0.011850281103470833 1:0 2:0.12 3:1 4:0.1 5:1 6:0 7:0 8:1 9:0 10:0 11:0 12:1 13:1 14:0 15:0 16:0 17:0 18:1 19:0 20:0 21:0 22:0 23:0.026434558 24:0.0033481512 25:0.014942256 26:0.95529765 #
-0.15209494262739984 1:0 2:0.15000001 3:1 4:0.1 5:1 6:0 7:1 8:0 9:0 10:1 11:0 12:1 13:0 14:0 15:0 16:0 17:0 18:0 19:0 20:0 21:1 22:0 23:0.2 24:0.2 25:0.40000001 26:0.60000002 #
-0.15209494262739984 1:1 2:0.02 3:0 4:0 5:1 6:0 7:1 8:1 9:0 10:0 11:0 12:1 13:0 14:0 15:1 16:0 17:0 18:0 19:0 20:0 21:1 22:0 23:0.0034042553 24:0.0025531915 25:0.088085108 26:0.9068085 #
0.15209494262739984 1:0 2:0.07 3:1 4:0.1 5:1 6:1 7:0 8:0 9:0 10:0 11:0 12:1 13:0 14:0 15:0 16:0 17:0 18:1 19:0 20:0 21:0 22:0 23:0.024238525 24:0.019519519 25:0.13921064 26:0.8174603 #
-0.15209494262739984 1:1 2:0.090000004 3:0 4:0 5:1 6:0 7:0 8:1 9:0 10:0 11:0 12:1 13:0 14:1 15:0 16:0 17:0 18:0 19:0 20:0 21:1 22:0 23:0.14457831 24:0.78313255 25:0.060240965 26:0.036144577 #
-0.15209494262739984 1:1 2:0.02 3:0 4:0 5:1 6:1 7:0 8:0 9:0 10:0 11:0 12:1 13:0 14:0 15:0 16:0 17:0 18:1 19:0 20:0 21:0 22:0 23:0.80025566 24:0.084622502 25:0.04859183 26:0.066574112 #
-0.15209494262739984 1:0 2:0.22 3:0 4:0.2 5:1 6:1 7:0 8:1 9:0 10:0 11:0 12:1 13:0 14:0 15:1 16:0 17:0 18:1 19:0 20:0 21:0 22:0 23:0.029284775 24:0.0065703024 25:0.90651399 26:0.058006383 #
0.15209494262739984 1:1 2:0.090000004 3:0 4:0 5:1 6:1 7:0 8:1 9:0 10:0 11:0 12:1 13:1 14:0 15:0 16:0 17:0 18:0 19:0 20:1 21:0 22:0 23:0.026751539 24:0.0023473683 25:0.93205321 26:0.038890183 #
-0.15209494262739984 1:1 2:0.02 3:0 4:0 5:1 6:1 7:0 8:0 9:0 10:0 11:0 12:1 13:0 14:0 15:0 16:0 17:0 18:1 19:0 20:0 21:0 22:0 23:0.59234971 24:0.37143898 25:0.017632058 26:0.018724954 #
0.15209494262739984 1:1 2:0.039999999 3:0 4:0 5:1 6:0 7:0 8:0 9:0 10:0 11:0 12:1 13:0 14:1 15:0 16:0 17:0 18:0 19:0 20:0 21:1 22:0 23:0.82749748 24:0.12992653 25:0.024880691 26:0.017802563 #
0.15209494262739984 1:1 2:0.050000001 3:0 4:0 5:1 6:1 7:0 8:1 9:0 10:0 11:0 12:1 13:0 14:0 15:1 16:0 17:0 18:0 19:0 20:1 21:0 22:0 23:0.040170725 24:0.0048150187 25:0.75361043 26:0.20141049 #
-0.15209494262739984 1:1 2:0.059999999 3:0 4:0 5:1 6:0 7:0 8:1 9:0 10:0 11:0 12:1 13:0 14:1 15:0 16:0 17:0 18:0 19:0 20:0 21:1 22:0 23:0.53018373 24:0.10236221 25:0.27034122 26:0.10236221 #
-0.15209494262739984 1:0 2:0.02 3:1 4:0.1 5:1 6:0 7:0 8:0 9:1 10:0 11:0 12:1 13:0 14:1 15:0 16:0 17:0 18:0 19:0 20:0 21:1 22:0 23:0.7881797 24:0.15130024 25:0.039007094 26:0.021985816 #
0.15209494262739984 1:1 2:0.17 3:0 4:0 5:1 6:1 7:0 8:1 9:0 10:0 11:0 12:1 13:0 14:0 15:1 16:0 17:0 18:0 19:1 20:0 21:0 22:0 23:0.083333336 24:0.1 25:0.81666666 26:0.033333335 #
-0.15209494262739984 1:1 2:0.039999999 3:0 4:0 5:1 6:1 7:0 8:1 9:0 10:0 11:0 12:1 13:0 14:0 15:1 16:0 17:0 18:1 19:0 20:0 21:0 22:0 23:0.78195488 24:0.063909777 25:0.15037593 26:0.011278195 #
-0.15209494262739984 1:1 2:0.18000001 3:0 4:0 5:1 6:0 7:0 8:1 9:0 10:0 11:1 12:1 13:0 14:0 15:0 16:0 17:0 18:0 19:1 20:0 21:0 22:0 23:0.029122679 24:0.0094648711 25:0.87550056 26:0.086639971 #
0.15209494262739984 1:0 2:0.12 3:1 4:0.1 5:1 6:0 7:0 8:0 9:1 10:0 11:1 12:1 13:0 14:0 15:0 16:0 17:0 18:1 19:0 20:0 21:0 22:0 23:0.5 24:0.5 25:0.5 26:0.5 #
-0.15209494262739984 1:0 2:0.07 3:1 4:0.1 5:1 6:1 7:0 8:0 9:0 10:0 11:0 12:0 13:0 14:1 15:1 16:0 17:0 18:1 19:0 20:0 21:0 22:0 23:0.96454698 24:0.012380417 25:0.0095666852 26:0.014631401 #
-0.15209494262739984 1:1 2:0.039999999 3:0 4:0 5:1 6:1 7:0 8:0 9:1 10:0 11:0 12:1 13:0 14:0 15:0 16:0 17:0 18:1 19:0 20:0 21:0 22:0 23:0.96703297 24:0.021978023 25:0.010989011 26:0.021978023 #
0.15209494262739984 1:1 2:0.029999999 3:0 4:0 5:1 6:0 7:0 8:1 9:0 10:0 11:0 12:1 13:0 14:0 15:0 16:0 17:0 18:0 19:0 20:1 21:0 22:0 23:0.19498819 24:0.030079311 25:0.30243841 26:0.47257847 #
-0.15209494262739984 1:0 2:0.67000002 3:0 4:0.30000001 5:1 6:0 7:1 8:1 9:0 10:0 11:1 12:1 13:0 14:0 15:0 16:0 17:0 18:0 19:0 20:0 21:1 22:0 23:0.5 24:0.5 25:0.5 26:0.5 #
-0.15209494262739984 1:1 2:0.0099999998 3:0 4:0 5:1 6:1 7:0 8:0 9:1 10:0 11:0 12:1 13:0 14:1 15:0 16:0 17:0 18:0 19:0 20:1 21:0 22:0 23:0.98766786 24:0.0041107154 25:0.0063030967 26:0.0024664293 #
0.15209494262739984 1:1 2:0.059999999 3:0 4:0 5:1 6:0 7:1 8:0 9:0 10:0 11:1 12:1 13:0 14:0 15:0 16:0 17:0 18:0 19:0 20:0 21:1 22:0 23:0.5 24:0.5 25:0.5 26:0.5 #
-0.15209494262739984 1:0 2:0.18000001 3:1 4:0.1 5:1 6:0 7:1 8:1 9:0 10:0 11:0 12:1 13:0 14:0 15:1 16:0 17:0 18:0 19:0 20:0 21:1 22:0 23:0.023764258 24:0.011026616 25:0.036121674 26:0.92946768 #
0.15209494262739984 1:1 2:0.1 3:0 4:0 5:1 6:1 7:0 8:0 9:1 10:0 11:0 12:1 13:0 14:1 15:0 16:0 17:0 18:1 19:0 20:0 21:0 22:0 23:0.98766786 24:0.0041107154 25:0.0063030967 26:0.0024664293 #
-0.15209494262739984 1:1 2:0.0099999998 3:0 4:0 5:1 6:1 7:0 8:0 9:1 10:0 11:0 12:1 13:0 14:1 15:0 16:0 17:0 18:1 19:0 20:0 21:0 22:0 23:0.92240679 24:0.056647785 25:0.0095682396 26:0.011472367 #
0.15209494262739984 1:0 2:0.37 3:1 4:0.1 5:1 6:0 7:1 8:1 9:0 10:0 11:0 12:1 13:0 14:0 15:1 16:0 17:0 18:0 19:0 20:0 21:1 22:0 23:0.017734196 24:0.00041727518 25:0.029209264 26:0.95305651 #
-0.12436053924903405 1:0 2:0.27000001 3:1 4:0.1 5:1 6:0 7:1 8:0 9:0 10:0 11:0 12:1 13:0 14:0 15:1 16:0 17:0 18:0 19:0 20:0 21:1 22:0 23:0.0025578025 24:0.00057960057 25:0.021609021 26:0.97526199 #
-0.15209494262739984 1:1 2:0.1 3:0 4:0 5:1 6:1 7:0 8:0 9:0 10:0 11:1 12:1 13:0 14:0 15:0 16:1 17:0 18:1 19:0 20:0 21:0 22:1 23:0.5 24:0.5 25:0.5 26:0.5 #
0.15209494262739984 1:0 2:0.22 3:0 4:0.2 5:1 6:1 7:0 8:0 9:0 10:0 11:0 12:1 13:0 14:1 15:0 16:0 17:0 18:1 19:0 20:0 21:0 22:0 23:0.83500147 24:0.12906058 25:0.016681299 26:0.019373721 #
-0.15209494262739984 1:0 2:0.33000001 3:1 4:0.1 5:1 6:1 7:0 8:0 9:1 10:0 11:0 12:1 13:0 14:1 15:0 16:0 17:0 18:1 19:0 20:0 21:0 22:0 23:0.84351146 24:0.0063613229 25:0.13867685 26:0.013994911 #
-0.15209494262739984 1:0 2:0.38 3:1 4:0.1 5:1 6:1 7:0 8:0 9:0 10:0 11:0 12:1 13:0 14:1 15:0 16:0 17:0 18:1 19:0 20:0 21:0 22:0 23:0.98198199 24:0.0060060062 25:0.015015015 26:0.0030030031 #
0.15209494262739984 1:1 2:0.029999999 3:0 4:0 5:1 6:1 7:0 8:0 9:1 10:0 11:1 12:1 13:0 14:0 15:0 16:1 17:0 18:0 19:1 20:0 21:0 22:0 23:0.5 24:0.5 25:0.5 26:0.5 #
0.15209494262739984 1:1 2:0.02 3:0 4:0 5:1 6:1 7:0 8:0 9:0 10:0 11:0 12:1 13:0 14:1 15:0 16:0 17:0 18:1 19:0 20:0 21:0 22:0 23:0.68141592 24:0.20353982 25:0.085545726 26:0.03539823 #
-0.15209494262739984 1:1 2:0.17 3:0 4:0 5:1 6:1 7:0 8:0 9:0 10:0 11:0 12:1 13:0 14:0 15:0 16:0 17:0 18:0 19:0 20:1 21:0 22:0 23:0.014508928 24:0.0029761905 25:0.12202381 26:0.86123514 #
-0.15209494262739984 1:1 2:0.07 3:0 4:0 5:1 6:0 7:0 8:1 9:0 10:0 11:1 12:1 13:0 14:0 15:0 16:0 17:0 18:0 19:1 20:0 21:0 22:0 23:0.029122679 24:0.0094648711 25:0.87550056 26:0.086639971 #
0.15209494262739984 1:0 2:0.1 3:1 4:0.1 5:1 6:0 7:0 8:0 9:0 10:0 11:0 12:1 13:0 14:1 15:1 16:0 17:0 18:0 19:0 20:0 21:1 22:0 23:0.98766786 24:0.0041107154 25:0.0063030967 26:0.0024664293 #
-0.15209494262739984 1:1 2:0.16 3:0 4:0 5:1 6:1 7:0 8:0 9:1 10:0 11:0 12:1 13:0 14:0 15:1 16:0 17:0 18:0 19:0 20:1 21:0 22:0 23:0.033898305 24:0.0084745763 25:0.75423729 26:0.22033899 #
0.15209494262739984 1:0 2:0.41 3:1 4:0.1 5:1 6:1 7:0 8:0 9:0 10:0 11:0 12:1 13:0 14:1 15:0 16:0 17:0 18:1 19:0 20:0 21:0 22:0 23:0.98766786 24:0.0041107154 25:0.0063030967 26:0.0024664293 #
0.15209494262739984 1:0 2:0.28 3:1 4:0.1 5:1 6:1 7:0 8:1 9:0 10:0 11:0 12:1 13:0 14:1 15:0 16:0 17:0 18:1 19:0 20:0 21:0 22:0 23:0.98766786 24:0.0041107154 25:0.0063030967 26:0.0024664293 #
-0.046193307832275377 1:1 2:0.029999999 3:0 4:0 5:1 6:1 7:0 8:0 9:0 10:0 11:0 12:1 13:0 14:0 15:0 16:0 17:0 18:0 19:0 20:1 21:0 22:0 23:0.035899632 24:0.011048098 25:0.86584455 26:0.087261252 #
0.15209494262739984 1:1 2:0.059999999 3:0 4:0 5:1 6:1 7:0 8:0 9:0 10:0 11:1 12:1 13:0 14:0 15:0 16:1 17:0 18:0 19:1 20:0 21:0 22:0 23:0.5 24:0.5 25:0.5 26:0.5 #
-0.15209494262739984 1:0 2:1.0599999 3:0 4:0.40000001 5:1 6:0 7:0 8:0 9:0 10:0 11:1 12:1 13:0 14:0 15:0 16:1 17:1 18:0 19:0 20:0 21:1 22:1 23:0.5 24:0.5 25:0.5 26:0.5 #
0.15209494262739984 1:1 2:0.029999999 3:0 4:0 5:1 6:1 7:0 8:1 9:0 10:0 11:0 12:1 13:0 14:0 15:1 16:0 17:0 18:0 19:0 20:1 21:0 22:0 23:0.11538462 24:0.03846154 25:0.76923078 26:0.15384616 #
-0.15209494262739984 1:1 2:0.1 3:0 4:0 5:1 6:1 7:0 8:0 9:0 10:0 11:0 12:1 13:1 14:0 15:0 16:0 17:0 18:1 19:0 20:0 21:0 22:0 23:0.043838862 24:0.0017772511 25:0.021104857 26:0.93342716 #
0.15209494262739984 1:0 2:0.62 3:1 4:0.1 5:1 6:1 7:0 8:1 9:0 10:0 11:0 12:1 13:0 14:1 15:0 16:0 17:0 18:0 19:1 20:0 21:0 22:0 23:0.33333334 24:0.55555558 25:0.22222222 26:0.11111111 #
0.15209494262739984 1:0 2:0.17 3:1 4:0.1 5:1 6:1 7:0 8:0 9:1 10:0 11:0 12:1 13:0 14:1 15:0 16:0 17:0 18:1 19:0 20:0 21:0 22:0 23:0.98766786 24:0.0041107154 25:0.0063030967 26:0.0024664293 #
-0.15209494262739984 1:0 2:0.19 3:1 4:0.1 5:1 6:1 7:0 8:0 9:0 10:0 11:0 12:1 13:0 14:1 15:0 16:0 17:0 18:0 19:1 20:0 21:0 22:0 23:0.98734176 24:0.0063291141 25:0.012658228 26:0.0063291141 #
0.15209494262739984 1:1 2:0.20999999 3:0 4:0 5:1 6:1 7:0 8:0 9:0 10:0 11:0 12:1 13:1 14:0 15:1 16:0 17:0 18:1 19:0 20:0 21:0 22:0 23:0.020358611 24:0.00028016436 25:0.0071908855 26:0.97235709 #
-0.15209494262739984 1:0 2:0.20999999 3:1 4:0.1 5:1 6:1 7:0 8:1 9:0 10:0 11:0 12:1 13:1 14:0 15:1 16:0 17:0 18:1 19:0 20:0 21:0 22:0 23:0.17613636 24:0.065909088 25:0.6693182 26:0.090909094 #
0.15209494262739984 1:1 2:0.0099999998 3:0 4:0 5:1 6:0 7:1 8:0 9:0 10:0 11:0 12:1 13:0 14:0 15:0 16:0 17:0 18:0 19:0 20:0 21:1 22:0 23:0.01248465 24:0.004093328 25:0.013098649 26:0.97073269 #
-0.15209494262739984 1:0 2:0.36000001 3:1 4:0.1 5:1 6:0 7:0 8:1 9:0 10:0 11:0 12:1 13:0 14:1 15:0 16:0 17:0 18:0 19:0 20:0 21:1 22:0 23:0.66666669 24:0.33333334 25:0.33333334 26:0.33333334 #
-0.15209494262739984 1:1 2:0.029999999 3:0 4:0 5:1 6:1 7:0 8:0 9:0 10:0 11:0 12:1 13:0 14:0 15:1 16:0 17:0 18:0 19:0 20:1 21:0 22:0 23:0.05231424 24:0.013743572 25:0.88322395 26:0.050895549 #
-0.15209494262739984 1:1 2:0.090000004 3:0 4:0 5:1 6:0 7:1 8:0 9:1 10:0 11:0 12:1 13:0 14:0 15:0 16:0 17:0 18:0 19:0 20:0 21:1 22:0 23:0.02440403 24:0.0034577916 25:0.048043355 26:0.92416131 #
0.15209494262739984 1:0 2:0.23999999 3:0 4:0.2 5:1 6:1 7:0 8:0 9:0 10:0 11:0 12:1 13:0 14:0 15:0 16:0 17:0 18:1 19:0 20:0 21:0 22:0 23:0.85706121 24:0.1023442 25:0.02915952 26:0.012578616 #
0.15209494262739984 1:0 2:0.039999999 3:1 4:0.1 5:1 6:1 7:0 8:0 9:0 10:0 11:1 12:1 13:0 14:0 15:0 16:1 17:0 18:0 19:1 20:0 21:0 22:0 23:0.5 24:0.5 25:0.5 26:0.5 #
0.15209494262739984 1:1 2:0.050000001 3:0 4:0 5:1 6:1 7:0 8:0 9:0 10:0 11:0 12:1 13:0 14:0 15:0 16:0 17:0 18:1 19:0 20:0 21:0 22:0 23:0.17850953 24:0.035817448 25:0.71403813 26:0.072790295 #
0.15209494262739984 1:1 2:0.059999999 3:0 4:0 5:1 6:1 7:0 8:1 9:0 10:0 11:0 12:1 13:0 14:0 15:1 16:0 17:0 18:0 19:0 20:1 21:0 22:0 23:0.11111111 24:0.11111111 25:0.8888889 26:0.11111111 #
-0.15209494262739984 1:1 2:0.07 3:0 4:0 5:1 6:1 7:0 8:0 9:0 10:1 11:0 12:1 13:0 14:0 15:0 16:0 17:0 18:1 19:0 20:0 21:0 22:0 23:0.969863 24:0.016438356 25:0.0054794522 26:0.010958904 #
0.15209494262739984 1:0 2:0.12 3:1 4:0.1 5:1 6:0 7:1 8:1 9:0 10:0 11:0 12:1 13:0 14:0 15:1 16:0 17:0 18:0 19:0 20:0 21:1 22:0 23:0.017734196 24:0.00041727518 25:0.029209264 26:0.95305651 #
-0.15209494262739984 1:0 2:0.25 3:1 4:0.1 5:1 6:1 7:0 8:1 9:0 10:0 11:0 12:1 13:0 14:0 15:1 16:0 17:0 18:1 19:0 20:0 21:0 22:0 23:0.016572755 24:0.0034802784 25:0.052867085 26:0.92741132 #
0.15209494262739984 1:1 2:0.029999999 3:0 4:0 5:1 6:0 7:1 8:1 9:0 10:0 11:0 12:1 13:0 14:0 15:0 16:0 17:0 18:0 19:0 20:0 21:1 22:0 23:0.010595759 24:0.001957783 25:0.024656201 26:0.96281397 #
-0.15209494262739984 1:1 2:0.029999999 3:0 4:0 5:1 6:1 7:0 8:0 9:0 10:0 11:0 12:1 13:0 14:1 15:0 16:0 17:0 18:0 19:1 20:0 21:0 22:0 23:0.66666669 24:0.33333334 25:0.33333334 26:0.33333334 #
-0.15209494262739984 1:0 2:0.63999999 3:0 4:0.2 5:1 6:0 7:1 8:0 9:0 10:0 11:1 12:1 13:0 14:0 15:0 16:0 17:0 18:0 19:0 20:0 21:1 22:0 23:0.5 24:0.5 25:0.5 26:0.5 #
0.15209494262739984 1:0 2:0.11 3:1 4:0.1 5:1 6:1 7:0 8:0 9:0 10:0 11:0 12:1 13:1 14:0 15:1 16:0 17:0 18:1 19:0 20:0 21:0 22:0 23:0.81000376 24:0.063083239 25:0.055991042 26:0.071668535 #
0.15209494262739984 1:0 2:0.090000004 3:1 4:0.1 5:1 6:1 7:0 8:0 9:0 10:0 11:0 12:1 13:1 14:0 15:1 16:0 17:0 18:1 19:0 20:0 21:0 22:0 23:0.80025566 24:0.084622502 25:0.04859183 26:0.066574112 #
0.15209494262739984 1:1 2:0.07 3:0 4:0 5:1 6:0 7:0 8:1 9:0 10:0 11:0 12:1 13:1 14:0 15:1 16:0 17:0 18:0 19:0 20:0 21:1 22:0 23:0.085501857 24:0.014869888 25:0.54646838 26:0.35687733 #
-0.15209494262739984 1:0 2:0.88999999 3:0 4:0.2 5:1 6:0 7:0 8:1 9:0 10:0 11:0 12:1 13:0 14:0 15:0 16:0 17:0 18:0 19:0 20:0 21:1 22:0 23:0.0058785109 24:0.00097975181 25:0.96701503 26:0.026779883 #
0.15209494262739984 1:1 2:0.2 3:0 4:0 5:1 6:0 7:1 8:0 9:0 10:0 11:0 12:1 13:0 14:0 15:0 16:0 17:0 18:0 19:0 20:0 21:1 22:0 23:0.022624435 24:0.0063348417 25:0.054298643 26:0.91855204 #
-0.15209494262739984 1:1 2:0.029999999 3:0 4:0 5:1 6:0 7:1 8:0 9:0 10:0 11:0 12:1 13:0 14:0 15:1 16:0 17:0 18:0 19:0 20:0 21:1 22:0 23:0.74674493 24:0.081239685 25:0.048597101 26:0.12378507 #
0.15209494262739984 1:0 2:0.25999999 3:1 4:0.1 5:1 6:1 7:0 8:0 9:0 10:0 11:0 12:1 13:0 14:0 15:0 16:0 17:0 18:1 19:0 20:0 21:0 22:0 23:0.56547767 24:0.096782237 25:0.26615116 26:0.072087802 #
-0.15209494262739984 1:0 2:0.090000004 3:1 4:0.1 5:1 6:1 7:0 8:0 9:0 10:0 11:0 12:0 13:0 14:0 15:0 16:0 17:0 18:1 19:0 20:0 21:0 22:0 23:0.81818181 24:0.18181819 25:0.090909094 26:0.090909094 #
0.15209494262739984 1:1 2:0.090000004 3:0 4:0 5:1 6:1 7:0 8:0 9:0 10:0 11:0 12:1 13:0 14:0 15:1 16:0 17:0 18:0 19:0 20:1 21:0 22:0 23:0.012334432 24:0.0035274604 25:0.93912989 26:0.045023788 #
-0.15209494262739984 1:1 2:0.11 3:0 4:0 5:1 6:1 7:0 8:0 9:1 10:0 11:0 12:1 13:1 14:0 15:1 16:0 17:0 18:0 19:0 20:1 21:0 22:0 23:0.070524327 24:0.0037619218 25:0.90208077 26:0.023664206 #
0.15209494262739984 1:0 2:0.38 3:1 4:0.1 5:1 6:1 7:0 8:0 9:0 10:0 11:0 12:1 13:0 14:1 15:0 16:0 17:0 18:1 19:0 20:0 21:0 22:0 23:0.98766786 24:0.0041107154 25:0.0063030967 26:0.0024664293 #
-0.15209494262739984 1:1 2:0.11 3:0 4:0 5:1 6:1 7:0 8:1 9:0 10:0 11:0 12:1 13:0 14:1 15:0 16:0 17:0 18:1 19:0 20:0 21:0 22:0 23:0.54310346 24:0.39655173 25:0.02586207 26:0.05172414 #
-0.15209494262739984 1:0 2:0.12 3:1 4:0.1 5:1 6:0 7:1 8:0 9:0 10:0 11:0 12:1 13:0 14:0 15:1 16:0 17:0 18:0 19:0 20:0 21:1 22:0 23:0.023441834 24:0.0031440726 25:0.01701498 26:0.95649159 #
-0.15209494262739984 1:1 2:0.039999999 3:0 4:0 5:1 6:1 7:0 8:0 9:0 10:0 11:0 12:1 13:1 14:1 15:0 16:0 17:0 18:1 19:0 20:0 21:0 22:0 23:0.92702234 24:0.050498653 25:0.012664239 26:0.010131392 #
0.15209494262739984 1:0 2:0.34 3:1 4:0.1 5:1 6:0 7:1 8:1 9:0 10:0 11:0 12:1 13:0 14:0 15:0 16:0 17:0 18:0 19:0 20:0 21:1 22:0 23:0.023433132 24:0.0019061659 25:0.081088297 26:0.89359784 #
-0.15209494262739984 1:0 2:0.31 3:1 4:0.1 5:1 6:0 7:1 8:1 9:0 10:0 11:0 12:1 13:0 14:0 15:0 16:0 17:0 18:0 19:0 20:0 21:1 22:0 23:0.023433132 24:0.0019061659 25:0.081088297 26:0.89359784 #
0.15209494262739984 1:1 2:0.059999999 3:0 4:0 5:1 6:1 7:0 8:0 9:1 10:0 11:0 12:1 13:0 14:1 15:0 16:0 17:0 18:1 19:0 20:0 21:0 22:0 23:0.81976742 24:0.058139537 25:0.10465116 26:0.029069768 #
-0.15209494262739984 1:1 2:0.11 3:0 4:0 5:1 6:1 7:0 8:0 9:1 10:0 11:0 12:1 13:0 14:1 15:0 16:0 17:0 18:1 19:0 20:0 21:0 22:0 23:0.95971566 24:0.015910629 25:0.0072782668 26:0.017433988 #
0.15209494262739984 1:0 2:0.27000001 3:1 4:0.1 5:1 6:0 7:1 8:1 9:0 10:0 11:0 12:1 13:0 14:0 15:0 16:0 17:0 18:0 19:0 20:0 21:1 22:0 23:0.023433132 24:0.0019061659 25:0.081088297 26:0.89359784 #
-0.15209494262739984 1:0 2:0.76999998 3:0 4:0.30000001 5:1 6:0 7:1 8:1 9:0 10:0 11:0 12:1 13:0 14:0 15:1 16:0 17:0 18:0 19:0 20:0 21:1 22:0 23:0.010111224 24:0.003033367 25:0.010111224 26:0.97876644 #
0.15209494262739984 1:1 2:0.029999999 3:0 4:0 5:1 6:1 7:0 8:0 9:1 10:0 11:0 12:1 13:0 14:1 15:0 16:0 17:0 18:1 19:0 20:0 21:0 22:0 23:0.85545152 24:0.10682819 25:0.021200441 26:0.017070485 #
-0.15209494262739984 1:1 2:0.22 3:0 4:0 5:1 6:1 7:0 8:0 9:1 10:0 11:0 12:1 13:0 14:1 15:0 16:0 17:0 18:1 19:0 20:0 21:0 22:0 23:0.91346037 24:0.064457566 25:0.01120241 26:0.010906548 #
-0.15209494262739984 1:0 2:0.23 3:1 4:0.1 5:1 6:1 7:0 8:0 9:0 10:0 11:0 12:1 13:0 14:1 15:0 16:0 17:0 18:1 19:0 20:0 21:0 22:0 23:0.828125 24:0.1484375 25:0.015625 26:0.0234375 #
-0.15209494262739984 1:1 2:0.13 3:0 4:0 5:1 6:0 7:0 8:1 9:0 10:0 11:0 12:1 13:0 14:0 15:0 16:0 17:0 18:0 19:0 20:0 21:1 22:0 23:0.19498819 24:0.030079311 25:0.30243841 26:0.47257847 #
0.15209494262739984 1:0 2:0.28999999 3:1 4:0.1 5:1 6:1 7:0 8:0 9:0 10:0 11:0 12:1 13:0 14:1 15:0 16:0 17:0 18:1 19:0 20:0 21:0 22:0 23:0.956402 24:0.011014227 25:0.019733822 26:0.013767784 #
-0.15209494262739984 1:0 2:0.029999999 3:1 4:0.1 5:1 6:1 7:0 8:0 9:0 10:0 11:0 12:1 13:0 14:1 15:0 16:0 17:0 18:1 19:0 20:0 21:0 22:0 23:0.93650794 24:0.015873017 25:0.015873017 26:0.063492067 #
0.15209494262739984 1:1 2:0.02 3:0 4:0 5:1 6:0 7:0 8:1 9:0 10:0 11:0 12:1 13:0 14:0 15:0 16:0 17:0 18:0 19:0 20:0 21:1 22:0 23:0.030265849 24:0.0049079754 25:0.86073619 26:0.10449897 #
-0.15209494262739984 1:1 2:0.0099999998 3:0 4:0 5:1 6:0 7:0 8:1 9:0 10:0 11:0 12:1 13:0 14:0 15:0 16:0 17:0 18:0 19:0 20:0 21:1 22:0 23:0.3779918 24:0.092089221 25:0.3361339 26:0.1937945 #
0.15209494262739984 1:0 2:0.28999999 3:1 4:0.1 5:1 6:1 7:0 8:0 9:0 10:0 11:0 12:1 13:0 14:1 15:0 16:0 17:0 18:1 19:0 20:0 21:0 22:0 23:0.956402 24:0.011014227 25:0.019733822 26:0.013767784 #
-0.15209494262739984 1:0 2:0.029999999 3:1 4:0.1 5:1 6:1 7:0 8:0 9:0 10:0 11:0 12:1 13:0 14:1 15:0 16:0 17:0 18:1 19:0 20:0 21:0 22:0 23:0.91964287 24:0.051785715 25:0.0125 26:0.019642858 #
-0.15209494262739984 1:0 2:0.079999998 3:1 4:0.1 5:1 6:1 7:0 8:1 9:0 10:0 11:0 12:1 13:0 14:0 15:1 16:0 17:0 18:1 19:0 20:0 21:0 22:0 23:0.95319188 24:0.027891563 25:0.0072260322 26:0.011782574 #
-0.15209494262739984 1:0 2:0.050000001 3:1 4:0.1 5:1 6:1 7:0 8:0 9:0 10:0 11:1 12:1 13:0 14:0 15:0 16:1 17:0 18:1 19:0 20:0 21:0 22:1 23:0.5 24:0.5 25:0.5 26:0.5 #
-0.13660197975575861 1:0 2:0.16 3:1 4:0.1 5:1 6:1 7:0 8:0 9:0 10:0 11:0 12:0 13:0 14:0 15:0 16:0 17:0 18:1 19:0 20:0 21:0 22:0 23:0.56334311 24:0.14750732 25:0.21407625 26:0.075659826 #
-0.15209494262739984 1:1 2:0.059999999 3:0 4:0 5:1 6:1 7:0 8:0 9:0 10:0 11:0 12:1 13:0 14:0 15:0 16:0 17:0 18:1 19:0 20:0 21:0 22:0 23:0.68153912 24:0.045435939 25:0.20466639 26:0.06917724 #
0.15209494262739984 1:1 2:0.13 3:0 4:0 5:1 6:0 7:0 8:1 9:0 10:0 11:0 12:1 13:0 14:0 15:1 16:0 17:0 18:0 19:0 20:0 21:1 22:0 23:0.33333334 24:0.33333334 25:0.33333334 26:0.66666669 #
0.15209494262739984 1:1 2:0.059999999 3:0 4:0 5:1 6:0 7:0 8:0 9:0 10:0 11:0 12:1 13:0 14:0 15:0 16:0 17:0 18:0 19:0 20:0 21:1 22:0 23:0.18222772 24:0.073069811 25:0.23110823 26:0.51361871 #
0.15209494262739984 1:1 2:0.079999998 3:0 4:0 5:1 6:0 7:0 8:1 9:0 10:0 11:0 12:1 13:0 14:0 15:1 16:0 17:0 18:0 19:0 20:0 21:1 22:0 23:0.040170725 24:0.0048150187 25:0.75361043 26:0.20141049 #
0.15209494262739984 1:1 2:0.13 3:0 4:0 5:1 6:0 7:0 8:0 9:1 10:0 11:1 12:1 13:0 14:0 15:0 16:0 17:0 18:1 19:0 20:0 21:0 22:0 23:0.5 24:0.5 25:0.5 26:0.5 #
-0.15209494262739984 1:1 2:0.029999999 3:0 4:0 5:1 6:0 7:1 8:0 9:1 10:0 11:0 12:1 13:0 14:0 15:0 16:0 17:0 18:0 19:0 20:0 21:1 22:0 23:0.013730461 24:0.0014786649 25:0.031685676 26:0.95352769 #
0.15209494262739984 1:0 2:0.14 3:1 4:0.1 5:1 6:1 7:0 8:0 9:0 10:0 11:0 12:0 13:0 14:0 15:0 16:0 17:0 18:1 19:0 20:0 21:0 22:0 23:0.8581081 24:0.10472973 25:0.010135135 26:0.028378379 #
-0.15209494262739984 1:1 2:0.079999998 3:0 4:0 5:1 6:1 7:0 8:0 9:0 10:0 11:0 12:0 13:0 14:0 15:0 16:0 17:0 18:1 19:0 20:0 21:0 22:0 23:0.5 24:0.5 25:0.5 26:0.5 #
-0.15209494262739984 1:0 2:0.079999998 3:1 4:0.1 5:1 6:0 7:1 8:0 9:1 10:0 11:0 12:1 13:0 14:0 15:1 16:0 17:0 18:0 19:0 20:0 21:1 22:0 23:0.018311292 24:0.004069176 25:0.017293997 26:0.96236014 #
0.15209494262739984 1:0 2:0.17 3:1 4:0.1 5:1 6:1 7:0 8:0 9:0 10:0 11:0 12:1 13:0 14:0 15:0 16:0 17:0 18:1 19:0 20:0 21:0 22:0 23:0.90497309 24:0.045612924 25:0.025340512 26:0.024707001 #
0.15209494262739984 1:0 2:0.36000001 3:1 4:0.1 5:1 6:0 7:1 8:0 9:0 10:0 11:1 12:1 13:0 14:0 15:0 16:0 17:0 18:0 19:0 20:0 21:1 22:0 23:0.5 24:0.5 25:0.5 26:0.5 #
0.15209494262739984 1:0 2:0.12 3:1 4:0.1 5:1 6:0 7:1 8:0 9:0 10:0 11:1 12:1 13:0 14:0 15:0 16:0 17:0 18:0 19:0 20:0 21:1 22:0 23:0.5 24:0.5 25:0.5 26:0.5 #
0.15209494262739984 1:1 2:0.059999999 3:0 4:0 5:1 6:1 7:0 8:0 9:0 10:0 11:1 12:1 13:0 14:0 15:0 16:0 17:0 18:0 19:0 20:1 21:0 22:0 23:0.5 24:0.5 25:0.5 26:0.5 #
0.15209494262739984 1:1 2:0.090000004 3:0 4:0 5:1 6:1 7:0 8:1 9:0 10:0 11:0 12:1 13:0 14:0 15:0 16:0 17:0 18:1 19:0 20:0 21:0 22:0 23:0.56547767 24:0.096782237 25:0.26615116 26:0.072087802 #
0.15209494262739984 1:1 2:0.02 3:0 4:0 5:1 6:1 7:0 8:0 9:1 10:0 11:0 12:1 13:0 14:0 15:0 16:0 17:0 18:1 19:0 20:0 21:0 22:0 23:0.47598255 24:0.063318774 25:0.38427949 26:0.080786027 #
0.15209494262739984 1:0 2:0.16 3:1 4:0.1 5:1 6:1 7:0 8:0 9:0 10:0 11:0 12:1 13:0 14:0 15:0 16:0 17:0 18:1 19:0 20:0 21:0 22:0 23:0.41301081 24:0.49173492 25:0.027243201 26:0.068108 #
0.15209494262739984 1:1 2:0.07 3:0 4:0 5:1 6:0 7:0 8:0 9:1 10:0 11:1 12:1 13:0 14:0 15:0 16:0 17:0 18:1 19:0 20:0 21:0 22:0 23:0.5 24:0.5 25:0.5 26:0.5 #
0.15209494262739984 1:1 2:0.059999999 3:0 4:0 5:1 6:0 7:0 8:0 9:1 10:0 11:1 12:1 13:0 14:0 15:0 16:0 17:0 18:1 19:0 20:0 21:0 22:0 23:0.5 24:0.5 25:0.5 26:0.5 #
0.15209494262739984 1:1 2:0.02 3:0 4:0 5:1 6:0 7:1 8:0 9:0 10:0 11:0 12:1 13:0 14:0 15:0 16:0 17:0 18:0 19:0 20:0 21:1 22:0 23:0.008400646 24:0.0016155089 25:0.090468496 26:0.90016156 #
0.15209494262739984 1:0 2:0.050000001 3:1 4:0.1 5:1 6:1 7:0 8:1 9:0 10:0 11:0 12:1 13:0 14:1 15:0 16:0 17:0 18:1 19:0 20:0 21:0 22:0 23:0.56547767 24:0.096782237 25:0.26615116 26:0.072087802 #
0.15209494262739984 1:0 2:0.07 3:1 4:0.1 5:1 6:1 7:0 8:0 9:0 10:0 11:0 12:0 13:0 14:0 15:0 16:0 17:0 18:1 19:0 20:0 21:0 22:0 23:0.75999999 24:0.15571429 25:0.058571428 26:0.028571429 #
0.15209494262739984 1:0 2:0.23 3:1 4:0.1 5:1 6:1 7:0 8:0 9:0 10:0 11:0 12:1 13:0 14:1 15:0 16:0 17:0 18:1 19:0 20:0 21:0 22:0 23:0.98766786 24:0.0041107154 25:0.0063030967 26:0.0024664293 #
-0.15209494262739984 1:1 2:0.050000001 3:0 4:0 5:1 6:1 7:0 8:0 9:0 10:0 11:0 12:1 13:0 14:1 15:0 16:0 17:0 18:1 19:0 20:0 21:0 22:0 23:0.97663552 24:0.0085070692 25:0.0051521687 26:0.0099448841 #
-1.1313616710140195e-011 1:1 2:0.090000004 3:0 4:0 5:1 6:1 7:0 8:0 9:1 10:0 11:0 12:1 13:0 14:0 15:1 16:0 17:0 18:1 19:0 20:0 21:0 22:0 23:0.50939345 24:0.049382716 25:0.3032743 26:0.13902308 #
0.15209494262739984 1:0 2:0.17 3:1 4:0.1 5:1 6:1 7:0 8:0 9:0 10:0 11:0 12:1 13:0 14:1 15:0 16:0 17:0 18:1 19:0 20:0 21:0 22:0 23:0.82683408 24:0.12210839 25:0.025115665 26:0.026272306 #
0.15209494262739984 1:0 2:0.14 3:1 4:0.1 5:1 6:1 7:0 8:0 9:0 10:0 11:0 12:1 13:0 14:0 15:0 16:0 17:0 18:1 19:0 20:0 21:0 22:0 23:0.56547767 24:0.096782237 25:0.26615116 26:0.072087802 #
0.15209494262739984 1:0 2:0.090000004 3:1 4:0.1 5:1 6:1 7:0 8:0 9:0 10:0 11:0 12:1 13:0 14:0 15:1 16:0 17:0 18:1 19:0 20:0 21:0 22:0 23:0.81047171 24:0.091334894 25:0.063231848 26:0.035296086 #
0.15209494262739984 1:0 2:0.11 3:1 4:0.1 5:1 6:1 7:0 8:0 9:0 10:0 11:0 12:1 13:0 14:0 15:0 16:0 17:0 18:1 19:0 20:0 21:0 22:0 23:0.56547767 24:0.096782237 25:0.26615116 26:0.072087802 #
0.15209494262739984 1:1 2:0.059999999 3:0 4:0 5:1 6:0 7:1 8:0 9:0 10:0 11:0 12:1 13:0 14:0 15:1 16:0 17:0 18:0 19:0 20:0 21:1 22:0 23:0.012168487 24:0.0021840874 25:0.046489861 26:0.93978161 #
0.15209494262739984 1:0 2:0.079999998 3:1 4:0.1 5:1 6:1 7:0 8:0 9:0 10:0 11:0 12:0 13:0 14:0 15:0 16:0 17:0 18:1 19:0 20:0 21:0 22:0 23:0.8581081 24:0.10472973 25:0.010135135 26:0.028378379 #
-0.15209494262739984 1:1 2:0.02 3:0 4:0 5:1 6:1 7:0 8:0 9:0 10:0 11:0 12:1 13:0 14:0 15:0 16:0 17:0 18:1 19:0 20:0 21:0 22:0 23:0.96193427 24:0.014422535 25:0.019474179 26:0.0042065727 #
-0.15209494262739984 1:1 2:0.059999999 3:0 4:0 5:1 6:0 7:1 8:0 9:0 10:0 11:0 12:1 13:0 14:0 15:0 16:0 17:0 18:0 19:0 20:0 21:1 22:0 23:0.010752688 24:0.82795697 25:0.078853048 26:0.089605734 #
-0.15209494262739984 1:1 2:0.050000001 3:0 4:0 5:1 6:1 7:0 8:1 9:0 10:0 11:0 12:1 13:0 14:0 15:0 16:0 17:0 18:0 19:0 20:1 21:0 22:0 23:0.33333334 24:0.33333334 25:0.66666669 26:0.33333334 #
-0.15209494262739984 1:0 2:0.25999999 3:1 4:0.1 5:1 6:1 7:0 8:1 9:0 10:0 11:0 12:1 13:0 14:0 15:1 16:0 17:0 18:1 19:0 20:0 21:0 22:0 23:0.91960263 24:0.018807948 25:0.036556292 26:0.025298012 #
-0.15209494262739984 1:1 2:0.039999999 3:0 4:0 5:1 6:1 7:0 8:0 9:0 10:0 11:0 12:1 13:0 14:1 15:0 16:0 17:0 18:1 19:0 20:0 21:0 22:0 23:0.97610617 24:0.0026548672 25:0.0088495575 26:0.014159292 #
0.15209494262739984 1:0 2:0.1 3:1 4:0.1 5:1 6:1 7:0 8:0 9:0 10:0 11:0 12:1 13:0 14:0 15:0 16:0 17:0 18:1 19:0 20:0 21:0 22:0 23:0.56547767 24:0.096782237 25:0.26615116 26:0.072087802 #
-0.15209494262739984 1:0 2:0.059999999 3:1 4:0.1 5:1 6:0 7:0 8:1 9:0 10:0 11:1 12:1 13:0 14:0 15:0 16:0 17:0 18:1 19:0 20:0 21:0 22:0 23:0.5 24:0.5 25:0.5 26:0.5 #
-0.15209494262739984 1:0 2:0.16 3:1 4:0.1 5:1 6:0 7:0 8:1 9:0 10:0 11:1 12:1 13:0 14:0 15:0 16:0 17:0 18:1 19:0 20:0 21:0 22:0 23:0.5 24:0.5 25:0.5 26:0.5 #
0.15209494262739984 1:0 2:0.12 3:1 4:0.1 5:1 6:1 7:0 8:1 9:0 10:0 11:0 12:1 13:0 14:1 15:0 16:0 17:0 18:1 19:0 20:0 21:0 22:0 23:0.98766786 24:0.0041107154 25:0.0063030967 26:0.0024664293 #
-0.15209494262739984 1:1 2:0.050000001 3:0 4:0 5:1 6:1 7:0 8:0 9:0 10:0 11:0 12:1 13:0 14:0 15:0 16:0 17:0 18:0 19:0 20:1 21:0 22:0 23:0.093333334 24:0.053333335 25:0.75999999 26:0.12 #
-0.15209494262739984 1:0 2:0.079999998 3:1 4:0.1 5:1 6:1 7:0 8:0 9:0 10:0 11:0 12:1 13:0 14:1 15:0 16:0 17:0 18:1 19:0 20:0 21:0 22:0 23:0.47474748 24:0.13131313 25:0.18326119 26:0.21356422 #
-0.15209494262739984 1:1 2:0.14 3:0 4:0 5:1 6:1 7:0 8:0 9:0 10:0 11:0 12:1 13:0 14:1 15:0 16:0 17:0 18:1 19:0 20:0 21:0 22:0 23:0.21333334 24:0.77999997 25:0.0066666668 26:0.013333334 #
0.15209494262739984 1:0 2:0.050000001 3:1 4:0.1 5:1 6:1 7:0 8:0 9:0 10:0 11:0 12:1 13:0 14:0 15:0 16:0 17:0 18:1 19:0 20:0 21:0 22:0 23:0.56547767 24:0.096782237 25:0.26615116 26:0.072087802 #
-0.15209494262739984 1:0 2:0.28 3:1 4:0.1 5:1 6:1 7:0 8:0 9:0 10:0 11:0 12:1 13:0 14:1 15:0 16:0 17:0 18:0 19:1 20:0 21:0 22:0 23:0.95971566 24:0.015910629 25:0.0072782668 26:0.017433988 #
-0.15209494262739984 1:1 2:0.0099999998 3:0 4:0 5:1 6:0 7:1 8:0 9:0 10:0 11:0 12:1 13:0 14:0 15:0 16:0 17:0 18:0 19:0 20:0 21:1 22:0 23:0.54545456 24:0.0090909088 25:0.2 26:0.26363635 #
-0.15209494262739984 1:1 2:0.039999999 3:0 4:0 5:1 6:1 7:0 8:1 9:0 10:0 11:0 12:1 13:0 14:0 15:0 16:0 17:0 18:0 19:0 20:1 21:0 22:0 23:0.014508928 24:0.0029761905 25:0.12202381 26:0.86123514 #
0.15209494262739984 1:0 2:0.14 3:1 4:0.1 5:1 6:1 7:0 8:0 9:0 10:0 11:0 12:1 13:0 14:1 15:0 16:0 17:0 18:1 19:0 20:0 21:0 22:0 23:0.83500147 24:0.12906058 25:0.016681299 26:0.019373721 #
-0.15209494262739984 1:0 2:0.11 3:1 4:0.1 5:1 6:1 7:0 8:0 9:0 10:0 11:0 12:1 13:0 14:1 15:0 16:0 17:0 18:1 19:0 20:0 21:0 22:0 23:0.95861769 24:0.03156032 25:0.0060304049 26:0.0038637924 #
-0.15209494262739984 1:1 2:0.029999999 3:0 4:0 5:1 6:0 7:0 8:0 9:1 10:0 11:0 12:1 13:0 14:0 15:1 16:0 17:0 18:0 19:0 20:0 21:1 22:0 23:0.73979199 24:0.22167934 25:0.021358274 26:0.017309975 #
-0.15209494262739984 1:1 2:0.02 3:0 4:0 5:1 6:1 7:0 8:0 9:0 10:0 11:0 12:1 13:0 14:1 15:0 16:0 17:0 18:1 19:0 20:0 21:0 22:0 23:0.93150419 24:0.052539404 25:0.0087565677 26:0.007589025 #
0.15209494262739984 1:1 2:0.02 3:0 4:0 5:1 6:0 7:1 8:0 9:0 10:0 11:0 12:1 13:0 14:0 15:1 16:0 17:0 18:0 19:0 20:0 21:1 22:0 23:0.00729927 24:0.00729927 25:0.02189781 26:0.97810221 #
-0.15209494262739984 1:1 2:0.050000001 3:0 4:0 5:1 6:0 7:1 8:0 9:0 10:0 11:0 12:1 13:0 14:0 15:1 16:0 17:0 18:0 19:0 20:0 21:1 22:0 23:0.30013701 24:0.068757951 25:0.352305 26:0.27889791 #
-0.15209494262739984 1:1 2:0.029999999 3:0 4:0 5:1 6:1 7:0 8:0 9:0 10:0 11:0 12:1 13:1 14:0 15:0 16:0 17:0 18:1 19:0 20:0 21:0 22:0 23:0.58823532 24:0.11764706 25:0.35294119 26:0.05882353 #
-0.15209494262739984 1:0 2:0.1 3:1 4:0.1 5:1 6:0 7:1 8:1 9:0 10:0 11:0 12:1 13:0 14:0 15:0 16:0 17:0 18:0 19:0 20:0 21:1 22:0 23:0.5 24:0.5 25:0.5 26:0.5 #
-0.15209494262739984 1:1 2:0.11 3:0 4:0 5:1 6:0 7:1 8:0 9:0 10:0 11:0 12:1 13:0 14:0 15:0 16:0 17:0 18:0 19:0 20:0 21:1 22:0 23:0.21818182 24:0.2 25:0.10909091 26:0.5090909 #
0.15209494262739984 1:0 2:0.28 3:0 4:0.2 5:1 6:1 7:0 8:1 9:0 10:0 11:0 12:1 13:0 14:1 15:0 16:0 17:0 18:1 19:0 20:0 21:0 22:0 23:0.98766786 24:0.0041107154 25:0.0063030967 26:0.0024664293 #
0.15209494262739984 1:0 2:0.039999999 3:1 4:0.1 5:1 6:1 7:0 8:0 9:0 10:0 11:0 12:1 13:0 14:1 15:0 16:0 17:0 18:1 19:0 20:0 21:0 22:0 23:0.8338201 24:0.12850468 25:0.019859813 26:0.018399533 #
0.15209494262739984 1:0 2:0.029999999 3:1 4:0.1 5:1 6:1 7:0 8:0 9:0 10:0 11:0 12:1 13:0 14:1 15:0 16:0 17:0 18:1 19:0 20:0 21:0 22:0 23:0.8338201 24:0.12850468 25:0.019859813 26:0.018399533 #
0.15209494262739984 1:1 2:0.059999999 3:0 4:0 5:1 6:1 7:0 8:0 9:1 10:0 11:0 12:1 13:0 14:1 15:0 16:0 17:0 18:1 19:0 20:0 21:0 22:0 23:0.69999999 24:0.1 25:0.1 26:0.30000001 #
-0.15209494262739984 1:0 2:0.079999998 3:1 4:0.1 5:1 6:1 7:0 8:0 9:1 10:0 11:0 12:1 13:0 14:1 15:0 16:0 17:0 18:1 19:0 20:0 21:0 22:0 23:0.99009901 24:0.0099009899 25:0.0099009899 26:0.0099009899 #
0.15209494262739984 1:1 2:0.039999999 3:0 4:0 5:1 6:0 7:1 8:0 9:0 10:0 11:0 12:1 13:0 14:0 15:1 16:0 17:0 18:0 19:0 20:0 21:1 22:0 23:0.013850415 24:0.002770083 25:0.077562325 26:0.91135734 #
-0.15209494262739984 1:1 2:0.14 3:0 4:0 5:1 6:1 7:0 8:0 9:0 10:0 11:0 12:1 13:0 14:1 15:0 16:0 17:0 18:1 19:0 20:0 21:0 22:0 23:0.95025128 24:0.037688442 25:0.0075376886 26:0.0055276384 #
0.15209494262739984 1:0 2:0.19 3:1 4:0.1 5:1 6:0 7:1 8:1 9:0 10:0 11:0 12:1 13:0 14:0 15:0 16:0 17:0 18:0 19:0 20:0 21:1 22:0 23:0.023433132 24:0.0019061659 25:0.081088297 26:0.89359784 #
-0.15209494262739984 1:0 2:0.13 3:1 4:0.1 5:1 6:0 7:1 8:0 9:0 10:0 11:0 12:1 13:0 14:0 15:1 16:0 17:0 18:0 19:0 20:0 21:1 22:0 23:0.017734196 24:0.00041727518 25:0.029209264 26:0.95305651 #
-0.15209494262739984 1:0 2:0.059999999 3:1 4:0.1 5:1 6:1 7:0 8:1 9:0 10:0 11:0 12:1 13:0 14:0 15:1 16:0 17:0 18:1 19:0 20:0 21:0 22:0 23:0.24356869 24:0.068418175 25:0.45265463 26:0.23645321 #
-0.15209494262739984 1:0 2:0.22 3:1 4:0.1 5:1 6:1 7:0 8:1 9:0 10:0 11:0 12:1 13:0 14:0 15:1 16:0 17:0 18:1 19:0 20:0 21:0 22:0 23:0.42197835 24:0.12175785 25:0.37577444 26:0.080594353 #
-0.15209494262739984 1:0 2:0.090000004 3:1 4:0.1 5:1 6:1 7:0 8:1 9:0 10:0 11:0 12:1 13:0 14:0 15:1 16:0 17:0 18:1 19:0 20:0 21:0 22:0 23:0.27891713 24:0.12715341 25:0.51599669 26:0.079573423 #
-0.15209494262739984 1:0 2:1.29 3:0 4:0.40000001 5:1 6:0 7:1 8:1 9:0 10:0 11:0 12:1 13:0 14:0 15:1 16:0 17:0 18:0 19:0 20:0 21:1 22:0 23:0.017734196 24:0.00041727518 25:0.029209264 26:0.95305651 #
0.15209494262739984 1:1 2:0.07 3:0 4:0 5:1 6:1 7:0 8:0 9:0 10:0 11:0 12:1 13:0 14:0 15:0 16:0 17:0 18:1 19:0 20:0 21:0 22:0 23:0.48669201 24:0.1444867 25:0.092205323 26:0.2785171 #
0.15209494262739984 1:1 2:0.0099999998 3:0 4:0 5:1 6:1 7:0 8:0 9:1 10:0 11:0 12:1 13:0 14:1 15:0 16:0 17:0 18:1 19:0 20:0 21:0 22:0 23:0.98766786 24:0.0041107154 25:0.0063030967 26:0.0024664293 #
0.15209494262739984 1:1 2:0.23999999 3:0 4:0 5:1 6:1 7:0 8:0 9:0 10:0 11:0 12:1 13:0 14:1 15:0 16:0 17:0 18:1 19:0 20:0 21:0 22:0 23:0.98766786 24:0.0041107154 25:0.0063030967 26:0.0024664293 #
0.15209494262739984 1:1 2:0.18000001 3:0 4:0 5:1 6:1 7:0 8:0 9:0 10:0 11:0 12:1 13:0 14:1 15:0 16:0 17:0 18:1 19:0 20:0 21:0 22:0 23:0.98766786 24:0.0041107154 25:0.0063030967 26:0.0024664293 #
-0.15209494262739984 1:1 2:0.22 3:0 4:0 5:1 6:1 7:0 8:0 9:0 10:0 11:0 12:1 13:0 14:1 15:0 16:0 17:0 18:1 19:0 20:0 21:0 22:0 23:0.98965412 24:0.00014779781 25:0.0035471476 26:0.0069464971 #
-0.15209494262739984 1:1 2:0.16 3:0 4:0 5:1 6:1 7:0 8:0 9:0 10:0 11:0 12:1 13:0 14:1 15:0 16:0 17:0 18:1 19:0 20:0 21:0 22:0 23:0.96685082 24:0.022099448 25:0.0055248621 26:0.016574586 #
0.15209494262739984 1:1 2:0.050000001 3:0 4:0 5:1 6:0 7:0 8:1 9:0 10:0 11:0 12:1 13:0 14:0 15:1 16:0 17:0 18:0 19:0 20:0 21:1 22:0 23:0.040170725 24:0.0048150187 25:0.75361043 26:0.20141049 #
-0.15209494262739984 1:1 2:0 3:0 4:0 5:1 6:0 7:1 8:0 9:0 10:0 11:0 12:1 13:0 14:0 15:0 16:0 17:0 18:0 19:0 20:0 21:1 22:0 23:0.0080011431 24:0.00095251703 25:0.011501643 26:0.97959232 #
0.15209494262739984 1:0 2:0.11 3:1 4:0.1 5:1 6:1 7:0 8:0 9:0 10:0 11:0 12:1 13:0 14:0 15:1 16:0 17:0 18:1 19:0 20:0 21:0 22:0 23:0.94107324 24:0.030174611 25:0.015161869 26:0.013593569 #
-0.15209494262739984 1:1 2:0.11 3:0 4:0 5:1 6:1 7:0 8:0 9:0 10:0 11:0 12:1 13:0 14:1 15:0 16:0 17:0 18:1 19:0 20:0 21:0 22:0 23:0.97682118 24:0.0033112583 25:0.019867551 26:0.0066225166 #
0.15209494262739984 1:0 2:0.22 3:1 4:0.1 5:1 6:1 7:0 8:1 9:0 10:0 11:0 12:1 13:0 14:0 15:0 16:0 17:0 18:1 19:0 20:0 21:0 22:0 23:0.56547767 24:0.096782237 25:0.26615116 26:0.072087802 #
-0.15209494262739984 1:1 2:0.029999999 3:0 4:0 5:1 6:1 7:0 8:0 9:1 10:0 11:0 12:1 13:0 14:0 15:1 16:0 17:0 18:0 19:0 20:1 21:0 22:0 23:0.0044911169 24:0.00095766463 25:0.98371971 26:0.010897563 #
-0.15209494262739984 1:1 2:0.02 3:0 4:0 5:1 6:1 7:0 8:0 9:0 10:0 11:0 12:1 13:0 14:0 15:0 16:0 17:0 18:1 19:0 20:0 21:0 22:0 23:0.75753176 24:0.11857229 25:0.071022384 26:0.053115547 #
-0.15209494262739984 1:1 2:0.22 3:0 4:0 5:1 6:1 7:0 8:0 9:0 10:0 11:0 12:0 13:0 14:0 15:0 16:0 17:0 18:1 19:0 20:0 21:0 22:0 23:0.066431507 24:0.014550265 25:0.3633647 26:0.5557515 #
-0.15209494262739984 1:1 2:0.029999999 3:0 4:0 5:1 6:1 7:0 8:1 9:0 10:0 11:0 12:1 13:0 14:0 15:0 16:0 17:0 18:0 19:0 20:1 21:0 22:0 23:0.028814124 24:0.007161892 25:0.85709524 26:0.10726183 #
0.15209494262739984 1:0 2:0.059999999 3:1 4:0.1 5:1 6:0 7:1 8:0 9:0 10:0 11:1 12:1 13:0 14:0 15:0 16:0 17:0 18:0 19:0 20:0 21:1 22:0 23:0.5 24:0.5 25:0.5 26:0.5 #
-0.15209494262739984 1:0 2:0.039999999 3:1 4:0.1 5:1 6:0 7:0 8:0 9:0 10:0 11:0 12:1 13:1 14:0 15:1 16:0 17:0 18:0 19:0 20:0 21:1 22:0 23:0.93644071 24:0.0084745763 25:0.050847456 26:0.012711864 #
-0.15209494262739984 1:1 2:0.039999999 3:0 4:0 5:1 6:1 7:0 8:0 9:0 10:0 11:0 12:1 13:0 14:1 15:0 16:0 17:0 18:1 19:0 20:0 21:0 22:0 23:0.88235295 24:0.11764706 25:0.05882353 26:0.05882353 #
0.15209494262739984 1:1 2:0.039999999 3:0 4:0 5:1 6:0 7:1 8:0 9:0 10:0 11:0 12:1 13:0 14:0 15:1 16:0 17:0 18:0 19:0 20:0 21:1 22:0 23:0.016307892 24:0.0019569471 25:0.020874104 26:0.96216571 #
-0.15209494262739984 1:1 2:0.0099999998 3:0 4:0 5:1 6:0 7:1 8:0 9:0 10:0 11:0 12:1 13:0 14:0 15:1 16:0 17:0 18:0 19:0 20:0 21:1 22:0 23:0.16322902 24:0.024182077 25:0.38940257 26:0.42354196 #
-0.15209494262739984 1:1 2:0.02 3:0 4:0 5:1 6:0 7:1 8:0 9:0 10:0 11:0 12:1 13:0 14:0 15:0 16:0 17:0 18:0 19:0 20:0 21:1 22:0 23:0.017980637 24:0.0055325036 25:0.02835408 26:0.94951588 #
-0.15209494262739984 1:1 2:0.02 3:0 4:0 5:1 6:1 7:0 8:0 9:0 10:0 11:0 12:1 13:0 14:0 15:1 16:0 17:0 18:1 19:0 20:0 21:0 22:0 23:0.038862068 24:0.93015516 25:0.0072241379 26:0.023793103 #
-0.0170900540633242 1:1 2:0.02 3:0 4:0 5:1 6:1 7:0 8:0 9:1 10:0 11:0 12:1 13:0 14:0 15:1 16:0 17:0 18:0 19:1 20:0 21:0 22:0 23:0.41379312 24:0.011494253 25:0.32183909 26:0.27586207 #
-0.15209494262739984 1:1 2:0.029999999 3:0 4:0 5:1 6:0 7:0 8:1 9:0 10:0 11:0 12:1 13:0 14:1 15:0 16:0 17:0 18:0 19:0 20:0 21:1 22:0 23:0.5 24:0.5 25:0.25 26:0.25 #
0.15209494262739984 1:0 2:0.090000004 3:1 4:0.1 5:1 6:1 7:0 8:0 9:0 10:0 11:0 12:1 13:0 14:0 15:1 16:0 17:0 18:1 19:0 20:0 21:0 22:0 23:0.94107324 24:0.030174611 25:0.015161869 26:0.013593569 #
-0.034541327708731862 1:0 2:0.059999999 3:1 4:0.1 5:1 6:1 7:0 8:0 9:0 10:0 11:0 12:1 13:0 14:0 15:1 16:0 17:0 18:1 19:0 20:0 21:0 22:0 23:0.97474116 24:0.010158957 25:0.0063596 26:0.0087447269 #
0.15209494262739984 1:1 2:0.050000001 3:0 4:0 5:1 6:0 7:0 8:0 9:1 10:0 11:1 12:1 13:0 14:0 15:0 16:0 17:0 18:1 19:0 20:0 21:0 22:0 23:0.5 24:0.5 25:0.5 26:0.5 #
-0.15209494262739984 1:0 2:0.12 3:1 4:0.1 5:1 6:0 7:0 8:1 9:0 10:0 11:1 12:1 13:0 14:0 15:0 16:0 17:0 18:1 19:0 20:0 21:0 22:0 23:0.5 24:0.5 25:0.5 26:0.5 #
0.15209494262739984 1:0 2:0.1 3:1 4:0.1 5:1 6:1 7:0 8:0 9:0 10:0 11:0 12:1 13:0 14:0 15:0 16:0 17:0 18:1 19:0 20:0 21:0 22:0 23:0.82727844 24:0.096328273 25:0.031794149 26:0.044647619 #
-0.15209494262739984 1:1 2:0 3:0 4:0 5:1 6:1 7:0 8:0 9:1 10:0 11:0 12:1 13:0 14:0 15:0 16:0 17:0 18:1 19:0 20:0 21:0 22:0 23:0.94107324 24:0.030174611 25:0.015161869 26:0.013593569 #
-0.15209494262739984 1:1 2:0.1 3:0 4:0 5:1 6:1 7:0 8:1 9:0 10:0 11:0 12:1 13:0 14:1 15:0 16:0 17:0 18:1 19:0 20:0 21:0 22:0 23:0.5 24:0.5 25:0.5 26:0.5 #
0.15209494262739984 1:0 2:0.11 3:1 4:0.1 5:1 6:1 7:0 8:0 9:0 10:0 11:0 12:1 13:0 14:0 15:0 16:0 17:0 18:1 19:0 20:0 21:0 22:0 23:0.85802472 24:0.12098765 25:0.0074074073 26:0.016049383 #
0.15209494262739984 1:1 2:0.19 3:0 4:0 5:1 6:1 7:0 8:1 9:0 10:0 11:0 12:1 13:0 14:1 15:0 16:0 17:0 18:1 19:0 20:0 21:0 22:0 23:0.5 24:0.5 25:0.5 26:0.5 #
-0.12372272624828856 1:0 2:0.02 3:1 4:0.1 5:1 6:1 7:0 8:0 9:0 10:0 11:1 12:1 13:0 14:0 15:0 16:0 17:0 18:1 19:0 20:0 21:0 22:0 23:0.011976048 24:0.0059880242 25:0.98802394 26:0.0059880242 #
-0.15209494262739984 1:0 2:0.07 3:1 4:0.1 5:1 6:1 7:0 8:0 9:0 10:0 11:0 12:1 13:0 14:1 15:0 16:0 17:0 18:1 19:0 20:0 21:0 22:0 23:0.75 24:0.25 25:0.25 26:0.25 #
-0.15209494262739984 1:1 2:0.07 3:0 4:0 5:1 6:1 7:0 8:0 9:0 10:0 11:0 12:1 13:1 14:0 15:0 16:0 17:0 18:0 19:0 20:1 21:0 22:0 23:0.01636019 24:0.015325759 25:0.014840328 26:0.95348531 #
0.15209494262739984 1:0 2:0.050000001 3:1 4:0.1 5:1 6:1 7:0 8:0 9:0 10:0 11:0 12:1 13:0 14:0 15:0 16:0 17:0 18:1 19:0 20:0 21:0 22:0 23:0.91454756 24:0.060949985 25:0.013185977 26:0.011349536 #
0.15209494262739984 1:1 2:0.14 3:0 4:0 5:1 6:1 7:0 8:1 9:0 10:0 11:0 12:1 13:0 14:1 15:0 16:0 17:0 18:1 19:0 20:0 21:0 22:0 23:0.027777778 24:0.91666669 25:0.083333336 26:0.027777778 #
0.15209494262739984 1:1 2:0.02 3:0 4:0 5:1 6:0 7:0 8:0 9:0 10:0 11:1 12:1 13:0 14:0 15:0 16:0 17:0 18:0 19:0 20:0 21:1 22:0 23:0.5 24:0.5 25:0.5 26:0.5 #
-0.15209494262739984 1:1 2:0.029999999 3:0 4:0 5:1 6:0 7:0 8:1 9:0 10:0 11:1 12:1 13:0 14:0 15:0 16:0 17:0 18:1 19:0 20:0 21:0 22:0 23:0.029122679 24:0.0094648711 25:0.87550056 26:0.086639971 #
0.15209494262739984 1:0 2:0.059999999 3:1 4:0.1 5:1 6:1 7:0 8:0 9:0 10:0 11:0 12:1 13:0 14:0 15:1 16:0 17:0 18:1 19:0 20:0 21:0 22:0 23:0.94107324 24:0.030174611 25:0.015161869 26:0.013593569 #
0.15209494262739984 1:1 2:0.050000001 3:0 4:0 5:1 6:0 7:1 8:0 9:0 10:0 11:0 12:1 13:0 14:0 15:0 16:0 17:0 18:0 19:0 20:0 21:1 22:0 23:0.019607844 24:0.0032679739 25:0.03267974 26:0.94771242 #
-0.15209494262739984 1:1 2:0.039999999 3:0 4:0 5:1 6:1 7:0 8:0 9:0 10:0 11:0 12:1 13:0 14:0 15:1 16:0 17:0 18:1 19:0 20:0 21:0 22:0 23:0.90283841 24:0.038755458 25:0.033296943 26:0.026200874 #
-0.15209494262739984 1:1 2:0.090000004 3:0 4:0 5:1 6:0 7:1 8:0 9:1 10:0 11:0 12:1 13:0 14:0 15:0 16:0 17:0 18:0 19:0 20:0 21:1 22:0 23:0.1221374 24:0.036895674 25:0.031806614 26:0.81170481 #
-0.15209494262739984 1:0 2:0.11 3:1 4:0.1 5:1 6:1 7:0 8:0 9:0 10:0 11:0 12:1 13:0 14:1 15:0 16:0 17:0 18:1 19:0 20:0 21:0 22:0 23:0.95735455 24:0.027105168 25:0.0068666427 26:0.009396458 #
0.15209494262739984 1:1 2:0.029999999 3:0 4:0 5:1 6:0 7:1 8:0 9:0 10:0 11:0 12:1 13:0 14:0 15:0 16:0 17:0 18:0 19:0 20:0 21:1 22:0 23:0.013209515 24:0.0034761881 25:0.019367334 26:0.9640463 #
0.15209494262739984 1:0 2:0.079999998 3:1 4:0.1 5:1 6:1 7:0 8:0 9:0 10:0 11:0 12:1 13:0 14:1 15:0 16:0 17:0 18:1 19:0 20:0 21:0 22:0 23:0.95769233 24:0.03846154 25:0.0038461538 26:0.0076923077 #
-0.15209494262739984 1:1 2:0.23 3:0 4:0 5:1 6:1 7:0 8:1 9:0 10:0 11:0 12:1 13:0 14:0 15:0 16:0 17:0 18:1 19:0 20:0 21:0 22:0 23:0.3779918 24:0.092089221 25:0.3361339 26:0.1937945 #
0.15209494262739984 1:1 2:0.02 3:0 4:0 5:1 6:0 7:1 8:1 9:0 10:0 11:0 12:1 13:0 14:0 15:0 16:0 17:0 18:0 19:0 20:0 21:1 22:0 23:0.012518893 24:0.0012732471 25:0.012083525 26:0.97414076 #
-0.15209494262739984 1:0 2:0.14 3:1 4:0.1 5:1 6:1 7:0 8:0 9:0 10:0 11:0 12:1 13:0 14:1 15:0 16:0 17:0 18:0 19:1 20:0 21:0 22:0 23:0.86688548 24:0.072545126 25:0.043757375 26:0.016869619 #
0.15209494262739984 1:1 2:0.16 3:0 4:0 5:1 6:1 7:0 8:0 9:0 10:0 11:0 12:1 13:0 14:0 15:1 16:0 17:0 18:1 19:0 20:0 21:0 22:0 23:0.80025566 24:0.084622502 25:0.04859183 26:0.066574112 #
