SVM-light Version V6.02
0 # kernel type
3 # kernel parameter -d 
1 # kernel parameter -g 
1 # kernel parameter -s 
1 # kernel parameter -r 
empty# kernel parameter -u 
38 # highest feature index 
2908 # number of training documents 
772 # number of support vectors plus 1 
2.6353222 # threshold b, each following line is a SV (starting with alpha*y)
0.11884217155182768 1:0 2:1 3:0.25999999 4:0 5:0 6:0 7:1 8:1 9:0 10:0.0099999998 11:1 12:0 13:0 14:0 15:0 16:1 17:0 18:0 19:0 20:0 21:0 22:0 23:0 24:1 25:0 26:0 27:0 28:0 29:1 30:0 31:0 32:0 33:0 34:0.23837826 35:0.024410954 36:0.56569731 37:0.17193802 38:0.2 #
-0.11884217155182768 1:1 2:1 3:0.25999999 4:0 5:0 6:0 7:1 8:1 9:0 10:0.029999999 11:0 12:0 13:0 14:0 15:0 16:1 17:1 18:0 19:0 20:0 21:0 22:0 23:0 24:0 25:0 26:0 27:0 28:0 29:1 30:0 31:0 32:0 33:0 34:0.5 35:0.5 36:0.5 37:0.5 38:0.1 #
-0.11884217155182768 1:1 2:1 3:0.059999999 4:0 5:0 6:0 7:1 8:1 9:0 10:0.0099999998 11:0 12:0 13:0 14:0 15:0 16:1 17:1 18:0 19:0 20:0 21:0 22:0 23:0 24:1 25:0 26:0 27:0 28:0 29:1 30:0 31:0 32:0 33:0 34:0.05231424 35:0.013743572 36:0.88322395 37:0.050895549 38:0.30000001 #
-0.11884217155182768 1:1 2:0 3:0.25999999 4:1 5:0.02 6:0 7:1 8:1 9:0 10:0.12 11:1 12:0 13:0 14:0 15:1 16:1 17:0 18:0 19:0 20:0 21:0 22:0 23:0 24:0 25:0 26:0 27:1 28:0 29:0 30:0 31:0 32:0 33:0 34:0.011259327 35:0.0027583088 36:0.95686185 37:0.029210944 38:0.1 #
-0.11884217155182768 1:1 2:1 3:0.079999998 4:0 5:0 6:0 7:1 8:1 9:0 10:0.0099999998 11:0 12:0 13:0 14:0 15:0 16:1 17:1 18:0 19:1 20:0 21:0 22:0 23:0 24:0 25:0 26:0 27:1 28:0 29:0 30:0 31:0 32:0 33:0 34:0.16666667 35:0.66666669 36:0.16666667 37:0.33333334 38:0.30000001 #
0.11884217155182768 1:1 2:1 3:0.34 4:0 5:0 6:0 7:1 8:0 9:0 10:0.0099999998 11:1 12:0 13:0 14:0 15:0 16:1 17:0 18:0 19:0 20:0 21:0 22:0 23:0 24:1 25:0 26:0 27:0 28:0 29:1 30:0 31:0 32:0 33:0 34:0.027777778 35:0.027777778 36:0.055555556 37:0.94444442 38:0.30000001 #
0.11884217155182768 1:1 2:0 3:0.22 4:1 5:0.02 6:0 7:1 8:1 9:0 10:1.05 11:1 12:0 13:0 14:0 15:1 16:1 17:0 18:0 19:0 20:0 21:0 22:0 23:0 24:0 25:0 26:0 27:1 28:0 29:0 30:0 31:0 32:0 33:0 34:0.56547767 35:0.096782237 36:0.26615116 37:0.072087802 38:0.1 #
0.11884217155182768 1:1 2:1 3:0.25999999 4:0 5:0 6:0 7:1 8:1 9:0 10:0.0099999998 11:1 12:0 13:0 14:0 15:0 16:1 17:0 18:0 19:1 20:0 21:0 22:0 23:0 24:0 25:0 26:0 27:1 28:0 29:0 30:0 31:0 32:0 33:0 34:0.70652175 35:0.23369566 36:0.038043477 37:0.032608695 38:0.30000001 #
-0.11884217155182768 1:1 2:0 3:0.12 4:1 5:0.02 6:0 7:1 8:1 9:0 10:0.0099999998 11:0 12:0 13:0 14:0 15:0 16:1 17:0 18:0 19:1 20:0 21:0 22:0 23:0 24:0 25:0 26:0 27:1 28:0 29:0 30:0 31:0 32:0 33:0 34:0.68141592 35:0.20353982 36:0.085545726 37:0.03539823 38:0.30000001 #
0.11884217155182768 1:1 2:0 3:0.059999999 4:1 5:0.02 6:0 7:1 8:1 9:0 10:0.02 11:0 12:0 13:0 14:1 15:0 16:1 17:0 18:0 19:0 20:0 21:0 22:0 23:0 24:0 25:1 26:0 27:0 28:1 29:0 30:0 31:1 32:0 33:0 34:0.5 35:0.5 36:0.5 37:0.5 38:0.1 #
-0.11884217155182768 1:1 2:0 3:1.16 4:0 5:0.039999999 6:0 7:1 8:1 9:0 10:0.20999999 11:1 12:0 13:0 14:1 15:1 16:1 17:0 18:0 19:0 20:0 21:0 22:0 23:0 24:0 25:0 26:0 27:0 28:1 29:0 30:0 31:1 32:0 33:0 34:0.5 35:0.5 36:0.5 37:0.5 38:0.1 #
-0.11884217155182768 1:0 2:1 3:0.36000001 4:0 5:0 6:0 7:1 8:1 9:0 10:0.07 11:1 12:0 13:0 14:1 15:1 16:1 17:0 18:0 19:0 20:0 21:0 22:0 23:0 24:0 25:0 26:0 27:0 28:1 29:0 30:0 31:0 32:0 33:1 34:0.029122679 35:0.0094648711 36:0.87550056 37:0.086639971 38:0.1 #
-0.11884217155182768 1:1 2:0 3:0.039999999 4:1 5:0.02 6:0 7:1 8:1 9:0 10:0.13 11:1 12:0 13:0 14:1 15:1 16:1 17:0 18:0 19:0 20:0 21:0 22:0 23:0 24:0 25:0 26:1 27:0 28:1 29:0 30:0 31:0 32:0 33:1 34:0.5 35:0.5 36:0.5 37:0.5 38:0.1 #
-0.11884217155182768 1:1 2:1 3:0.22 4:0 5:0 6:0 7:1 8:1 9:0 10:0.18000001 11:1 12:0 13:0 14:1 15:1 16:1 17:0 18:0 19:0 20:0 21:0 22:0 23:0 24:0 25:0 26:0 27:0 28:1 29:0 30:0 31:0 32:0 33:1 34:0.029122679 35:0.0094648711 36:0.87550056 37:0.086639971 38:0.1 #
0.11884217155182768 1:1 2:1 3:0.18000001 4:0 5:0 6:0 7:1 8:1 9:0 10:0.0099999998 11:0 12:0 13:0 14:0 15:0 16:1 17:1 18:0 19:0 20:0 21:0 22:0 23:0 24:1 25:0 26:0 27:0 28:0 29:1 30:0 31:0 32:0 33:0 34:0.012334432 35:0.0035274604 36:0.93912989 37:0.045023788 38:0.80000001 #
0.11884217155182768 1:1 2:1 3:0.16 4:0 5:0 6:0 7:1 8:1 9:0 10:0.0099999998 11:0 12:1 13:0 14:0 15:0 16:1 17:0 18:0 19:1 20:0 21:0 22:0 23:0 24:1 25:0 26:0 27:1 28:0 29:0 30:0 31:0 32:0 33:0 34:0.75531918 35:0.12411348 36:0.078014188 37:0.04964539 38:0.80000001 #
0.11884217155182768 1:1 2:0 3:0.2 4:1 5:0.02 6:0 7:1 8:0 9:0 10:0.0099999998 11:0 12:0 13:0 14:0 15:0 16:1 17:1 18:0 19:1 20:0 21:0 22:0 23:0 24:1 25:0 26:0 27:0 28:0 29:0 30:1 31:0 32:0 33:0 34:0.98766786 35:0.0041107154 36:0.0063030967 37:0.0024664293 38:0.40000001 #
0.11884217155182768 1:1 2:0 3:0.22 4:1 5:0.02 6:0 7:1 8:1 9:0 10:0.0099999998 11:0 12:0 13:0 14:0 15:0 16:1 17:1 18:0 19:0 20:0 21:0 22:0 23:0 24:1 25:0 26:0 27:1 28:0 29:0 30:0 31:0 32:0 33:0 34:0.94107324 35:0.030174611 36:0.015161869 37:0.013593569 38:0.30000001 #
-0.11884217155182768 1:0 2:1 3:0.079999998 4:0 5:0 6:0 7:1 8:1 9:0 10:0.0099999998 11:0 12:0 13:0 14:0 15:0 16:1 17:1 18:1 19:1 20:0 21:0 22:0 23:0 24:0 25:0 26:0 27:1 28:0 29:0 30:0 31:0 32:0 33:0 34:0.92702234 35:0.050498653 36:0.012664239 37:0.010131392 38:0.40000001 #
0.11884217155182768 1:0 2:1 3:0.14 4:0 5:0 6:0 7:1 8:0 9:1 10:0.079999998 11:1 12:0 13:0 14:0 15:1 16:1 17:0 18:0 19:0 20:0 21:0 22:0 23:0 24:0 25:0 26:0 27:0 28:0 29:0 30:1 31:0 32:0 33:0 34:0.041666668 35:0.041666668 36:0.20833333 37:0.79166669 38:0.1 #
-0.11884217155182768 1:1 2:0 3:0.14 4:1 5:0.02 6:0 7:1 8:0 9:1 10:0.029999999 11:0 12:1 13:0 14:0 15:0 16:1 17:0 18:1 19:0 20:0 21:0 22:0 23:0 24:1 25:0 26:0 27:0 28:0 29:0 30:1 31:0 32:0 33:0 34:0.02196453 35:0.00027285129 36:0.023055935 37:0.95497954 38:0.30000001 #
-0.11884217155182768 1:1 2:0 3:0.079999998 4:1 5:0.02 6:0 7:1 8:0 9:0 10:0.0099999998 11:0 12:0 13:0 14:0 15:0 16:1 17:1 18:1 19:0 20:0 21:0 22:0 23:0 24:1 25:0 26:0 27:0 28:0 29:0 30:1 31:0 32:0 33:0 34:0.93644071 35:0.0084745763 36:0.050847456 37:0.012711864 38:0.40000001 #
-0.11884217155182768 1:1 2:0 3:0.2 4:1 5:0.02 6:0 7:1 8:0 9:1 10:0.0099999998 11:1 12:0 13:0 14:0 15:0 16:0 17:0 18:0 19:0 20:0 21:0 22:0 23:0 24:1 25:0 26:0 27:0 28:0 29:0 30:1 31:0 32:0 33:0 34:0.0087336246 35:0.0043668123 36:0.043668121 37:0.95196509 38:0.5 #
-0.11884217155182768 1:1 2:0 3:0.059999999 4:1 5:0.02 6:0 7:1 8:0 9:0 10:0.02 11:0 12:0 13:0 14:0 15:0 16:1 17:1 18:0 19:1 20:0 21:0 22:0 23:0 24:1 25:0 26:0 27:0 28:0 29:0 30:1 31:0 32:0 33:0 34:0.81609195 35:0.14559387 36:0.026819924 37:0.019157087 38:0.30000001 #
0.11884217155182768 1:1 2:1 3:0.31999999 4:0 5:0 6:0 7:1 8:0 9:0 10:0.15000001 11:0 12:0 13:0 14:1 15:0 16:1 17:0 18:0 19:0 20:0 21:0 22:0 23:0 24:0 25:1 26:1 27:0 28:0 29:0 30:1 31:0 32:0 33:1 34:0.5 35:0.5 36:0.5 37:0.5 38:0.1 #
0.11884217155182768 1:1 2:0 3:3.3599999 4:0 5:0.1 6:0 7:1 8:0 9:1 10:0.059999999 11:0 12:0 13:0 14:1 15:0 16:1 17:0 18:0 19:0 20:0 21:0 22:0 23:0 24:0 25:0 26:0 27:0 28:0 29:0 30:1 31:0 32:0 33:0 34:0.5 35:0.5 36:0.5 37:0.5 38:0.1 #
0.11884217155182768 1:0 2:1 3:0.039999999 4:0 5:0 6:0 7:1 8:1 9:0 10:0.1 11:0 12:0 13:0 14:1 15:0 16:1 17:1 18:0 19:0 20:0 21:0 22:0 23:0 24:0 25:1 26:1 27:0 28:1 29:0 30:0 31:0 32:0 33:1 34:0.056205336 35:0.91633928 36:0.006764695 37:0.020705653 38:0.2 #
0.11884217155182768 1:0 2:1 3:0.1 4:0 5:0 6:0 7:1 8:1 9:0 10:0.0099999998 11:0 12:0 13:0 14:1 15:0 16:1 17:1 18:0 19:0 20:0 21:0 22:0 23:0 24:0 25:0 26:0 27:1 28:0 29:0 30:0 31:0 32:0 33:1 34:0.49117854 35:0.095192529 36:0.065414235 37:0.34826139 38:0.5 #
-0.11884217155182768 1:0 2:1 3:0.36000001 4:0 5:0 6:0 7:1 8:1 9:0 10:0.0099999998 11:0 12:0 13:0 14:0 15:0 16:1 17:0 18:0 19:1 20:0 21:0 22:0 23:0 24:0 25:0 26:0 27:1 28:0 29:0 30:0 31:0 32:0 33:0 34:0.82857144 35:0.11428571 36:0.057142857 37:0.057142857 38:0.30000001 #
0.11884217155182768 1:1 2:0 3:0.28 4:1 5:0.02 6:0 7:1 8:0 9:1 10:0.0099999998 11:0 12:0 13:0 14:0 15:0 16:0 17:1 18:0 19:0 20:0 21:0 22:0 23:0 24:1 25:0 26:0 27:0 28:0 29:0 30:1 31:0 32:0 33:0 34:0.052857574 35:0.0056849108 36:0.092289083 37:0.84928936 38:0.5 #
-0.11884217155182768 1:0 2:1 3:0.16 4:0 5:0 6:0 7:1 8:1 9:0 10:0.059999999 11:0 12:0 13:0 14:1 15:0 16:1 17:0 18:0 19:0 20:0 21:0 22:0 23:0 24:0 25:1 26:0 27:1 28:0 29:0 30:0 31:0 32:0 33:1 34:0.5 35:0.5 36:0.5 37:0.5 38:0.1 #
-0.049759634804130107 1:0 2:1 3:0.36000001 4:0 5:0 6:0 7:1 8:1 9:0 10:0.059999999 11:0 12:0 13:0 14:1 15:0 16:1 17:0 18:0 19:0 20:0 21:0 22:0 23:0 24:0 25:1 26:0 27:1 28:0 29:0 30:0 31:0 32:0 33:1 34:0.5 35:0.5 36:0.5 37:0.5 38:0.1 #
-0.11884217155182768 1:0 2:1 3:0.2 4:0 5:0 6:0 7:1 8:1 9:0 10:0.0099999998 11:0 12:0 13:0 14:0 15:0 16:1 17:0 18:0 19:0 20:0 21:1 22:0 23:0 24:0 25:0 26:0 27:1 28:0 29:0 30:0 31:0 32:0 33:0 34:0.90139073 35:0.025050268 36:0.05713807 37:0.016588472 38:0.40000001 #
-0.11884217155182768 1:0 2:1 3:0.1 4:0 5:0 6:0 7:1 8:1 9:0 10:0.0099999998 11:0 12:0 13:0 14:0 15:0 16:1 17:1 18:0 19:0 20:0 21:0 22:0 23:0 24:0 25:0 26:0 27:1 28:0 29:0 30:0 31:0 32:0 33:0 34:0.0205526 35:0.96320188 36:0.0039760116 37:0.012276501 38:0.30000001 #
0.11884217155182768 1:1 2:0 3:6.1799998 4:0 5:0.2 6:0 7:1 8:0 9:0 10:0.029999999 11:0 12:0 13:0 14:0 15:0 16:1 17:0 18:1 19:0 20:0 21:0 22:0 23:0 24:0 25:0 26:0 27:0 28:0 29:0 30:1 31:0 32:0 33:0 34:0.0095238099 35:0.0095238099 36:0.96190476 37:0.03809524 38:0.2 #
0.11884217155182768 1:1 2:0 3:2.9400001 4:0 5:0.079999998 6:0 7:1 8:0 9:0 10:0.07 11:0 12:0 13:0 14:0 15:0 16:1 17:1 18:0 19:0 20:0 21:0 22:0 23:0 24:0 25:0 26:0 27:0 28:0 29:0 30:1 31:0 32:0 33:0 34:0.11111111 35:0.11111111 36:0.44444445 37:0.55555558 38:0.2 #
0.11884217155182768 1:1 2:0 3:0.28 4:1 5:0.02 6:0 7:1 8:0 9:0 10:0.02 11:1 12:0 13:0 14:0 15:0 16:1 17:0 18:1 19:0 20:0 21:0 22:0 23:0 24:1 25:0 26:0 27:0 28:0 29:0 30:1 31:0 32:0 33:0 34:0.28414246 35:0.064086474 36:0.44894314 37:0.20292443 38:0.2 #
0.11884217155182768 1:1 2:0 3:0.44 4:1 5:0.02 6:0 7:1 8:0 9:0 10:0.0099999998 11:0 12:0 13:0 14:0 15:0 16:1 17:1 18:1 19:0 20:0 21:0 22:0 23:0 24:1 25:0 26:0 27:0 28:0 29:0 30:1 31:0 32:0 33:0 34:0.023059677 35:0.001814882 36:0.92697769 37:0.048361268 38:0.60000002 #
0.11884217155182768 1:1 2:0 3:0.74000001 4:1 5:0.02 6:0 7:1 8:0 9:1 10:0.34999999 11:1 12:0 13:0 14:0 15:0 16:1 17:0 18:0 19:0 20:0 21:0 22:0 23:0 24:1 25:0 26:0 27:0 28:0 29:0 30:1 31:0 32:0 33:0 34:0.017734196 35:0.00041727518 36:0.029209264 37:0.95305651 38:0.2 #
0.11884217155182768 1:1 2:0 3:0.23999999 4:1 5:0.02 6:0 7:1 8:0 9:1 10:0.34999999 11:1 12:0 13:0 14:0 15:0 16:1 17:0 18:0 19:0 20:0 21:0 22:0 23:0 24:1 25:0 26:0 27:0 28:0 29:0 30:1 31:0 32:0 33:0 34:0.017734196 35:0.00041727518 36:0.029209264 37:0.95305651 38:0.2 #
0.11884217155182768 1:0 2:1 3:0.1 4:0 5:0 6:0 7:1 8:1 9:0 10:0.029999999 11:0 12:1 13:0 14:0 15:1 16:1 17:0 18:0 19:1 20:0 21:0 22:0 23:0 24:0 25:0 26:0 27:1 28:0 29:0 30:0 31:0 32:0 33:0 34:0.5 35:0.5 36:0.5 37:0.5 38:0.1 #
-0.11884217155182768 1:1 2:0 3:0.18000001 4:1 5:0.02 6:0 7:1 8:0 9:1 10:0.0099999998 11:0 12:0 13:0 14:0 15:0 16:0 17:1 18:1 19:0 20:0 21:0 22:0 23:0 24:0 25:0 26:0 27:0 28:0 29:0 30:1 31:0 32:0 33:0 34:0.0092101945 35:0.0039111786 36:0.068004034 37:0.91912693 38:0.5 #
-0.11884217155182768 1:1 2:0 3:0.25999999 4:1 5:0.02 6:0 7:1 8:0 9:1 10:0.059999999 11:0 12:0 13:0 14:0 15:0 16:1 17:1 18:0 19:0 20:0 21:0 22:0 23:0 24:1 25:0 26:0 27:0 28:0 29:0 30:1 31:0 32:0 33:0 34:0.017734196 35:0.00041727518 36:0.029209264 37:0.95305651 38:0.30000001 #
-0.11884217155182768 1:1 2:0 3:0.039999999 4:1 5:0.02 6:0 7:1 8:0 9:1 10:0.0099999998 11:0 12:0 13:0 14:0 15:0 16:1 17:1 18:0 19:0 20:0 21:0 22:0 23:0 24:0 25:0 26:0 27:0 28:0 29:0 30:1 31:0 32:0 33:0 34:0.0046641789 35:0.00069962686 36:0.037080225 37:0.95802242 38:0.2 #
0.11884217155182768 1:1 2:0 3:1.5 4:0 5:0.039999999 6:0 7:1 8:1 9:0 10:0.15000001 11:0 12:0 13:0 14:1 15:0 16:1 17:0 18:0 19:0 20:0 21:0 22:0 23:0 24:0 25:1 26:0 27:0 28:1 29:0 30:0 31:1 32:0 33:0 34:0.5 35:0.5 36:0.5 37:0.5 38:0.1 #
0.11884217155182768 1:0 2:1 3:0.16 4:0 5:0 6:0 7:1 8:1 9:0 10:0.039999999 11:0 12:0 13:0 14:0 15:0 16:1 17:1 18:0 19:1 20:0 21:0 22:0 23:0 24:0 25:0 26:0 27:1 28:0 29:0 30:0 31:0 32:0 33:0 34:0.75913668 35:0.11884892 36:0.085755393 37:0.036834531 38:0.2 #
0.11884217155182768 1:1 2:0 3:1.34 4:0 5:0.059999999 6:0 7:1 8:1 9:0 10:0.029999999 11:1 12:0 13:0 14:0 15:0 16:1 17:0 18:0 19:1 20:0 21:0 22:0 23:0 24:0 25:0 26:0 27:1 28:0 29:0 30:0 31:0 32:0 33:0 34:0.68141592 35:0.20353982 36:0.085545726 37:0.03539823 38:0.30000001 #
0.11884217155182768 1:0 2:1 3:0.059999999 4:0 5:0 6:0 7:1 8:0 9:1 10:0.02 11:0 12:1 13:0 14:1 15:0 16:1 17:0 18:0 19:0 20:0 21:0 22:0 23:0 24:0 25:0 26:0 27:0 28:0 29:0 30:1 31:0 32:0 33:1 34:0.016008005 35:0.0017508754 36:0.0057528764 37:0.97698849 38:0.2 #
-0.11884217155182768 1:1 2:0 3:0.25999999 4:1 5:0.02 6:0 7:1 8:1 9:0 10:0.090000004 11:1 12:0 13:0 14:1 15:1 16:1 17:0 18:0 19:0 20:0 21:0 22:0 23:0 24:0 25:0 26:1 27:1 28:0 29:0 30:0 31:1 32:0 33:0 34:0.5 35:0.5 36:0.5 37:0.5 38:0.1 #
-0.11884217155182768 1:1 2:0 3:0.2 4:1 5:0.02 6:0 7:1 8:1 9:0 10:0.090000004 11:1 12:0 13:0 14:1 15:1 16:1 17:0 18:0 19:0 20:0 21:0 22:0 23:0 24:0 25:0 26:1 27:1 28:0 29:0 30:0 31:1 32:0 33:0 34:0.5 35:0.5 36:0.5 37:0.5 38:0.1 #
-0.11884217155182768 1:0 2:1 3:0.039999999 4:0 5:0 6:0 7:1 8:1 9:0 10:1.8200001 11:0 12:1 13:0 14:0 15:1 16:1 17:0 18:0 19:1 20:0 21:0 22:0 23:0 24:0 25:0 26:0 27:0 28:1 29:0 30:0 31:0 32:0 33:0 34:0.98766786 35:0.0041107154 36:0.0063030967 37:0.0024664293 38:0.1 #
-0.11884217155182768 1:1 2:0 3:0.51999998 4:1 5:0.02 6:0 7:1 8:1 9:0 10:0.16 11:0 12:0 13:0 14:1 15:0 16:1 17:0 18:0 19:0 20:0 21:0 22:0 23:0 24:0 25:1 26:1 27:1 28:0 29:0 30:0 31:1 32:0 33:0 34:0.5 35:0.5 36:0.5 37:0.5 38:0.1 #
0.11884217155182768 1:1 2:0 3:0.25999999 4:1 5:0.02 6:0 7:1 8:0 9:1 10:0.029999999 11:0 12:1 13:0 14:0 15:0 16:1 17:0 18:0 19:0 20:0 21:0 22:0 23:0 24:1 25:0 26:0 27:0 28:0 29:0 30:1 31:0 32:0 33:0 34:0.33333334 35:0.33333334 36:0.33333334 37:0.66666669 38:0.2 #
0.11884217155182768 1:1 2:0 3:0.60000002 4:1 5:0.02 6:0 7:1 8:0 9:1 10:0.0099999998 11:0 12:0 13:0 14:0 15:0 16:1 17:0 18:0 19:0 20:0 21:0 22:0 23:0 24:0 25:0 26:0 27:0 28:0 29:0 30:1 31:0 32:0 33:0 34:0.023433132 35:0.0019061659 36:0.081088297 37:0.89359784 38:0.2 #
0.11884217155182768 1:0 2:1 3:0.079999998 4:0 5:0 6:0 7:1 8:0 9:1 10:0.0099999998 11:0 12:0 13:0 14:0 15:0 16:1 17:1 18:0 19:0 20:0 21:0 22:0 23:0 24:1 25:0 26:0 27:0 28:0 29:0 30:1 31:0 32:0 33:0 34:0.013850415 35:0.002770083 36:0.077562325 37:0.91135734 38:0.2 #
0.11884217155182768 1:0 2:1 3:0.14 4:0 5:0 6:0 7:1 8:0 9:1 10:0.059999999 11:0 12:0 13:0 14:0 15:0 16:1 17:1 18:0 19:0 20:0 21:0 22:0 23:0 24:1 25:0 26:0 27:0 28:0 29:0 30:1 31:0 32:0 33:0 34:0.017734196 35:0.00041727518 36:0.029209264 37:0.95305651 38:0.30000001 #
-0.11884217155182768 1:1 2:0 3:2.8599999 4:0 5:0.079999998 6:0 7:1 8:0 9:1 10:0.34999999 11:1 12:0 13:0 14:0 15:0 16:1 17:0 18:0 19:0 20:0 21:0 22:0 23:0 24:1 25:0 26:0 27:0 28:0 29:0 30:1 31:0 32:0 33:0 34:0.017734196 35:0.00041727518 36:0.029209264 37:0.95305651 38:0.2 #
0.11884217155182768 1:1 2:0 3:0.5 4:1 5:0.02 6:0 7:1 8:1 9:0 10:0.0099999998 11:0 12:0 13:0 14:1 15:0 16:1 17:0 18:0 19:0 20:0 21:0 22:0 23:0 24:0 25:1 26:1 27:1 28:0 29:0 30:0 31:1 32:0 33:0 34:0.5 35:0.5 36:0.5 37:0.5 38:0.1 #
-0.11884217155182768 1:0 2:1 3:0.059999999 4:0 5:0 6:0 7:1 8:0 9:0 10:0.0099999998 11:1 12:0 13:0 14:0 15:0 16:1 17:0 18:0 19:1 20:0 21:0 22:0 23:0 24:0 25:0 26:0 27:0 28:0 29:0 30:1 31:0 32:0 33:0 34:0.5 35:0.5 36:0.25 37:0.25 38:0.2 #
-0.11884217155182768 1:0 2:1 3:0.039999999 4:0 5:0 6:0 7:1 8:1 9:0 10:0.039999999 11:0 12:0 13:0 14:0 15:0 16:1 17:0 18:0 19:0 20:0 21:0 22:0 23:0 24:0 25:0 26:0 27:1 28:0 29:0 30:0 31:0 32:0 33:0 34:0.80025566 35:0.084622502 36:0.04859183 37:0.066574112 38:0.2 #
0.11884217155182768 1:1 2:0 3:0.1 4:1 5:0.02 6:0 7:1 8:1 9:0 10:1.8200001 11:0 12:0 13:0 14:0 15:1 16:1 17:0 18:0 19:1 20:0 21:0 22:0 23:0 24:0 25:0 26:0 27:1 28:0 29:0 30:0 31:0 32:0 33:0 34:0.98766786 35:0.0041107154 36:0.0063030967 37:0.0024664293 38:0.1 #
-0.11884217155182768 1:0 2:1 3:0.02 4:0 5:0 6:0 7:1 8:1 9:0 10:1.8200001 11:0 12:1 13:0 14:0 15:1 16:1 17:0 18:0 19:1 20:0 21:0 22:0 23:0 24:0 25:0 26:0 27:0 28:0 29:1 30:0 31:0 32:0 33:0 34:0.98766786 35:0.0041107154 36:0.0063030967 37:0.0024664293 38:0.1 #
-0.11884217155182768 1:0 2:1 3:0.25999999 4:0 5:0 6:0 7:1 8:0 9:0 10:0.34 11:1 12:0 13:0 14:0 15:0 16:1 17:0 18:0 19:1 20:0 21:0 22:0 23:0 24:0 25:0 26:0 27:0 28:0 29:0 30:1 31:0 32:0 33:0 34:0.84351146 35:0.0063613229 36:0.13867685 37:0.013994911 38:0.2 #
-0.11884217155182768 1:1 2:0 3:0.63999999 4:1 5:0.02 6:0 7:1 8:0 9:0 10:5.0900002 11:0 12:0 13:0 14:0 15:0 16:1 17:0 18:0 19:0 20:0 21:0 22:0 23:0 24:1 25:0 26:0 27:1 28:0 29:0 30:0 31:0 32:0 33:0 34:0.16363636 35:0.018181818 36:0.60000002 37:0.25454545 38:0.1 #
0.11884217155182768 1:1 2:0 3:1.04 4:1 5:0.02 6:0 7:1 8:1 9:0 10:1.05 11:1 12:0 13:0 14:0 15:1 16:1 17:0 18:0 19:0 20:0 21:0 22:0 23:0 24:0 25:0 26:0 27:1 28:0 29:0 30:0 31:0 32:0 33:0 34:0.56547767 35:0.096782237 36:0.26615116 37:0.072087802 38:0.1 #
0.11884217155182768 1:1 2:0 3:1.24 4:1 5:0.02 6:0 7:1 8:1 9:0 10:0.0099999998 11:1 12:0 13:0 14:0 15:0 16:1 17:0 18:0 19:1 20:0 21:0 22:0 23:0 24:0 25:0 26:0 27:0 28:1 29:0 30:0 31:0 32:0 33:0 34:0.33333334 35:0.55555558 36:0.22222222 37:0.11111111 38:0.2 #
0.11884217155182768 1:1 2:0 3:0.54000002 4:0 5:0.039999999 6:0 7:1 8:1 9:0 10:0.0099999998 11:1 12:0 13:0 14:0 15:1 16:1 17:0 18:0 19:0 20:0 21:0 22:0 23:0 24:0 25:0 26:0 27:1 28:0 29:0 30:0 31:0 32:0 33:0 34:0.40000001 35:0.06666667 36:0.40000001 37:0.26666668 38:0.1 #
0.11884217155182768 1:0 2:1 3:0.059999999 4:0 5:0 6:0 7:1 8:1 9:0 10:0.059999999 11:1 12:0 13:0 14:0 15:0 16:1 17:0 18:0 19:0 20:0 21:0 22:0 23:0 24:1 25:0 26:0 27:0 28:0 29:1 30:0 31:0 32:0 33:0 34:0.11538462 35:0.03846154 36:0.76923078 37:0.15384616 38:0.2 #
-0.11884217155182768 1:1 2:0 3:0.16 4:1 5:0.02 6:0 7:1 8:1 9:0 10:0.0099999998 11:1 12:0 13:0 14:0 15:0 16:1 17:0 18:1 19:0 20:0 21:0 22:0 23:0 24:0 25:0 26:0 27:1 28:0 29:0 30:0 31:0 32:0 33:0 34:0.89954799 35:0.033149172 36:0.044450026 37:0.023355098 38:0.30000001 #
-0.11884217155182768 1:0 2:1 3:0.16 4:0 5:0 6:0 7:1 8:1 9:0 10:0.07 11:1 12:0 13:0 14:1 15:1 16:1 17:0 18:0 19:0 20:0 21:0 22:0 23:0 24:0 25:0 26:0 27:1 28:0 29:0 30:0 31:0 32:0 33:1 34:0.029122679 35:0.0094648711 36:0.87550056 37:0.086639971 38:0.1 #
-0.11884217155182768 1:1 2:0 3:0.69999999 4:0 5:0.039999999 6:0 7:1 8:1 9:0 10:0.050000001 11:1 12:0 13:0 14:1 15:1 16:1 17:0 18:0 19:0 20:0 21:0 22:0 23:0 24:0 25:0 26:0 27:0 28:0 29:1 30:0 31:0 32:0 33:0 34:0.029122679 35:0.0094648711 36:0.87550056 37:0.086639971 38:0.1 #
-0.020228561628767336 1:0 2:1 3:0.2 4:0 5:0 6:0 7:1 8:0 9:0 10:0.0099999998 11:0 12:0 13:0 14:0 15:0 16:1 17:0 18:0 19:0 20:0 21:0 22:0 23:0 24:1 25:0 26:0 27:0 28:0 29:0 30:1 31:0 32:0 33:0 34:0.5 35:0.5 36:0.5 37:0.5 38:0.30000001 #
-0.11884217155182768 1:1 2:0 3:0.86000001 4:0 5:0.039999999 6:0 7:1 8:0 9:1 10:0.02 11:0 12:0 13:0 14:0 15:0 16:1 17:0 18:1 19:0 20:0 21:0 22:0 23:0 24:0 25:0 26:0 27:0 28:0 29:0 30:1 31:0 32:0 33:0 34:0.035999998 35:0.00039999999 36:0.0128 37:0.95160002 38:0.30000001 #
-0.11884217155182768 1:1 2:0 3:0.2 4:1 5:0.02 6:0 7:1 8:0 9:0 10:0.029999999 11:1 12:0 13:0 14:0 15:1 16:1 17:0 18:0 19:0 20:0 21:0 22:0 23:0 24:0 25:0 26:0 27:0 28:0 29:0 30:1 31:0 32:0 33:0 34:0.53018373 35:0.10236221 36:0.27034122 37:0.10236221 38:0.1 #
-0.11884217155182768 1:1 2:0 3:0.72000003 4:1 5:0.02 6:0 7:1 8:0 9:0 10:0.0099999998 11:1 12:0 13:0 14:0 15:0 16:1 17:0 18:0 19:1 20:0 21:0 22:0 23:0 24:0 25:0 26:0 27:0 28:0 29:0 30:1 31:0 32:0 33:0 34:0.66666669 35:0.33333334 36:0.33333334 37:0.33333334 38:0.40000001 #
0.11884217155182768 1:1 2:0 3:0.12 4:1 5:0.02 6:0 7:1 8:1 9:0 10:0.0099999998 11:0 12:0 13:0 14:0 15:0 16:1 17:1 18:0 19:0 20:0 21:0 22:0 23:0 24:1 25:0 26:0 27:1 28:0 29:0 30:0 31:0 32:0 33:0 34:0.94107324 35:0.030174611 36:0.015161869 37:0.013593569 38:0.60000002 #
0.11884217155182768 1:0 2:1 3:0.02 4:0 5:0 6:0 7:1 8:1 9:0 10:0.85000002 11:0 12:0 13:0 14:0 15:0 16:1 17:1 18:0 19:1 20:0 21:0 22:0 23:0 24:0 25:0 26:0 27:1 28:0 29:0 30:0 31:0 32:0 33:0 34:0.95971566 35:0.015910629 36:0.0072782668 37:0.017433988 38:0.1 #
0.11884217155182768 1:0 2:1 3:0.22 4:0 5:0 6:0 7:1 8:1 9:0 10:0.0099999998 11:0 12:1 13:0 14:0 15:0 16:1 17:0 18:0 19:0 20:0 21:0 22:0 23:0 24:1 25:0 26:0 27:1 28:0 29:0 30:0 31:0 32:0 33:0 34:0.93204969 35:0.011035654 36:0.016746411 37:0.04024541 38:0.40000001 #
-0.11884217155182768 1:0 2:1 3:0.079999998 4:0 5:0 6:0 7:1 8:1 9:0 10:0.0099999998 11:0 12:0 13:0 14:0 15:0 16:1 17:1 18:0 19:1 20:0 21:0 22:0 23:0 24:0 25:0 26:0 27:1 28:0 29:0 30:0 31:0 32:0 33:0 34:0.97610617 35:0.0026548672 36:0.0088495575 37:0.014159292 38:0.40000001 #
0.11884217155182768 1:1 2:0 3:0.12 4:1 5:0.02 6:0 7:1 8:1 9:0 10:0.11 11:0 12:1 13:0 14:1 15:1 16:1 17:0 18:0 19:0 20:0 21:0 22:0 23:0 24:0 25:0 26:0 27:1 28:0 29:0 30:0 31:1 32:0 33:0 34:0.5 35:0.5 36:0.5 37:0.5 38:0.1 #
-0.11884217155182768 1:0 2:1 3:0.039999999 4:0 5:0 6:0 7:1 8:1 9:0 10:0.0099999998 11:0 12:0 13:0 14:0 15:0 16:1 17:0 18:0 19:1 20:0 21:0 22:0 23:0 24:0 25:0 26:0 27:1 28:0 29:0 30:0 31:0 32:0 33:0 34:0.75 35:0.25 36:0.25 37:0.25 38:0.2 #
-0.11884217155182768 1:0 2:1 3:0.02 4:0 5:0 6:0 7:1 8:1 9:0 10:1.8200001 11:0 12:1 13:0 14:0 15:1 16:1 17:0 18:0 19:1 20:0 21:0 22:0 23:0 24:0 25:0 26:0 27:0 28:0 29:1 30:0 31:0 32:0 33:0 34:0.98766786 35:0.0041107154 36:0.0063030967 37:0.0024664293 38:0.1 #
-0.11884217155182768 1:0 2:1 3:0.059999999 4:0 5:0 6:0 7:1 8:1 9:0 10:0.0099999998 11:0 12:1 13:0 14:0 15:0 16:1 17:0 18:0 19:0 20:0 21:0 22:0 23:0 24:1 25:0 26:0 27:1 28:0 29:0 30:0 31:0 32:0 33:0 34:0.90281689 35:0.023474179 36:0.064319246 37:0.010328638 38:0.30000001 #
-0.11884217155182768 1:0 2:1 3:0 4:0 5:0 6:0 7:1 8:1 9:0 10:0.41 11:0 12:1 13:0 14:0 15:1 16:1 17:0 18:0 19:0 20:0 21:0 22:0 23:0 24:0 25:0 26:0 27:1 28:0 29:0 30:0 31:0 32:0 33:0 34:0.94107324 35:0.030174611 36:0.015161869 37:0.013593569 38:0.1 #
0.11884217155182768 1:1 2:0 3:0.34 4:1 5:0.02 6:0 7:1 8:0 9:0 10:0.039999999 11:0 12:0 13:0 14:0 15:0 16:1 17:0 18:0 19:0 20:0 21:0 22:0 23:0 24:0 25:0 26:0 27:0 28:0 29:0 30:1 31:0 32:0 33:0 34:0.019055996 35:0.0041043684 36:0.073585458 37:0.90354735 38:0.1 #
0.11884217155182768 1:1 2:0 3:0.36000001 4:1 5:0.02 6:0 7:1 8:1 9:0 10:0.02 11:1 12:0 13:0 14:0 15:0 16:1 17:0 18:1 19:0 20:0 21:0 22:0 23:0 24:1 25:0 26:0 27:0 28:0 29:1 30:0 31:0 32:0 33:0 34:0.10606061 35:0.075757578 36:0.80303031 37:0.045454547 38:0.2 #
0.11884217155182768 1:1 2:0 3:0.18000001 4:1 5:0.02 6:0 7:1 8:0 9:0 10:0.0099999998 11:0 12:0 13:0 14:0 15:0 16:0 17:0 18:0 19:0 20:0 21:0 22:0 23:1 24:0 25:0 26:0 27:0 28:0 29:0 30:1 31:0 32:0 33:0 34:0.015554902 35:0.0082003381 36:0.93189675 37:0.044421565 38:0.89999998 #
0.11884217155182768 1:1 2:0 3:0.36000001 4:1 5:0.02 6:0 7:1 8:1 9:0 10:0.0099999998 11:0 12:0 13:0 14:0 15:0 16:1 17:1 18:0 19:0 20:0 21:0 22:0 23:0 24:1 25:0 26:0 27:0 28:0 29:1 30:0 31:0 32:0 33:0 34:0.0058924197 35:0.0012894539 36:0.98053622 37:0.012283746 38:0.30000001 #
-0.11884217155182768 1:0 2:1 3:0.02 4:0 5:0 6:0 7:1 8:1 9:0 10:0.050000001 11:0 12:0 13:0 14:0 15:1 16:1 17:0 18:0 19:0 20:0 21:0 22:0 23:0 24:0 25:0 26:0 27:0 28:0 29:1 30:0 31:0 32:0 33:0 34:0.16814159 35:0.036400069 36:0.61212224 37:0.18367006 38:0.1 #
-0.11884217155182768 1:1 2:0 3:0.25999999 4:1 5:0.02 6:0 7:1 8:1 9:0 10:0.0099999998 11:1 12:0 13:0 14:0 15:0 16:1 17:0 18:0 19:0 20:0 21:0 22:0 23:0 24:1 25:0 26:0 27:0 28:0 29:1 30:0 31:0 32:0 33:0 34:0.022318037 35:0.0055221519 36:0.89569622 37:0.076479428 38:0.30000001 #
0.11884217155182768 1:0 2:1 3:0.1 4:0 5:0 6:0 7:1 8:1 9:0 10:0.12 11:1 12:0 13:0 14:0 15:0 16:1 17:0 18:0 19:0 20:0 21:0 22:0 23:0 24:1 25:0 26:0 27:0 28:0 29:1 30:0 31:0 32:0 33:0 34:0.040170725 35:0.0048150187 36:0.75361043 37:0.20141049 38:0.2 #
-0.11884217155182768 1:1 2:0 3:0.51999998 4:1 5:0.02 6:0 7:1 8:0 9:0 10:0.0099999998 11:1 12:0 13:0 14:0 15:0 16:0 17:0 18:0 19:1 20:0 21:0 22:0 23:0 24:0 25:0 26:0 27:0 28:0 29:0 30:1 31:0 32:0 33:0 34:0.66666669 35:0.33333334 36:0.33333334 37:0.33333334 38:0.30000001 #
0.11884217155182768 1:0 2:1 3:0 4:0 5:0 6:0 7:1 8:0 9:0 10:0.039999999 11:0 12:1 13:0 14:0 15:1 16:1 17:0 18:0 19:0 20:0 21:0 22:0 23:0 24:0 25:0 26:0 27:0 28:0 29:1 30:0 31:0 32:0 33:0 34:0.19498819 35:0.030079311 36:0.30243841 37:0.47257847 38:0.1 #
0.11884217155182768 1:0 2:1 3:0.059999999 4:0 5:0 6:0 7:1 8:1 9:0 10:0.43000001 11:0 12:1 13:0 14:0 15:1 16:1 17:0 18:0 19:1 20:0 21:0 22:0 23:0 24:0 25:0 26:0 27:1 28:0 29:0 30:0 31:0 32:0 33:0 34:0.85545152 35:0.10682819 36:0.021200441 37:0.017070485 38:0.1 #
-0.11884217155182768 1:0 2:1 3:0.14 4:0 5:0 6:0 7:1 8:1 9:0 10:0.02 11:1 12:0 13:0 14:1 15:1 16:1 17:0 18:0 19:0 20:0 21:0 22:0 23:0 24:0 25:0 26:0 27:1 28:0 29:0 30:0 31:0 32:0 33:1 34:0.5 35:0.5 36:0.5 37:0.5 38:0.1 #
-0.11884217155182768 1:0 2:1 3:0.02 4:0 5:0 6:0 7:1 8:1 9:0 10:0.039999999 11:0 12:1 13:0 14:0 15:1 16:1 17:0 18:0 19:1 20:0 21:0 22:0 23:0 24:0 25:0 26:0 27:1 28:0 29:0 30:0 31:0 32:0 33:0 34:0.92240679 35:0.056647785 36:0.0095682396 37:0.011472367 38:0.1 #
-0.11884217155182768 1:0 2:1 3:0.02 4:0 5:0 6:0 7:1 8:1 9:0 10:0.18000001 11:0 12:1 13:0 14:0 15:1 16:1 17:0 18:0 19:1 20:0 21:0 22:0 23:0 24:0 25:0 26:0 27:1 28:0 29:0 30:0 31:0 32:0 33:0 34:0.54310346 35:0.39655173 36:0.02586207 37:0.05172414 38:0.1 #
-0.11884217155182768 1:1 2:0 3:0.56 4:1 5:0.02 6:0 7:1 8:1 9:0 10:0.34 11:0 12:0 13:0 14:0 15:0 16:1 17:0 18:0 19:1 20:0 21:0 22:0 23:0 24:0 25:0 26:0 27:0 28:1 29:0 30:0 31:0 32:0 33:0 34:0.84351146 35:0.0063613229 36:0.13867685 37:0.013994911 38:0.2 #
0.11884217155182768 1:1 2:0 3:0.46000001 4:1 5:0.02 6:0 7:1 8:0 9:0 10:0.02 11:1 12:0 13:0 14:0 15:0 16:0 17:0 18:0 19:0 20:0 21:0 22:0 23:0 24:1 25:0 26:0 27:0 28:0 29:0 30:1 31:0 32:0 33:0 34:0.94107324 35:0.030174611 36:0.015161869 37:0.013593569 38:0.5 #
0.11884217155182768 1:1 2:0 3:0.54000002 4:1 5:0.02 6:0 7:1 8:0 9:0 10:0.02 11:1 12:0 13:0 14:0 15:0 16:0 17:0 18:0 19:1 20:0 21:0 22:0 23:0 24:0 25:0 26:0 27:0 28:0 29:0 30:1 31:0 32:0 33:0 34:0.46546721 35:0.50145096 36:0.01334881 37:0.02089379 38:0.30000001 #
0.11884217155182768 1:1 2:0 3:0.72000003 4:1 5:0.02 6:0 7:1 8:0 9:1 10:0.050000001 11:0 12:0 13:0 14:1 15:0 16:1 17:0 18:0 19:0 20:0 21:0 22:0 23:0 24:0 25:0 26:0 27:0 28:0 29:0 30:1 31:0 32:0 33:0 34:0.5 35:0.5 36:0.5 37:0.5 38:0.1 #
-0.11884217155182768 1:1 2:0 3:2.5799999 4:0 5:0.079999998 6:0 7:1 8:0 9:1 10:0.34999999 11:1 12:0 13:0 14:0 15:0 16:1 17:0 18:0 19:0 20:0 21:0 22:0 23:0 24:1 25:0 26:0 27:0 28:0 29:0 30:1 31:0 32:0 33:0 34:0.017734196 35:0.00041727518 36:0.029209264 37:0.95305651 38:0.2 #
0.11884217155182768 1:1 2:0 3:0.68000001 4:1 5:0.02 6:0 7:1 8:0 9:1 10:0.090000004 11:1 12:0 13:0 14:0 15:0 16:1 17:0 18:0 19:0 20:0 21:0 22:0 23:0 24:0 25:0 26:0 27:0 28:0 29:0 30:1 31:0 32:0 33:0 34:0.023433132 35:0.0019061659 36:0.081088297 37:0.89359784 38:0.2 #
-0.11884217155182768 1:1 2:0 3:0.22 4:1 5:0.02 6:0 7:1 8:1 9:0 10:0.25999999 11:1 12:0 13:0 14:1 15:1 16:1 17:0 18:0 19:0 20:0 21:0 22:0 23:0 24:0 25:0 26:1 27:1 28:0 29:0 30:0 31:1 32:0 33:0 34:0.5 35:0.5 36:0.5 37:0.5 38:0.1 #
-0.11884217155182768 1:1 2:0 3:0.16 4:1 5:0.02 6:0 7:1 8:1 9:0 10:0.85000002 11:1 12:0 13:0 14:0 15:1 16:1 17:0 18:0 19:1 20:0 21:0 22:0 23:0 24:0 25:0 26:0 27:0 28:1 29:0 30:0 31:0 32:0 33:0 34:0.95971566 35:0.015910629 36:0.0072782668 37:0.017433988 38:0.1 #
-0.11884217155182768 1:1 2:0 3:0.14 4:1 5:0.02 6:0 7:1 8:0 9:0 10:0.11 11:1 12:0 13:0 14:0 15:1 16:1 17:0 18:0 19:1 20:0 21:0 22:0 23:0 24:0 25:0 26:0 27:0 28:0 29:0 30:1 31:0 32:0 33:0 34:0.46546721 35:0.50145096 36:0.01334881 37:0.02089379 38:0.1 #
-0.11884217155182768 1:1 2:0 3:0.14 4:1 5:0.02 6:0 7:1 8:1 9:0 10:0.0099999998 11:0 12:0 13:0 14:0 15:0 16:0 17:0 18:0 19:1 20:0 21:0 22:0 23:0 24:1 25:0 26:0 27:1 28:0 29:0 30:0 31:0 32:0 33:0 34:0.96454698 35:0.012380417 36:0.0095666852 37:0.014631401 38:0.60000002 #
0.11884217155182768 1:0 2:1 3:0.039999999 4:0 5:0 6:0 7:1 8:1 9:0 10:0.15000001 11:0 12:1 13:0 14:0 15:1 16:1 17:0 18:0 19:0 20:0 21:0 22:0 23:0 24:0 25:0 26:0 27:0 28:0 29:1 30:0 31:0 32:0 33:0 34:0.015554902 35:0.0082003381 36:0.93189675 37:0.044421565 38:0.1 #
0.11884217155182768 1:0 2:1 3:0.079999998 4:0 5:0 6:0 7:1 8:1 9:0 10:0.16 11:0 12:1 13:0 14:0 15:0 16:1 17:0 18:0 19:0 20:0 21:0 22:0 23:0 24:1 25:0 26:0 27:0 28:0 29:1 30:0 31:0 32:0 33:0 34:0.06443657 35:0.034213711 36:0.86789829 37:0.033541098 38:0.2 #
0.11884217155182768 1:1 2:0 3:1.02 4:0 5:0.059999999 6:0 7:1 8:0 9:1 10:0.0099999998 11:0 12:1 13:0 14:0 15:0 16:1 17:0 18:0 19:0 20:0 21:0 22:0 23:0 24:1 25:0 26:0 27:0 28:0 29:0 30:1 31:0 32:0 33:0 34:0.0082827937 35:0.00041587246 36:0.0048171892 37:0.98655343 38:0.30000001 #
0.11884217155182768 1:0 2:1 3:0.039999999 4:0 5:0 6:0 7:1 8:1 9:0 10:0.0099999998 11:0 12:1 13:0 14:0 15:0 16:1 17:0 18:0 19:0 20:0 21:0 22:0 23:0 24:1 25:0 26:0 27:0 28:0 29:1 30:0 31:0 32:0 33:0 34:0.21288015 35:0.075134166 36:0.61180681 37:0.10375671 38:0.2 #
-0.11884217155182768 1:0 2:1 3:0.12 4:0 5:0 6:0 7:1 8:1 9:0 10:0.0099999998 11:0 12:1 13:0 14:0 15:0 16:1 17:0 18:0 19:0 20:0 21:0 22:0 23:0 24:0 25:0 26:0 27:0 28:0 29:1 30:0 31:0 32:0 33:0 34:0.078947365 35:0.039473683 36:0.84210527 37:0.065789476 38:0.60000002 #
0.11884217155182768 1:1 2:0 3:0.25999999 4:1 5:0.02 6:0 7:1 8:1 9:0 10:1.05 11:1 12:0 13:0 14:0 15:1 16:1 17:0 18:0 19:0 20:0 21:0 22:0 23:0 24:0 25:0 26:0 27:1 28:0 29:0 30:0 31:0 32:0 33:0 34:0.56547767 35:0.096782237 36:0.26615116 37:0.072087802 38:0.1 #
-0.11884217155182768 1:1 2:1 3:0.22 4:0 5:0 6:0 7:1 8:1 9:0 10:0.0099999998 11:0 12:1 13:0 14:0 15:0 16:1 17:0 18:1 19:0 20:0 21:0 22:0 23:0 24:1 25:0 26:0 27:0 28:0 29:1 30:0 31:0 32:0 33:0 34:0.070524327 35:0.0037619218 36:0.90208077 37:0.023664206 38:0.60000002 #
-0.11884217155182768 1:0 2:1 3:0.079999998 4:0 5:0 6:0 7:1 8:1 9:0 10:0.0099999998 11:0 12:1 13:0 14:0 15:0 16:1 17:0 18:0 19:0 20:0 21:0 22:0 23:0 24:0 25:0 26:0 27:0 28:0 29:1 30:0 31:0 32:0 33:0 34:0.29770991 35:0.073282443 36:0.52061069 37:0.11145038 38:0.40000001 #
0.11884217155182768 1:0 2:1 3:0.25999999 4:0 5:0 6:0 7:1 8:0 9:1 10:0.0099999998 11:1 12:0 13:0 14:0 15:0 16:1 17:0 18:0 19:0 20:0 21:0 22:0 23:0 24:0 25:0 26:0 27:0 28:0 29:0 30:1 31:0 32:0 33:0 34:0.023433132 35:0.0019061659 36:0.081088297 37:0.89359784 38:0.30000001 #
-0.11884217155182768 1:0 2:1 3:0.25999999 4:0 5:0 6:0 7:1 8:1 9:0 10:0.0099999998 11:0 12:1 13:0 14:0 15:0 16:1 17:0 18:0 19:0 20:0 21:0 22:0 23:0 24:0 25:0 26:0 27:0 28:0 29:1 30:0 31:0 32:0 33:0 34:0.084916204 35:0.013407821 36:0.73966479 37:0.16424581 38:0.30000001 #
0.11884217155182768 1:1 2:0 3:0.54000002 4:1 5:0.02 6:0 7:1 8:1 9:0 10:0.0099999998 11:1 12:0 13:0 14:0 15:0 16:1 17:0 18:0 19:1 20:0 21:0 22:0 23:0 24:0 25:0 26:0 27:1 28:0 29:0 30:0 31:0 32:0 33:0 34:0.66666669 35:0.33333334 36:0.33333334 37:0.33333334 38:0.2 #
0.11884217155182768 1:1 2:0 3:0.72000003 4:1 5:0.02 6:0 7:1 8:1 9:0 10:0.0099999998 11:1 12:0 13:0 14:0 15:0 16:1 17:0 18:0 19:1 20:0 21:0 22:0 23:0 24:0 25:0 26:0 27:1 28:0 29:0 30:0 31:0 32:0 33:0 34:0.91346037 35:0.064457566 36:0.01120241 37:0.010906548 38:0.2 #
0.11884217155182768 1:1 2:0 3:0.38 4:1 5:0.02 6:0 7:1 8:0 9:0 10:0.059999999 11:1 12:0 13:0 14:1 15:1 16:1 17:0 18:0 19:0 20:0 21:0 22:0 23:0 24:0 25:0 26:0 27:1 28:0 29:0 30:0 31:0 32:0 33:0 34:0.5 35:0.5 36:0.5 37:0.5 38:0.1 #
0.11884217155182768 1:1 2:0 3:0.22 4:1 5:0.02 6:0 7:1 8:1 9:0 10:0.02 11:0 12:0 13:0 14:0 15:0 16:1 17:0 18:0 19:1 20:0 21:0 22:0 23:0 24:0 25:0 26:0 27:1 28:0 29:0 30:0 31:0 32:0 33:0 34:0.5 35:0.5 36:0.5 37:0.5 38:0.2 #
-0.11884217155182768 1:1 2:0 3:0.16 4:1 5:0.02 6:0 7:1 8:1 9:0 10:0.85000002 11:1 12:0 13:0 14:0 15:1 16:1 17:0 18:0 19:1 20:0 21:0 22:0 23:0 24:0 25:0 26:0 27:1 28:0 29:0 30:0 31:0 32:0 33:0 34:0.95971566 35:0.015910629 36:0.0072782668 37:0.017433988 38:0.1 #
0.11884217155182768 1:0 2:1 3:0.059999999 4:0 5:0 6:0 7:1 8:1 9:0 10:0.0099999998 11:0 12:1 13:0 14:0 15:0 16:1 17:0 18:0 19:0 20:0 21:0 22:0 23:0 24:1 25:0 26:0 27:0 28:0 29:1 30:0 31:0 32:0 33:0 34:0.012924787 35:0.0006643582 36:0.97161376 37:0.014837333 38:0.2 #
-0.11884217155182768 1:1 2:0 3:1.34 4:0 5:0.059999999 6:0 7:1 8:0 9:1 10:0.050000001 11:1 12:0 13:0 14:1 15:1 16:1 17:0 18:0 19:0 20:0 21:0 22:0 23:0 24:0 25:0 26:0 27:0 28:0 29:0 30:1 31:0 32:0 33:0 34:0.5 35:0.5 36:0.5 37:0.5 38:0.1 #
0.11884217155182768 1:0 2:1 3:0 4:0 5:0 6:0 7:1 8:1 9:0 10:0.22 11:0 12:1 13:0 14:0 15:1 16:1 17:0 18:1 19:0 20:0 21:0 22:0 23:0 24:0 25:0 26:0 27:0 28:1 29:0 30:0 31:0 32:0 33:0 34:0.70588237 35:0.125 36:0.15257353 37:0.020220589 38:0.1 #
-0.11884217155182768 1:1 2:0 3:0.56 4:1 5:0.02 6:0 7:1 8:1 9:0 10:0.85000002 11:0 12:0 13:0 14:0 15:0 16:1 17:1 18:0 19:1 20:0 21:0 22:0 23:0 24:0 25:0 26:0 27:0 28:1 29:0 30:0 31:0 32:0 33:0 34:0.95971566 35:0.015910629 36:0.0072782668 37:0.017433988 38:0.1 #
-0.11884217155182768 1:1 2:0 3:0.14 4:1 5:0.02 6:0 7:1 8:1 9:0 10:0.34 11:0 12:0 13:0 14:0 15:0 16:1 17:0 18:0 19:1 20:0 21:0 22:0 23:0 24:0 25:0 26:0 27:1 28:0 29:0 30:0 31:0 32:0 33:0 34:0.84351146 35:0.0063613229 36:0.13867685 37:0.013994911 38:0.2 #
-0.11884217155182768 1:1 2:0 3:0.12 4:1 5:0.02 6:0 7:1 8:1 9:0 10:0.02 11:1 12:0 13:0 14:0 15:0 16:1 17:0 18:0 19:0 20:0 21:0 22:0 23:1 24:1 25:0 26:0 27:1 28:0 29:0 30:0 31:0 32:0 33:0 34:0.24356869 35:0.068418175 36:0.45265463 37:0.23645321 38:0.5 #
0.11884217155182768 1:1 2:1 3:0.25999999 4:0 5:0 6:0 7:1 8:1 9:0 10:0.090000004 11:1 12:0 13:0 14:0 15:1 16:1 17:0 18:0 19:0 20:0 21:0 22:0 23:0 24:0 25:0 26:0 27:0 28:0 29:1 30:0 31:0 32:0 33:0 34:0.012046997 35:0.0052291909 36:0.94707924 37:0.035710741 38:0.1 #
0.11884217155182768 1:1 2:1 3:0.12 4:0 5:0 6:0 7:1 8:0 9:1 10:0.0099999998 11:1 12:0 13:0 14:0 15:0 16:1 17:0 18:0 19:0 20:0 21:0 22:0 23:0 24:1 25:0 26:0 27:0 28:0 29:0 30:1 31:0 32:0 33:0 34:0.5 35:0.5 36:0.5 37:0.5 38:0.2 #
0.11884217155182768 1:1 2:1 3:0.039999999 4:0 5:0 6:0 7:1 8:0 9:0 10:0.58999997 11:1 12:0 13:0 14:0 15:1 16:1 17:0 18:0 19:0 20:0 21:0 22:0 23:0 24:0 25:0 26:0 27:0 28:0 29:0 30:1 31:0 32:0 33:0 34:0.030265849 35:0.0049079754 36:0.86073619 37:0.10449897 38:0.1 #
0.11884217155182768 1:0 2:1 3:0.14 4:0 5:0 6:0 7:1 8:1 9:0 10:0.15000001 11:1 12:0 13:0 14:0 15:1 16:1 17:0 18:0 19:0 20:0 21:0 22:0 23:0 24:0 25:0 26:0 27:0 28:0 29:1 30:0 31:0 32:0 33:0 34:0.015554902 35:0.0082003381 36:0.93189675 37:0.044421565 38:0.1 #
-0.11884217155182768 1:1 2:1 3:0.039999999 4:0 5:0 6:0 7:1 8:0 9:1 10:0.02 11:0 12:0 13:0 14:0 15:1 16:1 17:0 18:0 19:0 20:0 21:0 22:0 23:0 24:0 25:0 26:0 27:0 28:0 29:0 30:1 31:0 32:0 33:0 34:0.017980637 35:0.0055325036 36:0.02835408 37:0.94951588 38:0.1 #
0.11884217155182768 1:1 2:0 3:0.16 4:1 5:0.02 6:0 7:1 8:1 9:0 10:0.0099999998 11:0 12:1 13:0 14:0 15:0 16:1 17:0 18:0 19:1 20:0 21:0 22:0 23:0 24:0 25:0 26:0 27:1 28:0 29:0 30:0 31:0 32:0 33:0 34:0.94818014 35:0.043800123 36:0.0043183221 37:0.004935225 38:0.2 #
0.11884217155182768 1:1 2:0 3:0.18000001 4:1 5:0.02 6:0 7:1 8:1 9:0 10:0.0099999998 11:0 12:0 13:0 14:0 15:0 16:1 17:1 18:0 19:0 20:0 21:0 22:0 23:0 24:1 25:0 26:0 27:1 28:0 29:0 30:0 31:0 32:0 33:0 34:0.81047171 35:0.091334894 36:0.063231848 37:0.035296086 38:0.40000001 #
-0.11884217155182768 1:1 2:1 3:0.039999999 4:0 5:0 6:0 7:1 8:1 9:0 10:0.0099999998 11:1 12:0 13:0 14:0 15:0 16:1 17:0 18:0 19:0 20:0 21:0 22:0 23:0 24:1 25:0 26:0 27:0 28:0 29:1 30:0 31:0 32:0 33:0 34:0.025617911 35:0.0087145967 36:0.93646234 37:0.029242732 38:0.2 #
-0.11884217155182768 1:1 2:1 3:0.02 4:0 5:0 6:0 7:1 8:0 9:0 10:0.039999999 11:1 12:0 13:0 14:0 15:1 16:1 17:0 18:0 19:0 20:0 21:0 22:0 23:0 24:0 25:0 26:0 27:0 28:0 29:1 30:0 31:0 32:0 33:0 34:0.19498819 35:0.030079311 36:0.30243841 37:0.47257847 38:0.1 #
-0.11884217155182768 1:1 2:1 3:0.12 4:0 5:0 6:0 7:1 8:0 9:0 10:0.029999999 11:1 12:0 13:0 14:0 15:1 16:1 17:0 18:0 19:1 20:0 21:0 22:0 23:0 24:0 25:0 26:0 27:0 28:0 29:0 30:1 31:0 32:0 33:0 34:0.53018373 35:0.10236221 36:0.27034122 37:0.10236221 38:0.1 #
-0.11884217155182768 1:0 2:1 3:0.079999998 4:0 5:0 6:0 7:1 8:1 9:0 10:0.0099999998 11:1 12:0 13:0 14:0 15:0 16:1 17:0 18:0 19:0 20:0 21:0 22:0 23:0 24:0 25:0 26:0 27:0 28:0 29:1 30:0 31:0 32:0 33:0 34:0.014508928 35:0.0029761905 36:0.12202381 37:0.86123514 38:0.40000001 #
-0.11884217155182768 1:0 2:1 3:0.18000001 4:0 5:0 6:0 7:1 8:0 9:0 10:0.0099999998 11:1 12:0 13:0 14:0 15:0 16:1 17:0 18:0 19:1 20:0 21:0 22:0 23:0 24:0 25:0 26:0 27:0 28:0 29:0 30:1 31:0 32:0 33:0 34:0.14457831 35:0.78313255 36:0.060240965 37:0.036144577 38:0.2 #
0.11884217155182768 1:1 2:0 3:0.54000002 4:1 5:0.02 6:0 7:1 8:1 9:0 10:0.0099999998 11:0 12:0 13:0 14:0 15:0 16:1 17:0 18:0 19:0 20:0 21:0 22:0 23:0 24:0 25:0 26:0 27:1 28:0 29:0 30:0 31:0 32:0 33:0 34:0.53184712 35:0.16082802 36:0.22770701 37:0.082802549 38:0.30000001 #
0.11884217155182768 1:1 2:0 3:0.31999999 4:1 5:0.02 6:0 7:1 8:1 9:0 10:0.0099999998 11:0 12:0 13:0 14:0 15:0 16:1 17:0 18:0 19:0 20:0 21:0 22:0 23:0 24:0 25:0 26:0 27:1 28:0 29:0 30:0 31:0 32:0 33:0 34:0.41301081 35:0.49173492 36:0.027243201 37:0.068108 38:0.2 #
0.11884217155182768 1:1 2:0 3:0.1 4:1 5:0.02 6:0 7:1 8:1 9:0 10:0.02 11:0 12:0 13:0 14:0 15:0 16:1 17:0 18:0 19:0 20:0 21:0 22:0 23:0 24:0 25:0 26:0 27:1 28:0 29:0 30:0 31:0 32:0 33:0 34:0.91454756 35:0.060949985 36:0.013185977 37:0.011349536 38:0.2 #
0.11884217155182768 1:1 2:0 3:0.47999999 4:0 5:0.039999999 6:0 7:1 8:1 9:0 10:0.0099999998 11:0 12:0 13:0 14:0 15:0 16:1 17:0 18:0 19:0 20:0 21:0 22:0 23:0 24:0 25:0 26:0 27:1 28:0 29:0 30:0 31:0 32:0 33:0 34:0.85706121 35:0.1023442 36:0.02915952 37:0.012578616 38:0.2 #
-0.11884217155182768 1:1 2:0 3:0.36000001 4:1 5:0.02 6:0 7:1 8:1 9:0 10:0.0099999998 11:0 12:0 13:0 14:0 15:0 16:1 17:0 18:1 19:0 20:0 21:0 22:0 23:0 24:0 25:0 26:0 27:1 28:0 29:0 30:0 31:0 32:0 33:0 34:0.92561108 35:0.015940489 36:0.038788524 37:0.020722635 38:0.30000001 #
0.11884217155182768 1:0 2:1 3:0.059999999 4:0 5:0 6:0 7:1 8:0 9:0 10:0.02 11:1 12:0 13:0 14:0 15:1 16:1 17:0 18:0 19:0 20:0 21:0 22:0 23:0 24:0 25:0 26:0 27:0 28:0 29:1 30:0 31:0 32:0 33:0 34:0.19498819 35:0.030079311 36:0.30243841 37:0.47257847 38:0.1 #
-0.11884217155182768 1:0 2:1 3:0.039999999 4:0 5:0 6:0 7:1 8:1 9:0 10:0.0099999998 11:0 12:0 13:0 14:0 15:0 16:1 17:0 18:0 19:0 20:0 21:0 22:0 23:0 24:0 25:0 26:0 27:1 28:0 29:0 30:0 31:0 32:0 33:0 34:0.59234971 35:0.37143898 36:0.017632058 37:0.018724954 38:0.2 #
-0.09774405520063939 1:1 2:0 3:0.54000002 4:1 5:0.02 6:0 7:1 8:0 9:1 10:0.0099999998 11:0 12:0 13:0 14:0 15:0 16:1 17:0 18:0 19:0 20:0 21:0 22:0 23:1 24:1 25:0 26:0 27:0 28:0 29:0 30:1 31:0 32:0 33:0 34:0.0025578025 35:0.00057960057 36:0.021609021 37:0.97526199 38:0.40000001 #
-0.11884217155182768 1:1 2:0 3:0.2 4:1 5:0.02 6:0 7:1 8:1 9:0 10:0.0099999998 11:0 12:0 13:0 14:0 15:0 16:0 17:1 18:0 19:1 20:0 21:0 22:0 23:0 24:0 25:0 26:0 27:1 28:0 29:0 30:0 31:0 32:0 33:0 34:0.70526314 35:0.2 36:0.031578947 37:0.08421053 38:0.30000001 #
-0.11884217155182768 1:0 2:1 3:0.059999999 4:0 5:0 6:0 7:1 8:1 9:0 10:0.029999999 11:0 12:0 13:0 14:0 15:0 16:1 17:1 18:0 19:1 20:0 21:0 22:0 23:0 24:0 25:0 26:0 27:1 28:0 29:0 30:0 31:0 32:0 33:0 34:0.0053991517 35:0.97030467 36:0.015811801 37:0.0092556886 38:0.30000001 #
-0.11884217155182768 1:0 2:1 3:0.2 4:0 5:0 6:0 7:1 8:1 9:0 10:0.059999999 11:0 12:0 13:0 14:1 15:0 16:1 17:0 18:0 19:0 20:0 21:0 22:0 23:0 24:0 25:1 26:0 27:1 28:0 29:0 30:0 31:0 32:0 33:1 34:0.5 35:0.5 36:0.5 37:0.5 38:0.1 #
0.11884217155182768 1:1 2:1 3:0.059999999 4:0 5:0 6:0 7:1 8:1 9:0 10:0.11 11:0 12:1 13:0 14:1 15:1 16:1 17:0 18:0 19:0 20:0 21:0 22:0 23:0 24:0 25:0 26:0 27:1 28:0 29:0 30:0 31:1 32:0 33:0 34:0.5 35:0.5 36:0.5 37:0.5 38:0.1 #
0.11884217155182768 1:1 2:1 3:0.079999998 4:0 5:0 6:0 7:1 8:0 9:0 10:0.0099999998 11:1 12:0 13:0 14:0 15:0 16:1 17:0 18:1 19:0 20:0 21:0 22:0 23:0 24:1 25:0 26:0 27:0 28:0 29:0 30:1 31:0 32:0 33:0 34:0.022526871 35:0.0067580612 36:0.88730127 37:0.083445966 38:0.40000001 #
0.11884217155182768 1:0 2:1 3:0.18000001 4:0 5:0 6:0 7:1 8:1 9:0 10:0.1 11:1 12:0 13:0 14:0 15:1 16:1 17:0 18:1 19:0 20:0 21:0 22:0 23:0 24:0 25:0 26:0 27:0 28:0 29:1 30:0 31:0 32:0 33:0 34:0.026751539 35:0.0023473683 36:0.93205321 37:0.038890183 38:0.1 #
-0.11884217155182768 1:1 2:0 3:0.31999999 4:1 5:0.02 6:0 7:1 8:1 9:0 10:0.0099999998 11:1 12:0 13:0 14:0 15:0 16:1 17:0 18:0 19:0 20:0 21:0 22:0 23:0 24:1 25:0 26:0 27:1 28:0 29:0 30:0 31:0 32:0 33:0 34:0.0085618179 35:0.0026500865 36:0.96320456 37:0.025787381 38:0.30000001 #
-0.11884217155182768 1:1 2:0 3:0.44 4:1 5:0.02 6:1 7:1 8:0 9:1 10:0.0099999998 11:0 12:0 13:0 14:0 15:0 16:1 17:1 18:0 19:0 20:0 21:0 22:0 23:0 24:0 25:0 26:0 27:0 28:0 29:0 30:1 31:0 32:0 33:0 34:0.0074236919 35:0.0017523736 36:0.029503601 37:0.96138406 38:0.2 #
-0.11884217155182768 1:0 2:1 3:0.1 4:0 5:0 6:0 7:1 8:1 9:0 10:0.1 11:1 12:0 13:0 14:0 15:0 16:1 17:0 18:1 19:0 20:0 21:0 22:0 23:0 24:1 25:0 26:0 27:1 28:0 29:0 30:0 31:0 32:0 33:0 34:0.030265849 35:0.0049079754 36:0.86073619 37:0.10449897 38:0.2 #
-0.11884217155182768 1:1 2:0 3:1.12 4:0 5:0.039999999 6:0 7:1 8:1 9:0 10:0.0099999998 11:1 12:0 13:0 14:0 15:0 16:0 17:0 18:0 19:0 20:0 21:0 22:0 23:0 24:1 25:0 26:0 27:1 28:0 29:0 30:0 31:0 32:0 33:0 34:0.036065575 35:0.0036322726 36:0.92667955 37:0.033686917 38:0.60000002 #
-0.11884217155182768 1:1 2:0 3:0.039999999 4:1 5:0.02 6:0 7:1 8:0 9:1 10:0.0099999998 11:0 12:0 13:0 14:0 15:0 16:1 17:1 18:0 19:0 20:0 21:0 22:0 23:0 24:0 25:0 26:0 27:0 28:0 29:0 30:1 31:0 32:0 33:0 34:0.028268551 35:0.0035335689 36:0.056537103 37:0.91872793 38:0.2 #
-0.11884217155182768 1:1 2:0 3:0.47999999 4:0 5:0.039999999 6:0 7:1 8:1 9:0 10:0.02 11:1 12:0 13:0 14:0 15:0 16:1 17:0 18:0 19:0 20:0 21:0 22:0 23:0 24:1 25:0 26:0 27:0 28:0 29:1 30:0 31:0 32:0 33:0 34:0.0281602 35:0.0075093866 36:0.94618273 37:0.01939925 38:0.30000001 #
-0.11884217155182768 1:0 2:1 3:0.22 4:0 5:0 6:0 7:1 8:1 9:0 10:0.0099999998 11:0 12:1 13:0 14:0 15:0 16:1 17:0 18:1 19:0 20:0 21:0 22:0 23:0 24:1 25:0 26:0 27:0 28:1 29:0 30:0 31:0 32:0 33:0 34:0.03894911 35:0.015432666 36:0.90593421 37:0.040051442 38:0.5 #
0.11884217155182768 1:0 2:1 3:0.16 4:0 5:0 6:0 7:1 8:1 9:0 10:0.0099999998 11:0 12:0 13:0 14:1 15:0 16:1 17:1 18:0 19:1 20:0 21:0 22:0 23:0 24:0 25:0 26:0 27:1 28:0 29:0 30:0 31:0 32:0 33:1 34:0.79859817 35:0.17694178 36:0.010728079 37:0.014018023 38:0.5 #
0.11884217155182768 1:1 2:0 3:0.44 4:1 5:0.02 6:0 7:1 8:1 9:0 10:0.0099999998 11:0 12:0 13:0 14:0 15:0 16:1 17:1 18:0 19:1 20:0 21:0 22:0 23:0 24:0 25:0 26:0 27:1 28:0 29:0 30:0 31:0 32:0 33:0 34:0.5 35:0.5 36:0.5 37:0.5 38:0.80000001 #
0.11884217155182768 1:1 2:1 3:0.34 4:0 5:0 6:0 7:1 8:1 9:0 10:0.13 11:0 12:0 13:0 14:0 15:0 16:1 17:1 18:0 19:1 20:0 21:0 22:0 23:0 24:0 25:0 26:0 27:1 28:0 29:0 30:0 31:0 32:0 33:0 34:0.95971566 35:0.015910629 36:0.0072782668 37:0.017433988 38:0.2 #
0.11884217155182768 1:1 2:0 3:0.81999999 4:1 5:0.02 6:0 7:1 8:1 9:0 10:1.8200001 11:0 12:0 13:0 14:0 15:0 16:1 17:0 18:0 19:1 20:0 21:0 22:0 23:0 24:0 25:0 26:0 27:1 28:0 29:0 30:0 31:0 32:0 33:0 34:0.98766786 35:0.0041107154 36:0.0063030967 37:0.0024664293 38:0.1 #
0.11884217155182768 1:0 2:1 3:0.47999999 4:0 5:0 6:0 7:1 8:1 9:0 10:0.14 11:0 12:0 13:0 14:0 15:0 16:1 17:1 18:0 19:1 20:0 21:0 22:0 23:0 24:0 25:0 26:0 27:1 28:0 29:0 30:0 31:0 32:0 33:0 34:0.98766786 35:0.0041107154 36:0.0063030967 37:0.0024664293 38:0.2 #
-0.11884217155182768 1:1 2:0 3:0.079999998 4:1 5:0.02 6:0 7:1 8:1 9:0 10:0.0099999998 11:0 12:0 13:0 14:0 15:0 16:1 17:1 18:0 19:1 20:0 21:0 22:0 23:0 24:0 25:0 26:0 27:1 28:0 29:0 30:0 31:0 32:0 33:0 34:0.97058237 35:0.012124826 36:0.010236533 37:0.0072550187 38:0.2 #
-0.11884217155182768 1:1 2:0 3:0.059999999 4:1 5:0.02 6:0 7:1 8:1 9:0 10:0.0099999998 11:0 12:0 13:0 14:0 15:0 16:1 17:1 18:0 19:1 20:0 21:0 22:0 23:0 24:0 25:0 26:0 27:1 28:0 29:0 30:0 31:0 32:0 33:0 34:0.91964287 35:0.051785715 36:0.0125 37:0.019642858 38:0.2 #
-0.11884217155182768 1:1 2:0 3:0.14 4:1 5:0.02 6:0 7:1 8:1 9:0 10:0.0099999998 11:0 12:0 13:0 14:0 15:0 16:1 17:1 18:0 19:1 20:0 21:0 22:0 23:0 24:0 25:0 26:0 27:1 28:0 29:0 30:0 31:0 32:0 33:0 34:0.90115207 35:0.080744103 36:0.010248865 37:0.0079048425 38:0.30000001 #
-0.11884217155182768 1:1 2:0 3:0.22 4:1 5:0.02 6:0 7:1 8:1 9:0 10:0.0099999998 11:0 12:0 13:0 14:0 15:0 16:1 17:1 18:0 19:1 20:0 21:0 22:0 23:0 24:0 25:0 26:0 27:1 28:0 29:0 30:0 31:0 32:0 33:0 34:0.90924203 35:0.066821806 36:0.0059840428 37:0.018617021 38:0.30000001 #
0.11884217155182768 1:0 2:1 3:0.34 4:0 5:0 6:0 7:1 8:1 9:0 10:0.0099999998 11:1 12:0 13:0 14:0 15:0 16:1 17:0 18:0 19:0 20:0 21:0 22:0 23:0 24:1 25:0 26:0 27:0 28:1 29:0 30:0 31:0 32:0 33:0 34:0.083333336 35:0.1 36:0.81666666 37:0.033333335 38:0.2 #
0.11884217155182768 1:0 2:1 3:0.16 4:0 5:0 6:0 7:1 8:0 9:0 10:0.0099999998 11:0 12:0 13:0 14:0 15:0 16:1 17:0 18:1 19:0 20:0 21:0 22:0 23:0 24:1 25:0 26:0 27:0 28:0 29:0 30:1 31:0 32:0 33:0 34:0.014734316 35:0.00046669779 36:0.96253085 37:0.022401493 38:0.2 #
0.11884217155182768 1:0 2:1 3:0.039999999 4:0 5:0 6:0 7:1 8:1 9:0 10:0.059999999 11:1 12:0 13:0 14:0 15:0 16:1 17:0 18:1 19:0 20:0 21:0 22:0 23:0 24:1 25:0 26:0 27:0 28:0 29:1 30:0 31:0 32:0 33:0 34:0.022683695 35:0.0036722887 36:0.94348574 37:0.030223262 38:0.2 #
-0.11884217155182768 1:0 2:1 3:0.1 4:0 5:0 6:0 7:1 8:1 9:0 10:0.0099999998 11:1 12:0 13:0 14:0 15:0 16:1 17:0 18:0 19:0 20:0 21:0 22:0 23:0 24:0 25:0 26:0 27:0 28:0 29:1 30:0 31:0 32:0 33:0 34:0.33333334 35:0.33333334 36:0.66666669 37:0.33333334 38:0.2 #
0.11884217155182768 1:1 2:0 3:0.51999998 4:1 5:0.02 6:0 7:1 8:1 9:0 10:0.090000004 11:0 12:0 13:0 14:0 15:0 16:1 17:1 18:0 19:0 20:0 21:0 22:0 23:0 24:0 25:0 26:0 27:1 28:0 29:0 30:0 31:0 32:0 33:0 34:0.56547767 35:0.096782237 36:0.26615116 37:0.072087802 38:0.2 #
-0.11884217155182768 1:0 2:1 3:0.22 4:0 5:0 6:0 7:1 8:1 9:0 10:0.0099999998 11:0 12:0 13:0 14:0 15:0 16:1 17:1 18:1 19:0 20:0 21:0 22:0 23:0 24:0 25:0 26:0 27:0 28:0 29:1 30:0 31:0 32:0 33:0 34:0.0073529412 35:0.0073529412 36:0.97794116 37:0.014705882 38:0.30000001 #
0.11884217155182768 1:1 2:1 3:0.25999999 4:0 5:0 6:0 7:1 8:1 9:0 10:0.02 11:1 12:0 13:0 14:0 15:0 16:1 17:0 18:0 19:1 20:0 21:0 22:0 23:0 24:0 25:0 26:0 27:1 28:0 29:0 30:0 31:0 32:0 33:0 34:0.55696201 35:0.12658228 36:0.32911393 37:0.012658228 38:0.40000001 #
-0.11884217155182768 1:1 2:1 3:0.34 4:0 5:0 6:0 7:1 8:0 9:0 10:0.059999999 11:1 12:0 13:0 14:1 15:1 16:1 17:0 18:0 19:0 20:0 21:0 22:0 23:0 24:0 25:0 26:0 27:0 28:1 29:0 30:0 31:0 32:0 33:0 34:0.3779918 35:0.092089221 36:0.3361339 37:0.1937945 38:0.1 #
-0.11884217155182768 1:1 2:1 3:0.059999999 4:0 5:0 6:0 7:1 8:0 9:0 10:0.17 11:1 12:0 13:0 14:1 15:1 16:1 17:0 18:0 19:0 20:0 21:0 22:0 23:0 24:0 25:0 26:0 27:0 28:1 29:0 30:0 31:0 32:0 33:0 34:0.5 35:0.5 36:0.5 37:0.5 38:0.1 #
-0.11884217155182768 1:0 2:1 3:0.18000001 4:0 5:0 6:0 7:1 8:0 9:0 10:0.059999999 11:1 12:0 13:0 14:0 15:1 16:1 17:0 18:0 19:0 20:0 21:0 22:0 23:1 24:0 25:0 26:0 27:0 28:1 29:0 30:0 31:0 32:0 33:0 34:0.3779918 35:0.092089221 36:0.3361339 37:0.1937945 38:0.1 #
-0.11884217155182768 1:1 2:0 3:2.24 4:0 5:0.079999998 6:0 7:1 8:0 9:0 10:0.0099999998 11:1 12:0 13:0 14:0 15:0 16:1 17:0 18:0 19:0 20:0 21:0 22:0 23:0 24:1 25:0 26:0 27:0 28:0 29:0 30:1 31:0 32:0 33:0 34:0.94451451 35:0.0050441362 36:0.036569986 37:0.016393442 38:0.40000001 #
0.11884217155182768 1:1 2:0 3:0.1 4:1 5:0.02 6:0 7:1 8:1 9:0 10:0.0099999998 11:0 12:0 13:0 14:0 15:0 16:1 17:1 18:1 19:0 20:0 21:0 22:0 23:0 24:0 25:0 26:0 27:1 28:0 29:0 30:0 31:0 32:0 33:0 34:0.038126312 35:0.0092673441 36:0.90000457 37:0.052632384 38:0.5 #
0.11884217155182768 1:1 2:0 3:0.51999998 4:0 5:0.039999999 6:0 7:1 8:1 9:0 10:0.079999998 11:0 12:0 13:0 14:0 15:0 16:1 17:1 18:0 19:0 20:0 21:0 22:0 23:0 24:0 25:0 26:0 27:1 28:0 29:0 30:0 31:0 32:0 33:0 34:0.33333334 35:0.33333334 36:0.66666669 37:0.33333334 38:0.1 #
0.11884217155182768 1:1 2:0 3:0.89999998 4:0 5:0.039999999 6:0 7:1 8:1 9:0 10:0.0099999998 11:0 12:0 13:0 14:0 15:0 16:1 17:1 18:1 19:0 20:0 21:0 22:0 23:0 24:1 25:0 26:0 27:0 28:0 29:1 30:0 31:0 32:0 33:0 34:0.090909094 35:0.090909094 36:0.81818181 37:0.18181819 38:0.30000001 #
0.11884217155182768 1:1 2:0 3:0.12 4:1 5:0.02 6:0 7:1 8:1 9:0 10:0.02 11:0 12:0 13:0 14:0 15:0 16:1 17:1 18:1 19:0 20:0 21:0 22:0 23:0 24:0 25:0 26:0 27:1 28:0 29:0 30:0 31:0 32:0 33:0 34:0.13701162 35:0.024551215 36:0.74445617 37:0.094508976 38:0.60000002 #
-0.11884217155182768 1:0 2:1 3:0.34 4:0 5:0 6:0 7:1 8:1 9:0 10:0.0099999998 11:0 12:0 13:0 14:0 15:0 16:1 17:1 18:1 19:0 20:0 21:0 22:0 23:0 24:1 25:0 26:0 27:1 28:0 29:0 30:0 31:0 32:0 33:0 34:0.038126312 35:0.0092673441 36:0.90000457 37:0.052632384 38:0.40000001 #
0.11884217155182768 1:0 2:1 3:0.16 4:0 5:0 6:0 7:1 8:0 9:1 10:0.0099999998 11:1 12:0 13:0 14:0 15:1 16:1 17:0 18:0 19:0 20:0 21:0 22:0 23:0 24:0 25:0 26:0 27:0 28:0 29:0 30:1 31:0 32:0 33:0 34:0.0030864198 35:0.0030864198 36:0.0030864198 37:0.99691355 38:0.1 #
-0.11884217155182768 1:0 2:1 3:0.46000001 4:0 5:0 6:0 7:1 8:1 9:0 10:0.0099999998 11:0 12:0 13:0 14:0 15:0 16:1 17:0 18:0 19:1 20:0 21:0 22:0 23:0 24:0 25:0 26:0 27:1 28:0 29:0 30:0 31:0 32:0 33:0 34:0.95025128 35:0.037688442 36:0.0075376886 37:0.0055276384 38:0.2 #
-0.11884217155182768 1:1 2:1 3:0.16 4:0 5:0 6:0 7:1 8:1 9:0 10:0.41999999 11:0 12:0 13:0 14:0 15:0 16:1 17:1 18:0 19:0 20:0 21:0 22:0 23:0 24:0 25:0 26:0 27:0 28:0 29:1 30:0 31:0 32:0 33:0 34:0.015554902 35:0.0082003381 36:0.93189675 37:0.044421565 38:0.2 #
-0.11884217155182768 1:1 2:0 3:0.56 4:1 5:0.02 6:0 7:1 8:1 9:0 10:0.58999997 11:1 12:0 13:0 14:0 15:1 16:1 17:0 18:1 19:0 20:0 21:0 22:0 23:0 24:0 25:0 26:0 27:1 28:0 29:0 30:0 31:0 32:0 33:0 34:0.030265849 35:0.0049079754 36:0.86073619 37:0.10449897 38:0.1 #
-0.11884217155182768 1:1 2:0 3:0.22 4:1 5:0.02 6:0 7:1 8:1 9:0 10:0.25 11:0 12:0 13:0 14:0 15:0 16:1 17:1 18:0 19:1 20:0 21:0 22:0 23:0 24:0 25:0 26:0 27:1 28:0 29:0 30:0 31:0 32:0 33:0 34:0.7881797 35:0.15130024 36:0.039007094 37:0.021985816 38:0.1 #
-0.11884217155182768 1:1 2:0 3:0.16 4:1 5:0.02 6:0 7:1 8:1 9:0 10:0.039999999 11:0 12:0 13:0 14:0 15:0 16:1 17:1 18:0 19:1 20:0 21:0 22:0 23:0 24:0 25:0 26:0 27:1 28:0 29:0 30:0 31:0 32:0 33:0 34:0.66666669 35:0.33333334 36:0.33333334 37:0.33333334 38:0.2 #
0.11884217155182768 1:0 2:1 3:0.059999999 4:0 5:0 6:0 7:1 8:1 9:0 10:0.02 11:0 12:0 13:0 14:0 15:0 16:1 17:0 18:0 19:1 20:0 21:0 22:0 23:0 24:1 25:0 26:0 27:0 28:1 29:0 30:0 31:0 32:0 33:0 34:0.91388887 35:0.060648147 36:0.011574074 37:0.014814815 38:0.2 #
-0.11884217155182768 1:1 2:0 3:0.88 4:0 5:0.059999999 6:0 7:1 8:1 9:0 10:0.029999999 11:1 12:0 13:0 14:0 15:1 16:1 17:0 18:0 19:0 20:0 21:0 22:0 23:0 24:0 25:0 26:0 27:1 28:0 29:0 30:0 31:0 32:0 33:0 34:0.53018373 35:0.10236221 36:0.27034122 37:0.10236221 38:0.1 #
0.0084154077179796616 1:0 2:1 3:0.059999999 4:0 5:0 6:0 7:1 8:1 9:0 10:0.0099999998 11:1 12:0 13:0 14:0 15:0 16:1 17:0 18:0 19:1 20:0 21:0 22:0 23:0 24:0 25:0 26:0 27:0 28:1 29:0 30:0 31:0 32:0 33:0 34:0.050083473 35:0.92988312 36:0.010016695 37:0.011686143 38:0.2 #
-0.11884217155182768 1:0 2:1 3:0.25999999 4:0 5:0 6:0 7:1 8:1 9:0 10:0.0099999998 11:1 12:0 13:0 14:0 15:0 16:1 17:0 18:0 19:1 20:0 21:0 22:0 23:0 24:0 25:0 26:0 27:0 28:1 29:0 30:0 31:0 32:0 33:0 34:0.5 35:0.5 36:0.5 37:0.5 38:0.2 #
0.11884217155182768 1:1 2:0 3:0.30000001 4:1 5:0.02 6:0 7:1 8:1 9:0 10:0.0099999998 11:0 12:0 13:0 14:0 15:0 16:1 17:1 18:1 19:0 20:0 21:0 22:0 23:0 24:0 25:0 26:0 27:1 28:0 29:0 30:0 31:0 32:0 33:0 34:0.014298419 35:0.0056783198 36:0.90469998 37:0.075460084 38:0.80000001 #
-0.11884217155182768 1:0 2:1 3:0.1 4:0 5:0 6:0 7:1 8:1 9:0 10:0.0099999998 11:0 12:0 13:0 14:0 15:0 16:1 17:0 18:1 19:0 20:0 21:0 22:0 23:0 24:0 25:0 26:0 27:0 28:1 29:0 30:0 31:0 32:0 33:0 34:0.33333334 35:0.33333334 36:0.66666669 37:0.33333334 38:0.5 #
-0.11884217155182768 1:0 2:1 3:0.14 4:0 5:0 6:0 7:1 8:1 9:0 10:0.34 11:0 12:1 13:0 14:0 15:0 16:1 17:0 18:0 19:1 20:0 21:0 22:0 23:0 24:0 25:0 26:0 27:0 28:1 29:0 30:0 31:0 32:0 33:0 34:0.84351146 35:0.0063613229 36:0.13867685 37:0.013994911 38:0.2 #
0.11884217155182768 1:0 2:1 3:0.31999999 4:0 5:0 6:0 7:1 8:1 9:0 10:0.49000001 11:1 12:0 13:0 14:0 15:1 16:1 17:0 18:0 19:0 20:0 21:0 22:0 23:0 24:0 25:0 26:0 27:0 28:0 29:1 30:0 31:0 32:0 33:0 34:0.0054719565 35:0.00034199728 36:0.97503418 37:0.019835841 38:0.1 #
0.11884217155182768 1:0 2:1 3:0.059999999 4:0 5:0 6:0 7:1 8:0 9:1 10:0.0099999998 11:1 12:0 13:0 14:0 15:0 16:1 17:0 18:0 19:0 20:0 21:0 22:0 23:0 24:0 25:0 26:0 27:0 28:0 29:0 30:1 31:0 32:0 33:0 34:0.015328226 35:0.0041071652 36:0.020069573 37:0.9604969 38:0.2 #
0.11884217155182768 1:1 2:0 3:0.059999999 4:1 5:0.02 6:0 7:1 8:0 9:0 10:0.13 11:0 12:0 13:0 14:1 15:0 16:1 17:0 18:0 19:0 20:0 21:0 22:0 23:0 24:0 25:0 26:0 27:1 28:0 29:0 30:0 31:0 32:0 33:0 34:0.5 35:0.5 36:0.5 37:0.5 38:0.1 #
0.11884217155182768 1:1 2:0 3:0.28 4:1 5:0.02 6:0 7:1 8:1 9:0 10:0.090000004 11:0 12:0 13:0 14:0 15:0 16:1 17:1 18:0 19:0 20:0 21:0 22:0 23:0 24:0 25:0 26:0 27:1 28:0 29:0 30:0 31:0 32:0 33:0 34:0.56547767 35:0.096782237 36:0.26615116 37:0.072087802 38:0.2 #
0.11884217155182768 1:1 2:0 3:0.30000001 4:1 5:0.02 6:0 7:1 8:0 9:0 10:0.0099999998 11:0 12:0 13:0 14:0 15:0 16:1 17:0 18:0 19:0 20:0 21:0 22:0 23:0 24:0 25:0 26:0 27:1 28:0 29:0 30:0 31:0 32:0 33:0 34:0.86283892 35:0.089314193 36:0.028708134 37:0.020733653 38:0.40000001 #
0.11884217155182768 1:1 2:0 3:0.14 4:1 5:0.02 6:0 7:1 8:0 9:0 10:0.0099999998 11:0 12:1 13:0 14:0 15:1 16:1 17:0 18:0 19:0 20:0 21:0 22:0 23:0 24:0 25:0 26:0 27:1 28:0 29:0 30:0 31:0 32:0 33:0 34:0.5 35:0.5 36:0.5 37:0.5 38:0.5 #
-0.11884217155182768 1:1 2:0 3:0.23999999 4:1 5:0.02 6:0 7:1 8:0 9:0 10:0.07 11:1 12:0 13:0 14:1 15:1 16:1 17:0 18:0 19:0 20:0 21:0 22:0 23:0 24:0 25:0 26:0 27:1 28:0 29:0 30:0 31:0 32:0 33:0 34:0.5 35:0.5 36:0.5 37:0.5 38:0.1 #
0.11884217155182768 1:0 2:1 3:0.47999999 4:0 5:0 6:0 7:1 8:1 9:0 10:0.029999999 11:0 12:0 13:0 14:0 15:0 16:1 17:1 18:0 19:1 20:0 21:0 22:0 23:0 24:0 25:0 26:0 27:0 28:1 29:0 30:0 31:0 32:0 33:0 34:0.828125 35:0.1484375 36:0.015625 37:0.0234375 38:0.2 #
-0.11884217155182768 1:1 2:0 3:0.22 4:1 5:0.02 6:0 7:1 8:1 9:0 10:0.0099999998 11:0 12:0 13:0 14:0 15:0 16:1 17:1 18:0 19:1 20:0 21:0 22:0 23:0 24:0 25:0 26:0 27:1 28:0 29:0 30:0 31:0 32:0 33:0 34:0.87791663 35:0.097145863 36:0.013941865 37:0.01104827 38:0.30000001 #
0.11884217155182768 1:0 2:1 3:0.69999999 4:0 5:0 6:0 7:1 8:1 9:0 10:0.039999999 11:1 12:0 13:0 14:0 15:0 16:1 17:0 18:0 19:0 20:0 21:0 22:0 23:0 24:1 25:0 26:0 27:0 28:0 29:1 30:0 31:0 32:0 33:0 34:0.25 35:0.25 36:0.5 37:0.5 38:0.2 #
-0.11884217155182768 1:1 2:0 3:0.23999999 4:1 5:0.02 6:0 7:1 8:1 9:0 10:0.0099999998 11:0 12:0 13:0 14:0 15:0 16:1 17:0 18:0 19:1 20:0 21:0 22:0 23:0 24:1 25:0 26:0 27:0 28:0 29:1 30:0 31:0 32:0 33:0 34:0.3548387 35:0.64516127 36:0.032258064 37:0.032258064 38:0.5 #
-0.11884217155182768 1:1 2:0 3:0.31999999 4:1 5:0.02 6:0 7:1 8:0 9:0 10:0.07 11:1 12:0 13:0 14:1 15:1 16:1 17:0 18:0 19:0 20:0 21:0 22:0 23:0 24:0 25:0 26:0 27:1 28:0 29:0 30:0 31:0 32:0 33:0 34:0.5 35:0.5 36:0.5 37:0.5 38:0.1 #
-0.11884217155182768 1:1 2:0 3:0.16 4:1 5:0.02 6:0 7:1 8:1 9:0 10:0.0099999998 11:1 12:0 13:0 14:0 15:0 16:1 17:0 18:0 19:0 20:0 21:0 22:0 23:0 24:1 25:0 26:0 27:1 28:0 29:0 30:0 31:0 32:0 33:0 34:0.95319188 35:0.027891563 36:0.0072260322 37:0.011782574 38:0.2 #
-0.11884217155182768 1:1 2:0 3:0.41999999 4:1 5:0.02 6:0 7:1 8:1 9:0 10:0.0099999998 11:1 12:0 13:0 14:0 15:0 16:1 17:0 18:0 19:0 20:0 21:0 22:0 23:0 24:1 25:0 26:0 27:1 28:0 29:0 30:0 31:0 32:0 33:0 34:0.11355443 35:0.027036769 36:0.7898342 37:0.070295602 38:0.40000001 #
0.11884217155182768 1:1 2:1 3:0.30000001 4:0 5:0 6:0 7:1 8:1 9:0 10:0.22 11:1 12:0 13:0 14:0 15:1 16:1 17:0 18:0 19:1 20:0 21:0 22:0 23:0 24:0 25:0 26:0 27:0 28:1 29:0 30:0 31:0 32:0 33:0 34:0.70588237 35:0.125 36:0.15257353 37:0.020220589 38:0.1 #
0.11884217155182768 1:0 2:1 3:0.02 4:0 5:0 6:0 7:1 8:1 9:0 10:0.029999999 11:0 12:0 13:0 14:0 15:0 16:1 17:0 18:0 19:0 20:0 21:0 22:0 23:0 24:0 25:0 26:0 27:0 28:1 29:0 30:0 31:0 32:0 33:0 34:0.41379312 35:0.049261082 36:0.32266009 37:0.21921182 38:0.1 #
0.11884217155182768 1:0 2:1 3:0 4:0 5:0 6:0 7:1 8:1 9:0 10:0.039999999 11:0 12:0 13:0 14:0 15:0 16:1 17:0 18:0 19:1 20:0 21:0 22:0 23:0 24:0 25:0 26:0 27:0 28:1 29:0 30:0 31:0 32:0 33:0 34:0.3771593 35:0.36948177 36:0.17466411 37:0.080614202 38:0.1 #
0.11884217155182768 1:1 2:1 3:0.40000001 4:0 5:0 6:0 7:1 8:1 9:0 10:0.22 11:1 12:0 13:0 14:0 15:1 16:1 17:0 18:1 19:0 20:0 21:0 22:0 23:0 24:0 25:0 26:0 27:0 28:1 29:0 30:0 31:0 32:0 33:0 34:0.70588237 35:0.125 36:0.15257353 37:0.020220589 38:0.1 #
-0.11884217155182768 1:0 2:1 3:0.23999999 4:0 5:0 6:0 7:1 8:1 9:0 10:0.0099999998 11:0 12:0 13:0 14:0 15:0 16:1 17:1 18:0 19:0 20:0 21:0 22:0 23:0 24:0 25:0 26:0 27:0 28:1 29:0 30:0 31:0 32:0 33:0 34:0.91459221 35:0.042772658 36:0.030394718 37:0.012515472 38:0.1 #
-0.096877586544202171 1:1 2:1 3:0.14 4:0 5:0 6:0 7:1 8:1 9:0 10:0.0099999998 11:0 12:0 13:0 14:0 15:0 16:1 17:0 18:0 19:0 20:0 21:0 22:0 23:0 24:0 25:0 26:0 27:0 28:1 29:0 30:0 31:0 32:0 33:0 34:0.80025566 35:0.084622502 36:0.04859183 37:0.066574112 38:0.30000001 #
0.11884217155182768 1:1 2:0 3:0.80000001 4:1 5:0.02 6:0 7:1 8:1 9:0 10:0.0099999998 11:1 12:0 13:0 14:0 15:0 16:1 17:0 18:0 19:0 20:0 21:0 22:0 23:0 24:1 25:0 26:0 27:1 28:0 29:0 30:0 31:0 32:0 33:0 34:0.82351393 35:0.11888479 36:0.040768016 37:0.017359285 38:0.2 #
0.11884217155182768 1:1 2:0 3:0.28 4:1 5:0.02 6:0 7:1 8:1 9:0 10:0.0099999998 11:0 12:0 13:0 14:0 15:0 16:1 17:0 18:0 19:0 20:0 21:0 22:0 23:0 24:1 25:0 26:0 27:1 28:0 29:0 30:0 31:0 32:0 33:0 34:0.068062827 35:0.062827222 36:0.81675392 37:0.057591625 38:0.40000001 #
0.11884217155182768 1:1 2:0 3:0.46000001 4:1 5:0.02 6:0 7:1 8:1 9:0 10:0.02 11:1 12:0 13:0 14:0 15:0 16:1 17:0 18:0 19:0 20:0 21:0 22:0 23:0 24:1 25:0 26:0 27:0 28:0 29:1 30:0 31:0 32:0 33:0 34:0.33333334 35:0.33333334 36:0.66666669 37:0.33333334 38:0.2 #
0.11884217155182768 1:1 2:0 3:0.18000001 4:1 5:0.02 6:0 7:1 8:1 9:0 10:0.0099999998 11:0 12:0 13:0 14:0 15:0 16:1 17:0 18:0 19:0 20:0 21:0 22:0 23:0 24:1 25:0 26:0 27:1 28:0 29:0 30:0 31:0 32:0 33:0 34:0.94107324 35:0.030174611 36:0.015161869 37:0.013593569 38:0.30000001 #
-0.11884217155182768 1:1 2:1 3:0.22 4:0 5:0 6:0 7:1 8:1 9:0 10:0.18000001 11:1 12:0 13:0 14:0 15:1 16:1 17:0 18:0 19:1 20:0 21:0 22:0 23:0 24:0 25:0 26:0 27:1 28:0 29:0 30:0 31:0 32:0 33:0 34:0.54310346 35:0.39655173 36:0.02586207 37:0.05172414 38:0.1 #
-0.11884217155182768 1:1 2:0 3:0.34 4:1 5:0.02 6:0 7:1 8:1 9:0 10:0.0099999998 11:0 12:0 13:0 14:0 15:0 16:1 17:0 18:1 19:1 20:0 21:0 22:0 23:0 24:0 25:0 26:0 27:1 28:0 29:0 30:0 31:0 32:0 33:0 34:0.83500147 35:0.12906058 36:0.016681299 37:0.019373721 38:0.5 #
-0.085114266048060938 1:0 2:1 3:0.039999999 4:0 5:0 6:0 7:1 8:1 9:0 10:0.0099999998 11:0 12:0 13:0 14:0 15:0 16:1 17:0 18:0 19:0 20:0 21:0 22:0 23:0 24:1 25:0 26:0 27:1 28:0 29:0 30:0 31:0 32:0 33:0 34:0.038862068 35:0.93015516 36:0.0072241379 37:0.023793103 38:0.2 #
-0.11884217155182768 1:1 2:0 3:0.41999999 4:1 5:0.02 6:0 7:1 8:1 9:0 10:0.02 11:1 12:0 13:0 14:0 15:0 16:1 17:0 18:1 19:0 20:0 21:0 22:0 23:0 24:1 25:0 26:0 27:1 28:0 29:0 30:0 31:0 32:0 33:0 34:0.17613636 35:0.065909088 36:0.6693182 37:0.090909094 38:0.30000001 #
0.11884217155182768 1:1 2:1 3:0.12 4:0 5:0 6:0 7:1 8:0 9:0 10:0.0099999998 11:0 12:0 13:0 14:0 15:0 16:1 17:0 18:0 19:0 20:0 21:0 22:0 23:1 24:0 25:0 26:0 27:0 28:0 29:0 30:1 31:0 32:0 33:0 34:0.18222772 35:0.073069811 36:0.23110823 37:0.51361871 38:0.30000001 #
0.11884217155182768 1:0 2:1 3:0.14 4:0 5:0 6:0 7:1 8:1 9:0 10:0.0099999998 11:0 12:1 13:0 14:0 15:0 16:1 17:1 18:0 19:1 20:0 21:0 22:0 23:0 24:0 25:0 26:0 27:0 28:0 29:1 30:0 31:0 32:0 33:0 34:0.50835323 35:0.36754176 36:0.11694511 37:0.011933174 38:0.40000001 #
0.11884217155182768 1:1 2:1 3:0.36000001 4:0 5:0 6:0 7:1 8:0 9:0 10:0.0099999998 11:0 12:0 13:0 14:0 15:0 16:1 17:0 18:0 19:0 20:0 21:0 22:0 23:0 24:0 25:0 26:0 27:0 28:0 29:0 30:1 31:0 32:0 33:0 34:0.022640713 35:0.0054014814 36:0.02247818 37:0.94949049 38:0.1 #
-0.11884217155182768 1:1 2:1 3:0.079999998 4:0 5:0 6:0 7:1 8:1 9:0 10:0.0099999998 11:0 12:0 13:0 14:0 15:0 16:1 17:0 18:0 19:0 20:0 21:0 22:0 23:0 24:0 25:0 26:0 27:0 28:0 29:1 30:0 31:0 32:0 33:0 34:0.30113393 35:0.020218229 36:0.23523748 37:0.44351733 38:0.40000001 #
-0.11884217155182768 1:1 2:1 3:0.039999999 4:0 5:0 6:0 7:1 8:1 9:0 10:0.0099999998 11:0 12:0 13:0 14:0 15:0 16:1 17:0 18:0 19:0 20:0 21:0 22:0 23:0 24:0 25:0 26:0 27:0 28:0 29:1 30:0 31:0 32:0 33:0 34:0.27443582 35:0.06106735 36:0.47450674 37:0.19004078 38:0.2 #
0.11884217155182768 1:1 2:0 3:0.69999999 4:1 5:0.02 6:0 7:1 8:1 9:0 10:0.47999999 11:1 12:0 13:0 14:0 15:1 16:1 17:0 18:1 19:0 20:0 21:0 22:0 23:0 24:0 25:0 26:0 27:1 28:0 29:0 30:0 31:0 32:0 33:0 34:0.68141592 35:0.20353982 36:0.085545726 37:0.03539823 38:0.1 #
0.11884217155182768 1:1 2:0 3:0.62 4:1 5:0.02 6:0 7:1 8:1 9:0 10:0.0099999998 11:1 12:0 13:0 14:0 15:0 16:1 17:0 18:0 19:1 20:0 21:0 22:0 23:0 24:0 25:0 26:0 27:1 28:0 29:0 30:0 31:0 32:0 33:0 34:0.98766786 35:0.0041107154 36:0.0063030967 37:0.0024664293 38:0.30000001 #
0.11884217155182768 1:1 2:0 3:0.44 4:1 5:0.02 6:0 7:1 8:1 9:0 10:1.05 11:1 12:0 13:0 14:0 15:1 16:1 17:0 18:0 19:0 20:0 21:0 22:0 23:0 24:0 25:0 26:0 27:1 28:0 29:0 30:0 31:0 32:0 33:0 34:0.56547767 35:0.096782237 36:0.26615116 37:0.072087802 38:0.1 #
-0.11884217155182768 1:0 2:1 3:0.1 4:0 5:0 6:0 7:1 8:1 9:0 10:0.0099999998 11:0 12:0 13:0 14:0 15:0 16:1 17:0 18:0 19:1 20:0 21:0 22:0 23:0 24:0 25:0 26:0 27:1 28:0 29:0 30:0 31:0 32:0 33:0 34:0.5 35:0.5 36:0.5 37:0.5 38:0.2 #
-0.11884217155182768 1:1 2:0 3:0.46000001 4:1 5:0.02 6:0 7:1 8:1 9:0 10:0.85000002 11:1 12:0 13:0 14:0 15:1 16:1 17:0 18:0 19:1 20:0 21:0 22:0 23:0 24:0 25:0 26:0 27:0 28:1 29:0 30:0 31:0 32:0 33:0 34:0.95971566 35:0.015910629 36:0.0072782668 37:0.017433988 38:0.1 #
-0.11884217155182768 1:1 2:0 3:0.36000001 4:1 5:0.02 6:0 7:1 8:0 9:0 10:0.1 11:1 12:0 13:0 14:0 15:1 16:1 17:0 18:0 19:1 20:0 21:0 22:0 23:0 24:0 25:0 26:0 27:0 28:0 29:0 30:1 31:0 32:0 33:0 34:0.66666669 35:0.33333334 36:0.33333334 37:0.33333334 38:0.1 #
-0.11884217155182768 1:1 2:0 3:1 4:1 5:0.02 6:0 7:1 8:1 9:0 10:0.0099999998 11:1 12:0 13:0 14:0 15:0 16:1 17:0 18:0 19:1 20:0 21:0 22:0 23:0 24:0 25:0 26:0 27:1 28:0 29:0 30:0 31:0 32:0 33:0 34:0.86956519 35:0.017391304 36:0.026086956 37:0.10434783 38:0.2 #
-0.11884217155182768 1:1 2:0 3:0.079999998 4:1 5:0.02 6:0 7:1 8:1 9:0 10:0.0099999998 11:0 12:0 13:0 14:0 15:0 16:1 17:0 18:0 19:1 20:0 21:0 22:0 23:0 24:0 25:0 26:0 27:1 28:0 29:0 30:0 31:0 32:0 33:0 34:0.9285714 35:0.071428575 36:0.071428575 37:0.071428575 38:0.40000001 #
0.11884217155182768 1:0 2:1 3:0.02 4:0 5:0 6:0 7:1 8:1 9:0 10:0.0099999998 11:0 12:0 13:0 14:0 15:0 16:1 17:1 18:0 19:0 20:0 21:0 22:0 23:0 24:0 25:0 26:0 27:0 28:0 29:1 30:0 31:0 32:0 33:0 34:0.059925094 35:0.0037453184 36:0.91011238 37:0.027715355 38:0.1 #
0.11884217155182768 1:0 2:1 3:0.1 4:0 5:0 6:0 7:1 8:1 9:0 10:0.02 11:0 12:0 13:0 14:0 15:0 16:1 17:0 18:0 19:0 20:0 21:0 22:0 23:0 24:1 25:0 26:0 27:0 28:0 29:1 30:0 31:0 32:0 33:0 34:0.0026246719 35:0.0026246719 36:0.82283467 37:0.17454068 38:0.2 #
0.11884217155182768 1:0 2:1 3:0.1 4:0 5:0 6:0 7:1 8:1 9:0 10:0.039999999 11:0 12:0 13:0 14:0 15:0 16:1 17:0 18:0 19:0 20:0 21:0 22:0 23:0 24:1 25:0 26:0 27:0 28:0 29:1 30:0 31:0 32:0 33:0 34:0.22222222 35:0.11111111 36:0.77777779 37:0.11111111 38:0.2 #
0.11884217155182768 1:1 2:1 3:0.30000001 4:0 5:0 6:0 7:1 8:1 9:0 10:0.41999999 11:0 12:0 13:0 14:0 15:0 16:1 17:1 18:0 19:0 20:0 21:0 22:0 23:0 24:0 25:0 26:0 27:0 28:0 29:1 30:0 31:0 32:0 33:0 34:0.015554902 35:0.0082003381 36:0.93189675 37:0.044421565 38:0.2 #
-0.024140396947623322 1:0 2:1 3:0.079999998 4:0 5:0 6:0 7:1 8:1 9:0 10:0.0099999998 11:0 12:1 13:0 14:0 15:0 16:1 17:0 18:0 19:0 20:0 21:0 22:0 23:0 24:0 25:0 26:0 27:0 28:0 29:1 30:0 31:0 32:0 33:0 34:0.015058677 35:0.0034222174 36:0.94425625 37:0.037267465 38:0.30000001 #
0.11884217155182768 1:0 2:1 3:0.079999998 4:0 5:0 6:0 7:1 8:1 9:0 10:0.54000002 11:1 12:0 13:0 14:0 15:0 16:1 17:0 18:0 19:0 20:0 21:0 22:0 23:0 24:1 25:0 26:0 27:0 28:0 29:1 30:0 31:0 32:0 33:0 34:0.037039835 35:0.0090239756 36:0.90462524 37:0.049386445 38:0.2 #
0.11884217155182768 1:0 2:1 3:0.41999999 4:0 5:0 6:0 7:1 8:1 9:0 10:0.18000001 11:0 12:1 13:0 14:0 15:0 16:0 17:1 18:0 19:1 20:0 21:0 22:0 23:0 24:0 25:0 26:0 27:0 28:0 29:1 30:0 31:0 32:0 33:0 34:0.16666667 35:0.16666667 36:0.83333331 37:0.16666667 38:0.69999999 #
-0.11884217155182768 1:0 2:1 3:0.039999999 4:0 5:0 6:0 7:1 8:0 9:0 10:0.02 11:0 12:0 13:0 14:0 15:1 16:1 17:0 18:0 19:1 20:0 21:0 22:0 23:0 24:0 25:0 26:0 27:0 28:0 29:0 30:1 31:0 32:0 33:0 34:0.33333334 35:0.33333334 36:0.66666669 37:0.33333334 38:0.1 #
-0.11884217155182768 1:1 2:0 3:0.66000003 4:1 5:0.02 6:0 7:1 8:0 9:1 10:0.0099999998 11:0 12:0 13:0 14:0 15:0 16:1 17:1 18:0 19:0 20:0 21:0 22:0 23:0 24:0 25:0 26:0 27:0 28:0 29:0 30:1 31:0 32:0 33:0 34:0.37008309 35:0.030747922 36:0.18781163 37:0.41191137 38:0.30000001 #
0.11884217155182768 1:1 2:0 3:0.25999999 4:1 5:0.02 6:0 7:1 8:1 9:0 10:0.11 11:1 12:0 13:0 14:0 15:1 16:1 17:0 18:0 19:1 20:0 21:0 22:0 23:0 24:0 25:0 26:0 27:1 28:0 29:0 30:0 31:0 32:0 33:0 34:0.73417723 35:0.25316456 36:0.012658228 37:0.025316456 38:0.1 #
0.11884217155182768 1:1 2:0 3:0.16 4:1 5:0.02 6:0 7:1 8:1 9:0 10:0.22 11:1 12:0 13:0 14:0 15:1 16:1 17:0 18:0 19:1 20:0 21:0 22:0 23:0 24:0 25:0 26:0 27:0 28:1 29:0 30:0 31:0 32:0 33:0 34:0.70588237 35:0.125 36:0.15257353 37:0.020220589 38:0.1 #
0.11884217155182768 1:1 2:0 3:0.89999998 4:1 5:0.02 6:0 7:1 8:1 9:0 10:0.02 11:1 12:0 13:0 14:0 15:0 16:1 17:0 18:0 19:1 20:0 21:0 22:0 23:0 24:0 25:0 26:0 27:0 28:1 29:0 30:0 31:0 32:0 33:0 34:0.5 35:0.5 36:0.5 37:0.5 38:0.2 #
0.11884217155182768 1:1 2:0 3:0.44 4:1 5:0.02 6:0 7:1 8:1 9:0 10:0.050000001 11:1 12:0 13:0 14:0 15:0 16:1 17:0 18:0 19:1 20:0 21:0 22:0 23:0 24:0 25:0 26:0 27:1 28:0 29:0 30:0 31:0 32:0 33:0 34:0.98766786 35:0.0041107154 36:0.0063030967 37:0.0024664293 38:0.2 #
-0.11884217155182768 1:1 2:0 3:0.25999999 4:1 5:0.02 6:0 7:1 8:1 9:0 10:0.0099999998 11:1 12:0 13:0 14:0 15:0 16:1 17:0 18:0 19:1 20:0 21:0 22:0 23:0 24:0 25:0 26:0 27:0 28:0 29:1 30:0 31:0 32:0 33:0 34:0.42857143 35:0.2857143 36:0.2857143 37:0.2857143 38:0.2 #
0.11884217155182768 1:0 2:1 3:0.059999999 4:0 5:0 6:0 7:1 8:1 9:0 10:0.02 11:0 12:0 13:0 14:0 15:0 16:1 17:1 18:0 19:1 20:0 21:0 22:0 23:0 24:1 25:0 26:0 27:0 28:0 29:1 30:0 31:0 32:0 33:0 34:0.81609195 35:0.14559387 36:0.026819924 37:0.019157087 38:0.30000001 #
-0.11884217155182768 1:1 2:0 3:0.40000001 4:1 5:0.02 6:0 7:1 8:1 9:0 10:0.34 11:0 12:0 13:0 14:0 15:0 16:1 17:0 18:0 19:1 20:0 21:0 22:0 23:0 24:0 25:0 26:0 27:0 28:1 29:0 30:0 31:0 32:0 33:0 34:0.84351146 35:0.0063613229 36:0.13867685 37:0.013994911 38:0.2 #
0.11884217155182768 1:0 2:1 3:0.14 4:0 5:0 6:0 7:1 8:1 9:0 10:0.039999999 11:0 12:1 13:0 14:1 15:1 16:1 17:0 18:0 19:0 20:0 21:0 22:0 23:0 24:0 25:0 26:0 27:1 28:0 29:0 30:0 31:1 32:0 33:0 34:0.5 35:0.5 36:0.5 37:0.5 38:0.1 #
0.11884217155182768 1:0 2:1 3:0.039999999 4:0 5:0 6:0 7:1 8:0 9:1 10:0.02 11:1 12:0 13:0 14:0 15:1 16:1 17:0 18:0 19:0 20:0 21:0 22:0 23:0 24:0 25:0 26:0 27:0 28:0 29:0 30:1 31:0 32:0 33:0 34:0.016062787 35:0.0016945988 36:0.0066850488 37:0.97557193 38:0.1 #
0.11884217155182768 1:1 2:1 3:0.039999999 4:0 5:0 6:0 7:1 8:1 9:0 10:0.0099999998 11:0 12:1 13:0 14:0 15:1 16:1 17:0 18:0 19:0 20:0 21:0 22:0 23:0 24:0 25:0 26:0 27:1 28:0 29:0 30:0 31:0 32:0 33:0 34:0.47598255 35:0.063318774 36:0.38427949 37:0.080786027 38:0.1 #
0.11884217155182768 1:0 2:1 3:0.23999999 4:0 5:0 6:0 7:1 8:1 9:0 10:0.029999999 11:0 12:1 13:1 14:0 15:0 16:1 17:0 18:0 19:0 20:0 21:0 22:0 23:0 24:1 25:0 26:0 27:1 28:0 29:0 30:0 31:0 32:0 33:0 34:0.94107324 35:0.030174611 36:0.015161869 37:0.013593569 38:0.5 #
-0.11884217155182768 1:1 2:1 3:0.02 4:0 5:0 6:0 7:1 8:1 9:0 10:0.039999999 11:0 12:1 13:0 14:1 15:1 16:1 17:0 18:0 19:0 20:0 21:0 22:0 23:0 24:0 25:0 26:0 27:1 28:0 29:0 30:0 31:1 32:0 33:0 34:0.5 35:0.5 36:0.5 37:0.5 38:0.1 #
0.11884217155182768 1:1 2:0 3:0.68000001 4:1 5:0.02 6:0 7:1 8:1 9:0 10:0.0099999998 11:1 12:0 13:0 14:0 15:0 16:1 17:0 18:0 19:1 20:0 21:0 22:0 23:0 24:0 25:0 26:0 27:0 28:1 29:0 30:0 31:0 32:0 33:0 34:0.2 35:0.40000001 36:0.60000002 37:0.2 38:0.2 #
-0.11884217155182768 1:0 2:1 3:0.079999998 4:0 5:0 6:1 7:1 8:1 9:0 10:0.0099999998 11:1 12:0 13:0 14:0 15:0 16:1 17:0 18:0 19:0 20:0 21:0 22:0 23:0 24:1 25:0 26:0 27:1 28:0 29:0 30:0 31:0 32:0 33:0 34:0.78195488 35:0.063909777 36:0.15037593 37:0.011278195 38:0.5 #
-0.11884217155182768 1:0 2:1 3:0.1 4:0 5:0 6:0 7:1 8:1 9:0 10:0.0099999998 11:1 12:0 13:0 14:0 15:0 16:1 17:0 18:0 19:0 20:0 21:0 22:0 23:0 24:1 25:0 26:0 27:1 28:0 29:0 30:0 31:0 32:0 33:0 34:0.88961041 35:0.025974026 36:0.064935066 37:0.032467533 38:0.5 #
-0.11884217155182768 1:0 2:1 3:0.12 4:0 5:0 6:0 7:1 8:1 9:0 10:0.15000001 11:1 12:0 13:0 14:0 15:1 16:1 17:0 18:0 19:1 20:0 21:0 22:0 23:0 24:0 25:0 26:0 27:1 28:0 29:0 30:0 31:0 32:0 33:0 34:0.85632181 35:0.057471264 36:0.017241379 37:0.080459774 38:0.1 #
-0.11884217155182768 1:0 2:1 3:0.22 4:0 5:0 6:0 7:1 8:1 9:0 10:0.85000002 11:0 12:1 13:0 14:0 15:1 16:1 17:0 18:0 19:1 20:0 21:0 22:0 23:0 24:0 25:0 26:0 27:1 28:0 29:0 30:0 31:0 32:0 33:0 34:0.95971566 35:0.015910629 36:0.0072782668 37:0.017433988 38:0.1 #
0.11884217155182768 1:1 2:1 3:0.16 4:0 5:0 6:0 7:1 8:1 9:0 10:0.0099999998 11:0 12:0 13:0 14:0 15:0 16:1 17:1 18:1 19:0 20:0 21:0 22:0 23:0 24:0 25:0 26:0 27:0 28:1 29:0 30:0 31:0 32:0 33:0 34:0.022526871 35:0.0067580612 36:0.88730127 37:0.083445966 38:0.69999999 #
0.11884217155182768 1:1 2:0 3:1.16 4:0 5:0.039999999 6:0 7:1 8:0 9:0 10:0.0099999998 11:0 12:0 13:0 14:0 15:0 16:0 17:0 18:0 19:1 20:0 21:0 22:0 23:0 24:0 25:0 26:0 27:0 28:0 29:0 30:1 31:0 32:0 33:0 34:0.46546721 35:0.50145096 36:0.01334881 37:0.02089379 38:0.5 #
0.11884217155182768 1:1 2:0 3:0.28 4:1 5:0.02 6:0 7:1 8:1 9:0 10:0.079999998 11:0 12:0 13:0 14:0 15:0 16:1 17:1 18:0 19:0 20:0 21:0 22:0 23:0 24:1 25:0 26:0 27:0 28:0 29:1 30:0 31:0 32:0 33:0 34:0.015058677 35:0.0034222174 36:0.94425625 37:0.037267465 38:0.30000001 #
-0.11884217155182768 1:0 2:1 3:0.02 4:0 5:0 6:0 7:1 8:1 9:0 10:0.02 11:0 12:0 13:0 14:0 15:1 16:1 17:0 18:0 19:0 20:0 21:0 22:0 23:0 24:0 25:0 26:0 27:0 28:0 29:1 30:0 31:0 32:0 33:0 34:0.33333334 35:0.33333334 36:0.66666669 37:0.33333334 38:0.1 #
-0.11884217155182768 1:1 2:0 3:0.40000001 4:1 5:0.02 6:0 7:1 8:1 9:0 10:0.0099999998 11:1 12:0 13:0 14:0 15:0 16:1 17:0 18:0 19:0 20:0 21:0 22:0 23:0 24:0 25:0 26:0 27:0 28:0 29:1 30:0 31:0 32:0 33:0 34:0.1 35:0.041666668 36:0.85000002 37:0.025 38:0.1 #
0.11884217155182768 1:0 2:1 3:0.18000001 4:0 5:0 6:0 7:1 8:0 9:1 10:0.029999999 11:1 12:0 13:0 14:0 15:0 16:1 17:0 18:0 19:0 20:0 21:0 22:0 23:0 24:1 25:0 26:0 27:0 28:0 29:0 30:1 31:0 32:0 33:0 34:0.016307892 35:0.0019569471 36:0.020874104 37:0.96216571 38:0.2 #
-0.11884217155182768 1:1 2:0 3:0.22 4:1 5:0.02 6:0 7:1 8:1 9:0 10:0.0099999998 11:0 12:0 13:0 14:0 15:0 16:1 17:1 18:0 19:1 20:0 21:0 22:0 23:0 24:0 25:0 26:0 27:0 28:1 29:0 30:0 31:0 32:0 33:0 34:0.66871166 35:0.20858896 36:0.079754598 37:0.055214725 38:0.30000001 #
0.11884217155182768 1:0 2:1 3:0.039999999 4:0 5:0 6:0 7:1 8:1 9:0 10:0.0099999998 11:1 12:0 13:0 14:0 15:0 16:1 17:0 18:0 19:0 20:0 21:0 22:0 23:0 24:1 25:0 26:0 27:1 28:0 29:0 30:0 31:0 32:0 33:0 34:0.97345132 35:0.013274336 36:0.0044247787 37:0.017699115 38:0.2 #
-0.11884217155182768 1:1 2:0 3:0.28 4:1 5:0.02 6:0 7:1 8:1 9:0 10:0.039999999 11:1 12:0 13:0 14:0 15:0 16:1 17:0 18:1 19:0 20:0 21:0 22:0 23:0 24:1 25:0 26:0 27:1 28:0 29:0 30:0 31:0 32:0 33:0 34:0.022683695 35:0.0036722887 36:0.94348574 37:0.030223262 38:0.30000001 #
-0.11884217155182768 1:1 2:1 3:0.1 4:0 5:0 6:0 7:1 8:1 9:0 10:0.0099999998 11:0 12:0 13:0 14:0 15:0 16:1 17:1 18:1 19:0 20:0 21:0 22:0 23:1 24:0 25:0 26:0 27:1 28:0 29:0 30:0 31:0 32:0 33:0 34:0.25309917 35:0.046044864 36:0.61821133 37:0.082792208 38:0.5 #
-0.11884217155182768 1:1 2:0 3:0.5 4:1 5:0.02 6:0 7:1 8:1 9:0 10:0.059999999 11:1 12:0 13:0 14:0 15:0 16:1 17:0 18:1 19:0 20:0 21:0 22:0 23:0 24:1 25:0 26:0 27:1 28:0 29:0 30:0 31:0 32:0 33:0 34:0.038126312 35:0.0092673441 36:0.90000457 37:0.052632384 38:0.30000001 #
-0.11884217155182768 1:0 2:1 3:0.1 4:0 5:0 6:0 7:1 8:1 9:0 10:0.029999999 11:0 12:0 13:0 14:0 15:0 16:1 17:1 18:1 19:0 20:0 21:0 22:0 23:0 24:0 25:0 26:0 27:1 28:0 29:0 30:0 31:0 32:0 33:0 34:0.041897826 35:0.018838705 36:0.86780572 37:0.071491778 38:0.30000001 #
0.11884217155182768 1:1 2:1 3:0.16 4:0 5:0 6:0 7:1 8:1 9:0 10:0.079999998 11:0 12:1 13:0 14:0 15:1 16:1 17:0 18:0 19:1 20:0 21:0 22:0 23:0 24:0 25:0 26:0 27:0 28:1 29:0 30:0 31:0 32:0 33:0 34:0.075000003 35:0.86250001 36:0.025 37:0.0625 38:0.1 #
0.11884217155182768 1:1 2:1 3:0.12 4:0 5:0 6:0 7:1 8:1 9:0 10:0.059999999 11:0 12:1 13:0 14:0 15:1 16:1 17:0 18:0 19:1 20:0 21:0 22:0 23:0 24:0 25:0 26:0 27:1 28:0 29:0 30:0 31:0 32:0 33:0 34:0.69999999 35:0.1 36:0.1 37:0.30000001 38:0.1 #
0.11884217155182768 1:0 2:1 3:0.12 4:0 5:0 6:0 7:1 8:1 9:0 10:0.0099999998 11:0 12:0 13:0 14:0 15:0 16:1 17:1 18:0 19:1 20:0 21:0 22:0 23:0 24:0 25:0 26:0 27:0 28:1 29:0 30:0 31:0 32:0 33:0 34:0.79005527 35:0.1510129 36:0.040515654 37:0.022099448 38:0.30000001 #
0.11884217155182768 1:0 2:1 3:0.039999999 4:0 5:0 6:0 7:1 8:1 9:0 10:0.0099999998 11:0 12:0 13:0 14:0 15:0 16:1 17:0 18:0 19:1 20:0 21:0 22:0 23:0 24:0 25:0 26:0 27:1 28:0 29:0 30:0 31:0 32:0 33:0 34:0.66666669 35:0.33333334 36:0.33333334 37:0.33333334 38:0.2 #
-0.11884217155182768 1:0 2:1 3:0.039999999 4:0 5:0 6:0 7:1 8:1 9:0 10:0.059999999 11:0 12:1 13:0 14:0 15:0 16:1 17:0 18:0 19:1 20:0 21:0 22:0 23:0 24:0 25:0 26:0 27:0 28:0 29:1 30:0 31:0 32:0 33:0 34:0.54310346 35:0.39655173 36:0.02586207 37:0.05172414 38:0.2 #
0.11884217155182768 1:1 2:0 3:0.31999999 4:1 5:0.02 6:0 7:1 8:1 9:0 10:0.2 11:1 12:0 13:0 14:0 15:0 16:1 17:1 18:1 19:0 20:0 21:0 22:0 23:0 24:0 25:0 26:0 27:0 28:0 29:1 30:0 31:0 32:0 33:0 34:0.06666667 35:0.06666667 36:0.93333334 37:0.06666667 38:0.30000001 #
0.0087006549135745098 1:1 2:0 3:0.079999998 4:1 5:0.02 6:0 7:1 8:1 9:0 10:0.029999999 11:0 12:0 13:0 14:1 15:0 16:1 17:0 18:0 19:0 20:0 21:0 22:0 23:0 24:0 25:1 26:0 27:0 28:1 29:0 30:0 31:1 32:0 33:0 34:0.5 35:0.5 36:0.5 37:0.5 38:0.1 #
0.11884217155182768 1:0 2:1 3:0.14 4:0 5:0 6:0 7:1 8:1 9:0 10:0.11 11:1 12:0 13:0 14:0 15:1 16:1 17:0 18:0 19:1 20:0 21:0 22:0 23:0 24:0 25:0 26:0 27:1 28:0 29:0 30:0 31:0 32:0 33:0 34:0.07692308 35:0.92307693 36:0.025641026 37:0.025641026 38:0.1 #
0.11884217155182768 1:1 2:0 3:0.14 4:1 5:0.02 6:0 7:1 8:1 9:0 10:0.0099999998 11:0 12:0 13:0 14:0 15:0 16:1 17:0 18:0 19:0 20:0 21:0 22:0 23:0 24:0 25:0 26:0 27:1 28:0 29:0 30:0 31:0 32:0 33:0 34:0.024238525 35:0.019519519 36:0.13921064 37:0.8174603 38:0.30000001 #
-0.11884217155182768 1:1 2:1 3:0.12 4:0 5:0 6:0 7:1 8:1 9:0 10:0.059999999 11:0 12:1 13:0 14:1 15:1 16:1 17:0 18:0 19:0 20:0 21:0 22:0 23:0 24:0 25:0 26:0 27:1 28:0 29:0 30:0 31:1 32:0 33:0 34:0.5 35:0.5 36:0.5 37:0.5 38:0.1 #
-0.11884217155182768 1:1 2:1 3:0.16 4:0 5:0 6:0 7:1 8:1 9:0 10:0.039999999 11:0 12:1 13:0 14:1 15:1 16:1 17:0 18:0 19:0 20:0 21:0 22:0 23:0 24:0 25:0 26:0 27:1 28:0 29:0 30:0 31:1 32:0 33:0 34:0.5 35:0.5 36:0.5 37:0.5 38:0.1 #
-0.11884217155182768 1:0 2:1 3:0.16 4:0 5:0 6:0 7:1 8:0 9:1 10:0.0099999998 11:0 12:1 13:0 14:0 15:0 16:1 17:0 18:0 19:0 20:0 21:0 22:0 23:0 24:1 25:0 26:0 27:0 28:0 29:0 30:1 31:0 32:0 33:0 34:0.0059228376 35:0.0010588313 36:0.94748861 37:0.045595925 38:0.40000001 #
-0.11884217155182768 1:1 2:1 3:0.059999999 4:0 5:0 6:0 7:1 8:1 9:0 10:0.0099999998 11:0 12:0 13:0 14:0 15:1 16:1 17:0 18:0 19:0 20:0 21:0 22:0 23:0 24:0 25:0 26:0 27:0 28:0 29:1 30:0 31:0 32:0 33:0 34:0.5 35:0.5 36:0.5 37:0.5 38:0.1 #
0.11884217155182768 1:0 2:1 3:0.059999999 4:0 5:0 6:0 7:1 8:0 9:0 10:0.0099999998 11:0 12:0 13:0 14:0 15:0 16:1 17:0 18:1 19:0 20:0 21:0 22:0 23:0 24:0 25:0 26:0 27:0 28:0 29:0 30:1 31:0 32:0 33:0 34:0.033669036 35:0.0057266983 36:0.91064376 37:0.050157979 38:0.1 #
0.11884217155182768 1:0 2:1 3:0.36000001 4:0 5:0 6:0 7:1 8:1 9:0 10:0.14 11:0 12:0 13:0 14:0 15:0 16:1 17:1 18:0 19:1 20:0 21:0 22:0 23:0 24:0 25:0 26:0 27:1 28:0 29:0 30:0 31:0 32:0 33:0 34:0.98766786 35:0.0041107154 36:0.0063030967 37:0.0024664293 38:0.2 #
-0.11884217155182768 1:0 2:1 3:0.2 4:0 5:0 6:0 7:1 8:0 9:1 10:0.0099999998 11:0 12:0 13:0 14:0 15:0 16:1 17:0 18:0 19:0 20:0 21:0 22:0 23:0 24:0 25:0 26:0 27:0 28:0 29:0 30:1 31:0 32:0 33:0 34:0.014084507 35:0.014084507 36:0.01971831 37:0.95774651 38:0.1 #
0.11884217155182768 1:1 2:1 3:0.25999999 4:0 5:0 6:0 7:1 8:1 9:0 10:0.11 11:0 12:1 13:0 14:1 15:1 16:1 17:0 18:0 19:0 20:0 21:0 22:0 23:0 24:0 25:0 26:0 27:1 28:0 29:0 30:0 31:1 32:0 33:0 34:0.5 35:0.5 36:0.5 37:0.5 38:0.1 #
-0.11884217155182768 1:0 2:1 3:0.039999999 4:0 5:0 6:0 7:1 8:1 9:0 10:0.07 11:0 12:1 13:0 14:0 15:0 16:1 17:0 18:0 19:0 20:0 21:0 22:0 23:0 24:1 25:0 26:0 27:0 28:0 29:1 30:0 31:0 32:0 33:0 34:0.09361925 35:0.066945605 36:0.80962342 37:0.03085774 38:0.2 #
-0.11884217155182768 1:1 2:1 3:0.079999998 4:0 5:0 6:0 7:1 8:1 9:0 10:0.0099999998 11:0 12:0 13:0 14:0 15:0 16:1 17:1 18:0 19:0 20:0 21:0 22:0 23:0 24:1 25:0 26:0 27:0 28:0 29:1 30:0 31:0 32:0 33:0 34:0.041076489 35:0.015580736 36:0.87960339 37:0.066572241 38:0.30000001 #
-0.11884217155182768 1:1 2:1 3:0.079999998 4:0 5:0 6:0 7:1 8:1 9:0 10:0.0099999998 11:0 12:0 13:0 14:0 15:0 16:0 17:1 18:0 19:0 20:0 21:0 22:0 23:0 24:0 25:0 26:0 27:1 28:0 29:0 30:0 31:0 32:0 33:0 34:0.28142077 35:0.10307998 36:0.42598113 37:0.1900149 38:0.30000001 #
-0.11884217155182768 1:0 2:1 3:0.12 4:0 5:0 6:0 7:1 8:0 9:0 10:0.0099999998 11:1 12:0 13:0 14:0 15:0 16:1 17:0 18:0 19:0 20:0 21:0 22:0 23:0 24:0 25:0 26:0 27:1 28:0 29:0 30:0 31:0 32:0 33:0 34:0.0020876827 35:0.0020876827 36:0.060542796 37:0.93945718 38:0.30000001 #
0.11884217155182768 1:1 2:1 3:0.31999999 4:0 5:0 6:0 7:1 8:1 9:0 10:0.22 11:1 12:0 13:0 14:0 15:1 16:1 17:0 18:0 19:0 20:0 21:0 22:0 23:0 24:0 25:0 26:0 27:0 28:1 29:0 30:0 31:0 32:0 33:0 34:0.70588237 35:0.125 36:0.15257353 37:0.020220589 38:0.1 #
-0.11884217155182768 1:0 2:1 3:0.22 4:0 5:0 6:0 7:1 8:1 9:0 10:0.0099999998 11:0 12:0 13:0 14:0 15:0 16:1 17:0 18:0 19:0 20:0 21:0 22:0 23:0 24:0 25:0 26:0 27:1 28:0 29:0 30:0 31:0 32:0 33:0 34:0.95435154 35:0.012798634 36:0.014078498 37:0.019624574 38:0.2 #
0.11884217155182768 1:0 2:1 3:0.56 4:0 5:0 6:0 7:1 8:0 9:1 10:0.02 11:1 12:0 13:0 14:0 15:0 16:1 17:0 18:0 19:0 20:0 21:0 22:0 23:0 24:0 25:0 26:0 27:0 28:0 29:0 30:1 31:0 32:0 33:0 34:0.023433132 35:0.0019061659 36:0.081088297 37:0.89359784 38:0.30000001 #
-0.11884217155182768 1:1 2:0 3:0.60000002 4:1 5:0.02 6:0 7:1 8:1 9:0 10:0.02 11:1 12:0 13:0 14:1 15:1 16:1 17:0 18:0 19:0 20:0 21:0 22:0 23:0 24:0 25:0 26:0 27:1 28:0 29:0 30:0 31:0 32:0 33:1 34:0.5 35:0.5 36:0.5 37:0.5 38:0.1 #
0.11884217155182768 1:0 2:1 3:0.039999999 4:0 5:0 6:0 7:1 8:1 9:0 10:0.54000002 11:1 12:0 13:0 14:0 15:0 16:1 17:0 18:0 19:0 20:0 21:0 22:0 23:0 24:1 25:0 26:0 27:0 28:0 29:1 30:0 31:0 32:0 33:0 34:0.037039835 35:0.0090239756 36:0.90462524 37:0.049386445 38:0.2 #
-0.11884217155182768 1:0 2:1 3:0.14 4:0 5:0 6:0 7:1 8:0 9:0 10:0.02 11:0 12:1 13:0 14:0 15:0 16:1 17:0 18:0 19:0 20:0 21:0 22:0 23:0 24:1 25:0 26:0 27:0 28:0 29:0 30:1 31:0 32:0 33:0 34:0.52380955 35:0.23809524 36:0.2857143 37:0.047619049 38:0.2 #
0.11884217155182768 1:0 2:1 3:0.30000001 4:0 5:0 6:0 7:1 8:1 9:0 10:0.090000004 11:0 12:0 13:0 14:0 15:0 16:1 17:1 18:0 19:0 20:0 21:0 22:0 23:0 24:0 25:0 26:0 27:1 28:0 29:0 30:0 31:0 32:0 33:0 34:0.56547767 35:0.096782237 36:0.26615116 37:0.072087802 38:0.2 #
0.11884217155182768 1:0 2:1 3:0.039999999 4:0 5:0 6:0 7:1 8:1 9:0 10:0.0099999998 11:0 12:0 13:0 14:0 15:0 16:1 17:0 18:0 19:0 20:0 21:0 22:0 23:0 24:1 25:0 26:0 27:1 28:0 29:0 30:0 31:0 32:0 33:0 34:0.94107324 35:0.030174611 36:0.015161869 37:0.013593569 38:0.30000001 #
0.11884217155182768 1:0 2:1 3:0.38 4:0 5:0 6:0 7:1 8:1 9:0 10:0.0099999998 11:0 12:0 13:0 14:0 15:0 16:1 17:0 18:1 19:0 20:0 21:0 22:0 23:0 24:0 25:0 26:0 27:0 28:0 29:1 30:0 31:0 32:0 33:0 34:0.018736793 35:0.0047898567 36:0.9426626 37:0.033904672 38:0.30000001 #
0.11884217155182768 1:0 2:1 3:0.059999999 4:0 5:0 6:0 7:1 8:1 9:0 10:0.0099999998 11:0 12:0 13:0 14:0 15:0 16:1 17:0 18:0 19:0 20:0 21:0 22:0 23:0 24:0 25:0 26:0 27:1 28:0 29:0 30:0 31:0 32:0 33:0 34:0.90322578 35:0.096774191 36:0.032258064 37:0.032258064 38:0.30000001 #
-0.11884217155182768 1:0 2:1 3:0.22 4:0 5:0 6:0 7:1 8:1 9:0 10:0.029999999 11:0 12:0 13:0 14:0 15:0 16:1 17:1 18:0 19:1 20:0 21:0 22:0 23:0 24:0 25:0 26:0 27:1 28:0 29:0 30:0 31:0 32:0 33:0 34:0.97682118 35:0.0033112583 36:0.019867551 37:0.0066225166 38:0.30000001 #
0.11884217155182768 1:1 2:0 3:0.1 4:1 5:0.02 6:0 7:1 8:0 9:0 10:0.17 11:1 12:0 13:0 14:1 15:1 16:1 17:0 18:0 19:0 20:0 21:0 22:0 23:0 24:0 25:0 26:0 27:1 28:0 29:0 30:0 31:0 32:0 33:0 34:0.5 35:0.5 36:0.5 37:0.5 38:0.1 #
0.11884217155182768 1:1 2:0 3:0.31999999 4:1 5:0.02 6:0 7:1 8:1 9:0 10:0.0099999998 11:0 12:0 13:0 14:0 15:0 16:1 17:1 18:0 19:0 20:0 21:0 22:0 23:0 24:0 25:0 26:0 27:1 28:0 29:0 30:0 31:0 32:0 33:0 34:0.0075880759 35:0.0010840108 36:0.056058846 37:0.93542391 38:0.69999999 #
0.11884217155182768 1:0 2:1 3:0.14 4:0 5:0 6:0 7:1 8:0 9:0 10:0.0099999998 11:0 12:0 13:0 14:1 15:0 16:1 17:0 18:0 19:1 20:0 21:0 22:0 23:0 24:0 25:1 26:1 27:0 28:0 29:0 30:1 31:0 32:0 33:1 34:0.68141592 35:0.20353982 36:0.085545726 37:0.03539823 38:0.69999999 #
-0.11884217155182768 1:1 2:1 3:0.1 4:0 5:0 6:0 7:1 8:1 9:0 10:0.02 11:0 12:0 13:0 14:0 15:0 16:1 17:1 18:0 19:0 20:0 21:0 22:0 23:0 24:1 25:0 26:0 27:0 28:1 29:0 30:0 31:0 32:0 33:0 34:0.064935066 35:0.70129871 36:0.15584415 37:0.1038961 38:0.30000001 #
-0.11884217155182768 1:0 2:1 3:0.079999998 4:0 5:0 6:0 7:1 8:1 9:0 10:0.41 11:0 12:0 13:0 14:0 15:1 16:1 17:0 18:0 19:0 20:0 21:0 22:0 23:0 24:0 25:0 26:0 27:1 28:0 29:0 30:0 31:0 32:0 33:0 34:0.94107324 35:0.030174611 36:0.015161869 37:0.013593569 38:0.1 #
0.11884217155182768 1:1 2:0 3:0.46000001 4:1 5:0.02 6:0 7:1 8:1 9:0 10:0.0099999998 11:0 12:0 13:0 14:0 15:0 16:1 17:0 18:0 19:0 20:0 21:0 22:0 23:0 24:0 25:0 26:0 27:1 28:0 29:0 30:0 31:0 32:0 33:0 34:0.91069293 35:0.056152929 36:0.014635603 37:0.019115889 38:0.40000001 #
0.11884217155182768 1:0 2:1 3:0.23999999 4:0 5:0 6:0 7:1 8:1 9:0 10:0.050000001 11:1 12:0 13:0 14:0 15:1 16:1 17:0 18:0 19:1 20:0 21:0 22:0 23:0 24:0 25:0 26:0 27:1 28:0 29:0 30:0 31:0 32:0 33:0 34:0.5 35:0.5 36:0.5 37:0.5 38:0.1 #
-0.11884217155182768 1:1 2:1 3:0.059999999 4:0 5:0 6:0 7:1 8:1 9:0 10:0.0099999998 11:1 12:0 13:0 14:0 15:0 16:1 17:0 18:0 19:1 20:0 21:0 22:0 23:0 24:0 25:0 26:0 27:1 28:0 29:0 30:0 31:0 32:0 33:0 34:0.29411766 35:0.70588237 36:0.05882353 37:0.05882353 38:0.2 #
-0.11884217155182768 1:0 2:1 3:0.2 4:0 5:0 6:0 7:1 8:1 9:0 10:0.0099999998 11:1 12:0 13:0 14:0 15:0 16:1 17:0 18:0 19:1 20:0 21:0 22:0 23:0 24:0 25:0 26:0 27:1 28:0 29:0 30:0 31:0 32:0 33:0 34:0.5 35:0.5 36:0.5 37:0.5 38:0.2 #
-0.11884217155182768 1:0 2:1 3:0.1 4:0 5:0 6:0 7:1 8:1 9:0 10:0.029999999 11:1 12:0 13:0 14:0 15:1 16:1 17:0 18:0 19:1 20:0 21:0 22:0 23:0 24:0 25:0 26:0 27:1 28:0 29:0 30:0 31:0 32:0 33:0 34:0.45967743 35:0.14516129 36:0.12096774 37:0.29032257 38:0.1 #
-0.11884217155182768 1:0 2:1 3:0.039999999 4:0 5:0 6:0 7:1 8:1 9:0 10:0.0099999998 11:0 12:1 13:0 14:0 15:0 16:1 17:0 18:0 19:1 20:0 21:0 22:0 23:0 24:0 25:0 26:0 27:1 28:0 29:0 30:0 31:0 32:0 33:0 34:0.2 35:0.80000001 36:0.2 37:0.2 38:0.2 #
0.11884217155182768 1:1 2:1 3:0.1 4:0 5:0 6:0 7:1 8:1 9:0 10:0.0099999998 11:0 12:1 13:0 14:0 15:0 16:1 17:0 18:0 19:0 20:0 21:0 22:0 23:0 24:0 25:0 26:0 27:0 28:0 29:1 30:0 31:0 32:0 33:0 34:0.025867136 35:0.00039192633 36:0.95708406 37:0.017048795 38:0.2 #
0.11884217155182768 1:1 2:1 3:0.039999999 4:0 5:0 6:0 7:1 8:1 9:0 10:0.0099999998 11:0 12:0 13:0 14:0 15:0 16:1 17:0 18:0 19:0 20:0 21:0 22:0 23:0 24:0 25:0 26:0 27:1 28:0 29:0 30:0 31:0 32:0 33:0 34:0.56350362 35:0.083211675 36:0.22335766 37:0.13284671 38:0.2 #
0.11884217155182768 1:1 2:0 3:0.2 4:1 5:0.02 6:0 7:1 8:1 9:0 10:0.0099999998 11:0 12:0 13:0 14:0 15:0 16:1 17:1 18:0 19:0 20:0 21:0 22:0 23:0 24:0 25:0 26:0 27:1 28:0 29:0 30:0 31:0 32:0 33:0 34:0.82727844 35:0.096328273 36:0.031794149 37:0.044647619 38:0.5 #
0.11884217155182768 1:0 2:1 3:0.46000001 4:0 5:0 6:0 7:1 8:0 9:1 10:0.0099999998 11:1 12:0 13:0 14:0 15:0 16:1 17:0 18:0 19:0 20:0 21:0 22:0 23:1 24:1 25:0 26:0 27:0 28:0 29:0 30:1 31:0 32:0 33:0 34:0.12380952 35:0.0095238099 36:0.01904762 37:0.86666667 38:0.30000001 #
-0.11884217155182768 1:1 2:0 3:0.47999999 4:1 5:0.02 6:0 7:1 8:1 9:0 10:0.02 11:1 12:0 13:0 14:0 15:0 16:1 17:0 18:0 19:0 20:0 21:0 22:0 23:0 24:1 25:0 26:0 27:0 28:0 29:1 30:0 31:0 32:0 33:0 34:0.011443983 35:0.0017493987 36:0.94416505 37:0.042787377 38:0.2 #
-0.11884217155182768 1:1 2:1 3:0.14 4:0 5:0 6:0 7:1 8:1 9:0 10:0.0099999998 11:0 12:0 13:1 14:0 15:0 16:1 17:0 18:0 19:0 20:0 21:0 22:0 23:0 24:0 25:0 26:0 27:1 28:0 29:0 30:0 31:0 32:0 33:0 34:0.969863 35:0.016438356 36:0.0054794522 37:0.010958904 38:0.40000001 #
0.11884217155182768 1:0 2:1 3:0.039999999 4:0 5:0 6:0 7:1 8:0 9:1 10:0.0099999998 11:1 12:0 13:0 14:0 15:0 16:1 17:0 18:0 19:0 20:0 21:0 22:0 23:0 24:0 25:0 26:0 27:0 28:0 29:0 30:1 31:0 32:0 33:0 34:0.012518893 35:0.0012732471 36:0.012083525 37:0.97414076 38:0.2 #
-0.11884217155182768 1:1 2:1 3:0.079999998 4:0 5:0 6:0 7:1 8:0 9:1 10:0.0099999998 11:0 12:0 13:0 14:0 15:0 16:1 17:0 18:0 19:0 20:0 21:0 22:0 23:0 24:0 25:0 26:0 27:0 28:0 29:0 30:1 31:0 32:0 33:0 34:0.31622741 35:0.068692498 36:0.34687144 37:0.26828197 38:0.2 #
0.11884217155182768 1:0 2:1 3:0.22 4:0 5:0 6:0 7:1 8:1 9:0 10:0.029999999 11:1 12:0 13:0 14:0 15:1 16:1 17:0 18:0 19:1 20:0 21:0 22:0 23:0 24:0 25:0 26:0 27:1 28:0 29:0 30:0 31:0 32:0 33:0 34:0.63636363 35:0.18181819 36:0.27272728 37:0.090909094 38:0.1 #
0.11884217155182768 1:0 2:1 3:0.12 4:0 5:0 6:0 7:1 8:1 9:0 10:0.029999999 11:1 12:0 13:0 14:0 15:1 16:1 17:0 18:0 19:1 20:0 21:0 22:0 23:0 24:0 25:0 26:0 27:1 28:0 29:0 30:0 31:0 32:0 33:0 34:0.63235295 35:0.11764706 36:0.2647059 37:0.014705882 38:0.1 #
0.11884217155182768 1:0 2:1 3:0.34 4:0 5:0 6:0 7:1 8:1 9:0 10:0.02 11:1 12:0 13:0 14:0 15:1 16:1 17:0 18:0 19:1 20:0 21:0 22:0 23:0 24:0 25:0 26:0 27:1 28:0 29:0 30:0 31:0 32:0 33:0 34:0.91384178 35:0.0098870052 36:0.066384181 37:0.012711864 38:0.1 #
0.11884217155182768 1:1 2:0 3:0.5 4:1 5:0.02 6:0 7:1 8:1 9:0 10:0.0099999998 11:0 12:0 13:0 14:0 15:0 16:0 17:0 18:0 19:0 20:0 21:0 22:0 23:0 24:1 25:0 26:0 27:0 28:0 29:1 30:0 31:0 32:0 33:0 34:0.076470651 35:0.018823033 36:0.86892807 37:0.03580045 38:0.60000002 #
-0.11884217155182768 1:0 2:1 3:0.38 4:0 5:0 6:0 7:1 8:1 9:0 10:0.02 11:1 12:0 13:0 14:0 15:1 16:1 17:0 18:0 19:1 20:0 21:0 22:0 23:0 24:0 25:0 26:0 27:1 28:0 29:0 30:0 31:0 32:0 33:0 34:0.98820436 35:0.0013287055 36:0.0055588698 37:0.0049623083 38:0.1 #
-0.11884217155182768 1:0 2:1 3:0.2 4:0 5:0 6:0 7:1 8:1 9:0 10:0.0099999998 11:0 12:0 13:0 14:0 15:0 16:1 17:0 18:0 19:0 20:0 21:0 22:0 23:0 24:0 25:0 26:0 27:1 28:0 29:0 30:0 31:0 32:0 33:0 34:0.88777602 35:0.044631876 36:0.033971768 37:0.033737481 38:0.5 #
-0.11884217155182768 1:0 2:1 3:0.1 4:0 5:0 6:0 7:1 8:1 9:0 10:0.039999999 11:0 12:0 13:0 14:0 15:0 16:1 17:0 18:0 19:1 20:0 21:0 22:0 23:0 24:0 25:0 26:0 27:1 28:0 29:0 30:0 31:0 32:0 33:0 34:0.97663552 35:0.0085070692 36:0.0051521687 37:0.0099448841 38:0.2 #
0.11884217155182768 1:1 2:1 3:0.51999998 4:0 5:0 6:0 7:1 8:1 9:0 10:0.029999999 11:1 12:0 13:0 14:0 15:0 16:1 17:0 18:0 19:1 20:0 21:0 22:0 23:0 24:0 25:0 26:0 27:1 28:0 29:0 30:0 31:0 32:0 33:0 34:0.68141592 35:0.20353982 36:0.085545726 37:0.03539823 38:0.30000001 #
0.11884217155182768 1:1 2:0 3:0.18000001 4:1 5:0.02 6:0 7:1 8:1 9:0 10:0.2 11:1 12:0 13:0 14:0 15:0 16:1 17:0 18:0 19:0 20:0 21:0 22:0 23:0 24:1 25:0 26:0 27:0 28:0 29:1 30:0 31:0 32:0 33:0 34:0.015613682 35:0.0042655934 36:0.95315897 37:0.027122736 38:0.2 #
0.11884217155182768 1:1 2:0 3:0.47999999 4:1 5:0.02 6:0 7:1 8:1 9:0 10:0.22 11:1 12:0 13:0 14:0 15:1 16:1 17:0 18:1 19:0 20:0 21:0 22:0 23:0 24:0 25:0 26:0 27:0 28:1 29:0 30:0 31:0 32:0 33:0 34:0.70588237 35:0.125 36:0.15257353 37:0.020220589 38:0.1 #
0.11884217155182768 1:1 2:0 3:0.25999999 4:1 5:0.02 6:0 7:1 8:1 9:0 10:0.02 11:1 12:0 13:0 14:0 15:0 16:1 17:0 18:0 19:1 20:0 21:0 22:0 23:0 24:0 25:0 26:0 27:0 28:1 29:0 30:0 31:0 32:0 33:0 34:0.70588237 35:0.125 36:0.15257353 37:0.020220589 38:0.2 #
0.11884217155182768 1:1 2:1 3:0.2 4:0 5:0 6:0 7:1 8:1 9:0 10:0.0099999998 11:1 12:0 13:0 14:0 15:0 16:1 17:0 18:0 19:0 20:0 21:0 22:0 23:0 24:1 25:0 26:0 27:0 28:0 29:1 30:0 31:0 32:0 33:0 34:0.028321408 35:0.0032222907 36:0.92792493 37:0.040562954 38:0.30000001 #
-0.11884217155182768 1:1 2:0 3:0.62 4:1 5:0.02 6:0 7:1 8:1 9:0 10:0.0099999998 11:1 12:0 13:0 14:0 15:0 16:1 17:0 18:0 19:0 20:0 21:0 22:0 23:0 24:1 25:0 26:0 27:0 28:1 29:0 30:0 31:0 32:0 33:0 34:0.10332694 35:0.012795906 36:0.62987846 37:0.25463852 38:0.30000001 #
-0.11884217155182768 1:1 2:0 3:0.92000002 4:1 5:0.02 6:0 7:1 8:1 9:0 10:0.0099999998 11:1 12:0 13:0 14:0 15:0 16:1 17:0 18:0 19:0 20:0 21:0 22:0 23:0 24:0 25:0 26:0 27:0 28:1 29:0 30:0 31:0 32:0 33:0 34:0.20886952 35:0.046779476 36:0.54919446 37:0.19522411 38:0.2 #
-0.11884217155182768 1:1 2:0 3:1.2 4:1 5:0.02 6:0 7:1 8:1 9:0 10:0.039999999 11:1 12:0 13:0 14:0 15:0 16:0 17:0 18:0 19:0 20:0 21:0 22:0 23:0 24:1 25:0 26:0 27:1 28:0 29:0 30:0 31:0 32:0 33:0 34:0.083890893 35:0.016726712 36:0.72619659 37:0.17370047 38:0.69999999 #
-0.11884217155182768 1:1 2:0 3:1.1799999 4:0 5:0.039999999 6:0 7:1 8:0 9:0 10:0.0099999998 11:1 12:0 13:0 14:0 15:0 16:1 17:0 18:0 19:0 20:0 21:0 22:0 23:0 24:1 25:0 26:0 27:0 28:0 29:0 30:1 31:0 32:0 33:0 34:0.028321408 35:0.0032222907 36:0.92792493 37:0.040562954 38:0.40000001 #
0.11884217155182768 1:0 2:1 3:0.12 4:0 5:0 6:0 7:1 8:1 9:0 10:0.0099999998 11:0 12:1 13:0 14:0 15:0 16:1 17:0 18:0 19:1 20:0 21:0 22:0 23:0 24:0 25:0 26:0 27:1 28:0 29:0 30:0 31:0 32:0 33:0 34:0.81976742 35:0.058139537 36:0.10465116 37:0.029069768 38:0.40000001 #
0.11884217155182768 1:0 2:1 3:0.02 4:0 5:0 6:0 7:1 8:1 9:0 10:0.02 11:0 12:1 13:0 14:1 15:1 16:1 17:0 18:0 19:0 20:0 21:0 22:0 23:0 24:0 25:0 26:0 27:1 28:0 29:0 30:0 31:1 32:0 33:0 34:0.5 35:0.5 36:0.5 37:0.5 38:0.1 #
0.11884217155182768 1:0 2:1 3:0.18000001 4:0 5:0 6:0 7:1 8:1 9:0 10:0.02 11:0 12:0 13:0 14:0 15:0 16:1 17:0 18:0 19:1 20:0 21:0 22:0 23:0 24:0 25:0 26:0 27:1 28:0 29:0 30:0 31:0 32:0 33:0 34:0.40000001 35:0.2 36:0.60000002 37:0.2 38:0.2 #
-0.11884217155182768 1:0 2:1 3:0.039999999 4:0 5:0 6:0 7:1 8:1 9:0 10:0.029999999 11:0 12:0 13:0 14:0 15:1 16:1 17:0 18:0 19:1 20:0 21:0 22:0 23:0 24:0 25:0 26:0 27:1 28:0 29:0 30:0 31:0 32:0 33:0 34:0.93150419 35:0.052539404 36:0.0087565677 37:0.007589025 38:0.1 #
-0.11884217155182768 1:0 2:1 3:0.039999999 4:0 5:0 6:0 7:1 8:1 9:0 10:0.029999999 11:0 12:1 13:0 14:0 15:1 16:1 17:0 18:0 19:1 20:0 21:0 22:0 23:0 24:0 25:0 26:0 27:1 28:0 29:0 30:0 31:0 32:0 33:0 34:0.5 35:0.5 36:0.5 37:0.5 38:0.1 #
-0.11884217155182768 1:1 2:0 3:0.18000001 4:1 5:0.02 6:0 7:1 8:1 9:0 10:0.0099999998 11:0 12:0 13:0 14:0 15:0 16:1 17:0 18:0 19:1 20:0 21:0 22:0 23:0 24:0 25:0 26:0 27:0 28:0 29:1 30:0 31:0 32:0 33:0 34:0.5 35:0.5 36:0.5 37:0.5 38:0.1 #
-0.11884217155182768 1:1 2:1 3:0.34 4:0 5:0 6:0 7:1 8:0 9:1 10:0.0099999998 11:0 12:0 13:0 14:0 15:0 16:1 17:0 18:0 19:0 20:0 21:0 22:0 23:0 24:0 25:0 26:0 27:0 28:0 29:0 30:1 31:0 32:0 33:0 34:0.0013404826 35:0.0013404826 36:0.05227882 37:0.94772118 38:0.2 #
-0.10058299422355191 1:1 2:0 3:2.26 4:0 5:0.059999999 6:0 7:1 8:0 9:0 10:0.0099999998 11:0 12:0 13:0 14:0 15:0 16:1 17:1 18:0 19:1 20:0 21:0 22:0 23:0 24:0 25:0 26:0 27:0 28:0 29:0 30:1 31:0 32:0 33:0 34:0.98328912 35:0.0037362585 36:0.0061646691 37:0.0068130847 38:0.40000001 #
0.11884217155182768 1:0 2:1 3:0.1 4:0 5:0 6:0 7:1 8:0 9:1 10:0.13 11:1 12:0 13:0 14:0 15:1 16:1 17:0 18:0 19:0 20:0 21:0 22:0 23:0 24:0 25:0 26:0 27:0 28:0 29:0 30:1 31:0 32:0 33:0 34:0.012367271 35:0.0013741412 36:0.013991255 37:0.97251719 38:0.1 #
0.11884217155182768 1:0 2:1 3:0.30000001 4:0 5:0 6:0 7:1 8:0 9:1 10:0.0099999998 11:0 12:0 13:0 14:0 15:0 16:0 17:0 18:1 19:0 20:0 21:0 22:0 23:0 24:1 25:0 26:0 27:0 28:0 29:0 30:1 31:0 32:0 33:0 34:0.012028167 35:0.0015549042 36:0.010991564 37:0.97546113 38:0.89999998 #
0.11884217155182768 1:1 2:1 3:0.059999999 4:0 5:0 6:0 7:1 8:1 9:0 10:0.0099999998 11:0 12:0 13:0 14:0 15:1 16:1 17:0 18:0 19:1 20:0 21:0 22:0 23:0 24:0 25:0 26:0 27:1 28:0 29:0 30:0 31:0 32:0 33:0 34:0.89920807 35:0.063210942 36:0.018142549 37:0.019726422 38:0.30000001 #
0.11884217155182768 1:0 2:1 3:0.039999999 4:0 5:0 6:0 7:1 8:1 9:0 10:0.02 11:0 12:0 13:0 14:0 15:0 16:1 17:0 18:0 19:1 20:0 21:0 22:0 23:0 24:0 25:0 26:0 27:1 28:0 29:0 30:0 31:0 32:0 33:0 34:0.68141592 35:0.20353982 36:0.085545726 37:0.03539823 38:0.2 #
0.11884217155182768 1:1 2:1 3:0.079999998 4:0 5:0 6:0 7:1 8:1 9:0 10:0.0099999998 11:0 12:0 13:0 14:0 15:0 16:1 17:0 18:0 19:0 20:0 21:0 22:0 23:0 24:0 25:0 26:0 27:1 28:0 29:0 30:0 31:0 32:0 33:0 34:0.85066164 35:0.12665406 36:0.011342155 37:0.015122874 38:0.30000001 #
0.11884217155182768 1:0 2:1 3:0.059999999 4:0 5:0 6:0 7:1 8:1 9:0 10:0.15000001 11:0 12:0 13:0 14:0 15:1 16:1 17:0 18:0 19:1 20:0 21:0 22:0 23:0 24:0 25:0 26:0 27:1 28:0 29:0 30:0 31:0 32:0 33:0 34:0.85632181 35:0.057471264 36:0.017241379 37:0.080459774 38:0.1 #
-0.11884217155182768 1:0 2:1 3:0.44 4:0 5:0 6:0 7:1 8:1 9:0 10:0.02 11:0 12:1 13:0 14:0 15:1 16:1 17:0 18:0 19:1 20:0 21:0 22:0 23:0 24:0 25:0 26:0 27:1 28:0 29:0 30:0 31:0 32:0 33:0 34:0.91346037 35:0.064457566 36:0.01120241 37:0.010906548 38:0.1 #
-0.11884217155182768 1:0 2:1 3:0 4:0 5:0 6:0 7:1 8:1 9:0 10:0.22 11:0 12:0 13:0 14:0 15:0 16:1 17:1 18:0 19:0 20:0 21:0 22:0 23:0 24:0 25:0 26:0 27:1 28:0 29:0 30:0 31:0 32:0 33:0 34:0.90389913 35:0.026066056 36:0.05094162 37:0.019104525 38:0.1 #
0.11884217155182768 1:1 2:1 3:0.14 4:0 5:0 6:0 7:1 8:1 9:0 10:0.029999999 11:1 12:0 13:0 14:0 15:0 16:1 17:0 18:0 19:0 20:0 21:0 22:0 23:0 24:1 25:0 26:0 27:0 28:0 29:1 30:0 31:0 32:0 33:0 34:0.012924787 35:0.0006643582 36:0.97161376 37:0.014837333 38:0.30000001 #
0.081946818201930768 1:1 2:0 3:0.74000001 4:1 5:0.02 6:0 7:1 8:1 9:0 10:0.15000001 11:0 12:0 13:0 14:1 15:0 16:1 17:0 18:0 19:0 20:0 21:0 22:0 23:0 24:0 25:1 26:0 27:0 28:1 29:0 30:0 31:1 32:0 33:0 34:0.5 35:0.5 36:0.5 37:0.5 38:0.1 #
-0.11884217155182768 1:1 2:0 3:0.34 4:0 5:0.039999999 6:0 7:1 8:1 9:0 10:0.029999999 11:0 12:1 13:0 14:1 15:1 16:1 17:0 18:0 19:0 20:0 21:0 22:0 23:0 24:0 25:0 26:0 27:1 28:0 29:0 30:0 31:1 32:0 33:0 34:0.5 35:0.5 36:0.5 37:0.5 38:0.1 #
-0.11884217155182768 1:1 2:1 3:0.34 4:0 5:0 6:0 7:1 8:1 9:0 10:0.41 11:0 12:0 13:0 14:0 15:1 16:1 17:0 18:0 19:0 20:0 21:0 22:0 23:0 24:0 25:0 26:0 27:1 28:0 29:0 30:0 31:0 32:0 33:0 34:0.94107324 35:0.030174611 36:0.015161869 37:0.013593569 38:0.1 #
0.11884217155182768 1:0 2:1 3:0.18000001 4:0 5:0 6:0 7:1 8:1 9:0 10:0.029999999 11:1 12:0 13:0 14:0 15:0 16:1 17:0 18:0 19:1 20:0 21:0 22:0 23:0 24:0 25:0 26:0 27:1 28:0 29:0 30:0 31:0 32:0 33:0 34:0.33333334 35:0.33333334 36:0.66666669 37:0.33333334 38:0.2 #
0.11884217155182768 1:1 2:1 3:0.059999999 4:0 5:0 6:0 7:1 8:0 9:0 10:0.0099999998 11:0 12:0 13:0 14:0 15:1 16:1 17:0 18:0 19:0 20:0 21:0 22:0 23:0 24:1 25:0 26:0 27:0 28:0 29:0 30:1 31:0 32:0 33:0 34:0.5 35:0.5 36:0.5 37:0.5 38:0.2 #
-0.11884217155182768 1:0 2:1 3:0.079999998 4:0 5:0 6:0 7:1 8:0 9:0 10:0.0099999998 11:1 12:0 13:0 14:0 15:0 16:1 17:0 18:0 19:0 20:0 21:0 22:0 23:0 24:0 25:0 26:0 27:1 28:0 29:0 30:0 31:0 32:0 33:0 34:0.35247257 35:0.10822185 36:0.131219 37:0.40838718 38:0.2 #
0.11884217155182768 1:1 2:0 3:0.1 4:1 5:0.02 6:0 7:1 8:1 9:0 10:0.0099999998 11:0 12:0 13:0 14:0 15:0 16:0 17:0 18:0 19:0 20:0 21:0 22:0 23:0 24:0 25:0 26:0 27:1 28:0 29:0 30:0 31:0 32:0 33:0 34:0.88727486 35:0.070436701 36:0.013164978 37:0.029143769 38:0.5 #
-0.11884217155182768 1:1 2:1 3:0.16 4:0 5:0 6:0 7:1 8:1 9:0 10:0.0099999998 11:0 12:0 13:0 14:0 15:0 16:0 17:0 18:0 19:0 20:0 21:0 22:0 23:0 24:0 25:0 26:0 27:1 28:0 29:0 30:0 31:0 32:0 33:0 34:0.5 35:0.5 36:0.5 37:0.5 38:0.5 #
-0.11884217155182768 1:0 2:1 3:0.2 4:0 5:0 6:0 7:1 8:1 9:0 10:0.0099999998 11:0 12:0 13:0 14:0 15:0 16:1 17:0 18:0 19:0 20:0 21:0 22:0 23:0 24:1 25:0 26:0 27:0 28:0 29:1 30:0 31:0 32:0 33:0 34:0.092878267 35:0.02621693 36:0.36088243 37:0.52018225 38:0.2 #
0.11884217155182768 1:1 2:1 3:0.14 4:0 5:0 6:0 7:1 8:1 9:0 10:0.0099999998 11:0 12:0 13:0 14:0 15:0 16:1 17:0 18:0 19:0 20:0 21:0 22:0 23:0 24:0 25:0 26:0 27:1 28:0 29:0 30:0 31:0 32:0 33:0 34:0.48669201 35:0.1444867 36:0.092205323 37:0.2785171 38:0.30000001 #
0.11884217155182768 1:1 2:1 3:0.2 4:0 5:0 6:0 7:1 8:1 9:0 10:0.43000001 11:0 12:0 13:0 14:0 15:0 16:1 17:0 18:0 19:1 20:0 21:0 22:0 23:0 24:0 25:0 26:0 27:1 28:0 29:0 30:0 31:0 32:0 33:0 34:0.85545152 35:0.10682819 36:0.021200441 37:0.017070485 38:0.1 #
0.11884217155182768 1:1 2:0 3:0.14 4:1 5:0.02 6:0 7:1 8:1 9:0 10:0.0099999998 11:0 12:0 13:0 14:0 15:0 16:0 17:0 18:0 19:0 20:0 21:0 22:0 23:0 24:0 25:0 26:0 27:1 28:0 29:0 30:0 31:0 32:0 33:0 34:0.75999999 35:0.15571429 36:0.058571428 37:0.028571429 38:0.69999999 #
-0.11884217155182768 1:0 2:1 3:0.28 4:0 5:0 6:0 7:1 8:1 9:0 10:0.0099999998 11:0 12:0 13:0 14:0 15:0 16:1 17:0 18:0 19:1 20:0 21:0 22:0 23:0 24:0 25:0 26:0 27:1 28:0 29:0 30:0 31:0 32:0 33:0 34:0.95025128 35:0.037688442 36:0.0075376886 37:0.0055276384 38:0.2 #
-0.11884217155182768 1:1 2:0 3:0.1 4:1 5:0.02 6:0 7:1 8:1 9:0 10:0.02 11:0 12:0 13:0 14:0 15:0 16:1 17:0 18:0 19:1 20:0 21:0 22:0 23:0 24:0 25:0 26:0 27:1 28:0 29:0 30:0 31:0 32:0 33:0 34:0.89988881 35:0.046414673 36:0.025680933 37:0.028126737 38:0.30000001 #
0.11884217155182768 1:0 2:1 3:0.25999999 4:0 5:0 6:0 7:1 8:1 9:0 10:0.050000001 11:1 12:0 13:0 14:0 15:0 16:1 17:0 18:0 19:1 20:0 21:0 22:0 23:0 24:0 25:0 26:0 27:1 28:0 29:0 30:0 31:0 32:0 33:0 34:0.5 35:0.5 36:0.5 37:0.5 38:0.2 #
-0.11884217155182768 1:0 2:1 3:0.5 4:0 5:0 6:0 7:1 8:1 9:0 10:0.02 11:0 12:0 13:0 14:0 15:0 16:1 17:0 18:0 19:1 20:0 21:0 22:0 23:0 24:0 25:0 26:0 27:1 28:0 29:0 30:0 31:0 32:0 33:0 34:0.043478262 35:0.93478262 36:0.021739131 37:0.043478262 38:0.1 #
0.11884217155182768 1:1 2:0 3:0.2 4:1 5:0.02 6:0 7:1 8:1 9:0 10:0.02 11:0 12:0 13:0 14:0 15:0 16:1 17:0 18:0 19:0 20:0 21:0 22:0 23:0 24:0 25:0 26:0 27:1 28:0 29:0 30:0 31:1 32:0 33:0 34:0.56547767 35:0.096782237 36:0.26615116 37:0.072087802 38:0.2 #
-0.11884217155182768 1:0 2:1 3:0.30000001 4:0 5:0 6:0 7:1 8:1 9:0 10:0.0099999998 11:0 12:0 13:0 14:0 15:0 16:1 17:1 18:1 19:0 20:0 21:0 22:0 23:0 24:1 25:0 26:0 27:1 28:0 29:0 30:0 31:0 32:0 33:0 34:0.042844031 35:0.0055547506 36:0.89634353 37:0.055354297 38:0.40000001 #
0.11884217155182768 1:0 2:1 3:0.039999999 4:0 5:0 6:0 7:1 8:0 9:1 10:0.0099999998 11:1 12:0 13:0 14:0 15:0 16:1 17:0 18:0 19:0 20:0 21:0 22:0 23:0 24:0 25:0 26:0 27:0 28:0 29:0 30:1 31:0 32:0 33:0 34:0.0025578025 35:0.00057960057 36:0.021609021 37:0.97526199 38:0.2 #
-0.11884217155182768 1:1 2:0 3:0.23999999 4:1 5:0.02 6:0 7:1 8:0 9:1 10:0.0099999998 11:0 12:0 13:0 14:0 15:0 16:1 17:0 18:0 19:0 20:0 21:0 22:0 23:1 24:1 25:0 26:0 27:0 28:0 29:0 30:1 31:0 32:0 33:0 34:0.023441834 35:0.0031440726 36:0.01701498 37:0.95649159 38:0.40000001 #
0.11884217155182768 1:1 2:1 3:0.12 4:0 5:0 6:0 7:1 8:0 9:1 10:0.0099999998 11:1 12:0 13:0 14:0 15:0 16:1 17:0 18:0 19:0 20:0 21:0 22:0 23:0 24:1 25:0 26:0 27:0 28:0 29:0 30:1 31:0 32:0 33:0 34:0.0018656716 35:0.0018656716 36:0.037313432 37:0.96268654 38:0.30000001 #
0.11884217155182768 1:0 2:1 3:0.2 4:0 5:0 6:0 7:1 8:1 9:0 10:0.0099999998 11:1 12:0 13:0 14:0 15:0 16:1 17:0 18:0 19:1 20:0 21:0 22:0 23:0 24:0 25:0 26:0 27:1 28:0 29:0 30:0 31:0 32:0 33:0 34:0.66666669 35:0.33333334 36:0.33333334 37:0.33333334 38:0.2 #
0.11884217155182768 1:0 2:1 3:0.039999999 4:0 5:0 6:0 7:1 8:1 9:0 10:0.49000001 11:0 12:1 13:0 14:0 15:1 16:1 17:0 18:0 19:0 20:0 21:0 22:0 23:0 24:0 25:0 26:0 27:0 28:0 29:1 30:0 31:0 32:0 33:0 34:0.0054719565 35:0.00034199728 36:0.97503418 37:0.019835841 38:0.1 #
0.11884217155182768 1:0 2:1 3:0.28 4:0 5:0 6:0 7:1 8:1 9:0 10:0.0099999998 11:1 12:0 13:0 14:0 15:0 16:1 17:0 18:0 19:1 20:0 21:0 22:0 23:0 24:0 25:0 26:0 27:1 28:0 29:0 30:0 31:0 32:0 33:0 34:0.07692308 35:0.92307693 36:0.025641026 37:0.025641026 38:0.2 #
