SVM-light Version V6.02
0 # kernel type
3 # kernel parameter -d 
1 # kernel parameter -g 
1 # kernel parameter -s 
1 # kernel parameter -r 
empty# kernel parameter -u 
31 # highest feature index 
3108 # number of training documents 
1048 # number of support vectors plus 1 
1.6333903 # threshold b, each following line is a SV (starting with alpha*y)
0.050693662450963954 1:1 2:0.62 3:0 4:0 5:0 6:0 7:0 8:1 9:0 10:0 11:2.0999999 12:1 13:0 14:0 15:1 16:1 17:1 18:0 19:0 20:0 21:0 22:0 23:0 24:0 25:0 26:0 27:0 28:0 29:1 30:0 31:0 #
-0.050693662450963954 1:1 2:1.48 3:0 4:0 5:0 6:0 7:0 8:1 9:1 10:0 11:0.30000001 12:0 13:0 14:0 15:0 16:0 17:1 18:1 19:0 20:0 21:0 22:0 23:0 24:0 25:0 26:0 27:0 28:0 29:0 30:1 31:0 #
-0.050693662450963954 1:0 2:11.68 3:0 4:0.059999999 5:0 6:0 7:0 8:1 9:0 10:0 11:1.9 12:1 13:0 14:0 15:0 16:1 17:1 18:0 19:0 20:0 21:0 22:0 23:0 24:0 25:0 26:0 27:0 28:0 29:0 30:0 31:1 #
-0.050693662450963954 1:1 2:3.1400001 3:0 4:0 5:0 6:0 7:0 8:1 9:1 10:0 11:0.1 12:0 13:0 14:0 15:0 16:0 17:1 18:1 19:0 20:0 21:0 22:0 23:0 24:0 25:1 26:0 27:0 28:0 29:0 30:1 31:0 #
-0.050693662450963954 1:1 2:0.51999998 3:0 4:0 5:0 6:0 7:0 8:1 9:1 10:0 11:0.1 12:0 13:0 14:0 15:0 16:0 17:1 18:1 19:0 20:1 21:0 22:0 23:0 24:0 25:0 26:0 27:0 28:1 29:0 30:0 31:0 #
0.050693662450963954 1:1 2:1.92 3:0 4:0 5:0 6:1 7:0 8:1 9:1 10:0 11:0.1 12:1 13:0 14:0 15:0 16:0 17:1 18:0 19:0 20:0 21:0 22:0 23:0 24:0 25:1 26:0 27:0 28:0 29:0 30:1 31:0 #
0.050693662450963954 1:1 2:1.04 3:0 4:0 5:0 6:0 7:0 8:1 9:0 10:0 11:0.5 12:1 13:0 14:0 15:1 16:1 17:1 18:0 19:0 20:0 21:0 22:0 23:0 24:0 25:0 26:0 27:0 28:0 29:0 30:0 31:1 #
0.050693662450963954 1:1 2:1.42 3:0 4:0 5:0 6:0 7:0 8:1 9:1 10:0 11:0.1 12:1 13:0 14:0 15:0 16:0 17:1 18:0 19:0 20:1 21:0 22:0 23:0 24:0 25:0 26:0 27:0 28:1 29:0 30:0 31:0 #
0.050693662450963954 1:1 2:1.6 3:0 4:0 5:0 6:0 7:0 8:1 9:1 10:0 11:0.2 12:1 13:0 14:0 15:0 16:0 17:1 18:1 19:1 20:0 21:0 22:0 23:0 24:0 25:0 26:0 27:0 28:0 29:1 30:0 31:0 #
0.050693662450963954 1:0 2:0.36000001 3:1 4:0.02 5:0 6:0 7:0 8:1 9:0 10:0 11:0.2 12:0 13:0 14:0 15:1 16:0 17:1 18:0 19:0 20:0 21:0 22:0 23:0 24:0 25:0 26:1 27:0 28:0 29:1 30:0 31:0 #
-0.050693662450963954 1:0 2:1.4400001 3:1 4:0.02 5:0 6:1 7:0 8:1 9:0 10:0 11:0.40000001 12:1 13:0 14:0 15:1 16:0 17:1 18:0 19:0 20:0 21:0 22:0 23:0 24:0 25:0 26:0 27:0 28:0 29:1 30:0 31:0 #
0.050693662450963954 1:1 2:0.56 3:0 4:0 5:0 6:0 7:0 8:1 9:0 10:1 11:0.1 12:0 13:0 14:0 15:0 16:0 17:1 18:1 19:0 20:0 21:0 22:0 23:0 24:0 25:1 26:0 27:0 28:0 29:0 30:0 31:1 #
-0.050693662450963954 1:0 2:1.36 3:1 4:0.02 5:0 6:0 7:0 8:1 9:1 10:0 11:0.2 12:0 13:0 14:0 15:0 16:0 17:1 18:0 19:0 20:1 21:0 22:0 23:0 24:0 25:0 26:0 27:0 28:1 29:0 30:0 31:0 #
0.050693662450963954 1:0 2:1.3200001 3:1 4:0.02 5:0 6:0 7:0 8:1 9:0 10:0 11:1.4 12:0 13:0 14:0 15:1 16:0 17:1 18:0 19:0 20:0 21:0 22:0 23:0 24:0 25:0 26:1 27:1 28:1 29:0 30:0 31:0 #
-0.050693662450963954 1:0 2:0.83999997 3:1 4:0.02 5:0 6:0 7:0 8:1 9:1 10:0 11:8.5 12:1 13:0 14:0 15:0 16:1 17:1 18:0 19:0 20:1 21:0 22:0 23:0 24:0 25:0 26:0 27:0 28:0 29:1 30:0 31:0 #
0.050693662450963954 1:1 2:0.30000001 3:0 4:0 5:0 6:0 7:0 8:1 9:1 10:0 11:1 12:1 13:0 14:0 15:0 16:1 17:1 18:0 19:0 20:1 21:0 22:0 23:0 24:0 25:0 26:0 27:0 28:1 29:0 30:0 31:0 #
0.050693662450963954 1:0 2:17.040001 3:0 4:0.079999998 5:0 6:0 7:0 8:1 9:0 10:0 11:0.69999999 12:0 13:0 14:0 15:0 16:0 17:1 18:1 19:0 20:0 21:0 22:0 23:0 24:0 25:0 26:0 27:0 28:0 29:0 30:0 31:1 #
0.050693662450963954 1:1 2:1.92 3:0 4:0 5:1 6:0 7:0 8:1 9:1 10:0 11:0.1 12:0 13:0 14:0 15:0 16:0 17:1 18:1 19:0 20:0 21:0 22:0 23:0 24:0 25:1 26:0 27:0 28:1 29:0 30:0 31:0 #
0.050693662450963954 1:1 2:0.62 3:0 4:0 5:0 6:0 7:0 8:1 9:1 10:0 11:0.30000001 12:1 13:0 14:0 15:0 16:0 17:1 18:0 19:0 20:1 21:0 22:0 23:0 24:0 25:0 26:0 27:0 28:1 29:0 30:0 31:0 #
0.050693662450963954 1:0 2:1.86 3:1 4:0.02 5:0 6:0 7:0 8:1 9:1 10:0 11:0.1 12:0 13:1 14:1 15:0 16:0 17:1 18:0 19:0 20:1 21:0 22:0 23:0 24:0 25:1 26:0 27:0 28:1 29:0 30:0 31:0 #
-0.050693662450963954 1:1 2:0.83999997 3:0 4:0 5:0 6:0 7:0 8:1 9:1 10:0 11:0.1 12:1 13:0 14:0 15:0 16:0 17:1 18:0 19:1 20:0 21:0 22:0 23:0 24:0 25:0 26:0 27:0 28:1 29:0 30:0 31:0 #
-0.050693662450963954 1:1 2:0.86000001 3:0 4:0 5:0 6:0 7:0 8:1 9:0 10:0 11:0.1 12:0 13:0 14:0 15:0 16:0 17:0 18:0 19:0 20:0 21:0 22:0 23:0 24:0 25:0 26:0 27:0 28:0 29:0 30:0 31:1 #
0.050693662450963954 1:1 2:0.94 3:0 4:0 5:0 6:0 7:0 8:1 9:0 10:1 11:0.30000001 12:1 13:0 14:0 15:0 16:0 17:1 18:0 19:0 20:0 21:0 22:0 23:0 24:0 25:1 26:0 27:0 28:0 29:0 30:0 31:1 #
-0.050693662450963954 1:1 2:0.16 3:0 4:0 5:0 6:1 7:0 8:1 9:1 10:0 11:10.5 12:0 13:0 14:0 15:0 16:0 17:1 18:1 19:0 20:0 21:0 22:0 23:0 24:0 25:0 26:0 27:0 28:1 29:0 30:0 31:0 #
0.050693662450963954 1:1 2:0.86000001 3:0 4:0 5:0 6:0 7:0 8:1 9:1 10:0 11:0.2 12:0 13:0 14:0 15:0 16:0 17:1 18:0 19:0 20:0 21:0 22:0 23:0 24:0 25:1 26:0 27:0 28:0 29:0 30:1 31:0 #
0.050693662450963954 1:1 2:1.28 3:0 4:0 5:0 6:0 7:0 8:1 9:1 10:0 11:0.1 12:0 13:1 14:0 15:0 16:0 17:1 18:0 19:0 20:1 21:0 22:0 23:0 24:0 25:1 26:0 27:0 28:1 29:0 30:0 31:0 #
-0.050693662450963954 1:0 2:0.74000001 3:1 4:0.02 5:0 6:0 7:0 8:1 9:1 10:0 11:0.1 12:1 13:0 14:0 15:0 16:0 17:1 18:0 19:1 20:0 21:0 22:0 23:0 24:0 25:0 26:0 27:0 28:1 29:0 30:0 31:0 #
-0.050693662450963954 1:1 2:0.23999999 3:0 4:0 5:0 6:0 7:0 8:1 9:1 10:0 11:18.200001 12:0 13:1 14:0 15:0 16:1 17:1 18:0 19:0 20:1 21:0 22:0 23:0 24:0 25:0 26:0 27:0 28:0 29:1 30:0 31:0 #
0.050693662450963954 1:1 2:0.30000001 3:0 4:0 5:0 6:0 7:0 8:1 9:1 10:0 11:0.1 12:0 13:0 14:0 15:0 16:0 17:1 18:0 19:0 20:1 21:0 22:0 23:0 24:0 25:0 26:0 27:0 28:1 29:0 30:0 31:0 #
-0.050693662450963954 1:0 2:0.22 3:1 4:0.02 5:0 6:0 7:0 8:1 9:0 10:0 11:1.3 12:1 13:0 14:0 15:1 16:1 17:1 18:0 19:0 20:0 21:0 22:0 23:0 24:0 25:0 26:0 27:1 28:0 29:1 30:0 31:0 #
0.050693662450963954 1:0 2:8.6999998 3:0 4:0.039999999 5:0 6:0 7:0 8:1 9:0 10:0 11:1.5 12:0 13:0 14:0 15:1 16:0 17:1 18:0 19:0 20:0 21:0 22:0 23:0 24:0 25:0 26:1 27:0 28:0 29:1 30:0 31:0 #
0.050693662450963954 1:1 2:3.4400001 3:0 4:0 5:0 6:1 7:0 8:1 9:1 10:0 11:0.1 12:0 13:0 14:0 15:0 16:0 17:1 18:1 19:0 20:0 21:0 22:0 23:0 24:0 25:1 26:0 27:0 28:1 29:0 30:0 31:0 #
-0.050693662450963954 1:1 2:1.3 3:0 4:0 5:0 6:1 7:0 8:1 9:1 10:0 11:0.1 12:0 13:0 14:0 15:1 16:0 17:1 18:0 19:0 20:0 21:0 22:0 23:0 24:0 25:0 26:1 27:0 28:1 29:0 30:0 31:0 #
-0.050693662450963954 1:1 2:0.34 3:0 4:0 5:1 6:1 7:0 8:1 9:1 10:0 11:0.1 12:0 13:0 14:0 15:0 16:0 17:1 18:1 19:1 20:0 21:0 22:0 23:0 24:0 25:1 26:0 27:0 28:1 29:0 30:0 31:0 #
0.050693662450963954 1:0 2:33.16 3:0 4:0.2 5:0 6:1 7:0 8:1 9:0 10:0 11:0.30000001 12:0 13:0 14:0 15:0 16:0 17:1 18:0 19:1 20:0 21:0 22:0 23:0 24:0 25:0 26:0 27:0 28:0 29:0 30:0 31:1 #
-0.050693662450963954 1:1 2:3.22 3:0 4:0 5:0 6:1 7:0 8:1 9:0 10:1 11:0.1 12:0 13:1 14:0 15:0 16:0 17:1 18:0 19:0 20:0 21:0 22:0 23:0 24:0 25:0 26:0 27:0 28:0 29:0 30:0 31:1 #
-0.050693662450963954 1:1 2:0.31999999 3:0 4:0 5:0 6:0 7:0 8:1 9:1 10:0 11:10.5 12:0 13:1 14:0 15:0 16:1 17:1 18:0 19:0 20:0 21:0 22:0 23:0 24:0 25:0 26:0 27:0 28:1 29:0 30:0 31:0 #
0.050693662450963954 1:1 2:2.4200001 3:0 4:0 5:0 6:1 7:0 8:1 9:1 10:0 11:1.8 12:0 13:1 14:0 15:0 16:0 17:0 18:1 19:0 20:1 21:0 22:0 23:0 24:0 25:1 26:0 27:0 28:0 29:0 30:1 31:0 #
-0.050693662450963954 1:0 2:0.51999998 3:1 4:0.02 5:0 6:1 7:0 8:1 9:1 10:0 11:0.1 12:0 13:0 14:0 15:1 16:0 17:1 18:0 19:0 20:0 21:0 22:0 23:0 24:0 25:0 26:1 27:0 28:1 29:0 30:0 31:0 #
-0.050693662450963954 1:1 2:1.36 3:0 4:0 5:0 6:1 7:0 8:1 9:1 10:0 11:0.1 12:0 13:1 14:0 15:0 16:0 17:1 18:0 19:0 20:0 21:0 22:0 23:0 24:0 25:0 26:0 27:0 28:0 29:0 30:1 31:0 #
0.050693662450963954 1:1 2:0.34 3:0 4:0 5:0 6:0 7:0 8:1 9:0 10:0 11:0.1 12:0 13:0 14:0 15:0 16:1 17:1 18:0 19:0 20:0 21:0 22:0 23:0 24:0 25:1 26:0 27:0 28:0 29:0 30:0 31:1 #
-0.050693662450963954 1:1 2:0.44 3:0 4:0 5:0 6:1 7:1 8:1 9:1 10:0 11:0.1 12:1 13:0 14:0 15:1 16:0 17:1 18:0 19:0 20:0 21:0 22:0 23:0 24:0 25:0 26:0 27:0 28:1 29:0 30:0 31:0 #
0.050693662450963954 1:1 2:1.24 3:0 4:0 5:0 6:1 7:0 8:1 9:1 10:0 11:0.1 12:0 13:1 14:0 15:0 16:0 17:1 18:0 19:0 20:0 21:0 22:0 23:0 24:1 25:1 26:0 27:0 28:0 29:0 30:1 31:0 #
0.050693662450963954 1:1 2:0.44 3:0 4:0 5:0 6:0 7:0 8:1 9:0 10:1 11:0.2 12:0 13:0 14:0 15:0 16:0 17:1 18:0 19:0 20:0 21:0 22:0 23:0 24:0 25:1 26:0 27:0 28:0 29:0 30:0 31:1 #
-0.050693662450963954 1:1 2:0.74000001 3:0 4:0 5:0 6:1 7:0 8:1 9:1 10:0 11:0.1 12:0 13:1 14:0 15:1 16:0 17:1 18:0 19:0 20:0 21:0 22:0 23:0 24:0 25:0 26:1 27:0 28:1 29:0 30:0 31:0 #
-0.050693662450963954 1:1 2:0.98000002 3:0 4:0 5:0 6:1 7:0 8:1 9:1 10:0 11:0.1 12:0 13:0 14:0 15:1 16:0 17:1 18:0 19:0 20:0 21:0 22:0 23:0 24:0 25:0 26:1 27:0 28:1 29:0 30:0 31:0 #
-0.050693662450963954 1:0 2:14 3:0 4:0.059999999 5:0 6:0 7:0 8:1 9:0 10:0 11:4.9000001 12:1 13:0 14:0 15:0 16:0 17:1 18:0 19:0 20:0 21:0 22:0 23:0 24:0 25:0 26:0 27:0 28:0 29:0 30:0 31:1 #
-0.050693662450963954 1:0 2:4.3400002 3:0 4:0.039999999 5:0 6:1 7:0 8:1 9:1 10:0 11:0.1 12:0 13:0 14:0 15:1 16:0 17:1 18:0 19:0 20:0 21:0 22:0 23:0 24:0 25:0 26:1 27:0 28:1 29:0 30:0 31:0 #
-0.050693662450963954 1:1 2:0.62 3:0 4:0 5:0 6:0 7:0 8:1 9:1 10:0 11:2.9000001 12:0 13:0 14:0 15:0 16:0 17:1 18:0 19:1 20:0 21:0 22:0 23:0 24:0 25:1 26:0 27:0 28:0 29:1 30:0 31:0 #
-0.050693662450963954 1:0 2:1.2 3:1 4:0.02 5:0 6:0 7:0 8:1 9:0 10:0 11:2.5999999 12:1 13:0 14:0 15:1 16:1 17:1 18:0 19:0 20:0 21:0 22:0 23:0 24:0 25:0 26:0 27:1 28:1 29:0 30:0 31:0 #
-0.050693662450963954 1:1 2:0.31999999 3:0 4:0 5:0 6:0 7:0 8:1 9:0 10:0 11:2.9000001 12:0 13:0 14:0 15:0 16:0 17:1 18:1 19:1 20:0 21:0 22:0 23:0 24:0 25:0 26:0 27:0 28:0 29:1 30:0 31:0 #
0.050693662450963954 1:1 2:1.24 3:0 4:0 5:0 6:1 7:0 8:1 9:0 10:0 11:0.1 12:0 13:0 14:0 15:0 16:0 17:0 18:0 19:0 20:0 21:0 22:0 23:0 24:0 25:0 26:0 27:0 28:0 29:0 30:0 31:1 #
0.050693662450963954 1:1 2:0.63999999 3:0 4:0 5:0 6:1 7:0 8:1 9:0 10:0 11:0.1 12:0 13:0 14:0 15:0 16:0 17:1 18:0 19:0 20:0 21:0 22:0 23:0 24:1 25:0 26:0 27:0 28:0 29:0 30:0 31:1 #
0.050693662450963954 1:1 2:2.1199999 3:0 4:0 5:0 6:0 7:0 8:1 9:0 10:0 11:0.1 12:0 13:0 14:0 15:0 16:0 17:1 18:0 19:0 20:0 21:0 22:0 23:0 24:0 25:0 26:0 27:0 28:0 29:0 30:0 31:1 #
0.050693662450963954 1:1 2:0.83999997 3:0 4:0 5:0 6:1 7:0 8:1 9:0 10:1 11:0.1 12:0 13:0 14:0 15:0 16:0 17:1 18:0 19:0 20:0 21:0 22:0 23:0 24:0 25:0 26:0 27:0 28:0 29:0 30:0 31:1 #
0.050693662450963954 1:1 2:2.6400001 3:0 4:0 5:0 6:0 7:0 8:1 9:1 10:0 11:1.9 12:1 13:0 14:0 15:0 16:1 17:1 18:0 19:0 20:1 21:0 22:0 23:0 24:0 25:0 26:0 27:0 28:1 29:0 30:0 31:0 #
0.050693662450963954 1:1 2:0.69999999 3:0 4:0 5:0 6:0 7:0 8:1 9:0 10:0 11:1.5 12:0 13:0 14:0 15:1 16:0 17:1 18:0 19:0 20:0 21:0 22:0 23:0 24:0 25:0 26:1 27:0 28:0 29:1 30:0 31:0 #
-0.050693662450963954 1:1 2:1 3:0 4:0 5:0 6:0 7:0 8:1 9:1 10:0 11:0.1 12:0 13:0 14:0 15:0 16:0 17:1 18:1 19:1 20:0 21:0 22:0 23:0 24:0 25:1 26:0 27:0 28:1 29:0 30:0 31:0 #
0.050693662450963954 1:0 2:0.69999999 3:1 4:0.02 5:0 6:0 7:0 8:1 9:1 10:0 11:0.1 12:0 13:0 14:0 15:0 16:0 17:1 18:1 19:1 20:0 21:0 22:0 23:0 24:0 25:1 26:0 27:0 28:1 29:0 30:0 31:0 #
0.050693662450963954 1:1 2:0.16 3:0 4:0 5:0 6:0 7:0 8:1 9:1 10:0 11:0.40000001 12:0 13:0 14:0 15:0 16:0 17:1 18:1 19:0 20:1 21:0 22:0 23:0 24:0 25:0 26:0 27:0 28:0 29:1 30:0 31:0 #
0.050693662450963954 1:1 2:0.36000001 3:0 4:0 5:0 6:0 7:0 8:1 9:1 10:0 11:0.30000001 12:0 13:0 14:0 15:0 16:0 17:1 18:0 19:0 20:0 21:0 22:0 23:0 24:0 25:0 26:0 27:0 28:0 29:1 30:0 31:0 #
0.050693662450963954 1:1 2:0.94 3:0 4:0 5:0 6:0 7:0 8:1 9:1 10:0 11:0.80000001 12:0 13:1 14:0 15:0 16:1 17:1 18:0 19:0 20:1 21:0 22:0 23:0 24:0 25:0 26:0 27:0 28:0 29:1 30:0 31:0 #
-0.050693662450963954 1:1 2:0.5 3:0 4:0 5:0 6:0 7:0 8:1 9:0 10:0 11:0.1 12:0 13:0 14:0 15:0 16:0 17:0 18:0 19:0 20:0 21:0 22:0 23:0 24:0 25:1 26:0 27:0 28:0 29:0 30:0 31:1 #
-0.050693662450963954 1:1 2:0.47999999 3:0 4:0 5:1 6:1 7:1 8:1 9:1 10:0 11:0.1 12:1 13:0 14:0 15:0 16:0 17:1 18:0 19:0 20:0 21:0 22:0 23:0 24:0 25:1 26:0 27:0 28:1 29:0 30:0 31:0 #
0.050693662450963954 1:0 2:0.95999998 3:1 4:0.02 5:0 6:0 7:0 8:1 9:1 10:0 11:0.1 12:0 13:1 14:0 15:0 16:0 17:1 18:0 19:0 20:1 21:0 22:0 23:0 24:0 25:0 26:0 27:0 28:1 29:0 30:0 31:0 #
-0.027144613038468692 1:1 2:1.3 3:0 4:0 5:1 6:1 7:1 8:1 9:1 10:0 11:0.1 12:0 13:0 14:0 15:0 16:0 17:1 18:1 19:0 20:0 21:0 22:0 23:0 24:0 25:1 26:0 27:0 28:1 29:0 30:0 31:0 #
-0.050693662450963954 1:1 2:3.28 3:0 4:0 5:0 6:1 7:0 8:1 9:1 10:0 11:0.2 12:1 13:0 14:0 15:0 16:0 17:1 18:0 19:0 20:0 21:0 22:0 23:0 24:0 25:1 26:0 27:0 28:1 29:0 30:0 31:0 #
0.050693662450963954 1:0 2:0.66000003 3:1 4:0.02 5:0 6:0 7:0 8:1 9:0 10:0 11:0.30000001 12:0 13:1 14:0 15:1 16:1 17:1 18:0 19:0 20:0 21:0 22:0 23:0 24:0 25:0 26:0 27:0 28:1 29:0 30:0 31:0 #
0.050693662450963954 1:1 2:0.2 3:0 4:0 5:0 6:0 7:0 8:1 9:0 10:0 11:0.5 12:1 13:0 14:0 15:1 16:1 17:1 18:0 19:0 20:0 21:0 22:0 23:0 24:0 25:0 26:0 27:0 28:0 29:0 30:1 31:0 #
0.050693662450963954 1:1 2:0.31999999 3:0 4:0 5:0 6:0 7:0 8:1 9:0 10:1 11:0.1 12:0 13:0 14:0 15:0 16:0 17:1 18:1 19:0 20:0 21:0 22:0 23:0 24:0 25:0 26:0 27:0 28:0 29:0 30:0 31:1 #
-0.050693662450963954 1:1 2:0.2 3:0 4:0 5:0 6:0 7:0 8:1 9:1 10:0 11:0.30000001 12:0 13:0 14:0 15:0 16:1 17:1 18:0 19:0 20:1 21:0 22:0 23:0 24:0 25:0 26:0 27:0 28:1 29:0 30:0 31:0 #
-0.050693662450963954 1:1 2:0.98000002 3:0 4:0 5:0 6:1 7:0 8:1 9:1 10:0 11:0.40000001 12:0 13:0 14:0 15:0 16:0 17:1 18:1 19:0 20:0 21:0 22:0 23:0 24:0 25:1 26:0 27:0 28:1 29:0 30:0 31:0 #
-0.050693662450963954 1:1 2:1.04 3:0 4:0 5:0 6:0 7:0 8:1 9:1 10:0 11:1.8 12:1 13:0 14:0 15:0 16:1 17:1 18:0 19:0 20:1 21:0 22:0 23:0 24:0 25:0 26:0 27:0 28:1 29:0 30:0 31:0 #
-0.050693662450963954 1:1 2:0.80000001 3:0 4:0 5:0 6:0 7:1 8:1 9:1 10:0 11:1.5 12:1 13:0 14:0 15:0 16:1 17:1 18:0 19:0 20:1 21:0 22:0 23:0 24:0 25:0 26:0 27:0 28:1 29:0 30:0 31:0 #
-0.050693662450963954 1:1 2:0.51999998 3:0 4:0 5:0 6:0 7:0 8:1 9:0 10:0 11:1.9 12:1 13:0 14:0 15:1 16:1 17:1 18:0 19:0 20:0 21:0 22:0 23:0 24:0 25:0 26:0 27:0 28:1 29:0 30:0 31:0 #
0.050693662450963954 1:0 2:1.42 3:1 4:0.02 5:0 6:0 7:0 8:1 9:0 10:1 11:0.30000001 12:0 13:1 14:0 15:0 16:0 17:1 18:0 19:0 20:0 21:0 22:0 23:0 24:0 25:1 26:0 27:0 28:0 29:0 30:0 31:1 #
0.050693662450963954 1:1 2:0.44 3:0 4:0 5:0 6:0 7:0 8:1 9:0 10:1 11:0.1 12:0 13:1 14:0 15:0 16:0 17:1 18:0 19:0 20:0 21:0 22:0 23:0 24:0 25:1 26:0 27:0 28:0 29:0 30:0 31:1 #
0.050693662450963954 1:1 2:1.14 3:0 4:0 5:0 6:0 7:0 8:1 9:0 10:1 11:0.1 12:0 13:1 14:1 15:0 16:0 17:1 18:1 19:0 20:0 21:0 22:0 23:0 24:0 25:0 26:0 27:0 28:0 29:0 30:0 31:1 #
-0.050693662450963954 1:0 2:1.0599999 3:1 4:0.02 5:0 6:0 7:0 8:1 9:0 10:1 11:0.30000001 12:0 13:1 14:0 15:0 16:0 17:1 18:0 19:1 20:0 21:0 22:0 23:0 24:0 25:1 26:0 27:0 28:0 29:0 30:0 31:1 #
0.050693662450963954 1:1 2:2 3:0 4:0 5:0 6:1 7:0 8:1 9:1 10:0 11:0.5 12:1 13:0 14:0 15:0 16:0 17:1 18:0 19:0 20:0 21:0 22:0 23:0 24:0 25:0 26:0 27:0 28:1 29:0 30:0 31:0 #
0.050693662450963954 1:1 2:2.28 3:0 4:0 5:0 6:1 7:0 8:1 9:1 10:0 11:0.5 12:1 13:0 14:0 15:0 16:0 17:1 18:0 19:0 20:1 21:0 22:0 23:0 24:0 25:0 26:0 27:0 28:1 29:0 30:0 31:0 #
-0.050693662450963954 1:1 2:0.56 3:0 4:0 5:0 6:0 7:0 8:1 9:1 10:0 11:0.2 12:0 13:1 14:0 15:0 16:0 17:1 18:0 19:0 20:0 21:0 22:0 23:0 24:0 25:1 26:0 27:0 28:0 29:0 30:1 31:0 #
0.050693662450963954 1:1 2:0.38 3:0 4:0 5:0 6:0 7:0 8:1 9:0 10:1 11:0.30000001 12:0 13:0 14:0 15:0 16:0 17:1 18:0 19:0 20:0 21:0 22:0 23:0 24:0 25:1 26:0 27:0 28:0 29:0 30:0 31:1 #
-0.050693662450963954 1:0 2:0.63999999 3:1 4:0.02 5:0 6:0 7:0 8:1 9:0 10:1 11:0.60000002 12:0 13:1 14:0 15:0 16:0 17:1 18:0 19:1 20:0 21:0 22:0 23:0 24:0 25:1 26:0 27:0 28:0 29:0 30:0 31:1 #
-0.050693662450963954 1:0 2:0.31999999 3:1 4:0.02 5:0 6:1 7:0 8:1 9:0 10:1 11:0.1 12:0 13:0 14:0 15:0 16:0 17:1 18:1 19:0 20:0 21:0 22:0 23:0 24:0 25:0 26:0 27:0 28:0 29:0 30:0 31:1 #
0.050693662450963954 1:1 2:0.22 3:0 4:0 5:0 6:0 7:0 8:1 9:1 10:0 11:0.30000001 12:1 13:0 14:0 15:0 16:1 17:1 18:0 19:0 20:1 21:0 22:0 23:0 24:0 25:0 26:0 27:0 28:1 29:0 30:0 31:0 #
-0.050693662450963954 1:1 2:0.54000002 3:0 4:0 5:0 6:1 7:0 8:1 9:0 10:1 11:0.1 12:0 13:1 14:0 15:0 16:0 17:1 18:0 19:0 20:0 21:0 22:0 23:0 24:0 25:0 26:0 27:0 28:0 29:0 30:0 31:1 #
-0.050693662450963954 1:1 2:0.16 3:0 4:0 5:0 6:0 7:0 8:1 9:0 10:1 11:0.1 12:0 13:0 14:0 15:0 16:0 17:1 18:1 19:0 20:0 21:0 22:0 23:0 24:0 25:0 26:0 27:0 28:0 29:0 30:0 31:1 #
-0.050693662450963954 1:0 2:0.94 3:1 4:0.02 5:0 6:0 7:0 8:1 9:0 10:1 11:0.69999999 12:0 13:0 14:0 15:0 16:0 17:1 18:1 19:0 20:0 21:0 22:0 23:0 24:0 25:0 26:0 27:0 28:0 29:0 30:0 31:1 #
0.050693662450963954 1:1 2:1.46 3:0 4:0 5:0 6:0 7:0 8:1 9:1 10:0 11:0.5 12:1 13:0 14:0 15:0 16:1 17:1 18:0 19:0 20:0 21:0 22:0 23:0 24:0 25:0 26:0 27:0 28:1 29:0 30:0 31:0 #
0.050693662450963954 1:1 2:0.74000001 3:0 4:0 5:0 6:0 7:0 8:1 9:1 10:0 11:1.1 12:1 13:0 14:0 15:0 16:1 17:1 18:0 19:0 20:1 21:0 22:0 23:0 24:0 25:0 26:0 27:0 28:1 29:0 30:0 31:0 #
-0.050693662450963954 1:1 2:1.8200001 3:0 4:0 5:0 6:1 7:0 8:1 9:1 10:0 11:0.1 12:0 13:1 14:0 15:0 16:0 17:1 18:0 19:0 20:1 21:0 22:0 23:0 24:0 25:0 26:0 27:0 28:1 29:0 30:0 31:0 #
-0.050693662450963954 1:1 2:1.22 3:0 4:0 5:0 6:1 7:0 8:1 9:1 10:0 11:0.1 12:0 13:0 14:0 15:0 16:1 17:1 18:0 19:0 20:1 21:0 22:0 23:0 24:0 25:0 26:0 27:0 28:1 29:0 30:0 31:0 #
-0.050693662450963954 1:1 2:2.3800001 3:0 4:0 5:0 6:1 7:0 8:1 9:1 10:0 11:0.2 12:1 13:0 14:0 15:0 16:1 17:1 18:0 19:0 20:1 21:0 22:0 23:0 24:0 25:0 26:0 27:0 28:1 29:0 30:0 31:0 #
0.050693662450963954 1:0 2:2 3:1 4:0.02 5:0 6:0 7:0 8:1 9:0 10:0 11:0.40000001 12:0 13:0 14:0 15:0 16:0 17:1 18:0 19:0 20:0 21:0 22:0 23:0 24:0 25:0 26:0 27:0 28:0 29:0 30:0 31:1 #
0.050693662450963954 1:1 2:0.2 3:0 4:0 5:0 6:0 7:0 8:1 9:1 10:0 11:8.5 12:0 13:0 14:0 15:0 16:0 17:1 18:1 19:0 20:1 21:0 22:0 23:0 24:0 25:0 26:0 27:0 28:1 29:0 30:0 31:0 #
-0.050693662450963954 1:1 2:0.81999999 3:0 4:0 5:0 6:0 7:0 8:1 9:0 10:0 11:1.8 12:1 13:0 14:0 15:1 16:0 17:1 18:0 19:0 20:0 21:0 22:0 23:0 24:0 25:0 26:0 27:0 28:0 29:1 30:0 31:0 #
0.050693662450963954 1:0 2:0.44 3:1 4:0.02 5:0 6:1 7:1 8:1 9:1 10:0 11:0.2 12:0 13:0 14:0 15:0 16:0 17:1 18:0 19:0 20:0 21:0 22:0 23:0 24:0 25:0 26:0 27:0 28:1 29:0 30:0 31:0 #
0.050693662450963954 1:1 2:0.60000002 3:0 4:0 5:0 6:1 7:0 8:1 9:0 10:0 11:0.30000001 12:0 13:1 14:0 15:1 16:1 17:1 18:0 19:0 20:0 21:0 22:0 23:0 24:0 25:0 26:0 27:0 28:1 29:0 30:0 31:0 #
0.050693662450963954 1:1 2:0.68000001 3:0 4:0 5:0 6:1 7:0 8:1 9:0 10:0 11:0.1 12:0 13:0 14:0 15:1 16:0 17:1 18:0 19:0 20:0 21:0 22:0 23:0 24:0 25:0 26:0 27:0 28:1 29:0 30:0 31:0 #
0.050693662450963954 1:1 2:0.23999999 3:0 4:0 5:0 6:0 7:0 8:1 9:1 10:0 11:1.1 12:1 13:0 14:0 15:0 16:1 17:1 18:0 19:0 20:1 21:0 22:0 23:0 24:0 25:0 26:0 27:0 28:1 29:0 30:0 31:0 #
-0.050693662450963954 1:1 2:0.57999998 3:0 4:0 5:0 6:0 7:0 8:1 9:1 10:0 11:0.30000001 12:1 13:0 14:0 15:0 16:1 17:1 18:0 19:0 20:1 21:0 22:0 23:0 24:0 25:0 26:0 27:0 28:1 29:0 30:0 31:0 #
-0.050693662450963954 1:1 2:0.44 3:0 4:0 5:0 6:0 7:0 8:1 9:1 10:0 11:0.1 12:0 13:0 14:0 15:0 16:0 17:1 18:1 19:0 20:1 21:0 22:0 23:0 24:0 25:0 26:0 27:0 28:1 29:0 30:0 31:0 #
0.050693662450963954 1:0 2:2.72 3:0 4:0.039999999 5:0 6:0 7:0 8:1 9:1 10:0 11:0.80000001 12:0 13:0 14:0 15:0 16:0 17:1 18:1 19:0 20:0 21:0 22:0 23:0 24:0 25:0 26:0 27:0 28:1 29:0 30:0 31:0 #
0.050693662450963954 1:1 2:1.8 3:0 4:0 5:0 6:1 7:0 8:1 9:1 10:0 11:0.1 12:0 13:0 14:0 15:0 16:0 17:1 18:1 19:1 20:0 21:0 22:0 23:0 24:0 25:1 26:0 27:0 28:1 29:0 30:0 31:0 #
0.050693662450963954 1:0 2:1.64 3:1 4:0.02 5:0 6:1 7:0 8:1 9:1 10:0 11:0.1 12:0 13:0 14:0 15:0 16:0 17:1 18:1 19:1 20:0 21:0 22:0 23:0 24:0 25:1 26:0 27:0 28:1 29:0 30:0 31:0 #
-0.050693662450963954 1:1 2:0.44 3:0 4:0 5:0 6:1 7:1 8:1 9:0 10:0 11:0.1 12:0 13:0 14:1 15:0 16:0 17:1 18:0 19:0 20:0 21:0 22:0 23:0 24:0 25:1 26:0 27:0 28:0 29:0 30:0 31:1 #
0.050693662450963954 1:1 2:0.2 3:0 4:0 5:0 6:0 7:0 8:1 9:0 10:1 11:0.1 12:0 13:1 14:0 15:0 16:1 17:1 18:0 19:0 20:0 21:0 22:0 23:0 24:0 25:0 26:0 27:0 28:0 29:0 30:0 31:1 #
0.050693662450963954 1:1 2:1.66 3:0 4:0 5:0 6:1 7:0 8:1 9:1 10:0 11:0.2 12:1 13:0 14:0 15:0 16:0 17:1 18:0 19:0 20:1 21:0 22:0 23:0 24:0 25:0 26:0 27:0 28:1 29:0 30:0 31:0 #
-0.0031420204543819441 1:1 2:0.94 3:0 4:0 5:0 6:0 7:0 8:1 9:0 10:0 11:0.1 12:0 13:0 14:0 15:0 16:0 17:0 18:0 19:0 20:0 21:0 22:0 23:0 24:0 25:0 26:0 27:0 28:0 29:0 30:0 31:1 #
0.050693662450963954 1:1 2:0.86000001 3:0 4:0 5:0 6:1 7:0 8:1 9:1 10:0 11:0.30000001 12:1 13:0 14:0 15:0 16:1 17:1 18:0 19:0 20:1 21:0 22:0 23:0 24:0 25:0 26:0 27:0 28:1 29:0 30:0 31:0 #
0.050693662450963954 1:1 2:1.86 3:0 4:0 5:0 6:0 7:0 8:1 9:1 10:0 11:0.5 12:1 13:0 14:0 15:0 16:0 17:1 18:0 19:0 20:1 21:0 22:0 23:0 24:0 25:0 26:0 27:0 28:1 29:0 30:0 31:0 #
0.050693662450963954 1:1 2:0.44 3:0 4:0 5:0 6:0 7:0 8:1 9:0 10:1 11:0.30000001 12:0 13:0 14:0 15:0 16:0 17:1 18:0 19:1 20:0 21:0 22:0 23:0 24:0 25:0 26:0 27:0 28:0 29:0 30:0 31:1 #
-0.050693662450963954 1:1 2:0.5 3:0 4:0 5:0 6:0 7:0 8:1 9:1 10:0 11:0.30000001 12:0 13:0 14:0 15:0 16:0 17:1 18:1 19:0 20:1 21:0 22:0 23:0 24:0 25:0 26:0 27:0 28:1 29:0 30:0 31:0 #
0.050693662450963954 1:0 2:0.95999998 3:1 4:0.02 5:0 6:0 7:0 8:1 9:0 10:0 11:0.1 12:0 13:1 14:0 15:0 16:1 17:1 18:0 19:0 20:0 21:0 22:0 23:0 24:0 25:0 26:0 27:0 28:1 29:0 30:0 31:0 #
0.050693662450963954 1:1 2:0.56 3:0 4:0 5:0 6:1 7:0 8:1 9:0 10:0 11:0.1 12:0 13:0 14:0 15:0 16:0 17:1 18:0 19:1 20:0 21:0 22:0 23:0 24:0 25:0 26:0 27:0 28:0 29:0 30:0 31:1 #
0.050693662450963954 1:1 2:0.69999999 3:0 4:0 5:1 6:1 7:1 8:1 9:0 10:0 11:0.30000001 12:0 13:0 14:0 15:1 16:0 17:1 18:0 19:0 20:0 21:0 22:0 23:0 24:0 25:0 26:0 27:0 28:0 29:0 30:1 31:0 #
-0.050693662450963954 1:1 2:0.40000001 3:0 4:0 5:0 6:0 7:0 8:1 9:0 10:0 11:0.60000002 12:0 13:1 14:0 15:0 16:1 17:1 18:0 19:0 20:1 21:0 22:0 23:0 24:0 25:0 26:0 27:0 28:0 29:0 30:0 31:1 #
0.050693662450963954 1:0 2:1.7 3:1 4:0.02 5:0 6:1 7:0 8:1 9:1 10:0 11:0.1 12:0 13:0 14:0 15:0 16:0 17:1 18:1 19:0 20:0 21:0 22:0 23:0 24:1 25:0 26:0 27:0 28:1 29:0 30:0 31:0 #
0.050693662450963954 1:0 2:1.76 3:1 4:0.02 5:0 6:1 7:0 8:1 9:1 10:0 11:0.1 12:0 13:0 14:0 15:0 16:0 17:1 18:1 19:0 20:1 21:0 22:0 23:0 24:0 25:0 26:0 27:0 28:1 29:0 30:0 31:0 #
-0.050693662450963954 1:1 2:1.0599999 3:0 4:0 5:1 6:1 7:1 8:1 9:1 10:0 11:0.1 12:0 13:0 14:0 15:0 16:0 17:1 18:1 19:0 20:1 21:0 22:0 23:0 24:0 25:0 26:0 27:0 28:1 29:0 30:0 31:0 #
0.050693662450963954 1:1 2:0.74000001 3:0 4:0 5:0 6:0 7:0 8:1 9:0 10:1 11:0.30000001 12:0 13:1 14:0 15:0 16:1 17:1 18:0 19:0 20:0 21:0 22:0 23:0 24:0 25:0 26:0 27:0 28:0 29:0 30:0 31:1 #
-0.050693662450963954 1:1 2:0.38 3:0 4:0 5:0 6:0 7:0 8:1 9:1 10:0 11:0.30000001 12:0 13:1 14:0 15:0 16:1 17:1 18:0 19:0 20:1 21:0 22:0 23:0 24:0 25:0 26:0 27:0 28:1 29:0 30:0 31:0 #
-0.050693662450963954 1:1 2:0.5 3:0 4:0 5:0 6:0 7:0 8:1 9:1 10:0 11:0.1 12:0 13:0 14:0 15:0 16:0 17:1 18:0 19:0 20:1 21:0 22:0 23:0 24:0 25:0 26:0 27:0 28:1 29:0 30:0 31:0 #
-0.050693662450963954 1:1 2:0.68000001 3:0 4:0 5:0 6:0 7:0 8:1 9:1 10:0 11:0.1 12:0 13:0 14:0 15:0 16:0 17:1 18:1 19:0 20:1 21:0 22:0 23:0 24:0 25:0 26:0 27:0 28:1 29:0 30:0 31:0 #
0.050693662450963954 1:1 2:2.02 3:0 4:0 5:0 6:1 7:0 8:1 9:1 10:0 11:0.1 12:0 13:0 14:0 15:0 16:0 17:0 18:0 19:0 20:1 21:0 22:0 23:0 24:1 25:1 26:0 27:0 28:0 29:1 30:0 31:0 #
-0.050693662450963954 1:1 2:0.28 3:0 4:0 5:0 6:1 7:0 8:1 9:1 10:0 11:0.1 12:0 13:0 14:0 15:0 16:1 17:1 18:0 19:1 20:0 21:0 22:0 23:0 24:0 25:0 26:0 27:0 28:1 29:0 30:0 31:0 #
-0.050693662450963954 1:1 2:0.75999999 3:0 4:0 5:0 6:1 7:1 8:1 9:1 10:0 11:0.1 12:1 13:0 14:0 15:0 16:0 17:1 18:0 19:0 20:0 21:0 22:0 23:0 24:0 25:0 26:0 27:0 28:0 29:1 30:0 31:0 #
-0.050693662450963954 1:1 2:0.28 3:0 4:0 5:0 6:0 7:0 8:1 9:1 10:0 11:0.1 12:0 13:1 14:0 15:0 16:0 17:1 18:0 19:0 20:1 21:0 22:0 23:0 24:0 25:0 26:0 27:0 28:1 29:0 30:0 31:0 #
-0.050693662450963954 1:1 2:0.68000001 3:0 4:0 5:0 6:1 7:0 8:1 9:1 10:0 11:0.1 12:0 13:0 14:0 15:0 16:0 17:1 18:0 19:0 20:1 21:0 22:0 23:0 24:0 25:0 26:0 27:0 28:1 29:0 30:0 31:0 #
0.050693662450963954 1:1 2:1.1799999 3:0 4:0 5:0 6:1 7:1 8:1 9:1 10:0 11:0.40000001 12:0 13:0 14:0 15:0 16:0 17:1 18:1 19:0 20:1 21:0 22:0 23:0 24:0 25:0 26:0 27:0 28:1 29:0 30:0 31:0 #
-0.050693662450963954 1:1 2:0.95999998 3:0 4:0 5:0 6:0 7:0 8:1 9:1 10:0 11:0.80000001 12:0 13:0 14:0 15:0 16:0 17:1 18:0 19:1 20:0 21:0 22:0 23:0 24:0 25:1 26:0 27:0 28:1 29:0 30:0 31:0 #
0.050693662450963954 1:1 2:1.8 3:0 4:0 5:0 6:0 7:0 8:1 9:1 10:0 11:0.40000001 12:0 13:0 14:0 15:0 16:0 17:1 18:1 19:0 20:1 21:0 22:0 23:0 24:0 25:0 26:0 27:0 28:1 29:0 30:0 31:0 #
0.050693662450963954 1:1 2:1.84 3:0 4:0 5:0 6:0 7:0 8:1 9:1 10:0 11:0.89999998 12:0 13:0 14:0 15:0 16:0 17:1 18:1 19:0 20:0 21:0 22:0 23:0 24:0 25:0 26:0 27:0 28:1 29:0 30:0 31:0 #
0.050693662450963954 1:1 2:0.89999998 3:0 4:0 5:0 6:0 7:0 8:1 9:0 10:0 11:0.40000001 12:0 13:1 14:0 15:1 16:1 17:1 18:0 19:0 20:0 21:0 22:0 23:0 24:0 25:0 26:0 27:0 28:1 29:0 30:0 31:0 #
-0.050693662450963954 1:1 2:0.41999999 3:0 4:0 5:0 6:1 7:0 8:1 9:1 10:0 11:0.1 12:0 13:0 14:0 15:0 16:0 17:1 18:1 19:0 20:1 21:0 22:0 23:0 24:0 25:0 26:0 27:0 28:1 29:0 30:0 31:0 #
0.050693662450963954 1:1 2:0.95999998 3:0 4:0 5:0 6:1 7:0 8:1 9:1 10:0 11:0.1 12:1 13:0 14:0 15:0 16:0 17:1 18:0 19:0 20:1 21:0 22:0 23:0 24:0 25:0 26:0 27:0 28:1 29:0 30:0 31:0 #
-0.050693662450963954 1:1 2:0.60000002 3:0 4:0 5:0 6:1 7:0 8:1 9:1 10:0 11:0.1 12:0 13:0 14:0 15:0 16:0 17:1 18:1 19:0 20:1 21:0 22:0 23:0 24:0 25:0 26:0 27:0 28:1 29:0 30:0 31:0 #
0.050693662450963954 1:1 2:0.54000002 3:0 4:0 5:0 6:1 7:1 8:1 9:1 10:0 11:0.2 12:0 13:0 14:0 15:0 16:0 17:1 18:0 19:0 20:0 21:0 22:0 23:0 24:0 25:0 26:0 27:0 28:1 29:0 30:0 31:0 #
0.050693662450963954 1:1 2:1.02 3:0 4:0 5:0 6:1 7:0 8:1 9:1 10:0 11:0.1 12:0 13:0 14:0 15:0 16:0 17:1 18:1 19:0 20:1 21:0 22:0 23:0 24:0 25:0 26:0 27:0 28:0 29:1 30:0 31:0 #
-0.050693662450963954 1:1 2:0.23999999 3:0 4:0 5:0 6:0 7:0 8:1 9:1 10:0 11:0.40000001 12:0 13:1 14:0 15:0 16:1 17:1 18:0 19:0 20:1 21:0 22:0 23:0 24:0 25:0 26:0 27:0 28:1 29:0 30:0 31:0 #
0.050693662450963954 1:1 2:0.98000002 3:0 4:0 5:0 6:1 7:0 8:1 9:1 10:0 11:0.1 12:0 13:0 14:0 15:0 16:0 17:1 18:0 19:0 20:0 21:0 22:0 23:0 24:0 25:0 26:0 27:0 28:1 29:0 30:0 31:0 #
0.050693662450963954 1:1 2:0.62 3:0 4:0 5:0 6:0 7:0 8:1 9:1 10:0 11:0.60000002 12:0 13:1 14:0 15:0 16:1 17:1 18:0 19:0 20:1 21:0 22:0 23:0 24:0 25:0 26:0 27:0 28:1 29:0 30:0 31:0 #
0.050693662450963954 1:1 2:1.76 3:0 4:0 5:0 6:0 7:0 8:1 9:1 10:0 11:0.5 12:1 13:0 14:0 15:0 16:0 17:1 18:0 19:0 20:1 21:0 22:0 23:0 24:0 25:0 26:0 27:0 28:1 29:0 30:0 31:0 #
0.050693662450963954 1:1 2:0.72000003 3:0 4:0 5:0 6:0 7:0 8:1 9:1 10:0 11:0.30000001 12:0 13:1 14:0 15:0 16:1 17:1 18:0 19:0 20:1 21:0 22:0 23:0 24:0 25:0 26:0 27:0 28:1 29:0 30:0 31:0 #
-0.050693662450963954 1:1 2:0.46000001 3:0 4:0 5:0 6:0 7:0 8:1 9:1 10:0 11:0.1 12:0 13:1 14:0 15:0 16:0 17:1 18:0 19:0 20:1 21:0 22:0 23:0 24:0 25:0 26:0 27:0 28:1 29:0 30:0 31:0 #
0.050693662450963954 1:1 2:0.66000003 3:0 4:0 5:0 6:0 7:0 8:1 9:1 10:0 11:0.1 12:0 13:1 14:0 15:0 16:0 17:1 18:0 19:0 20:1 21:0 22:0 23:0 24:0 25:0 26:0 27:0 28:1 29:0 30:0 31:0 #
-0.050693662450963954 1:1 2:1.4400001 3:0 4:0 5:0 6:1 7:0 8:1 9:1 10:0 11:0.1 12:0 13:0 14:0 15:0 16:0 17:1 18:0 19:0 20:1 21:0 22:0 23:0 24:0 25:0 26:0 27:0 28:1 29:0 30:0 31:0 #
0.050693662450963954 1:1 2:1.9400001 3:0 4:0 5:0 6:1 7:1 8:1 9:1 10:0 11:0.30000001 12:0 13:0 14:0 15:0 16:0 17:1 18:0 19:0 20:1 21:0 22:0 23:0 24:0 25:1 26:0 27:0 28:1 29:0 30:0 31:0 #
0.050693662450963954 1:1 2:0.80000001 3:0 4:0 5:0 6:1 7:0 8:1 9:1 10:0 11:0.1 12:0 13:0 14:0 15:0 16:0 17:1 18:0 19:0 20:1 21:0 22:0 23:0 24:0 25:0 26:0 27:0 28:1 29:0 30:0 31:0 #
-0.050693662450963954 1:1 2:0.83999997 3:0 4:0 5:0 6:1 7:0 8:1 9:1 10:0 11:0.1 12:0 13:0 14:0 15:0 16:0 17:1 18:1 19:1 20:1 21:0 22:0 23:0 24:0 25:0 26:0 27:0 28:1 29:0 30:0 31:0 #
-0.050693662450963954 1:1 2:1.96 3:0 4:0 5:0 6:1 7:0 8:1 9:1 10:0 11:0.1 12:0 13:0 14:0 15:0 16:0 17:1 18:0 19:0 20:1 21:0 22:0 23:0 24:0 25:0 26:0 27:0 28:1 29:0 30:0 31:0 #
0.050693662450963954 1:1 2:1.3 3:0 4:0 5:0 6:1 7:0 8:1 9:1 10:0 11:0.1 12:0 13:0 14:0 15:0 16:0 17:0 18:1 19:1 20:0 21:0 22:0 23:0 24:0 25:0 26:0 27:0 28:1 29:0 30:0 31:0 #
-0.050693662450963954 1:0 2:0.80000001 3:1 4:0.02 5:0 6:0 7:0 8:1 9:1 10:0 11:0.1 12:0 13:0 14:0 15:0 16:0 17:1 18:1 19:0 20:1 21:0 22:0 23:0 24:0 25:0 26:0 27:0 28:1 29:0 30:0 31:0 #
0.050693662450963954 1:1 2:1.66 3:0 4:0 5:0 6:1 7:0 8:1 9:1 10:0 11:0.30000001 12:0 13:1 14:1 15:0 16:0 17:1 18:0 19:0 20:0 21:0 22:0 23:0 24:0 25:1 26:0 27:0 28:1 29:0 30:0 31:0 #
0.050693662450963954 1:1 2:0.51999998 3:0 4:0 5:0 6:1 7:0 8:1 9:1 10:0 11:0.1 12:0 13:0 14:0 15:0 16:0 17:1 18:0 19:0 20:0 21:0 22:0 23:0 24:0 25:0 26:0 27:0 28:1 29:0 30:0 31:0 #
0.050693662450963954 1:1 2:0.75999999 3:0 4:0 5:0 6:1 7:0 8:1 9:1 10:0 11:0.1 12:0 13:0 14:0 15:1 16:0 17:1 18:1 19:0 20:1 21:0 22:0 23:0 24:0 25:0 26:0 27:0 28:1 29:0 30:0 31:0 #
-0.04910740052829158 1:1 2:4.5 3:0 4:0 5:0 6:1 7:0 8:1 9:1 10:0 11:0.1 12:0 13:1 14:0 15:0 16:0 17:1 18:0 19:0 20:0 21:0 22:0 23:0 24:0 25:1 26:0 27:0 28:0 29:0 30:1 31:0 #
0.050693662450963954 1:0 2:20.18 3:0 4:0.1 5:0 6:0 7:0 8:1 9:0 10:0 11:0.60000002 12:0 13:0 14:0 15:1 16:0 17:1 18:0 19:0 20:0 21:0 22:0 23:0 24:0 25:0 26:0 27:0 28:0 29:0 30:0 31:1 #
-0.031677211514581083 1:0 2:6.4400001 3:0 4:0.059999999 5:0 6:1 7:0 8:1 9:1 10:0 11:0.1 12:0 13:0 14:0 15:0 16:0 17:1 18:1 19:0 20:1 21:0 22:0 23:0 24:0 25:1 26:0 27:0 28:1 29:0 30:0 31:0 #
-0.050693662450963954 1:0 2:1.62 3:1 4:0.02 5:0 6:0 7:0 8:1 9:0 10:1 11:0.1 12:1 13:0 14:0 15:0 16:0 17:0 18:0 19:0 20:0 21:0 22:0 23:0 24:0 25:1 26:0 27:0 28:0 29:0 30:0 31:1 #
-0.050693662450963954 1:1 2:0.18000001 3:0 4:0 5:0 6:0 7:0 8:1 9:1 10:0 11:18.200001 12:0 13:1 14:0 15:0 16:1 17:1 18:0 19:0 20:1 21:0 22:0 23:0 24:0 25:0 26:0 27:0 28:0 29:0 30:1 31:0 #
-0.050693662450963954 1:0 2:3.1400001 3:1 4:0.02 5:0 6:0 7:0 8:1 9:1 10:0 11:8.5 12:1 13:0 14:0 15:0 16:1 17:1 18:0 19:0 20:1 21:0 22:0 23:0 24:0 25:0 26:0 27:0 28:0 29:1 30:0 31:0 #
-0.050693662450963954 1:0 2:3.7 3:1 4:0.02 5:0 6:0 7:0 8:1 9:1 10:0 11:8.5 12:0 13:0 14:0 15:0 16:0 17:1 18:1 19:0 20:1 21:0 22:0 23:0 24:0 25:0 26:0 27:0 28:0 29:1 30:0 31:0 #
0.050693662450963954 1:1 2:0.86000001 3:0 4:0 5:0 6:1 7:0 8:1 9:1 10:0 11:0.1 12:0 13:1 14:0 15:0 16:0 17:1 18:0 19:0 20:0 21:0 22:0 23:0 24:0 25:0 26:0 27:0 28:0 29:0 30:1 31:0 #
-0.050693662450963954 1:0 2:0.30000001 3:1 4:0.02 5:0 6:0 7:0 8:1 9:1 10:0 11:7.9000001 12:0 13:0 14:0 15:0 16:1 17:1 18:0 19:0 20:0 21:0 22:0 23:0 24:0 25:0 26:0 27:0 28:1 29:0 30:0 31:0 #
-0.050693662450963954 1:1 2:1.8200001 3:0 4:0 5:0 6:0 7:0 8:1 9:1 10:0 11:7.9000001 12:0 13:1 14:0 15:0 16:1 17:1 18:0 19:0 20:0 21:0 22:0 23:0 24:0 25:0 26:0 27:0 28:1 29:0 30:0 31:0 #
-0.050693662450963954 1:0 2:0.88 3:1 4:0.02 5:0 6:1 7:0 8:1 9:1 10:0 11:8.5 12:1 13:0 14:0 15:0 16:1 17:1 18:0 19:0 20:1 21:0 22:0 23:0 24:0 25:0 26:0 27:0 28:1 29:0 30:0 31:0 #
-0.050693662450963954 1:1 2:1.34 3:0 4:0 5:0 6:1 7:0 8:1 9:1 10:0 11:0.1 12:0 13:0 14:0 15:0 16:0 17:1 18:0 19:0 20:0 21:0 22:0 23:0 24:1 25:0 26:0 27:0 28:0 29:1 30:0 31:0 #
0.050693662450963954 1:1 2:0.38 3:0 4:0 5:0 6:1 7:0 8:1 9:1 10:0 11:0.69999999 12:1 13:0 14:0 15:0 16:0 17:1 18:0 19:0 20:0 21:0 22:0 23:0 24:0 25:1 26:0 27:0 28:0 29:0 30:1 31:0 #
0.050693662450963954 1:0 2:3.1199999 3:1 4:0.02 5:0 6:0 7:0 8:1 9:0 10:0 11:3.3 12:0 13:0 14:0 15:1 16:0 17:1 18:0 19:0 20:0 21:0 22:0 23:0 24:0 25:0 26:1 27:1 28:1 29:0 30:0 31:0 #
-0.050693662450963954 1:0 2:2.8800001 3:1 4:0.02 5:0 6:0 7:0 8:1 9:0 10:0 11:50.900002 12:0 13:0 14:0 15:0 16:0 17:1 18:0 19:0 20:0 21:0 22:0 23:0 24:0 25:1 26:0 27:0 28:1 29:0 30:0 31:0 #
0.050693662450963954 1:0 2:1.24 3:1 4:0.02 5:0 6:0 7:0 8:1 9:0 10:0 11:0.40000001 12:0 13:1 14:0 15:1 16:1 17:1 18:0 19:0 20:0 21:0 22:0 23:0 24:0 25:0 26:0 27:0 28:1 29:0 30:0 31:0 #
-0.050693662450963954 1:1 2:0.69999999 3:0 4:0 5:0 6:0 7:0 8:1 9:0 10:1 11:0.1 12:0 13:0 14:0 15:0 16:0 17:1 18:0 19:0 20:0 21:0 22:0 23:0 24:0 25:0 26:0 27:0 28:0 29:0 30:0 31:1 #
-0.050693662450963954 1:0 2:1.24 3:1 4:0.02 5:0 6:1 7:0 8:1 9:1 10:0 11:0.1 12:0 13:0 14:0 15:0 16:0 17:0 18:1 19:0 20:1 21:0 22:0 23:0 24:0 25:0 26:0 27:0 28:1 29:0 30:0 31:0 #
0.050693662450963954 1:1 2:0.36000001 3:0 4:0 5:0 6:0 7:0 8:1 9:1 10:0 11:0.1 12:0 13:1 14:0 15:0 16:1 17:1 18:0 19:0 20:0 21:0 22:0 23:0 24:0 25:0 26:0 27:0 28:1 29:0 30:0 31:0 #
-0.050693662450963954 1:1 2:0.62 3:0 4:0 5:0 6:0 7:0 8:1 9:1 10:0 11:0.2 12:0 13:0 14:0 15:0 16:0 17:1 18:1 19:0 20:0 21:0 22:0 23:0 24:0 25:1 26:0 27:0 28:0 29:1 30:0 31:0 #
0.050693662450963954 1:0 2:0.41999999 3:1 4:0.02 5:0 6:1 7:0 8:1 9:1 10:0 11:0.40000001 12:0 13:0 14:0 15:0 16:0 17:1 18:1 19:0 20:1 21:0 22:0 23:0 24:0 25:0 26:0 27:0 28:1 29:0 30:0 31:0 #
0.050693662450963954 1:0 2:1.26 3:1 4:0.02 5:0 6:0 7:0 8:1 9:0 10:0 11:0.2 12:0 13:1 14:0 15:1 16:1 17:1 18:0 19:0 20:0 21:0 22:0 23:0 24:0 25:0 26:0 27:0 28:1 29:0 30:0 31:0 #
-0.050693662450963954 1:1 2:0.34 3:0 4:0 5:0 6:0 7:0 8:1 9:0 10:0 11:0.69999999 12:1 13:0 14:0 15:0 16:0 17:1 18:0 19:0 20:0 21:0 22:0 23:0 24:0 25:1 26:0 27:0 28:1 29:0 30:0 31:0 #
0.050693662450963954 1:0 2:3.9000001 3:1 4:0.02 5:0 6:1 7:0 8:1 9:1 10:0 11:0.1 12:1 13:0 14:0 15:0 16:0 17:1 18:0 19:0 20:1 21:0 22:0 23:0 24:0 25:0 26:0 27:0 28:1 29:0 30:0 31:0 #
-0.050693662450963954 1:0 2:0.83999997 3:1 4:0.02 5:0 6:1 7:0 8:1 9:0 10:1 11:0.1 12:0 13:0 14:0 15:0 16:0 17:1 18:0 19:0 20:0 21:0 22:0 23:0 24:1 25:0 26:0 27:0 28:0 29:0 30:0 31:1 #
-0.050693662450963954 1:1 2:0.62 3:0 4:0 5:0 6:1 7:0 8:1 9:1 10:0 11:0.1 12:0 13:1 14:0 15:0 16:0 17:1 18:0 19:0 20:0 21:0 22:0 23:0 24:0 25:0 26:0 27:0 28:0 29:0 30:1 31:0 #
-0.050693662450963954 1:0 2:1.0599999 3:1 4:0.02 5:0 6:0 7:0 8:1 9:0 10:0 11:0.89999998 12:1 13:0 14:0 15:1 16:1 17:1 18:0 19:0 20:0 21:0 22:0 23:0 24:0 25:0 26:0 27:1 28:1 29:0 30:0 31:0 #
-0.050693662450963954 1:0 2:0.51999998 3:1 4:0.02 5:0 6:0 7:0 8:1 9:0 10:0 11:1.9 12:1 13:0 14:0 15:1 16:1 17:1 18:0 19:0 20:0 21:0 22:0 23:0 24:0 25:0 26:0 27:0 28:1 29:0 30:0 31:0 #
0.023495825181111568 1:1 2:1.02 3:0 4:0 5:0 6:0 7:0 8:1 9:1 10:0 11:0.1 12:1 13:0 14:0 15:0 16:0 17:1 18:0 19:0 20:1 21:0 22:0 23:0 24:0 25:0 26:0 27:0 28:0 29:1 30:0 31:0 #
0.050693662450963954 1:1 2:1.04 3:0 4:0 5:0 6:1 7:0 8:1 9:1 10:0 11:0.1 12:0 13:1 14:0 15:0 16:0 17:1 18:1 19:0 20:1 21:0 22:0 23:0 24:0 25:1 26:0 27:0 28:0 29:1 30:0 31:0 #
-0.050693662450963954 1:1 2:0.18000001 3:0 4:0 5:0 6:0 7:0 8:1 9:1 10:0 11:18.200001 12:0 13:1 14:0 15:0 16:1 17:1 18:0 19:0 20:1 21:0 22:0 23:0 24:0 25:0 26:0 27:0 28:0 29:0 30:1 31:0 #
0.050693662450963954 1:0 2:1.36 3:1 4:0.02 5:1 6:0 7:0 8:1 9:1 10:0 11:0.1 12:0 13:0 14:0 15:0 16:0 17:1 18:1 19:1 20:0 21:0 22:0 23:0 24:0 25:1 26:0 27:0 28:1 29:0 30:0 31:0 #
0.050693662450963954 1:1 2:1 3:0 4:0 5:0 6:1 7:0 8:1 9:1 10:0 11:0.1 12:0 13:0 14:0 15:0 16:0 17:1 18:1 19:1 20:0 21:0 22:0 23:0 24:0 25:1 26:0 27:0 28:0 29:1 30:0 31:0 #
-0.050693662450963954 1:0 2:0.66000003 3:1 4:0.02 5:0 6:0 7:0 8:1 9:1 10:0 11:0.1 12:0 13:0 14:0 15:0 16:0 17:0 18:0 19:0 20:1 21:0 22:0 23:0 24:0 25:1 26:0 27:0 28:1 29:0 30:0 31:0 #
-0.050693662450963954 1:1 2:0.95999998 3:0 4:0 5:0 6:1 7:0 8:1 9:1 10:0 11:0.2 12:0 13:0 14:0 15:0 16:0 17:1 18:1 19:0 20:0 21:0 22:0 23:0 24:0 25:1 26:0 27:0 28:0 29:0 30:1 31:0 #
0.050693662450963954 1:0 2:1.66 3:1 4:0.02 5:0 6:0 7:0 8:1 9:1 10:0 11:10.5 12:1 13:0 14:0 15:0 16:1 17:1 18:0 19:0 20:0 21:0 22:0 23:0 24:0 25:0 26:0 27:0 28:1 29:0 30:0 31:0 #
0.050693662450963954 1:1 2:0.62 3:0 4:0 5:0 6:0 7:0 8:1 9:0 10:1 11:0.2 12:1 13:0 14:0 15:0 16:1 17:1 18:0 19:0 20:0 21:0 22:0 23:0 24:0 25:0 26:0 27:0 28:0 29:0 30:0 31:1 #
-0.050693662450963954 1:1 2:1.1 3:0 4:0 5:0 6:0 7:0 8:1 9:0 10:0 11:0.1 12:1 13:0 14:0 15:0 16:1 17:1 18:0 19:0 20:0 21:0 22:0 23:0 24:0 25:0 26:0 27:0 28:1 29:0 30:0 31:0 #
0.050693662450963954 1:1 2:0.38 3:0 4:0 5:0 6:0 7:0 8:1 9:0 10:1 11:0.2 12:1 13:0 14:0 15:0 16:1 17:1 18:0 19:0 20:0 21:0 22:0 23:0 24:0 25:0 26:0 27:0 28:0 29:0 30:0 31:1 #
-0.050693662450963954 1:0 2:1.9400001 3:1 4:0.02 5:0 6:0 7:0 8:1 9:0 10:0 11:0.1 12:1 13:0 14:0 15:0 16:0 17:1 18:0 19:0 20:0 21:0 22:0 23:0 24:0 25:0 26:0 27:0 28:0 29:0 30:0 31:1 #
-0.050693662450963954 1:0 2:0.75999999 3:1 4:0.02 5:0 6:0 7:0 8:1 9:1 10:0 11:0.2 12:1 13:0 14:0 15:0 16:0 17:1 18:0 19:0 20:0 21:0 22:0 23:0 24:1 25:1 26:0 27:0 28:1 29:0 30:0 31:0 #
-0.050693662450963954 1:1 2:1.1799999 3:0 4:0 5:0 6:0 7:0 8:1 9:1 10:0 11:0.2 12:0 13:0 14:0 15:0 16:0 17:1 18:1 19:1 20:0 21:0 22:0 23:0 24:0 25:1 26:0 27:0 28:0 29:1 30:0 31:0 #
-0.050693662450963954 1:1 2:0.30000001 3:0 4:0 5:0 6:1 7:0 8:1 9:1 10:0 11:0.1 12:0 13:0 14:0 15:0 16:0 17:1 18:1 19:1 20:0 21:0 22:0 23:0 24:0 25:1 26:0 27:0 28:0 29:1 30:0 31:0 #
-0.050693662450963954 1:1 2:0.54000002 3:0 4:0 5:0 6:0 7:0 8:1 9:1 10:0 11:0.1 12:0 13:0 14:0 15:0 16:0 17:1 18:1 19:0 20:0 21:0 22:0 23:0 24:0 25:1 26:0 27:0 28:0 29:1 30:0 31:0 #
-0.050693662450963954 1:1 2:0.47999999 3:0 4:0 5:0 6:1 7:0 8:1 9:1 10:0 11:0.2 12:1 13:0 14:0 15:0 16:0 17:1 18:0 19:0 20:0 21:0 22:0 23:0 24:0 25:1 26:0 27:0 28:0 29:1 30:0 31:0 #
-0.050693662450963954 1:1 2:3.0799999 3:0 4:0 5:0 6:0 7:0 8:1 9:1 10:0 11:0.1 12:1 13:0 14:0 15:1 16:0 17:1 18:0 19:0 20:0 21:0 22:0 23:0 24:1 25:0 26:0 27:0 28:1 29:0 30:0 31:0 #
0.050693662450963954 1:1 2:0.66000003 3:0 4:0 5:0 6:0 7:0 8:1 9:1 10:0 11:2.0999999 12:1 13:0 14:0 15:0 16:1 17:1 18:0 19:0 20:0 21:0 22:0 23:0 24:0 25:0 26:0 27:0 28:1 29:0 30:0 31:0 #
-0.050693662450963954 1:0 2:1.64 3:1 4:0.02 5:0 6:0 7:0 8:1 9:1 10:0 11:0.1 12:0 13:0 14:0 15:0 16:0 17:1 18:0 19:0 20:1 21:0 22:0 23:0 24:0 25:1 26:0 27:0 28:0 29:0 30:1 31:0 #
-0.050693662450963954 1:0 2:0.72000003 3:1 4:0.02 5:0 6:0 7:0 8:1 9:1 10:0 11:0.1 12:0 13:0 14:0 15:1 16:0 17:1 18:0 19:0 20:0 21:0 22:0 23:0 24:0 25:0 26:1 27:1 28:1 29:0 30:0 31:0 #
0.050693662450963954 1:1 2:2.8399999 3:0 4:0 5:0 6:1 7:1 8:1 9:1 10:0 11:0.30000001 12:1 13:0 14:0 15:0 16:0 17:1 18:0 19:0 20:1 21:0 22:0 23:0 24:0 25:0 26:0 27:0 28:1 29:0 30:0 31:0 #
-0.050693662450963954 1:1 2:0.60000002 3:0 4:0 5:0 6:0 7:0 8:1 9:0 10:1 11:0.40000001 12:0 13:1 14:0 15:0 16:1 17:1 18:0 19:0 20:0 21:0 22:0 23:0 24:0 25:0 26:0 27:0 28:0 29:0 30:0 31:1 #
-0.050693662450963954 1:0 2:2.22 3:1 4:0.02 5:0 6:1 7:0 8:1 9:1 10:0 11:0.1 12:1 13:0 14:0 15:1 16:0 17:0 18:0 19:0 20:0 21:0 22:0 23:0 24:0 25:0 26:0 27:0 28:1 29:0 30:0 31:0 #
0.050693662450963954 1:0 2:2.0799999 3:1 4:0.02 5:0 6:0 7:0 8:1 9:1 10:0 11:0.1 12:0 13:0 14:0 15:0 16:0 17:1 18:0 19:0 20:0 21:0 22:0 23:0 24:0 25:0 26:0 27:0 28:1 29:0 30:0 31:0 #
0.050693662450963954 1:1 2:0.2 3:0 4:0 5:0 6:0 7:0 8:1 9:1 10:0 11:1.5 12:1 13:0 14:0 15:0 16:1 17:1 18:0 19:0 20:1 21:0 22:0 23:0 24:0 25:0 26:0 27:0 28:1 29:0 30:0 31:0 #
-0.050693662450963954 1:1 2:0.36000001 3:0 4:0 5:0 6:0 7:0 8:1 9:1 10:0 11:5.9000001 12:0 13:0 14:0 15:0 16:0 17:1 18:1 19:0 20:0 21:0 22:0 23:0 24:0 25:0 26:0 27:0 28:1 29:0 30:0 31:0 #
-0.050693662450963954 1:1 2:0.89999998 3:0 4:0 5:0 6:0 7:0 8:1 9:1 10:0 11:5.9000001 12:0 13:0 14:0 15:0 16:1 17:1 18:0 19:1 20:0 21:0 22:0 23:0 24:0 25:0 26:0 27:0 28:1 29:0 30:0 31:0 #
-0.050693662450963954 1:0 2:2.4000001 3:1 4:0.02 5:0 6:0 7:0 8:1 9:0 10:0 11:5.0999999 12:1 13:0 14:0 15:0 16:1 17:1 18:0 19:0 20:0 21:0 22:0 23:0 24:0 25:1 26:0 27:0 28:1 29:0 30:0 31:0 #
-0.050693662450963954 1:0 2:2.3399999 3:0 4:0.039999999 5:0 6:0 7:0 8:1 9:1 10:0 11:0.1 12:1 13:0 14:0 15:0 16:0 17:1 18:0 19:0 20:0 21:0 22:0 23:0 24:0 25:1 26:0 27:0 28:1 29:0 30:0 31:0 #
-0.050693662450963954 1:1 2:0.41999999 3:0 4:0 5:0 6:0 7:0 8:1 9:0 10:0 11:1.1 12:0 13:1 14:0 15:1 16:1 17:1 18:0 19:0 20:0 21:0 22:0 23:0 24:0 25:0 26:0 27:0 28:0 29:0 30:0 31:1 #
-0.050693662450963954 1:1 2:0.30000001 3:0 4:0 5:0 6:0 7:0 8:1 9:0 10:1 11:0.30000001 12:0 13:1 14:0 15:0 16:1 17:1 18:0 19:0 20:0 21:0 22:0 23:0 24:0 25:0 26:0 27:0 28:0 29:0 30:0 31:1 #
-0.050693662450963954 1:1 2:0.56 3:0 4:0 5:0 6:1 7:1 8:1 9:0 10:0 11:0.30000001 12:0 13:1 14:0 15:1 16:1 17:1 18:0 19:0 20:0 21:0 22:0 23:0 24:0 25:0 26:0 27:0 28:0 29:0 30:0 31:1 #
-0.050693662450963954 1:1 2:0.51999998 3:0 4:0 5:0 6:1 7:0 8:1 9:0 10:0 11:1.1 12:0 13:1 14:0 15:1 16:1 17:1 18:0 19:0 20:0 21:0 22:0 23:0 24:0 25:0 26:0 27:0 28:0 29:0 30:0 31:1 #
0.050693662450963954 1:0 2:2.6600001 3:1 4:0.02 5:0 6:0 7:0 8:1 9:1 10:0 11:0.5 12:0 13:0 14:0 15:0 16:0 17:1 18:1 19:0 20:0 21:0 22:0 23:0 24:0 25:0 26:0 27:0 28:1 29:0 30:0 31:0 #
0.050693662450963954 1:0 2:1.86 3:1 4:0.02 5:1 6:1 7:0 8:1 9:1 10:0 11:0.1 12:0 13:0 14:0 15:0 16:0 17:1 18:1 19:0 20:0 21:0 22:0 23:0 24:0 25:1 26:0 27:0 28:1 29:0 30:0 31:0 #
0.050693662450963954 1:0 2:1.28 3:1 4:0.02 5:0 6:1 7:0 8:1 9:1 10:0 11:0.1 12:0 13:0 14:0 15:0 16:0 17:1 18:1 19:1 20:0 21:0 22:0 23:0 24:0 25:1 26:0 27:0 28:1 29:0 30:0 31:0 #
0.050693662450963954 1:0 2:2.3599999 3:1 4:0.02 5:0 6:1 7:0 8:1 9:1 10:0 11:0.1 12:0 13:0 14:0 15:0 16:0 17:1 18:1 19:0 20:0 21:0 22:0 23:0 24:0 25:1 26:0 27:0 28:0 29:0 30:1 31:0 #
0.050693662450963954 1:1 2:2.72 3:0 4:0 5:0 6:0 7:0 8:1 9:0 10:0 11:0.69999999 12:0 13:0 14:0 15:1 16:0 17:1 18:0 19:0 20:0 21:0 22:0 23:0 24:0 25:0 26:1 27:1 28:1 29:0 30:0 31:0 #
0.050693662450963954 1:1 2:0.28 3:0 4:0 5:0 6:0 7:0 8:1 9:0 10:0 11:0.5 12:0 13:0 14:0 15:1 16:1 17:1 18:0 19:0 20:0 21:0 22:0 23:0 24:0 25:0 26:0 27:0 28:0 29:0 30:0 31:1 #
-0.050693662450963954 1:1 2:0.28 3:0 4:0 5:0 6:1 7:0 8:1 9:0 10:0 11:0.1 12:0 13:0 14:0 15:0 16:0 17:1 18:1 19:0 20:0 21:0 22:0 23:0 24:0 25:0 26:0 27:0 28:0 29:0 30:0 31:1 #
0.050693662450963954 1:1 2:0.69999999 3:0 4:0 5:0 6:0 7:0 8:1 9:0 10:0 11:0.60000002 12:0 13:1 14:0 15:1 16:1 17:1 18:0 19:0 20:0 21:0 22:0 23:0 24:0 25:0 26:0 27:0 28:1 29:0 30:0 31:0 #
-0.050693662450963954 1:0 2:0.60000002 3:1 4:0.02 5:1 6:0 7:0 8:1 9:1 10:0 11:0.1 12:0 13:0 14:0 15:0 16:0 17:1 18:1 19:0 20:1 21:0 22:0 23:0 24:0 25:0 26:0 27:0 28:1 29:0 30:0 31:0 #
0.050693662450963954 1:0 2:2.0599999 3:1 4:0.02 5:0 6:0 7:0 8:1 9:0 10:0 11:2.0999999 12:1 13:0 14:0 15:1 16:1 17:1 18:0 19:0 20:0 21:0 22:0 23:0 24:0 25:0 26:0 27:0 28:0 29:1 30:0 31:0 #
-0.050693662450963954 1:1 2:0.75999999 3:0 4:0 5:0 6:0 7:0 8:1 9:0 10:1 11:0.1 12:0 13:0 14:0 15:0 16:0 17:1 18:0 19:0 20:0 21:0 22:0 23:0 24:0 25:0 26:0 27:0 28:0 29:0 30:0 31:1 #
-0.050693662450963954 1:1 2:0.36000001 3:0 4:0 5:0 6:1 7:0 8:1 9:1 10:0 11:0.1 12:0 13:0 14:0 15:0 16:0 17:1 18:1 19:0 20:0 21:0 22:0 23:0 24:0 25:1 26:0 27:0 28:0 29:0 30:1 31:0 #
-0.050693662450963954 1:1 2:0.30000001 3:0 4:0 5:0 6:1 7:0 8:1 9:1 10:0 11:0.1 12:0 13:0 14:0 15:0 16:0 17:1 18:1 19:0 20:0 21:0 22:0 23:0 24:0 25:1 26:0 27:0 28:1 29:0 30:0 31:0 #
0.050693662450963954 1:1 2:2.72 3:0 4:0 5:0 6:0 7:0 8:1 9:1 10:0 11:1.9 12:1 13:0 14:0 15:0 16:1 17:1 18:0 19:0 20:1 21:0 22:0 23:0 24:0 25:0 26:0 27:0 28:1 29:0 30:0 31:0 #
-0.050693662450963954 1:0 2:3.0799999 3:1 4:0.02 5:0 6:0 7:0 8:1 9:1 10:0 11:5.9000001 12:1 13:0 14:0 15:0 16:1 17:1 18:0 19:1 20:0 21:0 22:0 23:0 24:0 25:0 26:0 27:0 28:1 29:0 30:0 31:0 #
-0.050693662450963954 1:1 2:1.12 3:0 4:0 5:0 6:0 7:0 8:1 9:1 10:0 11:4.1999998 12:0 13:0 14:0 15:0 16:0 17:1 18:1 19:0 20:0 21:0 22:0 23:0 24:0 25:0 26:0 27:0 28:0 29:0 30:1 31:0 #
-0.050693662450963954 1:0 2:0.36000001 3:1 4:0.02 5:0 6:1 7:0 8:1 9:1 10:0 11:1.8 12:0 13:0 14:0 15:0 16:0 17:1 18:1 19:0 20:0 21:0 22:0 23:0 24:0 25:1 26:0 27:0 28:0 29:0 30:1 31:0 #
-0.050693662450963954 1:0 2:16.58 3:0 4:0.079999998 5:0 6:0 7:0 8:1 9:0 10:1 11:3.5 12:1 13:0 14:0 15:0 16:0 17:1 18:0 19:0 20:0 21:0 22:0 23:0 24:0 25:1 26:0 27:0 28:0 29:0 30:0 31:1 #
-0.050693662450963954 1:1 2:0.25999999 3:0 4:0 5:0 6:1 7:0 8:1 9:0 10:0 11:0.2 12:0 13:0 14:0 15:0 16:0 17:1 18:0 19:0 20:0 21:0 22:0 23:0 24:0 25:1 26:0 27:0 28:0 29:0 30:0 31:1 #
-0.050693662450963954 1:1 2:0.23999999 3:0 4:0 5:0 6:1 7:1 8:1 9:0 10:0 11:0.1 12:1 13:0 14:0 15:0 16:0 17:1 18:0 19:0 20:0 21:0 22:0 23:0 24:0 25:0 26:0 27:0 28:1 29:0 30:0 31:0 #
-0.031977286079051592 1:1 2:1.28 3:0 4:0 5:0 6:0 7:0 8:1 9:1 10:0 11:0.1 12:0 13:0 14:0 15:0 16:0 17:1 18:1 19:0 20:0 21:0 22:0 23:0 24:0 25:1 26:0 27:0 28:0 29:1 30:0 31:0 #
-0.037448483398549323 1:1 2:0.54000002 3:0 4:0 5:0 6:0 7:0 8:1 9:0 10:0 11:0.60000002 12:0 13:1 14:0 15:1 16:1 17:1 18:0 19:0 20:0 21:0 22:0 23:0 24:0 25:0 26:0 27:0 28:1 29:0 30:0 31:0 #
0.050693662450963954 1:1 2:0.63999999 3:0 4:0 5:0 6:1 7:0 8:1 9:1 10:0 11:0.1 12:0 13:0 14:0 15:0 16:0 17:1 18:0 19:0 20:0 21:0 22:0 23:0 24:0 25:1 26:0 27:0 28:0 29:0 30:1 31:0 #
-0.050693662450963954 1:1 2:0.41999999 3:0 4:0 5:0 6:1 7:0 8:1 9:1 10:0 11:0.1 12:0 13:0 14:0 15:0 16:0 17:0 18:1 19:0 20:0 21:0 22:0 23:0 24:0 25:0 26:0 27:0 28:1 29:0 30:0 31:0 #
-0.050693662450963954 1:1 2:1 3:0 4:0 5:0 6:0 7:0 8:1 9:1 10:0 11:8.5 12:0 13:1 14:0 15:0 16:1 17:1 18:0 19:0 20:1 21:0 22:0 23:0 24:0 25:0 26:0 27:0 28:1 29:0 30:0 31:0 #
-0.050693662450963954 1:1 2:0.23999999 3:0 4:0 5:0 6:1 7:0 8:1 9:1 10:0 11:0.1 12:1 13:0 14:0 15:0 16:0 17:1 18:0 19:0 20:0 21:0 22:0 23:0 24:0 25:1 26:0 27:0 28:0 29:0 30:1 31:0 #
0.050693662450963954 1:0 2:1.1 3:1 4:0.02 5:0 6:1 7:0 8:1 9:0 10:1 11:0.1 12:0 13:0 14:0 15:0 16:0 17:0 18:0 19:0 20:0 21:0 22:0 23:0 24:1 25:0 26:0 27:0 28:0 29:0 30:0 31:1 #
0.050693662450963954 1:0 2:2.98 3:1 4:0.02 5:0 6:0 7:0 8:1 9:1 10:0 11:0.1 12:0 13:0 14:0 15:0 16:0 17:0 18:0 19:0 20:0 21:0 22:0 23:0 24:0 25:1 26:0 27:0 28:0 29:0 30:1 31:0 #
0.050693662450963954 1:0 2:5.5999999 3:1 4:0.02 5:0 6:0 7:0 8:1 9:1 10:0 11:10.5 12:1 13:0 14:0 15:0 16:1 17:1 18:0 19:0 20:0 21:0 22:0 23:0 24:0 25:0 26:0 27:0 28:1 29:0 30:0 31:0 #
0.050693662450963954 1:0 2:5.5799999 3:0 4:0.059999999 5:0 6:1 7:1 8:1 9:0 10:1 11:0.1 12:0 13:1 14:0 15:0 16:0 17:1 18:0 19:0 20:0 21:0 22:0 23:0 24:0 25:1 26:0 27:0 28:0 29:0 30:0 31:1 #
0.050693662450963954 1:0 2:1.1799999 3:1 4:0.02 5:0 6:0 7:0 8:1 9:1 10:0 11:0.1 12:0 13:0 14:0 15:0 16:0 17:1 18:0 19:1 20:0 21:0 22:0 23:0 24:1 25:1 26:0 27:0 28:0 29:0 30:1 31:0 #
0.050693662450963954 1:0 2:9.9399996 3:1 4:0.02 5:0 6:1 7:0 8:1 9:1 10:0 11:0.1 12:0 13:1 14:1 15:0 16:0 17:0 18:1 19:1 20:1 21:0 22:1 23:0 24:1 25:1 26:0 27:0 28:1 29:0 30:0 31:0 #
0.050693662450963954 1:0 2:3.5799999 3:1 4:0.02 5:0 6:1 7:0 8:1 9:1 10:0 11:0.1 12:0 13:0 14:0 15:0 16:0 17:0 18:1 19:1 20:0 21:0 22:0 23:0 24:1 25:1 26:0 27:0 28:1 29:0 30:0 31:0 #
-0.050693662450963954 1:1 2:0.95999998 3:0 4:0 5:0 6:0 7:0 8:1 9:0 10:1 11:0.1 12:0 13:0 14:0 15:0 16:0 17:1 18:1 19:0 20:0 21:0 22:0 23:0 24:0 25:0 26:0 27:0 28:0 29:0 30:0 31:1 #
0.050693662450963954 1:1 2:0.5 3:0 4:0 5:0 6:0 7:0 8:1 9:0 10:0 11:0.2 12:0 13:0 14:0 15:0 16:0 17:0 18:1 19:1 20:0 21:0 22:0 23:0 24:0 25:0 26:0 27:0 28:0 29:0 30:0 31:1 #
-0.050693662450963954 1:0 2:2.6199999 3:1 4:0.02 5:0 6:0 7:0 8:1 9:1 10:0 11:0.1 12:1 13:0 14:0 15:0 16:0 17:1 18:0 19:0 20:0 21:0 22:0 23:0 24:0 25:1 26:0 27:0 28:1 29:0 30:0 31:0 #
0.050693662450963954 1:0 2:6.5799999 3:0 4:0.059999999 5:0 6:0 7:0 8:1 9:1 10:0 11:0.5 12:0 13:0 14:0 15:0 16:0 17:1 18:1 19:0 20:0 21:0 22:0 23:0 24:0 25:0 26:0 27:0 28:1 29:0 30:0 31:0 #
0.050693662450963954 1:0 2:7.3200002 3:0 4:0.039999999 5:0 6:0 7:0 8:1 9:0 10:0 11:2.5999999 12:1 13:0 14:0 15:1 16:1 17:1 18:0 19:0 20:0 21:0 22:0 23:0 24:0 25:0 26:0 27:1 28:1 29:0 30:0 31:0 #
0.031807294961285489 1:1 2:0.30000001 3:0 4:0 5:1 6:1 7:1 8:1 9:1 10:0 11:0.1 12:0 13:1 14:1 15:1 16:0 17:0 18:1 19:0 20:0 21:0 22:0 23:0 24:1 25:1 26:0 27:0 28:0 29:0 30:1 31:0 #
0.050693662450963954 1:1 2:0.47999999 3:0 4:0 5:0 6:1 7:1 8:1 9:1 10:0 11:0.1 12:0 13:0 14:0 15:0 16:0 17:1 18:0 19:0 20:0 21:0 22:0 23:0 24:0 25:1 26:0 27:0 28:1 29:0 30:0 31:0 #
-0.027346427934888784 1:1 2:0.23999999 3:0 4:0 5:0 6:1 7:0 8:1 9:0 10:0 11:0.1 12:0 13:0 14:0 15:0 16:0 17:1 18:0 19:0 20:0 21:0 22:0 23:0 24:0 25:1 26:0 27:0 28:0 29:0 30:0 31:1 #
0.050693662450963954 1:1 2:0.1 3:0 4:0 5:0 6:0 7:0 8:1 9:0 10:0 11:0.40000001 12:0 13:1 14:0 15:0 16:1 17:1 18:0 19:0 20:0 21:0 22:0 23:0 24:0 25:0 26:0 27:0 28:0 29:0 30:1 31:0 #
-0.050693662450963954 1:1 2:0.66000003 3:0 4:0 5:0 6:0 7:0 8:1 9:0 10:0 11:0.1 12:1 13:0 14:0 15:0 16:0 17:1 18:0 19:0 20:0 21:0 22:0 23:0 24:0 25:0 26:0 27:0 28:1 29:0 30:0 31:0 #
0.050693662450963954 1:1 2:0.68000001 3:0 4:0 5:0 6:0 7:0 8:1 9:0 10:0 11:0.1 12:1 13:0 14:0 15:0 16:0 17:1 18:0 19:1 20:0 21:0 22:0 23:0 24:0 25:1 26:0 27:0 28:0 29:0 30:0 31:1 #
0.050693662450963954 1:0 2:4.6799998 3:1 4:0.02 5:0 6:1 7:0 8:1 9:1 10:0 11:0.1 12:1 13:0 14:0 15:0 16:0 17:1 18:0 19:0 20:0 21:0 22:0 23:0 24:0 25:1 26:0 27:0 28:1 29:0 30:0 31:0 #
0.050693662450963954 1:0 2:3.04 3:1 4:0.02 5:0 6:1 7:1 8:1 9:1 10:0 11:0.2 12:0 13:0 14:0 15:0 16:0 17:1 18:1 19:0 20:0 21:0 22:0 23:0 24:0 25:1 26:0 27:0 28:0 29:0 30:1 31:0 #
0.050693662450963954 1:1 2:2.3199999 3:0 4:0 5:0 6:0 7:0 8:1 9:0 10:1 11:0.1 12:0 13:0 14:0 15:0 16:0 17:1 18:1 19:0 20:0 21:0 22:0 23:0 24:0 25:0 26:0 27:0 28:0 29:0 30:0 31:1 #
0.050693662450963954 1:0 2:0.51999998 3:1 4:0.02 5:0 6:0 7:0 8:1 9:0 10:0 11:0.30000001 12:0 13:0 14:0 15:1 16:0 17:1 18:0 19:0 20:0 21:0 22:0 23:0 24:0 25:0 26:1 27:0 28:0 29:1 30:0 31:0 #
-0.050693662450963954 1:1 2:2.1600001 3:0 4:0 5:0 6:1 7:0 8:1 9:1 10:0 11:0.1 12:0 13:0 14:0 15:0 16:0 17:1 18:1 19:1 20:0 21:0 22:0 23:0 24:0 25:1 26:0 27:0 28:1 29:0 30:0 31:0 #
0.050693662450963954 1:0 2:2.98 3:1 4:0.02 5:0 6:0 7:0 8:1 9:0 10:0 11:0.2 12:1 13:0 14:0 15:0 16:0 17:0 18:0 19:0 20:0 21:0 22:0 23:0 24:0 25:1 26:0 27:0 28:0 29:0 30:0 31:1 #
0.050693662450963954 1:0 2:6.7199998 3:0 4:0.039999999 5:0 6:0 7:0 8:1 9:0 10:0 11:0.1 12:0 13:0 14:0 15:0 16:0 17:0 18:0 19:0 20:1 21:0 22:0 23:0 24:0 25:0 26:0 27:0 28:0 29:0 30:0 31:1 #
0.050693662450963954 1:1 2:1.08 3:0 4:0 5:0 6:1 7:0 8:1 9:0 10:0 11:0.89999998 12:0 13:0 14:0 15:1 16:0 17:1 18:0 19:0 20:0 21:0 22:0 23:0 24:0 25:0 26:0 27:0 28:0 29:0 30:1 31:0 #
0.050693662450963954 1:1 2:0.94 3:0 4:0 5:1 6:1 7:0 8:1 9:1 10:0 11:0.1 12:1 13:0 14:0 15:0 16:0 17:1 18:1 19:0 20:0 21:0 22:0 23:0 24:0 25:1 26:0 27:0 28:1 29:0 30:0 31:0 #
0.050693662450963954 1:0 2:4.6599998 3:1 4:0.02 5:0 6:0 7:0 8:1 9:0 10:0 11:0.89999998 12:1 13:0 14:0 15:1 16:1 17:1 18:0 19:0 20:0 21:0 22:0 23:0 24:0 25:0 26:0 27:0 28:0 29:1 30:0 31:0 #
0.050693662450963954 1:0 2:4.04 3:1 4:0.02 5:0 6:0 7:0 8:1 9:0 10:0 11:1.5 12:0 13:0 14:0 15:1 16:0 17:1 18:0 19:0 20:0 21:0 22:0 23:0 24:0 25:0 26:1 27:0 28:0 29:1 30:0 31:0 #
0.050693662450963954 1:0 2:3.5799999 3:1 4:0.02 5:0 6:0 7:0 8:1 9:0 10:1 11:0.1 12:0 13:0 14:0 15:0 16:0 17:1 18:0 19:0 20:0 21:0 22:0 23:0 24:0 25:0 26:0 27:0 28:0 29:0 30:0 31:1 #
0.050693662450963954 1:1 2:1.46 3:0 4:0 5:0 6:1 7:1 8:1 9:1 10:0 11:0.1 12:0 13:0 14:1 15:0 16:0 17:1 18:1 19:1 20:0 21:0 22:0 23:0 24:1 25:1 26:0 27:0 28:0 29:1 30:0 31:0 #
-0.050693662450963954 1:1 2:0.31999999 3:0 4:0 5:0 6:0 7:0 8:1 9:1 10:0 11:0.60000002 12:0 13:1 14:0 15:0 16:0 17:1 18:0 19:0 20:1 21:0 22:0 23:0 24:0 25:0 26:0 27:0 28:0 29:0 30:1 31:0 #
-0.011336127586641057 1:0 2:0.5 3:1 4:0.02 5:0 6:0 7:0 8:1 9:1 10:0 11:0.1 12:0 13:1 14:0 15:0 16:0 17:1 18:0 19:0 20:1 21:0 22:0 23:0 24:0 25:0 26:0 27:0 28:1 29:0 30:0 31:0 #
-0.050693662450963954 1:0 2:1.66 3:1 4:0.02 5:0 6:0 7:0 8:1 9:1 10:0 11:0.1 12:1 13:0 14:0 15:0 16:0 17:1 18:0 19:0 20:1 21:0 22:0 23:0 24:0 25:0 26:0 27:0 28:0 29:0 30:1 31:0 #
-0.050693662450963954 1:0 2:0.88 3:1 4:0.02 5:0 6:0 7:0 8:1 9:1 10:0 11:0.1 12:0 13:0 14:0 15:0 16:0 17:1 18:0 19:0 20:1 21:0 22:0 23:0 24:0 25:0 26:0 27:0 28:0 29:0 30:1 31:0 #
0.050693662450963954 1:0 2:8.2600002 3:0 4:0.059999999 5:0 6:1 7:0 8:1 9:0 10:1 11:0.89999998 12:1 13:0 14:0 15:0 16:0 17:1 18:0 19:0 20:0 21:0 22:0 23:0 24:0 25:0 26:0 27:0 28:0 29:0 30:0 31:1 #
0.050693662450963954 1:0 2:4.04 3:1 4:0.02 5:0 6:1 7:0 8:1 9:0 10:1 11:3.5 12:1 13:0 14:0 15:0 16:0 17:1 18:0 19:0 20:0 21:0 22:0 23:0 24:0 25:1 26:0 27:0 28:0 29:0 30:0 31:1 #
0.050693662450963954 1:1 2:3.54 3:0 4:0 5:0 6:1 7:1 8:1 9:0 10:1 11:0.30000001 12:1 13:0 14:0 15:0 16:1 17:1 18:0 19:0 20:0 21:0 22:0 23:0 24:0 25:0 26:0 27:0 28:0 29:0 30:0 31:1 #
0.050693662450963954 1:1 2:0.28 3:0 4:0 5:0 6:1 7:0 8:1 9:1 10:0 11:0.1 12:0 13:0 14:0 15:0 16:0 17:1 18:1 19:0 20:0 21:0 22:0 23:0 24:0 25:0 26:0 27:0 28:0 29:0 30:1 31:0 #
-0.050693662450963954 1:1 2:1.8200001 3:0 4:0 5:0 6:0 7:0 8:1 9:0 10:0 11:3.4000001 12:1 13:0 14:0 15:0 16:0 17:1 18:0 19:0 20:1 21:0 22:0 23:0 24:0 25:0 26:0 27:0 28:0 29:0 30:0 31:1 #
-0.050693662450963954 1:0 2:0.94 3:1 4:0.02 5:0 6:1 7:0 8:1 9:0 10:0 11:2 12:1 13:0 14:0 15:1 16:0 17:1 18:0 19:0 20:0 21:0 22:0 23:0 24:0 25:0 26:0 27:0 28:1 29:0 30:0 31:0 #
-0.050693662450963954 1:0 2:0.34 3:1 4:0.02 5:0 6:0 7:0 8:1 9:0 10:0 11:1.6 12:0 13:1 14:0 15:0 16:0 17:1 18:0 19:0 20:1 21:0 22:0 23:0 24:0 25:0 26:0 27:0 28:0 29:0 30:0 31:1 #
0.050693662450963954 1:0 2:4.48 3:0 4:0.039999999 5:0 6:0 7:0 8:1 9:1 10:0 11:0.1 12:0 13:0 14:0 15:0 16:0 17:1 18:1 19:1 20:0 21:0 22:0 23:0 24:0 25:1 26:0 27:0 28:0 29:0 30:1 31:0 #
0.050693662450963954 1:0 2:1.36 3:1 4:0.02 5:0 6:0 7:0 8:1 9:1 10:0 11:0.1 12:0 13:0 14:0 15:0 16:0 17:0 18:0 19:0 20:0 21:0 22:0 23:0 24:0 25:0 26:0 27:0 28:0 29:1 30:0 31:0 #
-0.0046751365275439407 1:0 2:20.719999 3:0 4:0.1 5:0 6:0 7:0 8:1 9:0 10:1 11:0.1 12:1 13:0 14:0 15:0 16:0 17:1 18:0 19:0 20:0 21:0 22:0 23:0 24:0 25:0 26:0 27:0 28:0 29:0 30:0 31:1 #
-0.050693662450963954 1:0 2:3.46 3:1 4:0.02 5:0 6:1 7:0 8:1 9:1 10:0 11:3.4000001 12:0 13:1 14:0 15:0 16:0 17:1 18:0 19:0 20:1 21:0 22:0 23:0 24:0 25:0 26:0 27:0 28:1 29:0 30:0 31:0 #
-0.050693662450963954 1:1 2:0.44 3:0 4:0 5:0 6:1 7:0 8:1 9:0 10:1 11:0.2 12:1 13:0 14:0 15:0 16:0 17:1 18:0 19:0 20:0 21:0 22:0 23:0 24:0 25:0 26:0 27:0 28:0 29:0 30:0 31:1 #
0.050693662450963954 1:1 2:1 3:0 4:0 5:0 6:0 7:0 8:1 9:0 10:0 11:0.1 12:1 13:1 14:1 15:0 16:0 17:1 18:0 19:0 20:0 21:0 22:0 23:0 24:0 25:0 26:0 27:0 28:0 29:0 30:0 31:1 #
0.050693662450963954 1:1 2:0.94 3:0 4:0 5:0 6:0 7:0 8:1 9:0 10:0 11:0.1 12:1 13:0 14:0 15:0 16:0 17:1 18:0 19:0 20:0 21:0 22:0 23:0 24:0 25:1 26:0 27:0 28:0 29:0 30:0 31:1 #
0.050693662450963954 1:0 2:1.24 3:1 4:0.02 5:0 6:0 7:0 8:1 9:0 10:0 11:0.2 12:0 13:1 14:0 15:1 16:1 17:1 18:0 19:0 20:0 21:0 22:0 23:0 24:0 25:0 26:0 27:0 28:0 29:0 30:0 31:1 #
-0.050693662450963954 1:1 2:0.77999997 3:0 4:0 5:0 6:1 7:1 8:1 9:1 10:0 11:0.1 12:0 13:0 14:0 15:0 16:0 17:1 18:1 19:1 20:0 21:0 22:0 23:0 24:0 25:0 26:0 27:0 28:0 29:0 30:1 31:0 #
-0.050693662450963954 1:0 2:0.31999999 3:1 4:0.02 5:0 6:0 7:0 8:1 9:0 10:1 11:0.40000001 12:0 13:0 14:0 15:1 16:0 17:1 18:1 19:0 20:0 21:0 22:0 23:0 24:0 25:0 26:0 27:0 28:0 29:0 30:0 31:1 #
-0.050693662450963954 1:0 2:1.5 3:1 4:0.02 5:0 6:0 7:0 8:1 9:0 10:1 11:0.1 12:0 13:0 14:0 15:0 16:0 17:0 18:1 19:1 20:0 21:0 22:0 23:0 24:0 25:0 26:0 27:0 28:0 29:0 30:0 31:1 #
-0.050693662450963954 1:0 2:16.6 3:0 4:0.079999998 5:0 6:0 7:0 8:1 9:0 10:0 11:4.9000001 12:1 13:0 14:0 15:0 16:1 17:1 18:0 19:0 20:0 21:0 22:0 23:0 24:0 25:0 26:0 27:0 28:0 29:0 30:0 31:1 #
0.050693662450963954 1:1 2:0.72000003 3:0 4:0 5:0 6:1 7:0 8:1 9:1 10:0 11:0.1 12:0 13:0 14:0 15:0 16:0 17:1 18:1 19:0 20:0 21:0 22:0 23:0 24:0 25:0 26:0 27:0 28:1 29:0 30:0 31:0 #
-0.050693662450963954 1:1 2:0.66000003 3:0 4:0 5:0 6:0 7:0 8:1 9:1 10:0 11:1.8 12:0 13:0 14:0 15:0 16:0 17:1 18:0 19:0 20:0 21:0 22:0 23:0 24:0 25:1 26:0 27:0 28:0 29:0 30:1 31:0 #
-0.050693662450963954 1:1 2:0.25999999 3:0 4:0 5:0 6:0 7:0 8:1 9:0 10:0 11:1.7 12:1 13:0 14:0 15:1 16:1 17:1 18:0 19:0 20:0 21:0 22:0 23:0 24:0 25:0 26:0 27:0 28:0 29:1 30:0 31:0 #
0.050693662450963954 1:0 2:7.6799998 3:0 4:0.059999999 5:0 6:0 7:0 8:1 9:1 10:0 11:0.30000001 12:1 13:0 14:0 15:0 16:0 17:1 18:0 19:0 20:1 21:0 22:0 23:0 24:0 25:0 26:0 27:0 28:1 29:0 30:0 31:0 #
-0.050693662450963954 1:0 2:1.88 3:1 4:0.02 5:0 6:1 7:0 8:1 9:1 10:0 11:0.1 12:0 13:0 14:0 15:0 16:0 17:1 18:0 19:1 20:1 21:0 22:0 23:0 24:0 25:0 26:0 27:0 28:1 29:0 30:0 31:0 #
0.050693662450963954 1:1 2:0.62 3:0 4:0 5:0 6:1 7:0 8:1 9:0 10:1 11:0.2 12:1 13:0 14:0 15:0 16:0 17:1 18:0 19:0 20:0 21:0 22:0 23:0 24:0 25:1 26:0 27:0 28:0 29:0 30:0 31:1 #
-0.050693662450963954 1:0 2:0.88 3:1 4:0.02 5:0 6:0 7:0 8:1 9:1 10:0 11:3.4000001 12:0 13:0 14:0 15:0 16:0 17:1 18:0 19:0 20:1 21:0 22:0 23:0 24:0 25:0 26:0 27:0 28:1 29:0 30:0 31:0 #
-0.050693662450963954 1:0 2:2.48 3:1 4:0.02 5:0 6:0 7:0 8:1 9:1 10:0 11:0.5 12:0 13:0 14:0 15:0 16:1 17:1 18:0 19:0 20:1 21:0 22:0 23:0 24:0 25:0 26:0 27:0 28:0 29:1 30:0 31:0 #
-0.050693662450963954 1:1 2:2.1199999 3:0 4:0 5:0 6:1 7:0 8:1 9:1 10:0 11:4.0999999 12:0 13:0 14:0 15:0 16:1 17:1 18:0 19:0 20:0 21:0 22:0 23:0 24:0 25:0 26:0 27:0 28:1 29:0 30:0 31:0 #
0.050693662450963954 1:1 2:1.12 3:0 4:0 5:0 6:0 7:0 8:1 9:1 10:0 11:0.40000001 12:1 13:0 14:0 15:0 16:0 17:1 18:0 19:0 20:1 21:0 22:0 23:0 24:0 25:0 26:0 27:0 28:1 29:0 30:0 31:0 #
0.050693662450963954 1:0 2:3.9200001 3:1 4:0.02 5:0 6:1 7:0 8:1 9:0 10:0 11:0.5 12:0 13:0 14:0 15:1 16:0 17:1 18:0 19:0 20:0 21:0 22:0 23:0 24:0 25:0 26:0 27:0 28:0 29:0 30:0 31:1 #
0.050693662450963954 1:0 2:2.28 3:1 4:0.02 5:0 6:0 7:0 8:1 9:0 10:0 11:0.1 12:0 13:0 14:0 15:0 16:0 17:1 18:1 19:1 20:0 21:0 22:0 23:0 24:0 25:1 26:0 27:0 28:0 29:0 30:0 31:1 #
0.050693662450963954 1:1 2:1.34 3:0 4:0 5:0 6:0 7:0 8:1 9:1 10:0 11:0.5 12:0 13:0 14:0 15:0 16:0 17:1 18:1 19:0 20:0 21:0 22:0 23:0 24:0 25:0 26:0 27:0 28:1 29:0 30:0 31:0 #
-0.050693662450963954 1:0 2:3.9000001 3:0 4:0.039999999 5:0 6:1 7:0 8:1 9:0 10:1 11:0.2 12:1 13:0 14:0 15:0 16:0 17:1 18:0 19:1 20:0 21:0 22:0 23:0 24:0 25:1 26:0 27:0 28:0 29:0 30:0 31:1 #
-0.050693662450963954 1:0 2:10.5 3:0 4:0.039999999 5:0 6:0 7:0 8:1 9:0 10:0 11:4.9000001 12:1 13:0 14:0 15:0 16:1 17:1 18:0 19:0 20:0 21:0 22:0 23:0 24:0 25:0 26:0 27:0 28:0 29:0 30:0 31:1 #
0.050693662450963954 1:1 2:0.95999998 3:0 4:0 5:0 6:1 7:0 8:1 9:1 10:0 11:0.1 12:0 13:0 14:0 15:0 16:0 17:1 18:1 19:0 20:0 21:0 22:0 23:0 24:0 25:0 26:0 27:0 28:1 29:0 30:0 31:0 #
-0.050693662450963954 1:0 2:12.64 3:0 4:0.079999998 5:0 6:0 7:0 8:1 9:0 10:1 11:0.1 12:0 13:0 14:0 15:1 16:0 17:0 18:1 19:0 20:1 21:0 22:0 23:0 24:0 25:0 26:1 27:1 28:0 29:0 30:0 31:1 #
0.050693662450963954 1:1 2:2 3:0 4:0 5:0 6:1 7:0 8:1 9:1 10:0 11:0.1 12:1 13:0 14:0 15:0 16:0 17:1 18:0 19:0 20:0 21:0 22:0 23:0 24:0 25:1 26:0 27:0 28:0 29:1 30:0 31:0 #
-0.050693662450963954 1:0 2:0.44 3:1 4:0.02 5:0 6:1 7:0 8:1 9:1 10:0 11:0.1 12:0 13:0 14:0 15:1 16:0 17:1 18:0 19:0 20:0 21:0 22:0 23:0 24:0 25:0 26:0 27:0 28:1 29:0 30:0 31:0 #
-0.050693662450963954 1:1 2:0.22 3:0 4:0 5:0 6:0 7:0 8:1 9:1 10:0 11:1 12:0 13:0 14:0 15:0 16:0 17:1 18:1 19:0 20:1 21:0 22:0 23:0 24:0 25:0 26:0 27:0 28:1 29:0 30:0 31:0 #
-0.050693662450963954 1:1 2:0.56 3:0 4:0 5:0 6:0 7:0 8:1 9:1 10:0 11:1 12:1 13:0 14:0 15:0 16:0 17:1 18:0 19:1 20:0 21:0 22:0 23:0 24:0 25:1 26:0 27:0 28:1 29:0 30:0 31:0 #
-0.050693662450963954 1:0 2:1.26 3:1 4:0.02 5:0 6:0 7:0 8:1 9:1 10:0 11:2.5 12:0 13:0 14:0 15:0 16:0 17:1 18:1 19:0 20:1 21:0 22:0 23:0 24:0 25:0 26:0 27:0 28:1 29:0 30:0 31:0 #
0.050693662450963954 1:1 2:0.63999999 3:0 4:0 5:0 6:1 7:0 8:1 9:0 10:0 11:0.30000001 12:0 13:0 14:0 15:1 16:0 17:1 18:0 19:0 20:0 21:0 22:0 23:0 24:0 25:0 26:1 27:0 28:0 29:1 30:0 31:0 #
0.050693662450963954 1:1 2:0.63999999 3:0 4:0 5:0 6:0 7:0 8:1 9:0 10:0 11:0.2 12:1 13:0 14:0 15:1 16:1 17:1 18:0 19:0 20:0 21:0 22:0 23:0 24:0 25:0 26:0 27:0 28:0 29:1 30:0 31:0 #
0.050693662450963954 1:1 2:0.94 3:0 4:0 5:0 6:0 7:0 8:1 9:0 10:0 11:0.2 12:0 13:0 14:0 15:1 16:0 17:1 18:0 19:0 20:0 21:0 22:0 23:0 24:0 25:0 26:1 27:0 28:0 29:1 30:0 31:0 #
-0.050693662450963954 1:1 2:0.54000002 3:0 4:0 5:0 6:0 7:0 8:1 9:0 10:0 11:0.1 12:0 13:1 14:0 15:1 16:0 17:1 18:0 19:0 20:0 21:0 22:0 23:0 24:0 25:0 26:0 27:0 28:0 29:0 30:1 31:0 #
-0.050693662450963954 1:1 2:0.18000001 3:0 4:0 5:0 6:0 7:0 8:1 9:0 10:0 11:0.40000001 12:0 13:0 14:0 15:1 16:0 17:1 18:0 19:0 20:0 21:0 22:0 23:0 24:0 25:0 26:0 27:0 28:0 29:1 30:0 31:0 #
0.050693662450963954 1:0 2:1.26 3:1 4:0.02 5:0 6:0 7:0 8:1 9:1 10:0 11:0.1 12:0 13:0 14:0 15:0 16:0 17:1 18:1 19:0 20:0 21:0 22:0 23:0 24:0 25:0 26:0 27:0 28:1 29:0 30:0 31:0 #
0.050693662450963954 1:0 2:6.7199998 3:1 4:0.02 5:0 6:1 7:0 8:1 9:1 10:0 11:0.1 12:1 13:0 14:0 15:0 16:0 17:1 18:0 19:0 20:1 21:0 22:0 23:0 24:0 25:0 26:0 27:0 28:0 29:1 30:0 31:0 #
0.050693662450963954 1:1 2:3.2 3:0 4:0 5:0 6:0 7:0 8:1 9:0 10:1 11:0.1 12:1 13:0 14:0 15:0 16:0 17:1 18:1 19:0 20:0 21:0 22:0 23:0 24:0 25:0 26:0 27:0 28:0 29:0 30:0 31:1 #
-0.050693662450963954 1:0 2:3.3399999 3:1 4:0.02 5:0 6:0 7:0 8:1 9:1 10:0 11:3.4000001 12:0 13:0 14:0 15:0 16:0 17:1 18:0 19:0 20:1 21:0 22:0 23:0 24:0 25:0 26:0 27:0 28:0 29:1 30:0 31:0 #
0.050693662450963954 1:0 2:3.9400001 3:1 4:0.02 5:0 6:0 7:0 8:1 9:1 10:0 11:0.5 12:0 13:0 14:0 15:0 16:0 17:1 18:1 19:0 20:1 21:0 22:0 23:0 24:0 25:0 26:0 27:0 28:1 29:0 30:0 31:0 #
0.050693662450963954 1:0 2:2.5 3:1 4:0.02 5:0 6:0 7:0 8:1 9:1 10:0 11:10.5 12:1 13:0 14:0 15:0 16:1 17:1 18:0 19:0 20:0 21:0 22:0 23:0 24:0 25:0 26:0 27:0 28:1 29:0 30:0 31:0 #
0.050693662450963954 1:1 2:0.44 3:0 4:0 5:0 6:1 7:1 8:1 9:1 10:0 11:0.1 12:0 13:0 14:0 15:0 16:0 17:1 18:0 19:0 20:0 21:0 22:0 23:0 24:0 25:0 26:0 27:0 28:1 29:0 30:0 31:0 #
0.050693662450963954 1:0 2:4.04 3:1 4:0.02 5:0 6:1 7:0 8:1 9:1 10:0 11:0.1 12:1 13:0 14:0 15:0 16:0 17:1 18:0 19:0 20:1 21:0 22:0 23:0 24:0 25:0 26:0 27:0 28:1 29:0 30:0 31:0 #
-0.050693662450963954 1:1 2:0.63999999 3:0 4:0 5:0 6:0 7:0 8:1 9:1 10:0 11:2.9000001 12:0 13:1 14:0 15:0 16:0 17:1 18:0 19:0 20:0 21:0 22:0 23:0 24:0 25:1 26:0 27:0 28:0 29:1 30:0 31:0 #
0.050693662450963954 1:0 2:5.3400002 3:1 4:0.02 5:0 6:0 7:0 8:1 9:1 10:0 11:1.4 12:0 13:0 14:0 15:0 16:0 17:1 18:1 19:0 20:1 21:0 22:0 23:0 24:0 25:0 26:0 27:0 28:1 29:0 30:0 31:0 #
0.050693662450963954 1:0 2:4.8000002 3:1 4:0.02 5:0 6:0 7:0 8:1 9:0 10:1 11:0.89999998 12:1 13:0 14:0 15:0 16:0 17:1 18:0 19:0 20:0 21:0 22:0 23:0 24:0 25:0 26:0 27:0 28:0 29:0 30:0 31:1 #
0.050693662450963954 1:0 2:4.9200001 3:0 4:0.059999999 5:0 6:0 7:0 8:1 9:0 10:0 11:0.89999998 12:1 13:0 14:0 15:1 16:1 17:1 18:0 19:0 20:0 21:0 22:0 23:0 24:0 25:0 26:0 27:1 28:1 29:0 30:0 31:0 #
0.050693662450963954 1:0 2:1.46 3:1 4:0.02 5:0 6:1 7:0 8:1 9:1 10:0 11:0.89999998 12:0 13:0 14:0 15:0 16:0 17:1 18:1 19:0 20:0 21:0 22:0 23:0 24:0 25:0 26:0 27:0 28:1 29:0 30:0 31:0 #
-0.050693662450963954 1:0 2:4.52 3:1 4:0.02 5:0 6:0 7:0 8:1 9:1 10:0 11:0.1 12:1 13:0 14:0 15:0 16:1 17:1 18:0 19:0 20:0 21:0 22:0 23:0 24:0 25:0 26:0 27:0 28:1 29:0 30:0 31:0 #
-0.050693662450963954 1:0 2:1.3200001 3:1 4:0.02 5:0 6:0 7:0 8:1 9:0 10:0 11:2 12:1 13:0 14:0 15:1 16:1 17:1 18:0 19:0 20:0 21:0 22:0 23:0 24:0 25:0 26:0 27:0 28:1 29:0 30:0 31:0 #
0.050693662450963954 1:1 2:1.0599999 3:0 4:0 5:0 6:0 7:0 8:1 9:0 10:0 11:0.1 12:0 13:0 14:0 15:0 16:0 17:1 18:0 19:1 20:0 21:0 22:0 23:0 24:0 25:1 26:0 27:0 28:0 29:0 30:0 31:1 #
0.050693662450963954 1:0 2:2.6400001 3:0 4:0.039999999 5:0 6:0 7:0 8:1 9:1 10:0 11:0.1 12:0 13:0 14:0 15:0 16:0 17:1 18:0 19:0 20:0 21:0 22:0 23:0 24:0 25:0 26:0 27:0 28:1 29:0 30:0 31:0 #
0.050693662450963954 1:1 2:2.2 3:0 4:0 5:0 6:0 7:0 8:1 9:1 10:0 11:0.1 12:0 13:0 14:0 15:0 16:0 17:1 18:0 19:1 20:0 21:0 22:0 23:0 24:0 25:0 26:0 27:0 28:0 29:0 30:1 31:0 #
0.050693662450963954 1:1 2:1.34 3:0 4:0 5:0 6:0 7:0 8:1 9:0 10:0 11:0.30000001 12:0 13:0 14:0 15:1 16:0 17:1 18:0 19:0 20:0 21:0 22:0 23:0 24:0 25:0 26:1 27:0 28:0 29:1 30:0 31:0 #
-0.050693662450963954 1:1 2:0.38 3:0 4:0 5:0 6:1 7:1 8:1 9:1 10:0 11:0.1 12:1 13:0 14:0 15:0 16:0 17:1 18:0 19:0 20:1 21:0 22:0 23:0 24:0 25:0 26:0 27:0 28:0 29:0 30:1 31:0 #
0.050693662450963954 1:1 2:0.41999999 3:0 4:0 5:0 6:0 7:0 8:1 9:1 10:0 11:0.60000002 12:1 13:0 14:0 15:0 16:1 17:1 18:0 19:0 20:1 21:0 22:0 23:0 24:0 25:0 26:0 27:0 28:1 29:0 30:0 31:0 #
0.050693662450963954 1:1 2:1.6 3:0 4:0 5:0 6:0 7:0 8:1 9:0 10:0 11:0.2 12:1 13:0 14:0 15:0 16:0 17:1 18:0 19:0 20:0 21:0 22:0 23:0 24:0 25:0 26:0 27:0 28:0 29:0 30:1 31:0 #
-0.050693662450963954 1:1 2:1.1799999 3:0 4:0 5:0 6:0 7:0 8:1 9:0 10:1 11:2.9000001 12:0 13:0 14:0 15:0 16:0 17:1 18:1 19:0 20:0 21:0 22:0 23:0 24:0 25:0 26:0 27:0 28:0 29:0 30:0 31:1 #
-0.050693662450963954 1:1 2:0.95999998 3:0 4:0 5:0 6:0 7:0 8:1 9:1 10:0 11:3.4000001 12:0 13:1 14:0 15:0 16:0 17:1 18:0 19:0 20:1 21:0 22:0 23:0 24:0 25:0 26:0 27:0 28:0 29:1 30:0 31:0 #
0.050693662450963954 1:1 2:1.2 3:0 4:0 5:0 6:0 7:0 8:1 9:1 10:0 11:0.30000001 12:1 13:0 14:0 15:0 16:0 17:1 18:0 19:0 20:1 21:0 22:0 23:0 24:0 25:0 26:0 27:0 28:1 29:0 30:0 31:0 #
0.050693662450963954 1:0 2:1.78 3:1 4:0.02 5:0 6:1 7:0 8:1 9:0 10:0 11:0.2 12:0 13:1 14:0 15:1 16:1 17:1 18:0 19:0 20:0 21:0 22:0 23:0 24:0 25:0 26:0 27:0 28:1 29:0 30:0 31:0 #
0.050693662450963954 1:0 2:2.02 3:1 4:0.02 5:0 6:0 7:0 8:1 9:0 10:0 11:0.30000001 12:0 13:1 14:0 15:1 16:1 17:1 18:0 19:0 20:0 21:0 22:0 23:0 24:0 25:0 26:0 27:0 28:1 29:0 30:0 31:0 #
0.050693662450963954 1:0 2:1.78 3:1 4:0.02 5:0 6:1 7:0 8:1 9:0 10:0 11:0.1 12:0 13:1 14:0 15:1 16:1 17:1 18:0 19:0 20:0 21:0 22:0 23:0 24:0 25:0 26:0 27:0 28:0 29:0 30:0 31:1 #
0.050693662450963954 1:1 2:0.22 3:0 4:0 5:0 6:0 7:0 8:1 9:0 10:0 11:0.2 12:0 13:1 14:0 15:1 16:1 17:1 18:0 19:0 20:0 21:0 22:0 23:0 24:0 25:0 26:0 27:0 28:1 29:0 30:0 31:0 #
-0.050693662450963954 1:0 2:1.3200001 3:1 4:0.02 5:0 6:1 7:0 8:1 9:0 10:0 11:0.89999998 12:1 13:0 14:0 15:1 16:1 17:1 18:0 19:0 20:0 21:0 22:0 23:0 24:0 25:0 26:0 27:1 28:1 29:0 30:0 31:0 #
0.050693662450963954 1:1 2:0.41999999 3:0 4:0 5:0 6:0 7:0 8:1 9:1 10:0 11:0.69999999 12:1 13:0 14:0 15:0 16:1 17:1 18:0 19:0 20:1 21:0 22:0 23:0 24:0 25:0 26:0 27:0 28:1 29:0 30:0 31:0 #
-0.050693662450963954 1:0 2:0.92000002 3:1 4:0.02 5:0 6:0 7:0 8:1 9:1 10:0 11:0.1 12:0 13:0 14:0 15:0 16:0 17:1 18:0 19:0 20:1 21:0 22:0 23:0 24:0 25:0 26:0 27:0 28:1 29:0 30:0 31:0 #
-0.011124496891131069 1:1 2:0.1 3:0 4:0 5:0 6:1 7:1 8:1 9:0 10:0 11:0.1 12:0 13:0 14:0 15:0 16:1 17:1 18:0 19:0 20:0 21:0 22:0 23:0 24:1 25:0 26:0 27:0 28:0 29:0 30:0 31:1 #
0.050693662450963954 1:0 2:5.7800002 3:1 4:0.02 5:0 6:1 7:0 8:1 9:1 10:0 11:0.2 12:1 13:0 14:0 15:0 16:0 17:1 18:0 19:0 20:1 21:0 22:0 23:0 24:0 25:0 26:0 27:0 28:0 29:1 30:0 31:0 #
0.050693662450963954 1:1 2:3.8599999 3:0 4:0 5:0 6:1 7:0 8:1 9:0 10:1 11:0.2 12:1 13:0 14:0 15:0 16:0 17:1 18:0 19:0 20:0 21:0 22:0 23:0 24:0 25:0 26:0 27:0 28:0 29:0 30:0 31:1 #
0.050693662450963954 1:0 2:4.04 3:1 4:0.02 5:1 6:1 7:0 8:1 9:1 10:0 11:0.1 12:0 13:1 14:0 15:0 16:0 17:1 18:1 19:1 20:1 21:0 22:0 23:0 24:0 25:1 26:0 27:0 28:1 29:0 30:0 31:0 #
-0.050693662450963954 1:0 2:1.6 3:1 4:0.02 5:0 6:0 7:0 8:1 9:0 10:1 11:0.60000002 12:0 13:0 14:0 15:0 16:0 17:1 18:1 19:0 20:0 21:0 22:0 23:0 24:0 25:1 26:0 27:0 28:0 29:0 30:0 31:1 #
-0.050693662450963954 1:1 2:1.84 3:0 4:0 5:0 6:1 7:0 8:1 9:1 10:0 11:0.1 12:0 13:1 14:0 15:0 16:0 17:1 18:0 19:0 20:0 21:0 22:0 23:0 24:0 25:0 26:0 27:0 28:0 29:0 30:1 31:0 #
-0.050693662450963954 1:1 2:0.5 3:0 4:0 5:0 6:0 7:0 8:1 9:1 10:0 11:0.1 12:1 13:0 14:0 15:0 16:0 17:1 18:0 19:0 20:1 21:0 22:0 23:0 24:0 25:0 26:0 27:0 28:1 29:0 30:0 31:0 #
-0.050693662450963954 1:0 2:2.3800001 3:1 4:0.02 5:0 6:0 7:0 8:1 9:1 10:0 11:3.4000001 12:0 13:0 14:0 15:0 16:0 17:1 18:0 19:0 20:1 21:0 22:0 23:0 24:0 25:0 26:0 27:0 28:0 29:1 30:0 31:0 #
0.050693662450963954 1:0 2:3.04 3:0 4:0.039999999 5:0 6:0 7:0 8:1 9:1 10:0 11:0.1 12:1 13:0 14:0 15:0 16:1 17:1 18:0 19:0 20:0 21:0 22:0 23:0 24:0 25:0 26:0 27:0 28:1 29:0 30:0 31:0 #
0.050693662450963954 1:0 2:2.72 3:1 4:0.02 5:0 6:0 7:0 8:1 9:1 10:0 11:0.1 12:0 13:0 14:0 15:0 16:0 17:1 18:0 19:0 20:0 21:0 22:0 23:0 24:0 25:0 26:0 27:0 28:1 29:0 30:0 31:0 #
-0.050693662450963954 1:1 2:1.2 3:0 4:0 5:0 6:1 7:0 8:1 9:0 10:1 11:0.1 12:0 13:1 14:0 15:0 16:0 17:1 18:0 19:0 20:0 21:0 22:0 23:0 24:0 25:1 26:0 27:0 28:0 29:0 30:0 31:1 #
0.050693662450963954 1:1 2:2.5 3:0 4:0 5:0 6:1 7:0 8:1 9:1 10:0 11:0.30000001 12:0 13:0 14:0 15:0 16:0 17:1 18:1 19:0 20:1 21:0 22:0 23:0 24:0 25:0 26:0 27:0 28:0 29:1 30:0 31:0 #
-0.050693662450963954 1:0 2:0.2 3:1 4:0.02 5:0 6:0 7:0 8:1 9:1 10:0 11:0.1 12:0 13:0 14:0 15:1 16:0 17:1 18:1 19:0 20:0 21:0 22:0 23:0 24:0 25:0 26:0 27:0 28:1 29:0 30:0 31:0 #
0.050693662450963954 1:1 2:1.22 3:0 4:0 5:0 6:0 7:0 8:1 9:1 10:0 11:0.1 12:0 13:0 14:0 15:0 16:0 17:1 18:1 19:0 20:1 21:0 22:0 23:0 24:0 25:1 26:0 27:0 28:0 29:1 30:0 31:0 #
-0.050693662450963954 1:0 2:1.4 3:1 4:0.02 5:0 6:1 7:0 8:1 9:1 10:0 11:0.40000001 12:1 13:0 14:0 15:0 16:0 17:1 18:0 19:1 20:0 21:0 22:0 23:0 24:0 25:1 26:0 27:0 28:1 29:0 30:0 31:0 #
-0.050693662450963954 1:0 2:0.75999999 3:1 4:0.02 5:0 6:0 7:0 8:1 9:0 10:0 11:0.1 12:1 13:0 14:0 15:1 16:1 17:1 18:0 19:0 20:0 21:0 22:0 23:0 24:0 25:0 26:0 27:0 28:1 29:0 30:0 31:0 #
-0.050693662450963954 1:0 2:2.3 3:0 4:0.039999999 5:0 6:0 7:0 8:1 9:1 10:0 11:2.9000001 12:1 13:0 14:0 15:0 16:0 17:1 18:0 19:0 20:0 21:0 22:0 23:0 24:0 25:1 26:0 27:0 28:1 29:0 30:0 31:0 #
-0.050693662450963954 1:0 2:1.62 3:1 4:0.02 5:0 6:0 7:0 8:1 9:0 10:0 11:1.9 12:1 13:0 14:0 15:1 16:1 17:1 18:0 19:0 20:0 21:0 22:0 23:0 24:0 25:0 26:0 27:0 28:1 29:0 30:0 31:0 #
0.050693662450963954 1:1 2:0.72000003 3:0 4:0 5:0 6:0 7:0 8:1 9:0 10:1 11:0.1 12:0 13:1 14:0 15:0 16:0 17:1 18:0 19:0 20:0 21:0 22:0 23:0 24:1 25:0 26:0 27:0 28:0 29:0 30:0 31:1 #
-0.050693662450963954 1:1 2:0.31999999 3:0 4:0 5:0 6:1 7:0 8:1 9:0 10:1 11:0.1 12:1 13:0 14:0 15:0 16:0 17:1 18:0 19:0 20:0 21:0 22:0 23:0 24:0 25:1 26:0 27:0 28:0 29:0 30:0 31:1 #
-0.050693662450963954 1:1 2:1.9 3:0 4:0 5:0 6:0 7:0 8:1 9:0 10:1 11:0.1 12:0 13:0 14:1 15:0 16:0 17:1 18:1 19:0 20:0 21:0 22:0 23:0 24:0 25:0 26:0 27:0 28:0 29:0 30:0 31:1 #
0.050693662450963954 1:0 2:0.77999997 3:1 4:0.02 5:0 6:0 7:0 8:1 9:0 10:0 11:0.1 12:1 13:0 14:0 15:1 16:1 17:1 18:0 19:0 20:0 21:0 22:0 23:0 24:0 25:0 26:0 27:0 28:0 29:1 30:0 31:0 #
0.050693662450963954 1:0 2:0.66000003 3:1 4:0.02 5:0 6:0 7:0 8:1 9:1 10:0 11:0.1 12:0 13:0 14:0 15:0 16:0 17:1 18:0 19:0 20:0 21:0 22:0 23:0 24:0 25:0 26:0 27:0 28:1 29:0 30:0 31:0 #
0.050693662450963954 1:0 2:1 3:1 4:0.02 5:0 6:0 7:0 8:1 9:1 10:0 11:0.1 12:0 13:0 14:0 15:0 16:0 17:1 18:0 19:0 20:0 21:0 22:0 23:0 24:0 25:1 26:0 27:0 28:1 29:0 30:0 31:0 #
0.050693662450963954 1:1 2:1.02 3:0 4:0 5:0 6:0 7:0 8:1 9:1 10:0 11:1.9 12:1 13:0 14:0 15:0 16:1 17:1 18:0 19:0 20:1 21:0 22:0 23:0 24:0 25:0 26:0 27:0 28:1 29:0 30:0 31:0 #
0.050693662450963954 1:1 2:1.1799999 3:0 4:0 5:0 6:0 7:0 8:1 9:1 10:0 11:0.5 12:1 13:0 14:0 15:1 16:0 17:1 18:0 19:0 20:0 21:0 22:0 23:0 24:0 25:0 26:0 27:0 28:1 29:0 30:0 31:0 #
0.050693662450963954 1:0 2:0.86000001 3:1 4:0.02 5:0 6:0 7:0 8:1 9:1 10:0 11:0.1 12:0 13:0 14:0 15:0 16:0 17:1 18:0 19:0 20:1 21:0 22:0 23:0 24:0 25:0 26:0 27:0 28:1 29:0 30:0 31:0 #
-0.050693662450963954 1:1 2:0.51999998 3:0 4:0 5:0 6:0 7:0 8:1 9:0 10:0 11:1.8 12:1 13:0 14:0 15:1 16:1 17:1 18:0 19:0 20:0 21:0 22:0 23:0 24:0 25:0 26:0 27:0 28:1 29:0 30:0 31:0 #
-0.050693662450963954 1:1 2:0.22 3:0 4:0 5:0 6:0 7:0 8:1 9:0 10:0 11:1.1 12:1 13:0 14:0 15:1 16:1 17:1 18:0 19:0 20:0 21:0 22:0 23:0 24:0 25:0 26:0 27:0 28:1 29:0 30:0 31:0 #
-0.050693662450963954 1:1 2:0.89999998 3:0 4:0 5:0 6:0 7:0 8:1 9:0 10:0 11:1.9 12:1 13:0 14:0 15:1 16:0 17:1 18:0 19:0 20:0 21:0 22:0 23:0 24:0 25:0 26:0 27:0 28:1 29:0 30:0 31:0 #
0.050693662450963954 1:1 2:2.1199999 3:0 4:0 5:0 6:0 7:0 8:1 9:0 10:0 11:0.2 12:1 13:0 14:0 15:1 16:1 17:1 18:0 19:0 20:0 21:0 22:0 23:0 24:0 25:0 26:0 27:0 28:1 29:0 30:0 31:0 #
-0.050693662450963954 1:0 2:1.0599999 3:1 4:0.02 5:0 6:1 7:0 8:1 9:1 10:0 11:0.1 12:0 13:0 14:0 15:0 16:0 17:1 18:1 19:0 20:1 21:0 22:0 23:0 24:0 25:0 26:0 27:0 28:0 29:1 30:0 31:0 #
-0.050693662450963954 1:0 2:1.22 3:1 4:0.02 5:0 6:0 7:0 8:1 9:1 10:0 11:0.2 12:0 13:0 14:0 15:0 16:0 17:1 18:0 19:0 20:1 21:0 22:0 23:0 24:0 25:0 26:0 27:0 28:1 29:0 30:0 31:0 #
-0.042267205353706282 1:0 2:3.1199999 3:1 4:0.02 5:0 6:0 7:0 8:1 9:0 10:0 11:0.1 12:0 13:0 14:0 15:0 16:0 17:1 18:0 19:0 20:1 21:0 22:0 23:0 24:0 25:0 26:0 27:0 28:0 29:0 30:0 31:1 #
0.050693662450963954 1:1 2:2.98 3:0 4:0 5:0 6:0 7:0 8:1 9:0 10:1 11:0.1 12:1 13:0 14:0 15:0 16:0 17:1 18:0 19:0 20:0 21:0 22:0 23:0 24:0 25:1 26:0 27:0 28:0 29:0 30:0 31:1 #
0.050693662450963954 1:0 2:1.02 3:1 4:0.02 5:0 6:1 7:0 8:1 9:1 10:0 11:0.1 12:0 13:0 14:0 15:0 16:0 17:1 18:1 19:0 20:0 21:0 22:0 23:0 24:0 25:1 26:0 27:0 28:1 29:0 30:0 31:0 #
-0.050693662450963954 1:0 2:15.5 3:0 4:0.1 5:0 6:0 7:0 8:1 9:0 10:0 11:0.1 12:0 13:0 14:0 15:1 16:0 17:1 18:0 19:0 20:1 21:0 22:0 23:0 24:0 25:0 26:1 27:1 28:0 29:0 30:0 31:1 #
0.050693662450963954 1:0 2:0.69999999 3:1 4:0.02 5:0 6:0 7:0 8:1 9:1 10:0 11:0.1 12:0 13:0 14:0 15:0 16:0 17:0 18:0 19:0 20:0 21:0 22:0 23:0 24:0 25:0 26:0 27:0 28:1 29:0 30:0 31:0 #
-0.050693662450963954 1:1 2:0.16 3:0 4:0 5:0 6:0 7:0 8:1 9:0 10:0 11:0.40000001 12:1 13:0 14:0 15:0 16:1 17:1 18:0 19:0 20:0 21:0 22:0 23:0 24:0 25:0 26:0 27:0 28:0 29:0 30:1 31:0 #
-0.050693662450963954 1:1 2:0.31999999 3:0 4:0 5:0 6:1 7:0 8:1 9:0 10:0 11:0.89999998 12:1 13:0 14:0 15:1 16:1 17:1 18:0 19:0 20:0 21:0 22:0 23:0 24:0 25:0 26:0 27:0 28:1 29:0 30:0 31:0 #
-0.050693662450963954 1:0 2:4.3600001 3:1 4:0.02 5:0 6:0 7:0 8:1 9:0 10:0 11:1.8 12:1 13:0 14:0 15:1 16:1 17:1 18:0 19:0 20:0 21:0 22:0 23:0 24:0 25:0 26:0 27:0 28:0 29:1 30:0 31:0 #
0.050693662450963954 1:1 2:2 3:0 4:0 5:0 6:1 7:0 8:1 9:0 10:1 11:0.1 12:0 13:0 14:0 15:0 16:0 17:0 18:0 19:1 20:0 21:0 22:0 23:0 24:0 25:1 26:0 27:0 28:0 29:0 30:0 31:1 #
-0.050693662450963954 1:1 2:0.38 3:0 4:0 5:0 6:1 7:0 8:1 9:1 10:0 11:0.1 12:1 13:0 14:0 15:0 16:0 17:1 18:0 19:0 20:0 21:0 22:0 23:0 24:0 25:0 26:0 27:0 28:0 29:0 30:1 31:0 #
-0.050693662450963954 1:1 2:2.5 3:0 4:0 5:0 6:1 7:0 8:1 9:1 10:0 11:0.1 12:0 13:0 14:0 15:0 16:0 17:0 18:0 19:0 20:0 21:0 22:0 23:0 24:0 25:0 26:0 27:0 28:1 29:0 30:0 31:0 #
-0.050693662450963954 1:1 2:0.28 3:0 4:0 5:0 6:0 7:0 8:1 9:0 10:0 11:3.7 12:0 13:0 14:0 15:0 16:1 17:1 18:0 19:0 20:0 21:0 22:0 23:0 24:1 25:0 26:0 27:0 28:0 29:0 30:0 31:1 #
-0.050693662450963954 1:1 2:1.4 3:0 4:0 5:0 6:1 7:0 8:1 9:1 10:0 11:0.1 12:0 13:0 14:0 15:0 16:0 17:0 18:0 19:0 20:0 21:0 22:0 23:0 24:0 25:0 26:0 27:0 28:1 29:0 30:0 31:0 #
-0.050693662450963954 1:1 2:0.31999999 3:0 4:0 5:0 6:1 7:0 8:1 9:1 10:0 11:2.4000001 12:0 13:0 14:0 15:0 16:1 17:1 18:0 19:0 20:0 21:0 22:0 23:0 24:0 25:0 26:0 27:0 28:1 29:0 30:0 31:0 #
0.050693662450963954 1:0 2:1.5 3:1 4:0.02 5:0 6:0 7:0 8:1 9:1 10:0 11:0.1 12:0 13:0 14:0 15:0 16:0 17:1 18:0 19:0 20:0 21:0 22:0 23:0 24:0 25:0 26:0 27:0 28:1 29:0 30:0 31:0 #
0.050693662450963954 1:0 2:2.5999999 3:1 4:0.02 5:0 6:1 7:0 8:1 9:1 10:0 11:0.1 12:0 13:0 14:0 15:0 16:0 17:1 18:0 19:0 20:0 21:0 22:0 23:0 24:0 25:0 26:0 27:0 28:1 29:0 30:0 31:0 #
0.050693662450963954 1:0 2:0.80000001 3:1 4:0.02 5:0 6:0 7:0 8:1 9:0 10:0 11:0.1 12:0 13:0 14:0 15:1 16:0 17:1 18:0 19:0 20:0 21:0 22:0 23:0 24:0 25:0 26:0 27:0 28:0 29:0 30:0 31:1 #
0.050693662450963954 1:0 2:0.94 3:1 4:0.02 5:0 6:0 7:0 8:1 9:1 10:0 11:0.2 12:0 13:0 14:0 15:0 16:0 17:1 18:0 19:0 20:0 21:0 22:0 23:0 24:0 25:0 26:0 27:0 28:1 29:0 30:0 31:0 #
-0.050693662450963954 1:0 2:2.8 3:1 4:0.02 5:0 6:0 7:0 8:1 9:1 10:0 11:0.1 12:0 13:0 14:0 15:1 16:0 17:1 18:0 19:0 20:0 21:0 22:0 23:0 24:0 25:0 26:1 27:1 28:1 29:0 30:0 31:0 #
0.050693662450963954 1:0 2:0.46000001 3:1 4:0.02 5:0 6:0 7:0 8:1 9:1 10:0 11:10.5 12:1 13:0 14:0 15:0 16:1 17:1 18:0 19:0 20:0 21:0 22:0 23:0 24:0 25:0 26:0 27:0 28:1 29:0 30:0 31:0 #
-0.050693662450963954 1:0 2:1.46 3:1 4:0.02 5:0 6:0 7:0 8:1 9:1 10:0 11:0.1 12:0 13:0 14:0 15:0 16:0 17:1 18:1 19:0 20:1 21:0 22:0 23:0 24:0 25:0 26:0 27:0 28:1 29:0 30:0 31:0 #
-0.050693662450963954 1:0 2:0.92000002 3:1 4:0.02 5:0 6:0 7:0 8:1 9:1 10:0 11:1.4 12:1 13:0 14:0 15:0 16:0 17:1 18:0 19:0 20:0 21:0 22:0 23:0 24:0 25:1 26:0 27:0 28:1 29:0 30:0 31:0 #
-0.050693662450963954 1:0 2:1.78 3:1 4:0.02 5:0 6:1 7:0 8:1 9:1 10:0 11:0.1 12:0 13:0 14:0 15:0 16:0 17:1 18:0 19:0 20:1 21:0 22:0 23:0 24:0 25:0 26:0 27:0 28:1 29:0 30:0 31:0 #
-0.050693662450963954 1:1 2:0.88 3:0 4:0 5:0 6:1 7:0 8:1 9:1 10:0 11:0.40000001 12:0 13:0 14:0 15:0 16:0 17:1 18:0 19:1 20:0 21:0 22:0 23:0 24:0 25:1 26:0 27:0 28:1 29:0 30:0 31:0 #
0.050693662450963954 1:0 2:2.8599999 3:0 4:0.039999999 5:0 6:1 7:0 8:1 9:1 10:0 11:0.2 12:0 13:0 14:0 15:0 16:0 17:1 18:1 19:0 20:1 21:0 22:0 23:0 24:0 25:0 26:0 27:0 28:1 29:0 30:0 31:0 #
0.050693662450963954 1:1 2:1.58 3:0 4:0 5:0 6:0 7:0 8:1 9:1 10:0 11:0.1 12:0 13:1 14:0 15:0 16:0 17:1 18:0 19:0 20:0 21:0 22:0 23:0 24:0 25:1 26:0 27:0 28:1 29:0 30:0 31:0 #
-0.050693662450963954 1:1 2:2.8199999 3:0 4:0 5:0 6:1 7:0 8:1 9:1 10:0 11:0.1 12:0 13:0 14:0 15:0 16:0 17:0 18:1 19:0 20:0 21:0 22:0 23:0 24:0 25:0 26:0 27:0 28:0 29:0 30:1 31:0 #
0.050693662450963954 1:1 2:2.74 3:0 4:0 5:0 6:0 7:0 8:1 9:0 10:0 11:1.5 12:0 13:0 14:0 15:1 16:0 17:1 18:0 19:0 20:0 21:0 22:0 23:0 24:0 25:0 26:1 27:0 28:0 29:1 30:0 31:0 #
0.050693662450963954 1:1 2:0.47999999 3:0 4:0 5:0 6:0 7:0 8:1 9:0 10:0 11:5.9000001 12:1 13:0 14:0 15:0 16:1 17:1 18:0 19:0 20:0 21:0 22:0 23:0 24:0 25:0 26:0 27:0 28:0 29:0 30:0 31:1 #
-0.050693662450963954 1:0 2:0.95999998 3:1 4:0.02 5:0 6:1 7:0 8:1 9:1 10:0 11:0.1 12:0 13:1 14:0 15:1 16:0 17:1 18:0 19:0 20:0 21:0 22:0 23:0 24:0 25:0 26:0 27:0 28:1 29:0 30:0 31:0 #
-0.016871519786008871 1:1 2:1.48 3:0 4:0 5:0 6:1 7:0 8:1 9:1 10:0 11:0.1 12:0 13:0 14:1 15:0 16:0 17:1 18:0 19:0 20:0 21:0 22:0 23:0 24:0 25:0 26:0 27:0 28:1 29:0 30:0 31:0 #
0.050693662450963954 1:0 2:3.4000001 3:1 4:0.02 5:0 6:1 7:0 8:1 9:0 10:1 11:0.1 12:1 13:0 14:0 15:0 16:0 17:1 18:0 19:0 20:0 21:0 22:0 23:0 24:0 25:1 26:0 27:0 28:0 29:0 30:0 31:1 #
0.050693662450963954 1:0 2:0.31999999 3:1 4:0.02 5:0 6:1 7:0 8:1 9:1 10:0 11:0.1 12:0 13:0 14:0 15:0 16:0 17:1 18:0 19:0 20:0 21:0 22:0 23:0 24:0 25:0 26:0 27:0 28:1 29:0 30:0 31:0 #
0.050693662450963954 1:0 2:1.12 3:1 4:0.02 5:0 6:0 7:0 8:1 9:1 10:0 11:0.1 12:0 13:0 14:0 15:0 16:0 17:1 18:1 19:0 20:0 21:0 22:0 23:0 24:0 25:1 26:0 27:0 28:1 29:0 30:0 31:0 #
-0.04612079502740251 1:0 2:1.46 3:1 4:0.02 5:0 6:0 7:0 8:1 9:1 10:0 11:0.1 12:0 13:0 14:0 15:0 16:0 17:1 18:0 19:0 20:1 21:0 22:0 23:0 24:0 25:0 26:0 27:0 28:1 29:0 30:0 31:0 #
-0.050693662450963954 1:1 2:1.42 3:0 4:0 5:0 6:0 7:0 8:1 9:0 10:0 11:1.8 12:1 13:0 14:0 15:1 16:1 17:1 18:0 19:0 20:0 21:0 22:0 23:0 24:0 25:0 26:0 27:0 28:0 29:1 30:0 31:0 #
-0.050693662450963954 1:1 2:0.18000001 3:0 4:0 5:0 6:0 7:0 8:1 9:1 10:0 11:1.8 12:0 13:1 14:0 15:0 16:1 17:1 18:0 19:0 20:1 21:0 22:0 23:0 24:0 25:0 26:0 27:0 28:1 29:0 30:0 31:0 #
0.050693662450963954 1:1 2:5 3:0 4:0 5:0 6:1 7:0 8:1 9:1 10:0 11:0.40000001 12:1 13:0 14:0 15:0 16:0 17:1 18:0 19:0 20:0 21:0 22:0 23:0 24:0 25:1 26:0 27:0 28:0 29:0 30:1 31:0 #
0.050693662450963954 1:1 2:0.34 3:0 4:0 5:0 6:0 7:0 8:1 9:0 10:1 11:1.1 12:0 13:1 14:0 15:0 16:1 17:1 18:0 19:0 20:0 21:0 22:0 23:0 24:0 25:0 26:0 27:0 28:0 29:0 30:0 31:1 #
0.050693662450963954 1:1 2:0.36000001 3:0 4:0 5:0 6:0 7:0 8:1 9:1 10:0 11:0.60000002 12:1 13:0 14:0 15:0 16:0 17:1 18:0 19:1 20:0 21:0 22:0 23:0 24:0 25:1 26:0 27:0 28:0 29:0 30:1 31:0 #
-0.050693662450963954 1:1 2:0.54000002 3:0 4:0 5:0 6:1 7:0 8:1 9:1 10:0 11:0.2 12:0 13:0 14:0 15:0 16:0 17:1 18:1 19:0 20:0 21:0 22:0 23:0 24:0 25:1 26:0 27:0 28:1 29:0 30:0 31:0 #
-0.050693662450963954 1:0 2:1.0599999 3:1 4:0.02 5:0 6:0 7:0 8:1 9:1 10:0 11:0.1 12:0 13:0 14:0 15:0 16:0 17:1 18:0 19:0 20:1 21:0 22:0 23:0 24:0 25:0 26:0 27:0 28:1 29:0 30:0 31:0 #
0.050693662450963954 1:1 2:1.64 3:0 4:0 5:0 6:0 7:0 8:1 9:0 10:0 11:0.2 12:1 13:0 14:0 15:1 16:1 17:1 18:0 19:0 20:0 21:0 22:0 23:0 24:0 25:0 26:0 27:0 28:0 29:0 30:0 31:1 #
-0.050693662450963954 1:1 2:1.1799999 3:0 4:0 5:0 6:1 7:0 8:1 9:0 10:0 11:0.1 12:0 13:0 14:0 15:1 16:0 17:1 18:0 19:0 20:0 21:0 22:0 23:0 24:0 25:0 26:1 27:1 28:0 29:0 30:0 31:1 #
0.050693662450963954 1:0 2:1.36 3:1 4:0.02 5:0 6:0 7:0 8:1 9:1 10:0 11:10.5 12:0 13:0 14:0 15:0 16:0 17:1 18:1 19:0 20:0 21:0 22:0 23:0 24:0 25:0 26:0 27:0 28:1 29:0 30:0 31:0 #
0.050693662450963954 1:1 2:1.2 3:0 4:0 5:0 6:1 7:1 8:1 9:1 10:0 11:0.1 12:0 13:0 14:0 15:0 16:0 17:1 18:1 19:0 20:0 21:0 22:0 23:0 24:1 25:1 26:0 27:0 28:1 29:0 30:0 31:0 #
-0.050693662450963954 1:0 2:15.02 3:0 4:0.079999998 5:0 6:0 7:0 8:1 9:0 10:1 11:3.5 12:1 13:0 14:0 15:0 16:0 17:1 18:0 19:0 20:0 21:0 22:0 23:0 24:0 25:1 26:0 27:0 28:0 29:0 30:0 31:1 #
-0.050693662450963954 1:1 2:0.88 3:0 4:0 5:0 6:0 7:0 8:1 9:0 10:0 11:1.3 12:1 13:0 14:0 15:1 16:1 17:1 18:0 19:0 20:0 21:0 22:0 23:0 24:0 25:0 26:0 27:0 28:1 29:0 30:0 31:0 #
-0.050693662450963954 1:1 2:0.98000002 3:0 4:0 5:0 6:0 7:0 8:1 9:1 10:0 11:1.5 12:1 13:0 14:0 15:0 16:1 17:1 18:0 19:0 20:0 21:0 22:0 23:0 24:0 25:0 26:0 27:0 28:1 29:0 30:0 31:0 #
0.050693662450963954 1:0 2:1.62 3:1 4:0.02 5:0 6:1 7:0 8:1 9:1 10:0 11:0.1 12:0 13:0 14:0 15:0 16:0 17:1 18:1 19:0 20:0 21:0 22:0 23:0 24:0 25:1 26:0 27:0 28:1 29:0 30:0 31:0 #
0.050693662450963954 1:0 2:1.66 3:1 4:0.02 5:0 6:0 7:0 8:1 9:1 10:0 11:0.1 12:0 13:0 14:0 15:0 16:0 17:1 18:1 19:1 20:0 21:0 22:0 23:0 24:0 25:0 26:0 27:0 28:1 29:0 30:0 31:0 #
0.050693662450963954 1:0 2:1.64 3:1 4:0.02 5:0 6:1 7:0 8:1 9:1 10:0 11:0.1 12:0 13:0 14:0 15:0 16:0 17:1 18:0 19:0 20:0 21:0 22:0 23:0 24:0 25:0 26:0 27:0 28:1 29:0 30:0 31:0 #
-0.050693662450963954 1:0 2:0.34 3:1 4:0.02 5:0 6:0 7:0 8:1 9:1 10:0 11:0.1 12:0 13:0 14:0 15:0 16:0 17:1 18:1 19:0 20:1 21:0 22:0 23:0 24:0 25:0 26:0 27:0 28:1 29:0 30:0 31:0 #
-0.050693662450963954 1:0 2:0.68000001 3:1 4:0.02 5:0 6:0 7:0 8:1 9:0 10:0 11:2.4000001 12:0 13:0 14:0 15:0 16:0 17:1 18:1 19:1 20:0 21:0 22:0 23:0 24:0 25:0 26:0 27:0 28:0 29:0 30:0 31:1 #
-0.050693662450963954 1:0 2:0.88 3:1 4:0.02 5:0 6:1 7:0 8:1 9:0 10:1 11:0.1 12:0 13:0 14:0 15:0 16:0 17:1 18:0 19:0 20:0 21:0 22:0 23:0 24:0 25:1 26:0 27:0 28:0 29:0 30:0 31:1 #
0.050693662450963954 1:1 2:0.36000001 3:0 4:0 5:0 6:0 7:0 8:1 9:0 10:0 11:0.2 12:1 13:0 14:0 15:0 16:1 17:1 18:0 19:0 20:0 21:0 22:0 23:0 24:0 25:0 26:0 27:0 28:0 29:0 30:1 31:0 #
0.050693662450963954 1:1 2:0.36000001 3:0 4:0 5:0 6:0 7:0 8:1 9:0 10:1 11:0.2 12:0 13:0 14:0 15:0 16:0 17:1 18:1 19:0 20:0 21:0 22:0 23:0 24:0 25:0 26:0 27:0 28:0 29:0 30:0 31:1 #
0.050693662450963954 1:1 2:0.41999999 3:0 4:0 5:0 6:0 7:0 8:1 9:0 10:0 11:4.9000001 12:1 13:0 14:0 15:0 16:1 17:1 18:0 19:0 20:0 21:0 22:0 23:0 24:0 25:0 26:0 27:0 28:0 29:0 30:0 31:1 #
-0.050693662450963954 1:1 2:1.48 3:0 4:0 5:0 6:0 7:0 8:1 9:0 10:0 11:2.9000001 12:0 13:0 14:0 15:0 16:0 17:1 18:0 19:0 20:0 21:0 22:0 23:0 24:0 25:1 26:0 27:0 28:0 29:0 30:0 31:1 #
0.050693662450963954 1:0 2:3.1800001 3:1 4:0.02 5:0 6:0 7:0 8:1 9:0 10:0 11:0.1 12:0 13:0 14:0 15:1 16:0 17:1 18:0 19:0 20:0 21:0 22:0 23:0 24:0 25:0 26:1 27:1 28:1 29:0 30:0 31:0 #
0.050693662450963954 1:1 2:2.24 3:0 4:0 5:0 6:0 7:0 8:1 9:1 10:0 11:0.1 12:0 13:0 14:0 15:0 16:0 17:1 18:1 19:1 20:0 21:0 22:0 23:0 24:0 25:1 26:0 27:0 28:1 29:0 30:0 31:0 #
0.050693662450963954 1:1 2:0.31999999 3:0 4:0 5:0 6:0 7:0 8:1 9:0 10:0 11:1 12:0 13:0 14:0 15:1 16:0 17:1 18:0 19:0 20:0 21:0 22:0 23:0 24:0 25:0 26:0 27:0 28:0 29:0 30:0 31:1 #
0.050693662450963954 1:0 2:4.1999998 3:1 4:0.02 5:0 6:1 7:0 8:1 9:0 10:1 11:0.89999998 12:1 13:0 14:0 15:0 16:0 17:1 18:0 19:0 20:0 21:0 22:0 23:0 24:0 25:0 26:0 27:0 28:0 29:0 30:0 31:1 #
-0.050693662450963954 1:0 2:2.76 3:1 4:0.02 5:0 6:1 7:0 8:1 9:0 10:1 11:0.1 12:1 13:0 14:0 15:0 16:0 17:1 18:0 19:0 20:0 21:0 22:0 23:0 24:0 25:1 26:0 27:0 28:0 29:0 30:0 31:1 #
-0.050693662450963954 1:0 2:4.1799998 3:1 4:0.02 5:0 6:1 7:0 8:1 9:0 10:1 11:0.2 12:1 13:0 14:0 15:0 16:0 17:1 18:0 19:0 20:0 21:0 22:0 23:0 24:0 25:0 26:0 27:0 28:0 29:0 30:0 31:1 #
0.050693662450963954 1:1 2:0.31999999 3:0 4:0 5:0 6:0 7:0 8:1 9:1 10:0 11:0.1 12:0 13:0 14:0 15:0 16:0 17:1 18:0 19:0 20:0 21:0 22:0 23:0 24:0 25:0 26:0 27:0 28:1 29:0 30:0 31:0 #
0.050693662450963954 1:1 2:0.30000001 3:0 4:0 5:0 6:0 7:0 8:1 9:1 10:0 11:0.1 12:0 13:0 14:0 15:0 16:1 17:1 18:0 19:0 20:1 21:0 22:0 23:0 24:0 25:0 26:0 27:0 28:1 29:0 30:0 31:0 #
0.050693662450963954 1:1 2:0.75999999 3:0 4:0 5:0 6:0 7:0 8:1 9:0 10:0 11:0.60000002 12:0 13:0 14:0 15:1 16:0 17:1 18:0 19:0 20:0 21:0 22:0 23:0 24:0 25:0 26:1 27:0 28:0 29:1 30:0 31:0 #
-0.050693662450963954 1:1 2:0.60000002 3:0 4:0 5:0 6:0 7:0 8:1 9:1 10:0 11:1 12:0 13:0 14:0 15:0 16:0 17:1 18:1 19:1 20:0 21:0 22:0 23:0 24:0 25:0 26:0 27:0 28:1 29:0 30:0 31:0 #
-0.050693662450963954 1:0 2:2.1400001 3:1 4:0.02 5:0 6:0 7:0 8:1 9:1 10:0 11:0.1 12:0 13:0 14:0 15:1 16:0 17:1 18:0 19:0 20:0 21:0 22:0 23:0 24:0 25:0 26:1 27:1 28:0 29:1 30:0 31:0 #
-0.050693662450963954 1:0 2:6.8000002 3:0 4:0.039999999 5:0 6:0 7:0 8:1 9:0 10:0 11:2.0999999 12:1 13:0 14:0 15:1 16:1 17:1 18:0 19:0 20:0 21:0 22:0 23:0 24:0 25:0 26:0 27:0 28:0 29:1 30:0 31:0 #
0.050693662450963954 1:0 2:1.98 3:1 4:0.02 5:0 6:0 7:0 8:1 9:0 10:0 11:3.3 12:0 13:0 14:0 15:1 16:0 17:1 18:0 19:0 20:0 21:0 22:0 23:0 24:0 25:0 26:1 27:1 28:1 29:0 30:0 31:0 #
0.050693662450963954 1:0 2:2.5799999 3:1 4:0.02 5:0 6:1 7:0 8:1 9:0 10:1 11:0.1 12:1 13:0 14:0 15:0 16:0 17:1 18:0 19:0 20:0 21:0 22:0 23:0 24:1 25:1 26:0 27:0 28:0 29:0 30:0 31:1 #
0.050693662450963954 1:0 2:1.74 3:1 4:0.02 5:0 6:1 7:0 8:1 9:0 10:1 11:0.1 12:1 13:0 14:1 15:0 16:0 17:1 18:0 19:0 20:0 21:0 22:0 23:0 24:1 25:0 26:0 27:0 28:0 29:0 30:0 31:1 #
0.050693662450963954 1:0 2:0.98000002 3:1 4:0.02 5:0 6:1 7:0 8:1 9:0 10:0 11:0.1 12:0 13:0 14:0 15:0 16:0 17:1 18:1 19:0 20:1 21:0 22:0 23:0 24:0 25:1 26:0 27:0 28:0 29:0 30:0 31:1 #
-0.050693662450963954 1:1 2:0.41999999 3:0 4:0 5:0 6:0 7:0 8:1 9:0 10:0 11:0.1 12:1 13:0 14:0 15:0 16:1 17:1 18:0 19:0 20:0 21:0 22:0 23:0 24:0 25:0 26:0 27:0 28:1 29:0 30:0 31:0 #
0.050693662450963954 1:1 2:0.40000001 3:0 4:0 5:0 6:0 7:0 8:1 9:1 10:0 11:0.2 12:0 13:0 14:0 15:0 16:0 17:1 18:0 19:0 20:1 21:0 22:0 23:0 24:0 25:1 26:0 27:0 28:0 29:1 30:0 31:0 #
0.050693662450963954 1:1 2:0.34 3:0 4:0 5:0 6:0 7:0 8:1 9:0 10:0 11:0.40000001 12:0 13:1 14:0 15:1 16:1 17:1 18:0 19:0 20:0 21:0 22:0 23:0 24:0 25:0 26:1 27:0 28:0 29:1 30:0 31:0 #
0.050693662450963954 1:1 2:0.56 3:0 4:0 5:0 6:0 7:0 8:1 9:1 10:0 11:0.1 12:0 13:0 14:0 15:0 16:0 17:1 18:0 19:0 20:0 21:0 22:0 23:0 24:0 25:0 26:0 27:0 28:0 29:0 30:1 31:0 #
0.050693662450963954 1:1 2:0.57999998 3:0 4:0 5:0 6:1 7:0 8:1 9:0 10:1 11:0.1 12:0 13:1 14:0 15:0 16:0 17:1 18:0 19:0 20:0 21:0 22:0 23:0 24:0 25:1 26:0 27:0 28:0 29:0 30:0 31:1 #
-0.050693662450963954 1:0 2:1.72 3:1 4:0.02 5:0 6:0 7:0 8:1 9:0 10:0 11:0.1 12:1 13:0 14:0 15:0 16:0 17:1 18:0 19:0 20:0 21:0 22:0 23:0 24:0 25:1 26:0 27:0 28:1 29:0 30:0 31:0 #
-0.050693662450963954 1:0 2:6.5999999 3:1 4:0.02 5:0 6:0 7:0 8:1 9:1 10:0 11:0.1 12:1 13:0 14:0 15:0 16:0 17:1 18:0 19:0 20:1 21:0 22:0 23:0 24:0 25:0 26:0 27:0 28:1 29:0 30:0 31:0 #
-0.050693662450963954 1:1 2:2.78 3:0 4:0 5:0 6:0 7:0 8:1 9:1 10:0 11:0.1 12:0 13:0 14:0 15:0 16:0 17:1 18:0 19:0 20:1 21:0 22:0 23:0 24:0 25:0 26:0 27:0 28:1 29:0 30:0 31:0 #
0.050693662450963954 1:1 2:0.77999997 3:0 4:0 5:0 6:0 7:0 8:1 9:0 10:0 11:0.5 12:0 13:0 14:0 15:1 16:0 17:1 18:0 19:0 20:0 21:0 22:0 23:0 24:0 25:0 26:0 27:0 28:0 29:0 30:0 31:1 #
0.050693662450963954 1:0 2:2.3199999 3:1 4:0.02 5:0 6:1 7:0 8:1 9:0 10:0 11:1.5 12:0 13:0 14:0 15:1 16:0 17:1 18:0 19:0 20:0 21:0 22:0 23:0 24:0 25:0 26:1 27:0 28:0 29:1 30:0 31:0 #
-0.050693662450963954 1:0 2:1.9 3:1 4:0.02 5:0 6:0 7:0 8:1 9:0 10:0 11:1.9 12:1 13:0 14:0 15:1 16:1 17:1 18:0 19:0 20:0 21:0 22:0 23:0 24:0 25:0 26:0 27:0 28:1 29:0 30:0 31:0 #
-0.050693662450963954 1:1 2:1.02 3:0 4:0 5:0 6:0 7:0 8:1 9:0 10:1 11:0.1 12:1 13:0 14:0 15:0 16:0 17:1 18:0 19:0 20:0 21:0 22:0 23:0 24:0 25:1 26:0 27:0 28:0 29:0 30:0 31:1 #
-0.050693662450963954 1:1 2:1.24 3:0 4:0 5:0 6:1 7:0 8:1 9:1 10:0 11:1.8 12:0 13:0 14:0 15:0 16:0 17:1 18:1 19:0 20:0 21:0 22:0 23:0 24:0 25:1 26:0 27:0 28:0 29:0 30:1 31:0 #
-0.050693662450963954 1:1 2:2.3399999 3:0 4:0 5:0 6:0 7:0 8:1 9:0 10:1 11:0.1 12:0 13:0 14:0 15:0 16:0 17:1 18:0 19:0 20:0 21:0 22:0 23:0 24:0 25:0 26:0 27:0 28:0 29:0 30:0 31:1 #
0.050693662450963954 1:1 2:0.57999998 3:0 4:0 5:0 6:1 7:0 8:1 9:1 10:0 11:0.1 12:1 13:0 14:0 15:0 16:0 17:1 18:0 19:1 20:0 21:0 22:0 23:0 24:0 25:0 26:0 27:0 28:0 29:0 30:1 31:0 #
-0.050693662450963954 1:0 2:2.0599999 3:1 4:0.02 5:0 6:0 7:0 8:1 9:1 10:0 11:1.2 12:1 13:0 14:0 15:0 16:1 17:1 18:0 19:0 20:0 21:0 22:0 23:0 24:0 25:0 26:0 27:0 28:1 29:0 30:0 31:0 #
0.050693662450963954 1:1 2:0.60000002 3:0 4:0 5:0 6:0 7:0 8:1 9:0 10:0 11:0.1 12:0 13:1 14:0 15:0 16:0 17:0 18:0 19:0 20:1 21:0 22:0 23:0 24:0 25:0 26:0 27:0 28:0 29:0 30:0 31:1 #
-0.050693662450963954 1:0 2:0.81999999 3:1 4:0.02 5:0 6:0 7:0 8:1 9:0 10:0 11:1.1 12:1 13:0 14:0 15:0 16:1 17:1 18:0 19:0 20:1 21:0 22:0 23:0 24:0 25:0 26:0 27:0 28:0 29:0 30:0 31:1 #
0.050693662450963954 1:1 2:3.8599999 3:0 4:0 5:0 6:0 7:0 8:1 9:1 10:0 11:0.5 12:1 13:0 14:0 15:0 16:0 17:1 18:1 19:0 20:0 21:0 22:0 23:0 24:0 25:1 26:0 27:0 28:0 29:0 30:1 31:0 #
-0.050693662450963954 1:0 2:9.1400003 3:0 4:0.059999999 5:0 6:0 7:0 8:1 9:0 10:1 11:0.40000001 12:1 13:0 14:0 15:0 16:0 17:1 18:0 19:0 20:0 21:0 22:0 23:0 24:0 25:1 26:0 27:0 28:0 29:0 30:0 31:1 #
0.050693662450963954 1:1 2:0.44 3:0 4:0 5:0 6:0 7:0 8:1 9:1 10:0 11:4.3000002 12:0 13:1 14:0 15:0 16:1 17:1 18:0 19:0 20:1 21:0 22:0 23:0 24:0 25:0 26:0 27:0 28:1 29:0 30:0 31:0 #
0.050693662450963954 1:1 2:0.16 3:0 4:0 5:0 6:0 7:0 8:1 9:1 10:0 11:2.2 12:0 13:1 14:0 15:0 16:1 17:1 18:0 19:1 20:0 21:0 22:0 23:0 24:0 25:0 26:0 27:0 28:0 29:1 30:0 31:0 #
0.050693662450963954 1:0 2:3.22 3:1 4:0.02 5:0 6:0 7:0 8:1 9:1 10:0 11:0.89999998 12:0 13:0 14:0 15:0 16:0 17:1 18:1 19:0 20:0 21:0 22:0 23:0 24:0 25:0 26:0 27:0 28:1 29:0 30:0 31:0 #
-0.050693662450963954 1:1 2:0.57999998 3:0 4:0 5:0 6:1 7:0 8:1 9:1 10:0 11:0.1 12:0 13:0 14:0 15:0 16:0 17:1 18:1 19:0 20:0 21:0 22:0 23:0 24:0 25:1 26:0 27:0 28:1 29:0 30:0 31:0 #
-0.050693662450963954 1:1 2:0.18000001 3:0 4:0 5:0 6:0 7:0 8:1 9:0 10:0 11:1.3 12:0 13:1 14:0 15:1 16:1 17:1 18:0 19:0 20:0 21:0 22:0 23:0 24:0 25:0 26:0 27:0 28:1 29:0 30:0 31:0 #
-0.050693662450963954 1:1 2:0.23999999 3:0 4:0 5:0 6:1 7:0 8:1 9:1 10:0 11:0.1 12:0 13:1 14:0 15:0 16:0 17:1 18:0 19:0 20:0 21:0 22:0 23:0 24:0 25:1 26:0 27:0 28:0 29:0 30:1 31:0 #
-0.050693662450963954 1:1 2:0.23999999 3:0 4:0 5:0 6:0 7:0 8:1 9:0 10:0 11:1 12:1 13:0 14:0 15:1 16:1 17:1 18:0 19:0 20:0 21:0 22:0 23:0 24:0 25:0 26:0 27:0 28:1 29:0 30:0 31:0 #
0.050693662450963954 1:1 2:0.57999998 3:0 4:0 5:0 6:0 7:0 8:1 9:1 10:0 11:1.6 12:1 13:0 14:0 15:0 16:1 17:1 18:0 19:0 20:1 21:0 22:0 23:0 24:0 25:0 26:0 27:0 28:1 29:0 30:0 31:0 #
0.050693662450963954 1:0 2:3.52 3:1 4:0.02 5:0 6:1 7:0 8:1 9:0 10:1 11:0.89999998 12:1 13:0 14:0 15:0 16:0 17:1 18:0 19:0 20:0 21:0 22:0 23:0 24:0 25:0 26:0 27:0 28:0 29:0 30:0 31:1 #
-0.050693662450963954 1:1 2:0.36000001 3:0 4:0 5:0 6:0 7:0 8:1 9:0 10:0 11:0.1 12:1 13:0 14:0 15:0 16:1 17:1 18:0 19:0 20:0 21:0 22:0 23:0 24:0 25:0 26:0 27:0 28:1 29:0 30:0 31:0 #
0.050693662450963954 1:1 2:0.23999999 3:0 4:0 5:0 6:0 7:0 8:1 9:0 10:0 11:1.1 12:0 13:1 14:0 15:1 16:1 17:1 18:0 19:0 20:0 21:0 22:0 23:0 24:0 25:0 26:0 27:0 28:1 29:0 30:0 31:0 #
0.050693662450963954 1:1 2:0.34 3:0 4:0 5:0 6:0 7:0 8:1 9:1 10:0 11:1.5 12:0 13:1 14:0 15:0 16:1 17:1 18:0 19:0 20:0 21:0 22:0 23:0 24:0 25:0 26:0 27:0 28:0 29:0 30:1 31:0 #
0.050693662450963954 1:1 2:2.5999999 3:0 4:0 5:0 6:1 7:0 8:1 9:0 10:1 11:0.1 12:1 13:0 14:0 15:0 16:0 17:1 18:0 19:0 20:0 21:0 22:0 23:0 24:1 25:1 26:0 27:0 28:0 29:0 30:0 31:1 #
-0.050693662450963954 1:0 2:1.0599999 3:1 4:0.02 5:0 6:0 7:0 8:1 9:0 10:1 11:0.69999999 12:1 13:0 14:0 15:0 16:0 17:1 18:0 19:0 20:0 21:0 22:0 23:0 24:0 25:0 26:0 27:0 28:0 29:0 30:0 31:1 #
0.050693662450963954 1:1 2:2.7 3:0 4:0 5:0 6:0 7:0 8:1 9:1 10:0 11:1.6 12:0 13:0 14:0 15:0 16:0 17:1 18:0 19:1 20:0 21:0 22:0 23:0 24:0 25:0 26:0 27:0 28:0 29:0 30:1 31:0 #
-0.050693662450963954 1:0 2:1.14 3:1 4:0.02 5:0 6:0 7:0 8:1 9:1 10:0 11:0.1 12:0 13:0 14:0 15:0 16:0 17:1 18:0 19:0 20:1 21:0 22:0 23:0 24:0 25:0 26:0 27:0 28:1 29:0 30:0 31:0 #
-0.050693662450963954 1:1 2:0.81999999 3:0 4:0 5:0 6:1 7:0 8:1 9:1 10:0 11:0.1 12:0 13:1 14:0 15:0 16:0 17:1 18:0 19:0 20:0 21:0 22:0 23:0 24:0 25:0 26:0 27:0 28:0 29:0 30:1 31:0 #
0.050693662450963954 1:1 2:0.88 3:0 4:0 5:0 6:1 7:0 8:1 9:0 10:1 11:0.1 12:0 13:0 14:0 15:0 16:0 17:1 18:1 19:0 20:0 21:0 22:0 23:0 24:0 25:1 26:0 27:0 28:0 29:0 30:0 31:1 #
0.050693662450963954 1:1 2:1.04 3:0 4:0 5:0 6:0 7:0 8:1 9:0 10:1 11:0.60000002 12:0 13:0 14:0 15:0 16:0 17:1 18:1 19:0 20:0 21:0 22:0 23:0 24:0 25:1 26:0 27:0 28:0 29:0 30:0 31:1 #
0.050693662450963954 1:0 2:1.78 3:1 4:0.02 5:0 6:0 7:0 8:1 9:1 10:0 11:0.2 12:1 13:0 14:0 15:0 16:0 17:1 18:0 19:1 20:0 21:0 22:0 23:0 24:0 25:1 26:0 27:0 28:0 29:0 30:1 31:0 #
0.050693662450963954 1:0 2:3.8599999 3:1 4:0.02 5:0 6:0 7:0 8:1 9:1 10:0 11:4.8000002 12:1 13:0 14:0 15:0 16:1 17:1 18:0 19:1 20:0 21:0 22:0 23:0 24:0 25:0 26:0 27:0 28:1 29:0 30:0 31:0 #
-0.050693662450963954 1:1 2:2.6199999 3:0 4:0 5:0 6:1 7:0 8:1 9:1 10:0 11:1.8 12:0 13:0 14:0 15:0 16:0 17:1 18:1 19:0 20:0 21:0 22:0 23:0 24:0 25:1 26:0 27:0 28:0 29:0 30:1 31:0 #
-0.050693662450963954 1:1 2:1.1 3:0 4:0 5:0 6:1 7:0 8:1 9:0 10:0 11:1 12:1 13:0 14:0 15:1 16:1 17:1 18:0 19:0 20:0 21:0 22:0 23:0 24:0 25:0 26:0 27:0 28:1 29:0 30:0 31:0 #
0.050693662450963954 1:0 2:1.5599999 3:1 4:0.02 5:0 6:0 7:0 8:1 9:1 10:0 11:0.1 12:0 13:0 14:0 15:0 16:0 17:0 18:0 19:0 20:0 21:0 22:0 23:0 24:0 25:0 26:0 27:0 28:1 29:0 30:0 31:0 #
-0.050693662450963954 1:0 2:2.5799999 3:1 4:0.02 5:0 6:1 7:0 8:1 9:1 10:0 11:0.60000002 12:1 13:0 14:0 15:0 16:0 17:1 18:0 19:1 20:0 21:0 22:0 23:0 24:0 25:1 26:0 27:0 28:1 29:0 30:0 31:0 #
0.050693662450963954 1:0 2:2.8800001 3:0 4:0.039999999 5:0 6:1 7:0 8:1 9:0 10:0 11:0.30000001 12:0 13:0 14:0 15:1 16:0 17:1 18:0 19:0 20:0 21:0 22:0 23:0 24:0 25:0 26:1 27:1 28:1 29:0 30:0 31:0 #
-0.050693662450963954 1:1 2:0.80000001 3:0 4:0 5:0 6:0 7:0 8:1 9:1 10:0 11:0.1 12:0 13:1 14:0 15:0 16:0 17:1 18:0 19:1 20:0 21:0 22:0 23:0 24:0 25:1 26:0 27:0 28:0 29:0 30:1 31:0 #
-0.050693662450963954 1:1 2:0.31999999 3:0 4:0 5:0 6:0 7:0 8:1 9:1 10:0 11:0.69999999 12:0 13:1 14:0 15:0 16:0 17:1 18:0 19:0 20:0 21:0 22:0 23:0 24:0 25:1 26:0 27:0 28:0 29:0 30:1 31:0 #
-0.050693662450963954 1:0 2:2.72 3:1 4:0.02 5:0 6:0 7:0 8:1 9:0 10:0 11:0.1 12:0 13:0 14:0 15:1 16:0 17:1 18:0 19:0 20:0 21:0 22:0 23:0 24:0 25:0 26:1 27:1 28:0 29:0 30:0 31:1 #
-0.050693662450963954 1:1 2:0.69999999 3:0 4:0 5:0 6:0 7:0 8:1 9:1 10:0 11:0.80000001 12:0 13:0 14:0 15:0 16:0 17:1 18:1 19:1 20:0 21:0 22:0 23:0 24:0 25:1 26:0 27:0 28:1 29:0 30:0 31:0 #
0.050693662450963954 1:0 2:3.0599999 3:0 4:0.039999999 5:0 6:1 7:0 8:1 9:1 10:0 11:0.1 12:0 13:1 14:0 15:0 16:0 17:0 18:1 19:0 20:1 21:0 22:0 23:0 24:0 25:1 26:0 27:0 28:1 29:0 30:0 31:0 #
0.050693662450963954 1:0 2:3.78 3:0 4:0.039999999 5:0 6:0 7:0 8:1 9:0 10:0 11:0.89999998 12:1 13:0 14:0 15:1 16:1 17:1 18:0 19:0 20:0 21:0 22:0 23:0 24:0 25:0 26:0 27:1 28:1 29:0 30:0 31:0 #
0.050693662450963954 1:0 2:1.3200001 3:1 4:0.02 5:0 6:1 7:0 8:1 9:1 10:0 11:0.2 12:0 13:0 14:0 15:0 16:0 17:1 18:0 19:0 20:0 21:0 22:0 23:0 24:0 25:0 26:0 27:0 28:1 29:0 30:0 31:0 #
-0.050693662450963954 1:0 2:0.56 3:1 4:0.02 5:0 6:0 7:0 8:1 9:0 10:0 11:0.89999998 12:1 13:0 14:0 15:1 16:1 17:1 18:0 19:0 20:0 21:0 22:0 23:0 24:0 25:0 26:0 27:0 28:1 29:0 30:0 31:0 #
0.050693662450963954 1:1 2:0.81999999 3:0 4:0 5:0 6:0 7:0 8:1 9:1 10:0 11:0.1 12:0 13:0 14:0 15:0 16:0 17:1 18:0 19:0 20:0 21:0 22:0 23:0 24:0 25:0 26:0 27:0 28:0 29:0 30:1 31:0 #
-0.050693662450963954 1:1 2:0.22 3:0 4:0 5:0 6:0 7:0 8:1 9:0 10:0 11:0.60000002 12:0 13:0 14:0 15:1 16:1 17:1 18:0 19:0 20:0 21:0 22:0 23:0 24:0 25:0 26:0 27:0 28:1 29:0 30:0 31:0 #
0.050693662450963954 1:0 2:3.1800001 3:1 4:0.02 5:0 6:0 7:0 8:1 9:0 10:0 11:1 12:1 13:0 14:0 15:1 16:1 17:1 18:0 19:0 20:0 21:0 22:0 23:0 24:0 25:0 26:0 27:0 28:0 29:0 30:0 31:1 #
-0.050693662450963954 1:1 2:0.75999999 3:0 4:0 5:0 6:1 7:0 8:1 9:1 10:0 11:0.1 12:0 13:0 14:0 15:0 16:0 17:1 18:0 19:0 20:0 21:0 22:0 23:0 24:0 25:0 26:0 27:0 28:0 29:0 30:1 31:0 #
-0.050693662450963954 1:0 2:3.02 3:1 4:0.02 5:0 6:0 7:0 8:1 9:0 10:0 11:0.1 12:1 13:0 14:0 15:0 16:0 17:0 18:0 19:0 20:1 21:0 22:0 23:0 24:0 25:0 26:0 27:0 28:0 29:0 30:0 31:1 #
0.050693662450963954 1:1 2:1.22 3:0 4:0 5:0 6:0 7:0 8:1 9:1 10:0 11:0.1 12:0 13:1 14:0 15:0 16:0 17:1 18:0 19:0 20:0 21:0 22:0 23:0 24:0 25:1 26:0 27:0 28:1 29:0 30:0 31:0 #
-0.050693662450963954 1:1 2:0.23999999 3:0 4:0 5:0 6:0 7:0 8:1 9:0 10:0 11:1 12:1 13:0 14:0 15:1 16:1 17:1 18:0 19:0 20:0 21:0 22:0 23:0 24:0 25:0 26:0 27:0 28:1 29:0 30:0 31:0 #
0.050693662450963954 1:0 2:3.6199999 3:1 4:0.02 5:0 6:1 7:0 8:1 9:1 10:0 11:0.1 12:1 13:0 14:0 15:0 16:0 17:1 18:0 19:0 20:1 21:0 22:0 23:0 24:0 25:0 26:0 27:0 28:0 29:1 30:0 31:0 #
0.050693662450963954 1:0 2:0.25999999 3:1 4:0.02 5:0 6:0 7:0 8:1 9:0 10:0 11:1.3 12:0 13:0 14:0 15:1 16:0 17:1 18:0 19:0 20:0 21:0 22:0 23:0 24:0 25:0 26:0 27:0 28:1 29:0 30:0 31:0 #
-0.050693662450963954 1:1 2:0.41999999 3:0 4:0 5:0 6:1 7:0 8:1 9:1 10:0 11:0.1 12:0 13:0 14:1 15:0 16:0 17:1 18:0 19:0 20:0 21:0 22:0 23:0 24:0 25:1 26:0 27:0 28:1 29:0 30:0 31:0 #
-0.050693662450963954 1:1 2:0.44 3:0 4:0 5:0 6:1 7:0 8:1 9:1 10:0 11:0.1 12:0 13:0 14:0 15:0 16:0 17:1 18:0 19:0 20:1 21:0 22:0 23:0 24:0 25:0 26:0 27:0 28:0 29:1 30:0 31:0 #
-0.050693662450963954 1:1 2:0.40000001 3:0 4:0 5:0 6:1 7:0 8:1 9:1 10:0 11:0.30000001 12:0 13:0 14:0 15:0 16:0 17:1 18:1 19:0 20:0 21:0 22:0 23:0 24:0 25:0 26:0 27:0 28:0 29:1 30:0 31:0 #
0.050693662450963954 1:0 2:3.3 3:0 4:0.039999999 5:0 6:0 7:0 8:1 9:0 10:0 11:0.89999998 12:1 13:0 14:0 15:1 16:1 17:1 18:0 19:0 20:0 21:0 22:0 23:0 24:0 25:0 26:0 27:1 28:1 29:0 30:0 31:0 #
0.050693662450963954 1:0 2:1.7 3:1 4:0.02 5:0 6:0 7:0 8:1 9:0 10:0 11:1.1 12:0 13:1 14:0 15:1 16:1 17:1 18:0 19:0 20:0 21:0 22:0 23:0 24:0 25:0 26:0 27:0 28:1 29:0 30:0 31:0 #
0.050693662450963954 1:0 2:3.8 3:1 4:0.02 5:0 6:1 7:0 8:1 9:0 10:0 11:2.0999999 12:1 13:0 14:0 15:1 16:1 17:1 18:0 19:0 20:0 21:0 22:0 23:0 24:0 25:0 26:0 27:0 28:0 29:1 30:0 31:0 #
0.050693662450963954 1:0 2:3.1600001 3:1 4:0.02 5:0 6:0 7:0 8:1 9:1 10:0 11:0.5 12:0 13:0 14:0 15:0 16:0 17:1 18:1 19:0 20:1 21:0 22:0 23:0 24:0 25:0 26:0 27:0 28:1 29:0 30:0 31:0 #
-0.031242695792004949 1:0 2:0.36000001 3:1 4:0.02 5:0 6:1 7:0 8:1 9:0 10:0 11:1.3 12:0 13:1 14:0 15:1 16:1 17:1 18:0 19:0 20:0 21:0 22:0 23:0 24:0 25:0 26:0 27:0 28:1 29:0 30:0 31:0 #
0.050693662450963954 1:1 2:0.28 3:0 4:0 5:0 6:1 7:0 8:1 9:1 10:0 11:0.1 12:0 13:1 14:0 15:0 16:0 17:1 18:0 19:0 20:0 21:0 22:0 23:0 24:0 25:1 26:0 27:0 28:0 29:0 30:1 31:0 #
0.050693662450963954 1:0 2:3.98 3:1 4:0.02 5:0 6:0 7:0 8:1 9:1 10:0 11:18.200001 12:0 13:0 14:0 15:0 16:0 17:1 18:0 19:0 20:1 21:0 22:0 23:0 24:0 25:0 26:0 27:0 28:1 29:0 30:0 31:0 #
-0.050693662450963954 1:0 2:0.89999998 3:1 4:0.02 5:0 6:1 7:0 8:1 9:0 10:0 11:1.9 12:0 13:1 14:0 15:1 16:1 17:1 18:0 19:0 20:0 21:0 22:0 23:0 24:0 25:0 26:0 27:0 28:1 29:0 30:0 31:0 #
0.050693662450963954 1:1 2:1.5 3:0 4:0 5:0 6:1 7:0 8:1 9:0 10:1 11:0.1 12:1 13:0 14:0 15:0 16:0 17:1 18:0 19:0 20:0 21:0 22:0 23:0 24:0 25:1 26:0 27:0 28:0 29:0 30:0 31:1 #
0.050693662450963954 1:1 2:0.36000001 3:0 4:0 5:0 6:0 7:0 8:1 9:1 10:0 11:4.9000001 12:0 13:1 14:0 15:0 16:1 17:1 18:0 19:0 20:0 21:0 22:0 23:0 24:0 25:0 26:0 27:0 28:0 29:0 30:1 31:0 #
-0.050693662450963954 1:1 2:0.83999997 3:0 4:0 5:0 6:1 7:0 8:1 9:1 10:0 11:0.1 12:1 13:0 14:0 15:0 16:0 17:1 18:0 19:0 20:0 21:0 22:0 23:0 24:0 25:0 26:0 27:0 28:0 29:0 30:1 31:0 #
-0.050693662450963954 1:1 2:0.54000002 3:0 4:0 5:0 6:0 7:0 8:1 9:1 10:0 11:0.1 12:1 13:0 14:0 15:0 16:0 17:1 18:0 19:0 20:0 21:0 22:0 23:0 24:0 25:0 26:0 27:0 28:0 29:0 30:1 31:0 #
-0.050693662450963954 1:1 2:0.54000002 3:0 4:0 5:0 6:1 7:0 8:1 9:1 10:0 11:0.1 12:0 13:0 14:0 15:0 16:0 17:1 18:1 19:0 20:0 21:0 22:0 23:0 24:1 25:0 26:0 27:0 28:0 29:0 30:1 31:0 #
-0.050693662450963954 1:1 2:0.41999999 3:0 4:0 5:0 6:1 7:0 8:1 9:1 10:0 11:0.1 12:0 13:0 14:0 15:0 16:0 17:1 18:0 19:0 20:0 21:0 22:0 23:0 24:1 25:0 26:0 27:0 28:0 29:0 30:1 31:0 #
0.050693662450963954 1:0 2:1.0599999 3:1 4:0.02 5:0 6:0 7:0 8:1 9:0 10:0 11:1.1 12:0 13:1 14:0 15:1 16:1 17:1 18:0 19:0 20:0 21:0 22:0 23:0 24:0 25:0 26:0 27:0 28:1 29:0 30:0 31:0 #
0.050693662450963954 1:0 2:1.74 3:1 4:0.02 5:0 6:0 7:0 8:1 9:0 10:0 11:1 12:0 13:0 14:0 15:1 16:0 17:1 18:0 19:0 20:0 21:0 22:0 23:0 24:0 25:0 26:0 27:0 28:0 29:0 30:0 31:1 #
0.050693662450963954 1:1 2:1.52 3:0 4:0 5:0 6:0 7:0 8:1 9:0 10:0 11:1.1 12:0 13:1 14:0 15:1 16:1 17:1 18:0 19:0 20:0 21:0 22:0 23:0 24:0 25:0 26:0 27:0 28:1 29:0 30:0 31:0 #
0.050693662450963954 1:0 2:4.2199998 3:1 4:0.02 5:0 6:1 7:0 8:1 9:0 10:0 11:0.69999999 12:0 13:0 14:0 15:1 16:0 17:1 18:0 19:0 20:0 21:0 22:0 23:0 24:0 25:0 26:1 27:1 28:1 29:0 30:0 31:0 #
0.050693662450963954 1:1 2:1.26 3:0 4:0 5:0 6:1 7:0 8:1 9:1 10:0 11:0.1 12:0 13:0 14:0 15:0 16:0 17:1 18:1 19:0 20:0 21:0 22:0 23:0 24:0 25:1 26:0 27:0 28:0 29:0 30:1 31:0 #
